0
0.018847853
0.010467495
0.013185077
-0.0012625633
-0.0061044767
-0.004205745
-0.0043690973
-0.0026070888
0.012343915
0.0020431862
-0.0063648825
-0.01084344
-0.022885548
-0.0011699827
-0.0024889584
0.009442706
0.011525554
-0.0143762715
-0.0036728557
-0.012396236
-0.005404255
-0.009605042
-0.00048769524
-0.0032786247
-0.0019688148
0.0044173063
-0.006594225
0.0055391346
-0.015501325
-0.0026064415
-0.0020631345
0.00049886183
0.00899637
-0.0038657493
-0.00056133163
-0.010217476
0.008045058
-0.008057711
-0.0043427274
-0.009654176
-0.010623241
-0.00895614
-0.0052717878
0.019590935
3.3359658e-05
-0.018150467
-0.013405424
-0.015190446
-0.012145224
-0.0026865865
-0.0047719963
0.01116974
-0.0054589077
-0.0055249007
-0.0029189135
-0.014487993
0.012161068
0.0026915777
-0.01655788
0.0020542548
-0.0050459686
0.0056632026
0.00030096484
0.0013253369
-0.015417926
0.079218514
0.0020434768
0.011440596
-0.00014610119
-0.022977447
-0.010043024
-0.0027003877
-0.0066622905
0.0009969849
0.0070068003
-0.014354126
-0.0031587372
-0.0036022367
-0.000874431
-0.005521625
0.0033897958
0.0037727305
-0.008939438
-0.010290376
0.016330972
0.007295601
-0.00169851
0.015739804
-0.009810422
0.003476515
0.017483614
-0.008784157
-0.0071115517
0.0012884173
0.010957233
0.0044008526
0.009430794
0.003952212
-0.00034102242
-0.0052520027
