0
-0.00395886
-0.007270899
0.0045538577
-0.0110505875
0.0003158188
-0.003983864
0.011179832
0.008904777
0.007436979
-0.0029809307
0.0022940561
0.00886778
0.004290461
-0.0022752811
-0.0044234795
-0.0047234287
-0.0053795646
-0.0018342553
-0.00027221156
-0.002819683
-0.0017553313
-0.013314013
-0.001079594
-0.008366357
-0.00096683984
0.0070782206
0.00040679003
-0.0027705892
0.0067234645
0.0048299697
-0.010551458
-0.0036816886
-0.001426358
-0.004671831
-0.0049541793
-0.00347612
-0.0031559854
0.005129294
-0.024200177
0.001180359
0.00078445557
-0.016887086
-0.00478139
-0.004694579
-0.01243622
-0.004098475
-0.006094487
-0.009076356
-0.012606155
-0.004227002
0.007198209
3.3200977e-05
0.0076702894
-0.03535835
0.0033315811
-0.009581194
0.0010564807
-0.0038790435
0.0051171547
-0.008140336
0.008124703
-0.010176208
0.0038150963
-0.0051744757
-0.016964283
-0.009505094
0.0033459617
-0.0065625114
0.0059224362
-0.00120954
-0.013124532
0.0046465932
-0.020540398
0.011089887
-0.0015215684
0.0039518136
-0.0070452336
-0.012896969
0.009777512
0.00060509733
-0.01899039
0.0034574633
-0.0062394193
-0.0010598687
0.01513586
-0.00019345584
-0.017632524
-0.0014797293
-0.011997544
0.005059127
-0.0062860143
0.0011835003
-0.0060243425
-0.016762514
-0.004229461
-0.013343742
-0.004750242
-0.009206838
-0.0059363814
0.004161919
