0
-0.013871802
-0.00041489885
-0.0002408489
-0.0042130277
-0.004464885
-0.006107403
0.0036538006
-0.0002465786
-0.006460411
0.004902226
-0.005679649
0.0847154
-0.012237119
-0.0034559197
0.0010652842
0.007794273
-0.010838652
0.012389141
0.012747683
-0.001370547
0.0030573606
-0.004194609
-0.02830201
-0.0061404216
0.00909183
-0.0027504948
-0.010652765
0.0030426346
-0.0057410933
-0.024752332
0.0008624621
0.013839687
0.009079436
-0.01066186
-0.0012637649
0.01660217
-0.011044434
-0.016435863
0.046488095
-0.0047310684
0.012479018
-0.014443759
0.017453333
0.011699438
-0.006793076
-0.016955717
0.017059041
-0.014986193
0.011424075
-0.016625488
-0.016862983
-0.013807827
-0.014238023
-0.026284762
-0.015553846
0.03306663
-0.010586638
-0.006743189
-0.030842956
-0.0016797057
0.010878798
0.008535999
-0.013410321
-0.0069170096
-0.0028866923
-0.002473201
0.0022681225
-0.034455277
0.005368201
-0.014914626
-0.003952234
0.015608485
0.0030564882
-0.0015485618
-0.010613296
-0.003753904
0.009043644
0.014461735
-0.026529416
0.0063403468
0.02344768
0.010438787
-0.0049660406
-0.047959358
0.006699677
-0.00026440845
-0.0016666779
-0.00065661134
0.00696913
0.008167677
-0.012973485
-0.009135342
-0.009503286
0.0035136316
0.0015828098
-0.011896406
-0.012510437
-0.004018255
-0.027936341
-0.014957513
