0
-0.018459592
0.0033093272
-0.008961995
-0.010613264
-0.014166758
-0.0040710885
-0.006957426
0.005573427
-0.00054395356
-0.007486658
-0.0035004327
-0.0068861446
0.0084380945
-0.006880898
0.0034550503
-0.010241195
0.004397104
-0.0057013235
0.009232314
-0.006688193
-0.009205101
-0.015054211
-0.007303291
-0.010405277
0.0004919662
-0.0037962522
-0.000621206
-0.0059420927
-0.005836014
0.003991647
-0.0062170145
0.0007762871
0.006326996
0.045484044
0.01937704
-0.0030173112
-0.0059023984
-0.001021758
-0.008664127
-0.024952592
-0.008563009
0.004131285
-0.011293411
-0.014072006
0.021165736
-0.0060450323
-0.0059084846
0.00105525
0.0027058152
-0.012120077
-0.005074074
-0.008672304
-0.015933031
0.0010570921
-0.014213876
0.0067410823
0.0021524301
0.0027350907
0.00039556235
-0.010619818
0.0020861155
-0.0011993297
-0.0005109291
-0.019494012
-0.0052497876
-0.008485157
-0.01051803
-0.00142511
0.0005577198
-0.00076131395
-0.0014964303
0.0011406924
0.0017507452
-0.011187515
-0.0034937123
-0.017459406
-0.007754519
-0.0070293723
-0.0068449685
-0.004168565
-0.0029941706
-1.1400145e-05
0.003092662
-0.0069287834
-0.004311959
-0.002468984
-0.0032799093
-0.0036881068
0.00115052
-0.0017601012
0.0005665787
0.011483667
-0.004244351
0.0072770193
0.005622276
-0.005959437
-0.013944016
-0.009463933
-0.0027947463
-0.007363932
