0,1,2,3,4,5,6,7,8,9,10,11,12,13,14,15,16,17,18,19,20,21,22,23,24,25,26,27,28,29,30,31,32,33,34,35,36,37,38,39,40,41,42,43,44,45,46,47,48,49,50,51,52,53,54,55,56,57,58,59,60,61,62,63,64,65,66,67,68,69,70,71,72,73,74,75,76,77,78,79,80,81,82,83,84,85,86,87,88,89,90,91,92,93,94,95,96,97,98,99
-0.04144795,0.22048533,-0.11376713,0.25500792,0.025813943,0.022082888,0.08771785,-0.17527394,0.25683758,0.037283912,0.18181439,-0.16916303,-0.120749876,-0.09317157,0.240899,-0.23844361,0.18812601,0.20660408,0.07387752,-0.17611016,0.017998077,-0.11958176,-0.049674466,-0.17408215,0.1593118,0.0162299,0.20671108,0.019155486,0.16462974,-0.19419816,-0.056247003,-0.04651432,0.07378208,0.22143051,0.18695004,0.14268379,-0.06240884,-0.09923716,0.016651388,0.08873392,-0.15422408,0.16314897,-0.08880907,0.08037582,-0.0019059776,0.25683638,-0.07201223,-0.08526389,-0.10504945,-0.1694134,-0.14004909,-0.059052363,0.26336855,0.091620676,0.010828384,0.00784939,-0.09569662,-0.0025825666,0.055902775,0.19394572,-0.097096115,0.21225968,0.25139415,0.09289015,0.11808558,0.08400943,-0.29532418,-0.21619913,-0.046429813,0.16471478,0.05420152,0.19168966,0.021439195,-0.27708992,-0.14932784,-0.04018531,0.042447522,-0.05123584,-0.2746304,-0.16766557,-0.17635459,0.25838876,-0.15788107,0.098047756,0.10861932,-0.079666026,0.03856345,-0.06520355,-0.2438098,-0.19801094,-0.18893969,-0.08493393,-0.2050086,0.08312558,-0.028190572,0.026773943,0.06676595,0.0071671377,0.31395504,0.012561947
-0.28459036,0.1543725,-0.08686348,-0.0710128,-0.2731973,0.017242104,0.03000465,-0.10722674,0.19551256,-0.23683333,0.25818896,0.017600084,0.15344407,-0.08577278,0.16268076,-0.22530065,-0.102168776,-0.18027192,-0.19345655,0.022545548,0.022457125,0.1027232,0.25245732,0.25041428,-0.097688146,0.10373516,0.13771093,-0.28381118,-0.043924443,0.053666163,-0.08022192,-0.17075045,0.111347474,0.24012007,-0.15134874,-0.17397535,0.13484035,-0.047338165,0.013765151,0.1744229,-0.14949605,-0.1864084,0.002783755,-0.043325026,-0.0023527911,0.07765473,0.11456169,-0.10439785,0.19225158,0.024878101,0.09112592,-0.13326344,-0.071447626,0.009224908,-0.29441875,-0.16843633,0.03006785,-0.16376682,0.15161541,-0.28166944,0.08909221,-0.05882637,0.07043234,-0.012803175,-0.18236502,-0.07232973,0.15501001,-0.26278907,-0.039049484,-0.12605783,-0.018274285,-0.07557041,0.06240699,-0.0487619,0.04115179,-0.10866126,-0.11483935,-0.03603466,0.0009225577,-0.2641619,0.039914135,-0.2088174,0.12220133,0.2553302,-0.06641495,0.11887181,-0.124869384,-0.050075114,-0.23178697,-0.21924818,0.017330498,0.044707637,-0.021669734,0.03317879,-0.17965996,0.090263404,0.100085035,0.029500239,0.19290452,-0.0862634
0.05021998,-0.080243774,0.011146644,0.045190264,0.09106512,0.20719586,-0.06390028,-0.17270826,0.02752618,-0.21883291,0.03526372,-0.13739222,0.17625444,0.07166437,-0.10738252,-0.107637756,-0.27799207,0.18071567,0.021560047,-0.04598787,0.08344553,-0.13452789,-0.040484685,-0.03923585,0.045569047,-0.020754274,-0.15047109,0.22224896,-0.18477418,-0.16506793,-0.15751486,-0.16103218,0.22119735,-0.15530449,-0.086422935,0.104830265,0.1580167,0.07203008,0.077671915,0.10640912,-0.17076604,0.18173078,0.039682288,-0.03225577,0.069330186,-0.05739351,-0.056629863,-0.015416957,-0.21531682,-0.10427917,0.11696621,0.032843616,0.06256898,0.19250357,0.17954707,0.19592565,0.3004712,0.27438733,0.14307527,-0.17861913,0.13940632,-0.022480866,0.033772454,0.010092816,0.09602586,-0.059492663,0.104079396,0.0842609,0.14998934,0.14407241,-0.042017747,0.049992483,-0.06582031,-0.28463393,-0.2526687,-0.21514937,-0.10142601,-0.010788575,-0.026152652,0.21047755,0.04206391,0.007044235,0.18612729,0.00079041097,0.07243347,-0.007191583,0.046115004,-0.17838089,0.28249386,-0.10576818,0.1770964,0.15426017,-0.104957804,0.19847204,0.28784946,0.20655698,0.075462446,-0.067553505,0.05746307,0.044784617
0.017768376,-0.033651657,-0.02026728,0.24083485,0.1545209,-0.005841881,0.06742532,-0.048091345,0.14718576,-0.1704972,-0.0035573766,-0.009331965,-0.0036559233,-0.15385582,0.20847568,0.04213674,-0.056650817,-0.10314391,-0.08311034,0.0035213623,-0.07947512,0.15082319,0.009247622,0.15580398,0.012454871,0.24042213,0.09620193,0.0074569276,0.040891588,0.013240989,0.08941609,0.17448032,0.030920548,-0.12367355,0.11194038,-0.00321718,0.10312631,0.14678499,0.20869245,0.04712205,0.014650998,-0.09662755,-0.05127254,0.28189826,-0.03344465,0.22011371,-0.21286964,0.0010351752,-0.08493689,-0.14850742,-0.08744621,0.18037744,0.052363545,0.07238341,0.19899355,0.007827302,-0.09554711,0.01804849,-0.07056754,-0.06764358,-0.16265449,0.14072318,-0.13080531,0.051934145,0.27785575,-0.14436969,0.07902246,-0.20710878,0.09225827,-0.094650514,-0.07155713,0.2855287,0.0933811,0.15039794,0.18291451,0.056491017,0.12346163,0.033651475,-0.017770985,-0.2512944,0.14577712,-0.103939496,0.14815482,0.121472426,-0.055657648,-0.13316719,0.33321854,-0.1400183,-0.012502586,-0.1533462,0.19057779,-0.13764426,-0.2577766,0.13136517,-0.06369501,0.024222456,0.08369621,0.13337448,0.0121494355,0.06485271
-0.17656161,0.0052807643,-0.119966775,0.08843411,-0.27761632,-0.08939598,0.041841757,-0.2532485,0.0008875456,-0.028582718,0.018161586,0.032341916,-0.18558924,-0.20525798,0.047328938,0.15191008,-0.17812052,-0.15994908,0.1310122,-0.07078046,-0.058462657,-0.015545827,-0.25348708,-0.24491179,0.072020166,0.0545501,0.065913156,0.006539809,0.07822602,-0.18488184,0.097800925,-0.020016206,-0.21004146,-0.065909006,-0.16993128,0.09327726,0.18062924,-0.11110119,-0.1681983,-0.11688958,0.08168894,-0.13883165,-0.042163964,0.22209145,0.15597324,0.19426225,0.016890828,-0.300166,0.15206283,0.124442704,0.043865323,0.12939623,-0.15073057,-0.08934557,0.12777503,-0.0027745375,-0.028547442,-0.0908,0.1152032,-0.049682736,-0.09632793,-0.16729015,0.17848237,-0.04914667,0.07542873,0.12064343,-0.0721357,0.16562508,-0.08931181,0.19651605,0.2007264,0.20962639,-0.105621,0.05539082,-0.24017951,0.07902703,-0.2360887,0.025903866,-0.08746681,0.17237446,-0.100838944,0.10601247,-0.026225353,0.050957292,0.21837896,0.09989304,0.045607276,-0.066186935,0.09876569,-0.31291443,-0.026746154,-0.00089750136,-0.2006614,0.22331336,-0.30575475,-0.08202451,-0.023094792,-0.05685716,-0.11164901,-0.20618556
-0.17757344,0.10068659,-0.09200624,-0.009925583,0.056461956,0.07243827,-0.0519001,-0.013336814,0.16411592,-0.07823768,-0.046210032,0.03402672,0.10008276,0.038773384,0.00050584227,-0.18362527,0.25160232,-0.007125166,-0.28190777,-0.07374056,-0.004849223,0.16567956,-0.099038325,-0.18553463,-0.30463666,0.29148787,0.17078611,-0.08835327,-0.20961636,-0.26364315,-0.052169785,-0.04653353,0.028492669,0.015577581,-0.0015109465,-0.3131936,0.24223211,0.16624127,-0.17169774,0.044938195,-0.091784894,-0.11641645,0.019326234,0.20432416,-0.037672143,0.22704859,0.082991384,0.11196948,0.12761642,0.21963212,0.049885586,0.0657155,-0.19176419,0.17519969,0.0820177,-0.18554163,0.1936568,-0.1004545,-0.28950328,0.15703762,-0.059118073,0.060045812,0.10174379,-0.0004986422,-0.16929998,0.08064297,0.19592196,0.1533915,0.22334333,-0.031401258,0.09751894,0.1488826,-0.30505374,0.0634059,0.033434447,0.23934282,-0.036877144,-0.06391311,-0.06780226,-0.12421182,-0.100969404,-0.16181864,-0.15265827,-0.16609575,0.23533268,0.023969974,0.1420857,-0.020950316,-0.2092211,0.061934303,-0.026159458,0.024991563,-0.113303944,0.051515456,-0.07898659,0.027134132,0.11787813,0.1293498,-0.08196998,-0.15535137
-0.10048913,-0.1916604,-0.116985254,0.059128243,-0.19470014,-0.25344786,-0.102425024,0.053216293,0.047041368,0.04495415,0.26018646,0.107898794,0.059204403,-0.05995369,-0.23314595,-0.084001906,-0.17268136,0.12736553,-0.0831807,0.04111097,-0.084705256,-0.1990787,0.09098672,-0.010661719,-0.07326165,-0.08903452,0.24971454,0.00015808878,-0.0021803612,0.15143129,0.09630041,-0.029765349,-0.054575723,0.04437236,0.09122399,0.016399594,-0.24183144,-0.15814231,-0.08033324,-0.12231172,-0.16774303,0.0855471,0.035362978,0.07283088,0.0050388942,-0.10692269,-0.023293447,-0.050321158,-0.24743515,0.15675658,0.054649483,-0.21080591,0.12455883,0.019678254,-0.004986137,0.2954716,-0.2713275,-0.1834747,0.037615985,0.06534541,-0.04006418,-0.061593357,0.07574768,-0.17155041,0.016179916,0.20845816,0.025542006,-0.010247584,0.069236994,0.06372381,-0.030033618,-0.10981515,-0.18298477,0.10848317,-0.16927887,0.11218571,0.041697998,0.030408084,-0.11594954,0.0019056522,-0.21617715,-0.19238482,0.076044515,0.0067863786,0.013192914,-0.07064852,-0.1356271,-0.054030668,-0.14417551,-0.016576206,-0.013120569,0.27833173,0.18329036,-0.28374612,0.06938837,0.01124972,-0.21357055,-0.20050456,-0.034170724,-0.13963705
0.16953039,0.14454508,0.0570664,0.21979584,-0.09332772,-0.2348308,0.28389242,-0.063639365,0.064840704,-0.20786381,0.12275574,0.02158481,0.063437395,-0.06627984,-0.063701175,0.08752672,-0.1611225,-0.010046202,-0.14537154,-0.25127697,0.09645174,-0.025519226,-0.23995787,-0.31985423,0.00903466,0.24200001,0.0724521,-0.22120142,-0.005268621,-0.1530256,-0.014917662,-0.12965456,-0.06022524,0.045254864,0.10934368,0.13669915,-0.19677205,0.001966033,0.029614843,-0.16847952,-0.17502658,0.10565306,0.030481152,-0.04541967,-0.10348207,-0.102816194,0.12686896,0.030284591,-0.1379991,-0.10074579,0.02294316,0.13143936,-0.1832925,0.00018279652,0.22722898,0.1629081,0.06805508,0.008315119,-0.032043695,-0.040115565,-0.21719019,-0.026005922,0.07145764,-0.04120466,-0.122954,0.21502998,-0.11887838,-0.19496797,0.2120347,0.100502916,0.051547512,-0.08799812,0.020455725,0.030690376,-0.07640123,-0.05862683,0.07986957,-0.17589831,0.19789252,0.06755532,0.19206892,0.17266993,-0.06619353,0.1631608,0.06544237,-0.011268655,-0.16308379,0.18492335,-0.048724838,0.09912961,-0.26194224,-0.09021782,0.14231768,-0.01995721,-0.14499347,-0.2676631,-0.018462751,-0.13886498,0.13611214,-0.12200085
0.30633846,-0.057765745,-0.07982856,0.07858992,0.026721487,0.21177706,-0.105577566,-0.12307638,-0.018013978,0.19031133,-0.22826198,-0.100172766,0.14643374,0.09856589,0.21798544,0.1981347,0.11826217,-0.048035607,-0.051822,0.095717594,0.18144228,-0.26306823,0.07457782,-0.12811221,0.30004305,0.09440974,-0.15781818,-0.23341863,0.1215882,-0.13531074,-0.0012209541,-0.011923102,0.08431933,0.11454797,-0.11703562,-0.11005168,-0.07763794,0.057503745,0.1324542,0.0029039108,0.097652175,-0.017070634,-0.10807761,-0.12063675,-0.098672196,0.1448258,-0.015005265,0.037624918,-0.16017543,0.041005947,0.081707455,-0.04942193,-0.042513095,0.0013086858,-0.17665307,-0.017137252,0.19335864,0.09879733,-0.054531854,0.06339661,-0.062118344,-0.054502845,0.24103612,-0.3033197,0.17434435,-0.10832631,0.12339642,-0.24428244,0.3015357,-0.09978606,0.03319289,-0.1156168,0.21702929,0.08636309,-0.010640492,-0.0934836,-0.040944662,-0.24918084,0.20242007,0.16256046,-0.32052717,0.16448574,0.15217564,-0.044114884,-0.14655516,0.013771528,-0.20694287,0.07524818,-0.19151051,0.022089845,-0.0681813,-0.19125684,0.21631639,0.2039834,-0.25627157,0.13371778,0.022163918,0.058422655,0.13727303,0.12596957
-0.08980016,0.10513349,-0.1336995,-0.028518885,0.10929392,-0.13242464,-0.21235746,-0.2288229,0.024914961,0.07905229,0.08988047,0.05368571,-0.16607638,-0.114131354,-0.0552382,0.23731531,-0.1509392,-0.10551297,-0.033103425,-0.07757184,0.053982023,-0.07581318,-0.117519885,-0.19671248,-0.15992337,-0.09816982,-0.21037433,0.00040189957,-0.20303886,-0.030515019,-0.06757198,0.1135391,-0.25861603,0.030736087,-0.06950867,0.04945515,0.23447894,0.117820196,-0.19523834,0.004865628,-0.12713622,-0.1352685,-0.045689926,0.14337242,0.07171947,0.0134581225,0.21424475,-0.18082164,-0.19581398,-0.13064986,0.0121862115,-0.047034126,-0.28662422,0.2840021,-0.11016493,0.110810906,0.0729464,-0.0038121876,0.042646475,0.21110868,-0.0984302,-0.29073232,-0.054625914,-0.08320763,-0.20840427,-0.2655699,0.21358268,0.26819518,-0.117975585,0.12137114,0.24040467,0.26294008,-0.07332525,-0.18352523,0.17949645,0.17745243,0.027836734,0.12250253,0.16081175,0.16557166,0.17717417,-0.0467151,-0.24403004,0.07832868,-0.034740195,0.022970054,0.14161643,0.037667684,-0.07330703,0.19190933,0.053879544,0.00022254736,-0.088594325,0.22389986,0.2623504,0.13401885,-0.24013321,0.17092037,0.1018744,-0.18349148
-0.03496217,-0.06944585,-0.041102767,0.29122552,0.16412216,0.025716804,-0.15104422,-0.115783714,-0.032123506,-0.05256322,-0.068473846,-0.05345943,-0.016307522,-0.114842735,0.027026135,0.12533395,0.13092455,0.18129767,-0.09784685,-0.087917514,-0.08599498,-0.052339945,-0.25593856,-0.0939725,-0.093050234,0.11469217,-0.09822933,-0.041363273,0.046536647,-0.15252633,0.027770532,-0.16332299,-0.17297052,-0.30173248,0.0011354627,-0.12899873,0.071941964,0.093377076,-0.12552504,-0.13464782,0.18749869,0.2530844,0.17222184,0.03720535,-0.073083036,-0.017756093,-0.019939207,-0.1953303,0.14038377,0.018580804,-0.016426105,0.2865782,-0.24936774,-0.0775387,-0.22849815,-0.008219,-0.051217582,-0.037147097,-0.08169515,0.13422884,-0.1087988,0.13164708,-0.19907255,-0.06361545,-0.054117315,-0.008080701,-0.17921354,0.07996089,-0.05551695,0.035101376,0.025550043,-0.15834048,-0.15343365,0.10088721,0.049762752,0.11989519,0.02594253,0.028414473,0.09158295,-0.1305867,0.13870521,0.08140044,0.035123773,-0.07368011,-0.006053779,-0.10516745,-0.17762169,-0.08991567,0.038327973,0.12937364,-0.15779191,0.050425436,0.13709037,-0.17839997,0.11234424,-0.06134924,-0.11642021,0.19141187,-0.19638808,-0.036188044
0.14903694,-0.009874235,-0.217995,0.043326315,0.0964223,0.035096824,-0.22484648,0.047549073,-0.028279144,0.19524069,0.17063917,-0.2514333,-0.09605894,-0.018303912,0.11852401,0.047094774,0.106235586,0.0552994,0.0032073064,0.20612705,-0.008149411,0.059438802,0.20576616,0.22441545,0.18384697,-0.14263257,0.11437621,0.3102937,0.17135528,-0.0010399937,0.22907983,-0.036357123,-0.23565571,-0.108371206,0.110234454,0.09951277,0.11968351,-0.073064394,0.23874256,-0.03707793,-0.18179496,0.10142041,0.08496851,-0.05887304,-0.19688682,-0.13827983,-0.17476365,-0.06407808,0.09532739,-0.06236348,0.07780642,0.21426676,0.079754695,0.16904701,-0.019372417,0.06099217,-0.14926448,-0.061773308,-0.15484455,0.00056655094,-0.23717925,-0.18648325,0.19843382,0.093388595,0.0071629803,-0.0077646496,0.006354991,-0.030556113,0.17454304,0.15906839,0.09696207,0.011036174,-0.1116071,0.25938952,-0.02407534,0.06756087,-0.0926349,-0.18197036,0.06452446,0.15450384,0.22055201,0.20692374,0.1480696,0.08567185,-0.12484315,0.06813447,-0.037533015,-0.057551157,0.1698794,-0.20242664,-0.11467678,-0.12812135,-0.10144837,0.013952044,0.06684194,-0.10683895,-0.03618668,0.12838098,0.050492156,0.058745123
-0.18156913,-0.16802341,-0.0045763114,0.10739136,-0.14258754,-0.15759788,-0.3170349,0.12685022,-0.08484215,-0.24695584,0.07851782,0.12879956,-0.047274325,0.018098602,0.018787526,0.029398412,-0.034472436,-0.11431064,-0.030932937,0.15479167,-0.045757838,0.055102352,-0.0024577593,-0.067061394,-0.26805502,0.09538898,0.05235344,-0.14823633,-0.030000567,0.0657235,-0.048480548,0.06958331,0.011187517,-0.12118018,0.22785571,0.09316909,-0.108482465,-0.28178683,0.22657028,0.034442887,0.23168479,-0.09235264,0.11150734,-0.0010050482,0.02006587,0.24902545,0.061813086,0.26428595,0.15903755,-0.0723323,0.084917225,-0.28089434,0.0043535857,-0.31091538,-0.15865755,-0.11216326,-0.1773988,0.030991497,-0.23759826,-0.08673922,0.20455244,-0.038811874,0.00097621867,0.18484417,-0.071731225,-0.12504525,0.24961138,-0.11133023,-0.08357998,0.0731868,-0.18417811,-0.23484655,0.0007599931,-0.2906347,-0.1305052,-0.20060308,0.1167976,0.03979152,0.29933295,-0.25275952,-0.07537871,-0.25383997,0.055448763,0.19952846,-0.13314039,-0.10279574,0.20808111,-0.33102095,-0.17082727,0.050532825,0.07402823,0.18446857,-0.018186701,0.023742568,0.20419143,0.28722534,0.1110739,0.19205284,-0.13020971,-0.13171336
0.24831446,-0.30779552,-0.21287927,-0.08149852,-0.021916553,0.039022632,-0.124956496,-0.15566209,-0.08655319,-0.15820575,-0.20981024,-0.08738704,0.2488542,-0.22303319,-0.06477108,0.0727625,0.013757007,-0.17848971,0.05906765,-0.026077619,-0.057662033,0.04814438,0.04630174,-0.026414817,0.05352249,-0.2848237,0.09549606,-0.2614231,-0.06635034,-0.17764336,-0.16391419,-0.017581467,-0.011614782,0.058846824,0.22512715,-0.065925926,-0.09934856,-0.04893806,-0.0026738497,-0.12514766,-0.0012933967,0.09371299,0.17913434,0.082419075,-0.15443406,0.24732535,0.09288426,0.10677077,0.20448229,0.075269446,0.23480046,0.1852667,0.040680055,0.0101137385,-0.26048526,0.013227331,0.21644324,0.31086487,0.10462212,0.068361245,-0.05164789,-0.13921827,-0.055979025,-0.06863825,0.14299883,-0.017968412,0.03399717,-0.06807452,-0.21604387,0.05488753,-0.2326637,-0.051530994,-0.26376382,0.11311446,-0.04936957,0.0021156739,0.12221985,0.17060275,0.16970055,0.0114827845,0.030444512,0.16309537,0.18371442,-0.2495417,-0.00067712134,0.29505596,0.114664175,0.15986782,0.04817382,0.21068409,-0.2271452,-0.09908094,0.058851246,-0.24978136,0.0052665626,0.034437887,0.09257214,-0.2749475,-0.11084507,-0.04453241
-0.15728201,-0.014911161,0.013072508,-0.28348336,0.20752689,-0.12326803,0.1923602,0.021901952,0.11394312,0.1970302,0.039376512,0.17573355,-0.20726621,-0.21902834,0.10378082,-0.22287872,-0.086890504,-0.010237098,-0.0474111,-0.31067416,-0.1914577,-0.1289604,-0.07094636,-0.09813286,-0.042667247,-0.018022638,-0.16714282,0.011238103,-0.16357324,-0.07582904,0.110983044,0.099029645,0.0033830095,-0.073660485,-0.2195705,0.050490957,0.09261947,0.07064722,-0.017969655,0.09457498,-0.11080569,-0.10206182,0.22596554,0.26561424,0.117740355,0.060847305,-0.07969941,-0.12215083,0.098082274,-0.04893401,0.12509006,-0.00014343213,-0.14406316,0.16750984,0.045212142,-0.13091242,0.07035923,0.016529184,-0.2331089,0.1904061,-0.04609852,-0.075768255,0.25218946,0.11927159,0.22130463,-0.014073838,0.047846038,-0.19401737,-0.003538818,-0.044765152,-0.01625564,-0.13235115,-0.000533987,0.2600848,0.037966635,0.11191945,0.110240206,0.23761304,0.14955722,0.17656553,0.014875969,0.11936176,-0.060410056,-0.15027028,-0.08505198,0.11499009,-0.002813179,-0.031940028,-0.25145248,0.10495027,-0.037914433,-0.15258788,-0.047119785,0.13222596,0.03855952,-0.023218095,-0.15370539,0.052888867,0.0475047,0.08277896
0.11292624,0.16421181,0.24592914,-0.0012744655,0.10975923,-0.051294092,-0.14543179,-0.03480076,-0.19403245,-0.11432657,0.26751986,0.13713883,-0.22087938,0.14240693,0.12588604,-0.052626494,-0.17988977,0.08323073,-0.026053803,0.25992098,-0.16774642,0.07225479,-0.11897931,-0.11059871,0.17627563,0.19779658,0.08513476,0.24689856,-0.16192758,-0.02170135,0.061157785,-0.18611331,0.07873547,0.015257158,0.010300788,-0.029352011,-0.05671716,-0.06677755,-0.24286738,0.14586057,-0.05291693,-0.2957315,-0.15525691,0.07019784,0.14646626,-0.07560938,0.027747743,0.07988236,0.07181776,0.047141362,0.11841772,-0.07961107,0.027646841,0.022047818,-0.14471832,0.10067339,0.02133631,-0.08931497,-0.07215958,0.022857016,-0.12785666,-0.14671984,0.11445878,0.18692793,0.09319991,0.0851393,0.06315979,-0.19671391,0.060380507,0.28855956,0.15907666,0.03699843,0.04891832,-0.06947616,-0.25226825,0.2713155,0.28495982,-0.20623997,0.054248106,-0.05573244,0.11447226,0.05670842,-0.23905367,-0.005642274,0.25582027,0.13407883,-0.09038946,0.28640768,0.28898534,0.108469985,-0.11641664,0.19972602,-0.15295622,-0.09319827,0.074995756,0.12621503,0.082735494,-0.10451506,0.32061115,-0.07034932
-0.05138394,-0.045000713,-0.05650746,0.011453933,-0.27826968,-0.15725227,0.2930781,-0.10908348,-0.02436103,0.10440825,-0.21033482,-0.1724059,-0.073822744,0.050843798,0.14266646,0.06874476,0.07881952,0.25858334,-0.063154206,-0.0018069164,0.2331595,-0.078094244,0.052198768,-0.12374178,0.17835134,-0.039351173,-0.18181238,0.19831865,-0.06959464,0.033004645,-0.06712864,0.0011311112,0.195449,-0.09024602,-0.09930816,0.17258841,0.21019071,-0.20762712,-0.06017067,-0.022608722,-0.23946922,-0.07291297,0.15618668,0.12093499,0.21047024,0.2042371,0.04739446,0.101661034,-0.016736796,0.20858207,-0.07556299,-0.063000485,0.17490757,0.121794306,0.0015186451,0.13116804,0.1301448,0.041643392,-0.006296219,-0.032988522,-0.16244724,0.26102117,-0.062887914,0.063690625,0.2183321,0.14207396,0.15973794,-0.15858355,-0.095208794,0.1882323,-0.14320035,0.016596219,-0.08933007,-0.08273317,-0.034807745,0.06048356,0.08785325,0.15449038,0.22901593,0.25837293,0.22538769,-0.004001577,0.16708748,0.05319311,0.12234266,-0.02242751,0.225774,0.05940047,-0.06490536,0.24482396,-0.21057734,0.038675535,0.09984751,-0.034592133,-0.0021833947,-0.11153493,0.08105694,-0.08108263,0.20828709,0.32252237
-0.015492705,0.03539523,0.1841897,0.0023520072,0.19756301,0.018881986,0.093612835,0.10290642,0.105486825,0.023823654,0.047827788,-0.010902924,-0.02323715,-0.11448164,-0.07415089,0.20273423,-0.0803153,-0.11116316,0.06549023,-0.23340973,0.012351984,-0.15792,-0.085075535,0.18743181,-0.07397111,-0.15195794,-0.35456973,0.133025,-0.02223455,-0.16863243,-0.20425516,-0.23373301,-0.08218767,0.05316748,-0.14460067,-0.022462985,-0.009204225,0.12687737,-0.021058358,0.04247664,0.18747295,-0.119279474,-0.15047152,-0.19216712,-0.106594115,-0.119326346,0.12972933,-0.24060558,-0.17244703,0.24329089,-0.11565149,0.06468406,0.12928157,0.08995735,-0.17747892,-0.04637214,-0.04827017,0.2018361,-0.052693974,-0.30684605,-0.19331352,0.10448197,0.057051115,-0.06756582,0.23147137,-0.077344716,-0.28529727,-0.15450653,0.08365366,0.017851798,0.17380035,0.08330042,-0.080175884,-0.12105444,-0.22229879,0.17835088,0.2208555,0.034481123,0.220625,0.077170536,0.010812397,0.0069936877,-0.12928022,0.08127285,0.028835319,-0.07230083,0.1178009,-0.034451418,-0.11564172,-0.05371532,-0.1335724,-0.08242383,0.10239031,0.09481892,-0.04911004,-0.166406,-0.041964214,0.16747549,0.18261,-0.04258799
-0.14790086,-0.11830668,-0.06707259,-0.08945218,-0.09511027,0.108511776,-0.039306074,-0.15291505,0.19307595,0.08304397,0.12227741,-0.17896497,0.13671692,-0.2697903,-0.054840628,-0.0677848,-0.120027974,-0.05269968,0.2434432,0.10432245,-0.14694779,-0.14660929,-0.19383071,0.15573454,-0.24410604,0.1357875,0.20211864,-0.14310697,0.17163183,-0.026522977,-0.011036622,0.23107263,0.0067275376,-0.18520837,-0.059918847,0.24296275,-0.08000444,0.08488243,0.3049289,0.01751878,0.085768946,-0.14971553,0.037541553,-0.21615058,-0.11449254,0.04364748,0.10151651,0.0919867,0.017965902,0.25761637,0.047090746,-0.017079983,0.18183526,-0.14697255,0.09058336,-0.0314718,0.03814764,-0.11656826,0.063850306,-0.20163901,0.10925516,0.17408942,-0.019718915,-0.009122721,0.1161548,-0.0035099802,-0.15381168,0.048209693,0.02915052,-0.30024722,-0.17298177,0.07948304,0.21003285,0.021677477,0.0052347947,-0.11617193,-0.20194444,-0.27771625,-0.05546858,-0.30775356,-0.25049993,-0.02096335,0.023020329,-0.0025278481,0.11417747,0.059789278,-0.0960711,-0.06429797,-0.2531906,-0.068210565,0.2585874,0.06022533,-0.20353313,-0.071359545,-0.28653774,0.29410717,0.030119117,0.032616656,-0.10261796,-0.157393
-0.17692234,-0.100485265,-0.06671378,-0.05903517,0.014780259,-0.1269236,-0.22841099,-0.09839027,-0.17142874,0.21067771,-0.0043991534,0.0666348,-0.07288003,-0.22395605,0.094731145,0.012248147,0.012427238,0.086011365,0.0077010687,0.0021821188,0.041114125,0.057653755,-0.06168962,0.17838292,0.072939254,-0.016370276,-0.09093331,-0.14229107,0.08594544,0.0051521566,0.23957464,0.081531234,-0.054556865,-0.08977233,-0.0227344,0.19667427,-0.15567721,0.11357692,-0.33462265,0.09437531,0.08057311,0.096264705,-0.23124093,-0.16316848,-0.07128658,0.27232084,-0.020777684,0.11458325,0.06280955,-0.002590887,-0.09477972,-0.09436039,0.13817964,0.09586687,0.012194397,0.18804064,0.043382034,-0.16204567,0.29452503,0.0027194717,-0.31491846,0.16565147,0.1663777,0.030547218,0.094010144,-0.05406033,0.0009483211,-0.091393024,-0.14849693,0.12833486,-0.14293297,0.072400376,0.16267358,0.0978367,0.042069368,0.068168685,-0.15540391,0.08665672,-0.15104057,0.15362862,-0.21202593,0.030311728,-0.12928681,0.23262586,0.039803572,-0.15798813,0.034614805,-0.0918078,0.011267382,0.106315956,0.013452317,-0.2519483,-0.1830861,0.036783777,-0.2370904,-0.11775433,-0.07598132,0.2233051,0.12665036,0.021073338
0.12436732,-0.06468161,0.23864348,0.119640306,-0.25851646,-0.13921617,-0.18286893,-0.07065539,-0.012877839,-0.10471228,0.057104405,0.023578847,-0.03805266,-0.16372682,-0.14621742,-0.015604434,0.21466148,-0.023146948,-0.17248552,0.07201086,-0.10538112,-0.10348959,0.2782705,-0.008155029,0.10157453,0.061894193,-0.07973885,0.2644097,-0.1530801,0.019245276,-0.01398647,-0.16514808,-0.0686646,-0.13203262,0.030773785,0.089433536,0.010431509,-0.18056741,0.04989436,-0.073465884,-0.2365253,0.07174619,-0.08897791,-0.011139616,0.11162967,-0.017128902,0.12660274,0.20387247,0.100894324,-0.14769956,0.20149319,0.020533737,-0.090134814,0.064785026,-0.06665295,0.08276029,0.16597451,-0.1460344,-0.011426498,0.030219335,0.15801287,-0.29195014,-0.079435304,0.26308292,0.26983452,0.21975358,-0.084674045,0.05676555,-0.051068995,0.058713112,0.1678494,0.21793908,-0.07978715,-0.034165945,-0.16968514,0.14828584,-0.06428043,-0.13671677,-0.1557118,0.07442221,0.1187855,0.045248993,0.13928339,-0.08299481,0.067975156,-0.24444799,0.18152407,-0.1073973,-0.13075566,0.025819195,0.033567272,-0.11551977,-0.06802171,0.075874105,0.13137205,-0.028574958,0.12784441,0.051505726,-0.008549063,-0.025992092
0.24301706,-0.2013117,0.2710153,0.2738313,-0.020448877,-0.13144366,0.11532203,0.06381063,-0.18307035,-0.013445117,-0.064082965,0.23618509,0.098479874,0.097814165,-0.02018698,-0.021330044,-0.015447192,0.25692335,0.082989976,-0.11970144,0.087193556,-0.17464049,0.021976251,-0.22732997,-0.08108397,-0.046294015,0.13608623,-0.18400572,0.21477367,0.116156295,-0.083279245,0.25402296,-0.09915481,0.22192393,-0.13601941,-0.11764129,0.12544267,0.0020781776,-0.07801038,0.009738133,0.0043220366,0.12205203,-0.20592126,0.14987679,0.02554883,0.15793104,0.21937937,-0.2394795,0.018449238,-0.049151782,-0.20540142,-0.18200663,-0.009507303,-0.20800419,-0.17285995,-0.031828806,0.08458398,0.16388758,-0.13958262,-0.068344004,-0.12474699,-0.05765993,-0.10758677,0.18412834,-0.03421454,-0.079622,0.14928612,-0.097644776,0.086209096,0.068909116,-0.1432453,-0.19139111,0.18413596,0.24603234,-0.0380983,-0.006245273,-0.053172275,0.08708315,0.12504451,-0.09289398,-0.0028656605,-0.18011197,-0.09461326,-0.07057105,-0.108605705,0.19352876,0.20689017,-0.13613439,-0.22791483,0.113921784,-0.28992525,0.17837222,-0.10381096,0.24997924,0.075478815,-0.21741076,0.09280127,0.14561091,0.21852508,-0.27889687
-0.111569196,0.04133731,0.015735302,-0.05814222,0.15267436,-0.2623545,0.26027206,-0.28659073,0.2209978,0.19320147,0.07851127,0.1568436,0.18244842,-0.12583025,0.14571491,-0.13147245,0.029180357,0.020604787,-0.041582122,-0.15950766,-0.227121,-0.055721425,0.19303295,-0.20834412,-0.3048601,0.19879909,-0.07761156,-0.10776995,-0.006790774,0.10840312,0.039056774,0.08932283,0.023209801,0.0572911,0.26597208,-0.0029132953,-0.05159118,0.091512024,0.15100293,0.25812614,0.012945798,0.11516276,-0.29396084,0.0006223886,0.16501878,-0.051021084,0.10350415,-0.069999866,-0.025133068,-0.03595137,-0.06342053,-0.0874792,-0.23338348,-0.014763281,0.09894485,0.24815667,0.05959333,0.009176399,0.13231783,0.0683398,-0.0024016325,-0.12805898,0.0126688285,0.05621366,-0.13993731,0.03168316,-0.011274953,-0.17155649,-0.07149642,-0.056056924,0.04228422,-0.047283243,-0.15042019,-0.083620794,-0.010736265,-0.25401855,-0.133998,-0.0896208,-0.04076524,-0.15179363,-0.13210706,-0.01688095,0.18438272,-0.15194409,-0.21475577,0.2191275,-0.26750028,0.18468164,-0.0202561,-0.007833876,-0.027333686,-0.017501755,0.24908796,-0.0244173,0.11418667,0.10657507,-0.16179924,-0.044355232,0.00921341,0.23094094
-0.035189424,-0.0977534,-0.15801199,-0.189545,0.08106872,0.18926072,-0.048771095,0.11437652,-0.10343576,0.3231408,0.115428045,-0.04699312,-0.046795268,-0.17046757,-0.092759445,0.098563924,0.18604659,0.045113906,-0.21603775,0.10744214,0.07170537,0.09925629,0.17035915,0.03919509,0.19194734,0.22434412,-0.2040659,0.29621828,0.082176745,0.1795739,0.23110339,0.015282455,0.23366502,-0.086860456,-0.2903,0.10632601,-0.21786098,0.0140473265,-0.17376874,-0.21094309,0.054571446,0.28328088,-0.13787813,0.22303173,-0.105070814,0.0073741833,-0.14931211,0.19111967,0.29859024,0.06757278,0.015861822,0.21492623,0.07828854,0.21192749,-0.092633896,0.12039759,-0.016332317,0.27106014,0.06685945,0.31259274,0.2842104,-0.022514904,0.17707446,0.05345038,0.061518393,-0.28930426,-0.1193761,-0.064498685,0.07404541,-0.085256524,0.025573006,0.073430344,-0.19426675,-0.059236582,0.095710136,0.039651994,0.045100175,0.06138181,0.08887913,-0.32412812,0.1390954,-0.06835971,-0.13347021,0.076643154,0.30130458,0.017728642,-0.041077536,0.15382747,-0.04532847,0.058675937,0.019444553,-0.08704835,-0.1053026,0.07502625,0.077387355,0.0113470275,0.17302498,0.29656276,0.22773282,-0.08854925
0.11806244,-0.11700868,0.14690493,-0.22774255,-0.02215899,-0.24736963,-0.27996987,-0.038765136,-0.23562181,0.08697835,-0.26992652,0.011505606,0.14087194,0.22378969,-0.07269772,-0.02971686,-0.19993262,-0.01415267,-0.08659022,-0.14188403,-0.0759704,0.19225089,0.104047805,0.1901406,-0.16859488,-0.1299405,0.23157191,0.1192978,-0.23461676,0.22056715,0.07712912,0.0006641546,0.16667983,0.0036828993,-0.0350852,-0.045744218,0.20171092,-0.14917086,0.029244509,0.13428602,-0.08199401,-0.31458563,-0.31011993,-0.087007366,-0.050529998,-0.057865497,-0.063800536,-0.12910376,-0.07927254,-0.117703505,0.14059737,0.09856791,0.06745991,-0.1053985,-0.0026050634,-0.22659236,-0.16149478,-0.06743148,-0.14190525,-0.028241016,-0.14858238,0.14319524,0.022609986,0.07183548,-0.05938422,0.014720898,0.08871101,0.12773348,-0.19696127,-0.09506636,0.24749337,0.0005635549,-0.1592032,0.15298264,0.11789412,-0.08083032,0.03980982,-9.8397e-05,-0.10463716,0.07682691,-0.18906942,0.06568177,-0.22605374,0.1592563,0.19070077,-0.01723074,0.13583124,-0.016883478,0.06244854,-0.24916273,0.22346361,-0.063210405,-0.11918317,0.024863224,0.07448612,-0.052571006,0.08350664,0.13881046,0.06466875,0.13254772
0.07513982,0.1144022,-0.063984014,0.06608573,0.29375133,-0.062944755,-0.022483818,-0.15324827,-0.28880516,0.0407289,-0.09586228,-0.089158826,0.10929248,-0.23265053,-0.08772552,0.30544558,-0.15843034,-0.21462177,0.19539611,-0.04334202,0.17914167,-0.078539945,0.26479265,-0.24331315,0.17918688,-0.30330098,-0.14818178,0.0653713,-0.11851707,-0.19597068,0.10475408,-0.045893013,-0.056792907,-0.047659453,0.18772502,-0.33043262,0.26112908,-0.016058363,-0.14453903,0.041417945,-0.22125286,0.080056734,0.17904863,0.065427765,-0.04969148,-0.12701838,0.23233965,0.045608103,0.04705425,0.18383457,-0.13498954,0.08456148,0.10329128,0.056990676,0.21473813,-0.12103126,-0.08748062,0.12499724,-0.1385667,0.0035870017,0.18920195,-0.17902073,0.18314448,-0.19469778,-0.039437845,0.26015592,-0.24489532,0.16462031,0.18775114,0.081608534,0.06368575,0.17018186,0.04382804,0.0061933864,0.0151699,0.19089983,0.000427598,-0.12668481,-0.16680855,-0.106774755,0.03555684,-0.21406154,0.009066776,0.23520909,0.004273074,0.14140417,-0.028409652,0.12745608,0.18679902,0.29778945,0.07429892,0.12702142,0.03404544,-0.040140424,0.12640077,-0.06986351,-0.20934479,-0.124252565,-0.031097896,-0.17962646
-0.10650481,-0.18168613,-0.13297382,0.021689529,0.13356754,-0.022420585,-0.08229682,-0.14408101,-0.0793204,-0.17563975,-0.2491045,-0.16531526,0.019570317,-0.19491634,0.14272358,0.12664467,-0.026013428,-0.044518556,0.115657054,0.062090285,0.019853082,-0.19126981,0.25222835,-0.21088679,-0.0020727036,-0.026445387,0.1107554,-0.12488173,-0.024471609,-0.15279517,-0.06497788,0.18080974,-0.035169646,-0.14257833,-0.18841654,0.03236248,-0.06437048,-0.12779851,-0.02797543,-0.015843699,0.037794653,-0.055540033,0.0249679,-0.023053376,0.053565316,-0.19271399,0.27732477,0.09531965,-0.13935025,-0.18841726,0.037161235,-0.12313571,-0.21326146,0.0060329265,-0.2962301,-0.08271244,-0.20950186,0.0904679,-0.13540849,0.16608176,0.19746587,0.1737677,0.118027136,0.17083721,-0.21884778,-0.1884238,0.1178611,-0.23747052,0.20206858,-0.033378024,0.25741175,0.15728742,0.15804677,0.082737796,-0.0048238398,0.0063657444,0.025395622,0.0018036572,0.27482775,-0.006595953,0.24489862,-0.07704472,0.045587476,0.0151071,-0.03261276,0.026474873,-0.22525898,-0.11046333,0.0873303,-0.09415229,0.07195211,0.031641766,-0.2735948,-0.24011008,0.12605576,0.26314127,-0.24864486,-0.054335445,0.019065253,0.1835347
0.18362215,-0.03167948,0.25079298,-0.2759992,-0.13036008,0.06839553,-0.24595511,0.25522247,0.035798576,0.117971115,-0.019592237,-0.15018454,0.079439,0.15862218,-0.24440227,-0.11954145,-0.17349552,-0.28528,0.05393605,-0.04546218,0.036703397,-0.31257436,-0.15398097,0.12939823,-0.1938167,-0.12244521,-0.22759147,0.13953109,0.09246984,-0.13199289,0.06197514,0.009892755,0.13791363,0.0742831,-0.23968288,0.15040503,0.16250601,-0.03607101,0.07780814,-0.21182251,-0.16564034,0.17056611,-0.13808039,-0.07945598,-0.22139832,-0.13315383,-0.2794099,0.13513757,0.17045616,0.130306,0.107489385,0.0807588,0.048782315,-0.09940094,0.063656375,0.11279732,0.07547202,-0.13194937,0.12044664,0.031895373,0.28664485,-0.056871854,0.039457146,0.077950664,0.05071106,0.06194845,-0.22326139,0.12829621,0.106481776,0.108642206,-0.07060216,0.014224602,0.23106481,0.057123717,-0.10396551,0.10130525,0.09955725,-0.026089549,-0.13340677,-0.15973023,0.08176027,0.31256628,0.22346304,0.15052226,-0.009375234,-0.1648349,0.022884278,0.2833605,0.00857731,-0.1389389,0.08167592,-0.020794418,-0.14371622,-0.04068305,-0.14967783,0.137246,-0.007474363,-0.30238461,-0.04199619,0.07075988
0.21671556,-0.16479,0.00855831,-0.12668398,-0.249441,-0.1568728,-0.05517655,0.0013919453,-0.029654976,-0.24363284,0.21529266,-0.04445079,0.084104516,-0.06291183,-0.07648328,0.09914556,0.029239524,-0.035430096,-0.07484761,0.14752343,0.26276198,0.10841564,-0.13723417,0.1487236,0.03949978,0.0032111397,-0.2495551,-0.16292529,0.122854225,0.08097675,0.10112759,-0.03736255,0.20951924,-0.15347242,0.1618311,0.19187686,-0.14777094,-0.19469963,-0.2208882,-0.3029655,-0.07452562,-0.16049513,0.25135997,-0.09840279,0.03403694,0.23864879,-0.090015374,-0.10874539,0.038197685,0.0022314885,0.0076159444,-0.107659385,-0.08461121,-0.0033451936,-0.22884947,0.19978982,-0.009529615,-0.25179225,-0.03306564,0.1333264,-0.06788424,0.073271364,0.02672134,-0.09972834,-0.18932654,0.14029387,0.07526524,0.03360618,-0.13181812,0.09483245,0.0673318,-0.10570001,-0.23885316,-0.050010566,-0.20633186,0.1661318,0.03162605,0.038490746,-0.017734641,-0.0044752765,0.2704665,-0.25882146,-0.17185207,-0.18579605,-0.011963742,0.04073419,0.05182635,0.28556567,0.05130583,-0.23787387,-0.022795247,0.15253942,0.029717822,-0.22608401,0.13303655,-0.057538383,-0.14913937,0.20633419,0.097721234,-0.012631387
0.026516432,-0.036373436,-0.06536469,0.15100163,-0.013799131,0.13891843,-0.0007714878,-0.14488903,0.02992063,-0.06869488,0.10782533,0.021586936,0.029578948,0.09822377,-0.23331474,0.106622875,-0.144832,-0.017780598,-0.0676734,-0.22334088,0.22443369,-0.12514395,-0.20784159,0.029054925,0.14496766,-0.010405207,0.08028731,0.19388631,0.078062214,0.09609609,-0.023827562,0.06091325,-0.059738517,0.097019896,0.13576943,0.11084945,0.047232255,0.03981557,-0.033405587,-0.12832168,-0.036665354,0.03968955,0.057434656,0.080799714,-0.1191842,-0.20163108,0.020210875,0.11781783,-0.0748248,0.032257967,0.04444181,-0.041440256,-0.30323687,0.08528151,-0.018406717,-0.18055099,0.15446411,-0.12166679,0.09969059,-0.1568111,-0.21994643,-0.08166378,-0.024860153,-0.27905214,0.13522995,0.28385416,-0.21840894,0.1948394,-0.26974973,0.036216773,0.004376847,-0.0442468,-0.039245658,0.07552,-0.18881825,-0.11765332,0.17341897,0.05217146,-0.06443136,0.013880407,-0.12181,0.16411348,0.15857665,-0.1687107,0.0368564,-0.113827646,0.09556165,-0.18832041,0.07456764,-0.021357678,0.17375122,0.19487004,0.0014152061,0.055794742,0.044915173,-0.10375425,0.22377269,-0.10962226,-0.057374734,-0.23331411
0.19669475,-0.1735771,0.27936885,0.048429377,-0.10454534,0.03210852,-0.047524307,0.17814995,0.030898537,0.04726578,-0.2539551,-0.2447434,0.16535297,-0.24005897,0.09806011,-0.17436479,0.14189872,0.009657716,0.012854293,0.0013908127,0.13661198,-0.19294456,-0.2641695,0.19108148,-0.12646243,0.15632181,-0.18422863,0.0737801,0.21861939,0.095826305,-0.087473094,0.019241646,-0.06205011,0.19481501,-0.0085764,0.20114036,0.18311973,-0.07536813,0.123591736,-0.014666033,-0.18565625,0.05114827,0.09932964,0.065242074,0.29016817,-0.070388325,-0.040703733,0.2300385,-0.19463119,-0.116569944,0.27878934,0.008419258,0.13448602,-0.087234564,-0.06945963,0.27933857,0.1924119,-0.011729316,0.0010746417,0.26462272,0.26194736,-0.23090124,0.1537181,-0.09843049,0.28237092,-0.06638813,0.25079662,-0.00092310883,0.05218658,0.035793107,-0.01553542,0.24748436,0.013960415,-0.1185321,0.080358595,0.12006421,-0.1301102,-0.17399506,-0.017966002,0.038145393,-0.0041515687,0.08957892,0.20866045,-0.11000794,0.13244706,-0.07667846,-0.14687532,0.073848315,-0.09051256,0.13983814,-0.06205669,0.010026485,-0.13533925,0.13131917,0.06666686,0.083498195,0.2708286,-0.04704056,-0.04328307,-0.041196283
0.009893186,0.16096905,0.22390534,0.15194607,0.24980454,0.014311086,0.061861012,-0.22252858,-0.1411668,-0.06281524,0.0039416663,0.01922235,-0.11242148,0.035518117,-0.28721967,-0.020937072,-0.18114023,0.13323903,0.22723283,-0.08195646,-0.15365231,0.047832537,0.17791264,0.056355834,-0.16777445,-0.01734355,-0.22020283,-0.30394208,0.08290131,0.067210816,-0.20181923,0.16475348,-0.03398121,0.0774413,-0.09006137,0.05626013,-0.15108469,0.26401272,-0.19485895,0.06553621,0.09537811,-0.0008963921,-0.06042386,-0.1200213,0.15975751,-0.2829686,-0.041973464,-0.029856876,0.15919015,0.07954013,0.17142925,0.069662094,0.17696646,-0.17647612,-0.2896743,0.119816124,-0.21229582,0.10713638,0.30973807,0.14106353,0.1138255,0.11373504,-0.25394842,0.1454083,-0.048263006,0.0034538836,-0.0026692012,-0.06512729,0.116075024,0.034696918,0.024274582,-0.12736388,0.09767284,-0.06862335,0.007978273,-0.22470252,0.14201163,-0.043443628,0.11890653,0.24323846,-0.07958145,0.24948902,0.13163285,-0.15534343,0.013655868,-0.18134995,-0.070225835,0.19279765,0.027384808,0.047100954,-0.015154113,-0.16766183,0.0944601,0.07634912,0.028028086,0.2758098,0.09238292,0.16522065,0.0807411,-0.063563816
-0.055145323,-0.13797288,-0.025628943,0.054385137,-0.17712697,0.15653282,0.010877382,-0.13374224,-0.08698619,-0.21618746,0.2027797,-0.042417172,-0.13781935,0.044549216,-0.06826289,0.08273876,0.09718515,0.28031588,0.15890598,0.07777979,0.019848634,0.033004634,-0.03567903,0.20415822,0.1509488,0.10345511,-0.119108625,0.018217193,0.014259738,-0.14284755,0.19692768,0.2785545,-0.14158545,-0.017570654,0.01776379,0.122745536,0.20081292,-0.097649224,-0.18959214,-0.085897356,0.005321784,-0.08314681,-0.098654695,0.19270338,-0.26585853,-0.20882037,-0.039958347,-0.1163174,-0.064064935,0.09889109,0.26152462,-0.06839794,-0.058980286,-0.121693656,0.034362387,-0.18414389,-0.04353644,0.13478513,-0.29344764,0.17219973,0.13152418,-0.051448002,0.051328767,-0.15378134,-0.08733139,0.09852133,-0.040896412,0.08040401,0.08026258,0.19445583,0.11678801,-0.11667095,0.12540983,-0.015238317,0.17510942,0.006505798,0.07932884,0.20940925,0.17425242,0.11154166,0.022071062,0.06434297,0.014838192,0.1857908,-0.120046064,-0.14213343,-0.08158234,0.00042119971,0.16129172,-0.21006028,0.07154046,0.03983965,0.018705469,-0.025234701,0.26604334,-0.13689394,0.052217454,-0.061059717,-0.13162252,0.07764638
0.111780174,0.04198563,-0.079844855,0.0024032989,0.13500598,-0.11670206,0.2012443,0.06615147,-0.026920047,-0.20874669,0.13412878,0.03761663,0.037362892,-0.2924779,-0.043842353,-0.1261477,0.14951989,-0.017473841,-0.010617969,0.07733884,-0.081164114,0.0160241,0.18832573,-0.06713373,0.22414936,0.21984781,0.1193411,-0.10971576,-0.14816694,-0.24581416,0.31328526,0.05432319,0.21326543,0.091722175,-0.2774587,-0.077162966,0.1466101,-0.14047298,-0.08402047,0.15005799,-0.13119988,0.09644883,0.037049204,0.009334266,-0.043101896,0.07979954,-0.0027751704,-0.075057596,-0.11697276,-0.19534673,-0.0040340475,-0.24609639,0.028771937,-0.022395127,0.16386585,-0.18345585,-0.12826233,0.23420738,-0.11251547,0.24635969,0.021894703,-0.09593767,-0.07182086,0.11890058,0.08662091,-0.08110486,-0.11910679,0.009237643,0.0732832,0.15642463,0.12751295,0.13154182,0.12927292,-0.046043064,-0.28582847,-0.057971127,0.12799834,-0.13896872,-0.030520014,0.051430948,0.06450631,-0.039381206,0.0931109,0.21724789,0.1780427,-0.029315159,-0.023354193,0.07659209,0.12729967,-0.018681925,0.090760864,0.21824911,-0.022118498,-0.11301648,0.1587673,0.013771064,0.02976968,0.19231035,-0.11044205,-0.28115988
0.0995469,-0.17608279,-0.22682232,0.10804558,0.30069673,0.129914,-0.021331383,0.021001656,0.08394545,-0.20647626,0.094350606,-0.104645036,-0.05245929,0.20127784,0.06327872,-0.15662614,0.07828206,-0.1418508,-0.055855773,0.1537161,-0.30062538,0.06397121,0.035232153,-0.2421845,-0.12528814,0.18528207,0.17676663,-0.28353846,0.12736107,0.028843917,-0.03511098,-0.06386341,0.11768994,-0.0865031,0.060080256,0.23582405,-0.28775284,0.10557789,-0.003989896,0.099712566,-0.0026456672,0.20121384,0.055266242,-0.05789265,-0.09262233,-0.046321563,0.08746584,0.26571298,0.054968562,-0.01668753,-0.26248252,-0.18473157,0.16311315,0.082871355,0.16281782,0.084720545,-0.14951673,-0.10235614,-0.1600826,-0.15720394,0.035751883,0.15820093,0.19851495,0.041435596,-0.20864156,-0.25848386,0.19372964,-0.036933128,0.00091840397,-0.16143475,0.27915424,-0.16032283,0.071063355,-0.24325018,0.18416154,0.091414586,-0.11459947,0.05744266,-0.11683171,-0.10704332,-0.055370588,0.042763073,0.042297445,-0.20589063,-0.030943105,0.18157333,-0.149385,-0.20617568,-0.044597667,-0.23761183,0.14568548,-0.20627433,-0.028316608,-0.0052279527,0.096858345,-0.03880105,0.21333644,-0.24237202,0.16951361,-0.120353885
-0.19530955,0.14308006,0.15658844,-0.09112632,-0.0051261433,0.038759712,0.23241425,0.29002127,-0.08591315,-0.0787376,0.24668893,0.10619754,-0.23470278,-0.1857532,0.043667585,0.17728075,0.0414589,0.06136542,-0.21657422,-0.15484522,0.0045856675,0.22440566,-0.04533645,0.27749905,0.08629753,-0.08702815,-0.20967701,-0.28763264,0.027519183,0.14394017,0.22371885,0.08794392,-0.0040660305,0.030236842,0.016642362,0.06955589,-0.19044657,-0.253708,-0.012044394,-0.22059426,0.16498667,0.07350787,-0.04871027,0.070808046,0.0625136,0.19196934,-0.069747716,0.054186564,-0.14397001,-0.21029083,0.12538412,-0.014737907,-0.13307483,-0.18436384,-0.0053987615,-0.014800533,0.0021688202,-0.20391496,-0.057402574,0.06912742,0.029105414,0.04224059,0.061194807,-0.21915485,-0.11334259,-0.06940183,-0.1909129,0.2826922,-0.038872723,-0.064154565,-0.017092958,0.21904722,0.029768249,0.037418433,-0.075642586,-0.13398823,-0.044760436,0.21937256,0.028130626,0.17323965,-0.04669186,0.11389796,0.061847407,-0.042405967,0.18052644,0.030902563,-0.034123998,-0.0031564438,0.19642372,-0.06016301,0.11933394,0.17526692,0.052972943,-0.03782933,0.031600222,0.12686786,-0.18108225,0.28833082,0.114634916,0.011290746
-0.16265064,-0.15840764,-0.1279007,-0.18655522,0.23558621,0.08011311,0.078611754,0.2178433,0.032024443,-0.069332734,-0.059839044,0.04167485,0.027275225,-0.031715885,-0.010283348,0.24144176,-0.16136971,0.054828215,0.063818775,-0.020571677,0.1552171,0.12595762,-0.049670186,-0.117132105,-0.088053,0.052672014,-0.09452389,0.02770094,0.073442474,-0.20822138,0.2121302,-0.0740486,0.09478464,-0.018746635,0.14932679,0.24606651,0.026890865,-0.111389786,0.09997551,0.13560328,0.11112,-0.056068398,-0.06554181,-0.095882796,-0.00424026,0.26671568,0.087294795,-0.089345895,-0.067564785,-0.20984511,-0.03383846,-0.06360259,-0.29319096,-0.07925005,0.030734567,-0.022734644,0.07047475,0.22273096,0.30296025,0.114421085,0.13274534,0.2586106,0.13084802,-0.11088756,0.16666244,-0.1444865,0.27689987,0.086325146,0.18805446,-0.19894783,-0.18065348,-0.28385216,0.002775523,-0.031418096,0.13183896,-0.22187014,-0.07795683,-0.19118628,0.2369226,0.032332025,-0.05733441,-0.11268323,0.28839418,0.09072427,0.067819275,-0.03554508,-0.093795665,-0.09826534,-0.0067368336,-0.14086194,-0.09660172,0.096636385,-0.12853439,-0.23619227,-0.117508695,-0.13325639,-0.23498283,-0.14664805,-0.03211877,0.019705132
0.19917847,-0.048832107,-0.29244128,0.127977,0.15210626,0.05734466,0.293196,0.2881546,-0.13300642,-0.3040499,-0.009704067,0.04182883,0.040739566,0.04634368,0.054917052,0.30920485,0.013358931,-0.03533107,0.15166008,-0.043414965,-0.110776894,0.07967562,0.019143932,0.12694192,-0.070781946,0.04221207,0.06465292,-0.16560127,0.08475069,0.13975386,0.0806647,0.07405293,0.056122568,-0.25587407,0.28635418,-0.18271455,-0.13813266,-0.07265694,0.11065733,0.07933731,0.108516246,0.13700268,0.30406556,0.0006353515,0.081620336,0.033744134,0.1923034,-0.29308915,0.13176478,0.06657883,0.0024776005,-0.112252854,-0.080645934,-0.1837175,-0.04941389,-0.3122912,-0.09692269,-0.06126596,-0.074902475,0.20556132,0.20462453,0.111519895,-0.16311415,-0.056227777,0.19426665,0.09253536,-0.028987397,0.05898094,0.18490312,-0.022860143,0.13495083,-0.01618502,-0.111191444,0.06928886,0.042419493,0.08250114,-0.012937449,0.26013264,-0.24743372,-0.06669561,0.008615715,-0.08255623,0.04632505,0.23721819,0.05742333,0.18402526,0.16687828,-0.0056153378,-0.042326733,-0.29506528,-0.014090735,0.0037502854,-0.24060212,-0.020210143,-0.03830658,-0.045351863,0.119546354,-0.21335629,0.030145759,-0.10395129
0.15276554,-0.015351856,-0.13325572,0.29704168,-0.008569921,-0.13685034,-0.20694064,0.1754387,0.30259705,0.22869721,-0.047142077,0.14058551,0.1595907,-0.23944157,0.03825051,-0.08416125,0.047291078,0.004388465,0.08953322,0.18913865,0.053575337,-0.110926196,0.07779608,-0.10395358,0.04375422,-0.16634136,0.25965467,0.08974638,-0.041668672,0.32023704,-0.043714423,0.2939519,0.0015554503,-0.066728726,0.22011226,-0.004451786,-0.17024201,-0.20655729,-0.23844057,-0.053200606,0.1145025,0.10383784,0.107325405,0.04052421,0.09095856,-0.26094523,-0.07453576,-0.08355274,0.10090343,0.02090781,0.23846383,-0.05062065,-0.029111205,0.18084921,-0.02176642,-0.0485809,-0.14902967,0.024830153,-0.033704925,0.2110253,0.27855477,0.20735082,0.080274284,-0.18188721,-0.05848779,-0.14078648,-0.16658002,0.011587155,0.10334895,-0.05788531,0.0818398,-0.14470944,0.03136117,0.013070018,0.036632564,-0.25058454,0.061451174,-0.021883605,0.12741353,0.14729276,0.04325744,-0.20124964,-0.025092408,-0.27066264,-0.050092082,-0.22577636,-0.08679329,0.156042,-0.29706746,-0.038799677,0.24910611,-0.16287082,0.12889965,0.1871551,-0.11524378,0.13699476,0.15085718,0.23623627,0.067996435,0.22062813
-0.1153522,0.06801873,0.19090857,-0.054836553,-0.29669514,0.16697815,0.118484855,-0.03768104,0.033818357,-0.21569598,0.12414771,0.020947527,0.2820149,0.16032562,0.29263952,-0.10921456,-0.020680146,-0.086222336,0.05285451,0.1148634,0.21734187,0.17122838,-0.14951664,-0.13396414,0.07108712,0.230374,-0.08622625,0.077950634,-0.036612384,0.18483952,0.23020142,-0.065052524,0.13344692,-0.14564694,0.06477176,0.09647209,-0.013981177,-0.022415409,0.26079354,-0.05666473,-0.114909805,0.060513504,0.0272911,0.092718676,-0.22834766,0.051260963,0.007301626,0.07177507,-0.20826705,0.29433057,0.22664519,-0.09780711,0.045865607,-0.104448825,-0.070177086,0.017412584,-0.14975153,0.10504916,0.2122065,-0.023185393,-0.1321738,0.13420509,-0.11815006,0.21665132,0.010576302,-0.09004303,-0.07489377,0.14200649,0.14878145,0.12782064,0.08767595,-0.052626926,-0.1613001,0.21495135,0.14241172,0.19607283,-0.18901771,0.051613025,-0.05355418,-0.045862827,0.13235663,0.15939032,-0.013579095,-0.05932472,0.1352579,-0.082909465,0.08713532,-0.12801866,0.16846433,-0.04288894,-0.137654,-0.20585522,-0.02879517,0.102208205,0.16395752,-0.20332958,0.18164852,-0.12120791,-0.2097305,-0.067216486
0.163829,-0.13082102,0.09706787,0.033194393,-0.047777046,0.111576535,0.015816262,-0.034526203,-0.2410969,-0.07589863,0.29391843,-0.078379065,-0.036692478,0.06730772,0.22987686,0.052403603,0.088148616,-0.14408645,-0.026086176,-0.30230147,-0.028213022,0.018459324,-0.047455024,-0.08846999,-0.03040328,-0.21576431,-0.017935852,0.04822978,-0.018273868,-0.0024913107,-0.22816692,0.31052917,-0.1975418,0.013556197,-0.21139726,0.04626669,0.06576018,-0.1320752,-0.00900124,0.0752481,0.0096439775,-0.001413937,0.18698704,-0.15084438,0.11940046,0.1240422,-0.08789006,0.080514304,-0.18101491,0.14651512,0.032856513,0.112423934,-0.15829262,0.30723858,0.17684881,0.00211501,-0.035701573,0.031348333,-0.11830407,-0.080391236,-0.052280664,-0.20599675,-0.18084614,-0.28043377,-0.034831308,0.06801793,-0.05274033,-0.35361883,-0.29701102,0.09853657,-0.11093467,0.049021468,0.16667722,-0.09673533,-0.080425665,-0.08763203,-0.10003527,0.053283542,-0.08099564,-0.102213256,-0.019511709,-0.21092743,0.23211408,-0.06501012,-0.09809151,0.06888392,0.10714914,-0.02599876,-0.03843832,0.2116539,-0.08887238,-0.27993062,-0.2253727,-0.06485352,-0.043896664,-0.23593594,-0.28947183,0.20629922,0.04677707,0.14195602
0.15731381,-0.13247028,0.11600482,-0.048077367,-0.16362688,-0.046467867,-0.077792,0.039785653,-0.15944974,0.057508036,0.12012508,0.06418949,-0.20193407,-0.11982121,-0.08743953,0.3196721,0.13529667,-0.20323876,-0.04933813,-0.014223023,0.06973822,-0.020777127,0.026918799,-0.016542656,-0.20440997,0.13622823,0.014418536,-0.19352303,-0.32704034,0.21749681,-0.21690983,0.13536954,-0.085761935,-0.10874168,-0.16457036,-0.045177527,0.09839714,-0.28269416,0.12161965,0.008685567,0.02799187,-0.029249057,-0.1802144,0.0063633225,0.016041804,0.008589882,-0.061304163,-0.13314472,0.043474354,0.06682734,-0.02252426,-0.15196013,-0.28284308,0.24163197,-0.059081655,-0.020101158,0.28442386,0.10377667,-0.05088377,0.17738001,0.0011201486,-0.24047747,-0.11008116,0.22276296,-0.29025748,0.09811911,-0.0629408,-0.05269158,0.17447272,-0.03602103,-0.13239941,-0.07049091,0.2110163,0.035492312,-0.1506729,0.22476295,0.19851725,0.0016691462,0.21132432,0.15213312,-0.12716377,-0.1190785,0.18215759,0.0450218,0.060520995,0.23702875,0.22766833,0.30208945,0.018045438,0.01877349,-0.20220822,-0.1270616,-0.18954042,0.13755488,0.12576449,0.11386744,-0.11670434,-0.328092,0.12665784,-0.08419981
-0.28209984,-0.01966158,0.089842275,-0.12843531,0.14975996,-0.12538536,0.17119566,-0.04705544,0.066719614,-0.05918865,0.2813868,0.13434942,-0.0782989,-0.018867904,-0.12439041,-0.06652451,-0.0807653,0.029473277,-0.08615961,-0.26070893,0.14658345,0.0749489,-0.014198665,0.21207494,-0.15523632,0.09887002,-0.002916745,0.07238069,0.034580443,-0.0043388517,0.005965332,0.024904944,-0.16800614,0.12318447,0.013333413,0.017269121,0.014652789,-0.15994987,0.16671394,0.10776909,-0.27127418,-0.07998983,0.1164026,0.124557845,-0.035622787,0.14959738,-0.27603617,0.15000452,-0.11712944,-0.14623547,0.006314162,-0.044354845,0.29805133,-0.14649498,0.0036756843,-0.1958038,0.32759783,-0.099510595,-0.18591101,-0.047795128,-0.019045841,0.0006024115,-0.0060200123,-0.13961655,-0.11423396,-0.16950801,-0.036435742,-0.19072253,0.107967764,0.20651391,0.0036263498,-0.17354591,0.20004673,-0.09937882,0.042562492,0.09660012,-0.17693903,0.16838872,0.13550189,-0.07026853,0.08326725,0.039590836,0.2767586,0.033783115,-0.22574693,-0.13715178,0.17368858,-0.29174027,0.1078361,-0.064452715,0.010941657,0.06616639,-0.041654132,-0.28704587,-0.026033439,0.067264214,-0.12514476,0.15836753,-0.2740836,0.095468245
-0.0822855,-0.029662471,-0.07494518,-0.01244793,0.09960254,0.046091683,-0.05726972,0.07458086,0.06943784,0.03728453,-0.18142363,-0.116118625,-0.012570362,-0.05617693,0.088374846,0.32382616,-0.0034503734,-0.232886,0.06305834,0.09966723,0.18578273,-0.21866083,-0.09412272,0.03970709,0.11104487,0.14412001,-0.1784281,0.04536883,-0.0072923023,0.036989547,0.115360536,0.22906916,0.23294069,-0.30100194,0.06113282,-0.06314931,0.022209033,-0.07939818,0.194527,-0.24186161,-0.10935841,0.018110422,0.15708195,0.19277531,0.006561827,-0.15822577,-0.03981915,-0.08750592,-0.3121156,-0.04690675,-0.24072118,0.11118231,-0.15390374,-0.08887899,-0.08967219,-0.18870397,0.2675447,-0.008606106,0.012010459,-0.11730026,0.1426542,0.012780355,0.024923215,0.057776608,0.22653864,-0.2456985,-0.2041237,0.16556758,0.093003854,-0.011242292,-0.11427139,-0.1975206,-0.0029442864,0.014352313,0.13354759,-0.08749823,0.14883447,0.23211811,0.11700873,0.093540445,-0.28723222,-0.029236576,-0.080785036,-0.055097055,-0.067710586,-0.29010838,0.21946207,0.12674648,-0.28282613,0.008309482,0.11909735,0.20312679,0.17561795,0.09919391,0.09280009,-0.15919496,0.100591816,-0.20426203,-0.11955938,-0.018164981
0.14334096,0.033165466,-0.07224458,-0.21513541,-0.30949852,-0.23101506,-0.08385887,0.03616056,-0.04444206,0.1627127,-0.027693637,0.14427625,-0.038687225,0.05039302,-0.3136735,-0.16430993,0.030118184,0.060743827,0.07715468,0.1999137,-0.038952112,-0.03588394,0.02517231,-0.055645905,-0.08666355,0.20867158,-0.037396174,-0.32924145,0.19638337,0.15654986,-0.21207607,0.07653055,0.13117605,0.025723204,-0.059076745,0.2611215,-0.080862984,0.0017857514,-0.0927221,0.004884557,0.08018357,0.2621334,0.1803311,-0.05985675,-0.034979172,-0.13077316,-0.25236046,-0.16378489,0.24661304,0.124284856,0.21399869,0.2999949,0.08016875,-0.15662934,0.13275996,-0.0956855,-0.07622078,0.047357567,0.1179219,-0.11219147,-0.02620739,0.0055005457,-0.081851415,0.013567908,0.012243193,0.012480921,-0.010131822,0.144882,-0.10400306,0.13045387,0.025085839,-0.1992257,-0.0043882937,0.17193852,0.02361493,0.06474848,-0.11146034,-0.11650638,0.26576096,-0.16422945,-0.02313324,0.024874592,-0.10487049,-0.09234818,-0.1745521,0.0091863815,-0.09022017,-0.12741815,-0.09002501,0.196582,0.28103304,-0.0009715761,0.2594885,-0.18271506,0.056887265,-0.025686465,0.1431425,0.060479563,0.29541704,-0.07232753
-0.12162935,-0.08930647,0.16810592,-0.05157339,0.116395235,0.06738638,-0.12169156,-0.2099364,-0.19135559,-0.03784384,-0.17382655,-0.035499487,0.1587186,-0.13415696,-0.052133515,0.15112591,0.18636543,-0.21493861,-0.025153743,0.18805704,0.025520701,0.12830375,-0.09599627,0.29291758,-0.13866618,0.017183125,-0.02761945,-0.08804852,-0.16526848,-0.17346577,0.052305754,0.01316263,0.046250124,-0.04372236,0.15398106,-0.0073431325,-0.03349339,-0.092593744,-0.19084612,0.31463203,0.1274599,0.14202365,0.013047795,-0.09416602,-0.18010509,-0.115312666,-0.0061054933,-0.14065488,-0.22119267,0.039978094,0.108503886,-0.04203502,0.10684819,0.22511154,-0.15203008,-0.28474936,0.100536376,-0.049391888,-0.017928056,-0.00785627,0.05057635,0.210501,0.21883939,0.01732639,0.03198723,-0.029218668,-0.17662336,0.10445799,-0.1493512,0.08230106,-0.296047,0.3028568,0.051696762,-0.05166543,0.085517555,-0.017505612,-0.2711894,0.10155705,-0.015245713,-0.11655322,0.0035706663,0.13351808,-0.12566407,0.011804882,0.11133437,-0.018270057,-0.24371359,-0.020128677,-0.22460142,0.079826966,0.14439511,0.20838934,-0.02762734,0.24351794,-0.06052692,-0.10543111,0.08403895,0.26202354,0.3284177,0.20482089
0.13173136,-0.009863909,-0.06794652,-0.18008204,0.15248376,0.13115914,0.20407288,-0.16756089,-0.24594204,0.2264603,0.026362482,0.011779619,-0.21310078,0.08877783,-0.21563932,-0.20750271,0.13250853,-0.013519527,-0.090853415,0.048381355,-0.08109109,0.15169503,-0.15251788,-0.20357944,-0.16500549,0.115027145,-0.0037759761,0.057656772,-0.08558773,0.16750015,0.13338248,0.26855364,0.070435956,0.0015407406,0.17471117,0.13172424,0.12753408,0.043618746,-0.082319476,0.0021790252,-0.075693876,0.083644226,0.06949876,0.0068474347,-0.22953066,-0.28296384,-0.038108237,-0.23916546,-0.04285317,-0.31517473,-0.009066979,-0.07856695,0.10526976,0.05598393,0.031844836,0.10450165,0.10292367,-0.07095594,0.027837425,0.003492115,0.072589695,0.060999602,-0.08116979,0.13734849,0.06289,0.101205006,0.07291115,0.03370893,-0.059609644,-0.022127684,0.057802834,-0.02491399,-0.1571044,0.123345785,0.07063487,-0.2250907,-0.29941836,0.007171673,0.010440454,0.10480436,-0.16634369,0.18493642,0.037554275,-0.008675901,-0.09193895,0.046861887,-0.1624853,0.07584464,-0.023575805,0.20526154,-0.29789042,0.17660147,0.10249426,0.1701745,-0.018889848,0.14500016,0.264282,0.3118749,-0.12530744,-0.12013032
0.1853698,0.23297004,-0.15363877,-0.054377466,-0.031948257,0.30168876,0.17669953,0.052804343,-0.26284626,0.07004189,-0.16295446,0.26331154,0.23748681,-0.08289107,0.061488815,-0.08697554,0.1748226,0.24018422,0.0472123,0.18737233,0.041876808,0.18598692,-0.11261259,0.044600848,0.05010918,-0.25715107,-0.20110694,-0.20606564,0.09201477,-0.08894114,-0.036263075,-0.24107012,0.04614257,0.14286543,-0.015488353,-0.0675106,0.23813224,-0.021529915,0.042067688,-0.27023023,0.14111577,-0.043285444,-0.062495567,0.17890263,0.10816205,0.13096236,0.15135853,0.030268207,0.07985668,-0.021066595,-0.14010836,-0.08560436,0.0077275913,0.10358255,-0.09864399,-0.058801968,0.007334002,-0.075496934,-0.18994841,-0.12674612,-0.15271603,-0.05139902,-0.00714988,0.0568666,-0.039751373,0.15616141,-0.058381315,-0.1060753,-0.2482031,-0.03399249,-0.0022224118,0.060308877,-0.033168785,0.30625942,0.10554349,-0.06996972,0.1988181,-0.14860548,-0.10788361,0.19255461,-0.05437642,-0.09918979,-0.22858302,0.017501846,0.17115706,0.13450606,-0.113605924,-0.08602994,-0.11352393,-0.2588627,-0.016784308,-0.12308645,0.20864269,0.1747846,0.1230969,0.08684636,0.011189818,-0.2278554,-0.052635744,0.119626924
-0.09382798,0.11909493,0.23144144,0.047072638,-0.08015413,0.12482077,-0.02820845,-0.10592224,-0.14247166,-0.30965915,-0.0012269504,-0.022853551,0.17267895,0.2872607,0.097232915,-0.15725286,-0.22952382,-0.117760874,-0.15657362,-0.14339437,-0.011916264,-0.16725145,-0.104239754,-0.18615843,0.17714524,-0.15874436,-0.082946196,-0.2408989,-0.18306601,0.11438374,0.10546731,-0.15019648,0.057545952,0.11185067,-0.08005157,0.07929345,-0.056701478,-0.12046745,-0.12961593,-0.06981048,-0.2003906,0.05478786,0.11139025,0.17129594,-0.08572511,-0.08037198,-0.15530713,0.045672946,-0.10031509,-0.15470383,0.17960301,-0.1129049,-0.19949019,-0.22077182,0.06596547,-0.050298713,-0.31174406,0.16211379,-0.14848018,0.1547442,-0.018795658,-0.14831237,0.24052674,0.07786555,0.27153745,0.04755118,0.10993948,-0.018959563,-0.021197386,0.01973461,0.28616178,-0.071155384,0.29008654,-0.025368415,-0.1699632,0.116211176,-0.16286759,0.17099787,-0.2857171,0.15497884,0.14469676,0.01573525,0.272011,-0.044668227,-0.06326441,0.031779483,-0.17470884,-0.1475923,0.030278835,0.27747402,-0.06515339,0.10725207,-0.20784763,0.13172376,-0.108503446,-0.05445967,-0.04204666,-0.13679782,-0.08478195,-0.016535616
-0.32418647,0.1183313,-0.1894099,-0.11682776,-0.26387098,0.1422686,0.3147498,-0.06098682,-0.12632518,-0.1771747,0.18508029,-0.0020834678,-0.2419215,0.121174075,0.05757007,-0.08016765,-0.021105902,-0.25796697,-0.30848062,-0.12816773,0.14003848,0.09824028,0.014335233,-0.03925444,0.081485055,-0.25482076,-0.3046056,0.009317081,0.041708756,0.19109228,-0.117651746,0.0130872885,0.19047503,-0.3326162,0.13230345,-0.31136146,0.16084158,0.083667144,0.19813393,-0.05901643,-0.018689366,-0.17817597,-0.035215177,-0.09966614,-0.10650681,0.03176829,0.12313877,0.044244554,-0.24997166,0.204703,0.22349316,-0.040334392,-0.01289891,0.13792875,0.23539238,0.046192452,0.04155602,0.08866795,-0.13938648,-0.13067554,0.015050359,0.17465703,0.14139509,0.019888254,-0.043838065,0.09485954,0.071925886,0.18398193,-0.092366874,-0.10993095,-0.032938164,-0.26953563,0.27476847,0.15153247,-0.1217259,-0.087443724,0.03268273,-0.12660414,-0.21922533,-0.014811586,-0.17543654,-0.22764963,0.06757673,-0.24306628,0.038723275,0.13881984,0.12608638,-0.075868554,0.094341435,0.12671447,0.21893032,0.07538078,0.10521932,0.01339522,0.31961265,0.031247249,-0.101045236,0.23852776,0.113397285,-0.18878171
-0.12770213,0.15930526,-0.20154448,0.30466223,-0.12991342,0.19745517,0.01165077,0.030228471,-0.30173045,-0.11636489,-0.031908203,-0.14559317,0.18151283,-0.0841007,-0.056724176,-0.016687274,-0.023904594,-0.28717026,0.14316879,0.22775781,-0.0019243703,-0.07719931,-0.278238,-0.33079928,0.23985858,0.16368976,0.20646165,0.05821958,-0.07984931,-0.019443108,-0.07271648,-0.034571595,-0.19850235,0.002645473,0.24155939,0.08784479,-0.060619015,0.0734331,-0.11911209,0.016298966,0.13979964,0.15747328,0.05041936,-0.15117185,-0.10775918,-0.16112673,0.020160958,-0.17890278,0.0019406403,0.03427903,-0.030434044,0.02251405,-0.1072356,-0.013192872,0.05270609,-0.12300553,-0.18079424,0.18354635,-0.03956961,0.15430476,-0.20864415,0.28434068,-0.06558713,0.013365708,-0.12805548,-0.0788245,0.1599386,-0.013958358,0.13311478,-0.09599178,0.06783843,0.24371149,0.1108319,0.19036011,-0.20753446,-0.00088739867,-0.05302737,0.03759033,0.010853057,0.22413494,0.15367997,0.19793454,0.07911987,-0.04847613,0.15289241,-0.27013958,-0.026696019,0.0029530926,0.108132616,0.054702207,0.07548429,0.008308449,-0.09487715,-0.017059494,-0.16735382,0.071683936,-0.0015856477,0.28023642,0.08357803,-0.16731472
0.0030979358,0.007161593,0.19063593,-0.037834063,-0.25696754,0.12850894,-0.14635602,0.04687863,-0.25397584,-0.027799802,0.121117055,0.14945476,-0.029219648,-0.31685042,-0.067969404,0.18443546,0.051420685,0.028703708,-0.11291927,-0.10268604,-0.26609364,0.2987067,0.22812873,0.018103175,-0.19315666,-0.22971268,0.107024424,0.2147366,0.074127845,-0.07879331,0.12190306,0.03980165,-0.05124084,0.1488416,0.02543552,-0.32079005,0.28333023,0.1474321,-0.17143272,0.035812195,0.035846855,0.14465038,-0.11331117,-0.27167293,-0.0030569423,0.07994792,-0.024395164,-0.0034993507,-0.08981058,0.23201951,-0.02151925,0.092129774,-0.06980362,-0.059266042,-0.16325377,0.10909332,-0.10798356,0.117998786,0.1366487,-0.116325706,0.08467538,0.017432949,-0.31662706,-0.03554797,0.0035287829,-0.1298411,-0.026579939,-0.023037132,0.1202116,0.018777793,0.18555528,0.110815704,0.030549511,-0.16902672,0.102657676,-0.03603619,-0.23407154,-0.03164054,0.12347548,-0.0072706924,-0.18541335,0.17960167,-0.059631735,-0.029227613,-0.045318376,-0.061581057,0.27612817,-0.10351356,-0.25427252,-0.15656553,-0.28589782,-0.12221412,-0.1992161,-0.030664718,-0.061280757,-0.18497436,0.05261477,0.14280969,-0.15618342,-0.30742624
-0.100047514,0.051518533,-0.08603102,0.086273566,0.17490476,-0.014684531,0.013529748,-0.18910608,0.031681914,0.07459786,-0.2802944,0.057648707,0.0024184452,-0.023450991,0.07281186,-0.10583527,0.07583886,-0.16512407,-0.11835392,-0.08139899,-0.17677966,-0.009146463,-0.19955245,0.15680252,-0.017881626,0.021964967,-0.059407055,0.00282504,0.019559715,0.021795345,-0.025241928,0.10816104,0.2015433,-0.00058310945,-0.022893403,-0.19206244,-0.23900208,0.25790295,-0.16499327,-0.011865057,-0.03126321,-0.09038651,-0.03865931,-0.047584753,-0.14755933,0.044684786,0.085522905,0.078250095,-0.004325624,0.2567819,-0.18606141,0.10266049,0.039739255,0.2030084,-0.19022402,-0.15744054,-0.017295469,-0.002742158,0.00022608772,-0.0750806,-0.12307976,-0.051994305,0.12885015,0.1368333,-0.16447057,0.1906056,-0.20416754,-0.23042695,0.08478922,-0.20019102,-0.16097817,0.2246749,-0.05768075,0.05827407,0.25497124,-0.014265982,-0.25022927,-0.13735858,-0.26614785,-0.048623595,-0.14550069,0.10884661,0.27937698,-0.03374251,-0.2708279,-0.16576377,0.20206717,0.05447867,0.25833213,0.03389623,0.1994285,-0.038853735,-0.031065876,-0.13541378,-0.12062726,0.13254043,-0.16428028,0.017496768,-0.19507577,-0.07047512
0.023881022,0.019169874,-0.022727244,-0.11681093,0.23440513,0.013177512,-0.21423946,-0.11761557,0.025767075,-0.09650179,-0.07439756,-0.054564655,-0.18445863,-0.046866626,-0.2833865,0.00911335,0.2037755,-0.0693743,0.0035948472,0.116154864,0.21608263,-0.0929202,-0.1901701,-0.10894837,-0.020371612,0.14632036,0.112216994,0.076031685,0.11080475,0.07686228,-0.055336304,-0.2605462,-0.040540367,-0.022085045,-0.15812154,0.19018571,-0.2590509,-0.015413033,0.13025549,0.08118512,-0.018502796,-0.0070637725,-0.25674266,0.106414005,0.22167961,0.07398676,0.2551173,-0.10637012,-0.120116025,0.04957224,-0.055612855,-0.12421013,0.0635373,-0.04562553,0.08070937,-0.20400752,-0.0652634,0.07948933,-0.2893145,-0.093863785,0.034049433,-0.111643985,-0.080997705,0.09295479,-0.07892733,-0.123823635,-0.30188566,-0.25120413,0.009123038,0.1035473,0.08545286,0.13872975,0.08462425,-0.05389674,0.2250677,-0.14575012,0.05042738,0.018310511,-0.02186845,0.16321677,-0.033060677,-0.26950067,-0.0411059,0.065008186,0.22602244,-0.24451585,-0.1605619,0.026273938,0.022152219,-0.21589135,-0.13962135,-0.20071413,-0.27635738,0.083030425,0.015213164,0.19858122,-0.008761534,-0.19860175,-0.14173815,0.26543692
-0.1945194,-0.044639204,0.07734988,0.045867957,0.06541214,0.0019330259,-0.21023466,0.062084552,-0.08425296,-0.20803411,0.047803573,0.06720115,0.09815646,-0.08472201,0.21914847,0.16948539,0.13678746,-0.042572465,-0.09318232,-0.08006181,0.09022385,0.20707712,0.20306872,0.117843285,-0.12950031,0.2762925,0.024993153,0.0393548,-0.19098617,-0.16768123,-0.083189726,0.14220989,-0.0017599467,0.011512744,-0.050315604,0.074684314,-0.022449365,0.1147425,-0.23597804,0.16623993,-0.22966926,0.18899845,0.013007443,-0.16909575,-0.046682972,0.08226916,0.07648531,0.11515616,0.29050088,0.07436819,-0.22693811,0.052601587,0.0017312659,-0.18938269,0.035381127,-0.021260014,0.11095154,-0.16412239,-0.029523583,-0.18244351,-0.20700972,-0.09949075,-0.09842507,0.27165386,-0.1623111,-0.052992318,-0.052605305,0.10752733,-0.16116078,-0.15672137,0.23521483,-0.29732198,-0.10309625,0.20117015,-0.03490285,0.035283327,-0.086402625,0.109234914,-0.16320732,0.032280233,0.2605526,0.1171293,0.16427562,-0.07808845,0.1263088,0.12266636,-0.026568871,-0.036613666,-0.01131258,-0.25139457,-0.24011672,-0.019297056,0.26527625,0.1879237,-0.041524027,-0.27074578,0.18277141,-0.059947122,-0.21817054,0.26211858
-0.18728416,0.07610706,0.21084096,-0.11765981,-0.023968501,-0.2443157,-0.22100598,0.31615484,0.097672164,0.21392637,-0.08877438,-0.10181289,0.07942338,0.11001629,0.20510763,0.20629732,-0.053104293,0.00748537,0.18801765,-0.0048958044,0.31398496,-0.18184337,-0.118871264,-0.26849627,-0.08888711,-0.2623476,-0.32488215,-0.15073305,0.1273529,-0.008824397,0.084625445,0.20306283,0.13286604,-0.18785758,-0.16844761,-0.014912782,0.09845439,-0.12770174,-0.19036666,-0.20380357,0.3022894,0.056027863,-0.06449521,-0.08035123,-0.12540506,-0.15456565,-0.037387814,-0.037033398,-0.036987036,-0.09123557,0.11625965,-0.049344286,-0.23303576,0.13723901,-0.031002002,0.27031776,-0.31718305,0.14294566,-0.1941027,0.14724246,0.21461464,0.18215154,-0.009465592,0.054479633,-0.31523424,0.03131898,-0.25943664,-0.034971952,-0.27541706,-0.13860439,-0.08166226,-0.2165065,0.060961805,-0.06308202,-0.29277033,-0.031715814,0.23080008,-0.16091219,-0.22453809,0.2042853,0.06058348,0.030993724,0.0056136125,-0.13033505,-0.21751338,-0.25114793,0.24637222,-0.023481265,-0.07458267,0.044210576,0.2209191,-0.019739423,0.040132444,-0.2278509,0.21885712,-0.09309345,-0.06412902,0.076329775,-0.058632113,-0.26422638
-0.09188154,-0.21343707,0.037032444,0.0072040274,-0.106353045,-0.20779757,-0.070410304,-0.26464915,0.010172152,-0.13764505,0.30179125,-0.002730364,0.075403616,0.025762286,0.14879361,0.21574448,-0.1292599,-0.23777197,-0.3064464,0.16681024,0.25724,0.16430724,-0.009728885,0.040186856,0.21921474,-0.035883386,0.1132055,-0.07148353,0.17299639,-0.090430796,-0.000571028,0.020740137,-0.031137623,-0.17098993,0.08147466,0.0037170493,0.09012375,0.043648954,0.11047853,-0.16511634,-0.07721434,-0.22281733,0.057557397,-0.021010494,-0.009495352,-0.14905736,-0.19936486,-0.03197085,0.084584974,0.20197397,0.07504642,-0.040774103,-0.25579256,-0.1975728,0.17543595,0.21762414,0.027572956,0.06397268,-0.009544342,-0.010440599,0.22565489,0.22292864,0.20015162,-0.12819934,-0.02867547,0.006257031,-0.10967698,0.0036583852,0.14703183,-0.2368894,0.07414323,0.12525964,-0.2394195,0.2024705,-0.028344272,0.1665303,0.16763571,-0.01845975,0.104016475,-0.04707954,0.13478851,0.14974958,-0.10327025,0.0060501317,0.12248205,0.05119746,-0.05456145,-0.24251494,-0.113095105,0.066850446,0.025868742,0.14161731,-0.15141366,-0.17799483,-0.23803942,-0.032411538,-0.18605828,-0.13500383,-0.013814486,-0.18766138
0.25303632,0.07343321,0.26808435,0.15705664,0.12950987,-0.051867872,-0.0077001224,0.024804972,-0.109346956,-0.15080039,-0.013813967,-0.1409946,0.094928764,0.09998911,-0.17675658,-0.035240486,0.0041619954,0.13180202,0.053391032,0.17842764,0.12675332,-0.21779794,0.011645508,-0.16333233,0.015863577,0.01583763,-0.15091597,0.0027406632,0.15773544,0.18028398,-0.1802694,0.07858988,0.21182276,-0.064076684,0.13897657,-0.1364204,0.049225528,-0.06389243,0.11931964,-0.20776077,-0.26213172,0.10211678,-0.21330087,-0.031939656,-0.32521725,-0.045468852,0.19830494,-0.28140873,0.03058827,0.1215302,0.22440459,-0.09618482,-0.11242608,0.08121455,-0.21819127,0.07132352,0.051615275,-0.04732374,0.10098283,-0.079079956,-0.19450499,0.05299239,0.05715545,-0.043834727,0.122270346,-0.08838595,0.106283486,0.062391493,-0.09921046,-0.093905486,-0.0566744,-0.20327473,0.037273455,-0.057731517,-0.19466767,-0.1160261,-0.10147011,-0.056843918,-0.24459888,0.039984163,0.0728795,0.09788484,0.07725349,-0.021804566,-0.1640831,-0.16177213,-0.0582029,0.07869604,0.124171525,-0.026240595,-0.16019629,-0.13806336,-0.13681377,-0.15245152,-0.08030009,-0.07322149,-0.0027932918,0.16475494,0.122900695,0.057945292
0.15367219,-0.09580563,-0.009605237,-0.054603845,-0.17448404,0.13255554,0.024777507,0.011914347,0.107891105,0.14564441,0.086848326,0.092150696,0.12208262,-0.058341105,-0.10301879,0.07509386,0.0076213367,-0.27365234,0.011157375,-0.21583207,0.07905713,0.18249683,0.12917615,0.03968284,0.00035554523,0.030830074,-0.19319434,0.052269228,0.04253308,-0.102760665,-0.06701504,-0.009972857,-0.1489108,0.20261864,-0.23167922,-0.09828839,0.011540897,-0.16429162,0.05692616,-0.077362455,-0.29695308,0.026124507,0.015202003,-0.0389641,0.11730433,0.29204226,-0.021728283,-0.04662422,0.08779622,-0.03037654,0.08161196,0.123988725,0.11641753,-0.11046485,0.0077405637,0.004896886,-0.07998607,0.10112078,-0.04973098,-0.045321845,-0.03699665,-0.19634496,-0.16972034,0.10560596,0.08209548,0.24159521,0.017676968,-0.037468515,-0.09015925,0.27326107,0.11454634,0.13354631,-0.10124944,-0.17217506,0.25627312,-0.17444648,0.2545523,0.11449394,-0.057528056,0.30088568,0.04923251,0.014370211,0.24462777,0.03203802,-0.265937,-0.0134816095,-0.1340822,-0.12247416,0.014228664,0.17369913,0.026265701,-0.08583285,-0.10446631,-0.071320884,-0.063410796,-0.19275613,0.03910795,0.09131453,0.113132656,-0.2484267
0.22076856,0.024150828,0.01737924,0.09958911,-0.060499344,0.0015175906,-0.13402274,-0.123074725,0.045738332,0.08030154,-0.3275439,-0.009973849,-0.046206977,0.09345386,-0.27468398,-0.14410701,0.07583887,-0.030635305,-0.041323047,0.19161414,0.078622326,0.13409336,-0.2685821,-0.19716048,-0.18415901,0.028403629,0.14507638,-0.14007613,-0.10454131,0.026513385,-0.19750617,-0.06628696,0.12115427,-0.009749301,0.098226845,0.019199675,-0.022623934,0.06859576,-0.20229584,-0.04123081,-0.010187682,-0.018656885,0.16383834,-0.32016957,-0.013249348,0.04435785,-0.07338112,-0.3053836,0.05991488,0.04656581,0.17141055,-0.199295,-0.055025723,-0.09925518,-0.044802744,-0.16252038,-0.21231902,0.08820555,0.055028517,-0.07674699,0.032451387,-0.010126657,-0.11364517,0.055735078,0.011929958,0.21146369,0.25130105,-0.11161985,0.14377747,-0.05432757,-0.118834816,0.12829715,0.2356372,0.068019204,0.03586554,0.3007627,-0.034214374,0.061794613,-0.05721665,-0.20694615,-0.19086272,-0.10891474,-0.28736702,0.06649005,0.066209294,-0.008476157,-0.012137032,-0.24714018,0.11511293,-0.12387657,-0.043582294,-0.085011296,0.088733345,-0.18735395,-0.3112034,-0.041630432,0.1993936,0.23267683,0.05575358,0.05927077
-0.12385063,0.024650086,0.13281548,0.047614343,-0.17437772,-0.2776547,-0.11574419,-0.13384886,0.28422028,0.0058561545,-0.15814449,0.2823582,-0.0050854264,-0.21894996,0.10944595,0.1897905,-0.111808896,-0.010403695,-0.16744605,-0.14108057,0.13072804,0.027603382,-0.10014823,-0.11065852,-0.030781254,0.3432507,-0.11371754,-0.20042524,0.032320704,0.20381631,-0.03055914,-0.026608517,-0.26200595,-0.00043712035,0.12185972,0.054847114,-0.15917347,-0.04795897,-0.011499786,0.13276802,0.07986656,0.07815086,0.01633357,0.11328757,0.0029745663,0.016771996,0.06947684,-0.009697724,-0.11313198,-0.042214666,0.007120335,-0.08839093,0.34317482,-0.077199444,0.24141209,-0.017088637,0.1050695,0.017728899,-0.013049488,-0.038815588,0.089802876,0.019216092,-0.0965267,-0.20270586,0.20074864,-0.06787915,0.042293034,0.1176453,0.19422029,-0.34789115,-0.1512133,-0.071986236,0.10678306,-0.16996635,-0.21204643,-0.10126421,-0.10820189,0.0104490705,-0.25009874,-0.17732887,-0.09584398,0.1843442,0.020123864,-0.10522368,0.09937843,-0.044309024,0.052804846,0.16637386,0.132535,0.024123736,0.027380224,-0.012687903,0.045888145,0.33472633,0.10984445,-0.058993977,-0.015402565,-0.19728595,0.25809678,0.12355997
-0.15037398,0.117360815,-0.13787146,-0.20619795,-0.038238887,0.09086476,-0.061990656,-0.04184429,0.005776398,-0.18539071,0.019719202,-0.21889204,-0.060011484,-0.3056106,-0.0069625494,-0.21156956,0.09594663,-0.00721263,0.2480859,-0.03252686,0.06251512,0.16885121,-0.10074801,0.050402526,-0.03190624,-0.02148885,-0.10306078,0.25835428,0.0890608,0.03572579,0.16197295,0.0746239,-0.06834255,-0.09512593,0.10260228,-0.14268441,-0.032664333,-0.13133125,-0.18719769,0.24811509,-0.046837766,0.15309195,0.0053723883,0.0710449,0.054573055,-0.12742804,0.022872698,-0.052046712,-0.01806949,-0.118071295,0.103342324,0.04379166,-0.20515482,0.1177691,0.095525466,0.28136516,0.08086889,-0.07293221,0.20852901,-0.104873136,0.14621449,-3.3975026e-05,0.06858267,-0.029018437,0.054582387,0.2992083,-0.0061550564,-0.030100847,-0.048191134,0.24148014,-0.10104216,0.14974622,-0.15644297,-0.28326616,-0.10139666,0.13783485,0.102574155,-0.28615543,0.031537626,0.023328416,-0.17225198,0.05337956,-0.024396388,-0.20176996,-0.050527103,-0.020130238,-0.20466243,-0.019997925,0.06144556,-0.17930692,-0.040128186,-0.13636976,0.0765072,0.02873136,0.06398508,-0.11197936,0.070476755,0.041380994,-0.06607118,0.10919389
-0.2020221,0.0038098828,-0.097996324,0.0015815215,0.2882791,0.19038314,0.087527715,0.13256346,-0.007838984,0.09642795,-0.2578537,-0.099764764,-0.016076846,0.3127269,-0.03822373,0.005680786,0.030810496,-0.09587101,0.25980398,-0.1478635,0.047838766,-0.10801695,0.22101228,-0.015096799,-0.24895298,0.033630423,0.00647433,0.023222696,-0.058033474,0.03628753,-0.24342032,-0.061992023,0.011242174,-0.2568843,-0.02133536,-0.16513903,0.0060297777,-0.18979782,-0.11344114,-0.1145397,0.2121865,-0.08953887,-0.1649487,0.1870351,0.023840956,0.0171236,-0.051184613,0.24820058,-0.17212032,-0.072519034,-0.12758835,-0.010637193,-0.0047016004,-0.17020857,0.064325206,-0.06861102,0.1110445,0.03760393,0.32270533,0.016886855,0.036885805,0.17309602,-0.20693636,0.23984028,-0.14425571,0.28266004,0.046153616,0.15088724,-0.22207317,-0.04376444,-0.033661447,-0.03234881,-0.19536933,0.06589964,0.2959115,0.04785449,0.10571052,-0.032170545,-0.18640548,-0.011374451,-0.11745465,-0.07410994,-0.29627702,0.06925387,0.23734468,0.28362128,0.10523119,0.1218234,0.04188253,-0.047945898,-0.038436282,-0.20886053,-0.07614606,0.0228142,-0.04217534,0.12058625,-0.21538953,-0.19539614,-0.13683295,0.063404545
-0.028851595,0.07926835,-0.12557493,0.037196733,-0.23116393,-0.09202903,0.12573448,0.08190787,-0.29492489,-0.014572327,-0.14257763,0.14455965,0.011961405,0.2480379,0.014731076,-0.037389535,0.3090016,-0.13963327,-0.033266943,-0.11989661,0.023768807,0.18959433,0.07294859,0.10226076,-0.17772558,0.08730113,0.14177223,0.16842668,0.01816953,-0.13667877,-0.31028903,-0.099168934,-0.04538496,-0.05099418,-0.08302252,0.0749405,0.060713794,-0.03903228,-0.16062199,0.24055117,0.0922924,-0.21128449,0.036211032,-0.008070764,0.06294888,-0.122199215,0.03675836,-0.0066024098,-0.067888886,-0.007470891,0.0050591175,0.06642884,-0.016496625,-0.05193943,-0.08261889,-0.014433089,0.018338915,-0.14154142,-0.019461242,-0.16680983,-0.0983441,0.15699086,-0.18825436,0.0054585137,-0.07796491,0.23657784,0.15738912,-0.07107548,-0.042658433,0.101602994,0.032204255,0.30155388,-0.1427089,0.16094866,0.004204219,0.05183516,-0.1525718,-0.04504455,-0.060955655,0.023266017,0.021473449,0.03948867,0.056578204,-0.09780269,-0.289166,-0.21640879,0.14077544,-0.16387168,-0.06888175,0.06277361,0.07207486,-0.12994969,-0.027656714,-0.08542516,0.17825955,0.093602896,-0.14671698,0.22898386,0.055788975,0.21227409
-0.053509314,-0.12682997,-0.22150093,0.0844659,-0.14653817,-0.018567083,-0.03143501,0.14626434,-0.0016933478,0.17781222,0.3210606,-0.1403687,0.1959339,0.052140296,0.10038098,-0.2284754,-0.02407715,0.0108313495,0.13596833,-0.11493987,0.26130378,-0.067065895,0.17104976,-0.001524537,-0.0716048,-0.04190432,0.011314482,0.21017088,0.20668672,-0.22189388,0.059209634,-0.11161481,0.0844004,-0.12642704,-0.050205354,-0.20811713,-0.09991563,0.12212044,-0.16851826,0.15544136,-0.0744669,-0.20087732,0.15526438,-0.011302041,0.028412918,-0.2596059,0.053498905,0.0633013,-0.09562714,0.23990431,0.26737076,0.069811314,0.22511159,-0.06335734,0.17047636,-0.02291491,0.010997833,-0.18050916,0.2524284,-0.03769494,0.007466877,0.11079344,-0.018095918,0.13565935,-0.04020071,0.14135513,0.05292561,-0.16977279,0.02778649,-0.056818534,-0.25712305,0.08954642,-0.09042048,-0.20372191,-0.11934966,0.04626968,-0.05049513,-0.10201498,0.17292036,-0.055116724,-0.11500011,0.019813651,-0.21763477,0.00801131,0.1877674,-0.0999634,-0.09983608,0.020643774,-0.2947386,0.03912817,0.0028825921,0.17877357,-0.16313237,0.18972594,-0.11825176,0.06241535,0.2260289,-0.17215472,-0.064695,0.05847838
-0.18406908,-0.28006348,-0.046813186,-0.11088266,0.26334402,-0.001984805,0.04677279,0.23182933,0.21659268,-0.0040181982,0.08341688,-0.15689453,0.17513224,-0.112867564,-0.11612053,0.19217156,0.28317198,-0.029024469,0.107648365,0.049373258,0.14621204,0.16059723,0.09815002,-0.15369149,0.06662371,0.03488966,0.18795338,0.15584952,0.009722863,-0.037189495,0.12366968,-0.25128186,-0.16386618,-0.1474502,-0.16357265,0.15725131,-0.14857745,-0.031484004,0.104095384,-0.29100505,-0.1411517,0.079636455,0.26802438,-0.05068253,-0.08712471,-0.06426189,-0.001192641,-0.14565864,0.14107278,-0.033528246,0.09769042,0.09415408,0.29420984,0.05102821,-0.007717104,-0.07179642,-0.18712065,-0.053474717,0.018947808,0.19573602,0.21872348,0.0065661613,-0.19396433,0.07239006,-0.12626918,0.109829746,0.13711886,0.12705006,0.086092055,0.11409196,-0.008424441,-0.1264976,0.22296648,-0.02647075,0.03980679,0.09310341,0.009221039,-0.06772275,0.13978538,0.077203594,-0.05434096,0.0010141988,-0.11011927,-0.19632782,-0.2021774,0.07503143,-0.27542573,-0.19817074,-0.08679259,-0.0313771,-0.10251508,-0.05572979,0.04184346,0.028878108,0.1435182,0.025774352,-0.17892025,-0.05009813,-0.26522496,-0.20829509
0.0031949568,0.19475341,-0.19207615,-0.07705856,-0.10667061,0.08765985,0.10300085,0.08451054,0.05538674,-0.095429964,-0.1478332,0.11422084,-0.060930405,0.14227185,0.04360744,-0.2941185,-0.18148305,-0.1617196,0.045702025,0.00823505,0.07602089,-0.17643178,0.0026387472,0.24656864,-0.2294174,-0.18871978,-0.2571679,0.013287578,0.18643785,-0.06811904,-0.14589481,-0.24686548,-0.0032345133,-0.28779474,0.046786405,-0.03870004,0.030683342,-0.0015260571,-0.1263171,0.0046697683,-0.09722388,0.00265474,-0.068998575,0.051654164,-0.05382653,0.15122785,-0.12768254,-0.027541857,0.12594701,0.0044103432,0.09770052,0.08624303,-0.18038024,-0.011612194,0.05787634,-0.13572413,0.11085874,-0.20381796,-0.17638366,0.13516705,-0.006004874,-0.25511894,0.022096798,-0.084672414,0.23140122,-0.12571959,0.029042354,-0.025915163,0.2852874,-0.13548934,0.120332986,0.006364537,-0.08001872,0.094407655,-0.16746874,0.0970487,-0.10430411,-0.124405816,0.025084049,-0.1096449,-0.04856899,0.22563443,0.21814452,-0.102042645,0.043557014,-0.09028522,-0.07201238,0.20643023,0.09368336,0.058534868,-0.11797367,-0.16838585,0.018892495,-0.021800315,0.032280784,0.07789319,-0.0017350755,0.22461751,0.13894093,0.03420492
0.17651431,-0.0069473176,0.044700783,0.05311991,-0.020038519,0.112601444,0.04611976,0.25182748,0.17565335,0.043896005,0.039992582,-0.12653941,-0.13175604,0.034272067,0.27697033,0.14722198,0.23910673,-0.038581703,-0.043537892,0.072621234,-0.18547669,0.09158979,-0.04851742,-0.008576412,-0.12369841,-0.24375741,-0.124803334,-0.05908429,0.23376107,0.0052957707,0.013188266,0.12632059,0.11543388,-0.29619074,0.13823527,0.18885732,-0.10745873,-0.10073605,-0.07719087,-0.056967568,0.17458585,0.05448149,-0.020789372,0.16365121,0.1418851,0.11962316,0.11783968,0.2635367,0.12654951,-0.04293796,0.020859621,0.31226137,-0.094253756,-0.15984431,0.11603558,-0.11374644,-0.06562013,0.23146053,-0.007956292,0.1868209,0.13644014,0.0044044205,0.06350615,-0.11882177,-0.05551528,-0.148366,-0.105531685,-0.026095819,-0.2479397,-0.03956072,-0.069634475,-0.022461114,-0.07147994,-0.0022227038,-0.0660185,0.03279466,0.05351196,0.02632839,0.07341152,-0.011762125,0.11669153,0.09459017,0.2448729,-0.09508924,-0.23379172,-0.11493009,0.11466107,0.08062189,-0.115899555,0.16255663,-0.057482686,0.018012041,-0.098675944,-0.10401368,-0.08523351,-0.090432934,0.055695865,0.20073244,0.002508846,0.10683189
-0.14055222,0.021033643,0.29456234,-0.28548133,0.047915563,-0.064221576,0.039842892,0.3135449,0.072974235,0.06452364,0.16803092,0.10641613,0.12788804,0.07828471,0.1310282,0.19802788,0.2897731,-0.054429557,0.16419518,0.041542787,-0.19987956,0.009954828,-0.055166766,-0.079493426,-0.11286204,0.06518972,0.074686706,-0.18907997,0.077687584,-0.109996825,0.096660696,-0.0010385617,0.107821375,-0.072409965,-0.16363104,-0.1730708,-0.2693599,0.023421723,-0.005406449,0.03783671,0.09816327,0.11234142,-0.15627676,0.12300984,-0.10042002,0.019851932,-0.1587057,0.13277936,-0.066727825,-0.062727846,-0.05191997,-0.10954776,-0.18084155,-0.29114002,-0.14106369,-0.051620886,0.014204576,0.17963824,-0.093502566,-0.21329106,0.02645103,-0.039331,0.07432729,0.04480287,0.18781826,-0.09994957,-0.16753575,-0.037617885,0.13157894,-0.18806979,-0.093625456,0.1209584,-0.11332256,-0.097636655,0.23309526,-0.20236973,0.09181703,0.030545756,0.3047574,0.10040536,-0.116614535,0.009161131,-0.002167108,-0.051180422,0.22127151,0.29525295,0.0039144224,-0.13440327,0.016988918,-0.28120118,0.108053744,0.23403814,-0.29131827,0.11315127,0.30036685,-0.15301408,0.034455266,0.12757374,-0.03967877,0.028343817
0.021611543,-0.24642389,-0.017530339,-0.054570798,0.18616213,-0.08643266,-0.015178547,-0.08267129,0.14158733,-0.034808066,0.09397936,-0.28262612,-0.17953585,-0.086324506,-0.1679214,0.30543554,0.03421911,-0.19534104,-0.0818381,0.16049744,0.10238961,0.11176992,-0.022421291,-0.1876403,-0.14655259,0.19040407,0.07912026,-0.15035716,-0.25599986,-0.092109546,-0.30605012,0.13915035,-0.05964064,-0.012717191,0.21750836,0.08327921,0.09705043,-0.09008513,-0.017921932,0.28765622,-0.094179876,0.062316347,0.13190092,-0.008415016,-0.023562571,-0.20866705,-0.047738492,0.09987295,0.08947865,0.101214066,-0.044129573,-0.03089227,0.020202456,0.06818442,-0.06967663,-0.19603539,0.2838637,0.14243726,0.30611157,0.11448901,0.16815935,0.087304674,0.008331193,0.15691473,0.059651595,-0.14372885,0.08080247,-0.014029728,-0.14044426,-0.10278796,0.04377801,-0.19203775,0.13781758,-0.0583032,-0.24557664,0.23387523,-0.041166015,-0.06763173,-0.008934677,-0.04081282,0.23963265,0.024374,0.087746754,0.049764,0.011222997,0.0092287045,0.09699934,0.04226626,-0.19173048,0.03062595,-0.010820656,0.071552135,0.06474479,-0.06550001,-0.04385019,-0.074739225,0.09803861,-0.049590506,0.15688604,-0.050646156
0.13958138,0.22917566,0.17351335,-0.18385673,0.12408367,0.023033071,0.028610803,0.0134527,0.28917465,-0.017522661,0.21173829,0.046513855,-0.060143247,0.2094363,-0.2657124,-0.091524705,0.19669315,0.08049345,-0.12837648,-0.055912666,0.031965762,0.14512973,-0.09270067,0.19073069,-0.007995261,0.10908114,0.12143812,0.16890891,0.14428298,-0.05763483,-0.19354697,0.2400088,-0.076765046,0.12079412,0.17892283,-0.006583848,-0.13204393,-0.12537602,-0.12657411,0.0439147,-0.07289776,0.02240889,-0.0564497,-0.24902692,-0.07190582,-0.15517555,0.06386097,-0.07729153,0.10401556,0.17210822,0.09155637,-0.0025702699,-0.061108053,0.1662712,0.17975864,-0.027805341,-0.17927873,0.05011108,-0.06463396,-0.08761364,0.1664278,-0.17392458,-0.0030299788,-0.13723996,-0.29133284,0.018793508,0.00439057,-0.015338149,-0.07238399,-0.23098856,-0.05062726,0.122488186,0.022651574,-0.118257105,-0.19317628,-0.041753557,-0.25115412,0.19967727,0.09478961,0.16538072,0.15806784,0.057866324,0.19315547,-0.08657379,0.115797326,0.05482248,-0.083285786,-0.097453296,0.029144997,0.19948004,-0.23735191,-0.051787954,-0.008980086,0.22712992,-0.13946441,0.17161411,-0.08951732,0.040794563,0.1052503,-0.3151955
0.19995777,0.071432374,0.14026485,-0.15680163,-0.0518425,0.032352798,-0.119251736,0.23031852,-0.23229715,0.04283614,0.17139396,-0.04368143,0.026891654,0.093484186,0.050490722,0.10332395,-0.14663456,0.11046177,0.11251805,0.016332844,0.181718,-0.13972276,0.17092751,-0.11261929,-0.028715478,-0.01846307,-0.023677347,0.16169783,-0.1107802,0.053888503,0.14530106,0.07057489,-0.09527036,0.026906129,-0.15992527,0.098216064,0.07288392,0.087654255,0.1498256,-0.24144603,0.019663068,-0.17214504,0.08786486,0.21585284,-0.036090344,-0.08016056,0.09456158,-0.13666908,-0.0733704,-0.27131125,0.083761625,0.14034055,-0.16736744,0.103787705,0.19094858,-0.16817646,-0.034061167,0.112703264,0.2903381,-0.21702032,-0.18240677,-0.09393816,-0.06856842,0.12952967,-0.019165894,0.025947677,-0.021782713,-0.18201265,-0.18226314,0.15671538,0.07850232,-0.01582901,0.009047128,-0.030728322,-0.0386769,-0.109126806,-0.24544047,-0.16023697,-0.059710216,-0.043630544,0.039462693,0.10078689,-0.07206023,0.047260128,-0.080129996,-0.2362837,0.16561963,-0.19776155,0.05158446,0.008022314,0.053041115,0.067963436,-0.15544929,-0.087651454,-0.14011392,-0.029780798,-0.25733617,0.040280655,0.16849977,0.047913905
0.152737,-0.037547767,-0.05801383,0.11200291,-0.2806045,-0.07592571,0.25226504,0.088329956,0.11763305,-0.19049832,-0.057709217,0.03992435,-0.25929302,0.20408936,-0.081199534,0.14578857,-0.14008667,-0.14642255,-0.035340838,0.037451714,0.20066147,-0.03446669,-0.17213441,-0.20209292,0.06805763,-0.09877996,-0.1102496,0.16166052,0.06562559,-0.0037840237,-0.024367617,-0.103940524,-0.095852084,-0.104832485,0.024391605,0.08702374,0.2512458,0.2979396,-0.08067677,0.10987126,0.07470289,0.26659268,0.122080125,-0.09807216,0.06368384,-0.16641021,0.24190779,0.2375122,0.10181543,0.026850417,0.32028443,-0.051482074,0.1431714,0.016987316,-0.071812786,0.021942945,-0.23190069,0.106964424,0.049055256,0.1889709,0.09012503,0.12530558,0.2746425,0.11982231,0.052573636,-0.100789286,-0.12819429,-0.11038136,-0.24971117,0.042801946,0.09998142,-0.070659555,0.1310641,-0.18104444,0.005232979,-0.061676357,0.21986659,0.15197127,0.25138733,0.2854601,-0.28080627,0.10172979,0.19457674,-0.031847596,-0.14923142,0.12168708,-0.117218845,-0.1836373,-0.26096526,0.023903394,0.20783673,0.09760954,-0.18876234,0.030143525,-0.038693633,-0.10259383,0.18246014,0.08327842,-0.05861647,0.106981374
0.23373927,0.030823836,-0.12352385,-0.22985761,0.00948071,-0.14484096,-0.121018626,-0.28027615,-0.14880152,-0.1052378,0.060169388,0.08243567,0.2934448,0.11967316,0.0075925426,-0.005477558,-0.25552154,-0.091245525,0.071432814,-0.06955291,-0.04956422,0.14291412,0.22500995,-0.069928505,0.22104815,-0.19657026,-0.082577266,-0.17952624,-0.20924774,-0.11989774,0.12062752,-0.23582049,0.016124686,-0.06353024,0.013484835,0.089252986,0.07513291,0.037953433,-0.0133729065,-0.26127735,0.15764813,0.28924608,-0.30033028,-0.02608222,0.050537184,0.056704435,-0.11559555,-0.24489401,-0.09673624,-0.03435881,0.062246107,-0.056610353,0.14617741,0.25255343,-0.033659842,0.06864158,-0.3150364,-0.056616284,-0.26218727,-0.11676934,-0.28304854,-0.17899992,0.015978787,0.051464435,-0.18874079,0.020176064,0.30670005,0.02013458,0.10005985,0.031135755,-0.11937531,0.13154669,-0.27130777,0.014485105,0.065740824,-0.015131475,0.073532596,-0.16167226,0.0052427356,0.020263763,0.14585578,0.06426504,0.28897914,0.1511941,0.056698196,-0.27882278,0.23241037,-0.09112965,-0.21276015,0.22815102,0.11753217,-0.1541272,-0.09724096,-0.14969537,-0.17054361,0.24422817,-0.2599397,-0.24032776,-0.0008403825,0.005560477
0.22653137,0.20315045,-0.035193235,0.12651831,0.18761638,0.12543611,0.021022944,0.0033488423,0.010632783,-0.16720611,0.008947692,0.15871888,-0.22459,0.036329214,0.11688278,-0.2634546,0.31421736,0.19117233,-0.06301274,0.07602965,-0.008388721,-0.0069900425,0.05936593,0.3077806,-0.00023299125,0.06642305,-0.101215385,-0.13411836,0.112009525,0.17054686,0.04609909,0.14899208,-0.060217585,0.17632787,-0.10838999,0.037757542,-0.18538487,0.110929176,0.23053774,0.11069457,-0.090463474,-0.12573358,0.033487972,-0.12866008,-0.19292785,0.18497209,0.13092257,-0.18903537,-0.063812934,-0.2244209,-0.037788063,0.0015884271,-0.19648738,0.09126518,0.17791744,0.20750627,-0.05875351,-0.1821163,0.0067929756,0.1349414,0.093265675,0.10046066,-0.12003882,-0.1019837,0.023657547,-0.018339982,0.112642124,-0.1740808,0.28317595,0.10452984,-0.27663368,0.15936206,0.093136266,0.103266336,-0.14573784,0.026597086,-0.1703278,0.1308573,0.09028601,-0.23057683,0.094453104,0.002106658,-0.047733866,-0.030195726,0.08210905,0.06730498,0.077593885,0.08379077,0.028762309,-0.09347081,-0.17583886,-0.1208433,0.12140122,0.007782341,0.20122807,-0.09937147,-0.09626241,0.0063438336,-0.16019942,-0.10090067
-0.05429737,-0.07505974,0.2187926,0.18965413,-0.050065365,-0.023216639,-0.084770404,0.045213014,-0.0037750355,0.098336115,0.08992091,-0.17030565,-0.04164114,0.110933475,-0.13447617,-0.12666006,-0.15762873,-0.12890956,0.015170091,0.23337503,0.035645723,-0.22002482,-0.038065765,0.34191176,0.18891373,-0.1350966,-0.020072818,-0.276563,-0.09326059,-0.077110246,0.020942084,0.11568566,-0.227453,0.09088743,-0.08830733,0.05350168,0.18717131,0.040769693,0.1633854,0.0120727215,0.23572053,0.12933289,-0.24883498,0.12054232,0.07216234,0.19273359,-0.06918357,-0.092292495,0.12638226,0.10634874,0.052068867,0.2618318,-0.03547641,0.13220912,-0.04560781,0.09940397,0.29289204,-0.04833447,-0.15636717,-0.10025989,-0.063456535,0.10542907,0.0116405515,0.026268119,0.06114807,0.022400988,0.20124297,0.09289006,0.16248146,-0.19460522,0.049904015,-0.20558776,-0.035103656,0.005688769,0.26328528,0.18353008,-0.10472321,-0.026780091,-0.09744226,0.014382873,0.15435846,0.013706781,-0.060452722,-0.07951168,0.094784416,-0.062751114,0.24510412,0.025804888,0.18809111,0.05414866,-0.17009242,0.103288494,-0.108378634,0.020877182,-0.10276299,0.07333255,0.11928666,-0.016158849,0.18200418,-0.29818138
0.106414795,-0.10171467,0.027383111,0.13445184,0.018473709,0.12987159,-0.10849432,-0.12668191,0.31835908,0.11268629,0.12402716,0.21690422,-0.12788339,-0.07512436,0.018703148,0.11825248,-0.06397802,-0.111258626,-0.23322608,0.08031948,-0.03979063,0.035471592,0.11839479,0.14135744,0.24530499,-0.09638705,0.16643283,-0.013921227,-0.116839044,0.17465155,0.011991833,0.10452019,-0.27216184,0.1469901,0.17577352,0.038806137,0.08133127,0.25269982,-0.18647745,-0.15685828,0.16433302,-0.10268187,-0.019589825,0.16773131,-0.20289713,-0.24011567,0.067568876,0.0744557,-0.14709003,-0.0068011987,0.19547623,0.22750974,-0.074542746,-0.01182127,0.026354052,0.015083253,0.020484434,-0.0022941828,0.107605115,-0.1823229,0.18088047,0.18424532,-0.21986651,0.037741337,0.014811298,-0.31383777,0.1990651,-0.13121475,0.04474798,-0.08388655,0.11019399,-0.13545077,0.063775964,-0.19897462,0.103638634,-0.17390446,-0.10212552,0.25268373,-0.20812671,-0.1178305,-0.27791867,-0.03532256,0.017422032,0.2324813,0.12448676,-0.13455091,-0.03479147,-0.17191298,0.033570923,-0.28378642,0.018539071,0.105961256,0.107141875,-0.18546751,-0.24325728,-0.021502713,-0.009973929,-0.12004817,-0.0385396,0.054165766
-0.11570008,0.09702773,-0.032729875,-0.10410192,0.0023165066,-0.12843186,-0.2298306,0.12307989,0.03114372,0.18822256,-0.106743135,0.043389227,0.24590696,-0.009988847,-0.115268424,-0.15720241,-0.11695316,-0.096013576,0.018822901,0.009274265,0.028176349,-0.13762675,-0.03281572,0.24307987,0.04370637,0.017196605,0.27500826,0.008108412,0.22034389,0.26168317,0.021531874,-0.25426847,0.3192132,0.15962368,-0.098005064,0.034052994,-0.0031035137,0.14205141,-0.13401954,-0.20729291,0.001763154,0.0693935,0.1635113,0.116933875,-0.10943239,0.24529098,0.14557344,0.047701966,0.052406542,0.18750322,0.18925048,-0.1531339,-0.18406962,-0.103800766,-0.040964246,-0.11738376,0.087258294,0.2714811,-0.17147918,0.07425117,0.12654425,-0.16538139,0.10944981,-0.22479534,-0.012748867,0.028508978,0.05498946,0.16792613,-0.088621296,0.067493424,-0.13715145,0.20863596,-0.008960263,-0.041731734,0.09627479,0.030158462,-0.057559293,0.23312856,-0.12555458,0.13743956,-0.1225623,0.04137556,0.006311597,-0.008658343,-0.030703392,-0.092906535,0.22770602,-0.039576065,-0.010633578,-0.16070628,0.013747309,-0.10722567,-0.0024405331,0.2750287,0.026271746,0.0042436547,0.24585858,0.1750248,-0.14827135,0.051340513
0.10776484,0.21353215,0.08032667,0.029255332,-0.19539571,0.020041935,0.10015174,0.1611758,0.033255976,-0.19394046,0.008172049,-0.052488387,0.08246732,-0.11830543,-0.28617856,-0.0063596913,-0.12061232,-0.001017376,0.100148425,-0.16313711,0.19038826,-0.101624236,0.064289674,-0.104341544,0.12746951,0.06352982,0.21809876,-0.0062053422,-0.26734957,0.1167531,-0.21474063,0.19473031,0.022115167,-0.15920134,-0.013953362,-0.041346073,-0.23735322,0.2133939,0.19714838,0.06305407,0.09681641,-0.0045018243,0.031628765,-0.21850632,-0.08222135,-0.14692396,0.17770948,0.019330328,0.027666802,-0.18010783,-0.037043903,0.124909215,-0.035437513,-0.16088822,0.24905123,0.17924027,0.026806155,-0.0069143954,-0.05354809,0.17379838,0.006534737,0.08460768,-0.12757501,0.100280166,0.08568423,0.0075459364,0.10682783,-0.3295316,0.09994853,0.17849658,0.2898427,-0.17725702,-0.2379897,0.13891779,-0.2153874,-0.07865222,-0.10037115,0.12093802,0.02977382,0.20837533,-0.076553196,-0.28779334,0.26452616,-0.11968976,-0.1523997,0.029821418,-0.17291412,-0.24195458,0.040138733,0.14334442,-0.10116616,-0.05083574,0.16621006,-0.06891568,0.20655322,0.2748321,0.03296426,-0.13226387,0.04728443,0.059774023
-0.12925921,0.1222196,-0.1709812,-0.025422193,-0.13819146,-0.13504161,-0.10945575,0.2687042,0.14664416,0.16700155,-0.19184422,-0.014195552,-0.03932824,-0.0098444205,0.17967391,0.06947857,-0.003971805,0.10506488,-0.03849864,0.12796636,-0.013198446,-0.02193469,0.07775557,0.13000958,0.26729235,-0.13736783,0.2682306,0.20756572,-0.04247686,0.04607994,0.18979505,-0.16956775,0.076518565,-0.08935331,-0.1898637,-0.10264455,-0.045784052,-0.085359305,0.11245784,0.15612333,0.08896467,0.049402807,0.08819589,-0.11341425,-0.17814009,0.22748362,-0.05916042,0.039330717,0.06365622,0.018860321,-0.2544741,-0.14778084,0.32058504,0.124025956,-0.08460854,-0.07300289,-0.07916678,-0.048129257,-0.14960481,-0.03430963,0.21872862,0.055133905,0.16269343,-0.024246104,0.14586243,0.014733373,-0.05003379,-0.14735644,-0.0341312,-0.09746398,0.15769055,-0.15564463,-0.027430506,0.0053635933,0.22501145,0.2441807,0.13667162,-0.06269349,-0.08312108,0.104961775,0.1155268,0.043528534,0.027060654,-0.044778604,-0.05635399,0.164626,-0.26028815,0.14012453,0.13113089,0.30570325,0.110608995,-0.17080599,-0.115902185,-0.07891488,0.09230648,-0.08643788,-0.22884412,-0.024047818,0.08419755,-0.041369416
-0.04059523,0.21524762,-0.057932444,-0.26529193,-0.18281932,0.06330108,0.005860839,0.110196255,0.052753456,-0.17318688,-0.12437034,-0.04489826,-0.06551015,-0.13065863,0.27685702,-0.027293483,0.27731782,0.04098566,0.13137294,-0.038138032,-0.18820299,0.05599897,-0.012932352,-0.058482885,0.014957887,0.19805214,-0.18585533,-0.28520465,-0.026005263,0.14966573,0.065248385,-0.2461699,-0.24430057,0.028804,0.19949612,-0.10494759,0.23590581,-0.18937176,0.16818565,0.17095026,-0.14379431,0.053109072,-0.17754534,0.08585029,0.03872737,-0.031865127,-0.06453294,-0.3220693,0.19454971,-0.09759975,-0.26129842,0.116537616,0.036367368,-0.053191856,-0.0056655374,-0.06558863,-0.044310067,0.16631208,-0.013034449,-0.088348806,0.13511585,0.15811722,-0.06599939,-0.09640258,0.025120957,-0.2849043,-0.05031982,0.1675429,-0.28446865,0.14316712,-0.17450106,0.18863739,0.196555,0.034592316,0.020203322,0.23554148,0.11422944,0.1040587,0.16258046,-0.17115563,-0.14500469,0.05584115,0.17266546,-0.09780253,0.030123953,-0.021293005,-0.15241334,0.06395345,0.2571517,-0.033557825,-0.006645292,-0.030980086,-0.1958681,0.2963296,-0.13809273,-0.12579593,-0.02593519,-0.004060872,0.077326976,0.18976179
-0.05626378,-0.08602536,0.32357305,-0.11009062,0.2140716,-0.19252248,0.09258866,-0.1728437,-0.1879592,0.17680332,-0.06975539,-0.13938934,-0.09711841,-0.137353,-0.13130231,-0.12023805,0.14110063,0.12072185,-0.0985799,-0.11136872,-0.15917796,-0.29378253,-0.16036554,-0.30150148,-0.15253659,0.08312098,-0.15868743,-0.25953817,-0.27095523,0.040449813,-0.0715112,0.08743963,0.20522285,-0.28282377,0.22549012,-0.031467766,0.049720287,-0.11060874,-0.18329644,0.1205688,0.06665359,-0.2370739,-0.1931282,-0.067747496,0.022068117,0.014562696,0.109995835,-0.09706747,0.008660964,0.010985509,-0.08782255,0.16695212,-0.20225139,0.0885012,-0.07504317,0.08675693,-0.06901482,0.16573747,0.11548813,-0.23211859,-0.17525311,-0.11596142,-0.18614334,-0.075590745,0.24976002,-0.011625928,0.16263027,-0.20723572,-0.14022343,0.06212,0.19134058,0.047450572,-0.039260436,-0.005641702,0.26874915,-0.06955174,0.016998375,0.19932002,-0.09878414,0.17124571,0.11090684,0.19612093,0.059568968,0.13153163,0.043928023,0.06884906,-0.0378798,-0.10322108,-0.04116559,0.17412739,-0.032788366,-0.08136594,0.080589384,0.2932417,0.06739746,-0.13752007,-0.0013332422,0.20641986,0.113702826,0.10014728
0.17471449,0.060233496,0.0933668,-0.18174438,0.017294649,-0.03496682,0.05126845,0.21677509,-0.16084552,-0.0686759,0.2930617,0.106661305,-0.029267522,-0.08487773,-0.07507826,-0.29300982,0.024698852,0.12687051,0.19848396,0.07742251,0.06574154,-0.002215125,0.058846705,-0.040844608,-0.08060925,-0.032661304,-0.007715185,0.18823174,-0.22192334,0.09755328,-0.11034175,0.034935646,-0.06721351,-0.15465306,-0.044775672,0.15013377,0.023187768,-0.0070031346,-0.11255529,0.11045961,0.07210176,0.024744088,0.20896898,0.21073395,-0.002568027,-0.21992524,0.0907322,0.2792436,0.057856705,0.049411412,-0.09000009,0.30128413,0.16593274,-0.10023768,-0.21660404,0.012880629,0.10179546,0.14287317,-0.06932449,0.07215378,-0.15857469,-0.30946675,0.17575505,0.061260946,0.111294575,0.29574558,0.06867251,-0.06183539,-0.07665586,-0.023406444,0.048137747,0.07300366,0.1159622,-0.116003506,0.09636396,-0.11121734,0.21279268,0.19906096,-0.21457545,-0.023004176,0.1896149,-0.008330954,-0.24243435,-0.16259496,-0.08204297,-0.10349371,0.11101384,0.10523088,-0.2944184,0.12012838,0.19188596,0.1481289,0.16642994,-0.17421883,-0.00865679,-0.07714932,0.06629864,0.00285664,-0.099293895,-0.2540447
0.1514501,-0.16538036,-0.03547631,0.12936696,0.020380411,0.12849894,0.12616493,-0.25575885,0.1497204,0.088189565,0.17212555,0.011169455,0.03934316,-0.0867413,0.06553706,0.27382103,0.077752404,-0.13055599,0.18511005,-0.08777676,-0.19050132,-0.05228224,0.0028547705,-0.06026904,-0.3137986,-0.113808855,0.24192657,0.1174257,-0.058107667,0.12638573,-0.047733027,-0.034199286,0.28697369,0.18203747,-0.16695467,0.250998,-0.071081504,0.28566667,0.14285138,0.086896956,0.11626122,-0.202007,-0.069372736,0.080593854,-0.008704079,-0.073054545,-0.038464658,-0.0028833654,0.037791967,0.12675488,-0.14165318,-0.15830182,0.003316024,0.13780582,-0.11466629,0.22403769,0.25290698,0.1267714,0.08818272,-0.087288275,0.07552883,-0.18258472,0.23589247,-0.09351784,-0.15087546,0.051431067,-0.036879096,-0.024798796,-0.104800835,0.08089963,-0.13114749,-0.04289459,0.14867125,0.17042561,0.10642953,-0.12603262,-0.07311989,0.05662282,-0.041263197,-0.114993274,-0.110332645,-0.089305,0.0419432,0.113252334,0.2449857,-0.26412156,-0.06863525,0.2569736,-0.007661828,0.10276345,-0.06930452,0.20579915,0.21088007,0.13146739,0.018940073,0.09468104,-0.03570043,0.11338048,0.058232296,-0.15758058
