0
-0.0037846519
-0.0063564973
0.0100430725
-0.0074391626
-0.011795472
-3.5299046e-05
0.029199958
-0.013327557
-0.01661619
0.00022583167
-0.0019363813
0.020152386
-0.00030871603
-0.0027848103
-0.018409017
-0.004350414
0.006003434
-0.009397218
0.0080008805
-0.006157066
-0.004649153
-0.011037245
-0.0046924287
-0.01461162
-0.0005007293
-0.005827844
-0.008238824
0.001403056
0.0031842468
-0.0003980937
0.0019320064
0.01970496
-0.017418975
-0.0037083218
0.046612535
-0.0018962268
0.012502878
0.00547869
-0.005673505
0.0011310058
-0.007795545
-0.0056458707
-3.0386557e-06
-0.0016812928
0.006631736
-0.008066969
0.011748261
-0.007233876
0.0016482011
-0.005140073
-0.022006417
-0.00045022907
0.007957775
-0.0068130223
-0.009153623
-0.02868944
0.00378562
-0.015146631
-0.0055829147
-0.008842407
-0.010426121
-0.0012240085
-0.009363705
-0.0020821586
-0.0054659983
0.0067131636
-0.0253432
-0.011523069
-0.00367002
0.0033030682
-0.01314982
0.005974876
-0.01037932
-0.0019605204
0.009318117
-0.0023888268
-0.013038186
-0.0088447835
-0.020973386
0.0010851802
0.0025888039
-0.0021178108
-0.009938025
-0.0005793732
-0.0028451353
-0.00017926548
-0.021540048
-0.019452384
0.021089217
0.00049008004
-0.0032988817
-0.007812143
0.030319165
-0.0069499346
-0.0082080895
0.0021568884
0.032028615
-0.0057493523
-0.0040202825
0.0013951203
