0
0.0068781693
-0.007899276
-0.013984493
-0.00583985
-0.002994297
-0.016875435
-0.011314171
0.005419992
-0.0031532426
-0.008038592
0.0017867177
-0.022739254
0.005361406
-0.015162607
0.014855633
0.0020860196
-0.0071549616
-0.005165289
0.0026628466
-0.0080256425
-0.0078124846
-0.0050253295
-0.0004958129
0.0029235175
-0.017183881
0.0045067146
-0.010653517
0.0028850776
-0.0066479626
-0.0017800159
-0.013760081
0.012021317
-0.035283357
-0.0355569
-0.023020362
0.00590611
-0.009730505
0.0449303
-0.008053762
-0.008384383
0.0008610121
0.014161012
0.004772746
-0.0075608594
-0.017645555
-0.008167658
0.0060214456
0.0055429763
0.010307689
-0.0021538946
-0.01830767
-0.00054722937
-0.025131613
0.0050058984
0.006452932
-0.018111447
-0.013022317
-0.011985959
0.0010545577
-0.011922574
0.0015283857
0.0077645793
-0.021905513
-0.0056097694
0.0014158038
-0.023603542
-0.0023434267
-0.015810177
0.0049985773
0.017999427
-0.00010818714
-0.01380735
-0.009155921
-0.0031386104
-0.0065493416
-0.009361395
0.00354301
0.0016306881
-0.015833281
-0.008169087
0.009035606
-0.009105228
0.0007714583
-0.005477838
0.015037628
-0.011714487
-0.009139233
-0.0068143466
0.01940336
0.0040194825
-0.0079038665
0.019264555
-0.015624145
-0.0036778129
-0.004761602
-0.01479206
-0.022354282
-0.023895368
0.008522967
-0.006282716
