0
-0.0053763147
0.010237805
-0.0043422566
-0.024244549
-0.0049910643
-0.008005286
-0.0067498432
0.015315712
0.014092206
0.018463066
-0.007599748
-4.764842e-06
-0.010345871
-0.000554905
-0.0038116171
-0.004296294
0.01972736
0.024601778
0.0043764478
-0.0080927955
-0.0072880834
0.00093294226
-0.0064722938
0.013647011
-0.004040854
-0.0102916965
-0.000549758
0.0048538167
-0.016379386
-0.0028386994
-0.007489864
-0.0012787823
-0.003815111
-0.0042555714
0.007376343
0.00072196283
-0.0029228248
0.0
-0.0084326025
-0.0025271918
-0.005740127
-0.024296433
0.033331092
-0.015649457
-0.0034439687
0.00065303507
-0.008443587
-0.004228783
0.008173195
-0.011039234
-0.011940594
-0.0030799904
-0.0026694804
-0.026583327
-0.012545004
-0.009462878
-0.0051257904
0.0023411966
-0.006385877
-0.015407495
0.009264862
0.017123569
-0.014067973
0.008929869
-0.0077078
0.006126319
0.0023147648
-0.0032573089
-0.007715659
0.004184286
-0.008560837
-0.006695761
-0.006195979
-0.003390352
-0.0059449584
-0.00015171092
-0.0076044346
-0.011307702
-0.0022541774
-0.0020097361
0.0026555366
-0.0032127372
-0.022027552
-0.010350971
0.015091585
-0.007075608
0.004551551
0.0115286745
0.004185692
-0.010089127
-0.0028986884
-0.015647516
-0.006521473
-0.004948172
0.024488803
-0.0125291655
-0.031475496
-0.01943203
-0.018667448
-0.006057281
