0,1,2,3,4,5,6,7,8,9,10,11,12,13,14,15,16,17,18,19,20,21,22,23,24,25,26,27,28,29,30,31,32,33,34,35,36,37,38,39,40,41,42,43,44,45,46,47,48,49,50,51,52,53,54,55,56,57,58,59,60,61,62,63,64,65,66,67,68,69,70,71,72,73,74,75,76,77,78,79,80,81,82,83,84,85,86,87,88,89,90,91,92,93,94,95,96,97,98,99
0.025327997,0.006057079,0.0003900628,-0.020065239,0.0010392162,0.002965859,0.11759924,-0.13630769,0.052462153,-0.005087042,0.25557575,0.13473316,0.20533061,0.2394908,0.028962012,-0.014096037,0.065277174,-0.15399839,0.19743927,-0.046981003,-0.20600078,0.17553304,0.17266972,-0.14429738,-0.28033206,0.08292974,0.13014899,-0.18791123,0.20693354,-0.17008978,0.1412107,-0.13723192,0.03458353,-0.035933785,-0.12767723,-0.1611196,-0.17193602,0.26064828,0.067327395,0.16598463,-0.033796575,-0.08680388,-0.07829881,-0.09344804,0.08638865,0.17742781,0.07812424,-0.18136227,-0.21943249,-0.16977091,-0.04121034,0.0053737354,-0.25328967,-0.12490007,0.058648158,0.018388798,0.06790066,-0.15280703,0.09704216,0.0101014115,-0.15746842,0.03541525,-0.27149484,0.12203474,0.07990476,0.12601823,0.21434404,-0.059176657,-0.06752086,-0.01856366,-0.1593752,-0.13731112,-0.1768103,-0.19255722,0.24407499,0.00071298954,0.1936206,-0.033577304,-0.1206411,-0.109247826,-0.11493865,0.027484294,-0.055935662,-0.3123537,0.098686144,-0.020706162,0.06558551,0.058628153,0.07395188,0.12735768,-0.12534152,-0.13365464,0.067614995,0.05586543,-0.026316134,0.08732314,-0.18071209,-0.079401486,-0.1718319,-0.11509167
-0.2464027,0.051512133,-0.060720026,-0.292222,-0.074417226,0.14939658,0.023731148,-0.02517272,0.0018995164,0.21105233,0.1514743,0.06333367,0.18830273,-0.099828415,-0.10454209,0.09751071,-0.17527844,0.17325914,-0.15012208,0.15229066,-0.2284155,0.19486578,0.17414953,-0.25745866,-0.2394318,-0.12147046,-0.12481909,-0.05240294,0.11130371,-0.03518843,-0.03897934,0.0805694,0.022257483,-0.021192228,0.06567383,0.063607916,-0.0022464814,0.12791985,-0.07904005,0.06946709,0.05135144,-0.13744676,-0.10312597,-0.15444636,-0.12216129,-0.010381377,-0.1806164,0.07112162,0.20751318,-0.06713886,0.10752015,-0.15612699,-0.15224232,0.08876327,0.127682,-0.14408535,-0.099394314,-0.010018906,0.016706513,-0.29586193,-0.07485191,0.17353797,-0.27638084,0.10509176,0.107644916,0.09749397,0.068776295,-0.0471091,0.09597616,-0.07793036,0.12659709,0.22769241,-0.15935959,0.025476186,0.29954562,0.11280295,0.090876706,-0.093057394,0.02861278,0.08988385,0.2194457,-0.0016271202,0.23678797,0.085116394,0.180955,-0.27548078,-0.31944337,0.10072307,-0.13810581,-0.037442386,-0.13825648,0.09896167,0.05652682,-0.07900587,0.29385424,-0.058729317,0.13271847,-0.02563607,0.24584943,-0.08602254
0.045487206,-0.23048197,0.14780675,0.12429206,-0.08943135,0.017084887,0.07713996,-0.1472134,0.22960287,0.12514558,0.26979217,0.045592185,-0.028895248,-0.11797988,-0.0014298197,0.2217574,-0.07424722,0.25647506,0.023118552,0.09780108,-0.003145222,0.1228664,-0.2096946,-0.15749855,0.017343923,0.08762399,0.033983238,0.15185077,-0.1345117,-0.08326412,-0.1558745,0.08837513,-0.2748799,0.19332322,-0.046756804,0.08778901,0.1348461,-0.19873603,-0.0438157,0.22099482,-0.08753714,-0.051359616,0.23837934,0.03961084,0.12788562,-0.14837593,0.18308958,0.23514636,-0.054148246,0.20598748,-0.2528999,-0.07645912,0.024430208,-0.036422916,-0.00038018517,0.12710601,-0.012629362,-0.012810905,0.08639096,0.15778962,-0.098854534,-0.13124795,-0.17328812,-0.09109243,0.102747,0.2904975,-0.07838276,0.10340334,-0.27173725,0.019311698,0.10504039,-0.23144175,0.07915644,-0.10303323,-0.080880344,0.0062818998,-0.18511102,0.083697096,0.10115219,-0.122519895,-0.14563222,-0.1674741,-0.122135065,0.073464975,0.24802104,0.10902524,-0.12653564,0.20720038,-0.06305033,-0.1970766,-0.05238586,0.14175978,0.19264488,-0.055948354,-0.10125752,0.25390622,-0.009944798,-0.013386091,0.06999033,-0.10142037
0.0929494,-0.33172554,-0.014051236,-0.044384416,0.27634418,-0.11469434,-0.1550501,0.036902774,0.18334161,-0.13714825,-0.17083766,0.083071396,-0.29045558,-0.017410615,-0.0011160488,0.07189757,0.067033134,-0.004224798,0.117706,-0.01865152,0.01697022,-0.16498421,0.10624319,0.14750615,-0.222909,-0.15775694,0.13874272,-0.20429212,0.06308338,-0.22684908,0.052482996,-0.054008145,0.15018156,-0.18333368,-0.028363427,0.053390216,0.006368379,0.14492962,-0.06947472,0.09034199,-0.012311011,-0.12632126,-0.099428885,-0.21570136,-0.014033279,0.0011842089,-0.15339659,0.24144715,-0.06797377,0.029962227,0.031594407,0.19404162,0.0051670913,0.04789493,-0.10716087,0.010422404,0.21288183,-0.017255772,-0.056448933,-0.25517312,-0.12403054,-0.05081172,0.048232324,0.09172702,0.0036831992,0.034427304,0.060200434,-0.13955858,-0.24459893,-0.051603593,-0.068187565,-0.050057106,-0.23496884,0.10660697,-0.22678755,-0.0776124,0.01683953,0.20716874,-0.0066625667,-0.29597494,0.016019005,0.1928223,-0.096042074,0.28872812,0.104172476,-0.09474463,-0.24460533,-0.11827305,0.20395628,-0.036988627,-0.073976316,-0.14981633,-0.118530616,0.15549946,-0.299585,0.0588607,-0.23830591,0.03580992,-0.20280212,0.12906988
-0.019134602,-0.16084038,-0.20990065,-0.06600203,0.15432134,0.16172542,-0.17387073,0.07120033,-0.02531571,0.052440774,-0.007437853,0.23985085,0.21456353,0.1699722,0.17510203,-0.062111225,0.08076895,0.036536634,0.286862,0.19802961,-0.091554746,-0.06859318,-0.021624565,0.016751915,0.10465103,0.07419192,-0.054810796,-0.08766756,0.12750548,0.26229608,-0.07271971,-0.13043365,0.011102986,-0.12679122,-0.14834599,-0.1947886,0.27308944,-0.25839642,0.06762563,-0.053645197,0.077019714,0.12747076,-0.15822081,-0.15768155,0.10662624,0.16466613,0.041919388,0.15067565,-0.23292507,0.06487602,-0.0126286745,-0.2427647,-0.09330808,-0.25533608,-0.31106058,0.2501184,-0.24339566,-0.088363856,-0.31089634,0.21463284,-0.15875076,-0.111470364,0.12917888,-0.02273592,0.00067789573,0.025096716,-0.01641769,0.2860205,0.09055745,0.02044946,-0.07678699,-0.20325962,0.1231303,-0.21015559,-0.017263474,-0.061089426,0.041484546,-0.09201377,-0.01945259,-0.25802428,-0.031926252,0.16732195,-0.17102526,0.14031637,0.15987962,0.0844403,-0.22475766,0.10227689,-0.032173436,0.16860056,-0.2076372,-0.06180342,-0.068262294,0.20868094,-0.0039693983,-0.019828605,-0.11646281,0.17658845,0.0521789,-0.06014645
0.07656345,-0.2684343,0.07157631,0.15018062,0.03842542,0.12463948,0.12694274,0.038756028,0.1004235,0.085387595,-0.0781501,0.080004655,-0.21564251,0.03957032,-0.041940372,-0.06637596,-0.2495011,-0.15980661,-0.1587686,0.070002176,0.010745887,0.025220372,-0.007065676,0.22775495,-0.10413414,0.25531042,0.081676,-0.06739122,0.17531164,0.20271656,0.2798969,0.18413518,0.0129911555,-0.22892493,0.12574746,0.018970251,-0.16590245,-0.16276745,0.031005051,0.047157533,0.0013276433,0.0531267,0.09931612,0.024073286,0.09024719,-0.06651885,-0.010052555,0.0061728205,0.10628385,-0.12600243,0.0067479876,-0.17653029,0.23186971,-0.06144072,-0.098818615,-0.21258348,-0.16272724,0.044483047,0.12036606,0.009659664,0.17679389,-0.10165989,-0.08406028,-0.21548428,0.13519405,-0.08211597,0.22115786,-0.19550668,-0.07725524,0.02905507,0.032893185,0.2207731,-0.08783705,0.0018575621,-0.050919257,-0.0459699,-0.13533749,-0.096307546,-0.059483074,0.19610688,-0.13988675,0.05733386,0.20053066,-0.26253894,-0.19988526,0.12713207,0.27210674,-0.072423406,0.2598248,0.22472505,0.056908242,0.26246738,-0.025206836,-0.06327481,0.25782245,-0.15131265,0.006516655,0.06534021,0.18429734,0.15462074
0.21267496,-0.18523952,0.06968191,-0.08255927,-0.21747074,0.2754902,0.24563135,-0.12458332,0.11772674,-0.114804395,-0.18145643,0.11577559,-0.14358433,0.05781178,-0.070057556,0.047526143,-0.12520352,0.005717021,0.065141104,-0.09990692,-0.042251557,0.095529646,-0.093312554,0.15847299,-0.16577064,0.027692204,-0.037970982,0.113612995,0.10109877,-0.07631,0.06866888,-0.17300744,-0.038965713,-0.054420877,-0.10102611,-0.19616193,-0.032169268,-0.27860495,0.014610845,-0.18990147,-0.009359208,-0.17165227,0.14209771,0.16565059,0.12892045,0.14469269,-0.20531224,0.22835618,0.1570446,0.022349471,-0.21270888,0.05362187,0.10733762,-0.047695518,0.0046667946,-0.09661819,0.25957748,0.09989211,0.11292722,-0.023710568,0.1739234,0.16997115,-0.007916366,-0.2101938,-0.24516323,-0.24862342,0.0013618728,0.12337602,0.027947415,-0.0111719705,0.027126808,-0.27653825,-0.002394669,0.012051726,-0.039177753,-0.19817111,-0.060488284,0.23643655,-0.058679756,0.01799305,-0.031008108,-0.24215394,0.2559757,0.26444066,-0.047384605,-0.079399705,0.044154137,-0.08593708,-0.29347587,0.04671776,-0.07357447,-0.22999026,-0.082870215,0.15342818,-0.13510893,-0.21202175,-0.22869897,0.23023005,0.07309453,0.15293299
0.18276931,0.1197664,0.12597463,-0.01106695,-0.1360997,-0.1966189,-0.025338829,-0.19153054,-0.15518486,0.15775482,-0.14272952,0.22001217,0.060908087,-0.17758447,-0.05324071,0.07011123,-0.21137638,0.050748657,-0.33748484,-0.16854694,0.12685914,-0.10240562,0.05419166,0.12692359,0.014551854,0.20520772,-0.1534719,-0.25533417,0.2369522,-0.11784007,-0.07870151,-0.14443508,0.13887113,0.034432936,-0.04796517,0.025790079,0.13616179,-0.06739511,0.14122197,-0.29958555,0.19922519,-0.12932985,0.05511328,0.13281624,-0.16153601,0.20170525,0.08555626,-0.24396183,0.11112021,0.10242425,-0.007726978,-0.0906223,-0.1266622,0.077642545,0.054081712,0.085254915,0.056837298,0.024401173,-0.19736585,-0.16555639,0.1513114,0.1791111,-0.032861944,0.15678751,-0.13860194,-0.1350688,-0.06445664,-0.17040785,0.25926757,0.0006520201,0.05594576,-0.042327624,0.024709107,0.16127935,0.18426499,0.13488026,0.09213406,0.13245238,0.032606803,-0.1551629,-0.07713805,-0.18485212,-0.122912064,0.045707565,0.013913155,0.3126829,-0.08308651,-0.16794473,-0.20972124,-0.079290055,-0.04836471,0.008117034,-0.008567186,-0.07183573,-0.07847383,-0.003150645,0.041538466,-0.16712885,0.040643845,-0.13332674
-0.05556876,0.11398455,0.06344642,-0.041024733,-0.2132937,0.09139719,0.20400599,0.16136838,-0.13720457,-0.026428254,0.08206654,0.29361394,0.21021885,0.057444476,-0.101730704,-0.1986671,0.15876995,0.159193,0.15290157,0.12482613,0.055559833,-0.07916374,0.16688702,0.17771961,0.09388804,-0.029149683,0.11668195,0.013392797,-0.08223358,0.02199087,-0.015688065,-0.20032053,-0.13692623,0.017347364,-0.16826718,0.0040752636,0.25423726,0.09173969,-0.006981415,-0.07075137,-0.06959299,-0.12939945,0.14489816,-0.15833849,-0.014642329,0.22435279,0.28299406,0.07847248,0.14366367,0.01576165,0.111602716,-0.06250634,0.210928,-0.101599954,-0.10336799,0.05865733,0.16419503,-0.09958425,-0.30644932,0.08234741,-0.019013032,-0.10578928,0.07358986,-0.18948619,0.021715173,-0.07860379,-0.06362871,-0.15609439,0.12032997,-0.046812937,0.13839632,0.09720723,-0.05950722,0.17180322,0.22870748,0.065180734,-0.061287124,-0.016335124,-0.08053588,-0.117176175,0.010824927,0.07031115,0.186018,-0.21198727,0.27949005,0.0034426155,0.0031676246,0.06600577,0.15748367,-0.09761244,-0.119194776,0.18534793,0.07309011,-0.04724111,-0.024160959,-0.22854874,-0.09139243,-0.2011166,0.19544165,-0.23969752
0.02615906,0.2427177,0.25889602,-0.12933595,0.01075008,0.20372684,0.24334724,0.17744997,-0.13435078,-0.12447305,-0.2313909,0.2861665,0.02242391,0.10744127,-0.24081808,0.19927892,0.05967098,0.02154024,0.1228241,-0.02572786,0.11986813,0.2383286,-0.2779443,-0.24425407,0.07173463,-0.09643731,0.09997455,0.10115109,0.11007529,0.110024445,-0.05530527,-0.12190424,0.03954113,0.017391674,-0.15257238,0.0015214208,0.119179845,-0.13728158,-0.02528103,-0.07575246,-0.15999907,0.024959106,-0.19636495,0.16146536,-0.0055314493,0.030489638,-0.14046293,0.033892456,-0.040092856,-0.016062448,0.18491744,-0.12584764,-0.082250275,-0.17024383,-0.15512604,0.2807862,0.10326711,0.26888087,-0.004318962,0.040660698,0.114442796,-0.08914913,-0.021694662,-0.010672923,0.063706286,0.1705869,-0.25328964,-0.1986115,-0.014956108,0.050667662,-0.10522199,0.10610258,-0.030435214,0.00096715597,-0.26509714,0.09046694,-0.018371306,-0.29605386,0.3892148,-0.16658922,-0.20551579,0.2685045,0.120350875,0.2091373,-0.26606947,0.31333065,0.008939136,-0.10816442,-0.16473643,-0.025827197,0.0014942423,-0.26404727,0.18642874,-0.12683016,0.012419494,0.22773252,0.15824772,-0.057164907,0.13458006,-0.11191067
0.027496334,0.17416044,0.29266763,-0.28689727,-0.19799174,0.100916535,-0.19699565,-0.0017093631,0.13588835,0.09643086,0.002181664,-0.05623409,0.14318451,-0.2962802,-0.011177341,-0.19284235,-0.023989694,0.15233995,0.17678598,0.25542668,0.0155598195,-0.2831083,-0.09053201,0.092772275,-0.086739965,-0.20488958,0.1237634,0.140994,-0.31959265,-0.06152455,0.1002194,0.0071524396,0.004055514,0.030239986,-0.05570766,-0.15418983,0.20118703,0.055208948,-0.23619983,0.03453192,-0.017083602,0.25282305,-0.052045323,-0.04318576,-0.17072533,0.022515867,-0.09241628,0.009175654,-0.020783154,0.23821183,0.08648958,0.19442472,0.048536696,0.15396585,0.20020151,-0.2189621,-0.26668715,0.03415378,0.09570848,0.01877416,-0.29524747,-0.10893467,0.2536038,-0.009711032,0.07976531,0.1254263,-0.10384804,-0.13462825,-0.2702691,-0.14102396,0.031823993,0.006375174,0.0012782444,-0.1303037,-0.16024636,-0.109487906,-0.04876637,0.28632462,0.17594542,0.03975692,0.14006422,-0.06026671,0.08755048,0.07837301,-0.2024899,0.14665158,0.050990283,0.1534713,-0.1571014,-0.28054273,-0.2132649,-0.028144766,0.04218053,-0.29488027,0.22212325,0.12606944,-0.08091181,-0.109609954,0.029492745,-0.10686189
0.038489655,-0.13800405,0.06478562,0.022650667,-0.03044479,-0.28037855,0.094859235,0.106976144,-0.21898139,0.27133343,-0.022885283,-0.26092,0.23313014,-0.17070372,-0.06252811,-0.27296212,-0.06959622,-0.022175139,0.0881691,-0.11485234,0.22176298,0.100538194,-0.031194342,0.001510833,0.094515525,0.12727675,-0.14503358,0.07266736,0.005502333,0.019244995,-0.21072505,-0.03977331,0.20674175,0.025741555,0.059922047,0.12926582,-0.056031555,0.28450912,-0.22266126,0.11915181,-0.09345744,-0.2092818,0.012527171,-0.06113927,-0.03179396,0.11461049,0.09191662,0.057843264,0.23768322,0.23340233,0.032099582,0.14308847,0.025993027,0.09305806,-0.034892473,0.10430016,0.05190291,-0.15951093,-0.010782155,0.1219374,0.20329326,-0.16821828,-0.021979446,0.057690192,0.23315294,-0.17529312,-0.27878818,-0.22443493,-0.02091447,-0.08663933,0.08218193,-0.20329891,0.17091933,-0.087008744,-0.14278021,-0.0863698,0.27781683,0.31526613,-0.08769544,-0.20670551,0.117713295,0.089795485,-0.011263145,-0.30884057,-0.10036631,-0.071646355,0.013007413,0.11926177,-0.06155382,-0.18068384,-0.15121642,-0.032882553,-0.19023716,-0.15982355,-0.11563539,0.094102256,-0.039487734,0.12128004,-0.105101615,0.14022115
0.01298788,-0.18960021,0.09638962,-0.2977953,0.0018585845,-0.045795094,-0.034327954,0.055383362,0.05513452,0.13049299,0.04170447,0.028337445,0.14896755,0.13657418,-0.16932973,-0.035345457,0.031680547,-0.039942753,0.1952368,-0.13479294,-0.017897122,0.084529355,0.19017936,0.16527914,-0.09599062,-0.13810864,0.22388583,-0.024990875,-0.28565294,0.081651144,-0.28884548,-0.21823719,-0.17518336,-0.04232813,-0.26935297,0.30892596,-0.104074076,0.29931566,0.053607196,-0.07871622,-0.116748415,-0.24617688,0.04891639,0.03021232,-0.15742612,-0.20510252,-0.08285788,-0.30023935,-0.0031527102,-0.23754005,-0.24567267,0.08395485,-0.087385364,-0.016355006,-0.31313303,0.14394337,-0.11920925,-3.945071e-05,-0.14144391,0.013350012,0.047357354,0.047179334,-0.09454542,-0.04884549,0.03363229,0.15363678,0.25323963,-0.11549286,0.03174276,-0.25015292,0.0436584,-0.12521935,-0.11201449,0.14773956,0.11521799,0.06637596,0.028202541,0.009961518,0.1610672,0.12836319,0.22771995,0.26314107,0.07070832,-0.11968814,-0.15620172,0.116540305,0.10377585,-0.22587122,-0.08808157,-0.2728968,-0.17787467,0.14708191,-0.06363419,0.07935714,-0.04058931,-0.0044373996,-0.027140195,0.0090075685,0.15983242,0.115074255
0.2971514,-0.31228927,0.25512108,-0.2348552,-0.0127089415,0.14872071,-0.08702502,0.027355183,0.02606255,0.17201471,-0.22562903,-0.31217146,0.0072660665,0.1909546,0.2502471,0.11141787,-0.23986605,0.013495914,0.0885225,-0.01698315,-0.16174437,0.07901907,-0.15593106,-0.24804719,-0.071203575,-0.02909393,-0.08172545,-0.26889127,-0.048861217,0.02251641,0.017086724,-0.052588016,-0.10870896,0.052250113,0.0023600461,-0.14930941,-0.062420517,0.10866787,0.19027817,-0.118807375,-0.14327344,-0.062117085,-0.079972364,0.26182085,-0.15772139,-0.015319366,0.10698871,-0.17029198,0.102718376,0.17793559,0.07505546,-0.031848192,-0.1261428,0.18480608,-0.06421491,0.04400629,0.042406186,-0.19743437,-0.310092,0.16198072,0.1682565,0.23019987,0.1490461,0.16788074,0.16912319,0.10486591,0.02760722,0.20608391,-0.024420863,-0.07585589,-0.09841104,-0.12824634,-0.022139462,0.15138134,0.12740837,0.15636688,-0.10137051,0.09944974,0.019860256,0.22258666,-0.072060324,0.18739286,-0.17298175,0.14520136,0.2043507,0.08117312,-0.21289478,-0.18052542,0.11274188,0.06565383,-0.07645416,-0.06600859,0.14735937,-0.08903962,-0.05205626,-0.15955572,0.006099481,0.005822049,0.23954622,0.038090378
-0.016175177,-0.27916595,-0.16892241,-0.04784759,-0.121675275,0.14217849,-0.2073578,0.07688392,0.0395019,0.093858756,0.12663628,0.0930291,0.07019916,-0.079249494,-0.0041294275,-0.096854754,0.10833988,-0.062243626,0.027823377,0.008472168,-0.12231679,-0.011683689,-0.20631586,-0.19724022,0.3354848,-0.0015995844,-0.09465853,-0.15202428,-0.112789944,-0.13444066,0.061195154,0.16686074,0.2074497,-0.14990044,-0.22561811,0.019171355,-0.061038714,0.12021124,-0.15590915,0.15976293,-0.07092691,0.038583983,-0.21923278,0.19357567,-0.10938803,0.22748682,0.19350956,0.15691034,0.27220136,0.020677213,0.27638316,0.042079784,-0.28403744,-0.122023344,-0.22748403,-0.09391018,0.16438572,0.24869663,0.16170567,0.037394706,-0.02832978,0.100209564,-0.1424373,0.07693773,-0.016406072,0.23841044,-0.16873477,-0.15066223,0.08618149,0.036407303,0.27132547,0.12404759,-0.24806842,-0.02313792,-0.08041418,-0.14573543,0.112222016,-0.031889863,-0.24774551,-0.055948902,0.019638225,0.033742703,0.017181527,0.020778961,-0.11967248,0.097537786,0.19404307,0.12233693,0.122250624,0.25888354,-0.06535335,-0.17497516,-0.15418357,-0.16725785,0.32133853,0.05451493,-0.02192676,-0.14232755,-0.031513333,-0.033136208
0.02822265,0.23536775,0.2993584,0.11108175,-0.04672086,-0.06837085,0.19198741,0.1592317,0.18990354,-0.13267636,0.15100498,-0.024936529,-0.11839532,-0.08108411,0.07180552,0.022632679,0.051417805,0.2580637,-0.008409026,0.07741968,-0.19547576,-0.09132268,0.21074851,0.30546856,-0.3170191,-0.08455654,-0.068782225,-0.028281793,-0.19744818,0.1182352,-0.03190598,-0.17333218,0.08536574,0.048000976,0.20042545,-0.12827267,0.046252705,0.17839873,0.047227003,-0.0433933,0.02525655,0.019184418,-0.24209104,0.0824327,0.16986607,-0.19955216,0.14802065,0.0869252,0.08814669,0.018841974,0.08671732,-0.055260256,-0.11934568,0.19107707,0.11676927,0.025106154,-0.045013133,-0.3126363,0.05752695,0.2936457,-0.037701212,0.051277343,-0.09485784,-0.12615569,0.13402943,0.20458494,-0.011792866,-0.14079534,-0.1876468,-0.19158733,-0.033265136,0.17180273,-0.301262,-0.2056935,0.064842746,0.0075916206,0.21945868,0.13194491,0.3265951,-0.10240726,0.06983648,-0.089037545,0.19306041,0.030795988,0.039014664,0.29724625,0.11578651,0.06771902,0.14034016,-0.136797,-0.054122522,0.032932308,0.11898299,-0.0053111007,-0.26937923,0.10626065,-0.19867986,0.17623842,0.016913194,-0.089610875
-0.22279106,-0.11499691,-0.012928767,-0.01872832,-0.07427797,0.06987396,0.055296373,-0.01842485,-0.23219351,0.18013065,-0.11470979,-0.18135124,0.1210523,0.18704218,-0.16268307,-0.14392847,-0.024706563,0.03110241,-0.082331784,0.022274995,-0.022448523,-0.14752044,0.28243977,-0.033232186,-0.23797114,-0.19414613,-0.074945435,-0.10697644,0.06978643,-0.14344813,-0.10465362,0.21366374,-0.052916467,-0.13531363,-0.26767275,0.102634124,0.12373626,-0.14454864,0.26016632,0.03485463,-0.07966532,-0.20963255,0.045304853,0.004253887,-0.0055309134,-0.20406847,-0.2354654,0.0075851628,0.005399602,-0.12854156,-0.12305362,0.05423833,0.10719136,-0.002779385,0.023900991,0.1582157,0.13695437,0.09515222,0.20539327,0.020615757,-0.10967437,0.014553707,-0.0059818723,-0.10611203,-0.101100124,0.097145274,0.014622748,-0.091694966,0.2505927,-0.16758837,-0.115518875,0.04422074,-0.10072015,-0.2080459,-0.2460898,-0.06352588,-0.1705892,-0.11294514,0.026874304,-0.19025871,-0.07972154,-0.117010646,0.25835097,0.042577483,-0.065728255,-0.20625824,0.016297555,0.027031396,-0.11114229,-0.036599223,-0.06319691,-0.09824813,0.22970505,0.13191634,-0.28707355,-0.20559874,-0.16316733,-0.08842852,-0.25567916,-0.13627623
-0.020390432,0.09959078,0.24661364,0.054377455,-0.06030902,0.30364272,-0.14314538,-0.061010603,-0.18523368,0.07965243,-0.15368491,0.049270988,0.0046379394,0.09390308,-0.10875158,0.28798324,-0.13966918,0.08122038,0.24125051,-0.036679115,-0.1796078,-0.09964445,-0.012022498,-0.114489,0.25362727,-0.19791394,-0.29483533,-0.031727925,0.16635522,0.018957077,0.0154377,-0.29635108,0.050273057,0.22738115,0.051191274,0.29625928,-0.061223656,0.09523166,-0.07510004,0.06305627,0.23157902,-0.03562555,0.03589943,0.19918957,-0.19356915,0.10587449,-0.10574785,-0.14206235,0.18601261,-0.09408018,0.30126935,0.26257482,-0.27556705,-0.11924141,0.052694924,-0.02295781,-0.17322807,-0.13821626,-0.23083198,-0.053550974,-0.15256308,-0.026070494,-0.005065923,0.21126243,-0.093480535,0.20962831,-0.09471665,-0.015578014,0.048133075,-0.20491868,-0.16892843,0.03456602,0.058985937,-0.178396,-0.1802464,-0.0023488242,-0.03917785,0.07985419,0.04004602,-0.14827627,0.1719237,-0.25530905,-0.034581188,0.15009274,-0.09736189,0.15204212,-0.013018367,-0.16465922,-0.0062621487,-0.14125998,-0.11774081,-0.19209239,-0.41589323,-0.08558234,-0.04331778,-0.10678332,0.16058122,-0.030103255,-0.21618846,0.2525663
0.19058266,-0.060484808,-0.1718734,0.048218664,0.057067275,-0.13096236,0.23866354,-0.17939094,0.112213105,0.10819862,0.1741051,-0.05324643,0.09508082,-0.28704774,-0.10272748,0.09619366,0.09802839,-0.19107924,0.0019232946,0.2462425,0.15992327,-0.07272548,0.029652787,-0.2627343,-0.20202851,-0.23486489,0.16384843,-0.10863867,0.17881238,-0.25462413,-0.0026321753,-0.09828077,0.045107834,-0.048922203,-0.18253252,0.005628239,0.0070452983,-0.28364143,-0.0980479,-0.017963273,0.12024234,-0.12317234,0.08760346,0.05268483,-0.2407589,-0.23962884,0.031917315,-0.20389251,0.21062362,-0.036226783,-0.039428417,0.0985593,0.08271043,0.1281961,0.11661336,0.10627887,-0.16906103,-0.0692567,0.0075299307,-0.1679472,-0.021459132,-0.046276543,-0.025173748,-0.009051888,-0.17236632,0.023304868,0.09351048,0.1865965,0.081054986,0.046969123,-0.09726993,0.012068549,0.20098336,0.20234229,-0.073329374,-0.048276458,0.022397768,-0.120748065,0.21516731,0.09199461,0.24440362,-0.045876615,-0.08946352,0.1231066,-0.009244981,0.059300024,-0.1859227,0.066881545,0.030011915,-0.08450435,0.12415107,-0.12892269,0.26620036,0.07936888,-0.032520503,0.296668,-0.2017606,0.1916457,0.24641687,0.15921351
0.1731363,0.09929938,0.19059534,0.1946841,-0.09555363,-0.2210609,-0.063539155,0.058784347,-0.03959987,-0.06723592,-0.120972015,-0.26038292,-0.02594697,-0.101871155,-0.0776727,0.19833626,-0.26430443,0.20271441,-0.07787076,0.16246067,-0.05723502,-0.1892885,0.26918995,-0.008143568,0.18429598,-0.20683761,0.09551217,0.18986411,0.07001138,0.0377084,-0.09698135,0.053912424,-0.30414546,-0.26774168,0.24918191,-0.2834102,-0.13977338,-0.012750496,0.15886202,-0.108434334,0.008668228,-0.12623686,0.120068595,-0.17381412,0.113777556,-0.28540024,-0.1115248,0.1401396,0.33356744,0.2577571,-0.025031533,-0.14219463,0.027476298,-0.024644092,0.19805346,-0.175984,-0.16398086,0.26026118,-0.27842495,0.16344391,-0.24638346,-0.30601588,0.16223331,0.08689828,0.14396307,0.16446523,-0.13541642,-0.07778962,-0.036696527,0.10530596,0.09689167,0.0617791,-0.1388837,0.01919815,0.15565325,0.07578258,0.007362375,-0.061949484,-0.018065443,0.0988225,0.108030796,-0.12267048,-0.012690229,-0.0266091,-0.091321595,-0.06445267,0.16989742,-0.15855168,0.24157909,0.15427344,-0.01655157,0.1978253,-0.15790872,-0.20178816,-0.016255027,0.28025693,-0.14201619,0.3767477,-0.08134489,0.07433963
-0.15850782,-0.009945598,0.20479365,0.059951305,-0.2509598,0.19781113,0.23911208,0.17417304,0.015586276,0.23504403,0.010241554,0.019939851,0.14225553,0.14931102,-0.0017332894,0.077071026,-0.13795017,-0.12166019,-0.20826131,0.120762266,0.0397047,0.26534516,0.10829532,-0.25526065,0.04147704,0.31656417,-0.32223234,0.0066520073,-0.047485784,0.1298551,0.2213049,-0.25665325,0.1332366,0.12592489,-0.23498164,-0.29689804,0.15443526,0.08678033,0.06720664,-0.057925668,0.22553533,0.21849883,-0.19923271,0.099761605,0.1476223,-0.34131327,0.10396386,-0.22022024,-0.05333768,-0.20908447,0.1979952,-0.276901,0.00999422,0.03892889,0.052559014,0.21759649,-0.112388454,0.10840591,-0.11809393,-0.15569012,0.18651353,-0.2884865,-0.029335603,-0.16341518,-0.14743091,-0.0005206014,0.08908385,0.13885298,0.03429114,0.16786566,-0.17043903,-0.23244709,-0.30309206,-0.19571173,-0.047366034,-0.057050087,0.21838982,0.13964055,0.07769959,-0.21120632,0.045867547,-0.03295855,-0.04059661,0.15599659,0.18863934,-0.045414634,0.11637407,0.09623057,0.10670364,0.08462965,-0.21616831,-0.27973253,0.120330356,-0.26305413,0.0033373444,0.183385,0.013951111,-0.008776723,0.18858802,-0.015608413
0.20367514,-0.07492867,-0.06311694,0.05068268,-0.15392199,0.13851264,0.09193109,-0.038893472,0.14276686,0.11658019,-0.043983914,0.15708424,0.16455308,0.0825297,-0.09816662,0.26602346,0.24601994,-0.110251494,-0.0556868,0.24043857,-0.23870197,0.2474681,0.010815726,-0.04702175,-0.11247495,0.046357725,0.10186318,0.09045232,0.16267185,-0.2293619,-0.09532855,-0.107375346,0.21866305,-0.069491655,0.16349673,0.21457927,0.09033429,0.114602335,0.15158013,-0.13732871,0.12501697,0.09874968,0.037390094,-0.13556719,-0.06947456,-0.062156074,0.00871278,0.09013475,-0.15248363,-0.19776133,0.13246553,-0.055228896,0.0062273345,0.30887726,0.006735801,-0.044358563,-0.12782088,-0.13203657,-0.12685615,0.0011027262,-0.18196292,0.01058304,-0.11985203,-0.2228397,-0.21180002,-0.13098869,-0.17319022,-0.1329714,-0.25277826,0.10092455,-0.1372189,-0.10913669,-0.13990499,-0.03141766,-0.1198858,-0.21181041,-0.10198259,-0.008411943,-0.13995567,-0.073431924,0.063187756,-0.19983746,0.12781945,-0.0891812,0.24466854,-0.305025,0.25609544,-0.21980566,0.037379134,0.12667185,0.16320845,-0.041795444,0.29865414,-0.2490957,-0.06900548,0.05018542,0.08643366,-0.27953085,0.19313563,0.031412344
-0.25370014,0.0022576454,-0.1752272,0.1028235,-0.04501756,0.16353467,0.13696262,-0.19398378,0.06506869,-0.13603595,0.11955397,0.28560957,-0.098144636,-0.17721283,-0.23213215,0.09208565,-0.02469025,-0.09057626,0.14617597,0.04542056,-0.045498915,-0.1609801,0.07930195,0.12817469,-0.02010613,0.073976316,-0.09765699,-0.13394326,-0.21482873,0.26302022,-0.08696407,-0.13432501,-0.17972098,0.14823279,-0.27814943,-0.03527136,-0.047581427,-0.16830923,0.014539833,-0.11452291,-0.17173631,-0.16275753,0.25127432,0.0978356,-0.07224254,0.14816499,0.08181911,0.014895929,0.08948346,0.059694875,-0.0034553614,0.25916365,0.041986752,-0.13615084,-0.26286203,-0.087851316,-0.16016984,0.051663324,0.110863745,0.19300433,0.15635031,-0.12914959,0.0018749814,-0.03701185,-0.12497578,-0.10824545,-0.15490761,0.10425337,0.00060853694,0.12829016,0.07839253,-0.25753906,-0.14689381,0.057648927,-0.065539695,-0.032387536,-0.028863542,0.061233595,0.17223369,-0.11165718,0.19554487,-0.02656316,0.09241472,0.17872222,0.18333992,-0.04242416,-0.07627557,0.22883345,0.020358529,0.17893307,0.06232393,0.101948366,-0.18014102,0.089908086,0.059449762,-0.109971784,0.2498196,-0.24087772,-0.26582146,-0.19653189
0.09600352,0.1293033,0.17439081,-0.09951727,0.061152965,-0.051588163,0.1910573,-0.119673006,-0.017872602,0.13173784,-0.10537014,0.24617729,-0.07105044,0.033017866,0.06928571,0.078145795,-0.12380008,0.20417997,0.17360361,0.12295229,-0.026328085,-0.12319969,0.25181332,0.07745342,0.00839416,0.032815944,-0.1783254,0.012706316,0.096654885,0.0416271,0.07818358,-0.15566999,0.033243682,0.028537482,0.071768165,-0.096118994,0.07776741,0.0045265574,0.13190901,0.11422273,-0.009428725,0.04993907,0.022181159,-0.06155023,-0.13384306,0.052424617,0.18292102,-0.08412293,0.029434636,0.053797826,0.15893948,0.18095039,-0.101012014,-0.1127502,-0.029567003,-0.097393796,0.07640458,-0.0878587,0.058737453,-0.030975493,-0.17630255,0.26170364,0.20437273,0.17795026,0.04414437,-0.012268934,-0.07859324,-0.23942652,0.050903663,0.015211948,-0.10057834,-0.01981922,-0.016111322,-0.22397743,0.08573865,0.17322609,-0.082811795,-0.16368961,0.1379314,-0.029295985,-0.14150093,-0.02275752,0.101903155,-0.16154374,-0.2801161,-0.21195221,0.2559313,-0.096092395,0.058068987,-0.28947917,-0.06591012,-0.13657664,0.23437026,0.00014746298,0.15654564,0.052877773,-0.094812475,0.07041642,-0.078048736,0.11172261
0.00038610815,0.053595155,0.18189417,-0.03660576,-0.07028348,-0.06690022,-0.0032685879,0.008548177,0.14484166,0.019784689,-0.18267024,-0.03391403,-0.15468042,-0.052900217,-0.10075203,-0.07337751,0.11620558,0.052810777,-0.060448777,-0.1546472,0.079397954,0.16991518,-0.031085534,0.08499393,-0.017074168,0.13620977,-0.02797503,-0.025173781,-0.1891711,-0.092555895,0.15818775,-0.08662944,-0.04819176,0.16883135,0.19238608,0.13583343,0.18079916,0.19146042,0.12460016,0.0016430813,-0.05297871,0.1791891,0.12099089,-0.0032629233,0.059789404,-0.21893863,0.085295536,0.09244048,-0.26913777,-0.16743559,0.00832609,-0.19193147,0.07804443,-0.14772885,-0.19422421,-0.106170096,0.1987736,-0.106099136,-0.15275432,-0.09079369,-0.03841663,0.1557662,-0.09738923,0.037208527,0.07475301,0.061871443,-0.20972036,-0.032208607,-0.2833662,0.03225396,-0.18712352,-0.007271284,0.015413407,0.19379897,0.053241488,-0.13175036,-0.072949775,-0.061438512,-0.13966803,0.015127401,-0.23581074,-0.23604017,0.13655442,-0.046757195,-0.0154437395,0.15235883,0.04844776,-0.032536257,-0.18034345,0.20253552,-0.050911546,-0.046100106,0.137796,0.1284561,-0.21079399,0.15665075,0.05553991,0.019807788,0.10229095,0.09486225
0.18160984,-0.2673818,0.07633635,-0.0281273,-0.1695071,-0.1499393,-0.17639996,0.022616362,-0.17211244,-0.09691186,-0.09998391,-0.029125068,0.12707898,0.0028672372,-0.1871912,0.06999747,-0.121525556,0.074964434,0.09447475,0.14989488,-0.0014100396,0.15904671,-0.067050464,0.07998742,-0.02352047,-0.23814783,-0.14419423,-0.13864152,-0.24648055,0.04029475,-0.114663504,0.01612938,0.25300145,0.22163954,-0.037773553,-0.053138047,-0.0760482,0.05969796,0.07350651,0.24662063,0.0036789149,-0.08034796,0.035157386,-0.13110703,-0.10374104,0.008003154,-0.08669154,-0.049780104,0.15499485,-0.020956414,-0.12405657,0.09225929,-0.053942613,-0.011086853,-0.16450427,-0.2463536,-0.2598485,0.07271805,0.15624413,-0.041755788,0.25572735,0.113006964,-0.18166795,0.0072155516,-0.0854327,0.0023168705,-0.121347584,-0.08809059,-0.05117408,0.17011318,-0.21025093,-0.06871296,0.21650161,-0.003822675,-0.048584282,-0.2841726,0.0029648475,-0.033199735,-0.20197646,-0.24979235,0.07056469,-0.27046335,0.08891028,-0.023085192,0.21074495,0.065512,-0.12244714,-0.17066568,-0.03463956,0.1419417,0.015260534,-0.03960161,0.21351618,0.022540484,-0.015366399,0.24019212,0.22964613,-0.056041937,0.1749405,0.04772098
0.27224782,-0.043686934,0.22718789,0.28414568,-0.10178994,0.0737348,-0.12135118,-0.08515608,0.031285968,0.11059259,-0.014064892,-0.035031334,-0.10156113,0.0026434897,0.118681066,0.06013424,0.14537837,0.2488363,-0.13647735,0.014567002,0.16202077,-0.0074387225,-0.1524325,0.10932641,0.102186166,0.036124177,0.14347939,0.024083577,-0.07157454,0.19622834,-0.079868205,0.11022707,0.23899645,-0.0674406,0.065560445,-0.24565247,0.12637156,0.21624126,-0.018886289,-0.11565544,-0.05964236,-0.036045697,-0.11711858,0.0070118024,-0.060547557,0.20641719,-0.0032088622,0.037001766,-0.20791133,-0.121702686,0.023952082,-0.09826581,0.26976693,-0.19974646,-0.08214268,0.13170314,0.17764214,-0.17477252,-0.10755563,-0.13848627,0.18897107,0.11352096,-0.16797955,-0.0038312555,0.27467057,-0.09764716,0.15747878,-0.20175004,0.03510987,0.017946454,-0.08996516,0.13460195,0.06833839,-0.14579086,-0.06996039,0.12977603,-0.09630074,0.17756766,-0.17624246,0.15571201,-0.047760945,0.016721606,0.19366595,-0.26661906,0.12161617,0.0837598,-0.1560797,0.14013487,-0.14678206,0.0044293306,0.037781272,0.27408832,0.04995906,-0.113897026,0.12719703,-0.08850248,0.056619428,0.059284355,0.06879626,0.13138093
-0.108882025,-0.19374573,0.044421144,0.10730948,0.012097019,-0.11497699,-0.017372081,0.014790848,0.07545892,-0.096737355,0.120206416,-0.010023934,-0.17160267,0.028661229,0.13138881,-0.021341678,0.039770138,-0.085707605,-0.04409785,-0.045240965,-0.25940165,-0.077124506,-0.19075742,0.2207812,-0.17837816,0.11384824,0.24549432,-0.28320476,-0.042135354,-0.037708662,-0.028538791,0.17153814,0.1246297,-0.012067646,0.14357841,0.083367996,0.00662691,-0.02471778,-0.25418144,0.17981964,0.05329637,0.102099076,0.03671893,-0.13318889,0.1862959,-0.2311605,0.17151082,0.12206537,-0.11697819,-0.07595619,0.02152876,-0.1164872,-0.09396333,-0.2836907,0.11609192,-0.006299863,-0.02947667,0.30082053,0.25936896,0.20276114,-0.09773414,0.20715867,0.19057564,-0.3101686,-0.06778508,-0.024142275,-0.06255783,0.009249296,-0.01404615,-0.10739936,0.06521704,-0.15790206,-0.05730787,-0.26755953,-0.30589285,0.093938865,0.05114563,0.07957314,-0.07637924,0.05462344,0.017668137,0.105002835,-0.16224273,-0.16577002,0.12875743,0.08800992,-0.11952575,-0.09183149,0.042824343,0.13824973,-0.34900156,0.15817322,-0.01924346,-0.07418533,-0.06653261,0.029993113,0.10903341,-0.10342305,0.28565562,-0.09463055
-0.025676504,0.022177497,-0.13197067,0.13264102,-0.16243945,0.1721796,0.16999753,0.12377712,-0.13926476,-0.315933,0.29916373,0.0054627284,-0.22698976,-0.15693483,-0.016375301,-0.24777827,-0.00315833,0.0044218134,-0.040334854,0.10041653,0.18051115,0.017598115,-0.0705259,0.017298635,0.20705596,-0.062222593,-0.26648188,0.07695257,0.157122,-0.033189923,0.0600882,0.09463431,0.24325891,0.026044121,0.023302248,-0.18282,-0.024188843,-0.027885607,-0.08575267,-0.25132933,-0.1316535,-0.12372209,-0.2760519,-0.13604234,-0.22032064,-0.21237709,-0.009901102,-0.13767202,-0.10887606,0.08363309,0.011072849,0.10915848,-0.034629475,-0.014624141,-0.08940885,-0.09702184,-0.20396943,0.15744585,0.03239001,-0.14775509,-0.064891346,-0.061895214,0.14155632,-0.20451963,-0.035847973,0.05342844,-0.12276689,0.11814987,-0.011366577,-0.0026349484,-0.27818787,0.058509126,0.02230049,-0.2071574,0.06550391,0.13014607,-0.14978182,-0.007088646,0.016894693,0.26147062,0.14982532,0.15834582,-0.1521766,-0.07213911,-0.231423,0.028692089,-0.16764411,0.10463518,0.057583112,-0.050028063,-0.04500537,-0.20223582,0.13573809,0.28003022,0.14759871,0.23284258,-0.12236335,-0.09508992,-0.069483094,0.07174478
-0.024359193,-0.2786875,-0.23253259,-0.22081548,-0.20044383,0.20210613,0.07605889,-0.08973186,-0.07531521,-0.08478622,-0.1361391,-0.07945124,-0.21863604,-0.10215797,-0.035545327,0.22191635,0.044320904,-0.015408263,0.09994774,0.040371533,-0.030929612,-0.028111273,-0.048727732,0.08281892,0.1107805,-0.29415134,0.09330125,-0.26054305,-0.1929545,-0.0036393849,-0.072968565,-0.20350668,0.012392099,-0.13552909,-0.25480753,0.24805701,0.11021222,0.19381724,0.09229876,0.16657194,-0.2098882,0.07249504,0.14319147,-0.26607728,0.10501125,0.019990478,0.13629411,0.027236003,0.17049424,0.00085617433,0.12391401,-0.088707216,0.23227927,0.009458997,-0.24159715,-0.041051015,0.13542756,0.27403104,0.02446727,0.037234508,-0.26265523,-0.16208504,0.057477865,-0.18953747,0.03038291,-0.010995749,0.13897163,-0.08211426,0.23383904,-0.110438116,0.11672146,-0.04213894,-0.047521006,-0.011307043,0.111137606,-0.24378952,-0.06369871,0.05577698,-0.06601897,0.07526923,-0.14053841,-0.1586067,-0.18106034,0.08601581,-0.17050694,0.035618227,-0.091889754,-0.061709344,-0.1454941,-0.17762946,-0.20338377,0.26216406,0.14961007,-0.27643165,0.045563575,0.018290358,-0.014529086,-0.05268755,0.17759348,0.1273956
-0.001882072,0.1391505,0.123732544,0.052800078,0.1131703,0.10800379,-0.27181473,0.20758064,-0.026544569,0.104442365,-0.13546796,0.048788857,-0.051993795,-0.16818964,0.09406853,-0.2715599,0.06682338,-0.029694028,-0.24135302,0.05866088,-0.0723542,-0.0017676597,0.31726965,-0.10566118,-0.02651347,-0.31212807,-0.13479847,-0.22708845,-0.12387043,0.0072883815,0.07395418,-0.40349787,0.10213501,0.22223553,-0.09613805,0.25792745,0.089130715,0.21314467,0.014332228,-0.12114424,-0.10682303,-0.24768968,0.13333201,0.16541679,-0.08015324,0.01967897,0.04258476,0.0488797,0.24297802,-0.05683377,-0.0797989,0.039542694,0.032320224,-0.013051531,-0.01993788,-0.24109174,0.19540943,-0.122739874,-0.32178232,-0.13594796,0.082178146,0.13739665,-0.24916732,-0.15090115,0.008276683,-0.22432363,-0.03282764,0.058312703,-0.077660844,0.04086024,-0.15362501,-0.025297571,0.120832674,-0.1850919,-0.17356001,0.03983989,0.23095949,-0.30066985,-0.28475162,0.14402492,-0.060659815,-0.06287461,0.18526007,0.004576599,0.10170199,-0.04193721,-0.10213472,-0.113944195,-0.010901277,-0.050712135,-0.032288898,0.13950159,-0.09101282,-0.11921918,-0.0839374,-0.14895259,-0.11775496,0.19089028,-0.076132655,-0.16167198
0.19661126,0.07889242,0.15956777,0.098042086,0.16464111,0.25741616,0.23204787,0.049640734,0.14006393,-0.14565867,0.13670722,0.20390733,0.08607287,-0.26043162,-0.11058133,0.13064148,0.1500787,-0.03637643,-0.018243035,-0.005842587,-0.10492487,0.08478224,0.11072752,-0.07198397,-0.020317104,0.029825859,-0.2573786,-0.07360758,-0.07129549,-0.06716869,0.28267488,0.062402766,-0.11456835,0.034281492,0.030386658,0.20294137,0.31306502,-0.059139542,-0.22029789,0.25969696,0.00075555267,0.002576474,-0.21709658,0.042469606,-0.014571874,-0.17896043,0.1281625,0.26748493,0.1257186,-0.03327059,0.17223886,-0.1529019,-0.078556135,0.044974774,-0.2846631,0.013084782,-0.095739864,0.028136637,-0.042591725,-0.2083291,-0.13545473,0.11107494,-0.2929984,-0.11560831,0.24780475,0.0308604,-0.050943624,-0.09033909,-0.014964962,-0.06729056,0.014080527,0.007976337,0.10744273,-0.13068505,0.093859166,0.10940407,0.09672726,0.015256382,-0.1762659,0.070875,0.095903635,-0.12643655,-0.07750934,0.081279114,0.10853035,-0.0067019523,-0.19461164,-0.089030094,-0.13837986,-0.16642503,0.011371169,0.028151186,-0.14230782,0.022355948,-0.27424738,-0.12686396,0.1269573,-0.020022431,-0.24248827,0.024905933
-0.06264663,0.08160433,-0.0762695,0.003732278,-0.06911577,0.07803762,-0.0560216,0.053982846,-0.12252482,-0.034973193,-0.020609602,0.0435348,-0.20741554,0.09391719,0.06310608,0.027772535,0.01111897,0.16987503,0.23135874,0.15110753,-0.13677216,0.28295606,0.0769948,-0.05978599,-0.12871894,0.08400168,-0.2255135,0.22802639,-0.0010773573,-0.04669869,0.05133573,0.11747449,-0.04974329,-0.07273694,-0.00268417,0.15554169,0.06848431,-0.1778469,-0.16399357,0.15328486,0.024541335,0.12494677,0.16222787,0.30943584,-0.17189135,0.19311856,-0.076,-0.015388462,0.1548365,-0.14100763,-0.046822824,-0.05664782,-0.053329933,0.05375872,0.04733158,0.15088326,-0.2343317,0.06031234,0.12242147,0.16919659,0.1276555,0.07662874,-0.07254499,-0.31382856,-0.14404649,-0.038149033,-0.09020964,0.014814313,-0.02673388,-0.03345738,0.085405044,0.0755698,0.1907849,-0.20553087,-0.07877319,0.030303376,-0.08602838,0.09901796,0.15062705,-0.18904561,0.19247243,-0.2222624,-0.09233482,0.11548923,0.29722315,0.019887282,-0.102429435,0.095804915,-0.029773187,-0.23565067,-0.030982597,-0.0625965,0.27122772,0.041846488,-0.06712385,0.16860068,-0.0318156,0.0641103,-0.010249217,-0.043137137
0.031954166,-0.2255305,-0.17602319,-0.07416796,0.09360125,0.17299981,-0.11860806,-0.12710014,-0.11205644,0.04657261,-0.2371836,0.13665195,0.058548316,-0.21384446,-0.028161373,-0.010315009,-0.14469968,-0.058594592,0.07151137,-0.110927664,-0.046853695,0.1064484,-0.2331937,-0.17339036,-0.10104516,0.06529364,-0.30924293,0.13933001,0.040955424,0.2483141,0.14638267,-0.04725006,0.20737334,0.049022,0.28921536,-0.2257264,0.16910186,-0.13545534,-0.09683758,0.1035077,0.111753725,0.07335319,0.021075225,-0.18803705,-0.05221136,0.015742792,-0.1329442,0.17397174,-0.23940717,-0.33428752,0.21632229,-0.12788121,0.15418784,0.23401013,0.028861973,0.2125955,0.05107721,-0.19704849,0.19670378,-0.10195504,0.17752953,0.08099725,0.017079543,-0.04929194,-0.050291583,-0.06884841,0.032035917,-0.059612215,-0.0054780664,-0.20820624,0.020244813,-0.14879955,-0.0059608966,0.06695047,0.105283186,-0.2086818,-0.07054624,0.037816674,0.057803754,-0.08553735,0.033721667,-0.28004837,0.019451948,-0.14507914,0.08173681,-0.13090073,0.02125405,-0.074282646,-0.2497946,-0.13931167,0.022622824,0.07547524,-0.17179498,-0.05360098,0.31415683,-0.28818983,0.04426054,-0.022432083,-0.00020599047,0.061666157
0.0031904676,-0.2527592,-0.19956516,0.05563984,-0.11220341,0.24693324,0.1535133,0.04753168,0.3029804,0.13448146,-0.29046538,0.105875626,0.08766332,-0.11577045,-0.24394158,-0.141638,-0.2815032,0.016647412,-0.10447233,-0.26391065,-0.12976201,-0.11543969,0.049174655,0.048429772,0.12568064,0.029205669,-0.27260387,0.03809837,0.21530901,0.0697533,0.06852104,-0.028185496,0.18062493,-0.23838182,-0.04397382,-0.07333405,0.05493605,0.06310884,0.12071587,0.27299902,-0.060111865,0.022338467,-0.08408948,-0.08453555,0.21469668,-0.027233507,0.17277065,0.10649381,0.306427,0.06553071,-0.2907571,-0.07042758,0.041080393,-0.029139433,0.12853703,0.14631544,-0.05709213,-0.073068365,0.0223694,-0.20313297,0.21362066,-0.031029023,0.2659571,-0.2211281,-0.055378273,-0.22503497,-0.029923588,-0.046157166,-0.07067666,0.12028745,0.17825246,-0.17689902,0.041189432,-0.11219509,-0.061621778,0.051830117,-0.11077528,0.060715225,-0.1487962,0.21929452,-0.15691717,-0.02394734,0.11601831,0.099216186,-0.05272416,-0.03571674,-0.0028691175,-0.13111393,-0.11829607,0.008637445,0.09854537,0.024281917,-0.061942384,0.23743217,0.17013572,0.025948469,0.004129294,0.06960581,-0.049860027,0.17702575
0.15385994,-0.0046001947,-0.019208876,-0.07774548,0.007389116,0.15985022,0.040625375,-0.073054485,0.14621964,0.09955253,0.10838114,0.25564453,-0.15303552,-0.051223267,-0.0088138115,0.018485414,0.23482153,0.34051645,-0.117579624,-0.14651515,-0.025968596,0.016773568,0.059287682,-0.23413904,-0.0034201788,0.2733737,-0.10676983,0.12411337,-0.07952522,-0.068105094,0.18337041,0.14072222,-0.04852064,-0.14527036,-0.04786808,0.25449985,-0.087468535,0.027229402,-0.027066862,0.03319889,-0.19176453,0.23143412,-0.0015356352,-0.024456613,0.28195748,0.0005728413,-0.09630929,-0.14400508,0.06718854,-0.20410056,-0.05704011,0.2574581,-0.093212746,0.0036287387,-0.0054042554,-0.12792246,-0.31766054,-0.07162686,0.12116264,0.10784959,0.20159744,-0.13675638,0.049268797,0.11485683,-0.1756594,-0.22067235,-0.061405007,-0.16514836,-0.27617937,0.0045043817,0.10376207,0.016911602,0.3023475,-0.12198581,0.0116972895,-0.046135444,0.11177111,-0.20190257,0.055726476,0.04619421,0.09081403,-0.27918172,0.003985052,-0.09467864,0.07665085,0.093219854,-0.17721032,-0.035521973,-0.2683478,-0.0853717,-0.12791076,0.20166154,-0.017786618,0.06663455,-0.12667155,0.10216771,-0.13599871,-0.115963355,-0.034648553,0.2545846
0.19550629,0.026896622,-0.014843729,0.01227944,0.0027586382,-0.30257416,0.19386502,0.17421031,0.2935517,0.081180006,-0.11239021,-0.0009692804,-0.23752655,0.2508433,0.13029535,0.038401652,-0.13281427,0.027282048,-0.3128725,0.05053879,0.20582421,0.13253763,-0.115388565,-0.016072616,0.18291369,-0.25864324,-0.054717783,0.08633428,-0.17227882,-0.060794532,-0.048010353,0.11158531,-0.18351437,0.28389075,0.08473227,-0.055725977,-0.24453689,0.065440096,-0.11421908,-0.014770668,-0.20547202,0.11045987,0.08438973,0.09393329,0.22556649,-0.13844989,0.089990295,0.05406838,0.0993489,-0.2680915,-0.044882495,0.15440711,-0.0035075366,0.2308431,-0.09871939,-0.040884256,-0.09438724,0.26894498,-0.31790593,-0.08028317,0.020692559,-0.0031545742,-0.013994017,0.022933448,-0.08135893,0.026218202,-0.28527135,-0.2168401,-0.033915777,-0.29975978,0.016513418,0.12682436,0.25414708,0.12835154,0.008511135,-0.15319014,0.08724169,-0.098190196,-0.052498348,0.087249145,-0.13810849,-0.26032704,0.112642996,0.026659446,-0.1524259,-0.032384496,0.104667604,-0.0032163898,0.087131955,0.27381387,0.07010904,-0.04633386,-0.07904487,-0.19797483,-0.050102353,-0.20117395,0.080834605,-0.054106835,0.16022708,-0.07503985
0.047024265,0.014344431,0.13736323,0.11474766,0.010712135,-0.1142695,-0.14814167,0.22102875,-0.16956967,0.079038486,-0.17901963,-0.005590182,-0.21825777,-0.024663577,0.15855503,-0.11349536,-0.15966259,-0.011319575,0.013895006,-0.15058352,-0.2752482,0.09780225,0.18798536,-0.18277699,-0.10061107,-0.015055976,0.26942796,-0.0007722989,0.21275721,0.02991307,0.026076918,-0.15669979,-0.04596575,0.18980287,-0.067581624,-0.007766754,0.08120437,-0.27212533,0.15293467,-0.15451574,-0.19205049,-0.12559475,0.05109054,-0.083152525,-0.069279484,0.19606991,-0.30144587,-0.041934922,-0.10069432,0.04213256,0.17389764,-0.0075132586,-0.17750612,0.08091382,0.057632226,-0.2039516,-0.0020693794,0.1050832,-0.038639646,-0.2411452,-0.0013801726,0.021388913,0.2581326,-0.114139125,-0.002309023,0.08686986,-0.17228748,-0.15929529,-0.20842095,-0.22129929,-0.08624642,-0.008960873,0.17994834,0.04256933,0.102515966,-0.25420123,0.24390694,-0.017747598,-0.100273065,0.10037936,0.077911384,0.011920158,-0.15341726,0.2973903,-0.2636794,-0.012855556,-0.2154286,0.18270338,0.19425416,-0.050564956,-0.0150712,-0.03861003,0.12450655,-0.059943337,0.07335669,0.09689913,0.08150997,-0.11812944,-0.062021326,0.04220384
-0.13725084,0.23414987,-0.1774372,-0.03759062,-0.017051956,-0.06735777,0.061015286,-0.058834683,-0.061522536,0.080762,-0.20426874,0.1736724,0.17312744,0.014205087,-0.00649138,-0.077415735,0.07554648,-0.33289006,-0.2637084,-0.07273453,0.03293128,0.19307216,-0.053416952,-0.05649502,-0.09228297,0.07190422,-0.18175878,0.040930618,0.01707049,-0.15827432,-0.067979194,0.14258036,-0.034626484,0.09270839,-0.031031648,0.16466877,0.04070813,0.05006312,0.088067636,-0.13704269,-0.041484505,0.045143995,0.13117558,-0.21558444,-0.16965146,-0.28687453,0.015707245,0.055087283,0.0005177599,-0.1671125,0.1169841,-0.037694957,-0.006292829,0.12297256,-0.18080004,-0.21818307,-0.08007845,0.27032226,0.28373244,-0.08598084,-0.10797,-0.013134683,-0.051225398,-0.038216304,0.08813744,-0.13043271,-0.014119241,0.17110728,0.114208855,-0.3037875,0.014737747,-0.0044914656,-0.3006785,-0.11301196,-0.038689002,0.12832089,0.028768022,-0.037954852,0.028609518,0.13600434,0.22940736,-0.09202741,-0.083996534,-0.028832512,0.08133356,-0.121364474,-0.030732617,0.08719713,-0.2880821,-0.2015868,-0.058253862,-0.05921886,0.023321657,0.20177889,-0.1308329,-0.022421736,-0.17481954,-0.11373563,-0.13893867,-0.043399245
-0.11238297,-0.11812374,0.18701285,0.107102476,0.02137437,-0.05290046,0.19504793,0.10942953,-0.15579197,0.09693228,0.0001528935,-0.028857749,-0.07853225,0.0373628,0.036164578,0.1777866,0.035823584,0.062965624,0.15022998,-0.14334543,-0.09359469,0.082004145,-0.004865414,-0.12913047,0.085634865,-0.008152383,-0.057770334,0.20307264,-0.009637034,-0.05142985,-0.1935762,0.18293734,-0.05641266,-0.136339,0.051258914,0.09280497,-0.19030291,0.13146827,0.03276947,0.11482542,-0.04059465,0.082333244,0.2257217,-0.11227712,0.03585323,-0.17988023,0.084680155,0.053528935,-0.29293177,0.25024605,0.054855175,-0.14141952,-0.10096944,0.23232293,-0.13228714,-0.2182307,-0.03768989,-0.0623764,-0.0077269217,0.06248836,-0.114038825,0.25696337,-0.0012258588,0.07301871,-0.107394986,-0.0499689,0.054648425,-0.07480132,0.17922778,-0.009159372,-0.00015980954,0.0010477725,0.058717187,-0.005991923,-0.014112602,-0.15851666,-0.019770563,-0.10576654,-0.08475818,-0.21547611,0.20411284,0.15873238,-0.22197446,0.04754086,0.19420603,-0.11606645,-0.06532627,-0.015992833,0.030511923,0.024269752,0.22357218,-0.24396642,-0.12917718,-0.14779505,0.0072195525,0.114169426,-0.12761874,0.09747247,-0.0013647331,0.057828646
0.0929996,0.08658933,-0.16706173,-0.009580469,-0.031648006,-0.106929794,0.113239475,0.032302152,0.1376221,-0.16816336,-0.01501132,0.06623287,-0.049437422,-0.049291722,-0.048718676,-0.06018314,-0.051442884,0.002586452,-0.07383206,0.021469358,0.12671241,-0.050690107,-0.08495229,0.07406308,0.14008358,0.14835109,0.06395235,0.05738516,0.0056657256,0.091709346,-0.30591294,-0.16579264,0.11170625,0.07149112,-0.003078044,0.06518555,-0.2188548,0.24318658,-0.21857373,0.046711445,-0.026627155,-0.15331319,0.20450115,0.0907217,0.03582847,-0.001116647,0.123351894,0.1117592,0.05157463,0.13879307,-0.14870292,-0.00018728524,0.17939128,-0.09248133,-0.10975702,-0.12959081,-0.07692184,-0.14410998,0.051823836,-0.030823926,-0.21252234,0.21491146,0.0047824737,-0.145832,-0.18855749,-0.1598383,-0.029348308,-0.02417515,-0.05004734,0.04197917,-0.031474587,-0.32946497,0.019981498,0.023253145,0.14334878,0.11970239,-0.23663811,-0.08823916,0.123288944,-0.014591401,0.18495236,0.20188926,-0.23746543,-0.0017623586,0.05779327,-0.15358661,-0.027694019,-0.18276384,-0.07065719,0.1956354,0.009102842,0.23891473,0.026105607,0.067464486,-0.03910239,0.12325062,-0.18447621,0.16278388,0.12055818,0.21342477
-0.26976857,-0.27817652,-0.29345745,0.13411158,0.021528495,0.105387434,0.1236369,-0.27900395,0.099368826,0.02897704,-0.10752067,-0.13964298,-0.06453911,0.25470456,-0.21269013,0.05845107,0.026198609,0.0542492,-0.1755526,-0.014915227,0.024615876,-0.0107090995,-0.11677173,-0.00030180972,-0.10914258,-0.082290486,0.17175817,0.03662568,0.082349256,0.10555201,-0.1413182,-0.12383995,-0.01938024,0.067978926,0.09040302,0.15095219,-0.024052776,0.070862815,-0.024676418,-0.028916325,0.116332024,0.026864653,0.117239654,0.30240864,-0.15835337,0.038377788,0.050524425,0.067212306,0.062368724,-0.23137125,0.30800915,0.009780273,-0.0021232876,0.12857315,0.10173051,-0.31159753,-0.03292213,-0.065760724,-0.020758603,-0.018630762,-0.2335392,-0.14717546,0.02192807,-0.12330039,-0.03559478,0.05729593,-0.101934366,0.08808249,0.25597012,-0.011239916,0.10831343,-0.17338523,0.008633301,0.0051006344,0.041569084,-0.15608452,0.16209748,-0.05932563,-0.1328559,-0.05589721,-0.10261141,-0.14012808,0.0160889,-0.19314943,-0.008416997,-0.186097,-0.13130419,-0.2857188,0.0768447,0.13701798,0.039560497,-0.18594734,0.06841986,-0.1834998,0.08401982,-0.17405917,-0.10426893,0.08425092,0.10987528,0.2727279
0.013472218,-0.066623084,-0.16309352,-0.12690885,0.14841548,-0.089321025,-0.14324608,0.23361303,0.16006537,0.05575734,0.14797536,-0.013061288,0.21051176,-0.012558868,-0.057636198,-0.28153324,-0.0033625937,-0.06952195,-0.0021480357,0.05942298,0.13563281,0.18891773,0.060205564,-0.00677652,0.03939718,-0.07344347,0.07270448,0.105893426,0.058711495,-0.05093323,-0.084249355,0.28401935,0.282659,-0.23019081,-0.021343498,0.077971414,-0.23522882,0.09693877,0.054090768,0.0076381303,-0.055514988,-0.1549307,-0.10951483,0.08790524,0.15137564,-0.2354515,-0.110134006,0.23354891,0.045048352,-0.00015067687,-0.09867238,-0.0033131747,-0.14044793,-0.17934231,-0.24499579,-0.08481379,0.0008585055,0.029518425,-0.06853308,-0.2521497,-0.06192537,0.1964189,0.04129836,0.030297361,-0.23781042,0.14141656,0.021813164,0.124124736,0.11740926,-0.18589649,-0.124426186,-0.20769845,0.12052676,0.0916324,0.01805138,-0.26330137,0.015847165,0.17128573,0.12029803,-0.015966142,0.13706827,-0.14292577,-0.064235345,0.18146835,0.05453398,-0.021630209,-0.04991336,-0.20637739,0.18302038,-0.21279569,-0.045776017,0.14718322,0.2415899,-0.004467653,0.09995254,-0.014838302,-0.014045269,-0.05512461,0.08430594,0.11818212
0.013854447,-0.0031761618,-0.20300145,0.10858397,0.028986918,0.023396328,-0.0519898,-0.033999994,0.1146009,0.05274769,-0.00850128,-0.05449865,-0.12544994,-0.050722413,0.21740627,-0.015576308,-0.12618454,-0.0465791,0.022014752,-0.08020759,0.27898884,0.03936844,-0.1025036,-0.1728942,-0.19784439,-0.0007262279,-0.08625255,-0.0041658347,0.20220381,0.10275459,-0.07310909,-0.15746635,-0.005109217,-0.046197765,0.16791418,-0.11027715,0.08226598,0.007862432,0.26513144,0.11628648,0.15514512,0.12660615,-0.10875333,0.0913769,0.095656954,-0.06951138,0.03931687,-0.035710953,-0.06249193,-0.04984312,0.08530776,0.15427233,0.030751057,0.085446365,0.15201066,-0.25990206,-0.031600114,0.09058224,0.22916375,-0.057310134,0.0942036,0.23161371,-0.11571499,0.1177035,-0.07316481,-0.1427355,-0.05867877,-0.0870037,-0.07233825,0.15220258,0.0133104725,0.0068243053,0.108544245,-0.112373136,0.014929485,-0.22181298,-0.2820746,-0.24333216,-0.03830083,0.083016016,0.14161849,-0.041775204,-0.22127868,0.060422163,-0.041472882,0.09500245,0.09750386,-0.14270344,-0.081831135,0.024754548,-0.10871921,0.25180712,0.32401168,0.13917574,0.101976566,-0.12617826,-0.018026726,0.117830284,-0.18471752,0.10820374
-0.03068218,-0.18599623,0.10076253,-0.021352494,0.099618815,0.16831738,0.2179405,0.23560868,-0.057389613,-0.107756056,0.28362295,-0.1981639,-0.018535754,0.27395877,-0.092023484,0.3044859,0.082742155,-0.10151115,-0.027556773,0.020857051,0.056649283,0.035822924,-0.0047025695,-0.13852829,0.036338698,-0.021298608,-0.119099945,0.09438138,0.09999308,-0.11545945,-0.059818145,-0.0049355016,0.1395647,0.07237499,0.091540575,-0.08009121,-0.1797026,0.2854324,-0.1897622,-0.02084111,0.0123372,-0.24042769,-0.10803595,-0.11503533,0.032473367,0.16613996,0.24077961,-0.17722937,0.28007814,-0.053055033,0.00808278,-0.2956622,-0.23329408,0.2908329,0.040867317,-0.0366159,-0.2298786,-0.0079343235,-0.0063185776,0.119011596,0.043734975,-0.26359183,0.08436052,-0.13803087,0.08585807,0.19671306,-0.11898281,-0.15988332,0.06382049,-0.17151287,0.08792644,-0.03842212,0.17294414,0.16339445,0.19892311,0.070898235,0.19260369,-0.11706175,0.045320354,-0.12681216,-0.18915358,0.04458897,-0.028473428,0.0029776278,-0.11613503,-0.03965055,-0.119729236,-0.014012532,-0.027997507,0.03430648,0.0023018902,0.035383604,0.07757619,-0.13041478,0.12491815,-0.07994947,-0.038802233,-0.018132024,-0.09720971,0.21584117
0.17560613,-0.1374019,-0.20058855,-0.20216282,0.0628724,-0.057668246,0.18660049,-0.09097611,-0.31964424,-0.032909796,0.15362708,0.016914729,0.07008037,-0.021382283,0.2778706,-0.063501954,0.1368115,0.1240347,-0.011011742,-0.087903455,-0.19710879,0.014456129,0.22085322,0.29534683,-0.06134242,0.07456879,-0.1274506,0.015130037,-0.042670164,-0.30615443,0.2791833,0.052737404,0.21311568,-0.14604454,0.116909765,-0.09701088,-0.050197963,0.157861,0.20093289,-0.12354885,-0.22243777,0.08448397,0.08648039,-0.053088117,-0.06739368,-0.116078086,-0.0135735115,-0.30013552,-0.0028840115,0.017691143,0.2243606,0.001333368,0.05349826,0.01313955,-0.09101828,0.124591924,-0.15151674,-0.25164172,-0.16611019,0.2992316,-0.12729326,-0.07986676,-0.039810345,0.13404498,-0.102493726,0.0757051,-0.1353506,0.15582404,0.03247426,0.004033404,-0.037593145,-0.14167424,-0.09827328,-0.19845408,0.16451754,0.0043351525,-0.15211034,0.009965474,-0.051352847,0.22646011,-0.15354091,-0.046463534,-0.08099702,0.09163706,0.041878752,-0.1319278,0.23728164,0.105946235,-0.054978553,0.2909251,-0.18868493,0.13393864,0.13400164,-0.018530628,0.11441499,-0.12398472,-0.0753508,-0.22427833,-0.14731951,0.04439429
-0.100976475,-0.15018384,0.22010608,0.027006349,-0.1713387,0.04129854,-0.03672267,0.17485012,0.122889675,-0.2608653,-0.013681701,0.11362955,-0.12724213,-0.012395769,-0.30339095,-0.071389064,-0.06670093,0.007343441,0.07462245,0.026455672,0.18244496,0.18243642,0.12865947,-0.09210171,-0.14720547,-0.27396643,0.058701113,0.0020935861,-0.053344578,-0.10113402,-0.10503915,-0.12927453,-0.24298847,-0.0537603,-0.20379014,0.02887252,0.05542037,0.04149362,-0.07318062,0.12117117,-0.004501572,-0.21840161,0.10197683,-0.15905343,-0.13300236,0.046817478,0.07080119,-0.08538034,-0.06598447,-0.14003922,0.26888472,-0.02590962,0.064101055,0.05287874,-0.06843831,-0.26916823,-0.069542885,-0.2995397,-0.09371948,-0.0764123,-0.2490883,0.019251138,0.084124215,0.003230408,0.25188118,0.24774247,-0.028954718,0.008158422,0.19279093,0.13771933,0.019268759,0.13554156,-0.18188758,-0.16099377,-0.24596414,0.074684665,-0.18781391,-0.041920543,0.033667132,-0.07990737,0.10320292,0.2739858,-0.16661301,0.0245188,-0.06739473,0.050595455,0.17366679,-0.27603275,-0.31833452,-0.26238453,0.0059268638,-0.019125583,0.007968735,0.16328864,-0.08795144,0.0049376287,-0.29329503,-0.06431388,-0.02624097,0.04303863
-0.012959001,0.24540289,-0.25729302,-0.120965466,0.017939787,-0.017427133,-0.24571009,-0.17722036,0.047382392,-0.1267895,0.07223315,-0.16176048,-0.11802036,-0.15909943,-0.063155,0.019239865,0.0023014513,-0.15310583,-0.22160652,0.09905063,0.06927729,0.019924551,-0.008709101,0.0002167211,0.12295754,-0.25557503,0.014196332,0.11417198,-0.08124316,-0.28561777,-0.043497633,-0.090590306,0.18893597,-0.1646816,0.19524756,0.18375494,-0.1844347,-0.03479098,-0.1847993,-0.009755726,0.029852457,0.1654044,-0.055224545,-0.2130519,-0.038823925,-0.078292914,0.10056852,-0.0052260286,-0.30645585,0.14532383,0.031088224,0.034780864,-0.055611573,0.19104241,-0.08372992,-0.09748165,0.054701068,0.004092679,0.14842884,-0.04925168,-0.09564662,-0.079997934,0.28977984,-0.10363063,-0.22555229,0.08042249,-0.21460664,-0.24231833,0.16468376,0.044221144,-0.041900285,0.031078411,-0.2780616,0.08401655,-0.19191608,-0.16884643,-0.18261519,0.2684633,0.046154205,0.08216384,0.012932912,0.17282659,0.14040287,-0.12900311,0.11317546,-0.09675246,-0.29461586,-0.19649932,-0.08787643,-0.07411465,0.099116586,0.066159256,-0.06222931,0.061049163,0.038954306,0.074091874,-0.17247471,0.13677917,0.23045008,-0.22714916
-0.27675623,-0.42556092,0.00021493156,-0.06359026,-0.0844997,-0.03649095,0.137135,0.008263552,-0.04705861,-0.03830164,-0.26742503,-0.17648569,0.034992747,0.033348203,-0.02792135,-0.013607678,-0.15667354,0.08892252,0.27765965,-0.040720973,-0.100303754,-0.045287773,0.23240802,-0.20907709,-0.07356395,-0.09717042,0.08630067,-0.27122343,0.16934521,0.056141295,0.20095864,-0.19110557,-0.08275343,-0.09486168,-0.016320486,-0.08311384,-0.13617161,0.07572554,0.10801681,-0.278023,-0.012848643,0.08849332,-0.15981486,-0.0996569,0.046244856,0.016052939,0.07630794,-0.07411897,0.26879746,-0.15440315,-0.09122814,-0.08787751,-0.03043645,-0.20519204,0.027591135,-0.1318664,-0.24818009,0.017174687,-0.20212932,-0.09572965,0.14344272,0.07684199,-0.078045696,-0.060504217,0.057998378,-0.1515447,0.08771978,-0.09511804,0.09553324,0.24728563,0.08282442,0.11917686,-0.07570001,0.11817067,-0.054681297,-0.07585385,-0.3208549,-0.029319357,-0.03818333,-0.06868328,-0.0687125,-0.07080631,-0.14805447,-0.28870022,-0.18466823,-0.13270435,-0.055191576,0.17538062,0.046347797,0.10519126,-0.08726327,-0.1674061,-0.09248163,-0.10378712,-0.06788878,-0.06416532,-0.08981908,-0.05349531,0.068990625,-0.28394982
0.15272364,-0.22176293,-0.22793065,0.047822777,-0.027112985,0.059572965,0.06567595,-0.053180624,-0.057770804,-0.26317096,0.14873353,0.06659763,-0.03543148,-0.050693028,-0.30924278,-0.31001338,-0.12830248,0.048815183,0.08358431,0.063718304,-0.06422532,0.07835677,0.09281568,-0.015581897,-0.016785312,-0.08715351,-0.027974527,-0.24751504,0.0250723,-0.14470826,0.03627912,-0.08357591,0.054555815,0.15102454,-0.012057452,0.01922688,-0.0015765417,-0.008505084,-0.016763005,0.24154072,-0.19543962,-0.13594995,-0.13040984,0.14773548,-0.2439612,-0.030579457,-0.07571712,0.057049785,0.035921864,0.028414784,-0.020892896,0.044417124,-0.13084908,-0.052007426,0.035667263,0.103212655,-0.03198664,-0.058281668,0.21950807,-0.15459906,-0.15178299,-0.042286444,-0.14700748,0.045071296,0.063544534,-0.14412726,-0.06390444,-0.06584301,-0.008798421,0.070066676,-0.09496128,-0.28680775,0.034865864,0.13431236,-0.099261425,-0.1812869,0.21444945,-0.24366602,0.07859013,-0.22358277,0.023289813,0.20666382,-0.02253994,0.1713051,0.23372246,0.1931437,-0.053253908,0.067235045,0.00046094417,0.04794306,-0.050935984,-0.05814405,-0.04127843,0.060555346,0.20916261,-0.052665066,0.09592729,-0.045031622,0.025523832,-0.086329155
0.14483362,0.1591399,-0.17856598,0.0066545075,-0.0373589,0.03730828,-0.1875428,0.1604259,-0.13747002,0.12618805,0.10323246,-0.03757347,-0.18555218,-0.15251334,0.23135068,-0.25717843,0.12567289,-0.015388927,0.14936562,0.25362712,-0.054223567,-0.2047614,0.022895372,0.070693165,0.14283273,-0.16316181,-0.13224675,0.12804389,-0.20486413,0.1749874,-0.04073012,-0.10537908,-0.24007979,0.109354414,0.25325227,-0.029696234,-0.0659107,-0.19935875,0.14536631,0.033717107,0.0259127,-0.13999557,-0.07580633,-0.15820502,0.11738118,0.024887728,-0.14463323,0.008372886,0.03473724,-0.0964122,-0.14555566,-0.13455695,0.0004575705,-0.055575043,-0.10174735,0.14895743,-0.02744187,0.024156155,0.15774696,-0.096588045,0.06468154,-0.2225202,0.25328642,-0.044136852,0.0326556,0.082029626,-0.11912069,0.22782366,0.21421768,-0.05307083,0.09581265,-0.0003040712,-0.12538578,-0.07304277,0.030356055,-0.021420874,0.02699898,0.0063408306,0.022160893,0.024043396,-0.19838092,0.08973635,0.113947846,-0.12715772,-0.10374987,-0.05292583,0.18613596,-0.2679932,-0.13615435,-0.08428017,-0.0790696,-0.27488717,-0.16642508,0.043219607,-0.17032233,0.1921299,0.106075495,0.19526769,0.22618458,-0.23701301
-0.23615956,-0.40030003,-0.0037680308,0.299779,-0.066372074,0.24401738,-0.21714805,-0.22570594,-0.10698219,0.0034361123,-0.1001165,0.17115423,0.25990805,-0.24501084,0.21734336,-0.09539375,-0.2481296,-0.060316548,0.09978953,-0.1043681,-0.0799065,0.24264614,0.13404419,-0.23734201,-0.064974345,0.093814254,0.16830342,-0.078090906,-0.05842124,-0.2179578,0.02935031,-0.13040267,-0.120636635,0.013709048,0.06739834,0.004955626,0.03659612,0.096944734,-0.26526126,0.20823178,-0.056137834,0.042299516,0.08682761,0.03217885,0.04387278,-0.13956721,0.011218096,0.012890491,-0.09387214,-0.24647468,-0.10408765,-0.279099,0.032236863,-0.028247695,0.19495715,0.011749587,0.09019996,-0.25741646,0.01871789,-0.016925707,0.048917115,-0.18821329,-0.09985222,0.18523642,0.27657267,-0.14518182,0.13674898,0.11109902,-0.043111965,-0.004231915,0.1818298,-0.19824725,0.18794444,-0.2910344,-0.20523928,0.08695886,0.06538649,0.17244583,0.095220104,-0.2973257,-0.14672202,0.044266768,0.059752136,0.226902,-0.25907904,0.094104506,-0.07026591,-0.05553782,-0.2944959,0.119899735,0.043386545,0.05070868,-0.12533744,-0.005646904,-0.17781693,0.1826715,0.09834128,-0.010491049,-0.27965534,0.066468515
-0.051866252,-0.20780768,0.26749915,-0.0065780985,-0.14435929,-0.14083911,0.12201112,0.0335867,0.039040357,-0.028550187,-0.09800043,0.31872794,-0.010513747,0.18101092,-0.15852359,-0.11778115,0.09238389,-0.048351567,-0.092794076,-0.28640687,-0.07736763,-0.14253868,0.023559581,-0.06961935,-0.069992654,-0.25070372,0.22073556,0.24131359,-0.017419627,0.0619582,0.24107423,-0.047247794,-0.13347167,-0.14004819,0.04684017,0.018864656,-0.09034967,0.013122504,-0.0292011,-0.17025705,-0.09668068,0.028324,0.15710703,0.109620884,0.13307686,-0.045175966,-0.12435493,0.117102124,0.114088826,-0.08440606,-0.023776466,-0.29211265,-0.058637142,0.14650317,-0.019607143,0.18809874,-0.0104963435,0.05991636,0.23132911,0.15204154,-0.11852298,0.023334337,-0.14228457,0.23223132,0.07952538,0.23194905,-0.06278833,-0.027760105,0.13839157,0.086404085,0.17337142,0.0929759,-0.072224304,-0.022081789,0.043348886,0.05935731,0.21112597,0.1158121,0.07179832,0.04524564,-0.15778169,-0.13816005,0.056992847,-0.017997565,-0.10594462,-0.23318267,-0.16216162,0.090747245,-0.19875813,0.024571203,-0.0035053291,-0.06169445,0.15394835,0.19609533,0.022373546,0.04065779,-0.06459095,-0.16254038,0.05974041,0.1403343
-0.0109147,-0.20524456,0.03901612,0.004642408,-0.04844281,0.09431611,-0.12140418,-0.19154787,0.16856024,-0.15309064,-0.067408234,0.004696276,0.024520809,0.04152146,-0.09652199,0.06500737,0.13682589,0.09975377,0.11609017,-0.114285424,0.15816556,-0.15499055,0.08057503,0.16270259,0.10777201,0.1337221,0.049834166,0.19649161,0.0996656,-0.11188871,-0.1986135,0.067749485,0.22772263,0.1538285,-0.18335313,-0.09324014,0.025840124,-0.1738191,0.0793614,-0.0050079566,0.24749354,0.10666114,-0.1742107,0.2412724,0.076800205,-0.14778177,0.030043803,0.011620917,0.17478198,0.14186248,-0.031083073,0.28965482,-0.066809915,-0.013795021,-0.014200655,-0.2689227,-0.11652734,-0.04239525,0.10095054,0.2386661,-0.028612247,0.10556586,0.14656718,0.25810516,0.046427388,-0.0010318739,0.03449608,-0.0055044633,0.14556755,-0.009745627,-0.14049491,0.034357402,0.011338148,0.13072383,0.032028977,0.30163404,-0.22251295,-0.2390759,0.106626295,0.009540624,0.23965585,-0.17959398,0.0911767,-0.15274684,-0.05952635,-0.11541734,0.21661662,-0.0907453,0.031355478,-0.06694059,-0.032551188,0.0820567,-0.020414772,0.17831536,-0.043755095,-0.057160817,0.15465249,-0.07436359,0.0396775,0.070436925
-0.23834282,-0.049001057,0.03498339,-0.123507574,0.088506564,-0.21953516,0.17477272,0.011387057,-0.24075954,0.07147567,-0.17507578,-0.1793453,0.2703582,0.26622057,0.05367329,0.16285813,-0.044999372,-0.25454906,0.25064933,-0.29364845,0.057129916,0.18534794,0.14150576,-0.19022758,-0.20612472,-0.070774354,0.2093306,0.04577605,0.090609305,0.071579434,0.07941827,-0.16970952,0.29886118,-0.047177296,0.00787872,-0.25626212,0.047104005,0.10960655,-0.17225485,0.22397359,0.0951947,0.20811337,-0.32076776,-0.020072524,0.3190774,-0.1544329,0.30367148,-0.031655397,-0.0014585576,0.037721477,-0.018653972,0.087092936,0.103525676,0.1865702,0.06271127,-0.20678529,-0.28670534,0.07512586,-0.13007626,0.21827291,0.032422114,0.19062828,0.05975899,-0.11249187,0.011739096,-0.013608863,-0.032489546,0.30033416,0.09483459,-0.26348376,0.1532479,0.20888214,0.028553443,0.22352682,-0.14065988,0.064964026,0.044074945,0.09527876,0.09957039,0.0064842855,-0.29150593,-0.08437755,-0.06098551,0.32030237,0.23495287,0.15500037,-0.16072632,0.055866294,-0.14632502,-0.03916877,-0.15309368,0.12288156,-0.14601053,0.049112055,-0.009808457,-0.10812217,-0.056034975,0.09445466,-0.069722995,0.11088738
0.03018445,-0.18245459,-0.11670088,-0.14256938,0.08340025,-0.0396092,0.06335676,0.02563717,-0.25462887,-0.16628958,0.27171227,-0.03861641,0.21412885,0.036323868,0.16677572,-0.2456143,-0.047180492,-0.13002676,-0.026333952,0.10135523,-0.18572655,0.17624316,0.0944289,-0.15334627,-0.080104224,-0.14392646,0.04233593,0.18405421,-0.032101825,0.11541715,-0.21277393,-0.058682073,-0.118047774,-0.14951701,0.08106677,-0.23438619,0.05066894,0.12261536,0.022013094,0.19247887,0.09894503,-0.0859737,-0.020127278,-0.095706604,0.03307971,-0.2095416,0.034729782,-0.17585237,0.08004901,-0.096153416,0.29018995,-0.029710678,-0.26476094,-0.11237384,0.1554223,0.01994904,0.0026422217,0.072469935,0.13289388,-0.058717277,-0.036423314,-0.05696669,-0.08252256,-0.12850009,0.11814602,-0.05600276,-0.16921885,0.1484549,-0.0738172,0.16618611,-0.06905066,0.106318824,-0.079383045,0.09626657,0.07441021,0.1764797,-0.043520518,-0.13201612,-0.008652009,0.05162359,0.122220516,-0.005678242,-0.085139334,0.0069147325,0.013660497,-0.14812967,0.13891442,-0.13677393,0.072988324,0.13194704,0.061839208,0.19989514,-0.0062922067,0.28084004,0.0054130172,0.21709138,-0.15787983,-0.14819412,-0.05696978,0.028852655
0.14598334,0.14716701,-0.11744785,0.24943449,0.24411368,0.28057563,-0.03388968,-0.045607656,0.27909827,0.34609064,0.09645241,0.019103458,-0.071267344,0.092101246,0.13651931,0.03293927,0.0215347,0.103175595,-0.24060121,0.1092711,0.06885302,-0.1186808,-0.023018012,0.0041200854,-0.27970773,-0.191813,-0.18123777,0.07520554,-0.22422595,0.20388812,-0.08530654,0.16275802,0.18382873,-0.12903582,0.1942494,-0.18980382,0.1345887,0.15541402,0.03050942,0.08528974,-0.008427013,-0.114538595,0.020158367,0.255091,-0.19365749,-0.08543871,0.20864564,0.11394662,-0.08010985,0.123083666,-0.02122989,-0.010700954,-0.15497568,-0.0027124048,-0.0073447074,-0.07852224,0.26869476,0.07627188,-0.16901226,0.056502685,-0.08872357,-0.04539606,-0.07612036,-0.051782317,0.05844008,0.29633036,-0.045638982,0.008289358,-0.20999813,0.08526407,0.30162793,0.1890166,0.19894274,0.09583761,-0.13175325,-0.21969649,-0.23143655,0.067945056,0.036150992,-0.0580842,-0.036540512,-0.04174026,-0.054371513,0.08937014,-0.077066176,-0.27616924,-0.096241586,-0.109158404,-0.16405773,0.16771126,-0.16278322,-0.26837176,-0.0053597307,-0.031153714,-0.1913682,0.036772184,0.06591108,-0.039911617,0.13764298,0.07816572
0.04974204,0.057363417,0.036752008,-0.092511214,-0.0638588,0.05236496,0.13736452,-0.14080703,0.017662622,0.11841936,0.1881493,-0.13669822,0.09097708,0.06755262,0.022373864,0.09404331,0.053924084,0.09237935,-0.019656084,0.05107918,-0.1472356,-0.08324143,0.024513222,0.32648242,0.22682273,0.07457696,-0.06252088,-0.057418164,0.014172567,-0.047132656,0.15687484,0.14503472,-0.11804861,0.2633469,-0.027293473,0.27381244,0.16648097,0.13921508,0.040787082,-0.057031386,0.19472677,0.054962456,-0.051731832,-0.000924643,-0.014985074,-0.16197178,0.22006264,-0.26731288,-0.010846628,-0.288741,0.1971127,0.10998482,-0.056528077,0.041481473,0.25734377,0.32065272,-0.074496835,-0.033097755,0.1634036,-0.051551852,0.08197109,-0.014346409,0.03175647,-0.06041659,-0.05575433,-0.13754164,0.07225302,0.06482541,-0.14501062,0.17051363,0.109048024,0.0704949,-0.105290666,0.06648228,0.116313726,-0.14485337,0.16465682,-0.081516795,0.1758772,0.0011320547,0.24928336,0.050161306,0.1891135,0.103981,-0.2957261,-0.19779985,-0.03222084,-0.17940374,0.09819616,0.12594202,0.10520288,0.25219983,0.072609305,0.22443923,0.018784437,-0.046688482,-0.1113476,0.025392946,-0.15729453,0.29158247
0.17087795,-0.28041178,-0.22261935,-0.01745422,-0.18928239,-0.09083574,-0.05892758,0.22356609,-0.11068196,-0.0016320851,-0.05217233,0.009905089,-0.07981203,-0.11556154,-0.2518505,0.116651334,-0.1761041,0.04944212,0.16163728,0.19579346,0.11168999,-0.01828654,-0.04994161,0.19446763,-0.15492639,-0.029500239,0.022077851,0.07545148,-0.18241502,0.23973192,-0.15067053,-0.17094049,-0.15816405,0.23460996,0.034098335,-0.14395826,-0.0295563,0.21065249,0.030354144,0.019526208,-0.13934866,0.2462404,-0.15022424,0.03983474,-0.169555,-0.022581449,-0.033583287,0.05914671,0.063203864,-0.061188273,0.18051027,0.19924234,0.17173955,-0.08364618,0.039898977,0.13585891,0.09259683,0.021128893,-0.058542054,0.31063464,-0.2849967,0.1592826,-0.19028045,0.197652,-0.13522819,0.24628279,0.1014402,-0.2454948,0.23298423,-0.13736793,0.07830346,-0.10762877,-0.08990517,-0.15571141,0.077007055,0.04280139,-0.21692745,-0.049485587,-0.04305435,-0.036720254,0.29353493,-0.124519,-0.19629939,-0.0156921,0.19664218,0.25507563,0.024849478,-0.31127125,0.09205777,-0.301482,-0.093245454,0.2189572,-0.10269517,0.015255014,0.17587972,-0.095471136,-0.19381051,-0.07596161,-0.22646593,0.12069232
-0.037222397,-0.21436685,0.027218364,-0.0124005675,0.019483374,0.09077598,0.08722466,0.29287976,-0.14538483,-0.321439,0.19526541,0.115598805,0.1592321,0.08001245,0.18390045,0.053870957,-0.09437138,-0.2823389,0.0038178407,-0.1192627,-0.092920005,0.12693927,-0.2548963,0.056085244,0.14869832,0.17042564,-0.2939475,-0.09549366,0.195248,-0.28018534,-0.0076400205,-0.087189734,0.18822949,0.06968754,-0.2773933,-0.08027345,-0.1923886,-0.18263906,0.062391877,-0.18644968,0.1668317,-0.25525764,-0.106187776,-0.08539835,-0.011679403,-0.086198844,-0.2810535,-0.10745515,0.18618971,-0.14427215,0.13198778,-0.037998192,0.09280914,0.06860692,0.17789026,-0.05402494,0.06964682,-0.21308309,0.15133227,-0.21153957,0.18008664,0.111237206,0.13855392,-0.041708525,-0.17930187,0.14263918,-0.019143745,0.07256415,0.18701266,0.3191593,0.024257772,0.13427064,0.080652185,-0.15565623,0.03358401,0.040205058,0.062438514,0.3037971,0.12597933,-0.14280902,0.1854365,0.14439653,0.13124287,0.09721957,0.11532596,-0.21089359,0.020731185,0.106829956,-0.024864377,-0.017484063,0.13414642,-0.024293683,-0.3067618,0.044051677,0.12744437,-0.039349847,-0.16907789,0.10751007,-0.18325366,-0.07008208
-0.10161721,0.12216678,0.19190803,0.16950436,0.013053844,-0.07388578,0.27227703,0.059813064,0.13667102,-0.016524406,-0.06529451,-0.041497782,-0.026747657,0.044915438,-0.039891697,0.07788012,-0.13246012,-0.22809188,0.19967525,-0.18739083,0.026447568,0.008026177,0.06759468,-0.11235279,0.11295179,0.055146165,-0.11853267,0.05241312,-0.092024915,-0.057865135,0.2597466,-0.24094471,0.0038266403,0.18742095,-0.10699732,0.01117177,-0.12569048,0.10456557,0.1447674,-0.0260572,-0.154979,-0.18759085,-0.0020292993,0.07433764,0.22662169,0.050307248,-0.085678354,0.11686662,-0.16401698,-0.0011091526,0.160371,-0.038914412,0.047180332,0.13712607,-0.18979013,-0.14747109,0.13822567,-0.138585,0.20349851,0.0069726096,0.11955973,0.11937574,-0.0026589641,0.18836094,-0.15278363,0.15506652,-0.14109515,-0.122373626,-0.16147394,-0.14491414,-0.015121681,-0.03824934,0.24238482,-0.25347027,-0.046781812,-0.20539539,0.089279145,-0.2023591,-0.06852534,0.06241702,-0.04164595,0.22705732,-0.15356596,0.124974035,0.037414413,-0.012683801,-0.07187073,-0.14892176,0.12760681,-0.120816134,-0.08830285,0.0079392325,-0.12643611,0.07917329,-0.08421284,-0.006328482,-0.13273437,-0.17347778,0.024956392,-0.0357919
0.18178871,-0.16832927,0.10482977,-0.28027043,-0.24709325,-0.005802861,-0.0838307,-0.05786856,-0.18286048,0.13946155,-0.1290217,-0.028814234,-0.12245789,0.08776482,-0.25689745,0.04288465,0.04982722,0.17911504,-0.21451665,0.15467535,0.042571936,0.092508316,-0.15240785,-0.16675183,0.25328553,-0.15270111,-0.21715736,0.18948048,-0.12497041,0.25303155,-0.0170371,0.013573863,-0.01651295,-0.28351936,0.04144282,-0.04528741,-0.13629773,-0.05716064,-0.031810064,0.04840872,-0.046659425,0.2503421,-0.047120642,-0.015899524,0.25489485,0.07023513,0.063457504,0.07603009,0.055994067,-0.33164203,0.056704562,-0.21703646,-0.013659568,-0.09075863,-0.25808135,0.26140004,-0.026593914,0.2056308,0.19899769,-0.068610005,-0.053601276,0.06558898,0.011922053,0.1289883,-0.18118687,0.06792946,0.2844845,-0.0012298587,-0.090865396,0.071109965,0.05575317,-0.054444246,0.042079642,-0.051652797,0.055921692,0.27386057,-0.04049752,-0.014869306,-0.00093675073,-0.1590814,0.07014309,-0.11935267,0.14231725,-0.07256416,0.22470516,-0.06470551,0.24463765,-0.2549456,0.1875073,0.09042432,-0.13170834,-0.23099786,0.2591949,0.19262546,-0.015838409,-0.14491674,0.21958718,0.07036226,0.19617681,0.002418013
0.21103296,-0.041842233,0.14066038,0.0019872985,-0.064302735,-0.04861182,0.24421135,0.0026350247,-0.1668028,-0.11614425,-0.17148834,-0.0470368,-0.12295716,0.09599214,-0.15887462,0.0012842697,0.1715568,0.20620085,0.10829142,0.041734066,-0.1156805,-0.13879517,-0.005873837,0.07183498,-0.07939169,0.2562203,-0.15979697,0.29757985,0.026125329,-0.010690946,-0.0037310026,-0.18633553,0.07806253,-0.2410003,0.008608943,0.14122601,-0.008477337,0.18333647,0.11689322,-0.06110561,-0.038070142,0.0312617,-0.097128704,0.2604873,-0.09272917,-0.06174902,-0.09330553,-0.025343219,0.0571068,-0.15700598,0.076315515,-0.022085616,-0.1740472,0.06635,0.010499798,0.28058514,-0.09322652,0.12100202,-0.10507549,0.0019056755,0.025881894,0.07191414,-0.100060284,-0.043906897,0.16361901,-0.1256426,-0.081863105,0.16012396,0.19227546,-0.016087495,0.27351427,-0.21827328,0.16972391,-0.17314047,-0.09236395,-0.06869358,0.057441734,0.08254687,-0.17626543,0.055280644,-0.10371724,0.22040184,0.150391,0.0739374,0.19060358,0.07422677,-0.20083842,0.057678502,-0.1898008,-0.070898205,6.5387554e-05,0.04889387,-0.004333938,-0.18770857,-0.108811475,0.21475871,-0.26740485,-0.015937392,-0.26536134,-0.24181888
0.16281587,-0.1932176,-0.05084012,-0.13222459,0.16775368,-0.1288833,0.08254983,-0.2591266,-0.26736057,-0.019073566,0.029467061,-0.022376463,0.25122607,0.054413967,-0.08114129,-0.143324,0.13351221,-0.17196512,-0.26275617,-0.12250469,0.034741994,-0.12361426,-0.08065352,0.07098169,0.16460082,-0.15148392,0.13095985,-0.19669347,-0.06831298,0.020731404,-0.033814393,0.29068556,-0.04568489,-0.019384434,-0.15136005,0.10845665,-0.20686512,0.009897225,0.21332617,0.08607146,0.26541877,-0.02613281,0.142818,0.15636866,0.1293184,-0.11520209,-0.008558565,-0.22185524,0.18815915,0.12670629,-0.19100492,0.086941265,-0.19028768,0.06633034,-0.07351257,-0.00272335,0.1562609,0.0524677,0.048361983,0.08504768,0.1590521,-0.12159573,0.17209955,0.058007915,-0.24311192,0.14652671,0.11139469,-0.11806038,-0.0186474,-0.09559511,0.08210812,0.20174187,-0.029767888,0.035904575,-0.16068032,0.13161959,0.17090899,-0.109332874,0.23627195,-0.13315815,-0.041518003,-0.07481703,-0.025854206,-0.041743692,-0.0018772541,0.29150876,0.11043297,-4.5545563e-05,-0.096335575,-0.20483954,-0.28702965,-0.061879847,-0.16044511,0.10865099,0.17109498,0.00037283212,-0.03377912,-0.121926785,-0.020502679,-0.08134539
-0.010708493,-0.06199283,-0.23070928,-0.039964687,0.047556277,0.19732705,-0.08035646,0.16308177,-0.009653133,-0.12948462,0.23465064,0.014556875,0.030762771,-0.16456047,0.06994754,0.015190046,-0.21767047,-0.06234875,0.059360344,-0.07506552,0.016539069,-0.22753373,0.13842855,0.3064883,-0.15652126,-0.15567279,-0.14304051,-0.076140665,-0.10030058,0.009125027,-0.069202036,0.04683385,0.23250045,0.09176096,0.11521965,-0.14626405,-0.214091,-0.30853635,-0.063596904,-0.12178201,0.27732703,0.11890742,0.121892214,-0.10484932,-0.025367621,0.06319254,-0.06737358,-0.07205187,-0.08941946,0.104156785,-0.16163006,-0.11281549,0.027441064,-0.2942,0.058539137,0.233258,0.059016015,0.1894002,0.030577363,0.31861517,-0.2427441,-0.07891908,0.17801562,0.27853727,0.03479486,0.07986904,-0.13131927,-0.200544,0.06436535,-0.090537384,0.13142022,0.027848652,-0.12918359,-0.10563987,0.04130461,0.014466839,0.2126259,0.17027175,-0.01058752,0.11549814,-0.09883325,0.2589286,-0.1841285,0.14946863,-0.2822039,0.030338205,0.1585684,0.12885256,0.14452182,-0.015622512,0.057221625,-0.21224129,-0.07431137,-0.15481292,-0.30387992,-0.00031958052,-0.037019253,0.11792092,0.056977622,-0.11809963
0.10069411,-0.22914924,0.1079295,-0.032155786,0.06516224,0.033669095,0.010693823,0.10518937,0.044435196,0.23140581,0.081844166,0.028905693,0.025715806,0.14169602,0.09119761,0.049126424,-0.1084628,-0.15039918,-0.028473876,-0.108374275,0.03471662,0.29512173,-0.053148996,-0.10505101,0.15376316,-0.0031943212,-0.1998993,0.028981475,0.0845437,-0.14233737,-0.041356847,0.052457403,0.031803284,-0.22594443,-0.08675924,0.08648413,-0.11611009,0.26063046,-0.15071344,0.008275528,0.23399596,0.2771058,-0.13807906,0.15849724,0.06605413,-0.19136955,0.11501786,0.045296982,0.027772015,0.11461166,-0.04004389,-0.18434852,0.053198446,0.0069897184,-0.30012167,-0.11540755,-0.22035715,0.04881813,0.12212011,-0.052582573,0.120247416,-0.031793565,0.16447696,-0.17240784,0.17026097,-0.18997943,0.044308033,-0.15473737,0.11687816,0.08490551,-0.02360289,0.039101966,-0.17843904,0.1511928,-0.03757133,-0.09043796,0.09952091,-0.045315556,-0.3368708,0.016585793,-0.17113976,0.11688488,-0.21162091,-0.17421557,-0.098806135,0.083953895,0.09018214,-0.066162065,0.2610487,-0.050210502,0.05920318,-0.041798357,-0.19458176,0.32326272,0.17468137,0.17783046,0.002043093,-0.094135396,-0.06571631,-0.02403511
-0.02174942,-0.08680825,-0.13117264,0.0728106,-0.047740523,0.03213348,-0.023501063,0.010995337,0.19755906,-0.080671005,0.08113876,-0.030912563,0.18382429,-0.3281527,0.016798213,0.25586414,0.087785356,0.0234584,0.04720782,-0.1688233,0.15426877,0.18539722,0.12513082,-0.21918577,-0.17840017,-0.017180298,0.1113441,-0.030961175,0.0073603303,0.04488438,0.21506546,-0.24349461,-0.011320015,-0.121206135,-0.12782335,-0.19442911,0.16350514,-0.007904229,-0.10416493,0.15914151,0.17341214,-0.19043066,-0.07246308,0.055472028,-0.005338755,-0.1461616,-0.0532922,0.21489571,0.2138353,-0.03154761,-0.1759594,-0.038466886,-0.2416884,-0.11318381,0.24047443,-0.040241458,0.10921741,-0.052319296,-0.30115393,0.25228223,-0.040570877,0.088137046,0.079515524,0.08342264,-0.06925879,0.17176762,0.22033592,0.014087942,-0.24805251,0.060848422,0.057039227,-0.03644349,0.083555885,0.19280891,-0.115376934,0.053171925,0.13231264,0.15338917,-0.0975029,-0.10884905,-0.18790674,0.042209875,0.22276677,0.17561533,-0.006990501,0.19488452,-0.20461933,-0.12255038,0.06994813,-0.13333529,-0.24284208,-0.09567816,0.12347517,-0.05236235,-0.12737788,-0.06762928,-0.3073154,-0.064600036,0.2072194,0.030314539
-0.05703214,-0.03000166,-0.05181841,-0.03327944,-0.0591551,0.005778688,-0.0032271412,-0.010505327,0.20212129,0.11111744,-0.15469903,0.004705479,-0.11116396,0.18703164,0.06110872,-0.10810569,0.22268963,-0.10976954,0.0386549,0.28586292,-0.093483955,-0.019513354,-0.26092085,-0.023604928,-0.074617304,-0.20862679,0.13617994,-0.23407367,-0.030729458,-0.17444667,-0.18988207,-0.27175254,-0.057973947,0.104441345,-0.036532745,0.2014632,-0.23937027,-0.04054684,-0.1106973,-0.16494273,-0.05094047,-0.23481156,-0.023265524,-0.07060529,-0.030989453,0.0142386425,0.13109867,0.049660083,-0.23004244,-0.23224758,-0.0047093867,-0.026349386,0.24998382,0.04118597,0.018755516,0.0716327,0.1635518,0.12888098,0.12909374,-0.05119077,-0.07826176,0.17397784,-0.28088588,0.095750496,0.1530638,-0.17883122,-0.121708274,-0.058625806,0.006834319,0.28409266,-0.09801041,0.22778168,0.15474041,0.2184406,0.059131347,-0.04304721,0.17024839,0.027415415,0.1643347,0.26313537,-0.12829305,-0.025623057,0.09931379,-0.20353863,-0.16932012,-0.14283782,-0.019497458,-0.10626965,0.20130526,0.0046902993,0.17963876,-0.10560165,0.15001021,-0.13868402,-0.107190035,-0.03218443,-0.10060726,0.14831395,0.1077865,0.014343276
-0.032901082,0.12548156,0.15271942,0.090781316,0.20329508,-0.086380735,0.11264394,0.024238521,0.17314908,-0.10289407,0.076860785,-0.019477542,0.0010520683,0.043031096,0.05475895,0.054852463,0.04613685,0.19239992,-0.07571576,0.57510716,0.060433682,0.06834666,-0.09182635,0.10766811,0.043572932,0.23939349,0.13646448,-0.12457945,0.030672217,0.027322847,0.14880466,0.27150902,0.17266686,0.061783977,-0.15528212,0.041000076,0.13213594,0.2108208,0.25092235,-0.049907137,-0.14666605,0.030876765,0.1725064,-0.1148939,-0.02301677,0.0002719431,-0.0903633,-0.061013024,-0.050828896,-0.103146434,-0.07701594,-0.02686321,-0.055631936,-0.01376205,-0.11018238,-0.11801376,0.17938073,-0.0847827,0.064591415,-0.29735175,-0.057711244,-0.14397758,0.129168,0.21531093,0.203261,0.09279359,-0.1256243,0.26519167,0.1268671,-0.15102309,-0.059738286,-0.11764049,0.22002074,-0.089870326,0.11840535,-0.13488361,-0.08343271,-0.091287576,-0.036866482,-0.08801136,-0.005542099,0.07136199,0.23414981,0.22586246,-0.16949157,-0.11908906,0.17022982,0.03249258,0.101415336,0.15917023,-0.092588864,0.12837917,0.029222623,-0.07375659,-0.19145945,0.22763932,0.29616648,-0.044413198,0.27462497,0.1940291
0.08348566,0.0005973348,-0.00026656446,-0.17135043,-0.08033938,-0.016438883,-0.1846046,0.1265947,0.092460655,-0.22414458,0.14561094,0.21565886,-0.028210124,0.010285302,0.017069353,0.10621134,0.08392842,0.2504685,0.038775615,-0.021540193,0.018574929,0.045848962,-0.029513747,-0.137364,-0.03757413,0.12331152,0.12201005,-0.10265696,0.14162931,-0.05339066,-0.065086976,0.154104,-0.102924444,-0.27057487,0.07512151,-0.30645746,-0.1357471,-0.10490702,0.09397716,-0.06912142,0.01100223,-0.03443286,0.27261928,0.27769879,-0.12233282,-0.010935729,0.042348057,-0.088976406,-0.08136799,0.16900316,-0.26357344,-0.0868289,0.08886386,0.019354008,0.017469648,-0.14863595,0.119258136,0.12607399,-0.25766355,-0.1311499,0.033992816,0.10050623,-0.15637298,0.13128997,-0.20038807,-0.01852547,-0.029403651,0.0029828676,0.057339437,0.22616865,-0.15679327,0.026739497,-0.1460319,0.13046524,0.007576926,-0.16948535,-0.19617228,0.0023689375,0.10568932,0.120853886,-0.1327082,0.13522413,0.14445485,0.15436682,0.21053149,-0.2263655,0.10013164,-0.12568851,0.004902109,0.06528333,0.09024198,0.21426933,-0.10602623,0.090166464,0.12633349,0.113653265,-0.08266496,0.2566977,-0.15238914,-0.0007173186
0.15669315,-0.005947912,-0.083184995,-0.0680846,0.11821939,0.22446561,0.005302686,-0.0814564,0.24591634,0.16258574,-0.02293411,0.20140818,-0.033687916,-0.009999117,-0.056263845,-0.024835119,0.019172717,0.288919,-0.22178674,-0.22579949,-0.13236207,0.25818592,-0.061733417,-0.049665045,0.07519619,0.09203449,0.06955165,-0.17851083,-0.02201673,-0.07661002,-0.033122484,-0.30541706,-0.1962999,0.16299757,0.11655977,0.039223406,0.21856008,0.07288737,0.06755732,-0.04170797,-0.06669887,-0.14631352,0.045148004,-0.09986678,-0.1740874,0.11682387,0.0100868605,-0.05347323,-0.086885706,-0.18450576,-0.07559057,0.1362024,-0.27491212,-0.049742743,-0.06818986,0.04825468,-0.14489718,-0.24651298,-0.19944037,0.12740387,0.14241542,0.16134456,0.14577709,-0.21242666,-0.06733112,-0.06561892,0.08368892,0.10050972,0.12001167,-0.15455234,0.034394834,0.23090905,-0.0789826,-0.105834424,-0.008905861,0.10468144,-0.069392495,0.062607415,-0.09342125,-0.23848477,0.27215943,-0.09206337,-0.14681444,-0.13537183,0.0414469,0.17074673,-0.015874505,-0.20621899,0.031912446,0.19687217,-0.063189805,-0.17809574,-0.0015784584,-0.19192354,0.13641948,0.15815875,0.0863034,0.2313763,-0.038189232,-0.1426824
0.03229533,-0.083234645,0.16036053,-0.10732119,0.094946735,-0.01754537,0.25048897,0.17890812,-0.085819006,0.24015512,0.21399109,-0.13313758,-0.15437719,-0.308223,0.03689466,-0.11350812,-0.24465449,-0.27042368,-0.08065193,0.119844675,0.15763484,0.0655915,0.15289456,0.17700873,-0.11176286,-0.16580763,-0.31744307,0.16304135,0.14605471,-0.022707961,-0.078191385,0.053863317,-0.31744912,0.17391738,0.09478288,-0.10328978,-0.11345234,-0.037721593,-0.15803872,-0.01841771,0.22216693,-0.10280322,0.09532794,0.11715541,0.09231671,0.046431366,0.008465521,0.07268362,-0.10019746,0.18526661,-0.061091702,0.19614024,-0.2578927,-0.16450763,-0.0052857804,0.061755937,-0.08375254,-0.002367358,-0.03464312,0.24755265,0.12482394,-0.041330535,-0.21368824,-0.022959098,0.1973394,0.06784328,-0.023878835,0.07491679,0.02055726,0.2982645,0.04786895,0.07013766,-0.06964183,-0.15045632,0.03552053,0.05254447,0.034796342,0.28267455,-0.013717116,0.16808282,0.052372057,0.19337995,-0.026398433,-0.1911099,-0.1309172,-0.27543095,0.057044107,0.29598898,0.06683737,0.04130963,0.01189286,0.19480772,-0.042939,-0.17393917,-0.061255198,0.04066788,0.11806639,-0.14257929,0.105569966,0.10900447
-0.12418609,0.0072853714,-0.12558988,0.005297849,0.021188868,0.12457205,-0.066535436,0.12704122,0.12909724,-0.104789965,-0.3045013,0.07534781,0.24533069,-0.111916445,-0.23791072,-0.26432085,-0.02483764,0.23585282,0.24400307,0.13579316,0.0021423672,-0.12543409,-0.049504366,0.23385745,0.2313896,0.08375433,0.15489547,-0.08326143,0.10732621,-0.042447045,-0.069652975,0.091045626,-0.07872103,0.23782797,-0.11550059,0.25405326,-0.110155016,-0.16377142,-0.12862372,0.30906755,0.026208527,-0.2108457,-0.19072951,0.21005642,0.28512257,-0.019271977,-0.20750184,-0.08791331,-0.03995321,-0.12790422,-0.1373236,0.22432496,-0.13675784,-0.15551145,0.014217143,-0.014755642,-0.0019726434,0.022850228,0.21508218,0.081001535,0.106092155,0.14967345,0.054229837,0.06317077,0.07653275,-0.09456586,0.17995004,0.107431106,-0.019472145,-0.1478071,0.005082582,-0.26485172,-0.049018215,0.0013595092,-0.12990834,0.107088804,-0.1126274,0.015146103,-0.010424183,-0.00015334715,-0.09927778,0.22275573,0.05583851,0.27204373,0.2028441,-0.2569006,0.20369473,-0.14232734,0.06174937,0.014702034,-0.019677667,-0.1489331,0.12092551,-0.08092053,0.09672629,0.15905075,0.15183906,-0.08624226,-0.06070447,-0.21805377
-0.08169199,0.23834084,0.13085166,-0.13516767,-0.22654033,-0.0745279,0.3060702,-0.04946307,0.16445284,0.04022048,0.013859047,0.096907236,-0.12316299,-0.27835378,-0.22761169,-0.11746351,0.21760526,0.066841975,-0.11563693,0.060726993,-0.16181456,0.10931887,0.14842308,0.18717092,-0.22069417,0.061188176,0.3145708,0.090578005,-0.08053033,0.12178744,0.04892621,0.17845106,-0.041505404,0.044446897,0.12595141,-0.25368336,0.113577254,0.10943998,-0.04098048,-0.15551035,-0.24996631,-0.086172424,-0.05028353,-0.09316635,0.18110988,-0.149722,0.22007899,-0.04011235,0.055716548,-0.092847094,0.07707769,0.035278186,0.19946738,0.11658296,-0.04186893,-0.25173864,-0.08939182,0.14038394,-0.18202943,0.1258755,0.13429944,0.029514348,0.025647337,0.0089109205,-0.31402013,-0.19992301,-0.044918243,-0.013737637,0.1651884,0.23259883,-0.17667453,0.05247112,-0.16599217,-0.06644866,-0.109734334,-0.021490274,-0.15455805,-0.036735494,0.050181735,0.16502108,-0.16314803,0.053413242,0.03822046,0.07155201,-0.14571708,0.23011868,0.044811387,0.07736264,0.30584034,-0.06877885,0.14403974,-0.2095299,-0.10427835,-0.23686568,-0.014671265,-0.055034027,-0.25033677,-0.19066577,-0.089130126,-0.1770693
-0.109674074,-0.19137134,0.1265656,0.10749404,-0.18118417,-0.039505333,-0.21560879,0.10209962,0.104181476,0.17455107,-0.022833351,-0.004489776,0.007009615,-0.06458279,0.0006185111,0.23053947,0.21937345,-0.28613392,0.27073178,-0.17694572,0.091554314,0.046292976,-0.1726508,0.114755765,0.038705878,-0.20790595,0.03650196,-0.16184798,0.2661737,0.10573965,0.21902202,0.0008039509,0.044610016,-0.036098637,-0.15869288,0.21074368,0.081216,0.13610767,-0.064000964,0.24719538,0.16359448,-0.1519893,0.21222,-0.16282684,0.28395566,0.10115029,-0.038362615,0.2019582,0.06638278,-0.18450376,0.20835209,0.08944231,-0.102480434,-0.31797665,-0.0534605,0.032421056,0.11550252,-0.06935311,-0.09774263,0.08192184,-0.2130797,0.05830296,-0.22768027,-0.06232565,-0.07129884,-0.11114374,-0.056439966,-0.2590582,0.24156407,0.05083305,-0.006439313,-0.055624384,0.049993373,0.079455,0.068732776,0.0131383035,0.10463972,-0.21417335,0.08847148,0.075572096,-0.17123196,-0.08768235,0.053948827,-0.0061850804,0.043856125,-0.033021662,0.06647422,-0.11055592,0.23072357,0.023690399,0.046032585,0.15011674,-0.15261887,-0.0671777,0.28342876,-0.07749326,0.25294542,-0.08963298,0.117414825,0.0026781491
0.04568165,-0.10600154,0.16475652,-0.19622661,0.20759293,-0.03062801,-0.16336371,0.25971907,0.1054525,0.11042964,-0.07154794,-0.22928986,-0.034395006,-0.00022895339,-0.20007421,0.06578811,-0.05363929,0.111956075,0.12082918,-0.15027373,-0.056530397,-0.14561783,0.10794669,0.08038433,0.08725676,-0.100719556,-0.03459564,-0.043263033,0.011915115,-0.19687802,-0.10596211,0.052083742,0.06924253,-0.07655761,0.19660245,-0.0035817241,0.039782256,-0.11699204,0.001261476,-0.03325163,-0.08964686,0.16338494,-0.09945066,-0.11308286,-0.019899145,-0.06554013,0.04699061,0.062026396,-0.118266866,0.100701235,0.17378254,-0.091824725,0.18684345,-0.14431372,0.06057659,-0.0631669,0.08053266,0.22765997,-0.16717218,-0.07085013,0.009983951,-0.10757897,0.04601308,-0.16065805,0.21292233,-0.0023953712,-0.15399261,0.06639653,0.05160642,0.08628394,0.09269292,0.13313207,-0.0088270735,0.077286474,0.22063625,0.15304041,-0.011055406,-0.082233526,-0.22797166,-0.18200022,0.27743503,0.07658298,0.049383793,0.12731878,-0.18470329,-0.031125989,0.11649582,-0.099446155,-0.1988335,0.013709198,-0.21428193,-0.04427432,-0.25521758,0.046331897,-0.03483548,0.03507813,-0.107132405,-0.17134373,-0.014968577,0.006526007
-0.104032554,0.32394034,-0.09144749,0.13847321,0.007936126,0.16794117,-0.10516843,-0.19956683,0.17552847,-0.2208593,-0.044523295,-0.2796747,-0.040677704,0.15846193,0.006268164,0.19455239,0.046395455,-0.07561053,0.24618728,-0.21047218,0.047741108,0.018844819,-0.089266516,0.13876909,0.17497234,0.10216926,0.1688193,-0.07623687,-0.12229837,0.038430106,-0.00052122003,0.12050974,0.11525044,-0.03343941,-0.12651552,0.018508034,0.14610066,0.13328494,0.27828443,-0.17196658,-0.095237985,-0.0011211771,0.0035142049,-0.004560369,-0.12923154,0.14373495,-0.015001574,-0.14057706,-0.13980898,-0.040929753,-0.06346596,-0.24706808,0.048236962,0.14079928,0.15457647,0.008127014,-0.14395884,0.18398134,0.10065518,-0.09527673,-0.074092,-0.058411766,0.25254843,-0.09546455,0.017996043,-0.08885119,0.29500574,-0.030393671,-0.047900796,-0.0146430945,-0.07972139,0.17545989,0.2273689,0.14801022,-0.12345638,0.06408885,-0.10161696,-0.1221943,0.032902446,0.106427334,-0.20060322,-0.107064165,-0.24187209,-0.043432802,-0.3198634,-0.05030405,-0.17313607,0.19167052,-0.11020855,0.14716624,0.019194495,-0.18356985,0.100142814,0.22314502,0.024128282,-0.115286835,0.017798714,0.10248703,-0.22650349,-0.054582022
0.19075756,0.14156015,0.21300487,-0.16750267,0.090682946,-0.06831923,0.31512952,-0.13880609,-0.04021877,-0.1944319,-0.0015484206,0.09938087,-0.101751864,0.26309788,0.2811385,0.1169624,0.05751061,-0.04672721,0.2799148,-0.13934577,0.047117483,-0.023659796,0.09678727,-0.25979918,-0.09100412,-0.14732182,-0.22740297,0.2088306,-0.07755278,0.03323014,0.104298815,0.119134374,0.018415933,-0.18109709,-0.14313215,-0.16746508,0.008170159,-0.05733977,0.06959395,-0.053918984,-0.12584122,-0.00024204823,0.004587638,-0.06741306,0.23936462,-0.09345579,0.05091508,0.039058547,-0.19750097,-0.039641913,0.017148353,0.27121907,-0.25178212,0.15773119,0.10773964,0.20630813,-0.13870898,-0.1037457,-0.29372543,0.01807068,0.17781392,-0.3089687,0.047080547,0.11304771,0.2543113,0.12528907,-0.16671956,0.08871742,0.20515381,0.001493457,-0.2779097,0.009774398,-0.1283894,0.051363453,-0.0011555002,0.2344687,-0.12208464,-0.2140109,-0.20221367,-0.08690218,-0.027592583,-0.17476201,-0.02003313,-0.28552476,-0.065968685,-0.25352353,-0.06765237,0.16078179,0.08404505,-0.2188103,-0.0067828707,-0.08081462,-0.17535406,-0.06769777,0.21757847,0.08231205,0.011040184,-0.01865688,-0.24748391,0.08526223
-0.057597116,0.009884038,0.22752103,-0.0012600875,-0.061716,-0.020797493,-0.111381,0.1061767,-0.005866103,-0.044933844,-0.10745186,-0.1088389,-0.026427109,-0.24273546,0.25737402,-0.07701354,-0.20602858,-0.077894315,-0.20064303,-0.13535762,-0.19166,0.19166319,-0.017905347,0.10351098,-0.22335635,0.13279048,0.05616855,0.01579552,0.092258796,-0.02206809,-0.025326615,0.045826986,0.033767518,0.104490034,-0.08381119,0.05017295,0.07197012,-0.23958541,-0.014437414,-0.08162561,-0.2706972,0.03697418,-0.30940613,-0.15293959,-0.018769655,-0.16262043,-0.07002302,-0.21812099,0.026119985,0.060040686,-0.21311975,0.023593817,-0.08665945,0.12309071,-0.14112394,-0.040272746,0.09303756,-0.008557473,-0.025700875,-0.0017821677,0.2659226,-0.18022135,-0.08922001,-0.10605058,0.21675208,0.006516166,0.1312141,-0.23404151,-0.22563814,0.098706715,-0.08073047,0.05874075,-0.2519568,-0.1734848,-0.15329798,-0.008927282,-0.025148263,0.1400625,-0.11865393,0.103445716,-0.23425028,-0.04730012,0.027142027,0.19434604,-0.018573448,0.21693881,-0.14230141,-0.144647,0.14409947,0.14348921,0.0050866846,-0.07236107,0.21070752,0.19169447,0.13280514,0.09779161,0.13871862,-0.09246038,0.22759262,0.024287928
0.099348746,-0.02958867,0.18745664,-0.14319709,0.035271548,-0.16275096,0.18890773,-0.17187406,-0.18056932,0.16181818,-0.120693125,-0.16611,-0.015340774,0.15785608,0.07627141,-0.27584273,-0.023963246,-0.18680872,-0.105611466,0.010355049,0.13606289,0.15792365,0.14245445,0.07558201,0.013492776,0.1809141,0.0686279,0.1593919,0.14995046,0.19106948,0.22437146,0.12119197,0.075929955,-0.04315535,-0.054172453,0.12497951,-0.029913737,-0.014073824,-0.30280513,-0.12626198,0.06916808,0.040988885,0.10357738,-0.07272418,0.027127562,-0.16126783,-0.26740453,0.12932655,0.07116964,-0.09323361,0.30910888,-0.16792889,-0.002983851,0.1976782,0.063500024,0.21967508,0.081277974,0.22852768,-0.1451308,0.0823688,0.12506029,-0.051796652,0.014036899,-0.03336956,0.29760525,0.06920581,0.18927875,0.09896794,0.03653354,0.14628541,0.010077542,-0.15280458,-0.07815224,0.0425223,0.044275668,0.06308611,0.079727836,-0.029151222,0.13348322,-0.29103616,-0.030869957,0.032716297,-0.054768655,0.25561947,0.058326736,-0.14229092,0.07552367,-0.14442341,-0.041652262,-0.085896425,0.05973215,0.09163349,0.24013607,0.085031554,-0.04195791,0.16347986,-0.20542914,0.2729996,0.13239838,0.035702888
-0.07284369,0.25671038,0.044745736,0.25198516,0.25691396,0.004592521,0.020517569,-0.01599634,-0.11657124,0.15852255,0.087987594,-0.09704978,-0.07177045,-0.08645583,-0.05744344,0.15184262,0.10171501,0.24714279,0.2391359,0.25373617,-0.1261466,-0.23433843,-0.2971697,0.057567134,0.16066751,0.0055510825,0.03323717,0.25899795,-0.20890975,-0.076246776,0.16204661,0.014448307,-0.09002384,0.119983025,-0.17437829,-0.09420176,0.038155183,0.21475033,-0.26516843,-0.037189715,-0.15762413,-0.24561225,-0.042935554,-0.1083924,-0.05862147,0.17911576,-0.20600131,0.1515207,0.1846705,-0.30262116,-0.06116375,0.16105573,-0.2431386,-0.14351249,0.10185813,0.012607949,-0.009318826,0.090271525,0.09866713,0.02944411,-0.18200184,-0.10608872,0.09380654,0.14256078,0.15280713,0.1284734,-0.07309816,0.12702295,0.078813076,-0.02202821,-0.1351292,-0.23695473,0.145059,0.043146897,0.072733514,-0.091403306,-0.09543994,-0.2169763,-0.084365785,0.008361088,-0.14020073,0.20491017,0.25565895,0.10574611,-0.029530218,0.003384833,-0.06528757,0.29596084,0.12201755,0.2184253,0.039435375,0.111915305,0.15755427,0.08938415,-0.025136514,-0.3145781,0.13614269,-0.084648415,0.039501186,0.13643998
0.15163644,0.15978535,0.14088194,-0.07473229,-0.18675934,-0.14270434,-0.14175479,-0.018103763,-0.03404566,0.21108752,0.24374807,0.28453487,0.009938893,0.17505193,0.18996496,-0.012212515,0.005374275,-0.007701423,0.09615053,0.028517127,0.18877268,0.088560805,0.053876713,0.17714038,-0.24300338,0.0790397,-0.12401029,-0.22227031,0.05659746,0.046026833,0.055767383,-0.18693294,-0.14197236,0.14005493,0.054152217,0.1441766,0.0385374,-0.18145731,0.10145161,-0.14417139,0.032469288,0.2288275,0.2849619,0.19135988,0.22318347,-0.088527784,-0.16199066,0.0015966205,0.12816596,-0.3500404,-0.03159314,-0.1847702,-0.052353017,-0.088893965,0.05484925,-0.22706975,0.244349,-0.023126943,-0.17749286,-0.015628709,-0.18038104,-0.122665346,-0.085365616,-0.12691167,-0.11191146,0.21277213,0.096120946,0.06501699,-0.23492743,-0.13813105,-0.051013745,0.08597221,0.11870046,-0.016159484,0.12251212,0.20965523,-0.2044741,0.07691498,-0.09242908,0.31726068,0.1968317,-0.049458403,0.0069361613,-0.12273553,0.0785861,0.285413,0.26169547,0.09863922,-0.14279258,-0.22918947,0.12076766,0.1162074,0.020451503,-0.10792346,-0.14850104,-0.13490881,0.25187334,0.0078015584,-0.2031617,0.06645397
-0.024249768,-0.11720973,0.0130119,-0.19183823,0.008810265,-0.10919116,-0.03278037,-0.004486036,-0.0431547,-0.0032202571,0.090582885,0.0845717,-0.019324051,0.127853,0.018864196,-0.111590184,-0.030830003,-0.18032368,0.057089385,-0.0005304481,-0.021411696,-0.053322807,-0.18966526,0.10659519,-0.3342543,0.08755901,0.105355226,-0.16455905,0.056107137,-0.10998778,-0.0036113313,-0.124910824,0.13539775,-0.26154366,0.028229902,-0.17838325,-0.005445723,0.039751668,-0.052887704,-0.085511036,0.020347917,-0.124325216,-0.09234045,0.05208316,0.027106144,-0.2214429,-0.028683823,-0.04091167,-0.13904887,-0.11212682,-0.22239418,0.062118523,-0.0085174,0.1991811,0.016456483,0.17517088,0.06410867,0.091285385,0.012822667,-0.02655395,-0.1003616,0.16451293,0.16485856,-0.17590553,0.24412821,0.00088406494,0.17113848,0.081280075,-0.16592275,0.0413455,-0.049246438,-0.17922813,0.008231934,0.09834976,-0.27285373,0.037912328,0.1044033,-0.005088718,-0.09386504,-0.12744755,0.25654924,-0.048151147,0.037498064,0.015900133,-0.2594663,-0.04716192,0.07691553,0.102320306,-0.2943191,0.014865362,0.00019666394,0.12811098,-0.13738471,0.1601097,0.1732444,-0.12642089,-0.15899763,-0.079278335,-0.059891,-0.18021448
0.10338701,-0.15888265,-0.04650648,0.252741,-0.018033402,0.1228875,-0.11082536,0.022185162,-0.18138918,-0.29363218,-0.0013927693,0.18657102,-0.20387718,0.07593763,-0.074835315,-0.2949266,-0.07116288,-0.023948723,0.1682174,-0.19106738,-0.19548209,0.12102276,-0.07008697,-0.30061,-0.1308051,-0.23827985,0.046677023,-0.21793199,-0.07927862,0.024967015,-0.06841754,-0.13501471,0.17481384,0.27440038,0.2133376,0.069239676,0.10483335,-0.18044738,-0.19240804,-0.295901,0.18745022,-0.08444608,-0.033723164,-0.19301564,-0.13007756,0.07721551,0.23063871,-0.050081357,-0.15693219,-0.004774177,0.12450259,-0.094934195,-0.19014396,-0.24867453,0.29530862,0.06265257,-0.23598439,0.08079659,0.010004019,0.28180262,0.1708929,0.118520804,-0.11155016,-0.1819722,-0.009189334,0.29168576,-0.022519525,-0.11453459,-0.05047907,0.02099335,0.0050697033,-0.15994596,-0.0762603,-0.046946034,0.017108727,-0.039309043,-0.060774453,-0.115002714,0.00756722,-0.037691027,0.24880254,0.103753366,-0.2888534,-0.15046592,0.032946248,-0.22361344,-0.13619038,0.28511637,0.029670764,-0.02014347,0.091227405,0.03947672,-0.10045563,-0.042331986,0.2181242,-0.19699986,0.119028054,0.036951434,-0.027024206,0.1001802
