0
-0.0024993706
-0.011879274
-0.016651992
-0.035745703
-0.017319616
-0.03721378
-0.0051531494
0.016239343
0.009156163
-0.00022713828
-0.020239152
0.002789297
-0.027410204
0.0017295458
0.0136209885
0.016638275
-0.015849164
-0.0040276223
-0.036256295
0.07576104
-0.021916807
0.0005313722
-0.011983336
-0.028952667
-0.01099518
-0.003192453
-0.016653035
0.0030877297
0.028226955
-0.014206671
-0.0070247827
-0.014030518
0.06704131
-0.018386766
-0.0011496551
-0.011468057
0.020799093
0.026169654
0.00018785382
0.017159695
0.010742647
-0.016161332
-0.00562154
-0.024574287
-0.0050880765
-0.031010555
0.020800492
0.019806702
-0.0042672637
0.0066551063
-0.0039746454
0.00046111745
-0.09520716
-0.007193532
-0.0064324364
-0.028934216
0.046521626
-0.011783839
-0.0073717358
-0.009098873
-0.010125232
0.027575029
-0.026517415
0.0104697365
-0.00080511416
-0.002992126
-0.007010519
-7.23655e-05
0.116821066
-0.008545093
-0.0089239385
-0.0069886507
-0.0045539257
-0.015852833
-0.014481674
0.0077528846
0.0011773646
-0.003032375
-0.011043927
-0.03164604
-0.009327718
-0.042132102
-0.00424276
0.019373126
-0.016258506
0.05847555
-0.0026384464
-0.011920217
-0.01428394
-0.013653226
-0.026574092
0.004323612
-0.009214426
-0.025586415
-0.0070281015
-0.035635572
-0.008214827
-0.04850012
0.0037692792
0.0072227577
