0,1,2,3,4,5,6,7,8,9,10,11,12,13,14,15,16,17,18,19,20,21,22,23,24,25,26,27,28,29,30,31,32,33,34,35,36,37,38,39,40,41,42,43,44,45,46,47,48,49,50,51,52,53,54,55,56,57,58,59,60,61,62,63,64,65,66,67,68,69,70,71,72,73,74,75,76,77,78,79,80,81,82,83,84,85,86,87,88,89,90,91,92,93,94,95,96,97,98,99
-0.14604983,-0.166848,0.12601961,-0.06852207,0.06196232,-0.07437506,-0.11892536,0.116216265,0.17430142,0.116266385,-0.11933739,0.12787303,-0.08069619,0.0012760324,-0.14063859,-0.034389596,-0.09712649,-0.003738734,-0.011052225,0.17473985,-0.1497515,-0.120970495,-0.19299492,-0.098062925,-0.12367545,-0.1983767,-0.16036187,0.21987127,-0.1985591,-0.26086563,-0.029708996,-0.006870574,0.0048720795,0.09368064,-0.16005704,0.29440066,-0.023062183,-0.124162704,0.23187678,0.21230316,-0.03810968,-0.06840098,-0.1615769,0.20494315,-0.05416837,-0.1889756,-0.046702657,-0.13357987,-0.17995942,-0.060222656,-0.009052763,-0.1404037,0.038321402,0.09413375,-0.030000387,-0.021441171,0.098140195,-0.029053446,0.057073046,0.20388393,-0.10608334,0.06507261,0.011826844,-0.035023883,-0.016273148,0.14149918,0.20183861,-0.09247726,-0.043392826,-0.009693983,-0.02824368,0.05116024,0.0030407666,0.20895588,0.0925052,-0.3144849,0.0015944374,-0.09747026,0.04329585,0.16642778,-0.10733069,-0.0437151,-0.0944061,-0.27662218,-0.06202097,-0.08274926,0.017076613,-0.1411318,0.16017081,-0.12589937,0.063970104,-0.18116717,-0.077846706,-0.119044825,-0.05766075,0.21585701,-0.21659933,-0.12120986,0.20786992,0.045581248
0.10218692,0.066243984,0.24755026,0.05416941,0.009911716,0.12970993,-0.08747027,0.24124177,0.13692757,-0.09786831,0.12857567,0.10272043,0.039195888,0.18273391,-0.16264935,0.11997774,0.052362148,-0.23070504,-0.21564679,-0.0134303905,0.038939025,0.11024973,-0.13407168,-0.009747944,-0.049487162,-0.007719124,-0.18815148,-0.30043367,0.04253702,-0.045295626,-0.14650844,0.26811925,0.10912978,0.25897843,0.01866572,-0.22744,-0.2648958,-0.038991928,-0.056923285,0.12647493,0.17844266,-0.18748371,0.09429448,-0.045120627,0.09933669,0.026703175,0.17947523,0.04993154,-0.14893667,-0.014633704,-0.08440684,0.029185839,-0.07641228,0.035697304,0.15214613,0.14186801,0.059476323,0.14823797,0.0035010828,0.17679268,-0.019918494,0.18548527,0.013417458,0.13697188,0.13893653,0.08747534,-0.071097024,-0.1837079,-0.13759342,-0.19412579,-0.25917098,-0.28324682,-0.18408367,0.05255853,-0.08800417,-0.13150965,-0.049465153,0.029736973,-0.033000592,0.22785005,0.07702339,-0.124349736,-0.3167624,0.008871488,0.046254255,0.017356135,-0.014076044,0.024548639,-0.08600944,0.2213157,0.1359012,-0.12835062,0.2616312,0.015941333,0.12745489,0.28289244,-0.12353906,0.16036539,0.08424156,0.09957907
-0.02666497,-0.05320564,-0.03004786,-0.065779634,0.032829225,-0.09717067,-0.13958281,0.076953754,0.13896881,0.004384109,0.15212502,-0.23411267,0.1371974,0.13607666,-0.25289726,-0.16057052,0.0378945,-0.06994834,0.17458957,0.017332507,0.16771749,0.18061848,-0.08688496,0.26246116,-0.29952222,0.28848866,-0.046691038,0.035463765,-0.19557092,0.18996955,0.22840245,-0.26155493,0.043414302,-0.010678646,-0.24133523,-0.19089748,0.22723283,-0.034082398,-0.028116453,0.31233275,0.013098275,0.04599499,-0.19911489,-0.12495515,0.11859887,-0.11626815,0.059507057,-0.14616127,0.01289835,-0.25474057,0.31585333,0.12012038,-0.25336757,0.11427582,0.018731939,-0.18483344,-0.14752732,0.19421129,-0.20735097,-0.10143499,-0.058564503,0.15425973,0.027908012,0.02438371,-0.12692934,-0.10058281,-0.14784281,-0.017645853,0.01313262,0.16784532,-0.0022938815,-0.2587629,-0.09790961,0.05694391,0.12111693,0.1636864,-0.10580043,-0.097097725,0.020485723,0.16674937,0.19510749,-0.2631353,0.0018178803,0.06351437,-0.058859974,0.21988393,0.047849767,0.19507717,0.10999119,-0.13178027,0.05436843,0.110116564,-0.10814551,0.09278727,0.16385964,0.07912783,-0.1980294,-0.26680943,0.024583997,0.09273661
0.039082624,0.24097365,0.086435854,-0.1508723,0.27898562,0.044163536,-0.18043232,-0.19389872,0.26895043,0.19610254,-0.25102353,-0.123531796,0.24839258,0.21878488,-0.3268602,0.12869774,-0.21237761,-0.102898166,-0.026636237,0.05275255,0.19490069,-0.2073421,0.2578784,0.06396285,-0.13565747,0.12836766,0.010999024,0.071537234,0.30283946,-0.034943387,0.105586804,-0.20085679,-0.22307329,0.25103092,0.04162574,-0.003331915,-0.13890213,0.04162735,0.07856587,0.034106754,-0.27603266,-0.0048102397,0.10541306,-0.17156999,0.29406422,-0.15327525,0.028543685,-0.1477577,0.071705386,0.23590766,-0.046359595,0.09364755,0.11788138,-0.2033235,-0.06850632,0.09991333,0.12409078,0.03522262,-0.09967898,-0.03114815,-0.035846516,0.16260153,0.10535691,0.1192792,-0.020907326,-0.11722146,-0.20135218,0.1550755,-0.013380331,-0.048164632,-0.21728897,0.26267785,-0.18033108,-0.041572813,-0.1427683,-0.1282114,-0.123354085,-0.08960575,-0.19270882,0.20550717,0.076212615,-0.14626622,-0.15255742,0.14980878,-0.15450314,0.22829598,-0.068336144,0.30406815,-0.007239923,0.056815106,0.19072613,-0.019656813,0.0015552365,0.11534228,0.15113299,-0.030849608,-0.10343676,0.08310953,-0.10156592,-0.26681352
-0.07823478,-0.008304008,-0.111713536,0.084483266,0.17363027,0.041745983,0.24699368,0.035813104,0.29210398,-0.021866305,-0.28799376,0.07262397,-0.19258553,0.05381945,-0.09924,0.10422068,-0.11737043,0.20766564,0.23487054,0.15168957,-0.023615723,0.08647645,-0.13285275,-0.027347734,-0.30840302,-0.13313231,0.19358921,-0.08513761,0.12076488,0.10850511,0.22967544,0.15437502,0.1320962,-0.09846498,0.035763264,-0.09442163,0.13481744,0.09785113,0.17975797,0.24254133,0.013572441,-0.03874731,0.07859227,0.23853694,0.13269024,-0.062834315,-0.22131301,-0.09438758,-0.03422841,-0.13251348,0.10024208,-0.046338636,0.277657,0.07911801,-0.18658914,-0.17085665,-0.07096591,0.18092471,0.16618782,0.2625278,0.1980535,-0.22944015,-0.11075627,0.2293374,0.07215868,-0.3037925,0.015362753,0.09899876,0.024415642,0.10793441,0.26824936,-0.06468527,0.06642247,-0.051936112,-0.07011674,-0.21499442,0.05280067,-0.004822547,-0.28451717,0.28892586,0.24544767,-0.09576026,0.15556732,-0.16210257,0.037837163,-0.08832549,-0.1414575,0.003540017,-0.002820164,0.19493198,0.06568116,-0.097604066,0.036176298,-0.017159646,-0.09840421,0.18060668,0.03438056,-0.019353772,-0.1092665,-0.124391556
0.08023277,-0.02752901,-0.0048830085,-0.07584292,0.07895798,-0.053266972,0.1110935,0.08759109,6.3177096e-05,-0.15213798,-0.15884675,-0.075709976,0.10685774,-0.08217552,-0.09328742,-0.14440681,0.105465844,-0.13926956,-0.050825775,0.032474145,-0.23181166,0.15347669,-0.021112507,0.20128727,0.029184876,0.21572968,-0.22944017,-0.08532268,-0.13306557,-0.11651317,0.0771898,0.04390837,0.0672081,-0.11461251,0.20666946,0.13772136,0.029239051,0.23008543,0.059597977,0.13483483,-0.01895204,-0.20627452,-0.15303667,-0.028340371,-0.15398996,-0.06728099,0.02415814,0.09299318,-0.13428131,-0.066473365,-0.30541876,0.016885733,0.025789158,-0.19509168,0.018347193,-0.023189852,0.09694321,-0.026506342,0.16805695,-0.17698303,0.09366458,0.056729667,-0.069778115,0.18361126,-0.13132583,0.053823296,0.16784759,0.2857141,0.013566168,0.009776851,-0.09299473,-0.046737798,-0.33218545,-0.14901528,-0.27879322,-0.28047508,0.023109892,-0.026820267,-0.00047835108,-0.03171687,0.03756955,-0.027184475,0.20332909,0.2387014,-0.32323375,-0.27451894,-0.07482063,-0.07902208,0.17870498,0.11704983,0.2592904,-0.009685422,-0.10872531,-0.036810327,0.06412343,-0.15778169,-0.039666597,0.16535039,0.09175559,-0.22995315
0.13294391,0.13028583,0.089537434,0.29877585,0.15094699,0.051218834,0.15616484,0.03846492,0.075086035,0.11150223,-0.2731295,-0.25260842,-0.2341745,-0.05281732,0.07551118,-0.08075561,0.09600335,0.24452485,0.17372282,-0.1331051,-0.059065513,-0.0010194454,0.18524058,-0.17770596,-0.09847592,-0.15298043,-0.19200431,0.30979645,0.17562842,0.07182263,0.008056337,-0.16505174,-0.08205944,0.002124097,0.004630521,-0.064015366,0.18282469,0.017145889,0.10664377,0.037542913,-0.06446847,-0.021713179,0.28588882,-0.17374274,0.19498356,0.07450448,-0.008807581,-0.13538244,-0.09698699,-0.08076171,0.1626692,0.09366206,0.12638202,-0.11840049,-0.08365961,0.3155926,-0.014066999,0.015748665,-0.26873943,0.14310896,-0.19946253,0.1112321,0.29831636,0.18070245,-0.122230366,0.050585587,-0.05672268,0.17329228,-0.1511133,-0.115565956,-0.11378571,-0.023248948,0.0030937488,0.04299486,-0.18271923,-0.05523008,0.05452407,-0.015561699,-0.016767234,0.125663,-0.009573563,0.17947403,-0.06952413,0.13074695,0.07653071,-0.23099823,-0.15090428,0.012170371,0.06331142,0.07339996,0.13449796,-0.029869858,-0.03215935,-0.16290295,0.2464396,-0.115817524,-0.011483365,0.005794757,0.015993642,-0.027304387
-0.11218942,-0.1773856,-0.045479856,0.119147085,0.001307422,-0.24161445,-0.08697613,-0.19997138,-0.14680192,0.035257876,-0.072260514,-0.23342814,0.15037404,0.0865563,-0.025526488,-0.019172631,0.0110065155,0.26814112,-0.03472836,0.04756421,0.1601776,-0.032005258,-0.00076962885,-0.17337061,0.19678615,0.16345325,-0.17579237,-0.12957516,0.20432556,0.10698106,-0.29157177,0.22141218,0.09334643,0.101432815,-0.18207255,0.018499464,0.14226718,-0.18693045,0.1432893,-0.187162,0.15649444,-0.119783185,-0.24634284,0.02493375,-0.024067398,-0.056448244,0.093715295,-0.17040563,-0.15224053,0.09330619,0.18788925,-0.1881101,0.12070323,0.14534077,0.19119933,-0.2702596,-0.033654004,-0.080614865,-0.10307078,-0.07821606,0.14777602,-0.02979779,0.22571777,0.030580018,-0.049450453,-0.103985615,-0.07581244,-0.17541337,0.15174404,-0.017179193,0.072890416,0.15990041,-0.017066889,0.022491327,-0.3038511,0.10278636,-0.14748259,-0.24538569,0.29203898,-0.15918952,-0.17325953,0.23588213,0.018551711,-0.04499111,0.0047301096,0.06325903,-0.2239274,-0.20475529,0.1287871,0.07636536,-0.029823631,0.22511922,-0.0058035403,0.0994488,-0.2470133,-0.05753096,-0.007817791,0.17504628,-0.12375983,0.21559349
-0.113982536,-0.015084742,-0.0323356,-0.10984603,-0.29482895,0.08950968,-0.027011627,-0.15706165,0.11843152,-0.12455826,-0.073931664,-0.20879853,0.08869448,-0.07616115,-0.030516759,0.18588972,-0.10876698,-0.25863492,0.060292084,0.16057706,0.1413947,0.23195478,-0.15189786,0.19783457,-0.29573473,0.1031874,0.10661794,-0.055882223,0.10426231,-0.034721736,0.03350857,0.009579034,0.07113874,0.038581498,0.2622406,-0.27091497,0.23524062,0.106527925,0.12304755,0.00229402,0.0950291,0.13108923,0.089534886,-0.112592734,0.23144718,-0.18861966,0.16552316,0.03774373,0.08109923,0.0027835662,0.089115106,-0.08135129,-0.036954105,-0.0917253,-0.034660805,0.1471597,-0.039321482,-0.014011299,-0.22664653,0.21274635,-0.008107179,0.2577862,-0.04840758,-0.23450305,0.08313107,0.007968961,0.30596235,0.14718989,-0.149616,0.1535101,-0.07761983,-0.110713385,0.18148977,-0.06474672,0.053931087,-0.12921293,-0.28954616,0.17020397,0.081533425,-0.07758368,0.030194232,-0.24900748,0.24788661,0.11000697,-0.22022893,-0.102792084,-0.25412968,-0.032081373,-0.2731626,0.2694043,0.016563965,0.038770404,0.020558495,0.12919366,-0.04357767,0.14058115,0.008851521,-0.1995152,0.15340607,0.09250437
-0.18535326,0.034778662,-0.20983317,-0.07429167,0.16332807,-0.2058124,-0.3193802,-0.07431029,-0.105123945,-0.06530059,-0.16527776,-0.2812316,-0.118637316,-0.060573913,-0.1431592,0.17838253,-0.08570312,-0.12129659,0.004273478,-0.077790216,-0.19422287,0.31671345,0.06295066,-0.025410745,-0.17475754,0.061157636,0.025855994,0.21602704,-0.080118515,-0.048339333,-0.23220512,0.058431394,-0.01514949,-0.25151315,0.16167653,-0.28461915,0.019079834,-0.07258158,-0.10078416,0.1701855,-0.012948681,0.10047203,-0.19207998,0.070552886,-0.03404796,-0.031131709,-0.09607685,0.03385557,0.18342969,0.18389083,-0.12589462,-0.138645,0.16299437,-0.12121075,0.013167522,0.02711888,-0.1423233,-0.013671059,-0.17544624,0.07465123,0.028452652,0.16458374,0.006715791,-0.08743163,0.17870237,-0.13345398,0.021116963,0.21311936,0.015651615,-0.036425732,0.23472594,-0.14365733,-0.03665319,-0.03278801,0.25554574,0.29228425,-0.14746624,0.27203724,-0.20634826,-0.22045086,0.13047516,-0.16644153,0.021799574,0.009749992,0.30576488,-0.11902373,-0.105043165,-0.20328014,-0.10736475,-0.029193567,-0.17475915,-0.054359797,-0.042417005,0.14003254,-0.25177196,0.20830195,0.16828118,0.0008657275,0.074320875,0.064380184
-0.02015308,0.14806505,0.21823195,0.08674811,0.28793797,-0.033559225,0.06633124,-0.03195605,0.03440717,-0.16542822,-0.17385262,0.12781522,0.07496253,0.043675028,-0.053093348,-0.20463856,-0.0372211,0.1793497,-0.1542834,0.10220386,0.14132126,0.053527825,0.095462315,-0.24651308,-0.16381696,0.0353487,0.25197604,0.20541558,0.05991412,0.048613396,0.070456184,0.053699344,-0.22029981,0.05232292,0.016160684,0.20836364,-0.076947145,0.23196332,0.067136265,-0.06063179,0.07183864,-0.04376089,-0.04952343,0.07944079,-0.04424294,-0.049401067,-0.024889648,0.16077949,0.038485076,-0.0040756552,-0.01745599,-0.085948095,-0.15640727,-0.15964955,-0.09675082,0.057147,-0.12880377,-0.19394101,-0.20732687,-0.00328018,-0.15704346,-0.023956353,-0.0785944,0.014622547,0.07291739,0.050353877,0.007655139,0.28249082,-0.061495904,-0.08107221,7.164025e-05,0.18127453,-0.014215065,-0.026799679,-0.18893553,0.21975876,0.25916773,-0.01728951,0.21884589,-0.11092562,-0.090855,-0.108496174,-0.082736894,0.022659494,-0.26072574,0.021785695,-0.13101994,-0.009174056,-0.26134416,-0.1664449,-0.11214959,0.07398302,0.24231583,-0.077278845,-0.17278264,0.24151708,0.13939123,0.062390283,-0.19986343,0.038409993
-0.025655149,-0.042616516,0.018451419,-0.022551447,-0.3091412,-0.20528784,0.025199654,-0.060679432,-0.11669246,0.30613762,0.22605488,0.10442106,0.19532788,0.09885948,-0.0019652948,0.15138622,0.0818973,0.14137378,0.16564623,0.049944896,-0.055699646,0.054133687,-0.32588348,0.17304307,0.034231912,0.021328047,0.056823246,0.14613238,-0.16748881,-0.24925286,-0.044539317,-0.14004618,0.1686355,0.12770261,0.1182356,0.206828,0.14232767,-0.072384834,-0.23140441,0.01485292,-0.0333582,0.22230272,0.10456765,0.23482244,0.03148746,0.26028395,-0.063997336,0.04380298,-0.29713932,0.14992566,-0.051317777,0.16814758,0.01747062,-0.06119867,0.082128756,0.084727615,-0.31879532,-0.071878284,0.2269299,-0.16001032,0.050095443,-0.21295123,0.0053507313,-0.27556524,-0.1471511,0.03164523,-0.10333868,0.13996753,-0.016260093,-0.073113285,0.09417558,0.1853262,0.19162874,-0.0033628147,0.06973606,0.29056278,-0.21562557,0.22689728,0.2550736,-0.30329013,0.22304176,0.23399127,0.27326435,0.25714478,0.13255152,-0.29769564,-0.23150887,0.0049158023,0.22470562,-0.20136376,0.06514435,0.21501297,-0.017880194,-0.17519908,-0.051684737,0.21160378,0.23896034,-0.00388654,-0.19344987,0.25642273
0.109323844,0.21336582,-0.25250757,0.2624975,-0.10214805,-0.08258545,0.02542763,-0.15055631,-0.1556116,0.06260126,-0.30274826,-0.15834732,0.21727468,-0.24477603,0.25338218,0.1292957,0.026487315,-0.18587282,0.1815607,0.0028501495,-0.25230795,-0.24989302,0.22453247,-0.18248382,-0.071603216,-0.06878318,0.098943785,-0.12240403,-0.012013597,-0.0031161138,-0.0916984,-0.07365242,-0.07524521,-0.31997272,-0.14366433,0.0067297956,-0.20038733,-0.28138828,-0.12885769,-0.052583143,0.19189289,0.20488103,0.09747824,0.230113,-0.08264402,0.06696518,0.22715779,-0.28682443,-0.12038078,0.18984841,-0.07191198,-0.099667534,0.18988255,0.03206081,-0.24063139,0.014620585,-0.050331548,0.17444041,-0.09286026,-0.23756444,0.13776009,-0.27563292,-0.004924592,-0.15870282,-0.03354997,-0.07167986,0.114566326,0.036392458,-0.26086894,0.02514574,0.09933548,0.06430383,-0.107513085,-0.053226754,-0.022572665,-0.31165406,0.09982938,0.03582302,0.06578573,-0.06556795,-0.14559235,-0.13281615,-0.13014734,-0.229837,-0.004421504,-0.1848945,-0.10738672,-0.14835118,-0.026475567,-0.17937754,0.09034661,-0.15668151,-0.1263107,-0.16832417,0.020038994,0.10871783,0.18986414,-0.032214735,0.028942412,-0.17423043
0.23449737,-0.027093284,0.06773119,0.07944483,-0.07864089,0.004171776,-0.055832896,-0.0066097956,-0.052760802,-0.019173818,-0.032488994,0.000502654,0.25505802,-0.087739855,0.16462985,0.061187465,-0.06050759,0.1767256,0.32047057,-0.091602296,-0.15866402,-0.062119115,-0.15292545,0.09767929,-0.21488245,0.20502496,0.19750935,0.19650318,-0.03193074,-0.08192559,0.07759917,-0.013415406,-0.18943022,-0.22900474,0.10026322,-0.12656793,-0.12153062,0.07839219,0.120095626,0.10523257,0.31362644,0.020705614,0.09683561,0.19279198,-0.23973808,0.12421268,-0.16632773,0.123803444,-0.1563966,-0.21014312,-0.24534643,-0.24514174,0.17148063,0.00093434734,0.048446193,-0.15694994,0.28284118,0.20255701,-0.03340837,0.18452711,0.16423117,-0.20815061,0.061268568,-0.018806785,0.103223376,-0.037881903,-0.007452988,0.029056888,-0.15561414,0.17332757,-0.09199623,0.2660024,0.0717848,0.13187325,-0.00602292,0.0932817,-0.2833506,-0.08501817,-0.21752422,-0.22394061,0.078956336,0.24572553,0.23062935,-0.19342585,0.22599787,0.124549374,-0.05484655,0.083178006,-0.1253983,0.11089045,-0.010304018,-0.12901065,0.15261513,-0.06456969,-0.0056720166,0.1140677,-0.014259184,0.13525581,0.03305491,-0.0881269
0.096374735,-0.06303987,0.013626854,-0.103122905,-0.039520916,0.19810149,0.018204646,0.26357257,0.035007652,-0.15205728,0.0010645699,-0.06801115,-0.024429452,0.07714875,0.22661766,0.1554051,-0.044349626,-0.020376388,0.078303516,-0.09060899,0.052664872,0.11134961,-0.06041194,-0.11042335,-0.08819491,0.12873769,0.17769437,-0.11008233,-0.05216853,0.014090387,-0.015591055,-0.0185351,-0.27773404,-0.093216226,0.063603565,-0.03053245,0.06042961,0.16344564,0.008617005,0.12689357,-0.008017659,-0.23563528,-0.0062210388,-0.3073638,0.09648187,-0.01844823,0.0087151285,0.14664336,-0.13993053,-0.24570335,-0.05082518,0.116259724,0.08539935,0.08441726,-0.188427,0.10533458,0.17254387,0.037553363,0.27182108,0.14446683,-0.2295223,-0.1368143,-0.26758596,0.23971003,-0.046645373,0.024263212,-0.1561164,-0.016822532,-0.050082665,-0.016129522,-0.09036739,-0.010826737,-0.13017727,-0.0951586,0.016275961,-0.13625313,0.17789172,0.028783264,0.12405989,-0.03921513,0.044615187,-0.015121317,0.1229307,-0.05397028,0.16685128,0.24609864,-0.107731886,-0.09617532,-2.6527172e-05,-0.02580006,-0.2675853,-0.075640686,0.056534734,0.12522718,0.09717491,-0.22254917,0.14252707,-0.074971884,0.047190733,-0.28840876
0.09273536,-0.11188952,-0.13994202,0.18669486,-0.10371244,-0.0044395793,-0.02704848,-0.017304631,0.15552437,-0.12578726,0.08141825,0.11342273,-0.04568242,-0.12335151,-0.042239707,0.12924857,-0.04326133,0.11879218,0.081804216,0.09222933,0.14355455,-0.035776492,0.05528768,-0.036647234,-0.045971956,-0.11814133,0.0057081324,-0.33273146,0.08481971,-0.25368822,0.0766695,0.20130163,0.106955074,-0.018109879,0.14658555,-0.12471215,-0.045399025,0.07217076,-0.077591605,0.18955025,-0.25978377,-0.19254671,0.21970116,0.012484827,0.092775874,0.06642594,-0.106093705,-0.16727372,0.11151341,0.21240605,0.08069537,0.026551757,-0.09242402,-0.17811483,0.123679206,0.05651908,-0.008873784,-0.10742389,-0.07474674,0.122689106,0.15208519,-0.075803034,-0.07426021,0.17979974,-0.0681209,0.02477347,-0.16583894,-0.018269481,-0.15559705,-0.09524816,0.26803866,0.26142773,0.25694716,-0.17927124,-0.0887755,-0.033109892,0.16179702,0.18717557,0.033780627,-0.12095544,-0.3259832,-0.16306265,-0.0710833,0.23982315,0.253193,0.19412094,0.07115407,0.1322539,0.28986916,0.11574953,0.049553804,0.015264945,0.009680929,-0.22860022,-0.085365765,0.287413,-0.21213353,-0.13700646,0.14464536,-0.1455072
0.24769531,-0.28262913,-0.058991875,0.1767687,-0.124129996,-0.15600194,0.21103477,0.08611402,0.17892443,-0.06342091,0.08115871,0.021201782,-0.116835065,0.0013414138,0.09501554,0.0967172,-0.19970703,-0.29001945,-0.024483759,0.058817476,-0.0641265,0.070908055,-0.26215863,0.19103637,0.12659743,0.10535917,0.05045075,-0.17769854,0.110440776,-0.11075124,-0.0059685083,-0.12269052,0.042300485,0.042386148,-0.31427857,0.21321672,0.0023273525,0.091988705,-0.0805065,-0.13976683,0.017397203,-0.04211789,0.11662832,0.036359295,-0.14665928,-0.0057059457,-0.060304873,-0.10573121,0.032778606,0.0043879347,-0.06852195,-0.027902707,-0.0105164265,0.018085439,0.2897413,0.10175225,0.2163368,-0.09423217,0.18739931,0.1288888,-0.02983993,-0.045213893,0.04175933,-0.29530922,0.05788829,0.030513087,-0.2003609,-0.2727486,-0.026227195,-0.18008257,-0.041555136,0.13255362,0.13754566,0.1809037,0.04589771,-0.06308143,0.15833561,-0.26553842,0.117723,-0.019567363,-0.1587518,-0.05191135,0.23534305,0.13113059,0.09536905,-0.039694082,0.07886032,-0.011005668,-0.051949278,-0.09405829,-0.04794761,0.13502117,0.1715891,0.024660673,0.19949305,0.28205693,-0.004548406,0.24520402,0.028328752,0.069060184
0.0675776,0.07230417,0.24980643,-0.09287704,-0.028002396,0.0076570697,-0.11678735,0.05197684,-0.0052069207,0.019498503,0.11357501,-0.095473744,-0.04228177,0.037073743,0.1110724,0.083622985,0.1639538,-0.1595635,0.11645438,-0.17533527,0.12892012,-0.1148066,0.012321145,-0.22528593,0.09410561,0.119990095,0.012053191,-0.15724356,-0.23182029,-0.14672898,-0.15627554,0.0035108977,-0.0047526006,-0.029045243,-0.0882492,-0.039005354,-0.19359264,0.102510296,-0.09285041,-0.07972378,0.103769295,-0.08553386,-0.06276182,0.05619232,0.11929092,0.1314865,0.21988766,0.0063174386,-0.041904137,-0.05350656,-0.06849978,0.011262122,-0.16085629,0.105505615,0.26081404,0.29781348,0.3039207,0.23992316,-0.011101681,-0.18278666,0.14928827,0.15799432,-0.29836264,0.08691687,-0.23125221,-0.17473264,0.04494353,-0.13260877,-0.007948726,0.24479482,-0.08278891,-0.18725161,0.11383049,0.034969974,-0.16674247,0.12265393,-0.005550485,0.08097417,-0.2200184,-0.13179587,-0.031064473,0.06956767,-0.18754914,0.09017872,0.075210586,0.014510873,0.002464661,-0.039515622,-0.086676426,0.1874587,0.020069962,0.1019226,-0.12977344,0.051840417,-0.05850387,-0.08387028,-0.21296933,0.16447634,0.07502046,0.23627828
0.121167436,0.12839101,0.042596687,-0.2560081,-0.18923146,-0.052911706,-0.15349826,-0.10309316,0.16475396,0.042504985,-0.21032108,0.18274546,-0.08759416,0.15320507,0.314626,-0.05777763,0.12210996,-0.2654725,0.04049504,0.21229187,0.17990367,0.061087184,-0.096081056,-0.009885876,0.22557272,0.09891483,0.207538,-0.09157606,0.12582284,-0.1391511,-0.1064772,-0.053629134,-0.08290977,0.032765448,0.03128068,0.22531068,-0.1425152,0.20095244,0.043042123,0.008014996,0.101699725,0.12056836,0.06749548,0.14224684,-0.007094595,-0.23050644,0.15701567,0.2000749,0.18402366,0.03429368,0.12501113,-0.04823323,0.12834242,0.033405405,0.22823788,-0.25697324,-0.25610217,0.27005625,0.17674161,0.27945888,-0.057383996,-0.12473158,-0.22931905,-0.2113271,-0.21827516,-0.107069805,0.04526342,0.06833104,-0.19608052,-0.10335363,0.2446843,0.12639278,-0.06833741,-0.22266759,-0.094688974,-0.286183,-0.050095897,-0.1341487,-0.10362375,0.24860977,-0.12199732,-0.05811914,0.06755049,0.003880334,-0.20056295,0.21786639,0.019606477,-0.07163315,0.08977998,-0.20619899,0.080121554,0.16842398,-0.27473727,0.12591502,0.121382885,-0.20421827,0.097252674,-0.02268594,0.043299653,-0.04966112
-0.23656687,0.19111103,0.19920489,0.11540644,-0.20424488,-0.026865747,0.009191634,-0.22396941,-0.009657133,-0.17048012,-0.19855104,-0.14024779,-0.15885298,0.15881033,-0.13253672,-0.08235552,-0.08144771,-0.020428784,-0.12741049,0.04425641,0.077757135,0.012864537,0.15415864,-0.07996434,-0.009658342,0.028898103,0.084067196,-0.022288585,0.23148662,0.0843524,0.089428015,-0.1306576,-0.16645692,-0.06811976,-0.19127807,0.1385546,0.27779916,-0.25056258,-0.021431921,0.06380723,-0.09939163,-0.06335474,-0.1526529,-0.10473967,-0.17748262,0.03287642,-0.11999866,0.088392556,-0.24922623,0.17648993,0.0701499,-0.14838047,0.25949803,0.015047105,0.2727766,-0.03103398,0.2360044,0.0048955902,0.058883753,-0.012210695,0.13308327,-0.08136737,0.08706476,-0.11354591,0.08611365,0.02892781,0.014739806,-0.053678636,0.015553278,-0.03554815,0.15027598,0.08676959,0.05612299,0.0032680214,-0.1843254,0.094423,-0.18573108,-0.25120822,0.07975973,-0.116181985,-0.21127191,0.0034042064,0.12797754,0.03375121,0.15856306,-0.004057457,0.0152148595,-0.05544794,0.09512703,-0.290437,0.08296047,-0.31799477,-0.11077113,0.08944019,-0.1697628,-0.061179228,0.15705505,0.047023196,-0.055067975,0.11894897
0.04431901,-0.21227711,-0.17372386,-0.21551904,0.13502236,-0.105731,-0.21835683,-0.13880625,0.023734039,0.031628735,0.116192326,0.22404267,-0.14615802,0.17222798,-0.103578255,0.1282343,0.12056152,0.01235155,-0.17869928,0.2032338,-0.050721265,0.2011755,-0.078053445,0.0026283297,-0.08352196,0.065885216,-0.010733508,-0.032386005,0.13619994,0.13821097,-0.15021779,-0.054396197,-0.03572019,-0.23926565,-0.18282501,0.071775064,-0.0734578,0.19778761,-0.076823264,0.0911322,0.062217474,0.009645574,0.14605539,-0.06765732,0.29671472,-0.07872384,-0.14178927,0.13778663,-0.058324765,-0.17822456,0.05220716,-0.0956742,0.14218947,-0.023836682,-0.26201075,-0.041109227,-0.075537875,-0.10206247,0.040490843,-0.11812356,0.25837955,-0.24165744,0.15413521,0.27689058,-0.20620835,0.2626488,0.082524136,0.14876565,0.086463094,0.09115301,0.075669,-0.23578416,-0.20649903,0.0646273,-0.046585005,-0.21907775,0.15406658,-0.040910073,0.0028471737,-0.20886433,0.2611169,-0.119711705,0.018156916,0.0631477,0.085003406,0.0916189,0.10621788,0.07430408,-0.06323123,0.010623707,0.0599994,0.080767386,-0.19871347,-0.009454558,-0.29197735,-0.13395976,-0.012105648,-0.2285483,-0.023508346,-0.18638279
-0.118727796,-0.13374002,-0.09195808,0.19249932,0.28101727,0.06071231,-0.08956561,-0.105810806,0.0892485,0.07059434,0.14073722,0.13336346,-0.18544114,0.13531455,0.1039985,-0.09913819,-0.109111145,0.07150312,-0.16173139,-0.07521735,-0.2263671,0.1358445,0.021868002,-0.066440344,-0.052568942,-0.19687699,-0.050036114,0.2991524,-0.05763509,-0.03801315,0.20598757,-0.16838975,0.048740946,-0.0208548,-0.29426754,-0.12618078,-0.099490814,0.09696964,-0.055322036,-0.2451716,-0.07169477,-0.0649743,-0.019459728,0.1748796,0.018487312,0.021005036,-0.107745826,0.123782925,0.06654305,-0.057600465,-0.058518562,-0.0038867982,-0.11284465,-0.026571644,-0.1696505,-0.07852482,-0.18201159,0.14153849,0.068850346,0.025107717,-0.16467737,0.17746952,-0.03788076,0.13704504,-0.09527091,0.17482868,-0.11541515,-0.06664869,-0.25524062,0.008767177,0.035423305,-0.31337103,-0.16274658,0.0073428014,-0.19419692,-0.036831383,-0.122784525,0.07459734,0.22612165,-0.022048999,-0.06263353,0.21661915,-0.13133073,-0.11042593,-0.123566434,-0.0028586916,0.17835346,-0.14004022,-0.11852668,0.026790326,-0.23595686,-0.025050605,0.26106483,-0.045449603,-0.001152305,-0.013634884,-0.23439607,-0.16156977,0.0067411875,-0.2297553
-0.039784472,-0.066651925,-0.13573374,-0.06967752,-0.23216088,-0.13213049,-0.049852513,0.20688632,-0.17425664,-0.22769655,0.1315743,0.022374086,-0.2000248,0.025887245,-0.2810923,0.013232778,-0.27080324,0.19735858,0.15030009,-0.066055745,0.24319047,0.19731367,-0.14519565,0.07042424,0.02252903,-0.2281167,-0.022757538,0.18067907,0.07046003,-0.14235874,0.24696459,0.086794406,0.02885228,0.18831025,-0.2804152,0.18181087,0.0075433576,0.026531365,0.3202631,0.026826294,-0.039503537,0.038779166,-0.05619995,-0.17004879,-0.07211809,-0.044597242,0.03333191,0.23495957,-0.12686853,-0.24036919,0.2635382,-0.024444342,0.19902155,0.016983222,-0.014657314,-0.008953911,-0.097027056,-0.046450835,-0.11229555,-0.30156046,0.020386603,0.06398031,-0.26159263,-0.07263661,0.10242029,0.04965365,0.021381788,-0.005669082,0.071794495,0.09127586,0.087642595,0.06350529,-0.066501044,0.20092516,0.073427,-0.010646594,-0.13157469,-0.00030253368,-0.013087596,-0.30040637,0.07056985,-0.16692422,-0.15817846,-0.030923715,-0.013331396,-0.047456037,-0.06356476,0.12414203,-0.12205392,0.08958008,0.2063147,-0.0662918,-0.04998285,0.049148276,0.1123616,0.07605371,0.03496373,-0.12872522,0.16754562,-0.0040297266
-0.14409328,0.010671832,0.08735376,0.060029887,0.10577571,0.21342996,0.23955458,-0.10266666,-0.03717138,-0.03780759,-0.0042629777,0.12061785,-0.005963922,-0.015334181,0.14618082,-0.029773122,-0.009809945,-0.03179695,-0.24159202,-0.22424534,-0.17829482,-0.02503457,0.12418812,-0.0181742,-0.27636638,0.030715683,-0.10819205,0.076516345,0.123972,0.033752896,-0.19061464,-0.13135248,-0.02247597,0.024875311,-0.06233657,-0.18451641,0.057645496,-0.21936017,0.019828068,0.09501313,-0.09678778,-0.21192318,-0.10386391,-0.08107499,0.0037695216,-0.023096176,0.15947062,0.063680395,0.034520492,0.009568156,-0.022009091,-0.1110623,-0.294155,0.17218168,-0.27125174,-0.13350081,-0.029111808,-0.07173241,0.13115466,-0.004972105,-0.13846053,0.15917479,-0.31146112,0.14297052,-0.14951174,0.22906347,0.07225701,0.052386526,0.017321823,0.08911277,0.038710624,0.007433408,-0.032549046,-0.14666092,0.014739459,-0.18953422,-0.12827966,-0.070518486,0.084333226,-0.031999093,-0.18339969,-0.07421335,-0.30344924,0.08049875,0.004665403,0.14275967,0.054593507,0.2260281,-0.20321093,0.07227569,-0.08941417,0.2630404,0.22138254,-0.13973232,0.21125688,-0.05268829,0.06683918,0.32268107,0.059885263,-0.14776255
-0.09822627,0.104372576,0.0761925,0.008580324,-0.20750734,0.2051071,0.11791485,-0.11067732,0.073082075,0.0834141,0.031851932,0.022487728,-0.16389222,-0.14399762,-0.13683388,-0.11331663,0.14830472,-0.11253577,-0.23981479,-0.0858596,0.055160426,-0.17509232,0.17913073,-0.29700786,-0.12297727,-0.2404001,-0.25509003,-0.078603856,-0.054599125,0.077609316,0.11476034,0.22838865,0.176682,-0.0035317957,-0.04143633,-0.24121557,-0.13277677,0.10983574,-0.01239951,0.24982423,0.025213988,-0.025159853,0.0055898,0.045315053,0.060735404,-0.10283815,0.08682324,-0.09008401,0.07307107,-0.053126123,-0.15407524,-0.19602717,0.12731832,0.10940471,-0.0780407,0.024742967,-0.11840849,0.25300002,0.04219901,-0.26303965,-0.04175922,-0.14916205,-0.14436433,0.018081432,0.07681189,-0.11676598,0.09518775,0.10628719,-0.14797048,0.05536372,0.03311809,-0.21462551,-0.2092527,0.30350986,-0.063243784,0.13626392,0.16278635,0.17711899,-0.077991314,0.035170477,-0.23817046,0.029856168,-0.3253017,-0.12158129,0.13149147,-0.07347879,0.080378145,-0.2901773,-0.12967926,-0.07743152,0.04368877,-0.13600253,-0.0031657966,0.20919779,-0.24791518,0.15796907,0.11976625,0.041683536,0.12852977,0.03961281
-0.103816554,-0.17744008,0.12635134,-0.18601806,-0.24381122,-0.07322832,0.18364547,-0.103568286,0.07736281,0.031080443,-0.031158317,0.09909748,-0.11026559,-0.15651692,-0.07200031,-0.054259017,0.21693465,0.107600495,-0.27034247,-0.14184842,-0.090482846,-0.12022136,0.12635466,0.013151204,-0.0037183175,0.2487884,0.17693001,0.055593822,-0.1700098,-0.02497255,0.18266025,0.058800865,-0.14953317,-0.034745924,-0.023642913,-0.29102713,-0.084473595,0.22005561,-0.23511344,-0.026371846,0.16646357,-0.14575598,-0.15799305,-0.15066996,0.11069764,-0.15992117,0.0029489433,0.087882705,0.05001538,-0.12305807,0.16614302,-0.0873078,0.07046199,0.2872437,0.16757782,-0.10410181,0.14999709,-0.059160735,0.060048454,0.09171346,-0.2520344,-0.09325534,0.034432292,-0.190736,0.21893124,0.17900255,-0.29858306,-0.13735726,-0.08953851,0.16872743,0.18203913,-0.21578163,0.05326006,-0.030977195,0.093609475,0.089333385,-0.25216526,-0.017443238,0.12850875,0.09124033,0.015345325,-0.17880099,-0.08174246,0.23099262,-0.1456378,0.022638982,-0.1615882,-0.09852649,0.13845989,0.28110856,-0.1885645,-0.091709055,0.117780164,0.02313001,-0.04213423,0.022908341,0.24400364,-0.016750377,0.026211148,0.3175446
-0.15195385,0.042792723,-0.07232569,0.14001395,-0.103135504,-0.1443156,-0.018091638,0.30119,-0.09168342,-0.1248464,-0.17719406,0.09255533,-0.120658025,-0.20348139,-0.0826439,-0.13024269,-0.004316422,0.0075649926,-0.05718576,-0.11350234,-0.22557645,-0.12771398,-0.08217873,-0.07387483,-0.23622997,-0.12638229,-0.052444685,-0.100552365,0.0024666677,0.10272731,-0.2108368,-0.056232028,0.10000392,-0.07388847,0.043725207,0.060976606,-0.036152843,0.13624476,-0.14731492,-0.04028312,0.033495575,0.0361297,0.18208776,-0.039899092,0.22889198,0.08992951,-0.31436506,0.041438904,0.21002173,-0.039984625,0.18016006,0.08743626,0.0070787156,-0.028645726,0.25663224,0.18045448,0.15510924,-0.1508503,0.16001308,-0.22848041,-0.17663242,0.054533314,0.030045396,0.2833136,-0.053837065,0.06912023,-0.01756898,0.22499086,-0.026283178,-0.11066165,0.20420144,0.11829556,-0.18803489,-0.12457591,0.10415103,-0.16720416,-0.0037593578,0.2234515,-0.09130079,-0.011793006,0.023502763,0.23643836,-0.18605419,0.059575703,-0.20170675,-0.010603513,0.02249584,0.10828452,0.10075295,0.3192114,0.097513266,-0.11279032,0.122358024,0.2520402,-0.06397359,-0.13978253,0.16793917,-0.21273704,-0.19385846,0.029628014
-0.116569996,0.070736386,0.07725239,-0.19371924,-0.07287243,-0.020969018,0.317684,0.01528917,0.109839305,0.0047358964,0.017347248,0.039402544,0.16537319,0.092319384,-0.033082273,-0.1744945,-0.01912953,-0.06442518,-0.13639034,0.1649271,-0.018583542,0.22079569,-0.11321661,0.08639726,-0.17125164,-0.07875058,0.15022321,-0.32138506,-0.09472232,-0.106229946,-0.17406878,-0.08724266,-0.13371134,0.04258299,0.20471753,0.047455925,-0.11203925,0.08684744,0.038184535,-0.09292915,0.012981502,-0.05143324,-0.12902059,0.045898262,-0.25965884,0.09791284,0.080296,-0.1083756,-0.026711961,-0.31531978,0.26576495,0.25232938,0.032824624,0.1820752,0.06482453,-0.2979944,0.041153498,0.13074738,0.18772024,-0.19197099,0.097704366,0.029526062,0.051672436,0.022808025,0.061695397,-0.1501349,-0.1553732,0.04422776,0.069777966,0.052008826,0.09278197,0.14151497,0.101152495,-0.09224563,0.1324775,0.18015838,0.22778463,-0.24931061,0.30940273,-0.01893925,-0.15865092,-0.13843548,-0.07920198,-0.15987073,0.08961297,0.013687045,-0.08008439,0.18285994,0.085090145,0.05943896,0.08956754,0.10575158,0.09409038,-0.12740381,-0.104084164,0.0985213,-0.21023126,0.15096726,0.0649054,0.12482283
-0.060823694,0.1948128,0.033512596,-0.087207906,-0.1604508,0.23258089,0.24473937,0.027631685,0.24538775,0.17238227,0.15076907,0.19233349,-0.010852621,-0.101893395,-0.011670836,-0.08047359,-0.15198836,-0.31197834,-0.057849355,-0.017612237,-0.104435734,0.0040145526,0.14613982,-0.087229535,-0.116931364,-0.11888314,0.18950914,-0.060946405,0.06667705,0.15003265,-0.03988639,-0.09928069,-0.12996992,0.122548155,0.0817335,-0.05292232,-0.104421705,0.23195136,-0.062280517,-0.14273101,-0.08320566,-0.26793057,-0.040844828,0.06203193,0.23478708,-0.22111511,0.14585184,-0.0015082975,-0.12456146,0.16811723,0.1506888,0.019794723,0.23110516,-0.07062656,0.11802049,0.0008735491,0.1304701,0.2321282,0.026652636,-0.25410894,-0.2216135,0.080271475,-0.12021859,0.13642927,-0.29427746,-0.015153657,-0.10083541,-0.17013587,-0.2221759,-0.03306474,-0.12688547,-0.034682218,-0.04840087,-0.17337243,-0.05893647,0.13680695,0.083575204,-0.0037964056,-0.12087272,0.00013381128,-0.15557666,-0.070548564,0.124176376,-0.07986251,0.15118265,-0.11511018,-0.18198368,-0.0634877,0.08001633,0.2029636,-0.0911515,0.22923025,-0.014823684,0.18520555,0.0012967804,0.12870726,-0.062051773,-0.06465922,-0.034159046,-0.24632652
-0.1953819,0.044363473,0.1750325,0.13663721,0.11105403,0.1682736,0.2068823,-0.14019796,-0.04461065,0.0049067577,0.012540779,-0.27112636,0.11215689,0.16439551,-0.12547146,-0.2323392,0.122035086,0.021788388,-0.101666935,-0.22361515,-0.16847284,0.32093775,-0.14620562,0.10446949,0.10626426,-0.040079482,0.16366644,0.07131415,0.004945327,0.009115741,0.11652965,-0.103269584,0.28194788,0.15230443,-0.09569436,-0.17117155,0.050623063,0.14111847,0.088286154,0.06893946,0.029221566,-0.30686194,0.32196766,-0.14877011,0.12442295,0.14324136,0.098137476,-0.25595453,0.026220527,-0.1623111,0.0020067208,-0.004524337,-0.062470786,-0.25297195,0.29034358,0.060764145,0.18381685,-0.032552287,0.05207396,0.111813806,-0.13443546,0.12517568,0.04596913,-0.019182784,0.31452796,0.01879682,-0.09731846,-0.08741582,-0.05244114,0.043069158,-0.07216109,-0.25262466,-0.061580837,-0.26163697,-0.22194372,-0.15288305,-0.01841531,0.108602196,0.08857036,0.19758871,0.063596465,-0.16131629,-0.05224155,-0.10939102,0.068546124,-0.23756842,-0.08932135,0.15587424,0.016697733,-0.21642666,0.11470693,-0.16988285,-0.16757204,-0.19448186,-0.16492477,-0.050180744,-0.16832462,-0.16810088,0.015153173,-0.19141954
0.10984393,-0.20662181,0.09950093,0.15189952,0.02241109,-0.03827851,0.2525472,0.0059396485,0.14251912,-0.25507134,-0.09562494,-0.15625392,0.08779752,0.2617534,0.0023835101,-0.2675418,0.18821138,0.20921214,0.15008308,-0.21493474,0.0431303,0.014733681,-0.055357005,-0.24162273,0.3037233,0.075758,-0.05373679,0.22920597,0.12747227,0.053629134,-0.1151714,0.012487874,-0.18681519,-0.09568448,-0.038994856,-0.16126873,0.29291812,-0.09773474,0.0070980457,0.10367996,0.2297454,0.063598655,0.028156532,-0.09281415,-0.0115211755,0.17148945,0.13281068,0.035128336,0.20652793,-0.21932991,-0.055412866,0.10915773,0.074051976,0.016339319,-0.16564879,-0.012450023,0.038191937,-0.3082216,-0.04452589,-0.24167578,0.081740595,-0.0466559,-0.01056901,-0.033897787,-0.0648706,-0.15687627,0.20105821,-0.13777876,0.18939297,0.17005578,-0.12459233,-0.08051056,0.050436977,-0.003440221,-0.18358684,-0.15878637,-0.02274226,-0.1658331,0.078741476,0.28555393,-0.073566735,0.02454541,0.17167602,0.053914115,-0.086648874,0.22942252,-0.17289215,-0.19536662,0.10100533,-0.2661041,0.039638028,0.16775082,-0.011560532,-0.25607687,-0.049992338,-0.12700619,-0.21017168,-0.036548436,-0.16081765,0.08201773
0.1588681,-0.07412862,0.0505835,-0.11916802,-0.15654147,-0.1459451,0.27921042,-0.17143194,0.08023347,0.13921094,-0.20480457,0.12643467,-0.09621415,0.12594065,-0.060421675,-0.16732971,-0.08481375,0.018769374,0.19562048,0.18703756,0.22938539,-0.07425531,0.054768305,-0.18631287,0.17517613,-0.07438324,-0.15891619,-0.039830036,-0.2317862,0.22928408,-0.03935284,0.10210397,-0.1500054,-0.111200556,-0.0010258594,-0.24948175,0.22033429,0.051168762,0.061404206,0.08366422,0.124906115,0.1499635,-0.20372145,-0.04649003,0.12137979,0.26083934,-0.07985594,-0.030541211,-0.014197241,-0.021472836,-0.19252281,0.20786251,0.12145104,-0.22286749,0.05178125,-0.11189671,0.1895945,0.029028373,0.15674765,0.27968895,-0.15242808,-0.19245966,-0.12143985,-0.12923074,-0.045526594,0.023401204,-0.038374312,0.14144413,0.18241866,-0.07551922,-0.14984147,-0.099209055,-0.19762158,0.030887421,0.16383174,-0.05997228,-0.24974206,0.16232015,0.21109758,0.22050835,0.04670182,0.038742177,-0.09585381,-0.17320126,-0.18184374,0.14004871,-0.43452784,-0.09872635,0.17641497,-0.12112045,0.18687643,-0.08492823,0.0054742065,0.13469034,-0.16253212,0.060980678,-0.13314742,-0.084481806,0.2009001,0.18235959
-0.036348004,-0.19464639,0.038748585,0.19586152,0.16659842,-0.106344,-0.13996062,-0.20334305,0.12590289,-0.06148269,0.09011121,-0.02286153,0.09425383,0.00029073164,-0.0679869,-0.062430106,0.13066897,0.19954203,-0.21536878,-0.23521215,0.052023128,0.09920344,0.00055066793,-0.010049602,0.16588292,-0.07297577,-0.11720873,0.28610936,-0.2023686,0.083225794,0.030736553,-0.11500953,0.077612035,-0.16131398,-0.2008487,-0.049889565,-0.14630146,0.06356728,-0.09932513,0.030156858,0.028391618,-0.0688877,-0.04351095,0.14841266,-0.059815917,-0.19681837,-0.12640835,0.20232593,-0.005359643,0.08542716,0.24335407,-0.032210723,-0.2517943,0.0025527831,0.1784463,0.22773607,0.13765931,0.032783877,0.1941365,0.038793646,0.07160022,-0.040956367,-0.3220825,-0.031915847,0.21225843,-0.14172858,-0.06597674,-0.07310726,0.22729617,0.1898802,-0.15562858,-0.17013928,0.05532671,-0.3130597,-0.015978858,0.056668717,0.0076473756,-0.11653253,0.041215815,0.08934535,-0.013026548,-0.06469048,0.15095957,-0.016717386,0.027181145,0.046465453,-0.08633261,0.1367177,-0.12515089,0.0014957491,0.03278304,-0.035638556,-0.23535758,0.025432961,-0.19370843,-0.026283335,-0.26855937,-0.09645806,0.09281907,-0.223492
0.061678134,-0.02382471,0.020407125,0.2640138,0.0174121,-0.2294517,-0.11198264,0.02576609,0.15924889,0.15979593,-0.12476515,0.014598422,-0.26730666,-0.004835479,0.20384894,0.009383561,0.10574031,0.2293507,0.08155834,0.09482329,0.06760161,-0.010821167,-0.10548031,-0.081525944,-0.05313834,0.010056294,-0.23126918,0.24264279,0.06172059,0.15713517,-0.06973352,0.28296635,0.02438814,0.18833123,0.12884144,0.23589754,-0.03610485,0.25956,-0.013129623,-0.16467273,0.08255526,-0.2383387,0.15647829,0.087198816,0.12714037,-0.054494914,0.11444415,0.013631516,-0.019330125,-0.118820906,-0.17428611,-0.2594937,-0.08585162,-0.14093731,-0.17935278,-0.05624656,-0.009185751,0.26267827,0.008801756,-0.020367153,-0.031963695,-0.012577493,-0.15864444,0.24582396,-0.092823,-0.10383769,0.10940825,-0.07182462,-0.12245557,-0.11549018,-0.19064,0.11059539,-0.054862052,-0.02943819,0.14021002,0.11865794,-0.04101471,-0.05742053,0.16841188,0.25697437,-0.28496954,-0.010843439,-0.17987536,0.1792964,-0.19791599,0.109785974,-0.19439249,0.10977775,-0.013140434,-0.028516883,-0.29875857,-0.024819998,0.013951746,0.04859029,0.038966373,-0.011898341,0.18293881,-0.17309178,-0.11515783,-0.10713547
0.058159456,-0.11427046,-0.2165052,0.17033888,-0.083179586,0.2511525,0.08829325,0.086320855,0.1816662,-0.14858127,-0.03753349,0.14803065,0.1718342,-0.09663812,-0.02216439,-0.09075775,-0.02973892,0.10245013,-0.24064785,-0.2608703,0.22059482,0.24151605,0.2568678,0.031006133,0.03231389,-0.0117188,-0.04180578,-0.08294538,-0.20611522,0.09061714,0.19632064,0.2831714,-0.28959182,0.056825373,0.055531517,-0.09995789,0.1089907,0.18135732,0.0017092044,0.07831354,-0.041335102,-0.00830712,0.100183345,-0.09166013,-0.009785815,0.0075755934,-0.052254707,0.03868258,-0.053674866,-0.029129613,0.043330558,-0.24353698,-0.0298066,0.011545344,0.006312962,0.22274642,0.07294392,0.1773899,-0.20675296,-0.0031656753,0.26337406,0.058183067,0.09301074,0.19815275,0.27857643,0.13053386,-0.17246033,-0.020825323,0.074509405,-0.040827174,-0.032179814,0.29017103,-0.0226117,0.05065686,-0.29812256,0.16029823,0.032995608,-0.15923026,-0.03471608,-0.21670713,-0.1095414,0.1655876,0.12729776,-0.061208673,0.04060341,0.1651761,0.35786143,0.0029115172,-0.08762139,-0.035747938,-0.084276624,-0.25165713,0.021676505,0.28019622,-0.11661636,0.09738564,-0.103174254,-0.19512723,0.052459493,-0.09775643
0.111622326,0.32055324,0.13578059,0.13120511,-0.07872228,-0.20030393,-0.15431793,-0.15114716,0.1094798,0.029711353,-0.043173287,0.22697465,-0.010781063,0.18917185,-0.0054347445,-0.03831453,-0.09242783,0.16584371,0.0700981,0.08666657,0.16709593,-0.046689276,0.010591113,-0.08410977,-0.028138308,0.059488058,-0.1774331,-0.029006155,0.030795816,0.29148418,0.001103909,-0.08510569,0.100359224,-0.2656494,0.18770713,-0.12081154,-0.089057125,0.11118048,-0.2639004,0.005556759,-0.089693114,-0.20345655,-0.11674486,-0.12830621,-0.014714205,-0.056006562,-0.14274466,-0.28876036,0.09066182,0.07574247,-0.003145899,-0.12601781,-0.08309331,0.028775288,-0.15354039,0.00020512527,0.2372903,0.067208186,0.050694697,-0.04782134,-0.03049409,-0.2710362,0.15294915,-0.24598631,-0.09699911,0.13843668,-0.0784551,-0.17756802,-0.25670657,-0.1593132,0.26857176,-0.09275267,-0.011834182,0.031890396,-0.09114569,-0.12959303,-0.16174853,-0.24639176,-0.21919087,-0.10186748,-0.12019606,-0.0037983824,0.15383953,-0.10215502,-0.067811996,-0.12294005,-0.34390086,0.033989098,-0.21307877,0.017315019,0.11454373,-0.22120771,0.25351802,-0.08550711,0.086131096,0.15228209,0.16129518,0.0054723048,0.15279935,-0.09436879
0.003896849,0.04942438,-0.02588614,0.16945124,0.17523384,-0.16894281,0.031804424,0.1898035,-0.012567683,-0.11468291,-0.11247759,0.31549454,-0.013911189,0.054712646,0.009793841,0.11010861,0.06730383,-0.25490576,-0.1350883,-0.07221062,-0.15968634,-0.14539431,0.1153265,0.12128899,-0.089834645,-0.13470611,-0.16060929,0.117302544,-0.22729361,0.14073695,0.1659081,0.12614825,-0.251276,-0.148426,-0.11435092,0.048502974,-0.10636319,0.09420339,-0.069647655,0.041541122,-0.08985956,0.0145109175,0.19746096,-0.07450285,-0.021458516,0.033975974,-0.082974896,0.100039676,-0.07670916,0.009371985,0.17428567,0.0015371995,-0.13136974,0.0818379,-0.037014686,-0.14724293,-0.011036151,-0.20333597,0.0071982928,-0.06237516,0.24715756,0.038946968,0.15501936,-0.06426876,-0.13642906,0.30770907,0.08027402,0.046753235,-0.2450826,0.25986412,-0.03399544,-0.19784828,0.060266573,-0.04515237,-0.08166955,0.25127882,0.021966595,0.14441842,-0.14987098,0.102913566,0.07865617,0.20218563,0.01699898,0.054077763,-0.046059217,-0.23439668,-0.10501594,0.15557677,-0.27812463,0.046235785,-0.22185461,0.00068820827,-0.1961145,0.11782086,-0.04923331,-0.1961846,0.20536686,-0.2070113,-0.1281216,0.01599807
0.08169892,0.14804344,0.31540817,0.2608218,0.077060156,-0.052455176,0.26710984,0.12473839,0.020099118,-0.10519848,0.29427925,-0.054740146,0.10548683,-0.1260147,-0.10532675,0.28730792,0.00858205,0.1793516,0.20766531,-0.19240615,-0.038275875,0.010113622,-0.110572636,0.06921021,-0.1041372,0.04350658,-0.060536377,-0.18861255,-0.1376473,-0.21928051,-0.11409672,0.105030164,-0.22511058,-0.109238334,-0.12621169,0.29181644,-0.09240114,-0.2842662,-0.066326015,-0.039890397,0.18380347,-0.1226827,-0.0011081874,-0.20412682,-0.11984394,0.0134075,0.16547951,-0.12974843,0.22972395,0.0769227,0.031533513,-0.09347908,0.1870186,-0.011913126,-0.08112903,0.098442726,0.07418744,-0.0073477477,-0.0026205147,0.031857837,0.07286301,0.008161499,0.10145237,-0.04601486,-0.1455927,0.012631157,-0.008905348,0.14997955,0.0063549383,0.23023753,0.07003234,-0.14481257,0.17492047,0.1452432,0.044143863,-0.06728022,0.09948422,-0.025783164,0.19899054,0.29236558,-0.06061723,0.20966977,-0.1762591,-0.11457405,0.18751673,-0.27035603,0.25240418,0.16475338,0.07070863,-0.30938932,0.01238365,0.090601586,-0.084483385,0.23648824,0.15739241,0.0830012,-0.053713493,0.079001665,0.012258075,-0.2732218
-0.15347652,0.105404206,-0.06650615,0.06918395,0.12674333,0.1361337,0.031033032,0.056888714,-0.13412106,0.014531928,0.26178795,0.063172,0.14688781,0.17220305,-0.21427229,-0.022119997,-0.06659785,-0.16026318,0.009805444,-0.06414595,-0.073624045,-0.06366357,0.034856234,-0.021665085,-0.07826021,0.184312,0.12827092,-0.09359579,0.16792732,-0.20210218,-0.29737514,-0.10927621,-0.025567334,-0.098905355,0.0010106112,0.18714058,0.17210793,0.1540208,-0.08070108,-0.090168454,-0.013915391,-0.019301731,0.23434901,-0.06562115,0.1844741,0.08783125,-0.023055231,-0.10752347,-0.031099305,-0.24310482,0.14857492,0.0346585,-0.3120822,-0.11885304,-0.033333637,0.16774075,0.09963965,-0.12831385,0.2319863,0.15577324,0.09844404,-0.020155221,0.23565282,-0.2064974,-0.16287649,-0.1143903,0.07552718,0.007944809,-0.13933226,0.0055995598,0.15285629,0.099839166,0.17669149,-0.03304257,-0.15571885,0.15026714,-0.053136066,0.085843004,0.25975478,-0.18294144,0.024166295,0.1781982,-0.29557428,-0.24564788,0.18961595,0.030386725,0.074599996,-0.26781145,0.1759376,0.028225398,-0.03239809,-0.03671184,0.0012816623,0.16710567,0.067180924,-0.048507024,-0.14547862,-0.06585321,0.23148471,-0.07192526
-0.31004083,-0.08814511,0.05855146,-0.080870226,-0.03731185,0.102989905,0.17414257,-0.11410831,-0.23820964,-0.022476211,0.08286186,0.19128829,0.28888312,-0.22787738,0.035214867,-0.014352306,-0.13280001,0.023631271,0.19130068,0.110470384,0.007986069,-0.049639028,-0.070356905,0.17864785,0.0062343734,0.08705041,0.113308914,-0.037692975,0.041947413,-0.15984112,-0.20088422,-0.11013666,0.31852496,-0.03192572,-0.014423387,0.016472273,0.17543997,-0.26162657,0.21191026,-0.05573071,0.31183484,0.060748767,-0.04576778,-0.28222388,0.13425955,0.069939084,0.25790536,0.060406186,0.18271622,0.19973028,-0.066182725,-0.07179094,0.1256324,-0.08547381,0.0073967273,0.23049217,0.18110155,-0.09698321,0.2770424,-0.20824161,0.25287628,-0.008805238,0.28927916,-0.1717327,0.19702645,-0.28875667,0.11290475,0.1598039,-0.18930656,0.11830646,0.06849576,-0.24154231,0.20991701,0.2627544,-0.12320222,0.15165304,0.22509451,-0.19928268,0.087805286,0.22689061,-0.025612177,-0.17564636,-0.06660608,-0.010047451,0.12950677,-0.09539176,-0.062888205,0.15105103,0.105208606,0.06256286,0.2065074,0.24145803,-0.0804199,-0.24692395,0.23740046,0.17923608,0.24536407,0.030573394,-0.052589912,-0.041321196
-0.08256516,0.052948806,-0.08711943,0.13803248,-0.18477702,-0.19904031,0.10577237,-0.09182471,0.28678724,-0.12306427,0.106884144,0.027738025,-0.0051006353,0.27339622,0.19182649,-0.2537508,0.018751798,0.12893422,0.24946025,-0.016959487,-0.07014719,-0.26845104,-0.22673701,-0.06075085,0.20575097,0.06792817,-0.19344822,0.2180249,-0.18198332,0.06322017,-0.31148508,-0.13810024,0.044609822,-0.18597783,0.14744566,0.059677742,-0.14852998,-0.007511007,0.011161519,0.13354835,0.055603676,0.101265915,-0.05015466,-0.059110083,-0.07094974,-0.021687178,-0.09145058,0.14033124,-0.19331497,0.1730252,0.05276708,-0.06251958,-0.21150549,-0.049290698,0.025574112,-0.1357789,-0.064942524,-0.05881932,-0.11080381,-0.00079996174,0.041097805,-0.15779653,0.08874418,0.0187438,-0.062190786,-0.22740828,-0.030132892,0.14281063,-0.09694853,0.0321468,0.20668322,0.27977324,-0.10746574,0.08156705,0.16142698,0.035550717,-0.09203914,0.053835053,0.2275771,0.16269705,0.17365989,0.15063955,0.042639986,0.08427582,0.08615133,-0.08691507,0.18055435,0.12028989,-0.19479454,-0.09792605,0.06546539,-0.222636,-0.057562448,0.0036699842,0.04115167,0.10480491,0.21510401,-0.0040363753,-0.23010452,0.109078646
-0.16772443,-0.13967107,-0.1092241,0.033163875,0.18438374,0.04789972,0.014105237,-0.109494254,0.041738525,0.3271126,-0.010319104,0.1512526,0.16104478,0.19985484,-0.19279428,-0.12183795,-0.06166611,0.07913039,0.009015463,-0.1464592,0.25348312,0.063700505,-0.13829589,0.121101685,0.29320022,0.0740842,0.15154862,0.06916965,0.033087794,-0.06110821,0.3107311,0.23223333,-0.20724614,0.1000832,-0.21937376,0.027329082,0.12223716,-0.19457576,-0.20500362,0.028783996,-0.18134092,0.03594104,-0.21357192,-2.0101244e-05,-0.285855,0.233295,0.21206877,0.007943054,0.012815443,0.08847555,-0.04777159,-0.116295874,0.029741175,-0.13265558,0.24263677,0.2564564,0.05160443,-0.020058976,0.030922659,-0.021902116,0.3102905,-0.013967479,-0.27092174,-0.042091202,0.1304234,-0.16109046,-0.010544378,-0.16122237,-0.08764129,-0.14449221,-0.15945147,0.127559,0.2804558,0.018525476,-0.033675827,0.15654343,-0.2529359,-0.08306015,-0.03416741,0.029524568,0.048782054,-0.09831919,-0.223047,0.24133515,-0.062676065,-0.1312477,0.07890428,0.1289351,-0.2188242,0.15722837,-0.17557411,-0.030043965,0.091070905,-0.2726349,-0.09040988,0.29797694,-0.10284923,0.17668122,0.050100334,-0.26387703
-0.0015514517,0.060152974,0.10895477,-0.08154933,0.10344966,-0.0083061755,-0.068800636,0.18377338,0.09966512,0.089981854,0.0896119,0.09371729,0.075091064,0.11465613,-0.14802001,0.1121409,-0.07781227,-0.18461086,0.11980933,-0.117948204,0.10291682,-0.055036847,0.22524694,0.009766157,0.03621842,0.056728467,-0.14495312,-0.034775097,0.12224433,0.013665083,-0.1626227,0.09618117,0.12412082,-0.03990206,-0.080928944,0.06508428,-0.022284757,-0.11661495,0.13779847,0.048533365,-0.06436448,-0.18073407,0.039865814,-0.20006546,-0.044976436,0.035677396,-0.15785457,-0.10660271,-0.15985303,-0.14598812,0.113102734,0.15243864,0.0011998687,0.0035312113,-0.12802447,0.122006305,-0.040028404,-0.124572895,0.0050428333,0.17484513,0.044831853,-0.21509577,0.05460463,-0.17000559,-0.18885238,0.00023848822,-0.19954342,0.014655707,-0.03225824,0.057733156,0.21040958,-0.31078333,0.04649307,0.10913454,0.09451626,-0.12035868,0.16395192,0.22828345,-0.016078396,0.1091307,-0.16145295,-0.14942168,0.0019300968,-0.079068184,-0.30047297,0.08193118,-0.14745499,0.06856693,0.24024926,-0.1667317,0.29875594,-0.0032685848,-0.21686466,0.07180909,0.068342336,-0.020049486,0.01950414,0.037637852,0.09082834,0.070239685
-0.16667482,-0.08618606,0.035117574,0.013995388,-0.06383516,0.12021131,-0.113013715,0.24213363,0.19040178,-0.16767243,-0.12520552,0.3018927,-0.15780333,0.021728588,0.035346705,-0.064541735,0.22071669,0.102612816,0.26371035,0.19314823,-0.026825512,0.06044743,0.12495479,0.030770978,-0.026747586,0.18319769,0.12869728,-0.07663607,-0.14503402,0.06930093,0.030281298,-0.03275842,-0.001540266,-0.06394362,0.08312462,-0.10271136,-0.1517343,-0.14560758,-0.090402834,0.123049065,-0.056522466,-0.117883205,-0.029735507,0.08556793,0.12217967,-0.092128694,0.02879044,-0.036526114,0.00609638,-0.028705597,-0.035748404,0.1837209,0.3064164,0.2037229,0.15080595,-0.15459716,-0.18153441,-0.09628443,0.0641068,-0.042269185,-0.24319643,0.10688816,0.056534868,-0.31441864,0.04614148,-0.2403468,-0.15484588,0.21013054,-0.2275905,0.03060302,0.013708466,0.29628444,-0.04953353,0.082447425,0.15325668,0.14141823,0.025303466,0.036201634,-0.09629163,-0.20689209,-0.038423453,0.2221861,0.090377845,-0.056475114,-0.008920165,0.12667203,0.21782242,0.019798769,0.20388041,-0.19417779,0.096364714,-0.15988864,0.038266357,0.15420328,0.15249412,-0.044446103,0.31261477,0.18520904,-0.2735076,0.20997173
0.006921255,-0.16234162,0.040063288,-0.29477036,-0.21360214,-0.07552764,-0.020961892,-0.13733238,0.16243134,-0.13023375,-0.13508151,0.114999756,0.12628369,0.2272258,-0.0861668,-0.06387175,0.027639825,-0.036199264,-0.121831596,0.08067993,-0.27719775,-0.0017459585,-0.201647,0.0056267045,0.18673842,-0.043582093,-0.11621491,-0.24384893,-0.024640385,0.0047326023,-0.06626929,-0.0151892165,-0.025167419,-0.17341012,-0.16297297,-0.08599189,-0.27616245,-0.08231704,0.13723822,-0.11685863,0.15619518,0.08896355,0.026003566,-0.050196897,0.0018924243,-0.1877066,0.042952858,-0.037357092,-0.15342593,0.23441803,-0.08949007,-0.13245952,-0.01652456,0.0321117,0.20859638,-0.21596098,0.049963035,0.005901334,0.12096432,-0.2627652,-0.2133644,0.19676995,0.025072604,0.14603424,-0.08747421,0.033830225,0.13436857,-0.012342595,0.05620153,-0.022507831,-0.10502699,-0.06113137,0.06685589,-0.22495678,-0.08925718,-0.20400122,0.002319197,-0.28224358,0.060764775,-0.113974795,-0.01855992,0.012108812,-0.04008491,-0.050470736,-0.22502938,0.09421557,0.19131957,-0.13822854,-0.23476899,-0.02477583,-0.021622648,0.033264127,0.06302583,0.05022352,0.038282517,0.21139917,-0.09352209,0.06562574,-0.012336799,-0.08845274
0.12440456,0.16825432,0.04652442,0.10164003,-0.16284494,0.1290426,0.12711498,-0.22303875,-0.072110824,0.006702596,0.13122155,0.050603084,0.0933788,0.044852983,-0.2917845,-0.075207055,0.045701332,0.1915274,-0.0037714047,-0.048985153,0.20215686,-0.046820704,0.034521826,0.12934108,0.18318537,0.17800908,0.03375403,-0.023431003,-0.18439871,-0.013715672,0.06674308,-0.17827262,0.20881015,0.13411556,0.097359516,-0.16030861,-0.16510633,0.05196399,0.2530978,0.03176961,0.061403565,-0.12110563,-0.13747762,-0.06750261,0.15463516,-0.2736253,-0.32318836,-0.09842267,-0.012621375,-0.066003405,0.013033612,-0.1349321,0.1403885,-0.039744724,0.25172716,-0.24593036,0.07423346,-0.050609987,0.046703212,0.084814556,-0.1252536,0.09841295,-0.0015602335,-0.18905528,0.06777432,-0.064191714,-0.046318468,0.17979982,-0.10328484,-0.1865431,0.096775554,-0.28737864,0.19075057,-0.06438998,0.0032965087,-0.2317036,0.049312517,-0.023749618,-0.04981354,0.19841054,-0.010106344,0.07181963,-0.13041748,-0.26476288,-0.31293672,-0.043211576,0.08995893,0.29020587,0.25592506,-0.049527343,-0.2682543,0.0006985852,-0.09718402,0.07178765,-0.06103846,0.07885781,0.21158563,0.017887285,-0.0709158,0.013998215
-0.11551597,0.06884949,0.07376683,0.046925332,0.18942335,-0.059814434,0.035920363,-0.080175586,0.066518195,-0.03248754,0.050538998,-0.19105645,-0.112173475,0.08814482,0.047488242,-0.025139503,0.07822255,0.13824017,-0.0032038349,-0.3007095,-0.1279351,-0.027937321,-0.29665017,-0.14529133,-0.2288972,0.049806263,0.2588137,-0.035587884,0.042681556,-0.15098214,-0.09295177,0.12392299,0.21734178,-0.20831855,-0.3199448,-0.10230214,0.059826758,-0.06714238,-0.030769428,0.0042085946,0.09460405,0.027131712,0.11563863,-0.09427842,0.03177271,-0.025001476,0.14577338,-0.26394778,0.021807598,0.20818159,0.03227185,0.15590413,-0.053208105,-0.06562365,0.17640382,0.13925794,-0.20708224,0.055117894,-0.09033092,0.15040812,-0.11859585,0.059593882,0.07187884,-0.024629233,-0.08158403,-0.09908978,-0.16797274,0.22834913,-0.17378204,0.0062044337,-0.11881739,-0.14245671,-0.008613086,-0.07261764,-0.17448863,0.027577413,-0.18704717,-0.034227557,0.24197821,0.08657026,0.025444651,-0.041183557,0.09039608,0.14235097,0.3083592,-0.116114356,-0.06617825,0.18963888,0.17490347,0.12184784,-0.06181981,0.26001498,0.015345521,-0.05950026,-0.15886936,-0.13622276,-0.11023723,0.13362393,0.019978074,-0.18096945
0.10136562,-0.11150945,-0.091398984,-0.11270763,0.19936341,0.031448927,0.1201504,-0.27920553,0.1538406,0.04423749,0.09767499,-0.15673982,-0.053271085,-0.18798158,-0.00785499,0.09115617,-0.054282445,0.12506169,-0.025992481,0.09296581,-0.08213215,0.026366089,-0.06245206,0.0732394,0.11156458,-0.26032138,-0.17674327,-0.1538117,0.1124353,0.0027247998,0.25953406,-0.029590162,0.080785714,-0.16833097,-0.040999252,-0.2036139,0.15178978,0.17074428,0.04428914,-0.043133017,-0.10319395,-0.116676256,0.17745334,-0.0017084305,-0.1190635,-0.054294493,-0.18949234,-0.13433534,0.2612991,-0.026143402,0.18815288,-0.01246171,0.0007349834,-0.06625005,0.01034827,0.041678544,-0.22878967,-0.26040968,-0.14124587,0.06551981,-0.13172041,0.07111071,0.06480556,0.062157776,-0.029079799,-0.042978328,-0.029275078,0.12777413,0.15336612,0.024807356,0.026633583,0.14087339,-0.020152098,-0.02016575,0.11537769,-0.16109996,0.095774025,-0.1400473,-0.27923682,0.045848176,-0.05858212,0.19390695,-0.03666953,-0.04821106,-0.10294698,-0.21395138,0.16235434,-0.061277326,-0.052602652,0.22217658,0.01677923,0.20163432,0.16639379,-0.11991374,0.25197577,0.0028739998,0.21880421,-0.014908721,0.05914454,-0.26195842
0.21504156,0.04441014,0.0373893,0.079003304,0.084889464,-0.10924013,-0.038357824,0.011311932,0.024322305,-0.08919844,0.11298092,-0.101156555,0.10324517,0.13748902,-0.03593702,-0.19392285,0.19069003,-0.08450731,-0.13605031,0.03975025,0.042818718,0.053179696,0.0099144485,-0.27673632,-0.008122752,-0.22611427,0.067022055,-0.07192054,0.02346836,-0.015589168,0.10855147,-0.0348909,-0.10761807,0.018537011,-0.024439132,-0.24139178,-0.071851335,0.06084218,-0.007368711,0.018857505,-0.014076906,0.07502298,0.019266589,0.20167306,0.021797827,0.18876229,-0.28297147,0.1020526,-0.17456062,0.2094821,-0.1490211,-0.20175903,-0.115729526,0.30034927,-0.23919171,0.12340502,0.011436552,-0.18440215,0.31940588,-0.108928725,0.23283972,-0.1988973,-0.00838716,-0.21052563,-0.07820369,0.20399226,0.15664627,-0.13403217,0.2105096,0.062654026,0.20411503,0.057386834,-0.23818824,-0.23577014,-0.08716368,-0.008148135,0.06075611,-0.113260254,0.08983376,-0.12892385,-0.11218197,-0.13536665,0.15428223,0.18559289,0.05326999,-0.014065189,-0.056690704,0.006002458,0.28199548,-0.02360934,-0.031892482,0.07155126,-0.109586895,0.15604381,-0.06061616,0.11891729,-0.036035936,-0.24389687,-0.010061965,0.0005224879
0.048559878,-0.14698857,0.052660733,0.10524188,-0.0047813375,-0.016924433,-0.22568509,-0.18021563,0.10707408,0.011345672,0.14991356,-0.02988254,-0.25025326,0.10146769,-0.017397445,-0.272876,-0.20261706,0.01713747,0.014489103,0.122380204,0.059689716,-0.12976123,-0.046218734,-0.064187154,0.20666948,0.024124658,0.108519025,-0.059920043,-0.2403583,0.24451886,-0.19599846,-0.25217697,-0.3039681,-0.035944473,0.16613466,0.042571418,0.08188374,0.062303677,0.07937663,-0.13971087,-0.07686202,0.22390716,0.055528738,0.08994191,-0.0075814384,-0.09124859,-0.22385086,0.1454576,0.0066119633,0.049067885,-0.1765302,-0.0867212,-0.16720194,-0.086442366,-0.1262267,-0.0013883839,0.286336,-0.11665307,-0.11687227,-0.281412,0.08219152,-0.18426755,0.068264015,0.113252506,0.2840969,-0.059033718,-0.16497104,0.047683824,0.009355185,-0.0023424742,-0.009312479,-0.06559719,-0.09160627,-0.07545019,-0.17675924,0.02425974,0.1109682,-0.01057163,-0.14120181,0.15852346,-0.19925125,0.004825618,-0.09350363,0.00726524,-0.036410272,0.046751928,-0.18650441,-0.05180437,-0.005107513,0.0884803,0.15490437,-0.08612684,-0.25186953,0.31552,-0.15051651,0.04113584,-0.0023946748,-0.24062732,-0.0070029856,0.05229192
-0.06254564,-0.0022226681,0.20573345,0.11546767,-0.091234,-0.15981431,0.042216033,0.0597086,0.034822557,-0.08249281,0.09608107,0.16729577,0.108670026,-0.0037179536,-0.16691367,-0.024993917,-0.018430986,-0.14348158,-0.23847689,-0.035057288,0.10265889,-0.0845939,-0.027743256,-0.16390918,-0.08358846,0.06035281,0.29255575,0.249407,0.019925406,0.04817976,0.03509667,0.08873199,0.009657739,0.21004803,0.15735689,-0.29646704,-0.13976656,0.2604714,-0.043134976,0.16785258,0.12978616,-0.065921485,0.017307423,0.120115034,-0.06475707,0.12478649,0.1365483,0.029892523,-0.25282115,0.012192769,0.027592963,-0.070529394,0.27377328,-0.12376165,0.05837023,-0.07739368,-0.17070295,-0.24173106,-0.04668938,-0.058521252,0.0012866498,-0.025167553,0.32564044,0.046857893,-0.18114823,-0.016183434,0.11339599,0.17368849,0.11045669,0.007889997,-0.14347479,-0.246951,-0.039323617,-0.15160058,0.3061028,0.09954909,0.02463137,0.16079599,0.16045101,0.26578322,-0.28116876,0.2320224,-0.07081372,0.18648782,-0.029459318,0.04884103,-0.043245174,-0.008262482,-0.16969177,-0.008047767,0.04433662,0.09170584,-0.2997455,0.078558296,0.06701039,0.17916206,-0.055652764,0.034496855,0.044421583,-0.0005933207
0.05130154,-0.25201482,-0.21556625,0.015173562,0.20667604,-0.09769013,-0.048618503,0.021826077,0.104209505,0.04918948,0.24580827,-0.12228501,0.1209896,0.06634155,-0.047183324,0.1274362,0.05636823,0.056259055,0.31799155,0.064428635,-0.14518495,-0.020924533,-0.12398737,0.22702514,0.19693512,-0.17049071,-0.02259208,-0.018830247,-0.29190224,0.037950467,0.30130345,0.20096122,0.08638813,0.22789846,0.10003321,0.09432829,0.16901231,0.09954013,-0.1343814,-0.07665494,0.097991265,0.09746238,-0.32575497,0.18298481,0.032976944,0.031952493,-0.07636269,-0.20800123,-0.12261618,-0.042326488,0.06173111,-0.11937424,-0.13954324,-0.032578547,-0.043855533,0.01340984,-0.1719812,0.018275129,0.14865707,-0.11094698,-0.07819956,-0.09513726,0.24078812,0.18888344,-0.13729228,-0.16290157,0.028482145,0.082081735,0.10596203,0.020111358,-0.12226975,-0.053615563,-0.027895665,0.046234928,0.22446756,-0.14504403,0.0009082466,0.016166959,-0.041791044,-0.08912961,-0.049337905,-0.1416049,-0.09273559,-0.05237715,-0.14354019,0.19732969,0.04066491,-0.006256482,-0.036997933,-0.09224898,0.19889829,0.1054746,-0.25578028,-0.059489068,-0.02119006,-0.009404819,-0.15638986,0.28888446,-0.01877944,-0.24686587
-0.22302471,0.11651991,0.06512195,-0.042560242,0.012081699,-0.17171049,0.13824135,-0.07392317,-0.23184511,-0.058023795,0.14016572,0.3044276,-0.17650667,-0.14804852,0.02831502,-0.13900839,-0.03876476,-0.11571653,0.21646291,0.062437717,0.19106677,-0.18279098,0.09223218,0.03309891,0.23571697,0.065657124,-0.07413488,-0.30729952,-0.19787809,-0.094396725,0.021150593,-0.13491699,0.0024805493,-0.18847792,-0.034453936,-0.05490701,0.15016675,-0.10086816,0.15418063,0.021935124,-0.009425768,-0.11546999,-0.12059187,0.046209905,0.06563574,0.24362673,0.25782785,0.19563507,-0.115368955,-0.13017069,-0.07776178,0.18176727,-0.10218654,-0.18550418,0.10531122,-0.02055369,-0.29267454,0.09330823,0.16667883,-0.0026100043,-0.11671583,0.19714949,-0.26989567,-0.0088632805,0.185482,0.05760592,0.20162542,-0.15118866,0.027076188,0.007185761,0.23807968,0.1916286,-0.053724602,-0.02662167,0.13679309,-0.14475024,-0.157685,-0.11979337,-0.2475673,0.16001321,0.12876444,0.15744294,0.002740187,-0.09392843,-0.3087965,-0.10598048,0.09668635,-0.28552747,0.008091916,-0.20158887,0.041048914,0.0497752,-0.034710392,-0.23956396,-0.051351998,-0.08703544,0.1867071,-0.032254055,0.16260926,0.017980454
0.07108798,0.17252512,0.01711837,0.22216147,-0.0929516,-0.051634323,-0.25742456,-0.05843916,-0.13950986,-0.20320642,-0.042370122,-0.0050061815,0.12910214,-0.07327053,-0.27753654,0.036809284,-0.083102,-0.13465422,0.1411689,-0.08771919,-0.05670253,0.10401085,0.04673307,0.07179143,-0.15642327,0.018044457,0.11144239,-0.26751783,-0.2783051,0.05633009,-0.27239043,0.08461888,0.24804322,-0.04477836,0.016418725,-0.03679795,0.24144976,-0.2080896,-0.1005505,0.15603852,-0.0937102,0.11238305,0.20647916,0.24352749,0.07158315,0.031072522,-0.03418162,0.29261866,-0.15765762,0.02232705,-0.13809206,-0.07531892,-0.119067214,0.0076573715,-0.10924378,-0.04683154,-0.018997572,-0.17482574,-0.03506083,-0.16253014,0.075380266,-0.21458821,-0.10834334,-0.12723461,0.032858092,-0.12029024,-0.0499595,0.14547953,-0.23358102,0.08057052,0.10798405,0.08866624,0.049586754,-0.17914587,-0.28859887,0.092761874,0.24886462,-0.11605811,-0.12368446,-0.17900802,-0.017545883,0.18880713,-0.05220056,0.15160461,-0.091138355,0.15749495,-0.010921808,0.15259448,-0.074562624,-0.103589274,-0.052826907,0.017702777,-0.3007193,-0.004659407,-0.012772847,-0.088887244,0.14025247,-0.21930334,-0.22610076,0.22285809
0.03952389,-0.31876236,-0.1642795,0.0015105119,0.05465005,-0.080108516,0.10755575,0.20750816,-0.17266631,0.1939763,-0.041776974,-0.09649089,0.04138482,0.012974436,0.24450101,-0.23990099,-0.24242699,0.2553291,-0.11863981,-0.019157287,0.12188719,-0.027083887,-0.12640974,0.11626005,0.0070685027,-0.095131494,0.09478709,0.011758376,0.019820621,-0.16641107,0.17745492,-0.19421189,-0.015622971,-0.12113673,-0.07270731,-0.0016550991,-0.13874805,0.03089112,-0.25519514,-0.09452573,0.2405152,-0.14239977,-0.1558653,-0.07340252,0.15380868,-0.05872284,0.17065898,0.1269464,-0.22005492,-0.1640242,0.23982932,-0.009009999,0.19172806,0.10292206,-0.14114061,0.016301738,0.29262558,0.114426926,-0.04759706,0.0235651,0.11688798,0.003120542,-0.13629386,0.10682686,0.24801733,-0.037165552,-0.10406028,0.1896078,0.1318756,0.07239156,0.16417578,-0.009231629,0.2803302,-0.27453622,-0.0105237,0.13873821,-0.0100966515,0.05004752,0.064933226,-0.22695835,-0.15396363,0.15438582,-0.0070444676,0.067797676,0.037623387,-0.009759418,0.0656853,-0.22856927,0.043338522,-0.14684872,0.037697576,-0.11003961,0.08393114,0.23833181,0.15338515,0.08251996,-0.12983356,-0.121487066,-0.06590334,0.075262606
-0.14418976,-0.115784295,-0.035013005,0.24867068,-0.10022998,0.08936697,-0.17875922,0.024973951,0.22979902,0.08144252,-0.10747644,-0.015672691,-0.10005569,0.19137897,0.24449968,0.22660293,0.26082516,-0.03979665,0.20236279,-0.23007,0.13978241,-0.16346423,-0.17256801,-0.09596622,-0.26526913,0.3013585,-0.083386384,-0.20782033,-0.0740803,0.08484334,0.2406364,0.15561356,0.275546,0.12765461,-0.01874483,0.02152729,0.12346739,0.13413914,-0.17252594,0.2799645,-0.079532705,0.10033448,0.13876298,0.06586785,-0.020433562,0.14232,0.1072293,-0.06560551,-0.10599737,0.11214993,-0.14775704,0.124975845,0.0060791946,0.1438044,0.03386225,0.04228799,0.089113906,0.20822464,0.05289449,0.12484972,-0.19219089,-0.12932098,-0.0034341356,-0.17311464,0.12183233,0.17278656,0.22785424,0.09986675,-0.1854733,-0.11494906,0.17092724,0.10185868,-0.2396708,-0.11710251,0.12415776,-0.11411337,0.03075233,0.02497855,0.29373878,-0.19848837,-0.09984836,-0.12136735,0.26062092,-0.24616861,0.08667036,-0.17851056,0.12886225,0.28627628,0.053004395,0.1136906,0.15845433,-0.19867818,-0.108219124,0.07562443,-0.038101062,-0.0117093185,0.01830774,-0.30983016,0.12252595,-0.14257883
-0.05533945,-0.059974696,0.04791646,0.10125063,-0.039603595,-0.028147208,0.13906726,0.09464058,-0.023985742,-0.09199995,0.1791083,0.009638202,0.12437255,-0.25611675,-0.20995368,-0.012307078,-0.22077927,0.15730344,0.19632599,0.01902908,0.035906214,0.19251643,-0.0018345716,-0.13479017,0.0026728967,0.24625702,-0.1602386,0.14318909,0.3155472,-0.0890073,-0.10198508,0.21733817,0.03307401,0.11114102,0.16290857,0.084296435,-0.23452026,0.067713775,0.24359864,0.15696445,0.28048944,0.0031236757,0.306407,-0.22709341,-0.2872751,0.026060496,-0.2892022,0.10575894,-0.23299238,0.17897081,-0.06585297,-0.0054302844,0.11397078,0.14907017,0.009838005,-0.31935012,-0.012874266,0.019729901,-0.10334056,-0.0055200863,-0.055226192,-0.084657036,-0.060485102,-0.093934685,0.17179431,0.0254518,-0.010074841,0.03688049,-0.095921956,-0.026490064,-0.1373673,0.13225365,0.059390873,0.14281912,0.105969496,0.00690153,0.08396361,0.095565885,-0.05611669,0.08344907,0.048423536,-0.06370905,-0.1760518,-0.013036278,0.07560884,0.011404622,-0.080286995,-0.14703943,0.026591038,0.039190233,0.14260073,-0.27009276,-0.10344795,-0.09960728,0.105673954,0.1775528,-0.13842122,-0.11075648,-0.20176159,0.001175771
-0.2345017,-0.28923756,-0.1476722,-0.026299465,-0.023326907,-0.064139664,0.14904991,0.12949277,0.14964099,0.15120468,-0.115466885,-0.030539067,0.25066945,0.17010292,0.25181702,-0.10026584,-0.022936542,-0.12222662,-0.17783934,-0.017785069,-0.16900982,-0.11045029,-0.072685,0.03469804,-0.0099199815,0.047022883,-0.17477337,-0.25128773,0.2260542,-0.2192842,-0.04749572,-0.12438463,-0.023852957,-0.13622673,-0.09842144,0.07384959,-0.1530171,-0.17785646,-0.072470866,0.038804222,-0.045497436,-0.20169665,0.10006936,0.20505558,0.1203973,0.024556093,0.03585015,0.06576487,0.18025054,0.03066938,-0.08896104,0.0420945,0.014765364,-0.15533108,-0.09600694,-0.00051881984,-0.12656075,0.12620439,0.27381468,0.05743444,0.07978599,0.14922988,0.15874761,0.102880776,0.1560722,0.0852957,0.09376564,0.122645766,-0.091601394,-0.2363905,0.15143894,0.15544963,0.24054599,0.07818874,-0.14809325,-0.04859146,-0.07189309,-0.23839374,-0.00016476912,0.030401183,0.06291621,0.255922,-0.09061806,0.060308967,-0.15158558,-0.1830399,0.19630809,-0.27123058,-0.056804482,-0.23866107,-0.22854485,0.1582467,0.0058383653,-0.30445495,0.04419168,-0.04412002,-0.0005075837,-0.004693791,-0.060166452,-0.14854045
0.12457227,0.06334655,0.026239876,0.15975767,0.036256537,-0.20445539,-0.2994376,0.07417034,-0.15961581,0.117552675,-0.1090302,-0.17219312,-0.27834034,0.0067952643,-0.17348467,-0.14711964,0.102554016,0.017598627,-0.049437456,-0.09860555,0.036456145,0.011096931,-0.20833886,-0.16122183,0.07870683,-0.127179,-0.005815948,0.0247956,-0.30294308,-0.2601776,-0.16956715,-0.0040000156,0.14344548,-0.031785782,-0.122066736,0.04390615,0.06048253,0.20321496,0.16287857,-0.18447351,-0.052854616,-0.04495223,-0.026361777,0.1785079,0.094260424,0.07047682,-0.011874544,-0.09184812,0.044624127,-0.032283556,0.0077230115,0.21158955,0.090031475,0.17873187,-0.06280831,-0.107543245,-0.06919155,0.0012253204,0.021403708,-0.28960818,0.23600775,0.13927287,0.034678876,-0.047055677,0.121856816,0.22073883,0.10290445,0.02247536,0.22063819,0.016185366,0.15396073,0.052325487,0.18255717,0.08928078,-0.11595295,0.008593404,0.2789994,-0.02170967,-0.0010286486,0.116486765,0.09978,-0.2317019,-0.14307413,0.07781507,-0.15500402,0.11167728,0.02856882,-0.113036126,0.19666511,0.14275847,0.032887135,0.09130154,-0.22013263,0.017996505,-0.21614404,0.0503645,0.037064068,0.2946148,0.24599412,0.16637236
-0.005121088,-0.029841574,-0.025714755,0.1546312,-0.11836704,0.18890162,-0.254134,-0.29229185,0.06943071,-0.15281941,-0.07991433,-0.273474,-0.24373227,0.05724011,0.087857924,-0.025749126,-0.18592562,0.14694938,-0.23805913,0.10724963,0.054096792,-0.1679368,0.13130373,0.23138808,0.040548738,0.03884534,-0.17316335,0.16192704,-0.033635195,0.09651012,0.05002604,0.17372409,-0.01609756,0.30779868,-0.039099626,-0.2602531,-0.21142629,0.054256685,-0.15015164,-0.036547806,-0.022213928,0.09231419,0.15200931,0.22457534,0.015056812,0.1400183,0.12297236,-0.030704783,-0.101686515,-0.08155553,-0.0120834615,0.2127925,0.24429774,0.09072971,0.04328848,0.018677665,0.03527406,-0.16005689,0.13061838,0.30645442,-0.05085503,0.13051765,0.09045802,-0.13083184,-0.2199888,-0.051829536,-0.12121912,-0.24394259,-0.027157625,-0.012219775,0.1535818,0.21538837,-0.050248194,0.08240461,0.29882702,-0.30549303,0.17631492,0.06343942,-0.19478604,0.10022466,0.09828583,-0.24188499,-0.14455992,-0.24287231,-0.14331248,-0.10694562,0.09827267,0.13255668,0.10324392,-0.13676299,0.111895,0.068683356,-0.30468056,0.080948345,-0.02927067,-0.00034628052,0.17350256,-0.021654092,0.08962485,-0.044868972
0.23572196,0.19787495,0.3083938,-0.11226367,0.030767646,-0.26747888,-0.06774034,0.13558757,0.14113611,0.12279049,-0.12414107,0.10883198,0.2516827,0.094480224,0.2152748,-0.116876036,0.141442,-0.054177187,0.016564868,0.011923059,0.06668127,0.24034438,0.23945644,-0.06487113,0.051998504,0.11017876,0.3014154,-0.025774473,0.0330683,-0.003170935,-0.24694456,0.041824773,0.14334719,0.3195505,-0.16690153,0.18315417,0.0015158912,-0.06642448,-0.0050813435,-0.09387999,0.09948201,-0.036985774,-0.3080491,-0.047085635,-0.12686402,0.29400545,-0.10658986,0.024076238,-0.15970795,0.12031385,0.16982661,-0.10743011,-0.05513204,0.10792646,-0.042206556,-0.25228003,-0.23915511,-0.12274962,0.17589054,0.15356316,0.027534584,0.0536162,0.17487691,0.09152286,-0.09645691,0.041382015,-0.17861173,-0.039396122,-0.0040709595,-0.07379881,0.124168605,-0.12553516,0.04634856,-0.045759954,-0.018981319,-0.19352284,-0.057619844,0.2098883,0.19060518,0.032218177,0.096803285,-0.12762943,-0.07723449,-0.16545354,-0.20987666,0.23685093,-0.2542482,-0.024817135,0.27503657,0.02009194,-0.30861482,-0.060858835,0.13466658,0.17475994,-0.06815513,-0.0662304,-0.12773617,-0.06134053,0.19877027,0.15052922
-0.09369943,-0.08595337,-0.062081084,-0.25877798,0.10564137,-0.15040283,-0.079355545,-0.014499929,0.13402015,-0.047312185,-0.20707302,0.11307294,0.009823753,-0.1620275,-0.013864641,-0.049316157,-0.18521528,0.10972314,-0.12311676,0.1815531,0.060217626,0.2504513,-0.06896884,-0.110517144,0.18124968,0.19056682,0.031301633,0.019548936,-0.1827256,-0.1126583,-0.07018397,0.06500565,0.019786576,0.15770091,0.236794,0.032350916,-0.10091226,-0.14740245,0.066349514,-0.13358676,0.04060849,-0.05531828,-0.06734579,-0.1421149,-0.037426095,0.008302497,-0.16371909,-0.25929016,-0.16501008,0.11957908,-0.12898718,-0.043555953,0.16031756,-0.16243945,-0.17426422,0.12157414,-0.13473563,-0.10687484,0.11006821,-0.057354312,0.038381103,-0.24708807,-0.11859705,-0.15264209,-0.08071948,-0.1724147,0.0032589505,-0.079576366,0.12811403,0.016887385,-0.12982297,-0.030454542,0.01631821,-0.015367212,-0.07285077,-0.08525291,-0.32217896,-0.07906162,-0.10743826,0.06113525,0.14639631,-0.16705528,0.18148993,-0.118562706,-0.0023251968,0.15392824,-0.24165936,-0.060288366,0.03303465,-0.22256224,-0.09356927,-0.05448723,0.09283894,0.0135306455,0.0028113215,-0.050636362,-0.024020787,0.041100763,-0.29773924,-0.035752274
-0.21814914,-0.024401937,0.053275675,0.08173649,0.02281055,0.07061137,0.15552936,0.019157998,-0.22176866,-0.08235223,-0.12817773,-0.10618991,-0.021026347,0.08428564,-0.12830473,0.030685887,-0.2520053,-0.06891286,-0.14044282,-0.12236104,0.068811096,0.23822322,-0.04336956,-0.13918601,0.04616813,-0.0679679,0.18930748,0.09121746,0.0607967,-0.17926776,-0.04551016,-0.023370696,0.26905817,0.2344313,-0.3197918,-0.005396815,0.2790415,-0.17833476,-0.042598948,0.12129968,0.30121693,0.23748983,0.12532185,0.15121229,-0.1685522,-0.005861325,-0.046658613,0.012935819,-0.057348486,-0.18981323,0.14619803,0.09163689,-0.0680568,-0.02080143,-0.16408291,-0.099059604,0.0614963,0.112550005,0.20588097,0.30535686,0.12943965,0.10863669,0.1024662,0.042082395,0.14506626,0.21610247,-0.04427403,0.25370154,-0.13060364,-0.17816058,0.0050907456,0.028126348,-0.018863354,0.16729726,-0.25478014,-0.009008814,-0.0829014,-0.011988746,0.17634459,0.06657426,0.003071147,-0.31792313,-0.05518081,0.30602133,-0.020462854,0.07013135,-0.120395765,-0.27153373,-0.07206577,0.25982177,0.09984692,-0.032789573,-0.112448655,-0.15289757,-0.27285618,-0.106414296,-0.0022374447,0.09706808,0.22921516,-0.22267543
-0.040120725,0.24385653,0.23903932,-0.048510637,0.17857479,-0.11217757,-0.2783024,-0.25651208,-0.13017271,-0.027413383,-0.09739444,0.03635464,0.038832106,-0.12349451,0.056072496,0.0049240757,0.21311527,0.020788249,-0.046377078,0.012459598,0.19991498,0.02003239,-0.17893931,-0.21202528,-0.10805338,-0.18719973,-0.010875866,0.0037623842,-0.21167551,0.013187149,-0.21747379,0.118353225,-0.03446434,-0.11372291,0.017251272,0.10790295,-0.026490144,-0.057480045,0.22352228,0.101390675,-0.17199038,0.1187537,-0.014131228,0.25650296,0.010978783,0.2661519,0.025324602,0.044976126,0.14086927,-0.042185526,-0.09434535,0.15687174,0.035564527,-0.042071287,0.19477235,0.14937118,0.079926066,0.2996072,-0.09471427,0.054395594,-0.1336423,0.15301171,0.0617758,0.12046278,-0.2894062,-0.18114233,0.041475922,-0.079700455,0.05254052,-0.010849446,0.07837299,-0.025601387,-0.0049021244,0.0044106334,0.0023570166,-0.058001332,0.31043082,0.036670614,0.23383969,0.00866282,0.029142253,-0.059033554,-0.0045826095,-0.13022907,-0.2861994,0.26346794,0.012595364,-0.17748329,-0.34166345,0.08394205,-0.07060984,-0.09983625,-0.0775558,0.18354157,0.27879548,0.07751303,-0.2938296,0.035714727,0.01731159,0.101363726
0.13914928,0.17002675,0.054697473,-0.043038514,0.19193847,-0.06366609,0.12128048,0.27649227,-0.1376332,-0.16810136,0.035579745,0.10528938,-0.26665854,-0.11613687,0.055596687,0.28789353,0.14380497,0.21350616,-0.077696994,0.0030914885,0.059189588,0.09982934,-0.15099356,-0.08582242,-0.2688158,-0.032424532,0.20157968,-0.13020022,-0.28609225,-0.23795773,0.045301426,-0.10305527,-0.099039085,-0.31434217,0.043446466,-0.08171424,0.12852168,-0.06790873,-0.13816221,-0.112774946,0.30386353,0.29569963,0.0051961,-0.30720213,0.014837424,-0.03267734,0.22729948,0.023408104,0.23002717,0.21202396,-0.00043694454,-0.078411065,0.22386594,0.08463103,0.04935758,0.2862501,0.16260916,-0.0019912985,0.118948,-0.010938211,-0.27797377,-0.16865256,0.15711464,0.2780074,0.09476343,0.2305606,0.16339612,0.06041393,-0.081017286,-0.104616,0.0034867192,0.26628998,-0.17974894,-0.10833372,-0.054345973,-0.015858239,-0.010395992,-0.23559679,0.0065873587,0.1880039,-0.26749074,-0.20950013,0.20998478,-0.13338242,-0.141274,0.19340675,0.065115884,0.31473562,-0.015084558,0.05526868,-0.12114238,-0.12522717,0.08497356,-0.16155729,-0.21292712,0.047115378,0.00484021,-0.050495952,0.11166938,-0.08475616
0.00017907696,0.18070927,-0.02343644,-0.006707747,0.19846834,-0.017458849,0.094893076,-0.07820743,0.17208835,-0.19089718,0.11537403,-0.19340615,-0.18006283,0.17793456,-0.09704971,0.2684617,-0.091848254,-0.22627243,-0.15105909,-0.02880073,-0.07157087,-0.03776103,0.17050962,-0.09621707,-0.12804422,0.12270986,0.11267082,-0.28932443,-0.061107114,0.06385861,0.17587824,0.02281689,-0.01823494,-0.21679081,0.25525177,-0.14493197,0.20690836,-0.14917646,0.0045910645,0.0211926,-0.032019664,-0.13008197,-0.1333024,-0.056230728,0.03791993,0.15002581,-0.20459758,0.16880858,0.23120563,0.0048816567,0.19021182,-0.027890202,-0.2113913,0.053432956,0.04093061,-0.11448176,0.023517525,-0.21525657,0.28381437,0.033544816,-0.05820395,-0.020078994,-0.1087309,-0.004930673,0.05651713,-0.10845032,0.098296314,-0.07887673,0.09636377,-0.09768368,0.16823336,-0.016563429,-0.12115711,-0.13024832,-0.027038153,-0.0719181,0.18805873,0.12218756,0.2212556,-0.036457457,0.001416997,0.14713392,-0.095994,-0.043174155,-0.01974851,-0.029446173,-0.0135943135,0.006284642,0.021190258,0.2870951,0.05766426,0.028219905,-0.16863349,0.046615127,0.034090854,-0.09443231,-0.10326259,-0.17925964,-0.10568806,0.06645253
-0.2437205,-0.002731299,0.075834446,0.04601061,-0.0013440116,-0.13701631,-0.16621292,0.10231618,0.057427265,-0.041208614,0.23077027,0.25724274,-0.09105362,0.24405646,0.25386602,-0.058771193,-0.30690557,0.25755355,-0.104705065,0.038339887,-0.09408184,-0.11408586,-0.10961806,-0.017837917,-0.14735089,-0.12861115,0.121220775,-0.104058236,0.048365783,-0.0059668818,-0.059241906,-0.2629898,0.008226585,-0.18106636,0.19948399,-0.0576369,0.12280346,-0.20402227,0.008940464,0.1088263,-0.2740411,0.055363454,-0.082986124,-0.052200615,-0.0024771267,-0.16188088,-0.16996175,-0.012991898,0.1730033,-0.25091228,0.07474452,-0.07653489,-0.019194568,-0.0127839595,0.060442902,-0.020073598,-0.054408032,0.196302,-0.08905737,0.20470123,0.24467392,0.07428614,-0.12717375,0.03346752,-0.0017069527,0.17999485,-0.083362356,-0.03481942,0.032324277,-0.24689454,-0.08189813,0.10194455,0.03417366,-0.0039221225,-0.065311015,-0.09683369,0.09892289,0.11749025,0.089328356,-0.22271082,-0.19081412,-0.13944274,0.072390296,-0.2152754,0.1549133,-0.058267385,0.11206997,-0.026311316,-0.041523904,0.13749275,-0.09892582,-0.061198752,0.146739,0.074305005,-0.15015718,0.2492958,-0.00020658385,-0.21195912,-0.15560275,0.08754862
0.029674405,0.15021281,-0.17641193,0.21129231,-0.107469805,0.122304395,-0.08566342,-0.032638818,0.033765275,0.029022321,-0.03221345,0.16362874,0.042958554,-0.13775149,-0.0563747,-0.08823447,-0.19997208,0.23730673,0.00442478,-0.02931127,-0.20071189,0.2408403,0.29971397,0.2776478,-0.06878277,0.30293244,-0.13639651,0.013299739,0.18274717,0.14838685,0.26041386,-0.20190136,-0.10028777,0.11913077,0.23919408,0.21596374,-0.006021037,0.12278005,-0.08726485,-0.07902277,0.15293707,-0.027486358,0.045320578,0.05380658,-0.17130981,-0.13703363,0.021222174,-0.04830626,-0.045009688,-0.23779282,-0.15804918,0.015743256,0.013675751,-0.099689126,0.24297917,0.026353536,-0.08365488,0.2784781,-0.14481725,0.19402222,-0.13362041,0.033520676,0.023380404,-0.010651643,-0.02700462,-0.008622742,-0.24606797,0.22629793,-0.07230015,-0.028504714,-0.20406128,0.010518358,0.22066815,-0.10117,-0.051089503,-0.1353663,0.17435054,0.088107795,-0.25336084,0.20061496,-0.17954974,-0.040295396,-0.2559588,0.12627265,-0.11034402,0.006867401,-0.114735715,0.21687342,-0.021000324,0.10352239,-0.2940502,0.26701462,0.2486057,0.043701872,-0.077023886,-0.173986,-0.10923661,-0.21361692,-0.015471639,-0.21734755
-0.04873233,-0.04556068,0.04524301,0.09743539,0.18339793,0.14791697,0.08785658,-0.15010513,-0.2501558,0.32473287,0.043454867,0.15043841,-0.063834496,0.006749464,0.048169274,0.14858773,0.06696601,-0.18064252,-0.024606004,0.12051932,-0.07828285,-0.16835977,-0.08201621,0.017961843,-0.086144365,0.014943847,0.12094322,-0.13712542,-0.14487867,-0.049577065,0.2006882,0.040357735,0.026018187,-0.083387725,0.18128589,0.033086862,-0.0709313,0.07524705,-0.17648882,-0.052002583,-0.0030327574,-0.11506309,-0.1995166,-0.21827014,-0.0046120468,-0.057806086,0.1649749,-0.15397568,-0.026408853,0.23141424,0.06724012,-0.088404715,-0.00486351,-0.09165374,0.25904572,-0.029640242,0.2015688,0.0802637,-0.24711825,0.18962641,-0.15776607,0.08331385,0.15335143,0.07436609,0.28990036,0.06637385,-0.010920148,0.0026494237,0.0240734,0.088747285,0.18111522,-0.06279568,-0.2765121,-0.014693182,0.026575468,0.2743887,0.16124862,-0.052607045,0.008065792,-0.15077932,0.18080953,-0.05024185,0.09350254,0.110219166,0.21979104,-0.10669533,-0.010836114,-0.07312248,-0.15172157,0.10512071,0.08853103,-0.05598914,0.00046231152,-0.10841084,0.27288994,-0.03534403,0.083765715,0.23525926,-0.12867023,-0.14910921
-0.13018216,0.27203557,0.042919777,-0.013097684,-0.1279332,0.2125748,-0.030617628,0.09791959,0.004240089,-0.070306346,0.017164439,-0.09026567,-0.17451951,0.06931859,0.020367146,0.19128439,-0.08053502,-0.10209395,-0.006534607,0.1278991,0.09254253,0.1426549,-0.11601261,-0.13665232,-0.042277098,-0.030552955,-0.0059218956,-0.009316601,-0.24076803,-0.06386243,-0.18119165,-0.13868317,-0.053215668,0.08396019,0.068094544,-0.007939682,-0.01912624,-0.11875947,0.18208416,-0.11445872,-0.07435848,-0.18622532,0.08214529,0.11492891,0.09030069,0.29858127,-0.08127645,0.11123453,-0.054776926,0.040352065,0.12373904,0.06363279,-0.32205942,0.20314418,-0.05198432,0.14396416,-0.14970496,-0.19831675,0.093077764,-0.12150427,0.10466773,-0.1000515,0.0406969,-0.070231065,-0.28643575,0.10996849,0.06440842,-0.24715498,0.00076019886,-0.039382648,0.13343346,-0.1370796,0.08024065,0.26083148,-0.040344905,0.13546942,-0.058055054,-0.047632612,-0.089129604,-0.1453852,-0.19574372,-0.03104332,-0.015537021,0.14547555,0.04017042,-0.15713038,-0.010375658,-0.23532617,-0.09038921,-0.07180978,0.113817856,0.28119627,0.033171754,0.29915366,0.06255732,-0.031984203,-0.06327302,0.19737932,-0.29223457,0.23513493
-0.087673955,0.1429983,0.11997986,-0.10920056,-0.16940683,0.23638852,0.23798577,-0.13988283,-0.31352934,0.07006099,-0.10791219,0.19779529,0.0052756,-0.23427464,-0.110529155,0.1758518,0.03471619,-0.1002203,0.05055701,0.25582582,0.2386441,0.02389165,0.013683802,-0.10641868,-0.22460873,-0.20449136,-0.033986762,0.18424976,-0.07958604,0.19945438,-0.0130705815,-0.29865092,-0.18389174,0.06402817,0.019537363,0.03458435,-0.10093252,-0.103412665,-0.21482648,0.04003631,-0.09936864,0.13013716,0.025819095,-0.18635444,-0.22205679,0.2666555,0.14690882,0.13286397,0.09307832,0.18096611,0.09978445,0.04207207,0.060923837,0.045904167,-0.20668006,-0.078605495,-0.025509445,-0.09359238,0.17066266,-0.20728326,0.16440575,-0.030155413,0.18204728,0.16805868,-0.1744532,0.17272775,-0.13898489,0.21889885,-0.11064709,-0.06281635,-0.16226277,0.08160311,-0.0839777,-0.057541218,0.18845698,0.0050118826,0.04217292,0.0058908286,0.026438547,-0.27635685,0.050595336,0.10167979,0.15182604,-0.07109857,0.23204477,-0.1078348,-0.025245734,0.029975893,0.088089064,0.31867805,0.038873564,-0.18987545,-0.16361609,-0.16209914,-0.1296315,-0.08320099,0.20900805,0.09745169,-0.017775683,0.22107188
0.085825525,-0.06899857,0.037245087,0.14479019,0.16355987,-0.23335417,-0.12163765,-0.17788415,0.10881479,-0.02365121,0.074575976,-0.115003236,-0.056741625,0.004211967,-0.032211747,-0.10911179,-0.06333923,-0.009046093,0.20521642,-0.16045769,0.16125958,0.053994928,-0.13580033,-0.107076906,-0.27451074,0.13053995,-0.018371306,-0.035977002,0.05581318,-0.13508208,0.2712486,0.02202833,-0.042304378,0.027355013,0.14166702,-0.23296924,-0.1140839,0.099787496,-0.033595532,0.22350729,-0.18173136,0.11384164,0.2017824,0.0005651544,-0.03624037,0.19093418,-0.1292987,-0.2326018,-0.02926902,-0.007581336,-0.30180284,-0.04682312,-0.051102687,-0.16305082,-0.0006133994,0.26518995,0.26572105,-0.032190666,-0.11517833,-0.17478466,-0.2241925,0.31025708,-0.1548081,-0.2618829,0.14155534,0.19747077,-0.0887526,-0.01617342,-0.22496021,-0.14783217,0.057324573,0.014443091,-0.09154698,0.050795197,0.19205676,0.06599905,-0.046240985,0.015917327,-0.08243915,-0.11003143,0.05415506,0.07033768,0.0956762,-0.09978424,-0.05182232,-0.0099020135,0.102539666,-0.001788227,0.06023591,0.07072507,0.23432551,0.18987581,0.20370604,-0.18092562,-0.052581836,-0.17575678,-0.028853066,-0.1633492,-0.018636344,-0.0014253228
0.26583913,-0.07720815,-0.10182162,0.079435624,-0.07380172,0.029308503,-0.27989933,0.22665642,0.24338658,0.0318531,0.043658916,0.062847145,0.14581601,0.10610102,0.026041009,-0.16108347,0.055595692,-0.17094214,-0.018201763,0.062029473,0.130387,-0.21137452,0.2462851,-0.095446594,-0.03890464,0.10960551,0.110928565,-0.18521586,-0.11596941,-0.1599926,-0.1460939,0.14461324,0.12820598,-0.11936413,-0.038998876,-0.080886476,0.047169622,-0.028989559,-0.010000473,-0.10619924,-0.017512381,-0.005883057,-0.1414691,-0.036528222,0.050444182,0.05428889,0.3062384,0.19073528,-0.093208045,0.0602091,-0.06808467,-0.189274,-0.15351264,0.0014286408,0.087082475,-0.10715936,-0.040826958,-0.049681697,0.18235543,0.15435873,-0.25533235,0.09583504,-0.06522585,-0.13021444,0.050575387,0.10598063,0.2553468,-0.29047137,0.13578469,0.2488268,0.09081493,0.15556532,0.13426474,0.12150869,-0.0397745,0.16238889,0.097413376,0.06573128,0.07643684,0.010353425,0.18232167,0.150228,0.055047847,-0.04591586,0.0019348899,-0.11075794,0.26327103,0.017428916,0.18388325,0.008126507,0.13041385,-0.03159688,0.011533667,-0.12991805,0.020804927,-0.0424287,0.20958255,0.053704068,0.0724883,-0.1543366
-0.11935729,-0.12812714,0.018145835,0.12555641,-0.25799787,-0.0289214,-0.10442638,0.14429334,0.12581383,0.26159206,-0.07194205,0.1666293,-0.24532607,0.16800901,0.046984617,0.07052371,0.16664127,0.08862144,-0.024229692,0.11643582,-0.11749843,0.2827056,-0.058370538,-0.14486225,-0.11118904,-0.09147847,0.08043241,0.19380629,0.13644968,-0.16554141,0.031544928,-0.037360895,-0.054775245,-0.11585905,-0.14965695,-0.042875282,-0.08153582,-0.07776705,-0.10338203,-0.11038639,0.011392255,0.17849648,-0.03193152,-0.048043787,0.13312462,0.29027358,0.11745391,0.20295063,-0.13283534,-0.14024061,-0.022633584,0.09151538,0.16594368,0.22189362,-0.055644177,0.06536607,-0.19239464,-0.20743535,0.15350434,-0.00043642556,0.087585494,-0.1241875,0.10046277,-0.13624765,0.085949436,0.1888669,0.28959602,-0.11870565,-0.10083037,-0.15618919,-0.07030488,0.054013025,0.10792132,-0.23768629,-0.14710669,-0.2962453,-0.015914958,-0.020444993,0.034300487,0.011864883,0.049665492,-0.066748835,-0.13495813,0.06761228,-0.14997374,0.1652348,-0.11557059,0.114987135,0.073314436,-0.2931796,0.021628868,0.2911057,-0.12816519,0.23130561,0.15797064,0.039120607,0.26876864,-0.039927334,-0.09274236,0.15198116
0.10030709,-0.15539637,0.030397018,0.014691853,0.0767488,-0.022240952,-0.045623973,0.23204575,0.27763358,-0.12287793,-0.07572042,-0.2320945,-0.18916339,0.029781653,0.13586245,0.2631134,0.0020050795,-0.19599003,0.1737265,0.100344546,0.06691126,0.05340626,0.24739611,-0.25971293,0.1833326,-0.17255755,0.19471352,-0.038632587,-0.06713807,-0.06624369,-0.17560153,0.20406611,-0.05890276,-0.10446009,-0.2612799,-0.07236925,-0.052077185,0.28211233,-0.25653726,-0.2689427,0.09983941,-0.07428361,-0.02879467,-0.20117208,-0.07186706,0.11011717,0.11634259,0.10002167,-0.04380696,0.12948866,-0.27754414,0.25374353,0.1273433,-0.19860835,-0.02985431,-0.1228269,-0.15927437,-0.30682757,0.14114468,-0.18963471,-0.27335835,0.14091262,-0.16356927,-0.1481761,-0.17685412,0.09664921,0.03410126,0.055356614,-0.119734414,-0.2122059,-0.14439702,-0.069655836,0.06532307,0.10144978,-0.23547758,-0.05087546,-0.18455307,-0.031613167,-0.1107565,0.13381736,0.12740305,-0.048163775,-0.069365844,-0.01855982,-0.030589767,0.2515429,0.23312764,-0.24851063,0.19218655,0.09151726,-0.10841492,-0.0063282982,-0.1406113,-0.21414895,-0.009339601,-0.010262556,-0.11403596,-0.32652813,-0.103948526,0.19735484
-0.25072122,0.25202563,0.049816865,-0.10902554,-0.22468019,0.16488767,-0.13859619,0.11726868,0.13767444,-0.14535391,0.12922524,-0.11325728,0.06569809,0.112705365,-0.17102586,-0.100977436,0.043800313,-0.06555617,-0.1400893,0.024057552,-0.04289587,0.1576063,-0.31999192,-0.14427061,-0.14304918,0.16047598,0.14730476,0.041994136,0.014863589,0.1917258,-0.004519631,0.094751775,0.004087308,-0.26347986,-0.047027897,0.26445392,-0.13574639,-0.03221787,0.029365987,-0.25357905,-0.07932802,0.103728145,-0.037836917,-0.06750869,-0.07723507,0.08367402,0.058767952,-0.0102276,-0.08862253,0.0040979167,0.19754748,0.15845318,-0.13209185,-0.08358042,-0.25013223,-0.09475399,-0.14942914,-0.18499893,-0.2505203,-0.024842072,-0.26984277,-0.19859028,0.08296372,0.071929686,-0.30361095,-0.086573206,-0.22260082,-0.15575688,0.10130895,-0.017082233,-0.0003467801,-0.10825778,0.10003722,0.082428694,-0.14751118,0.021403087,0.09826312,0.059417326,0.21247217,0.07988501,0.25448042,0.1496659,0.12765756,0.18835868,0.033847403,0.28165677,-0.107132755,0.050299425,0.30045208,-0.028597515,-0.13546343,-0.019325424,0.13429649,0.13255933,0.07173079,0.10223569,0.110472046,0.1500178,-0.018007893,0.11869394
0.17234935,0.07298795,0.24510063,0.1946981,-0.0018829234,-0.23672387,-0.18436858,-0.15376726,0.29120702,-0.044031307,-0.018629218,0.005696054,-0.16056073,-0.0015210882,0.14264818,-0.1330596,-0.2515004,-0.16115625,0.06141012,0.02315184,-0.05871068,-0.105655074,-0.1418716,0.0065153427,-0.18343286,0.23250084,-0.01529244,0.12263619,-0.07070411,-0.095308185,0.10075631,-0.043092865,0.015335772,-0.25203362,0.18328305,-0.07857715,0.21102078,-0.18012011,0.09466872,0.049463447,-0.012412514,-0.09799549,0.04993505,-0.15234534,0.036585025,-0.16808166,0.26521143,-0.19133724,0.037358996,0.116126485,-0.14921148,-0.18977496,0.01847775,-0.08046114,-0.04458809,0.043705344,0.020944934,-0.26763275,-0.08248969,0.1097816,-0.051952742,-4.3638873e-05,-0.26863354,-0.101346515,-0.19313234,-0.050888103,-0.020821711,-0.07991601,0.07072993,-0.19125617,-0.12355029,0.18326291,-0.02809389,-0.067043364,-0.074899234,0.037901714,0.14143567,0.02766687,-0.3264394,-0.10257512,0.06313838,0.14028807,0.052460678,0.091383345,0.25492296,0.18585601,0.08438141,0.1968433,-0.21312474,-0.0860257,-0.2871961,0.23754267,-0.17317054,0.10287965,0.101016216,0.046912745,0.24136983,-0.031991847,0.114786364,0.23591883
0.301254,-0.1748542,0.10261429,0.20669545,0.05210964,-0.24318975,-0.10207869,0.04360874,0.23297387,-0.24337651,-0.14156677,0.115973145,-0.22410113,0.108099274,0.06148046,-0.31286594,0.048389718,0.23181354,-0.03419846,-0.3085711,-0.04985473,0.13714571,-0.21113251,0.08273651,-0.08857931,-0.16889389,-0.023826616,-0.24297014,-0.006251084,-0.048875697,0.08643308,0.2690142,0.0831593,-0.17199728,-0.050771266,0.03768679,0.24414691,-0.15162648,-0.1703482,-0.013062035,-0.12963367,-0.18104754,0.1309883,-0.11587022,-0.11287298,-0.14711331,-0.2278307,-0.06811993,0.10388281,0.15135254,-0.29666686,0.16620182,0.046108022,-0.059695892,0.24594975,-0.17231415,0.05131996,0.07997272,-0.08799123,0.12887949,0.003116203,0.15474871,-0.12918676,-0.12074927,0.10273236,-0.0008172141,-0.06757098,-0.12028439,-0.04877975,-0.10345323,-0.20134194,-0.29464296,0.24089201,-0.040121246,0.24006635,-0.19702323,-0.11019325,-0.11754969,0.102126956,-0.094438724,0.12805472,0.26393917,0.21033075,0.10662058,-0.07397111,-0.121288024,0.038015634,-0.23043859,-0.2262179,0.0547723,-0.07684324,0.13428387,0.0014635065,-0.09498801,0.010462069,-0.019781923,-0.19061437,0.11836542,-0.25593778,0.2640977
-0.09228294,0.22334489,-0.43955293,-0.110722885,0.15172969,-0.024454648,0.05428795,0.005217815,-0.14679904,0.1604246,-0.2834377,0.086763404,-0.30033523,-0.03783943,0.05988827,-0.17917714,-0.103407465,-0.2759699,0.050586965,-0.06689862,0.001594025,-0.15103234,0.014142615,-0.21292044,0.08178752,-0.060712602,-0.077742696,0.053362556,0.11299114,-0.19335397,-0.008567587,0.011953507,0.010767105,-0.14069226,-0.07914174,-0.10546529,0.29847592,-0.081183754,-0.10593451,-0.21706297,0.049482692,-0.19725277,0.104401566,0.018565698,-0.16933009,0.03573205,0.08567553,0.118483074,0.05768539,0.3693854,-0.020380024,-0.13551688,-0.18382005,0.0066462057,-0.22726284,-0.08649754,0.06763555,0.16709623,-0.16433738,-0.06344136,-0.3054264,-0.08526749,-0.1574561,0.123770565,-0.08911531,0.17916839,0.035828486,-0.12221925,-0.16721931,0.11888174,0.1075959,-0.096655145,-0.021688636,-0.15787566,-0.1969755,0.07978873,0.16812602,0.24224228,0.09580121,0.04390344,0.09913151,-0.035367135,-0.045456156,-0.1722978,0.29432368,0.25350514,0.13579863,0.07239106,0.1757828,-0.0607822,0.005520568,-0.24278212,-0.11006094,-0.30950433,0.29517058,-0.18897063,0.12844215,0.024717733,-0.21200141,-0.19669384
0.04791577,0.116636336,0.053036112,-0.14916809,0.013535086,0.13725027,-0.036807608,0.14083481,-0.26723683,0.18881592,0.037763663,0.1552335,-0.007823839,0.09316349,-0.014769493,0.13565904,0.09439185,-0.06437507,-0.13174209,0.05877326,0.07063944,0.2909516,-0.017593704,0.15703815,0.1507196,0.04900166,0.04112465,-0.05347751,0.00042916418,-0.16211766,0.08082582,-0.07866211,0.009519749,-0.028307127,0.14634393,0.051832356,0.033798486,0.1515305,0.061383784,-0.028656151,0.020302542,-0.25076818,0.05388078,-0.10535657,0.0024441562,0.089241676,0.072272755,0.05185037,0.31423464,-0.023054425,0.028379159,0.01871796,0.14171508,-0.23313783,0.11316101,0.018965457,-0.100614764,0.28859538,-0.1516311,-0.167098,0.020134287,0.057771694,-0.2029537,-0.116492726,0.29929632,0.15890473,-0.15029104,0.08557853,-0.063505195,-0.08971779,-0.0804642,-0.08342422,-0.20369011,0.033804934,-0.08224564,-0.007920844,0.06831643,0.12214202,-0.058405742,0.19738176,-0.18098849,-0.15987703,-0.21973836,0.20066608,0.07092773,0.07007729,-0.12988439,0.18387417,0.00034135385,-0.12023553,0.08416861,0.19274546,-0.09425953,0.0017408797,-0.19939037,0.08744735,0.16032843,0.10538187,0.035445724,-0.27583668
-0.006351777,-0.08509025,-0.058044743,0.112218365,-0.05283559,0.008020139,0.10835032,0.09191434,-0.18868263,-0.03901484,0.28164193,0.1830733,0.28413478,-0.039601833,-0.024255687,0.0027932655,-0.23489079,0.078975245,0.24055557,0.16488776,0.18231708,0.09156534,-0.022606652,-0.13439478,-0.117865324,-0.21318942,0.04685894,0.29748657,0.05460173,-0.13566196,0.084945984,0.21723841,-0.18258357,0.020850657,0.1378485,0.16653252,0.0011130045,-0.2546724,0.04787783,0.11340494,0.17640737,0.07553424,0.2028835,0.047945354,0.17230582,0.11099962,-0.13761248,-0.16940677,0.16688494,0.03958313,-0.25808206,-0.21743633,0.21791023,0.14903902,-0.3254651,-0.20598513,0.19797091,-0.035169285,-0.14266014,0.16391578,0.12505381,0.16232327,-0.08070271,-0.16534953,-0.12685923,-0.0508477,-0.16747147,-0.031280026,0.26024562,0.10647252,0.042589735,-0.037394408,-0.06070773,0.057669558,-0.13628833,0.046089105,0.21493326,0.14379135,0.093423,-0.13733865,0.041841097,-0.14051415,-0.009812233,0.04928107,-0.074094415,-0.009019741,0.1717262,0.025397724,0.09336214,-0.13555819,-0.017168729,-0.027886739,0.0394229,0.070697926,-0.27774137,0.29871768,0.2248295,0.08504768,0.17170028,0.046343867
-0.13273744,0.00039595112,0.12880671,0.04434339,0.26250672,-0.15358236,0.21904573,0.113205746,0.013920638,-0.028569845,0.28708538,0.26405135,0.1928412,0.20787184,0.034628503,-0.07623733,-0.16223831,-0.042991597,-0.24960351,0.20199892,-0.022671603,-0.10065398,0.1629638,0.049199462,-0.1060162,0.14738156,-0.27703896,-0.26455,0.16962585,-0.123472944,-0.09620796,-0.26280096,0.29664832,0.13744718,-0.04243419,-0.09032589,-0.00020451519,0.05311355,0.13052487,-0.113757774,-0.07852392,0.28523737,0.290503,-0.06816587,0.053399,0.113263085,0.10063928,-0.08766996,0.10918785,-0.24728188,0.22743662,-0.051844053,0.15727212,-0.16115706,-0.15489401,0.096881054,-0.09215257,0.18308571,0.042442296,-0.11202817,0.22853376,-0.22737603,0.018151436,-0.015628405,-0.019768368,0.018279782,-0.039381236,-0.024931084,0.069677636,0.18511759,-0.081122294,-0.011888033,0.10756845,0.057066772,0.10255106,-0.2673916,0.034964737,0.012897326,0.077541746,0.14705396,-0.30176708,0.10121957,-0.22125538,-0.043056056,0.29626396,-0.048390206,0.02455383,0.111853376,-0.11257864,-0.035237152,0.010149562,0.2024606,-0.021732194,0.15856734,-0.061598413,0.1289244,-0.09047551,-0.09684676,0.16673574,-0.23325518
-0.0068133576,0.05869195,-0.13812946,0.037518058,-0.07260779,0.0058042356,-0.031495616,0.08765093,0.02827191,-0.19094345,-0.037159834,0.05652567,0.019583525,-0.09061856,0.13916034,-0.16260114,0.03585166,-0.09595555,-0.0659466,-0.03010224,-0.2345716,0.2673836,-0.1697096,0.00030879176,-0.17531767,-0.07393327,0.042408902,-0.027801374,-0.09008493,-0.1293629,-0.068521306,0.16587104,0.16646501,-0.11553545,-0.03604996,0.030766195,0.029724922,0.14242893,0.24554032,-0.028851857,-0.093033046,-0.07614325,0.089003235,-0.20718597,-0.25023183,-0.14040662,0.017664995,-0.034060933,0.28568533,0.07079735,-0.061229713,0.0669697,-0.056519534,-0.1424575,-0.02193092,0.026155839,0.07693811,0.113906026,0.004968197,0.15434927,-0.023856007,-0.22683506,0.092579514,0.2934038,0.04305657,0.14317758,-0.061783887,0.30325684,-0.11132629,-0.06292343,-0.16558467,-0.28926605,-0.01113927,-0.15138799,0.08170444,0.10083268,-0.058477934,-0.08774968,-0.0777407,0.026687322,0.095829785,0.124134146,-0.19073413,-0.07350501,-0.19902366,-0.08543042,0.15556484,-0.15068823,0.006164818,0.09169271,0.07332785,-0.25905907,0.07813996,0.008807169,-0.119546674,0.08482909,-0.28707045,-0.2450907,-0.10356579,0.23938742
0.0334074,-0.1817973,0.103018396,0.025231233,0.07872105,-0.13774645,0.21904491,-0.09884505,0.02163231,0.07798302,0.06270614,-0.10520973,-0.07946891,0.06558522,0.16717285,-0.10009772,-0.032247707,-0.016659938,-0.13643202,0.032258604,0.29358977,-0.059301987,-0.0031310124,-0.13399585,0.312558,-0.04222978,-0.0030484856,0.17060737,-0.28213727,-0.040806036,0.27835855,0.27518234,0.080245405,-0.033953615,-0.04310171,0.1689454,0.054391544,-0.038620133,-0.026162341,-0.22776277,0.18183371,-0.03225007,-0.0682565,-0.12948652,-0.06470076,-0.04290369,0.0063358247,-0.09171214,-0.061026085,0.13761216,-0.020365378,-0.19344328,-0.074298225,0.061807446,0.19778381,-0.29346204,0.08670358,0.031410586,-0.23163465,0.14628986,-0.12779449,-0.22494616,0.021446051,-0.0992668,0.3020223,0.31584686,0.04915143,-0.09349954,-0.23938157,0.04320708,0.007878673,0.12235638,0.009759155,0.1182672,-0.07477899,0.068395905,0.045662615,0.21054547,-0.27217185,-0.02210861,-0.114183426,0.23376063,0.17044199,0.14295565,0.11561832,-0.10301973,0.09143541,-0.09550341,-0.019407053,-0.01684103,0.0040259575,-0.10910368,-0.082005315,-0.008799779,0.030066893,0.08816873,-0.13242517,-0.056824613,-0.18163025,0.039090913
