0
-0.008349494
-0.007219273
-0.011066461
-0.017616825
-0.0058836318
-0.009611548
-0.003945768
-0.0019356448
0.11584476
-0.02563897
-0.01132712
-0.007202825
-0.0018184396
-0.0048198146
0.0023598527
-0.0070148734
-0.027430795
-0.02079223
0.027262768
-0.0070005343
-0.01719884
-0.0037221399
-0.008615751
-0.0051851654
-0.016235238
-0.00031805324
0.012570268
-0.017445916
0.002134488
-0.00888555
-0.006359151
0.011614359
-0.013186649
-0.003951301
0.020140769
-0.001630046
-0.006692867
-0.011599325
-0.0022053616
-0.00947961
-0.0053327805
-0.017654609
-0.022274392
-0.009647136
-0.008556007
-0.0128800385
-0.002314356
-0.0046760947
0.0036537445
-0.0011780635
-0.01594457
0.0073051173
-0.0049114116
-0.024582189
-0.006235683
-0.011521427
-0.00908613
-0.0050723194
-0.022148158
0.0031665938
-0.004898103
-0.013861772
0.021767605
-0.010606502
-0.007859716
-0.0007694578
0.013928855
-0.008901318
-0.012695856
-0.012280751
-0.0029290677
0.012523363
0.0018867069
0.0013214013
-0.016883748
0.005006197
0.0019099852
-0.02572522
-0.0071388623
-0.006507009
-0.0042105457
-0.0035960947
0.00075167173
-0.0058193733
0.006175641
0.021169702
0.0021410235
-0.0012049184
-0.009722062
0.004761668
-0.005217005
-0.0144270975
-0.017519405
-0.0031234804
-0.006829076
-0.006540446
-0.011832019
0.009439519
-0.01606411
-0.006739576
