0
0.0049729804
0.009265146
0.0026192856
0.0012822605
-0.0032206618
0.0022702161
-0.012780551
0.0071178055
-0.0031016055
-0.0015865128
-0.002186268
-0.012434279
0.016507406
-0.013614406
-0.0069725784
-0.024070745
-0.029631825
-0.0028436906
0.022193937
-0.007315005
0.004660897
-0.010225538
-0.014347315
0.0045427848
0.0051655606
-0.006971658
-0.008170561
-0.0069865924
-0.0016599287
-0.010794712
0.0049256473
-0.011369066
-0.008308627
-0.0057953605
-0.0068361657
-0.004487685
0.012616
-0.00976151
-0.010154961
-0.009729845
-0.04024388
-0.014809798
-1.1978669e-06
-0.013042721
0.0053294557
-0.0031967964
0.0014169922
-0.0069499225
-0.0073038237
-0.0042313067
-0.0005610366
-0.003845425
-0.0013148191
-0.0108905705
-0.0018324832
0.037314955
-0.0032057788
0.00084395596
0.0019400322
-0.0032727327
0.008474314
-0.0060431426
-0.01510098
0.0064352807
-0.004630975
0.004922729
0.00025406544
-0.003137258
-0.006629449
-0.00023392437
-0.001976087
-0.0026892999
-0.0074219396
-0.0004092335
-0.025226634
-0.007204835
0.0137897255
0.002995948
-0.006131303
0.013026871
-0.023634464
0.0287368
-0.007676134
0.0047824886
-0.0047992975
0.0030592137
-0.009123308
-0.009261071
-0.009488654
0.010275929
-0.003799117
-0.011503994
-0.019007562
-0.014099019
-0.005767801
-0.007873421
-0.012963278
-0.013414769
-0.0070377947
0.0021128377
