0
0.019706545
-0.0039141863
0.012008431
0.009542422
-0.011973199
0.008363913
0.001449733
-0.0033768348
0.007995693
0.011371061
-0.0072873426
0.0011279361
-0.014277916
0.0049803625
-0.0049527455
-0.0048313714
-0.005487375
-0.0037711218
-0.006150444
-0.0014372265
-0.010921536
0.0072685103
0.0012319747
-0.002794045
-0.0020728095
-0.0073798583
-0.013976578
-0.014823052
-0.012762458
-0.0051694997
0.007761504
0.00861542
-0.0033495289
-0.0032435418
0.0085520055
-0.015235147
-0.0074554128
-0.0038391782
0.038541038
0.012392892
-0.013044392
-0.009436554
-0.014515423
-0.013663716
-0.0027164465
-0.00035938373
-0.011744626
-0.007775064
0.0069980226
-0.0005097809
-0.0054878816
0.0002954807
0.021018391
0.0034790728
-0.01392383
-0.0014677362
0.00772797
-0.017100537
-0.0066239797
0.0020401091
-0.00141822
-0.01044184
-0.0108081605
-0.0017248921
-0.006019631
-0.0013030682
-0.009322243
-0.008407128
0.00034583794
-0.0049542333
-0.0117520075
-0.007926547
-0.0010780138
-0.024474323
-0.00284775
-0.0011004597
-0.017102577
-0.007958579
0.0055619664
0.005760795
0.023857044
-0.011482742
-0.002573591
0.0031450414
-0.0022714974
-0.01335759
-0.041465342
-0.00059000024
-0.0048240037
-0.001062823
-0.019405453
-0.0010796282
0.0045409645
0.007392903
0.0028771365
-0.0076074456
0.017018605
-0.008419613
-0.00092984934
-0.0029916472
