0,1,2,3,4,5,6,7,8,9,10,11,12,13,14,15,16,17,18,19,20,21,22,23,24,25,26,27,28,29,30,31,32,33,34,35,36,37,38,39,40,41,42,43,44,45,46,47,48,49,50,51,52,53,54,55,56,57,58,59,60,61,62,63,64,65,66,67,68,69,70,71,72,73,74,75,76,77,78,79,80,81,82,83,84,85,86,87,88,89,90,91,92,93,94,95,96,97,98,99
0.009053275,-0.020109568,0.0063587073,0.0056007016,-0.048238803,-0.021797307,-0.008411265,-0.005614477,0.03145428,0.017262552,0.03136603,-0.012893526,0.0143704135,-0.007791173,0.03230158,0.020834003,0.0053310557,-0.008321996,0.007830616,0.03661395,-0.0040316517,0.00015577639,0.0024106167,0.006018044,0.0043584844,0.013464961,-0.050228786,0.009955667,0.01806724,-0.0066663735,-0.007548245,-0.011242445,0.04284876,0.018096058,0.006229891,-0.007789142,-0.021493737,-0.0054878285,0.013249359,-0.019735396,0.0069281124,0.02038161,-0.007632136,0.009817604,0.008096321,0.044812445,0.034226518,0.0015006728,0.018678164,-0.009462064,0.014016595,-0.0046461704,0.02549711,-0.009166894,-0.0038396483,-0.0031783218,-0.024367029,-0.009207145,0.052757166,-0.008644629,0.035620533,-0.024902567,0.008234878,-0.04072565,0.05262124,-0.025180906,0.007424784,0.010212809,0.014150332,-0.014615045,-0.016374698,-0.032989115,-0.007115074,0.025214976,0.008233085,0.015936935,0.027763234,-0.017212687,-0.00025224296,-0.017926242,0.008156228,-0.014703255,-0.022295235,0.011891291,0.01814136,0.0013151851,0.036789864,-0.01794607,-0.030874658,-0.025497837,-0.0351259,-0.021353161,-0.016174816,-0.047220778,-0.008415403,-0.004221282,0.022958389,-0.010395234,0.031469956,-0.0186434
-0.03809388,-0.057494618,-0.006777246,-0.013522274,0.050240222,-0.011890031,0.0045658285,-0.017402867,0.038800158,0.0004699466,-0.02500188,-0.05915259,0.0069346917,-0.045520592,0.010104186,-0.009039711,-0.03736733,0.013125323,-0.009337394,-0.021991143,-0.01770646,0.025758458,-0.03046198,0.040347256,-0.034277227,-0.053707033,0.04474038,0.027579477,-0.00959976,-0.03747183,-0.03187787,0.01652271,0.014218101,0.031622555,-0.020076426,-0.055717167,-0.022349639,0.033022378,0.0004064773,-0.027852204,-0.015319658,-0.040232774,0.022989081,-0.015635317,0.0012764711,0.020708468,-0.018181168,0.026557956,-0.02267751,0.011459844,-0.002432702,0.0003446847,-0.027538765,-0.0032695304,0.016329797,0.0020039957,0.01660285,0.024548732,-0.008216554,0.023170052,-0.016955124,0.036712073,-0.032704987,0.027192574,-0.025688482,-0.0124708,-0.01967193,-0.017934417,-0.015911182,0.02497952,-0.006833602,0.03792809,-0.025178999,0.056530066,0.03779981,-0.0018957275,-0.0046977173,-0.037670445,0.028440328,0.055716626,-0.027863907,-0.014976722,-0.0065223924,-0.00173759,-0.035289604,-0.013388399,-0.039383188,-0.0018402418,-0.015336538,-0.052238252,-0.03008032,0.006817598,0.025082933,-0.024118545,-0.020509636,-0.010272813,0.007112602,0.04860373,0.029210579,0.00028436107
0.020648332,0.009695043,-0.038700882,-0.042092845,0.019198582,0.013962333,0.020676387,0.01151766,-0.011090716,-0.014323856,-0.018881174,0.03396825,0.013627909,-0.008741648,0.03766346,-0.059986323,0.018172646,-0.03212973,-0.058717538,-0.017136417,0.0014502528,0.025960738,-0.014046163,0.03150907,0.009171713,0.017005567,-0.028414305,-0.01556898,0.00938634,0.006403022,-0.02016757,-0.016302817,0.0063958066,-0.0049859793,-0.035051476,0.016443854,-0.038497347,0.005539464,0.044913117,-0.0014274872,0.019159162,-0.00065704965,0.0063913325,-0.039001834,0.046764407,-0.008014738,0.003156847,0.00049908954,0.011061061,0.018199502,0.0038397706,0.0013996168,-0.0013335929,-0.047772624,-0.018150233,-0.010464224,-0.053260498,0.030690974,0.007468861,0.009436951,-0.011645774,0.015944699,-0.018708434,0.019410491,-0.036565296,-0.03735058,0.044683494,-0.036855478,-0.008755841,-0.028843254,-0.033412907,0.01410409,0.015525441,-0.016034005,0.0068498524,0.012657836,-0.049587168,-0.022790436,-0.029035937,0.033628035,0.020019874,-0.021897553,-0.008802686,-0.016600955,-0.015902419,-0.03304786,0.0066313157,0.013264302,-0.015196085,0.017412607,-0.019506445,0.035998404,0.020779783,-0.0074639497,0.010682777,-0.05093118,0.01913897,0.0016432308,0.0016999306,0.0091913445
0.03746251,-0.05756237,0.01854226,0.0009795702,0.002479223,0.025786595,0.013323642,0.044892207,-0.012000784,0.020324877,0.0053604306,-0.0031569793,-0.012380313,0.03111232,0.012884235,0.018093664,0.035756942,-0.036839265,-0.026255839,-0.05422266,-0.013212644,-0.045342084,-0.021261849,0.014729729,0.000621746,-0.0069975345,0.015950883,0.043777723,-0.01322986,-0.036703855,-0.004322782,-0.022553505,-0.008102123,-0.047304697,-0.03284444,0.00081886706,-0.005209613,0.041986436,-0.0035330227,0.0034787578,0.016692145,0.019790629,-0.00054120936,-0.024975723,0.014508777,-0.03021847,-0.04443458,-0.0038657158,0.0044919434,0.011245403,0.009328968,-0.038107887,-0.002317933,-0.0011994103,0.044889893,0.005387421,0.0043099616,0.0026872894,-0.010731096,0.03735505,0.042127088,-0.022557065,-0.00074975786,0.013611955,-0.023301547,-0.005040365,-0.020742353,-0.001687647,0.038828004,-0.008806215,-0.019917982,-0.022494387,-0.031607322,-0.027928974,-0.046495907,0.007427638,0.023096923,-0.022692423,0.012050477,0.009367626,-0.016280364,-0.0076560746,0.029051032,0.025369285,0.014801813,-0.015588575,-0.019363789,-0.03176737,0.007495999,0.03413425,0.00037513472,0.02022928,-0.032021597,-0.0034818412,0.0001546982,-0.038015265,0.016931357,-0.0052900286,0.01954749,0.009727908
0.038731284,-0.01045264,0.044668257,-0.0013421611,0.023518663,-0.024807876,0.0022243522,0.028038833,0.018954132,-0.020754475,0.015032692,-0.029910054,-0.0047894027,-0.0053788447,0.03576959,0.010082337,0.031561013,-0.039532654,-0.009432821,0.046530463,-0.05043499,0.003986256,-0.037245747,-0.009942049,0.029061317,0.030241683,-0.014108127,0.014038914,0.021907367,-0.0054667303,-0.044879086,0.023352338,0.04175458,-0.018933786,-0.026979556,0.048901774,-0.048726913,0.037536148,-0.04121004,-0.033190724,-0.039890435,-0.0155510325,0.016955042,0.0053266836,0.05345427,-0.00024858973,-0.015795557,0.0114204,0.02740485,0.030380333,0.0115360925,0.050791424,-0.016651617,-0.007182459,0.017400494,-0.015184434,0.018215653,-0.035645865,0.027905794,-0.0061979545,0.005317611,-0.021220528,-0.0044497717,0.0058895517,0.03227435,0.02460178,-0.010875006,0.004257947,-0.015076103,0.0004896491,-0.058802817,0.019628484,0.005263832,0.025689034,-0.04108147,-0.027506223,0.053178478,-0.03899025,0.03212457,-0.005148015,-0.02588621,0.021488858,-0.047352165,0.023934916,-0.011878773,-1.6479116e-05,0.024980793,0.039978493,-0.017204056,-0.0067423275,-0.0035025226,-0.00267164,-0.053429496,-0.041716304,-0.05719817,0.044602495,0.021832738,0.013434595,-0.021364529,-0.0045558927
0.020986514,-0.040037792,-0.017213823,-0.013335736,-0.02333305,0.010661629,-0.035145793,-0.033412006,-0.027550055,-0.01932386,0.0014923214,-0.01007452,-0.01945697,-0.0019647346,-0.02165893,-0.032896277,0.021838265,0.04457217,-0.046664745,-0.039543867,0.047624197,-0.008990295,0.02643779,-0.015199915,-0.013501673,-0.0036055972,-0.0019981063,0.00567275,0.019275071,-0.009015568,-0.040706825,-0.02275726,0.02911968,-0.025845243,-0.030166736,-0.020058857,0.0049354993,0.013914905,-0.0045529585,-0.02303163,-0.004915382,0.04867597,0.014001015,-0.009847188,0.010929244,0.036492806,-0.025965601,-0.0583442,-0.0035508024,-0.03714893,0.03261513,0.016873838,0.0065050903,-0.0014276892,-0.02199397,0.004052762,0.020470032,-0.033064324,-0.009824073,-0.03128975,0.034777164,0.0029585287,-0.020817112,-0.014800481,-0.019602757,0.005528968,0.034845855,-0.02016152,-0.018737108,0.019631013,-0.011356005,0.030526835,0.0059430683,-0.014866009,-0.040298346,0.011999386,0.030226002,0.003547769,0.012009611,-0.02814852,-0.017528003,-0.010173817,0.021482455,0.042463925,-0.0089226505,-0.009263977,-0.03599832,-0.019875316,0.022842,-0.004400239,0.04231964,-0.022162648,-0.04847925,-0.05600526,-0.028342204,0.0019411526,0.034971297,0.044055842,0.0062932395,-0.04676471
0.016860541,0.0025488802,0.017872255,-0.04058887,-0.016762763,-0.0125896875,-0.012113726,0.02251868,-0.03520238,-0.021067236,0.005965971,-0.006483907,-0.014845025,-0.029760528,0.018856494,-0.0073126084,0.045969717,0.031743005,-0.012983348,-0.010554036,0.03255095,0.016463293,-0.020432238,-0.01180492,-0.04660731,0.052173484,0.034375094,0.029047795,-0.006404283,0.011293653,0.006736509,-0.043115206,-0.022414235,0.00751607,0.025824616,0.0011315276,-0.015474753,0.012568852,-0.032316983,-0.010159011,0.00850041,0.0064248503,0.00057892903,-0.02149832,-0.0052177245,-0.053592302,-0.0034611742,0.0140439505,-0.008767378,-0.008322029,0.0014603138,-0.0055384217,-0.013553787,0.010668478,-0.023760175,0.028363975,-0.04746467,-0.036183402,-0.0028998998,0.01830385,-0.032611568,0.0131960455,-0.015003415,-0.0492473,0.042355426,-0.04509404,-0.007040206,0.012346361,-0.016023919,0.008730301,-0.039542314,-0.03264081,-0.029251918,-0.01259933,0.017895948,-0.015709434,-0.0073141623,0.014911035,-0.023920136,0.031334024,0.015878297,-0.034928285,0.030163817,0.016528266,-0.015110187,-0.053448334,0.012256954,0.01691458,0.016545506,-0.0035626988,0.014056542,-0.0028273927,-0.012233302,0.002341851,-0.017141193,-0.06354455,-0.013992432,0.028435962,-0.03982061,0.038713697
-0.0053690737,-0.027795065,-0.01752459,-0.028521553,-0.024901908,0.012782087,0.008421886,0.021229837,0.04092908,-0.032386277,0.024499983,0.020184334,-0.011479733,0.02272579,-0.0021969194,0.036801483,0.024637189,0.04227304,0.010546063,0.017969014,-0.00563124,-0.0013165916,-0.019623157,-0.03551707,-0.047614206,0.006421787,0.020063467,0.009439013,0.04349261,0.0128705045,-0.013282147,-0.0052297255,0.038675904,-0.05617336,-0.012558619,0.01074719,0.025210122,0.04082181,0.02556025,0.008103023,0.02848125,-0.024477428,-0.025960691,0.03402628,-0.01946905,0.011602123,0.0046256734,0.0063471287,0.0019473258,-0.005475664,0.0054129385,-0.04934333,0.0417078,0.00043690193,0.02693909,-0.016588787,0.022562217,-0.007288126,-0.03838175,-0.033834543,0.0066134003,-0.0041356706,0.011968924,-0.006120685,-0.025173247,0.04531097,0.031441603,-0.012479268,-0.025503747,-0.010305642,0.046257645,-0.0065325624,-0.036945533,-0.0011146902,0.04657769,-0.03811914,-0.039931796,-0.0002119813,0.044944167,0.014169824,0.033444155,0.00095735263,-0.03399506,-0.009664852,-0.021494852,-0.053919133,-0.03257561,-0.0052525885,0.017749542,0.018091962,-0.006624776,0.04220537,-0.0035279903,-0.011636947,-0.00048030296,0.016764304,-0.0049157576,0.025161704,-0.016282821,0.048363958
0.03110464,-0.04672345,-0.0007370931,0.025152916,0.02362308,-0.014959692,-0.033074237,0.025002316,0.009629323,-0.00091640814,-0.05224728,-0.0054787295,-0.021161081,0.036278456,-0.01101396,-3.578333e-05,-0.024674838,0.03790256,0.031982765,0.0489332,-0.019993953,-0.010682934,-0.016888792,-0.008847804,-0.01855928,0.0040779966,-0.04122223,-0.019411657,0.054157842,-0.017027175,0.031556983,-0.026268499,-0.023433197,-0.03286088,-0.014387514,-0.029015286,-0.013554623,-0.03583075,-0.02205113,-0.019315166,-0.0024786412,-0.005927684,0.010734322,-0.038639516,0.013591823,0.018451354,-0.052695062,-0.015233487,-0.03463818,-0.0477885,-0.008687172,-0.017329939,-0.008507024,0.007951306,-0.02402359,-0.019302586,0.017180512,0.02904905,-0.014731997,-0.004277503,-0.007631364,-0.007374009,0.0007763314,-0.0073617026,0.016434602,0.046636265,-0.023222597,0.02487656,-0.04805586,-0.05428841,-0.007117868,-0.046442248,-0.00021998351,-0.04681032,0.009916825,-0.038026933,0.025695823,-0.0016898225,0.005765486,-0.0139686605,-0.023933232,0.024517814,-0.020515729,0.026184613,0.04776822,-0.03319649,-0.0046077385,0.0015043097,-0.014139157,0.003020056,0.009880802,0.03421421,-0.013554844,0.024224455,0.055336554,-0.012732563,-0.022884935,0.0065688845,-0.041791245,-0.011417203
-0.021836728,0.008614411,0.010566142,-0.045270592,0.021644663,0.023110013,0.053276945,0.001292068,-0.041621715,-0.029460495,-0.031021709,-0.0059938207,0.024485504,-0.013795352,0.026432376,0.03673271,-0.02631642,-0.019605128,-0.002144757,0.05155986,-0.027495837,-0.026766581,-0.017863948,-0.041011956,-0.009498762,0.024925262,0.007970182,0.02562986,-0.0266741,-0.0037924768,-0.027279552,0.004526593,0.014446983,-0.015826426,-0.03855463,-0.026610702,0.015839783,-0.0411136,-0.009189997,-0.0505189,0.009676646,0.012230991,-0.057246976,-0.024250655,-0.020803735,-0.0022925015,-0.019124338,0.018164149,-0.0116475765,0.0061981343,-0.022017505,0.01753813,-0.0010084128,0.023501547,-0.011658072,0.028861223,0.002651381,0.007177076,0.03930234,-0.002053973,-0.00062379043,-0.029160408,-0.04033507,0.018466383,-0.057901207,-0.009218641,0.00488722,0.0038777776,-0.03401376,0.001939022,0.024043828,0.0116337435,-0.008825001,-0.023199223,0.015457302,-0.008758197,-0.0033238912,-0.03741033,-0.017733598,0.03674819,-0.03767901,-0.025862297,0.0016987044,0.0061109867,-0.028385663,-0.05499266,0.018674916,-0.046399675,0.038702283,-0.002548979,-0.0075461767,-0.0056104953,-0.031052215,0.054028988,-0.02077036,-0.04692691,-0.03324352,0.043132477,0.015153782,-0.04804178
0.009891734,0.014410204,0.020589413,0.033652857,0.025746731,0.021717327,0.024302332,0.01675696,0.04379056,-0.013012168,-0.011800284,-0.026617572,-0.0394081,-0.016578928,0.026462298,0.003744577,0.047729738,-0.0125404345,0.014568385,0.036367044,0.03416265,-0.05885657,0.0070308214,-0.01526292,0.000160851,0.0031609777,-0.033308096,-0.034033857,0.018692188,0.014662502,-0.04584985,0.028613618,0.039054975,-0.004239136,-0.008606753,-0.019593598,-0.035634626,-0.009774862,-0.01631279,-0.022060838,-0.0015199232,0.007592262,0.018543892,0.0079202745,0.019622162,0.03941929,0.0030748006,0.01379157,-0.03544892,-0.024296988,-0.017468221,-0.037475053,-0.026871135,0.01253297,0.012188965,-0.017048499,-0.008588757,-0.011753121,-0.00023580849,-0.017064704,0.0019035877,0.009490055,0.031395398,0.0245911,0.0068855663,-0.05104024,0.0069381734,-0.019466233,-0.028330764,0.03060343,0.017696142,-1.4912045e-05,-0.037069406,0.035301458,0.015062756,0.0012854384,0.0013420576,0.032409932,-0.029038312,0.027599769,-0.03553741,0.023286492,0.03370105,-0.0049100337,0.02270788,0.005345695,-0.033694338,-0.009996406,0.008918197,-0.024158562,-0.012183435,-0.00899323,-0.041264005,0.02217266,0.04491513,-0.02152667,0.00014814685,-0.040141866,-0.010391117,0.0023542005
-0.03565752,0.0036281375,0.029460054,-0.021998614,0.011268423,-0.04617664,0.00052220805,-0.008171343,0.040739227,-0.01846114,-0.046674643,-0.01678877,-0.027539346,0.053755775,-0.040222738,-0.0039198254,-0.015921123,0.037496153,-0.02113555,0.004883225,-0.003622721,-0.029427292,0.006901121,-0.026632976,0.024941185,-0.05476746,-0.029014254,-0.013260374,0.0051340424,-0.00054113654,0.034033928,0.004084524,0.06590981,0.010112087,0.044366736,-0.002241436,-0.011459067,-0.021428501,0.00054062874,0.04822415,0.02533259,-0.01676143,0.009254535,0.03745241,0.03264192,-0.0086587425,0.017547274,0.02002875,0.025981573,-0.0038515627,0.0041423356,0.01785824,0.008376467,0.031768676,-0.00088746485,0.018838549,-0.019041024,-0.0070252726,-0.034034304,0.014311546,0.038364645,-0.024406964,0.03813658,-0.023184085,0.041574586,-0.016001383,0.016816432,-0.01785653,-0.028178997,-0.017587572,-0.001793761,-0.018323353,0.009229206,0.027784627,0.013203784,-0.0122644175,-0.01516256,0.019664925,-0.013534826,-0.005748686,0.023824276,-0.05614885,0.010058822,0.0017190303,-0.0152701,-0.03412199,-0.015160847,-0.012063262,0.012010885,-0.041415837,0.02821449,-0.0036756238,-0.026716836,0.03238682,0.029033381,0.013735138,-0.02674892,-0.054712135,-0.035420105,0.0013780635
-0.012970187,-0.037382793,-0.03932536,-0.010510269,-0.031739358,0.02633589,-0.043890838,-0.0046488573,-0.0297712,0.023179974,-0.009073292,-0.028072797,0.0010896582,0.008785619,-0.049364634,-0.009525473,0.02140655,0.038056247,0.040475227,0.0064951717,0.0046934355,0.017340688,-0.018096877,-0.027413884,0.018553939,0.04589302,-0.055824425,-0.022385541,-0.039769236,0.014389946,0.0050402335,-0.023775388,-0.0041227657,-0.036804747,-0.03517696,-0.026655497,-0.042757172,0.005577352,-0.004367324,-0.022434972,-0.012390815,-0.025686523,-0.024601554,0.0057375864,-0.0409247,-0.056231763,0.0076389085,-0.025605649,0.00984176,-0.0384206,0.044746008,-0.022945188,-0.0003015735,-0.030601466,-0.03916953,0.03759873,-0.0021916516,0.0008636189,0.017527753,0.012225804,-0.0077995406,-0.060042314,-0.0042686327,-0.008203178,-0.027792873,0.019703964,-0.024176586,0.005387019,0.04609767,-0.039460413,0.013879426,0.011069216,-0.028156571,-0.0130163785,0.012682142,-0.05413177,-0.007866334,-0.023140326,0.01192412,-0.023622176,0.026895188,0.01796911,-0.034619246,-0.026550407,0.005288479,-0.0534535,0.038567353,0.03502788,-0.025089068,0.008512834,-0.022950336,0.04763853,0.04792942,-0.055652738,-0.025841294,-0.0051636435,-0.03676524,0.049381174,-0.027126424,0.003861245
-0.043623358,-0.045948036,0.0065469975,-0.03317769,0.013283474,0.03497081,-0.024911594,0.049726244,0.03507924,0.04612236,0.0025402312,0.0069320146,0.03919881,-0.020895569,0.022387238,-0.0052602137,0.02438569,0.02831132,-0.008378383,-0.013087836,-0.008703564,-0.0081694415,-0.03416491,-0.013742703,0.04961966,0.038941454,-0.005260163,0.016541114,0.012528692,-0.007416785,-0.016617183,0.033036742,-0.039831247,0.019485565,0.018053362,0.02685821,0.031507824,0.015108404,0.0079201395,0.013166793,0.05614462,-0.044078365,-0.03991881,-0.063159384,-0.046748858,0.028667333,0.014584104,-0.032099154,-0.015145229,0.008703137,0.012457249,-0.019501297,-0.04365106,-0.013828316,0.01378665,0.0061816312,0.01456129,-0.018005395,-0.0030645141,-0.009063016,-0.01640807,-0.015684953,-0.0047848644,0.013056531,-0.013276627,-0.024570605,-0.0018002781,0.050257653,0.006281087,0.0034265206,0.022429062,0.042717125,-0.01033227,0.03682011,0.013298966,0.008147449,0.00029746827,0.006935409,0.04117642,0.020504747,0.0065864003,0.010848354,-0.028731497,0.024844682,-0.012927362,0.021041546,0.010996093,0.0002714261,0.02149837,-0.003346026,0.025103552,-0.004417041,-0.022290256,-0.009382016,-0.02846356,-0.036973793,-0.02694282,-0.0111139985,-0.04109507,0.03818098
-0.0077490513,-0.004994032,-0.03178305,-0.016927192,-0.030414062,0.00083418994,-0.008033815,-0.023413436,-0.05317067,0.008809135,-0.013579189,-0.030336369,0.0053586545,-0.044532098,0.02509587,0.036698435,0.013381527,0.044308044,0.02761699,-0.0055759256,-0.002431589,0.0091055855,0.017364863,-0.058574885,-0.025786458,0.022470394,-0.017118217,0.025627395,-0.0028222685,0.030856838,-0.005946134,0.026849305,0.02024492,-0.036166113,-0.03429623,0.0064364546,0.019889563,0.04849602,0.023384962,-0.018405017,0.01434188,-0.016216265,0.014669499,-0.04994331,0.018429369,0.02287653,0.0017027057,-0.061413407,0.012091964,0.028105298,0.0112020625,-0.009614145,-0.050258968,-0.046724513,-0.03515795,-0.018194972,-0.0030168314,-0.0121248225,0.021503905,-0.03344427,-0.013766263,-0.02192623,-0.02355112,0.048584837,0.018388636,0.04262809,0.025462754,-0.01674154,-0.04004827,-0.04004067,0.0065857475,-0.017356303,-0.010109037,0.0021201172,0.021226097,0.011828443,-0.03740461,0.029597536,-0.007822923,0.025291113,0.03252311,-0.007816963,0.04379184,0.014983215,-0.024107113,-0.0107851485,-0.023100838,0.005972547,-0.017267449,-0.028734585,-0.01668841,-0.021164676,-0.02784451,0.03052736,-0.0178269,0.0032972293,-0.04076532,-0.009042938,-0.021620207,-0.0149928285
-0.040041048,-0.017716866,-0.020773992,-0.03876474,0.032228634,-0.024774164,0.00026560092,-0.04213462,-0.028093027,0.001692869,-0.017308425,-0.015314116,0.01589847,0.0003837577,0.011198999,-0.008444086,0.0030691356,-0.020811541,-0.01356909,-0.023817528,-0.035037752,0.0030914822,-0.02416581,0.02106253,-0.043415252,-0.02267984,0.049071334,-0.05043977,-0.021884209,0.014681119,-0.018160982,-0.037889633,-0.042102937,0.017340135,0.007187713,0.028255593,-0.031529818,-0.033137128,-0.00024991293,-0.015397362,0.03338294,-0.03732745,0.017470403,-0.061696015,-0.006123509,-0.012831268,-0.04436366,0.013987602,-0.029213767,-0.023469942,-0.019789401,0.01458969,0.0460271,-0.0039469027,0.02720675,0.057298534,-0.014855604,-0.041389193,-0.009724052,0.045126777,0.031692903,-0.023519322,0.009915938,-0.005555869,-0.044580605,0.03571279,-0.032515507,0.0093801115,0.0031664176,-0.01889158,-0.010806931,-0.014995401,-0.016397778,-0.00020397716,0.02754893,-0.00030355863,-0.02063596,-0.007885024,0.030387362,0.0011187138,0.01168628,0.012818832,0.02380873,0.020325731,-0.055226553,0.034936376,-0.05603396,-0.005407767,-0.009441874,0.028737571,0.012340316,0.016750343,-0.04219421,-0.0073890034,-0.02573334,0.005454249,-0.026311757,0.042704094,-0.021702455,0.0004767975
0.043874748,-0.018178005,-0.029770758,0.039956246,-0.037377335,0.013816404,-0.043895043,0.043212317,0.0093494635,-0.019637138,-0.021469524,-0.00011173251,0.01656645,0.013192225,-0.018078966,-0.035111997,-0.0076710004,0.0013882179,0.039507546,-0.0007087005,0.02118197,-0.008666232,-0.041377716,0.02647905,0.021241345,-0.010849657,-0.023852864,-0.036929496,-0.0017723398,0.009527573,0.041199945,0.04910216,-0.05515031,0.017218146,-0.044981424,-0.03108971,-0.0093040755,-0.005491905,-0.015288069,0.048978273,-0.02875152,0.049629685,-0.0055688107,-0.020836115,0.027127795,-0.015930539,-0.018393,-0.049840067,-0.013359168,-0.02161793,0.0007064868,0.038834456,0.019663578,-0.0061609945,-0.015850784,0.049129292,0.032114737,0.0067437403,-0.006485628,-0.009290581,-0.014014337,0.038039804,-0.04684282,0.00846205,-0.019300079,-0.03721947,0.02841894,0.0024444857,0.0013966428,0.02443282,-0.031748768,0.007211188,0.056368023,-0.039195783,-0.029543241,0.04898886,-0.013642358,-0.010121934,-0.0145046385,0.000801699,-0.003942747,-0.01156304,-0.008842174,-0.0045943693,0.0003595692,0.017159045,0.010252279,0.0084392,0.0013193169,-0.0037003735,-0.04575675,0.016033156,0.005617318,0.037773065,0.02331311,-0.03138712,-0.0018891435,-0.013109539,0.02480486,-0.017379578
-0.018996863,0.030550435,-0.008962028,-0.041405413,-0.004045245,0.026557578,-0.0004840912,-0.0078255385,0.00083994545,0.027053779,-0.0057707555,0.024830358,-0.04063688,0.033434443,0.019580653,-0.0064494456,-0.060573116,0.02935941,0.0008804568,-0.026665881,0.0068778526,-0.017673353,-0.00057000667,0.0016073186,0.030675612,-0.042617593,-0.033441186,-0.040053222,0.028747259,0.013624871,0.026429571,0.0047013704,0.019162912,-0.020511238,-0.04213522,-0.0024903214,-0.023351192,-0.046863046,0.018248897,0.008253063,0.030060489,0.001771559,0.014032762,-0.013347963,0.0006014192,-0.002511498,0.044959143,-0.022222482,0.045286138,-0.020572403,0.018795272,-0.031320572,-0.0013749738,0.0085582575,-0.006828482,0.00016688943,-0.023896592,0.019034276,-0.0010874254,-0.071107656,-0.02216116,0.051254902,-0.010192127,-0.015478549,0.01513213,-0.011756679,-0.041939024,0.00796222,0.0020857195,0.05102846,-0.06053147,-0.0044123023,0.024224753,0.015741749,-0.03620691,0.016333543,-0.010603189,0.016989069,0.020878479,1.8241317e-05,0.046941914,-0.049984556,-0.0047047,-0.020471146,-0.011453838,0.033689313,0.014824965,-0.017246062,0.007446184,0.021452343,0.049160715,-0.034127004,-0.0077408897,0.017500784,0.003240021,-0.06290315,-0.0143317925,0.035583187,0.034259837,-0.0015728648
-0.035855606,0.012492829,-0.0029421153,-0.0083396565,0.005037463,-0.002170689,0.02819494,-0.00789456,-0.0056416406,0.007461731,0.0067458763,0.026334686,-0.014834116,-0.021519631,-0.0062697087,0.0018984475,0.007791211,0.032951362,-0.009165897,-0.03484397,-0.0168554,-0.04639121,-0.0083774,0.0327803,-0.0070288014,-0.01630789,-0.052274622,0.032650024,-0.030942228,-0.0054132803,0.010725895,-0.04672602,-0.03884948,-0.0012816233,-0.036855813,-0.03541324,-0.025920294,0.004556605,0.021480829,-0.000915456,0.026547868,-0.0059819645,-0.021175155,0.03414513,-0.052052546,-0.0068645496,0.00092690927,-0.030604957,-0.0022163924,-0.018547159,-0.036866482,-0.013989491,-0.020061182,0.0323595,0.038043518,0.0028359476,-0.014726699,0.025323119,0.0054256315,-0.004165706,-0.007962997,-0.006499467,0.023062203,-0.039990716,-0.014627539,-0.01766207,-0.015037296,0.015181236,0.015437857,0.018931037,-0.013649511,-0.008855473,-0.055816907,-0.003049673,-0.014201617,-0.009949009,0.014477682,0.0070727826,0.02086483,-0.04579971,-0.001208571,0.023977296,0.037612297,-0.020930193,0.0048946734,-0.018854007,0.0040564374,-0.052782804,0.01637679,-0.027822405,0.02089532,-0.013882835,-0.04859633,-0.021839276,0.024804667,-0.03216991,0.0015169224,-0.02816675,-0.009820675,-0.018747076
-0.010434546,0.004907451,-0.024735618,-0.029230408,0.013204485,-0.052200455,-0.0555057,0.009485447,0.010170334,-0.013880208,-0.04596824,-0.036294766,-0.007925269,0.0022714646,-0.04018916,-0.030431846,0.037168697,0.051533043,0.027497483,0.020842154,0.025838668,-0.020894067,0.0013553418,-0.014714226,-0.0031987268,-0.022216396,0.019047823,-0.00073756004,-0.011476176,0.025039924,0.038743757,0.022748219,-0.01425496,0.013533097,-0.022003513,-0.02657466,-0.016882893,0.017495282,0.0039695883,-0.0021279869,0.018309766,-0.034094393,0.028653331,-0.036523174,0.0350256,-0.0033934915,0.039572522,0.00634437,0.03339676,-0.017474424,-0.017096369,0.004648719,0.014990399,-0.042986028,0.024044488,-0.03150482,-0.028649064,-0.033614814,0.018702086,0.050790835,0.008117549,-0.043072782,0.04426844,0.0022547494,-0.014247715,0.034550145,-0.00017600138,0.0077598672,0.00056865736,-0.03674908,-0.05266065,0.025759134,-0.020752609,-0.00060514733,-0.018514318,0.03560323,-0.027460303,0.003128512,0.034485597,0.039416697,-0.00020577689,-0.019158447,-0.012677021,0.062139343,-0.02517676,0.045620546,8.349085e-05,-0.0031867852,0.033148196,0.01675826,-0.019631892,0.0023467904,0.0015560399,0.033269946,0.010779177,0.015944745,0.0060452665,0.01300559,-0.008545315,-0.0036385169
-0.008875381,0.012037938,0.026548807,-0.062813304,-0.0024719872,-0.00853265,-0.0048172735,0.025688965,0.01493549,0.02466196,0.009605881,0.007328482,0.0119720725,-0.021871688,0.006488583,-0.026029423,-0.036721766,0.03008786,-0.03458583,-0.018995238,0.0077458443,0.05139098,0.028087772,0.016113538,-0.021313744,0.00987361,-0.019417888,-0.009504586,0.064576976,-0.030920243,-0.0059660724,-0.008983696,0.040384512,-0.011432954,0.00833118,-0.01770142,-0.026811073,0.056459066,0.018714445,-0.0013388512,0.040700696,-0.0072725615,-0.033870883,-0.02275009,-0.025223948,-0.028485572,0.018234488,0.019582067,-0.045438785,0.04710519,0.008235204,-0.049051844,-0.052943498,-0.022802247,0.008351013,0.04356466,-0.025832012,-0.034264058,0.015654719,-0.007512699,0.053407628,0.048323743,-0.024120988,0.03958208,0.022515265,0.022347456,-0.018656144,-0.057242565,-0.017791213,-0.033815034,0.0138230715,0.011492721,-0.0074407854,-0.00017295644,0.010520896,-0.010866853,0.029203849,0.034730095,-0.017145276,0.025424954,-0.022408977,0.011714701,0.051109765,0.004781675,-0.0033900784,0.028030882,0.039849654,-0.04631257,0.05450101,-0.008742089,-0.051258463,0.0003145161,0.015095071,-0.029642733,0.0053939945,-0.024192868,-0.04649028,-0.03349273,-0.014293365,0.011079249
0.004449686,0.032592576,0.039102014,-0.0033352003,0.035681035,-0.015119377,-0.020875352,0.009001222,0.039616268,-0.010595898,0.001078363,-0.00021951566,-0.040250175,0.029594027,-0.05670937,-0.014928333,0.02467968,0.02635809,0.019239398,-0.0355043,-0.02419519,-0.014646727,-0.0021277044,-0.023450527,0.023523843,-0.01623395,-0.020417081,0.04527252,0.012485464,0.0034090295,-0.026822072,0.0149294315,0.022482784,0.010907059,0.024421517,-0.008150633,0.015897542,-0.030146904,0.001217056,0.012805946,-0.018542133,0.028162062,-0.027603555,-0.043003447,-0.00881277,-0.031426795,-0.044999324,0.026932467,-0.002075045,0.02120667,-0.011233406,0.0052792565,-0.00888881,-0.0009818908,0.007354939,-0.021060592,-0.024691744,-0.027067179,0.014628586,-0.0011870501,-0.020519596,0.041866455,-0.012953813,-0.037963483,-0.024704248,-0.01289112,0.005776635,-0.0025400317,0.0040152934,-0.0040876693,0.031533904,-0.052306775,-0.004439847,-0.012696002,-0.018602725,-0.0022478255,0.0050432603,-0.032154612,-0.048340064,0.008452152,-0.032869328,-0.00040038675,-0.021375868,0.032144494,-0.029930543,0.008052403,-0.008806101,-0.012909835,-0.026377918,0.016395643,0.033021305,-0.03749778,-0.015342185,0.028729875,-0.03502628,-0.00020043047,0.008619478,-0.0136538185,-0.035086747,0.0091414545
-0.011990545,-0.0337713,-0.0150716975,-0.027025446,0.033448074,-0.061277714,-0.025799131,-0.007895582,0.0046630623,0.00021953949,-0.0006167912,-0.0035174668,-0.053538952,0.008771755,-0.029639909,0.0030090574,-0.008470712,-0.0024478552,0.006565203,0.014541322,-0.030124433,0.007703819,-0.009896853,0.020602355,-0.010541523,0.03836664,0.007224835,0.026895273,-0.0016140362,-0.037301365,-0.036842134,-0.014989925,0.019035963,0.03375537,-0.025411144,-0.02550905,0.0075691175,-0.048277877,-0.00859464,0.04173489,0.041603558,-0.02564196,-0.04313967,-0.04210668,0.021514678,-0.03448526,0.012120939,-0.0004460264,-0.037429903,0.019659525,0.012414389,0.040367108,-0.013072485,-0.004797935,-0.015756156,0.044449333,0.014176902,-0.03342128,-0.003309868,0.057213623,0.05288219,0.0067837355,0.021524845,0.007495179,-0.008279946,-0.022504406,0.003387248,-0.025639761,0.0033779652,0.00021967015,0.034173794,0.049498886,-0.049148448,0.030431828,0.013173305,0.011680265,-0.025109058,0.01452092,0.034546603,-0.00023287849,0.01926313,-0.008657558,-0.005273273,-0.023267558,-0.01745833,0.0528902,-0.016366888,-0.030771818,-0.0128852315,0.015205846,0.03486363,0.014449837,0.010735712,-0.011462262,-0.025255084,-0.010436708,0.022302272,0.030712692,-0.00671653,0.026365943
-0.024877211,-0.02574661,-0.0050036754,-0.04230789,0.0067281583,-0.00080021494,0.032577924,-0.023828141,-0.00052182545,0.02008413,0.02908281,-0.00371302,-0.0015136601,0.038971435,0.00024843967,-0.008926616,-0.007898721,0.011439968,0.03479289,-0.0048600677,-0.030302858,-0.0018710595,-0.003766002,-0.031413186,-0.039956354,0.0006999178,-0.026428254,-0.008762461,0.007291835,0.0020951603,0.020129897,-0.00877817,0.02022534,0.022920856,-0.025338154,0.027827593,0.0172438,0.0121270735,0.0031169234,-0.018667413,0.037186857,-0.054889895,0.005489341,-0.0035728398,-0.034593787,-0.050401244,-0.003143802,-0.002017683,-0.029933697,0.034111608,-0.02412866,0.005737682,0.011473123,0.04627822,-0.0139705,-0.018018538,-0.053200997,0.013658515,-0.030972494,-0.038649242,0.043665607,0.005464228,-0.0014249061,-0.009290191,-0.015589951,-0.011794536,0.017393915,-0.00072516233,-0.013649366,0.024333976,-0.0290852,-0.0039017245,0.04373809,-0.019720279,0.026097612,0.015692875,-0.033518843,-0.03396537,-0.023256132,-0.0073090876,0.027304579,0.01160131,0.005670816,-0.015055669,0.0053841844,-0.0076000183,-0.054244205,-0.00066592376,0.035102416,0.018796872,0.023659224,-0.04416586,-0.045090165,0.014231742,0.014063343,-0.008296525,0.017705373,0.00013567734,0.0028754852,-0.04834497
-0.030315988,0.021771878,-0.051085565,-0.012688964,-0.0073079406,-0.028686445,0.006760848,-0.025257017,-0.029963203,-0.035993386,0.007919218,0.048277885,0.025256742,0.020255946,0.018679785,0.03782557,0.008132419,0.023797352,-0.021463286,-0.012229509,0.04123936,-0.016244309,0.036492918,-0.0024945114,-0.01654206,0.017842103,0.004222299,-0.03573607,0.013987437,-0.05924558,0.02149855,0.019325893,-0.018978927,0.034922406,0.01833993,0.007209155,-0.038555007,0.046294358,0.023583539,-0.025686542,0.04373457,0.011391154,-0.023726262,-0.003427178,0.005098564,0.009489271,-0.008349652,0.029672354,0.02255122,0.02994814,-0.032981195,0.00752719,-0.0012133048,0.007257486,-0.008316238,0.018963516,-0.040928286,-0.00800476,0.013657644,0.009327766,-0.029910231,-0.014064894,-0.008062044,-0.014384103,-0.0041131275,-0.005346426,-0.02915163,-0.026583316,-0.004201702,-0.0068524797,-0.045728154,-0.0059975972,-0.035434213,0.007910934,0.004891435,0.015790462,0.045694605,-0.0034377696,0.0015129863,-0.0063048825,-0.008208498,0.017002394,-0.02202868,-0.024748696,0.030548768,-0.036792472,-0.0057164575,-0.0020605635,-0.007885413,-0.029682258,-0.008919695,-0.03559674,0.040124357,0.035115197,-0.017871398,-0.016512968,-0.03280808,0.0072094025,0.049147803,-0.022932727
0.010642558,-0.011320749,0.057522345,-0.059293248,0.027343966,-0.02596729,-0.025592672,-0.02531169,-0.038473416,-0.04143243,0.016656699,0.0044132764,-0.04916061,0.020830926,-0.033774316,-0.0068874904,-0.03851757,-0.024904028,0.008788098,0.040106867,-0.02757885,0.029587738,-0.021577433,-0.027746605,-0.026261229,0.032733217,-0.057645,0.014763119,0.02103292,0.011382403,0.013588203,-0.008292022,0.018466307,-0.009709869,-0.047848184,-0.0161858,-0.0052250987,-0.009296878,-0.052846216,-0.021243805,0.0047784173,0.021516109,0.00041996225,-0.016797302,-0.02090186,-0.0017618241,0.047189914,0.047321036,-0.041860677,-0.005305401,-0.005252476,0.005057565,-0.029652769,0.033373725,0.051499017,-0.052511737,0.01655607,0.052323375,0.019718757,-0.039170947,0.013629213,-0.0010328626,-0.026922187,-0.011626025,-0.023157008,-0.03195542,0.03431237,-0.05890527,0.026080284,-0.02039297,-0.023596404,0.025924182,0.044365574,0.01706312,-0.011882506,0.020904567,-0.02936836,0.031605728,-0.023285417,-0.0046653477,0.0058359145,0.01109443,0.020378325,-0.012892273,-0.038236775,0.015107037,-0.027025437,-0.0077323467,-0.012224855,-0.010581653,0.010694807,-0.049506668,-0.01669232,0.020307142,-0.035424877,0.044028178,-0.009797774,-0.0411301,-0.02812038,-0.03570393
-0.0017917596,0.023952119,-0.02521593,-0.040382583,0.0061250706,-0.011403588,-0.031756416,-0.0372771,-0.009022592,-0.0010402859,0.015257128,-0.023310116,-0.0040872586,0.03132961,-0.018308366,-0.022315508,0.023269802,0.0051933583,-0.00053091673,-0.025600744,-0.010977144,-0.014706538,0.009810859,0.0078962445,-0.03087061,-0.02007348,0.0075470624,-0.020288358,0.031473994,-0.034853384,0.0063088243,-0.057400517,-0.03080051,-0.016147317,-0.042681757,-0.0394921,0.050203513,0.04495577,-0.05604482,-0.0071021006,0.01514798,-0.04892864,0.02276288,-0.0012907524,-0.017387971,0.031018673,-0.052455883,0.021247353,-0.0034860983,-0.016163778,-0.03171464,-0.0053921016,-0.04290164,0.01436783,0.00050992577,-0.026004015,-0.01818935,-0.021454033,-0.009184204,-0.042439885,-0.010607671,-0.008127749,-0.033099633,-0.00537051,-0.017867405,-0.02206321,-0.024698611,-0.024252022,-0.013415468,-0.013996638,0.0033899783,0.021008551,-0.00034561043,-0.03868399,0.022049237,0.0015549847,0.004009241,-0.014285563,-0.015741397,0.015973633,0.0086138705,0.010277783,-0.051533885,0.03193803,-0.058716595,0.0022969341,0.022007463,-0.038174283,-0.010938524,0.02669244,0.030987153,-0.0037782688,-0.009487349,-0.026847338,0.042401787,-0.04296996,0.013978918,0.018119002,-0.006573498,-0.032404304
0.0018600399,-0.0021277724,-0.019538721,-0.010661097,-0.007689578,0.038619798,0.033410475,0.009090047,-0.004395518,-0.0072191395,-0.001903688,-0.028893782,-0.0065704086,0.016901141,0.057242144,-0.048852455,-0.01630121,0.055429734,0.050011568,-0.0021247861,-0.02269141,-0.03735384,0.011976865,0.016161751,0.0134826815,0.0053684996,-0.026519472,-0.0024070963,0.055352356,-0.023995101,0.0064170933,0.012251881,-0.017710237,0.03405827,-0.021493288,0.0019246109,0.0059640775,0.006066732,0.049568605,0.007483849,-0.004980237,-0.0031233397,0.026570385,-0.04680112,0.009345014,-0.04782301,0.049866725,-0.03475226,-0.029722841,0.024856582,-0.010904348,0.042122718,0.008002228,0.0027613442,-0.03037612,-0.0076153344,0.012122819,0.0019548058,0.009765639,0.05003177,0.003945789,-0.047847327,-0.00027540664,0.024536882,0.033158816,-0.03550886,0.03330927,-0.0022695805,0.04434087,0.017811315,0.04394525,-0.027735924,0.049242835,-0.018018063,-0.00034688582,-0.0054345536,-0.037296675,-0.0011094745,0.0031794773,0.021875406,-0.0032417937,0.042070862,0.015270649,0.0050153397,-0.0046056956,-0.05553099,0.01789109,-0.03510701,-0.060018025,-0.018605117,0.020104598,-0.016896743,-0.014261508,-0.0034564552,-0.007741804,-0.0033839184,0.013739123,0.010528298,-0.048136264,0.032175127
0.0094928555,-0.036601845,0.027035436,-0.050011195,-0.017727451,0.0021217233,0.002910517,-0.01455013,0.018406412,-0.015626336,0.016836185,-0.001557709,-0.020358663,0.011639055,-0.0067447904,-0.03935268,-0.0017351613,0.020124814,0.04988417,-0.030734094,-0.016976412,-0.006289078,0.002863858,-0.003925461,0.016227705,-0.002901182,0.016009787,0.0077179256,0.023894306,0.031918578,-0.040575128,-0.034874476,0.019696819,0.009514591,0.02408869,0.018907774,0.04087389,0.030735737,-0.010789982,0.020319095,-6.588728e-05,0.019513648,-0.038950577,0.03926762,0.015935872,0.011996142,-0.018526174,0.036164485,-0.0137086455,0.002545152,-0.0016890563,-0.014844065,0.039318915,-0.008645483,0.00029085486,0.009783419,0.014578655,0.002277578,0.014076869,0.044773836,0.040397085,0.008649998,-0.014612078,0.03126269,-0.006575722,-0.045714043,-0.017028568,0.046488497,0.01503556,-0.011536077,-0.017929101,0.015805038,0.020744288,-0.032575827,-0.022737788,-0.017246233,0.051943243,-0.014349458,0.018082384,0.007324286,0.004945977,-0.020203827,0.017069045,0.009699928,-0.04266025,0.031989522,0.016581247,-0.046922643,0.011399361,-8.146612e-05,0.001697097,0.0116479015,-0.043482214,-0.057737485,-0.000442292,-0.023375638,0.03840968,-0.0022826674,-0.018442536,-0.004332336
-0.019838715,-0.007961732,-0.044316284,-0.032919727,0.019961724,-0.026501724,-0.057303756,-0.038035884,0.018858297,-0.015155862,0.008495167,-0.0107447645,-0.02977841,-0.05695886,-0.017575748,-0.0023650504,-0.060620412,-0.002416237,-0.01890108,-0.008958487,0.03454675,0.010143746,-0.0272321,0.020322053,-0.0025830655,-0.030203184,0.015887884,0.04921306,0.03373645,0.016204303,-0.034872815,0.025740195,0.0090734875,0.050762024,0.0377025,0.0395639,0.05331419,0.04276417,-0.0026780607,-0.024298543,-0.024290146,-0.05282078,-0.019114157,-0.025013028,-0.024663331,0.015776802,-0.0030833595,-0.04593473,-0.009471966,-0.015176917,0.03531982,-0.044910192,-0.0123771615,0.011538482,0.019992251,0.00042372706,0.01120541,0.020137345,0.019880991,-0.004013969,-0.05387902,0.010655375,-0.017108437,0.01405374,0.024971802,-0.029434504,-0.004992339,0.029305283,0.0055481633,0.018779706,-0.0139027685,0.03356322,0.009880605,-0.00019973174,-0.02278127,-0.014073064,-0.0012099043,-0.05490182,-0.021834232,-0.015734727,-0.024516089,-0.016590433,-0.028083289,0.024753109,0.0050105625,0.020972814,-0.031170415,0.011527426,-0.004648867,-0.044414774,0.03198389,-0.002205335,-0.01264767,0.017709516,-0.051508285,0.015062353,-0.03083845,-0.0018098686,-0.008001824,-0.0032684274
-0.002624321,0.021779707,0.005593152,0.041431576,0.032866787,-0.019165354,-0.011155615,0.02069078,0.042746354,-0.014987547,-0.008253379,-0.048825607,-0.03375787,-0.03997966,0.034141764,-0.030516447,0.02626888,0.004232984,0.005670981,0.008638492,-0.0067510232,0.013756546,0.029273806,0.010318441,0.019764438,-0.0017497742,-0.015424805,-0.026142064,-0.00568155,-0.0035341608,-0.034333594,-0.04892899,0.007547511,0.008678632,-0.04489228,0.049891226,0.03867727,0.0021247615,-0.017910495,-0.011241798,9.4993455e-05,0.008200409,-0.0072167437,0.012158603,0.032441642,-0.00094576064,0.030129729,-0.023094315,-0.016663942,0.005953534,-0.007823047,-0.022409987,-0.009414838,0.038936928,-0.03429041,-9.6520176e-05,0.026962567,-0.0031838503,-0.053513985,0.0127896415,-0.053924467,-0.03095375,-0.008381814,-0.011688019,0.04234742,-0.003931026,-0.020732788,-0.016769098,0.007324073,-0.017140016,0.0094207,-0.0057813777,0.0016791754,0.02856479,-0.013659002,0.012838278,-0.01451716,-0.0078005805,0.0011029926,0.029423868,0.0047624432,-0.027270919,-0.05651502,-0.012946832,-0.0574938,-0.01500704,0.0062614297,-0.038204633,0.008497405,-0.020174023,0.005957056,0.014571824,0.01708651,-0.013403216,0.010630783,0.035208892,-0.0022349819,0.00919784,-0.026087677,-0.054028906
0.005560182,-0.053823385,-0.0025375746,-0.02192849,0.017485324,-0.04118431,-0.025491428,0.037144374,-0.0106458645,0.013457432,0.00057781837,-0.024654696,-0.028396659,-0.009157712,0.010683505,0.001036372,0.015253567,0.003473187,-0.038483474,0.00010237412,0.03979888,0.013442822,-0.031050174,0.014252563,-0.039059717,-0.04718436,0.001336541,-0.010908306,-0.0049326434,0.023209805,0.027783614,-0.020004861,0.00065629586,-0.031767316,0.0047739036,-0.042737205,-0.017205603,-0.027136775,-0.020858457,-0.005803197,0.032949917,-0.016228445,0.004610332,0.023295263,-0.027640222,0.01915348,0.0036418973,-0.024503417,0.030756762,0.0092866225,0.022049166,-0.024001528,0.006037821,-0.03425696,0.05194754,-0.005405681,-0.011178877,-0.022671627,0.011755406,0.053913224,-0.004701083,-0.039761763,-0.02835654,-0.014889678,0.012462896,-0.0039972267,0.021624388,-0.013126398,-0.05340003,-0.03995818,-0.0106546115,-0.004574364,0.040279884,-0.0329584,0.011981776,0.044192553,0.0077574514,-0.026269253,0.029541286,-0.023363106,0.014185754,-0.0026685316,-0.020320535,-0.03724826,-0.016520912,0.037341177,-0.017756145,0.012750724,0.025070995,-0.028020926,0.041234028,-0.018258262,-0.033199176,-0.00859343,0.027328476,-0.02190954,-0.014978266,0.014776523,0.023646561,-0.0005642188
-0.023859154,-0.0143743185,0.0006256943,0.04301752,-0.05414024,-0.04898948,-0.01936997,-0.05230827,-0.018571632,-0.023724101,-0.0061565414,-0.0053973496,-0.012388277,-0.03603314,-0.044890366,-0.014191114,0.011588106,0.017044604,-0.008949002,-0.037526455,-0.017866435,-0.01652077,0.027981874,-0.030941311,0.014814413,-0.042321578,0.04553509,-0.0144131025,0.017870303,0.026287047,-0.020907514,-0.03209517,0.04120849,0.017655497,0.022610577,0.038294714,-0.001723514,-0.03451739,-0.008625663,-0.046766795,0.018347174,0.042141866,-0.011613807,-0.01746575,-0.039520886,0.028151736,-0.05479428,0.023593752,-0.0403076,0.038796626,-0.031159254,-0.02293133,0.022238148,0.034827873,-0.0036763756,-0.042828046,-0.0050996654,-0.048889313,-0.05431017,0.027491437,0.0069021694,0.023371305,-0.021241458,0.012794993,-0.020924812,0.0036113095,-0.0030418693,-0.048418332,0.015281542,-0.00042753533,-0.013000212,-0.0480265,0.029101988,0.047180884,0.015043706,-0.00026803068,-0.0023011009,0.013919172,0.018509708,-0.005069002,0.0024195744,-0.02171672,0.0018337885,0.01438837,0.017455332,-0.013422486,-0.0009865785,0.028001321,0.0060566543,0.02367856,0.043819744,0.009635666,-0.012841162,0.0023906678,0.013333516,0.017683256,-0.018901225,0.008100121,-3.9726117e-05,0.013414657
-0.020389983,-0.023073504,0.00876336,-0.021174734,-0.00030587334,0.0017472841,-0.044484884,0.00065679185,-0.00798587,-0.009516528,-0.028219944,-0.0054942043,0.012171751,-0.03088056,-0.024490442,0.005340021,-0.054794922,0.000101441765,0.008226733,0.030454442,-0.036455687,-0.00506944,-0.0002373333,-0.012135864,-0.033143226,-0.03378767,0.04884429,0.004571792,0.0022664985,-0.004893374,0.028171446,-0.010951348,-0.017648604,0.029165328,-0.022662727,-0.00707807,0.048430283,-0.017597202,0.029036168,0.032660257,0.00390648,0.0009074412,-0.0018015187,-0.042103197,0.016327575,-0.00697058,-0.014685504,0.017021606,-0.045330673,0.007310845,-0.042364508,0.027927268,0.0064736754,-0.013373597,0.010199652,0.026778154,-0.015452337,0.0004920711,-0.004328146,0.02601839,-0.008551262,0.018607287,0.013100344,-0.044549413,-0.007810474,-0.017706357,-0.013995114,-0.012631598,0.00551935,0.016277052,-0.035480052,-0.020390883,0.036517218,-0.015611815,0.045977745,-0.0006530718,-0.012574768,0.0061881263,-0.014556591,0.0042126956,-0.00071362907,0.00060519384,-0.009105322,-0.022684915,-0.012752469,-0.028912302,0.034998268,0.0063676243,0.02865212,-0.031042302,0.027119586,0.039219584,-0.06025883,0.021223543,0.029436115,-0.0619497,-0.010528099,0.032980148,0.033907827,0.012731797
-0.023965018,0.023258725,0.0067453096,0.020007769,0.00582828,0.015898254,0.04714571,-0.004237688,-0.0066838674,-0.009946098,-0.02795977,-0.038154453,-0.005004953,0.036072284,-0.025029372,0.031533077,-0.0017928039,0.01047861,0.051072348,0.035551455,-0.019179402,0.0047368477,-0.02895775,-0.0013650778,0.018045139,-0.0395519,-0.043469798,-0.016738832,-0.0077490206,-0.014657622,0.04806964,0.0071042464,-0.012069714,-0.0032313594,-0.036265034,-0.0038194694,0.021189295,0.008672651,-0.016853062,0.0047200746,-0.008281261,0.016345598,-0.026044935,0.02881621,-0.009662839,0.022523776,0.027031701,-0.03763733,-0.018207885,-0.04693474,-0.03382015,-0.015517554,-0.017827488,-0.041849162,-0.02603002,-0.007301082,0.017742962,-0.0023163538,0.036461875,-0.00553549,-0.0048763617,0.0037375928,0.010192036,-0.04323286,-0.0034742118,-0.030733628,-0.014585329,-0.015009411,0.025661308,0.0042596147,-0.029647507,-0.026756972,-0.021607816,0.0057258033,-0.050236125,-0.008939888,-0.019286104,-0.028747218,0.0041418104,-0.026507521,-0.050417624,0.026510192,0.030020768,0.0048871627,-0.01754929,0.035312973,-0.009144271,-0.04848522,0.028211126,-0.035001103,0.018099874,-0.021418199,-0.0026054208,-0.048814114,0.008889616,0.012759205,-0.042589262,-0.01260385,0.002767593,-0.0011375517
0.028963434,0.027099004,0.013855904,0.020273924,0.0022065325,-0.042512286,-0.047808114,-0.050256882,-0.010888511,0.037074346,0.008864813,0.012067909,0.0116275735,-0.053053353,-0.046801925,-0.01781288,-0.014402057,-0.044603378,0.029175676,0.0347252,0.010481139,0.0021149435,-0.0103642745,-0.0038508337,0.0020447206,-0.009316988,0.015325723,-0.041828934,-0.044325747,-0.00457845,0.01569696,0.03283619,0.054106694,0.026139015,-0.012563864,0.01897726,-0.012778461,-0.0050245826,0.010825436,-0.03989224,0.05024757,0.029919116,-0.007263659,0.019192902,0.044902757,-0.0021577834,0.0005545153,0.029769644,-0.0053059715,-0.028709326,-0.052580133,0.017617015,0.008215461,-0.01518231,-0.0054697697,0.025816472,-0.003838933,-0.012791679,-0.03381901,0.0006988333,0.029682072,-0.010713479,0.005946652,0.049756076,-0.021198254,0.020895695,0.00019329852,-0.02378412,0.0032320411,0.0016340842,-0.0067421356,0.024122493,0.01188219,0.008192184,-0.042344652,-0.00032882814,-0.006865093,0.036377143,-0.0069469623,-0.03197663,0.013535874,0.04505569,-0.03775171,0.0041439673,0.0038942578,0.025475074,-0.0024856115,-0.020127404,0.0066920095,0.016348192,0.014434095,0.03733845,-0.02360318,0.014367704,-0.004166265,-0.030934947,-0.028849326,-0.04083299,-0.0075945603,0.012693527
-0.0062066973,0.006175149,0.0012797132,-0.008236977,-0.011293177,-0.0017913197,-0.008947202,-0.009619587,-0.027968599,0.048503637,0.0121296495,-0.023142515,0.025619658,-0.05303847,-0.009514478,0.051885948,0.021934997,0.003924797,0.017298577,0.055696175,0.013849252,0.01644383,-0.0013560244,-0.019643083,-0.056809023,-0.027014758,0.0045846333,-0.021150129,0.05577831,-0.03432004,-0.017606383,0.02625611,-0.008880955,-0.022625124,0.015581754,0.011481583,0.013375854,0.033803124,-0.045239355,-0.004147644,0.017345699,0.017119745,-0.0016249364,0.035906352,-0.0076147434,-0.0412806,-0.013321526,0.021581722,0.0074384618,-0.015093841,-0.0270842,0.043172706,0.042020828,0.034602467,-0.030399647,-0.04457765,0.0047673355,0.026535952,0.019576678,0.040714573,0.00015166706,-0.01899307,-0.008317575,-0.015468126,-0.025501393,0.007538926,-0.050397057,0.007834251,-0.009209622,-0.03948817,0.007134576,-0.029417632,0.0072096656,-0.016224174,0.011989244,0.03737163,0.030072475,0.04247712,-0.002433981,-0.054317422,0.027682327,-0.0051249894,-0.005213824,0.014951918,0.013966688,-0.03284884,-0.007773961,0.010936718,-0.047859613,-0.017484196,0.0376761,-0.030713879,-0.027708083,-0.019299466,0.007871979,-0.0034133382,0.04468601,-0.007241895,0.027519727,-0.004521582
-0.0072168796,-0.04416783,-0.00044884213,-0.02217216,0.04679434,0.041110795,-0.010189324,-0.025650859,-0.010920025,0.032510933,-0.022229215,-0.051123116,-0.018463688,-0.055779517,-0.020425752,0.023073744,-0.010750214,0.033476908,0.011443683,0.027527161,-0.0006522067,-0.0044278814,-0.0113261705,-0.058719426,0.028540358,-0.012278696,0.015055371,-0.015053567,-0.011234845,0.014287776,-0.043245308,-0.034437235,0.00976338,0.022457113,0.026688417,0.002421555,-0.018957393,-0.03520324,-0.021869218,-0.0044607874,6.390493e-05,0.0057756146,0.007184825,0.0053262967,0.001026098,-0.025485108,-0.017987292,0.018740006,0.04257908,-0.03553056,-0.005612863,0.044703543,-0.027611181,0.047408834,0.029934362,0.018432751,-0.025764816,-0.019213695,-0.008760327,0.007362023,0.03542855,0.0030020252,0.0013467496,0.00982815,0.022684328,0.019806376,0.029957475,0.0220325,0.0073516015,-0.023641247,-0.06093181,0.027858049,-0.044772074,-0.018873172,-0.039683733,-0.016852422,-0.026954636,0.044969395,0.0065037734,-0.012197957,-0.0008642421,-0.001345688,-0.0075356136,0.041885547,-0.0032543973,0.011354779,-0.041025676,0.040583655,-0.00958545,-0.037743334,0.02242361,-0.03911607,-0.012286561,-0.025595922,-0.025289798,-0.032788347,-0.023016615,-0.042550545,0.0031555565,-0.017245553
-0.04269803,0.015744591,-0.016996378,-0.018021582,0.032301124,-0.027869876,-0.025996003,-0.05404979,0.00416574,-0.010567071,0.00593136,-0.016684622,-0.053758733,-0.027541675,-0.017493993,-0.037754998,0.0041257013,0.039361108,0.0126386825,-0.0059750676,-0.039663464,0.010092581,-0.02950859,-0.030151566,-0.026241789,-0.052768383,-0.019608391,-0.001335118,0.0063674683,-0.001668336,0.03928952,0.01062257,-6.0278686e-05,0.02660381,-0.0014072132,-0.016055461,-0.031985056,-0.029190263,-0.018665155,0.01999525,0.015767282,0.009162574,-0.007884631,-0.020503663,0.0033751314,-0.021190194,0.003687689,-0.002250008,-0.0063217822,-0.04938334,-0.014662769,-0.023727957,0.0051998515,0.01675718,-0.0077639828,0.033909492,0.003595446,0.04022888,0.024613446,0.012055095,0.020019881,0.025998961,-0.030893238,-0.040468547,-0.052719157,0.019581676,-0.02639354,-0.039807446,-0.04221091,0.033210807,0.019221956,-0.034597527,0.0034870713,-0.015374299,0.0065649613,-0.011488365,-0.040642038,0.031779107,0.0048903394,-0.014200628,-0.04083235,-0.016204938,-0.0268724,0.044897437,-0.011393204,0.04469397,0.05108992,-0.041595977,0.013034697,0.05031254,9.5278774e-05,0.02454806,-0.022196691,-0.008194623,0.022923648,-0.02003227,-0.011139015,0.03167289,-0.007301953,0.018372428
0.025970371,-0.020814104,-0.0071426607,-0.030668937,0.025977522,-0.0099427765,0.042679504,0.030521652,-0.04626563,0.015133798,0.021672135,0.042767823,-0.049635336,-0.020779734,0.015232242,-0.017292928,0.0019036843,0.02475943,-0.05435054,0.032708567,0.0016809513,0.014610157,-0.020407183,0.007546894,0.023203738,-0.044214427,-0.014352967,-0.0012699098,-0.056879286,-0.009515748,-0.024144761,0.016542893,-0.03961072,-0.020769192,-0.024034856,0.005376549,0.045388464,-0.03765037,0.019602213,-0.02052244,-0.01899671,-0.03239076,-0.02214832,0.03967981,-0.00947554,0.026578654,0.01022295,-0.054172676,0.006032474,0.02971482,-0.0012425132,0.028098969,-0.03431801,0.009243893,0.01031243,0.0038286846,0.052798126,0.046067685,0.023020338,0.011664623,-0.02459394,0.053927764,0.007161271,-0.008063966,-0.010892497,0.028803915,-0.005469694,0.007310895,0.027416855,0.0122749675,-0.018445186,-0.013479042,-0.0144005995,0.0049590888,0.00068716786,-0.01706476,0.012919419,-0.019755099,0.03356895,-0.034682088,0.01585461,-0.008078622,-0.0051740883,0.025446646,0.039074354,-0.0025574476,-0.029687671,-0.025819618,0.0034201113,-0.034915216,0.024887575,-0.006807176,-0.025094101,-0.016755832,-0.049850456,-0.04445369,-0.01489718,0.008781902,0.004435588,0.01195807
-0.017261831,-0.03797738,0.015015078,0.01337177,-0.05640965,0.011506259,0.0043206215,0.019355843,0.019011324,-0.002193453,-0.03910753,-0.024869923,-0.011841294,-0.0041007823,0.004237081,-0.03813986,-0.010969494,0.010891626,-0.019963775,-0.026717406,0.0056118555,-0.01669761,0.032876663,-0.0013410425,0.037677348,-0.0010957072,0.005273371,0.032488447,0.035801053,0.016305728,0.012348186,0.04371716,0.016054966,0.03484723,0.04178775,-0.029160475,-0.01665712,0.0024358442,0.0027346567,-0.02807193,0.020319518,0.023606058,-0.0058981357,-0.017207129,-0.013600418,0.006817439,-0.0054456634,0.019861719,-0.002720811,-0.00074351334,-0.00095656083,0.027095592,-0.05362903,0.045893412,-0.003133453,-0.00022566009,0.0031291011,0.0019695365,0.014995464,-0.0022929816,-0.013626751,0.008607947,-0.04193721,0.020792881,-0.023945697,0.042674884,-0.0088718925,-0.045548156,-0.021180954,0.013424339,0.011037529,-0.010541214,-0.0060694925,0.013567397,0.021680776,-0.008123683,0.012975828,0.016294166,0.05288931,-0.016101247,-0.012742041,-0.040407002,0.016735442,0.021485895,-0.05337779,-0.05258004,0.004605474,-0.02845936,-0.02357598,-0.04582053,0.0067617157,0.012757426,0.0021128072,0.049274143,-0.046970632,0.015090098,-0.028710727,0.016937036,-0.034176197,-0.00493729
0.004962766,0.032453805,-0.02562165,0.045597494,-0.015517411,-0.020009408,0.0029581764,-0.020792117,0.042716477,-0.016953293,0.04839361,-0.046152342,-0.024433231,0.0032639431,-0.023337927,0.0031889495,-0.01841318,0.027460262,-0.05677681,0.020470692,0.020915126,0.026178356,-0.006855436,-0.058303174,-0.00234096,-0.010992399,-0.005543221,0.014296403,0.020716663,0.00401641,-0.039575484,-0.019216385,-0.018021323,-0.00064115174,0.021543477,-0.021400264,0.007476979,-0.022502294,0.008529241,-0.014868179,0.027984723,-0.014375699,0.009529065,-0.029757103,-0.0011958425,0.016589584,0.04450947,0.008525825,-0.044383917,0.010667728,-0.045727797,0.015218372,-0.015424905,0.04323894,-0.043881368,-0.003888712,0.005602869,-0.015301673,-0.0401523,0.00321275,0.045872856,0.010452659,-0.0036541861,-0.03217766,0.026545078,0.037481356,0.013384385,0.020943172,0.04981854,0.011829445,-0.045498468,0.008639141,0.0062944815,-0.016038733,0.00011591276,0.020618161,-0.03808383,0.035773635,-0.015420423,-0.0070953043,-0.0038437722,0.013728744,-0.0065999543,-0.014962895,0.027315179,0.02312295,0.010928551,-0.010356917,-0.018043207,-0.04016637,0.023469886,-0.028435266,-0.036738537,-0.011046182,0.010902484,0.0042725205,-0.004780383,-0.024367822,0.038707852,-0.04318862
-0.035684492,0.0027199662,-0.019925702,-0.028049074,-0.0018608267,-0.03629483,0.008244984,0.05586354,-0.016977966,0.041257866,-0.003494981,-0.040837437,-0.020806838,-0.02147366,-0.043815214,0.024873482,-0.048802048,-0.033306297,0.033850677,-0.018279698,-0.03398929,0.009522622,0.025166038,0.020271573,0.0032240157,0.013750214,-0.055409074,-0.02130587,0.016663663,-0.03826654,0.0005218895,-0.00680201,-0.023977103,0.024694439,0.003123734,-0.03945881,0.009910652,-0.020440096,-0.016161678,0.0021694887,-0.019979957,-0.031207457,-0.0056359405,0.030850742,0.042742558,0.029746367,-0.020606935,-0.01701643,-0.004389257,-0.018783858,0.00398486,0.018541854,0.027586019,-0.008124307,0.029551342,-0.0013305416,0.017340595,0.02145867,-0.008378414,-0.0054137455,-0.010034173,-0.031730566,-0.0069654156,0.005760131,-0.0017494626,-0.025129512,-0.013965308,0.0055979905,0.031087982,-0.028780926,-0.011036043,0.018911358,-0.009838289,-0.033084843,0.0065253363,-0.0037807222,-0.013121565,-0.028229643,0.008319818,-0.014355629,-0.0026180148,0.025472397,0.01574024,-0.01718493,0.03821051,-0.034158513,-0.0034986758,-0.020391619,-0.024240565,0.031206673,-0.0067307386,-0.01320258,-0.021853367,0.0015501663,0.003939977,-0.013710244,-0.025338782,0.012497645,0.032182932,-0.025854772
0.00061382924,0.023812452,0.008220533,-0.01867564,-0.008622273,-0.058829,-0.015425394,0.0127735725,0.045287438,0.025274212,-0.04562472,-0.0219945,0.023046236,-0.046279836,0.028761942,0.0025187482,-0.0029854223,-0.026045607,0.011113987,0.000916772,-0.011585475,-0.051087916,-0.03140779,-0.031936154,-0.00054335024,-0.0016527846,0.016658872,-0.005898703,0.015384384,0.020609096,0.0032631932,0.008830306,0.05780025,-0.027360464,0.010040987,0.0055878675,0.03352992,0.019278605,-0.040577356,-0.018893484,-0.03388541,-0.019138588,0.008927139,-0.0022095728,0.053812526,0.038958684,-0.010593695,0.018222645,0.0004070491,0.04893166,-0.008702683,-0.053272348,0.0062144524,0.007969568,-0.0048160865,-0.010180755,-0.012421621,0.006609865,0.046802428,-0.030126443,-0.032037232,0.013543721,-0.00021524364,-0.054108374,-0.003214913,0.04650896,-0.0046706004,0.05254609,-0.030375108,0.022667537,0.0022313066,0.0061240997,0.008273033,0.0014537427,-0.05645485,-0.006839598,0.025857126,-0.055353083,0.025474807,-0.033875264,0.025397446,0.027764767,-0.024901962,-0.0065680426,0.03935818,-0.03185184,-0.02286343,0.04838434,-0.027199203,-0.009541537,0.036242336,-0.022420207,0.029008355,-0.02992531,-0.0019219801,-0.020358726,0.0015206218,0.0063238125,-0.000752875,-0.03786867
0.014645435,-0.011231277,0.011054615,0.046473376,0.022202061,0.03589393,-0.049899504,0.0010620734,0.02582326,0.029985145,-0.009928397,0.009700163,0.052230418,0.03232734,-0.013166501,0.01656646,-0.03088524,-0.031996775,0.0043241573,-0.04600079,-0.027228037,0.05436242,0.006549525,0.012084837,0.0048477114,0.023464512,-0.04957809,-0.02049105,0.01470944,0.04204997,0.018863427,0.01534047,0.031255804,-0.013638677,0.0028416533,-0.011959409,0.0012586693,-0.040218066,0.008951048,-0.024981087,0.007561644,-0.020321136,-0.0050169136,0.026028533,0.004459516,0.030440703,-0.0076264464,0.027459677,0.008739661,-0.00014334239,0.033474356,-0.034907833,-0.022451358,0.013548583,-0.016685087,-0.02931148,0.013117053,-0.051552508,0.046978258,-0.018309496,-0.024041867,-0.02065455,0.032797273,0.009827658,0.026328767,-0.009122572,-0.0060823145,0.015864978,-0.048542034,0.01443739,0.023879325,-0.027966531,0.029363032,-0.022672806,0.007064605,-0.0016914984,0.0140277,0.007861227,0.0012224781,-0.013116834,-0.022996802,-0.019307485,-0.019966146,0.032051507,-0.044872787,-0.0006506268,0.012084044,0.01743693,-0.002773608,0.02380463,-0.02990059,-0.01437983,0.0184163,0.028160121,0.04001605,-0.01307567,-0.041337907,-0.0061861817,0.03239412,-0.0036442208
-0.0014619374,-0.03548845,-0.02116099,0.0050794105,0.03779538,-0.0106214825,-0.014781927,0.029000327,0.0065946216,-0.006353279,0.01622144,-0.017433114,-0.008469141,0.018331384,-0.01837888,0.025376428,-0.023120668,0.00827891,0.011273931,-0.004800201,0.010441558,-0.031417172,-0.024062311,0.007161296,-0.016999466,-0.048589177,-0.038254574,-0.01492858,0.042329445,0.002143459,-0.003955036,-0.017019752,-0.029258244,-0.031369902,0.005055086,-0.033160433,-0.026328865,0.057469953,0.011358816,-0.025264656,0.01628718,0.008445571,-0.054598663,0.023614459,-0.015451838,0.0013024455,-0.031509507,0.0301069,0.020424629,-0.03771221,0.0039292383,-0.0138088595,-0.018517673,0.05181022,0.045313,0.025554517,0.0020499781,-0.014269821,-0.0035793998,0.029920464,0.016252898,-0.018066213,0.046614356,-0.0061510876,0.036944874,-0.0018484816,-0.013098036,-0.0072730393,-0.008435638,-0.026177078,-0.028202388,0.006870043,-0.037505228,-0.015543559,-0.01686565,-0.016383274,-0.0366661,0.0006483538,0.010496096,0.011811531,0.011566045,-0.008252163,-0.022710612,-0.012405978,0.042020123,-0.012168367,0.036861643,-0.016211884,-0.01339849,-0.03525916,0.04539297,-0.046370257,0.021783607,0.029728774,0.018601513,0.0049054646,0.0025340659,0.027993038,-0.041286666,0.0059285527
-0.032918356,0.014406653,0.044280894,0.015938994,0.034910887,-0.001797615,0.0026527708,0.035126127,-0.0407475,0.016319297,0.001995723,0.02998587,0.0006099157,-0.0012030224,0.015865859,0.006649097,0.017312221,0.011135206,-0.0068176775,-0.0154116005,-0.023955915,0.0040774127,-0.0041791294,-0.00058094953,0.051590376,-0.024733694,-0.029500358,0.048008703,-0.026565993,0.02215806,-0.018442329,0.0028401525,0.04797344,0.017281929,0.0063677044,-0.032454837,0.031746645,0.024959642,-0.020297991,-0.026781399,-0.0042249877,-0.043598868,0.04845344,-0.01451016,-0.0059891255,-0.008777843,-0.0030178353,-0.009326621,0.00971285,0.0034442586,-0.02784208,0.025422623,-0.028135626,-0.00032187265,0.0044654487,0.0058860527,-0.035208628,-0.0052264016,-0.008860645,-0.014457223,0.05660098,-0.006930207,0.024584953,-0.0011646436,-0.0018736811,-0.017266875,-0.032934904,-0.02411811,-0.026755745,-0.0036045548,0.0077842437,0.0054907706,-0.040931173,0.00015229137,0.031519037,-0.026655393,-0.013607007,-0.03545911,0.02977939,-0.019364921,0.005572181,-0.0119943,0.006656238,-0.010726523,0.02192688,-0.007299259,-0.01340691,-0.018794294,-0.027523762,-0.031700034,-0.0132113965,-0.040194783,-0.010702317,-0.016765656,0.0073961797,-0.01702415,-0.004558339,-0.0144960545,-0.021640897,-0.018995494
-0.0050621196,0.030931192,-0.0006872346,-0.007831928,-0.017187957,-0.026382918,-0.056278203,0.027382284,0.0011087911,-0.011713552,0.023866871,-0.034307446,0.020241586,-0.052666593,-0.027617166,-8.480222e-05,-0.029706214,0.049578737,0.016733268,0.028202243,0.020020908,0.016335197,-0.021492092,0.008896128,0.040835705,0.0025652603,0.024135599,-0.034346905,0.007668599,-0.005075674,0.02195553,0.02835096,0.017007714,0.015683113,-0.033204928,-0.010615379,0.009256476,0.039520778,0.05188108,0.044584766,-0.04112131,0.013798567,0.014979781,0.037083197,-0.011046391,-0.02358509,-0.00610409,0.013052301,-0.023245804,0.019608367,-0.017590612,0.029445773,-0.029968904,-0.028522927,0.0019736984,-0.017250093,0.037899423,0.0533806,0.00961246,-0.006825046,-0.005613545,0.000981399,-0.044244226,-0.049419835,0.033990152,-0.04134762,0.029692374,-0.012191493,0.01611383,-0.03419832,0.02796368,0.026100859,0.043310814,-0.013460879,0.036162905,-0.011341026,-0.032198954,0.03717516,-0.04123719,0.0012140991,-0.027084162,0.04198377,-0.015944948,0.008717786,-0.02608605,0.0015601456,-0.013309848,-0.00872555,0.027225276,0.042141024,0.017824082,0.00038188673,-0.013310167,-0.04079775,0.012133151,0.019854857,-0.03746274,0.012002107,0.0011515674,0.0055162716
-0.00985358,0.038945876,-0.02932042,-0.03562915,-0.0036587103,-0.023629295,-0.03234688,-0.007771032,-0.00096832396,0.053278916,-0.021255888,-0.025617583,-0.009264401,-0.019310214,-0.038220633,0.03734336,0.042133786,0.044289112,-0.024953514,-0.0124446135,-0.025186265,0.06303336,-0.024156662,0.03820995,-0.01314682,-0.009747969,-0.0056691426,0.03876432,-0.014206845,0.013532426,0.03506585,-0.008807468,0.01712467,0.03524922,-0.05495117,0.015715292,-0.030477267,-0.017603924,-0.03392459,-0.019650737,0.030002411,-0.013149849,0.022109432,-0.02360554,0.004942708,-0.013469064,0.011395155,-0.034067385,-0.015324271,-0.02119147,-0.00026050553,-0.014857941,-0.040700883,0.017485254,-0.0004206944,0.03878034,-0.010856111,-0.037174325,0.029975573,-0.011307759,0.004318116,-0.017035965,-7.5284355e-05,-0.012171245,-0.012298596,-0.016667204,-0.0056893807,0.02836077,0.025018873,0.013385745,-0.005452333,-0.013290743,-0.024783008,0.03804481,-0.048340347,-0.016532676,-0.04069051,-0.008332773,-0.0263045,0.014302405,-0.021187982,-0.02213774,-0.05515145,0.02962343,0.0060790083,-0.0047170566,0.031196589,-0.007291824,-0.0213659,-0.019482464,-0.003414848,0.0058735986,0.036257274,0.01032688,0.007588537,-0.0010439204,-0.038087774,0.04699702,-0.035706155,-0.036470205
0.009615988,-0.018559597,-0.0018638093,-0.017559998,-0.015138913,-0.0021832327,-0.03618847,0.012048457,-0.019194521,-0.02456873,-0.002038699,-0.045223292,0.02300327,0.009672936,0.042211257,0.0036914633,-0.034201715,-0.05421849,0.03263877,-0.036372174,0.018541412,0.008712867,0.0077413525,-0.027234213,-0.0047355876,0.02414173,0.0076653627,0.012373189,0.031807084,-0.006477827,-0.009004664,-0.029983139,0.01615502,-0.016809324,-0.028402243,0.009441352,0.02125742,0.022357503,0.037930734,-0.020715544,0.023237312,-0.0026635912,0.04122514,-0.034583557,-0.010962545,0.0006532932,0.03604236,0.011854197,0.019461447,0.01892813,0.036042415,0.033327162,0.015657095,-0.02328768,-0.028169993,0.011150418,-0.025640758,-0.0018953468,0.044705927,-0.024728904,0.0020152482,0.0056035644,0.02519493,0.0105396,-0.04064241,0.005462169,0.007993792,0.01979899,0.0056959116,-0.008319041,0.015177172,-0.010187872,-0.030452453,0.03016452,0.050852273,-0.01573419,0.0121536935,0.045499098,0.002522035,-0.0020231267,0.03259037,0.0040572756,0.011295071,0.052578676,0.031849004,-0.020250084,0.010734576,0.02539443,0.032192692,-0.0023858165,0.0064989165,0.013917534,-0.019273704,0.04734286,0.03049392,-0.014464836,-0.016754536,-0.04435698,-0.026052976,-0.02270725
-0.0043730014,0.020027272,0.046553973,-0.0055900994,-0.003746576,0.045889318,0.02629826,0.038244866,-0.043328755,0.02611758,-0.017456567,0.0030095447,0.041207638,-0.006237092,-0.017259609,-0.036964435,0.048319347,-0.028134886,-0.038525607,-0.027236937,-0.0074801524,0.0442884,0.031106167,0.003098831,0.040736582,-0.040854942,-0.002915415,-0.031957343,0.022855803,-0.008254941,-0.0060110684,-0.04608313,0.028753603,-0.0058386,-0.028812436,-0.012023695,-0.039612245,-0.017386826,-0.042499535,0.007659102,-0.030072195,0.037321914,0.015079122,-0.004580124,-0.007186631,-0.03571318,-0.013985137,-0.019255549,0.024620024,0.008212056,0.037227158,-0.0012692254,0.044772033,0.051391054,-0.02799264,-0.03533723,0.021375824,-0.0069841538,-0.013133719,0.0011329034,-0.031250082,-0.041057438,0.04125982,0.01226828,-0.031766422,-0.0011608856,-0.026316041,0.026765093,0.022669815,0.017807463,-0.02101493,0.018338634,0.009482359,-0.005683795,-0.012267826,0.007840928,0.032823514,-0.019886445,-0.0014350676,-0.02349722,0.03576837,-0.019668965,0.047124498,0.011033905,0.021252593,-0.032754052,0.01721052,-0.00016643322,0.010298759,-0.024648918,-0.010007886,-0.00034754578,-0.011778591,-0.006992627,-0.009820262,-0.0072910683,0.029395679,0.024116058,-0.023166519,0.013501539
0.038133442,-0.004134774,0.0037719822,-0.020417145,-0.022968281,-0.020553168,0.0039095962,0.01789222,0.0007845359,0.04446035,0.026530186,0.005908894,0.050975304,0.021448715,0.024478283,-0.011858536,0.03077037,-0.009281111,-0.009596429,0.00841731,-0.045810882,-0.023665933,-0.035256777,0.0161822,-0.044237573,-0.02074279,0.04953378,0.005432772,-0.0025266495,0.015050788,-0.011208585,-0.055171005,0.009092706,0.011063599,-0.006766122,0.0035530191,0.01495421,0.038992226,-0.018084431,-0.016854534,-0.021262243,0.018972471,-0.009016021,-0.011810155,-0.015032031,0.01267915,0.03636222,-0.031407114,-0.0440521,0.018391617,0.04538859,-0.008541136,-0.0069834925,0.0057960153,0.045450293,0.039507527,-0.032310177,-0.02881646,0.044822972,-0.00051698164,-0.020339003,0.004315542,0.01621575,-0.022230916,0.013520782,-0.018024223,-0.0074435514,-0.030337032,-0.01496144,0.019896735,-0.016848594,0.04157579,-0.03585862,0.008383722,-0.004699758,0.00032320432,0.007354095,-0.019481923,-0.028703758,-0.017293748,0.02223767,0.028124837,0.03850246,0.01081877,0.01409652,0.0018156067,-0.0431819,-0.01627707,-0.0023712914,0.004047618,-0.012457089,0.02371573,-0.031322125,-0.017477863,-0.03506501,-0.014457196,-0.045583986,-0.029929152,-0.04284175,-0.05097383
0.008156026,0.009831918,0.03344409,-0.011262602,0.019939728,-0.014088701,-0.02759254,0.011531125,-0.011494152,-0.0005322171,-0.006027636,-0.026762405,-0.023136599,0.013957327,-0.015026064,-0.026742874,-0.0069379723,-0.032747775,-0.005586117,-0.039195992,-0.022141034,-0.050132263,-0.025654247,-0.04785814,-0.005343445,-0.0007012095,0.010984327,0.001352608,-0.007989597,0.002457277,-0.007961859,-0.041985318,-0.009276086,-0.015238971,-0.007197917,-0.033374287,0.0063745524,0.005011899,-0.044833496,0.004490714,0.011042947,0.02295811,0.036736302,-0.012044325,-0.018406224,-0.0423742,-0.003718323,-0.041891567,-0.022225065,0.0408454,-0.014328731,-0.03405021,0.009858878,0.041387953,0.02814142,-0.036627803,0.027854778,-0.015126503,-0.004714557,-0.00035810022,0.0037567404,0.04667138,-0.023379939,0.025194492,-0.0156452,-0.02823045,-0.027459556,0.007453711,0.02316539,0.012327503,-0.021359703,-0.0049278685,-0.04334763,-0.034448538,0.043186583,0.033001155,-0.048894983,0.042694423,0.022051014,-0.011319643,0.0005783143,0.017257947,0.0038271507,-0.00046192523,-0.044269916,0.004162737,-0.047976576,0.024209738,-0.017017828,-0.037722662,0.032159988,-0.011531591,-0.027884688,-0.012217029,-0.030730091,0.0017883631,0.03258085,-0.013057712,-0.004931782,0.0068031987
-0.014407297,-0.033157524,-0.039185364,-0.059060585,0.0042642998,-0.008099049,-0.0058395127,-0.04216452,0.016623821,0.011241946,-0.030861171,0.0039656824,0.0205215,0.031461842,-0.03182902,0.0005387335,0.03293796,0.040691484,-0.03051207,0.016955733,-0.0045370106,0.00070953276,-0.009998488,-0.021968517,0.047303945,0.0033554805,0.03487332,0.026884263,-0.013432066,-0.00501544,0.00013359946,-0.03790317,0.05171872,-0.03929389,0.03652551,-0.026761895,0.01301247,0.01781422,-0.012408825,-0.009264448,0.027503965,0.015914623,0.0028606353,0.024948033,-0.015487316,0.01680307,-0.00542068,-0.036689963,0.022137238,0.017643597,-0.010140884,-0.027192079,-0.050190985,-0.016878314,0.04951282,-0.009007406,-0.005076255,-0.036658566,-0.0010369133,-0.057909857,-0.013104932,-0.050401732,0.0053002513,-0.029684315,0.02896187,-0.04867769,0.01483201,0.014575969,-0.018152945,-0.044857055,0.008590863,0.012492253,-0.006862347,-0.013201777,0.023746818,-0.0023066616,-0.022041073,0.042167626,0.048940424,0.0048795897,0.050907735,0.015188221,0.002958646,0.024464423,0.0045956704,-0.027166383,0.03760013,0.007316536,-0.015389595,0.021669906,0.046148844,0.014372907,-0.0009331983,-0.02966751,0.038395636,-0.061223533,0.016175494,-0.023349373,-0.023004089,0.020165749
-0.0064104684,-0.026460253,-0.0025523847,-0.037655126,0.006211182,0.027771534,0.022538597,0.024620526,-0.03837341,0.023142496,0.004168368,0.015626404,0.02917729,-0.043477874,0.015341974,-0.0338196,0.0034210905,0.0040335725,-0.004079963,0.006174401,0.025162369,0.018901223,-0.047489215,-0.020558689,0.04439355,0.034048203,0.027253121,0.01232611,0.005695046,0.0028258918,-0.02818563,0.0028048167,0.014186811,-0.012119145,0.028730974,-0.03208095,-0.051930096,0.039295252,-0.01642731,0.007898999,0.013105182,0.010123453,-0.02137959,-0.010910564,-0.010731453,0.029948398,-0.008952913,0.013521921,0.040760085,-0.020863885,0.028953556,-0.016738595,-0.0005703685,0.0038830668,-0.01591156,0.04935656,0.030830113,0.02128538,-0.025631176,0.0044085775,0.029604325,0.00588347,0.0013489808,0.01707028,-0.019329881,0.011673233,0.03134503,-0.047420733,0.00018705269,-0.046084467,0.006026041,-0.016008044,0.011224432,0.02561175,-0.04642658,-0.011635333,0.036560632,-0.05820062,0.0018387316,0.041380625,-2.483086e-05,0.012849463,0.030593615,-0.040769342,-0.018133951,-0.010606133,-0.027905384,-0.011924688,0.0052882805,-0.013725594,-0.016201053,-0.013478921,-0.01910751,-0.002487028,-0.017294306,-0.053030875,0.029873824,-0.010470459,-0.046861935,-0.00594624
0.013728878,-0.01038058,0.046592284,-0.03510063,-0.021208566,0.0059879413,0.025765873,0.0011989146,-0.03403012,-0.05807983,-0.025109945,-0.031195007,0.009140687,-0.00962119,-0.031495396,0.04871209,-0.020268537,-0.035164688,-0.023678279,0.035258364,-0.06425587,0.03604602,-0.021995805,-0.012722198,-0.018870829,0.02522689,0.027789531,0.013667005,-0.010047787,0.014243187,-0.035411593,0.04699615,-0.012363052,0.04721425,-0.02165671,0.012198392,-0.003016218,-0.028765196,0.02329857,0.004607965,-0.013733092,-0.019338368,-0.016265221,0.0063622785,0.0052672275,0.0036445959,-0.010554343,0.024809562,-0.043099195,0.025701197,0.01316507,-0.004373532,0.006145581,-0.011209889,-0.040276323,0.013975891,-0.058823217,0.02150132,-0.025757294,0.014324858,0.042839777,0.0002106084,0.038476795,0.047089476,0.029834919,0.022347124,-0.0176101,0.039000805,-0.0108959265,0.0056647635,0.041720398,0.013249053,0.013897231,-0.03726043,0.035929587,-0.04234388,0.010989529,0.007881485,-0.010677637,0.009997376,0.040838253,0.02837313,-0.046283256,-0.024022061,-0.005055572,-0.0011874575,-0.020119537,-0.028636929,0.00029870935,0.005450527,0.0036742156,0.030284904,-0.0008256854,-0.004574066,0.020277414,0.0122228945,-0.009017365,-0.030097203,-0.028203443,-0.009599254
-0.009858479,0.03285646,0.0035907365,0.032568663,0.040809892,-0.0038163576,0.005191778,0.03359456,-0.0061751157,0.0069714445,0.036458492,0.010009933,-0.029453719,-0.02674717,-0.008745339,-0.04287637,-0.050875936,-0.04158525,0.01891158,0.009938652,-0.0048889825,0.017624354,-0.04954515,-0.010018431,0.004816641,-0.012123119,0.026030606,-0.015904177,0.013323622,0.0137768,-0.03070179,0.00587344,0.0021051774,-0.020409554,0.004314622,0.022873256,0.023633683,0.002650466,-0.0039048125,0.0017312958,0.031147424,0.038888562,0.004632515,-0.05256649,-0.006992285,0.004191756,-0.00676716,0.04229206,-0.021332653,-0.016272074,-0.026970303,-0.00635489,0.018919727,0.040900864,-0.022279982,-0.045124378,0.0066843447,0.003967342,0.0011625702,-0.014905102,0.037942793,-0.034121376,-0.0022046964,0.020225137,-0.01883826,-0.0009119671,0.014343478,-0.047403503,-0.023284055,-0.038911335,-0.005321682,-0.013880878,0.017748155,-0.02012509,0.049693227,-0.036659237,-0.029064577,-0.017785424,-0.04720247,0.0012131197,0.01078343,0.025139889,-0.017091477,0.00849648,0.0051441463,-0.022574734,-0.012806265,0.005913481,-0.053469397,-0.015936878,0.008265519,-0.025798423,0.034487765,-0.016539838,0.032623027,-0.017998882,-0.012500275,0.030256769,0.037875447,0.011776344
0.0014987596,-0.0050064446,-0.003919578,-0.015566372,0.03694748,-0.018403508,-0.022586731,0.010878843,-0.055527672,0.008961629,0.05097624,-0.024663353,-0.045313567,-0.009656815,0.0126430085,0.0013744951,-0.0068601957,0.005717261,-0.029732985,0.036510002,-0.03907498,0.023854857,0.015591822,0.019690871,-0.0003189346,0.03156181,0.025000256,-0.044433136,-0.032272995,0.025758158,0.013833393,-0.029369714,0.012333654,-0.004512895,0.034999866,0.02709612,0.047544386,-0.008574953,-0.029531192,-0.0016984646,0.0018105418,0.007601104,-0.05526388,-0.033212736,0.044174,-0.003891804,-0.044095643,-0.0078981,0.0016590549,-0.015571731,-0.014130696,-0.04375822,0.016721293,-0.014452004,0.010524381,0.018459866,-0.016237926,0.020624012,-0.0150633445,-0.015076306,0.002154984,0.04719602,0.013357155,-0.04258833,-0.048982836,-0.032459565,0.014926495,0.0070176506,0.0072718803,0.022960626,-0.016929084,-0.028922874,-0.014136479,0.034440678,0.034256477,-0.016202128,0.010925173,0.019913048,-0.00826305,-0.010357144,-0.063767985,-0.017371511,-0.016521104,-0.006153581,-0.023012826,0.011493771,-0.027315376,0.032112285,-0.011872507,-0.016696187,0.005935724,0.010651242,-0.0014141401,-0.03181348,-0.034007017,0.013276837,-0.0068306536,-0.046802975,-0.020220602,-0.011986504
0.0053058793,0.0060047507,-0.034872927,0.029192885,-0.039100524,-0.024518685,-3.7082125e-05,0.032231636,-0.01564803,-0.032417864,0.0059873,-0.0028448428,-0.009142296,-0.053999342,0.03171001,0.00344892,-0.0010605825,0.02230009,0.008581391,0.008981839,-0.011704139,0.024466798,-0.05503687,-0.0029653362,0.0049547576,0.028256541,-0.03585315,0.01258469,0.046476293,0.009590315,-0.04089733,0.025590459,-0.041211613,0.038172297,0.022596007,-0.03406698,-0.02866496,-0.04144032,0.008084073,0.0011658375,-0.0020090118,0.0026273278,-0.044805676,-0.032675583,-0.005842573,-0.013574221,-0.03746448,-0.029126823,0.00449029,-0.029546037,0.045438465,0.031466037,-0.04002846,0.024457067,0.011313587,-0.010894654,-0.04398233,-0.022669727,-0.03592625,0.040468793,0.010640478,-0.046530217,-0.025829624,-0.05934348,-0.00053822313,0.0294935,-0.008590237,0.03039942,-0.016603757,0.027467074,0.009768623,-0.005302211,-0.014206844,0.016426746,0.014624205,0.006252424,-0.02973569,-0.014772628,0.02361422,-0.0021352265,-0.010585176,-0.016442122,-0.046873827,0.036122832,-0.02939696,0.017037023,-0.05430577,-0.004184369,0.030882288,-0.022488497,-0.016802054,0.02235745,-0.027152186,0.02590439,0.038736198,-0.008271869,-0.034415513,-0.007248215,0.019705597,-0.00304267
0.008003717,-0.01674043,-0.0025917864,-0.0033636668,-0.041630745,-0.0026316606,-0.024844412,-0.00661114,-0.037044313,-0.0072111352,-0.008685164,0.016197098,-0.01800393,-0.005185638,0.004433284,-0.0053117448,-0.020492746,0.026498416,0.004383208,0.0063351486,0.036846757,-0.027176378,-0.013270198,0.036498364,-0.031196529,-0.02748257,-0.024684059,0.047349267,0.016540555,-0.0012990981,-0.024087407,-0.047430612,0.010860684,0.023022799,-0.044489127,0.011294275,0.022976708,-0.014242279,-0.05956158,-0.02768793,0.003911845,-0.016793909,0.027167154,-0.015626574,-0.021400016,0.02114279,0.008523777,-0.014979324,0.033342194,-0.047871068,-0.032769453,-0.008057862,0.036083672,-0.05367059,0.033692896,-0.03162455,-0.018355954,-0.005865514,0.023123445,0.003575425,0.009687708,0.00061602774,-0.035252556,0.029553136,-0.0052124574,-0.013546982,-0.023528164,0.025857022,-0.0012153336,-0.0075541623,-0.045093417,-0.012382071,-0.032021735,-0.0013309718,-0.04204264,-0.037862893,-0.018669805,-0.0069889585,-0.00044102082,0.029344298,-0.05349515,-0.0010371315,0.0200471,0.03835658,-0.02246956,0.042881336,0.00982208,-0.028927803,-0.028065316,0.0049635894,0.0032390694,0.0044593085,-0.0077437,0.0005484553,0.029060405,0.0086621065,-0.031582903,0.021146085,0.006458965,-0.03637707
0.041335642,-0.01593579,0.0017845811,0.011698014,0.02122108,-0.011270265,-0.0017000572,0.015331907,0.0019597432,-0.033365093,-0.005115953,-0.0060124155,-0.016221568,0.040773936,-0.02771195,-0.042568017,0.044155788,0.035010803,-0.027791165,0.008075034,-0.017370058,-0.00047638355,0.007120052,-0.006212021,0.025327282,0.01534411,-0.017465165,-0.031911716,0.01913479,-0.015324957,-0.001868759,-0.041775536,-0.0024717073,0.032220468,-0.020643212,-0.028163943,-0.007744716,-0.025021035,-0.034338836,-0.0039979196,0.03454954,-0.05194625,0.0075984965,-0.001901643,-0.024196493,0.013619767,0.020173097,-0.0039397567,-0.013039632,-0.0050227363,0.017578267,-0.028527701,0.021706227,0.0022817205,0.03546234,0.04351017,0.04970422,-0.015495858,0.0039039725,0.06675656,0.02591029,0.008292803,0.030901035,0.02412687,-0.012664719,-0.039324414,-0.03592836,-0.01346692,0.00079605874,-0.031611387,0.009047923,-0.0058438433,-0.03474831,0.022621669,0.020975035,-0.05433219,0.00049746176,-0.031996336,0.04196163,0.02183102,-0.038774867,-0.02453512,0.030870195,-0.02543678,0.028481722,0.028311072,-0.011480983,0.04518924,0.051859587,0.005424164,-0.048774753,-0.04353463,-0.0063629374,0.004659617,-0.0071210987,0.022858702,0.0004600453,-0.0057165506,0.02329792,-0.020333994
0.02316011,0.0075744386,0.005419847,-0.001082918,0.015844123,-0.0063429293,-0.026087252,-0.04179523,-0.015689291,0.013541209,0.036365785,-0.0014414089,0.023683023,-0.021310981,-0.01155392,0.023755977,-0.00032474584,0.018547023,0.020829033,-0.009237562,-0.044452395,0.040856525,-0.037697315,-0.027774015,0.046495866,0.006978462,0.0020305056,0.027243169,-0.013359935,-0.04845526,-0.045412418,0.026204966,0.042034473,0.0057302476,0.006670828,-0.02046328,-0.054070223,-0.023769502,0.0031104954,0.003584513,0.0091742,-0.010275992,-0.012651007,-0.046195567,0.0028908628,0.022397775,-0.020268152,-0.019343002,0.009413576,-0.008109407,-0.046358086,0.015579767,-0.005714793,0.008632658,-0.033888612,-0.012771601,-0.044874806,0.023269134,-0.0023772013,-0.018102717,0.038260143,-0.020148039,-0.006653818,-0.021424856,-0.025780564,-0.022270981,0.038208574,-0.0067651225,-0.025023123,0.044146,0.0513559,-0.04343812,0.008376866,-0.012310325,-0.013518619,-0.02046872,-0.034516938,-0.04991828,0.00064533367,-0.020607235,-0.042750556,0.044136845,-0.02769546,0.044530936,0.03623742,-0.0015564262,0.004585968,-0.04987977,0.011727991,0.0015171266,-0.0417057,0.011643712,-0.008647626,0.008627844,-0.006732477,-0.016821822,0.009756218,-0.013990063,0.0073012123,0.0077015557
0.009039786,0.0052895127,-0.013603241,0.01869217,-0.0100038955,0.0011076842,-0.03909053,-0.009686177,0.0044162353,0.0133079365,0.008665839,0.007893338,-0.052141264,-0.028239666,0.012885037,-0.017449819,-0.028585758,-0.024667185,-0.043097034,-0.004486693,-0.006283226,0.016051866,-0.009506852,-0.017989658,0.026675062,-0.0035625629,-0.015186855,-0.029147755,-0.0018657742,0.025151325,-0.017927168,-0.021154264,0.034858026,0.018024515,0.009564493,0.004354977,-0.0062761223,-0.0025210134,0.002110344,0.024220005,0.005703071,-0.03189626,0.01416202,-0.056877088,-0.019597638,-0.027595505,0.018509217,-0.011006375,0.020026276,-0.052928608,0.01795402,0.026525345,0.0029368864,0.005737617,0.02947502,-0.0070960913,0.0078817755,0.024514982,-0.045332436,0.0030053365,-0.031359084,0.000525088,0.039471313,0.02297365,0.0058921115,-0.041353565,0.006883,-0.022020036,-0.004505686,0.008806727,0.0042450964,0.0057953037,-0.008447329,0.00724291,0.010104684,0.011344948,0.053073786,-0.032567628,0.052847728,-0.034494575,-0.0017528315,0.015572397,0.03232543,0.028806804,-0.03400622,-0.028666409,-0.046752814,-0.048633702,-0.013209804,-0.0051682033,-0.03936718,-0.034970175,-0.04303696,-1.1051452e-05,-0.031343672,-0.005394618,0.02131899,-0.022090936,0.00020852602,0.00234147
-0.0075899702,-0.014161465,-0.02730165,-0.037785698,0.042394407,-0.023911478,0.014317729,0.02294406,0.030632015,-0.030600531,-0.00902315,0.04602379,0.013746199,0.010727715,0.03296042,-0.015443756,0.0012654867,-0.0058873016,-0.014670839,0.03399934,-0.0589026,0.010028625,-0.012429072,-0.022176845,-0.00022311762,0.03468966,0.013351669,0.012362433,0.004934922,0.028939193,-0.034629297,-0.008051679,-0.0032150175,0.0068437816,0.009576108,0.007886183,-0.0086387275,0.033496767,-0.047696132,-0.013339596,-0.027106008,-0.009793188,0.005260202,-0.00091799675,0.043703847,-0.017399734,-0.026231127,0.038792215,0.020603558,-0.026726749,0.0061748205,0.0049103443,0.043730017,-0.02519089,0.014770181,-0.00930881,-0.02858739,-0.04086956,-0.02419755,0.018598683,0.004927129,-0.057192244,-0.007631711,-0.0023998567,0.017285442,0.0066743,0.00084499316,-0.00026744278,-0.01964028,0.02195233,0.045935366,0.022404607,-0.04652185,-0.0012189728,0.015779758,-0.013985443,0.022556283,0.0116743855,0.045155466,0.015414629,0.044756215,-0.01667492,0.018687813,0.01605972,0.0022113896,-0.010078397,-0.028462138,0.01685862,0.0377184,-0.0132997995,0.01740871,-0.016307218,0.0312789,0.0075402036,-0.014509447,0.013260627,-0.03759132,0.028003085,-0.04776876,0.017624239
-0.032054152,0.01746727,0.006969456,-0.0065152203,0.03685914,0.04242994,0.011254814,0.0059848595,0.005425673,0.03809173,-0.029695692,-0.012663292,0.0044653644,0.02420154,-0.005583914,-0.030875878,-0.02281161,0.049606036,-0.022155996,-0.0008259282,-0.023238441,0.02207102,0.028039642,-0.018602837,-0.033266995,0.0010561295,-0.042836834,-0.032068852,-0.033713166,0.01928567,-0.006045449,-0.008538387,-0.018370077,-0.047700208,0.00884395,0.0005301794,-0.05145004,0.011956707,-0.026056588,-0.0037926943,0.0028321086,-0.017246112,-0.022407858,-0.034092136,-0.026595213,0.008807503,-0.024070742,-0.036806602,0.037733518,-0.0083616935,-0.023049051,-0.025255779,0.037516564,0.0044766637,0.020379886,0.005767796,-0.024486998,-0.01798366,0.0050915643,0.0027103808,0.04070852,0.005904736,0.04531632,0.01950469,-0.049168497,-0.0010974962,0.038588684,-0.0025257578,-0.026806615,0.03444722,0.0016693497,0.03526929,0.008440331,-0.04046937,-0.01044774,0.0031643421,0.0046653077,0.033615485,-0.022245819,0.028815696,-0.053506624,0.041585214,-0.021900587,0.0070896707,-0.0059336657,0.039027203,0.0033121787,0.052264184,-0.056036927,0.004070366,0.0104311975,0.012970836,-0.019112678,0.011840618,-0.030531205,0.029371208,-0.057042547,0.0115198335,0.037721705,0.032879252
0.01642369,-0.0071309563,0.0092348065,0.024310464,-0.042569846,-0.0070904996,0.0019493238,-0.014405437,0.026584087,-0.008468301,0.0035815856,-0.006338959,-0.032743227,0.005259361,0.004617972,-0.048016798,0.022238266,0.05043516,-0.05474677,0.0040335674,-0.03612377,0.06536074,0.0070698,-0.04761342,0.013426252,0.037808225,0.0010970504,-0.024719508,0.0345254,0.022305438,0.027693816,0.02620105,-0.028816842,0.040317293,-0.022103097,-0.041228563,0.0007935995,-0.015116145,0.025494698,-0.009750415,0.008999508,-0.0026524568,0.003112862,0.011810609,-0.04455798,0.0075188237,-0.010385013,0.006645978,0.019618206,-0.022190051,0.013129859,-0.02193704,-0.05434048,0.019436102,-0.04739315,-0.019165441,0.003689201,0.027576674,-0.015044831,0.0016529688,0.0025789822,-0.011220733,0.011871976,-0.04757877,0.017847445,-0.05348851,-0.017622275,0.038462266,-0.019508593,-0.025347678,-0.012838824,-0.019217016,-0.023703767,0.007673522,0.0045558703,-0.0023755128,0.010647839,0.0150796315,-0.0053068358,-0.0049448945,-0.025352476,-0.0128516285,0.009500664,0.018506046,-0.014703605,-0.017904146,-0.05352197,-0.0060761273,0.015380512,-0.0329989,-0.008074221,-0.03819531,0.0060080644,-0.043476865,-0.016229415,-0.04144447,-0.053485975,-0.014138033,-0.0041048797,0.029590113
0.012814464,-0.029700307,-0.051552687,0.02943051,0.0049369317,-0.03647384,0.008952678,0.016102312,0.0016229098,0.024325343,0.0065801702,-0.014334722,0.034776863,-0.007982782,0.013168428,-0.029668117,0.0035084519,-0.016050126,-0.0016318824,0.024162753,-0.020301627,0.0422793,0.0049469243,0.025666367,-0.017136883,0.038669758,0.0105740065,-0.027365973,0.049253076,-0.025376309,0.0091720605,-0.0012940504,-0.006006912,0.00019536281,0.0006202413,-0.038048,-0.020537004,0.026595507,-0.0158441,0.03464084,-0.038438108,-0.036258455,0.01494831,-0.044437997,0.030692609,0.03825998,-0.03369617,-0.026156131,0.011254811,0.035599455,0.011502782,0.014381431,-0.016341155,0.03721824,0.009921331,0.0063533583,-0.011683652,-0.024227919,-0.037454627,-0.0071949293,-0.032277472,0.042714525,-0.034474313,0.043507237,-0.019149039,-0.0172087,0.01448169,0.013541619,-0.016616771,0.0120385215,-0.009734334,0.031771913,-0.0011978021,0.021136444,0.0026863967,-0.044976387,0.01332949,0.001779227,0.0009521218,-0.03770407,-0.016669083,-0.015019941,-0.012325155,-0.0049118553,-0.003291634,-0.006993901,-0.0037609322,0.0055190814,0.03221617,-0.03703312,-0.0009323581,-0.011905739,-0.016811155,0.029134775,0.016317066,-0.027191358,-0.0058161947,0.030760733,-0.027059752,0.026769148
0.043524634,0.007427885,0.00083709985,0.014041224,-0.0056181313,-0.019802123,-0.036905214,-0.021386337,0.003993554,0.00143181,-0.020125404,0.0060990453,-0.03284337,-0.007236064,-0.059051357,-0.022445682,0.025754238,0.01018211,-0.038672633,0.03219965,-0.0074481904,0.0100994725,0.054828733,0.042145774,-0.027077451,-0.03356128,0.043394264,0.031698246,0.02109276,-0.01961109,0.010509751,0.003054876,0.017863326,-0.00179514,-0.030914562,0.014320998,-0.02568344,0.019879367,-0.051015303,0.03860872,0.010594118,0.031179456,-0.016810875,-0.021370348,0.033682555,-0.024672236,-0.009129012,0.0129298745,0.005989273,-0.00065111596,0.030249659,-0.0015274265,0.00042149058,-0.004837733,-0.049770005,0.010850821,0.04234479,-0.011938878,-0.024221301,0.009104742,0.036828674,-0.0076986738,0.05010912,0.032096025,0.0057509113,0.032453284,-0.041081596,-0.04932134,-0.037625786,0.041609325,0.04211326,-0.021307006,0.019904736,-0.00040784013,-0.011622053,-0.044827294,0.011125722,-0.024186056,0.021051252,0.0015076577,-0.0063263895,-0.007753866,-0.008299814,0.036888782,0.02082228,-0.00646647,-0.008676841,0.0054521034,-0.032224342,0.0051316177,-0.020466384,-0.013492608,-0.021362506,-0.03343135,0.02097105,0.0086809,0.017173612,0.023309203,0.029783944,-0.024016729
-0.015608043,-0.0034000506,0.02824552,-0.037458766,-0.030332232,0.019595932,0.02186329,0.042800304,-0.0015468221,0.0033872148,0.020046284,0.047994442,0.012374889,0.029955046,-0.011425271,-0.008224464,0.014266584,0.02445799,0.02588058,-0.038989555,0.007760298,-0.026287733,-0.03392941,-0.0035611703,0.01432687,-0.03356019,0.027090317,-0.0076825884,0.010834417,-0.036626272,0.015117953,-0.031686045,0.004914181,-0.008890311,-0.024822762,-0.03941493,-0.03045998,0.04222039,-0.02205326,0.024583245,-0.03745146,-0.05863065,0.022842027,-0.01635526,0.031870756,-0.029610127,0.026041348,-0.026528997,-0.022482445,0.002635556,0.023017475,0.024970835,0.003436071,-0.037040353,0.04324254,0.004657617,0.020217123,-0.029497221,-0.0032905126,-0.015572485,-0.0060200803,-0.047099616,0.031646825,-0.018116748,0.0025512099,-0.021610642,0.033711758,0.011989309,0.009557043,-0.02546593,-0.011283315,0.016801342,0.022009894,-0.016698187,0.007236941,-0.021287452,-0.0267938,-0.025368813,0.012945193,-0.028355176,0.030923652,-0.0060695033,-0.008672206,0.020476371,-0.03459619,-0.03354856,0.0050645387,-0.011483288,0.05529547,0.024159938,0.0024251326,-0.01623675,-0.010376764,0.0055420646,0.054093167,-0.0323185,0.00681563,0.0055339406,-0.058120728,0.003352566
-0.014791965,-0.022429055,-0.01554534,-0.0014118481,-0.0065188785,-0.015348913,-0.009062119,-0.047487818,0.016385186,-0.00026541814,-0.016068663,0.04341953,-0.038413286,-0.037907984,-0.016560942,-0.032683615,0.029094674,-0.021750417,-0.04365322,0.010432689,0.0074399114,0.009111936,0.0061164685,-0.0015375958,-0.000950196,-0.02360022,-0.007952247,0.0029314582,0.037031364,-0.006694102,0.0005425495,0.02329787,-0.0007519306,0.007147218,-0.0035868995,0.01616075,0.0026059134,-0.05549967,-0.047092944,-0.038130205,0.032353275,-0.057914443,0.014158747,0.010318785,-0.018022576,-0.023320517,-0.046101943,0.03337794,-0.031692512,0.030996613,-0.02397684,-0.02001953,0.008645419,-0.042176705,-0.011491219,-0.027990494,0.050895996,-0.0028285955,-0.027346168,0.04562485,0.024715494,-0.024317805,-0.00074754097,-0.0139703825,-0.03160474,0.011821909,0.012456311,0.0054888004,0.0012143523,0.030881042,0.023528066,0.044434488,-0.05860179,0.0037288892,0.0015621771,-0.037626386,0.030130964,0.056483965,0.022075485,0.025796235,0.0050893463,0.011188673,-0.0014306623,-0.016675076,-0.0055002626,0.016145399,-0.016354784,0.015153955,0.018844776,-0.0018801098,0.013475075,0.014433189,0.009129339,-0.060691323,0.005733313,0.025195941,0.01870891,-0.03372133,-0.0006295697,-0.033859108
-0.0039001997,-0.016972354,-0.028343512,-0.024408499,0.04478123,0.008656196,-0.06181634,-0.050063055,-0.046211604,-0.023239255,-0.005124132,-0.014426771,-0.0025610134,-0.004675674,-0.031649638,0.005858014,-0.002711507,-0.04581568,0.0018037332,0.006604591,-0.03656184,0.018339658,0.010609986,0.011621816,-0.01187293,-0.05810501,-0.006832388,-0.022786925,0.0034850545,-0.021406941,0.0406367,0.012817496,-0.030936731,0.04265441,0.003882369,0.007144015,-0.032147873,0.026508616,-0.02271423,-0.036298785,0.053976215,0.010682112,-0.020131502,-0.04119003,-0.022173038,-0.014068061,-0.026812725,0.003318655,0.0076109227,0.03254113,0.026977625,0.041150864,-0.00818489,0.023366233,-0.005332397,-0.050025556,-0.022449102,0.010754403,0.028734889,-0.013785891,-0.035465464,0.0021724596,-0.0069454904,-0.026474945,-0.05265007,-0.015656494,0.010136673,0.035302956,-0.039447173,-0.009087594,-0.059139904,-0.010359082,-0.008051079,-0.05820076,0.0019170619,-0.041627396,0.010495974,-0.040795352,0.014981328,-0.009831111,-0.053701237,0.018980304,0.002365485,0.01642051,-0.020885801,-0.0088125,-0.055275235,0.0012078763,0.013185442,-0.008616928,0.03699969,0.019676996,-0.055478238,0.0042630243,-0.031691067,-0.006310275,0.0030380494,-0.026051953,-0.053274762,-0.004110139
0.020043759,0.048380338,-0.025125494,-0.041249894,-0.026978064,0.022833584,-0.060312793,0.018477809,-0.0027527523,0.013533556,0.0034989275,-0.027688101,-0.024596201,0.011075846,0.025830101,-0.016161468,0.01528272,-0.012861282,0.0033420576,-0.0024259565,-0.012199744,-0.012282096,-0.04228493,-0.03810418,0.0003913707,0.01171002,-0.00046458517,0.032054696,-0.004571974,-0.00065864174,-0.04547207,0.00011625909,-0.03869978,0.008097746,0.030380638,0.010783389,0.023094542,0.004755452,-0.0400178,-0.000858135,-0.02934985,-0.008175787,-0.011423273,-0.011837764,-0.006951289,-0.018882828,-0.012547349,-0.002707317,-0.02628285,0.030862458,-0.020838978,0.03904901,-0.019721294,0.026822066,-0.005518267,0.01325259,0.048122115,-0.017465511,-0.011529905,-0.037509717,-0.0025024526,-0.02292078,-0.04008759,0.0027298208,-0.029164733,0.025888462,-0.020045444,0.007378965,0.009295877,0.006046036,0.0026558912,0.011462248,0.05034323,0.0053906664,0.011155995,0.014396032,0.031963367,0.021805264,0.0036951604,-0.026157511,-0.002677153,0.025926217,-0.0036308973,-0.03168695,-0.0046625873,-0.03125281,-0.019534823,-0.017112276,0.02268147,-0.0005633147,0.0067174532,0.019832158,0.0067203194,0.0049305754,-0.044599663,0.017354276,-0.0019192017,0.046668783,-0.009602291,-0.020558218
-0.029300665,0.012155168,0.0013269939,-0.022796685,0.013636646,0.009302747,-0.013093136,-0.026036454,0.014166696,-0.025581175,-0.0004542475,0.0023959104,-0.02089187,0.026720565,-0.028073436,0.048023857,-0.016802542,-0.01791897,-0.0081965495,-0.013924661,-0.041268703,0.027638376,0.0035848983,-0.026638899,-0.007368955,-0.016589042,-0.02594647,-0.037854683,0.008422805,0.00036419762,-0.024653332,-0.00038327818,-0.036142685,-0.022345904,0.014742746,0.000805982,-0.051176693,0.023801077,0.041010216,0.028505413,0.039663486,-0.0321772,-0.03291316,-0.033894323,-0.009880983,0.028690992,-0.041914567,-0.04234108,-0.01119315,0.009775298,-0.034244064,-0.03504888,0.053693544,-0.018538937,0.024763849,0.008057285,0.02363798,-0.020107433,0.022391327,0.022775538,-0.04205582,-0.006538636,0.012855107,0.010828156,-0.0009900712,0.023956176,0.011384586,0.016083285,-0.027034206,-0.012091245,0.020500513,0.01940702,-0.019544983,-0.026821062,-0.01874534,0.034145374,0.010848895,0.03304694,-0.015452318,0.051492658,-0.0138924075,-0.011899906,0.035305448,-0.0028903626,-0.036981054,-0.009356398,0.021708887,0.007012516,-0.011488724,-0.020005645,-0.004125788,-0.014861299,0.03815608,-0.018258078,-0.013982131,2.4363737e-05,0.011260936,0.0141976345,-0.010734984,0.00034929218
0.011724009,0.024929699,0.04172703,-0.005524105,-0.025777463,0.03278577,0.01815143,-0.03178997,-0.020562606,-0.04492068,-0.03868846,0.054432865,0.006662183,-0.038481906,0.016554462,0.046610195,-0.028017515,-0.011170009,-0.05603315,0.0084763,-0.021544378,0.00030537887,-0.032996412,0.009207646,0.018557286,0.008020318,-0.012038551,-0.015088265,0.013080714,-0.03591928,-0.0063524367,-0.007303675,-0.027344964,0.03295793,0.0054034633,0.002663542,0.0009647561,-0.036039505,-0.015500361,0.04070005,-0.035204135,-0.007533875,0.02333021,-0.0022986813,-0.050267916,-0.02312792,0.0067415633,-0.015132676,0.02681422,-0.020258222,-0.050283924,-0.024049778,-0.03724584,0.008047065,0.016893746,0.047663603,-0.03164556,-0.026194425,-0.05262914,-0.007140058,0.05077837,0.017235985,0.018467171,-0.005948233,0.0030349332,-0.05346309,0.02217723,-0.054747526,-0.030007562,-0.04505741,0.009860894,0.005554501,-0.0010463878,0.034467366,-0.031719122,0.040694598,0.014420875,-0.03234583,0.0025342628,0.0023969975,0.05538364,-0.03997871,0.0004532168,0.007543208,-0.012886849,0.02196964,-0.020393861,0.012540505,0.035891026,-0.03234674,-0.037597712,0.0077185207,0.03476853,0.01125058,0.021304874,0.04236757,-0.019345222,0.017294763,-0.04159873,0.048484873
-0.032156397,-0.04406142,0.021750605,0.01797334,-0.01323219,-0.0239327,-0.027476128,-0.016257586,0.003559162,-0.0032677643,-0.0156122465,-0.012180727,-0.022881381,0.03279534,-0.016236644,0.01659223,-0.035099372,0.024741758,-0.04373844,0.019603312,-0.03316371,0.0031778305,0.021484386,0.034745935,-0.025633803,0.0026318615,0.041971013,-0.0075691924,0.01604005,0.015837243,-0.01302451,0.023780495,0.019531408,-0.03316926,0.028961739,-0.036136847,0.019047342,-0.0077339695,-0.017572036,0.029518692,-0.013143049,-0.042584956,-0.006397497,0.0115727475,0.010220943,-0.04735331,-0.042598244,-0.031173032,-0.017759748,0.055348594,0.04805869,-0.05133449,-0.015523739,-0.03242338,-0.00055466144,-0.0273737,0.009281432,-0.042479675,-0.014811909,-0.005821838,0.015439535,-0.030231413,0.026607405,-0.013978716,-0.0196347,-0.008735997,0.03045713,0.010498705,-0.0072499653,-0.004047599,0.01264332,-0.011764185,0.015823595,0.007875263,-0.013374434,0.0046810866,0.019100025,-0.014866132,-0.011472312,-0.0153296525,-0.00076686346,-0.019619625,0.012619389,0.032209758,0.026571108,0.012397877,0.02611856,-0.008971541,0.015864247,-0.04088911,0.006692391,-0.01619726,-0.041610014,0.0014571265,-0.004234833,-0.019858412,0.02736162,0.006968858,0.02488275,0.04428305
0.020646933,0.021121262,0.0010234509,-0.017181482,0.014985882,-0.005620497,-0.02957209,0.01790002,0.0044414834,0.017574554,-0.017285539,0.0402724,0.015814817,-0.027499288,0.00016453856,-0.013516522,-0.04355655,-0.03511871,-0.0015625996,0.015827466,-0.018016111,0.0042475415,0.015972381,-0.0060395803,-0.019430079,0.012962898,0.019836312,-0.054262947,-0.041520916,0.006210852,0.007985095,0.013697403,-0.003569654,-0.021255169,-0.0027361012,-0.019975185,-0.04063231,0.00025044585,0.00061492866,0.0448235,-0.027992515,-0.046663053,-0.04317503,-0.047357716,-0.01735647,-0.043324236,-0.0051111206,-0.0007417067,-0.03150294,0.032884493,-0.008221904,-0.025951104,0.00049725093,-0.016659316,-0.014728921,0.027803065,-0.038066387,-0.032433607,0.0074314764,6.8034075e-05,-0.0066011827,-0.056879435,0.0034443724,-0.038114365,-0.012207466,0.03845431,0.0034269998,0.030794498,-0.022097347,0.0038942792,-0.008595931,0.010989726,-0.058330327,0.03306372,0.007965572,0.03558963,0.04168798,0.0010608225,-0.009432349,0.027361132,-0.02226893,-0.0023955002,-0.027286306,-0.050722457,-0.002892212,0.016594144,-0.021681845,0.0009949146,0.0070819687,0.014842919,0.03578496,0.0009082822,0.015197053,0.046181805,-0.00933036,0.0029040815,-0.04445905,0.035434652,0.017465439,0.004247987
0.024321403,-0.028036717,-0.0062806234,0.0026782397,-0.0037878512,0.021905405,0.022628933,0.02985124,-0.016181601,-0.032965556,0.040684436,-0.013601656,-0.023390284,-0.020477433,0.008754344,-0.035842527,0.030769011,0.03500234,0.017457608,0.025625361,0.011118515,0.0010189803,0.005118893,-0.023213565,0.01763322,-0.021140965,0.017078558,0.0025719416,-0.009131954,0.03351398,-0.043439716,0.016212812,-0.017576173,-0.0060583805,-0.004002878,-0.052876893,0.011824759,-0.016344268,0.007998394,-0.008532977,0.022243112,0.051767793,-0.029972695,-0.039280135,-0.023246676,0.034778398,0.025818607,-0.0024422766,0.016932117,-0.0016863781,0.0327894,-0.03610668,0.031039853,-0.0094797015,-0.04014617,0.0015430385,-0.021034176,0.023884946,0.03603526,0.044594485,0.015815875,0.052150633,-0.022711711,0.012165619,0.040997677,0.013507163,-0.05626243,0.0011337522,0.025706558,0.024096914,0.03658478,-0.012470998,-0.022465825,-0.025399132,0.014930987,0.016682364,-0.0022131316,-0.051528618,-0.02319836,0.0355885,-0.039922576,0.010162462,0.015061284,0.0063383235,-0.028306726,-0.047109388,0.012780869,-0.014684374,-0.022518728,-0.0028011673,-0.009516313,-0.0046213027,0.027321106,0.053539764,0.014359373,-0.0049818116,0.0009396737,-0.034065567,0.041627593,-0.0084206285
-0.027124545,0.028989427,-0.00057514635,-0.015877955,0.027286153,-0.0044253413,-0.046434574,-0.027058687,-0.008919728,-0.031300884,0.013669506,0.007585916,0.023308404,0.020621412,0.048976343,-0.016754445,-0.039279316,0.008194359,-0.026729614,0.02826497,0.0019632631,0.0033292887,-0.00049320573,-0.019926514,-0.05702258,-0.025979213,-0.020587716,-0.047159977,0.04510378,-0.02430845,0.023093654,0.0035994367,0.012079881,0.026253166,-0.02000811,0.038702093,-0.026630567,0.01891823,-0.04025899,-0.0150127085,0.025655152,0.023662275,-0.052026823,-0.0018340215,0.0023567977,0.01285635,-0.043143563,-0.0054002325,0.016658813,-0.03519122,0.019433467,-0.031001946,0.016419802,0.017871166,0.0363336,0.02778781,0.022360729,0.052929886,-0.029059043,-0.018753408,-0.014029479,-0.039711364,-0.028361898,0.0050138785,-0.012077388,0.0074394266,-0.027563022,0.02682422,-0.053324264,0.014918442,-0.015470425,-0.017543606,0.027032247,0.0035192452,-0.019120611,0.011413425,0.041653737,0.038286775,0.03235244,-0.037487846,0.0023074874,-0.009412947,0.004047939,-0.009522958,-0.023870608,0.010772955,0.008278057,-0.024758209,-0.02862262,-0.038317297,-0.017091665,0.04108034,-0.04128414,-0.0020554955,0.028508503,-0.010738026,0.019275023,-0.0036443772,-0.008206015,-0.056574907
0.017487958,-0.016984267,0.019085227,0.0061444906,-0.024800945,0.0051017804,0.004962567,0.011622629,0.01763791,-0.020832121,-0.018125271,-0.031002149,-0.004681766,-0.011796045,0.042797383,0.03663883,-0.0022969432,-0.011126681,0.0056388145,0.021685006,0.017324096,0.057317495,0.0017020375,-0.044073183,0.03303668,0.014765017,0.00026560732,-0.016414972,-0.014072054,-0.009055883,0.023100317,-0.021134038,-0.01818947,0.016468486,0.01814296,0.010144758,0.042478215,-0.008892429,0.011311939,-0.010551644,-0.022337796,-0.043083824,0.04023703,-0.03190472,-0.019405942,-0.037518688,0.018280722,-0.00017838734,-0.009247912,-0.015727088,-0.020140255,0.03534965,-0.022263581,-0.013947017,0.04153678,0.031071426,0.0495847,-0.011207253,-0.031625904,-0.003460876,0.017859746,-0.057372883,-0.036720272,-0.010439,0.02944894,0.0007858462,-0.030634992,-0.0010408902,0.035031233,-0.013534784,-0.01850228,-0.015334564,-0.0033847992,0.018673018,0.019701911,0.016244726,0.052989915,-0.02786704,-0.053344492,0.053877536,-0.014707211,0.016438207,0.011470401,-0.00300959,-0.008725283,-0.022086535,0.020329624,0.011065673,-0.04216972,-0.033620857,-0.06381957,-0.027779333,-0.010175807,-0.013840511,-0.04790724,-0.005957511,0.031508397,0.027725013,0.023577804,-0.021328202
