0
-0.0082357
-0.006180012
-0.0033792255
-0.0011087661
0.007120669
-0.0013798107
0.0073225186
-0.0069663296
-0.00277507
-0.003586925
-0.00861705
-0.010859497
-0.00052401796
-0.0014152055
0.012353691
-0.010509688
-0.00043662608
-0.016948272
-0.011324012
0.012605263
-0.0030808453
0.002002486
-0.0070798076
-0.0004230324
0.011165519
0.0020769716
-0.007916961
0.0022030699
0.0013499043
0.0023598908
0.0038811888
-0.0012138997
-0.006479579
-0.0032375762
0.000865758
0.025416065
-0.023033435
0.004625461
-0.0073069134
0.00020096201
-3.2629604e-08
-0.00392554
-0.0007491233
-0.0029819405
-0.0044976273
0.008451055
0.004237447
0.010099352
0.016432062
-0.00039446345
-0.006994225
-0.0043021007
0.0024016951
-0.0049070874
-0.003221405
-0.016554857
0.00077896175
-0.00060365244
-0.026438897
0.003053308
0.00047148505
0.012946939
-0.005775366
-0.0140394
-0.0063214563
-0.0007431985
-0.0056257457
-0.0077593485
-0.0028931072
-0.0032737223
0.0038242352
-0.005526866
0.00074573443
-0.0043908516
-0.0023985875
0.0041720225
0.0044701444
0.00707927
-0.00060443877
-0.0066347364
0.0038719273
-0.0070606642
0.009318468
0.0046881046
-0.0073475074
-0.01248509
-0.006795128
0.0056438376
-0.007762869
-0.0041256268
-3.8706044e-06
0.004104364
-0.0050488305
-0.0049969507
-0.01484628
-0.0026356932
0.0053999214
-0.010150517
-0.008213022
-0.0022562698
