0
-0.0055293604
0.004161448
0.015700301
-0.003304505
-0.009489465
-0.0041560293
-0.0045046825
0.0003277182
-0.0027762037
-0.0067316466
-0.018985666
-0.011224426
-0.008857404
0.005008821
-0.0026243401
-0.0111953225
-0.003280463
-0.006427507
-0.0034491194
-0.0029849696
-0.0069261594
0.008092137
-0.011519208
-0.011657929
-0.0010906955
-0.007365584
0.03317943
-0.015224513
-0.013190505
-0.037529923
0.0034243301
0.008654051
0.0074705905
0.035267446
-0.026330955
-0.006413632
-0.014666278
-0.0075005647
-0.0136619685
0.0016944811
-0.0034377933
-0.013779969
0.0078105433
-0.009057756
-0.006800961
0.012962093
0.0011783246
-0.02648088
0.020764396
-0.011765054
-0.017358491
0.00035763843
0.012233385
-0.008569372
-0.0079086
-0.022396635
-0.011221972
-0.021772616
0.00022171412
-0.010909763
-0.020420913
-0.011259861
-0.007823182
-0.033627003
0.001006365
-0.010550983
-0.01153399
-0.0027226002
-0.006966528
-0.02433051
-0.0059094243
-0.008478835
0.0027508016
0.016731085
-0.025274748
0.011744868
0.014083884
0.012788661
-0.0087576425
-0.016859686
-0.0046111494
-0.013415598
-0.027401267
0.003325861
-0.03672935
-0.002691249
-0.0075488114
-0.031379193
-0.0078041307
0.014284409
-0.01049605
-0.026207779
-0.0015589745
-0.017600732
0.0272241
0.005192812
-0.0045974297
-0.015294181
0.009584501
-0.008237104
