0
-0.0432039
-0.0430076
0.003537084
0.024483236
-0.04652334
-0.09214281
-0.0017855864
-0.05544378
-0.03266155
0.032287322
-0.04129756
-0.102222316
-0.088235766
-0.13343678
0.0052715642
-0.09563267
0.017931387
-0.046707336
-0.100369014
-0.069795996
0.068283245
-0.06391939
-0.023357777
0.026474435
-0.025689308
-0.06702989
0.023907838
-0.035844058
-0.076060764
-0.11290656
-0.11051231
-0.0847437
-0.10876236
-0.012766896
0.062040206
-0.061223324
-0.03203412
-0.06363107
-0.058161058
-0.010715491
-0.012339846
-0.14095378
0.012676682
-0.09300148
0.018441986
-0.030649124
-0.08160537
-0.084718354
-0.03465728
-0.077044085
-0.057274956
-0.07140599
-0.0005096173
-0.13922594
0.006478223
0.014109855
0.015971739
-0.06279714
-0.032051362
-0.033304874
0.032265484
-0.01616284
-0.015587895
-0.022150932
0.044990916
-0.055581897
-0.028978366
0.0375542
-0.0037319106
-0.056776706
0.010753824
0.018551383
0.08209394
0.0064936513
-0.006004896
-0.09118153
0.00014976777
0.006415264
0.04370239
-0.13343737
-0.07997317
-0.052526925
-0.06480684
-0.00071155315
-0.05918937
-0.056286033
-0.25584462
-0.038666215
0.025836555
-0.0072710947
-0.10852706
-0.053817246
-0.013227926
-0.019323735
0.011215398
0.0059413495
-0.096763305
-0.024284491
0.002193515
-0.035233814
