0
-0.13250752
-0.05447952
-0.13205485
0.050734542
-0.022032734
0.025991501
-0.035876073
-0.03252202
-0.038353797
0.009237876
-0.013236858
-0.07531363
-0.035325572
-0.0028326584
0.0023207976
0.01090959
-0.03896024
0.06531525
0.13174826
0.01645676
-0.025817327
0.010861864
0.00806986
-0.05223767
0.0882119
0.042477384
-0.02056336
0.05232266
-0.05397257
-0.076601356
-0.078483164
-0.096976995
-0.12268223
-0.08759252
-0.041140117
-0.051051103
-0.0045930753
0.024658531
-0.06380425
-0.053840004
-0.12334485
-0.017939907
-0.009540206
-0.00807252
0.03875628
-0.11748357
0.053417966
-0.014595765
-0.023910796
0.023033798
-0.049939085
0.036781855
0.0143046575
-0.060789198
-0.029892417
-0.07197469
-0.08934852
-0.07099628
-0.032456394
-0.03603438
-0.016591553
0.010117191
-0.06243366
-0.08235393
-0.04785526
0.011581252
-0.19904856
-0.08988261
-0.12594688
-0.06604883
-0.07110832
-0.025042094
0.004903388
-0.12741908
-0.053799294
-0.09905553
-0.055979483
-0.022558028
-0.0729265
-0.020970888
-0.0374575
-0.07597193
-0.018968
-0.07332801
-0.08664533
-0.039753523
-0.021501945
0.042560983
0.063332416
0.007981385
-0.0076218774
-0.079969175
0.012112093
0.0013240736
-0.0018254467
-0.0746141
-0.007322078
-0.007890849
-0.039231755
-0.019742321
