0,1,2,3,4,5,6,7,8,9,10,11,12,13,14,15,16,17,18,19,20,21,22,23,24,25,26,27,28,29,30,31,32,33,34,35,36,37,38,39,40,41,42,43,44,45,46,47,48,49,50,51,52,53,54,55,56,57,58,59,60,61,62,63,64,65,66,67,68,69,70,71,72,73,74,75,76,77,78,79,80,81,82,83,84,85,86,87,88,89,90,91,92,93,94,95,96,97,98,99
-0.13074526,0.06307115,0.11308855,0.0071199094,0.060857847,-0.072529644,-0.009323335,-0.052064836,0.050062228,0.10049812,0.1765003,-0.15404859,0.14929692,0.06490223,0.12756813,0.25590312,0.13702431,0.02986176,0.15030695,0.07147594,-0.0451942,-0.017073177,0.29910144,0.014354241,-0.16714038,0.2961821,0.049031574,0.05709614,-0.05837091,0.018360065,0.23404464,0.005396806,-0.23172206,0.07547682,0.014800387,-0.009513799,0.19027057,-0.16203316,-0.08358028,0.014784187,0.24070533,-0.060207546,0.045648646,0.053998176,-0.093618184,0.14541349,0.10328206,-0.14436454,-0.008849402,-0.16812712,-0.021871293,-0.18527907,0.08657462,0.16398442,-0.04641085,-0.09549654,0.036919933,0.020627273,-0.052875426,-0.05570845,-0.21957037,-0.038593672,0.10039966,-0.13651294,-0.114049025,0.14519282,-0.16763334,-0.044667017,-0.15734576,0.2500308,0.20097415,0.13956134,0.021424785,0.17429268,0.19040102,-0.04009906,-0.00091947237,-0.043334197,0.053272277,-0.06261074,0.04640217,0.00825612,-0.04445757,-0.015100423,0.011800348,0.24251412,-0.24486709,-0.19928151,0.010178789,0.1503891,0.091209285,0.2798584,0.09820533,-0.06784806,0.1115225,-0.07523571,-0.24290323,0.08610533,-0.0007467002,-0.06870575
0.23286436,-0.19007316,-0.022285579,-0.06760389,-0.21755947,0.16977222,0.068414025,-0.06917603,0.012335538,0.0452063,-0.08605778,0.12539242,-0.17088847,0.1370303,0.24763133,0.081649385,-0.17285953,0.13921694,0.22940128,-0.06851515,0.24816291,0.049836613,-0.046207923,0.049796302,0.059250616,-0.18135238,0.1557193,0.08637043,-0.10222818,-0.059744276,0.03541291,0.012938821,-0.014509252,0.124971785,-0.08655549,0.17019928,-0.30017722,0.13984396,-0.03220439,-0.060305484,-0.2133594,-0.025027815,0.31605527,-0.109909825,0.1273635,0.25741723,0.15624121,0.03133686,0.057468086,0.0781797,0.20997593,-0.16210715,0.13470338,0.028947715,0.24189222,0.07417077,0.14127304,0.116724364,-0.11062479,0.13402915,0.20872451,0.17751306,-0.020708025,0.062717035,0.13080128,-0.0021144662,-0.2621385,-0.1629781,-0.26392752,-0.026192857,0.11984421,0.0039632856,-0.054300305,0.03131734,0.13189447,-0.20694992,-0.15036526,0.09130375,-0.045923915,0.01601767,0.07130411,-0.108979315,-0.012766467,-0.07605748,-0.04849357,-0.012526661,0.10651483,-0.018862095,-0.0845162,0.15714546,-0.001623765,0.00014826149,0.14748913,-0.14121933,0.2302465,0.102632605,0.29856408,-0.17654581,0.19136688,0.04424478
-0.06681607,0.08998727,-0.08925773,-0.0040768925,0.23342092,-0.018363256,-0.06262977,-0.15583923,-0.010643908,0.020243054,0.024967888,0.36534268,0.055706333,-0.13958474,-0.040020294,-0.11495465,0.08409754,0.103916846,0.14803025,0.0029393781,-0.10734234,-0.17526324,0.06667591,0.025860228,-0.07116754,0.043315876,0.15839934,-0.071640365,0.07393896,0.14442436,-0.2730103,-0.047671027,-0.20061003,-0.29566422,-0.007127162,0.014898684,0.1232685,-0.108068705,-0.050053786,-0.048736125,0.13703138,-0.2296048,0.11465207,0.1507722,0.10811937,0.0093047265,0.12903026,-0.004054868,-0.01996241,-0.09201038,-0.106117494,-0.0690768,-0.15828063,0.015225427,0.18057689,-0.1708061,0.13295706,-0.013247894,0.06739941,0.19007494,0.04187278,-0.003477988,-0.055787068,-0.077927925,0.08928138,-0.15304156,-0.19694547,0.16176233,0.030012209,-0.24157533,0.100674525,0.110896945,-0.16761346,-0.030579722,0.13392194,-0.01961016,0.13727644,0.016520971,0.05135572,-0.037104286,-0.056010786,-0.18801911,0.08042195,-0.0028565808,-0.23645741,0.055826157,-0.22691049,0.075286284,-0.094464816,-0.04648235,-0.002736789,-0.105723046,-0.043360565,0.11818608,0.11697476,-0.27396697,0.03496504,-0.20535202,-0.28840443,-0.37121832
-0.20815127,-0.04675127,-0.031271245,-0.17426398,0.043964937,-0.119706534,0.15669821,-0.09048796,-0.08868896,-0.0681215,-0.005641543,0.16056783,-0.008310009,-0.22673893,-0.1062976,-0.17600754,-0.022932077,-0.2478678,0.04257921,-0.18477449,0.058431175,0.00042779403,-0.25277117,-0.0869905,0.08538748,0.14570796,-0.05292444,0.00757395,0.050797563,-0.084042616,-0.16288413,-0.068612576,0.11753046,-0.009186498,0.0893231,0.09482394,0.12156089,0.19923069,-0.12453827,-0.11856887,0.24273774,-0.095813625,-0.077775046,0.20186606,-0.21583076,0.0028506985,-0.11267059,-0.06261314,0.047792554,0.16063198,-0.19831455,-0.037570197,-0.26883727,-0.100154966,-0.0348268,-0.032255337,0.18504024,-0.099262476,-0.012028563,-0.021330813,-0.11939061,-0.16737035,-0.08498164,-0.20242468,-0.2752144,0.05131038,0.06318697,-0.06637319,-0.032375168,-0.12062423,0.20886919,-0.2502583,0.012366161,-0.023932183,0.020035896,-0.1983578,-0.05438212,-0.07666075,0.029877994,-0.35494187,0.049342487,-0.037145644,-0.08956713,-0.077905566,-0.07178572,-0.04609994,0.055496156,-0.3336481,0.1358331,-0.2523128,-0.045403942,0.1797494,0.045760278,-0.07164303,0.25780737,-0.04324951,0.09421347,-0.1612219,-0.1878894,0.053095635
0.005398805,0.21576868,0.14706233,-0.0007755834,0.2027603,0.08560438,-0.1424656,0.17100397,-0.18362108,-0.051258113,-0.060996335,0.25236085,0.17409763,0.0817301,-0.23361376,-0.025462518,0.10151409,-0.09245413,-0.17888989,-0.123058274,0.05610873,-0.2976416,-0.041819178,-0.065928705,-0.05522948,0.09211889,-0.06974702,-0.08250711,0.061814692,-0.19436675,-0.19244649,0.13244092,0.09985218,0.03955354,0.28296298,0.24123225,-0.12815392,0.08290599,-0.10901027,-0.105593406,-0.30973285,0.024962796,-0.063123904,-0.25682613,-0.3672798,0.054907817,-0.12345215,0.0762734,0.2164863,-0.102025725,0.11817966,0.113171026,-0.26075798,0.050254755,-0.15499285,0.012384963,-0.070649676,0.053925216,0.052331995,-0.020138608,0.00089531374,-0.08747706,-0.14842683,0.047126114,0.19014399,-0.08490778,-0.15052561,0.106450945,-0.024111347,0.031147223,0.115544826,0.027876977,0.15933064,0.18935671,-0.140229,-0.13372904,0.065702096,-0.19396804,-0.101068564,-0.15431838,0.06961995,0.1827392,-0.003163532,-0.07913556,-0.08022129,-0.06651913,-0.15495092,-0.27324465,-0.110734895,0.09863989,-0.032199953,-0.05439735,0.1507517,0.07700734,-0.07820875,-0.28062317,-0.024163734,-0.08062161,0.049632527,0.053735357
0.12518153,0.017743364,-0.19618696,0.012247638,0.12069459,-0.14880484,0.09029177,-0.036337573,-0.081816085,0.04144372,0.16303435,0.22389038,-0.010780225,-0.16018806,0.013859353,0.07106013,-0.05277874,-0.07857328,0.06245969,-0.008306398,0.015121217,0.20870285,0.25347748,0.14850046,-0.08782495,-0.14659259,-0.18060538,-0.07861915,0.04421887,-0.17650183,-0.06974875,-0.07727389,0.23969331,0.0999415,0.15617448,-0.019105002,0.10491345,0.14299412,-0.0067530493,-0.10005853,0.09361343,0.0132075455,0.13403684,-0.050835904,0.25503194,-0.09379996,-0.1153947,0.102158435,-0.050310485,-0.018286623,-0.22692843,-0.103088774,-0.039564535,0.04585779,-0.28135633,0.0038340185,0.1804785,-0.1611942,0.04596268,0.037047148,0.044178896,-0.27156442,0.18611528,0.08917804,0.19552349,-0.28587243,0.10925101,0.21526553,-0.25346485,0.16924118,-0.04004303,-0.07330215,0.038505524,0.07866064,0.12327925,0.23193839,-0.09686855,-0.20750923,-0.18603751,0.048223145,0.022471529,-0.24544495,0.2109105,-0.03665275,-0.08453956,-0.268878,0.0642028,-0.05312631,-0.28121388,-0.029965583,-0.06750396,0.024635142,0.18170367,-0.04826392,0.21340202,0.07042269,-0.13337728,-0.26809302,-0.04405629,-0.077837706
-0.30972257,-0.010814201,-0.055431996,-0.005998801,0.082364745,0.036987938,0.105344296,-0.14114317,-0.011141861,-0.0394095,0.19235028,0.15161371,0.13239875,0.29679525,-0.17438467,0.12672445,0.1267532,-0.07596162,0.10843039,-0.07819228,0.16824,-0.023392858,0.30354372,0.20160621,0.11642296,0.15380675,0.20783935,0.19689694,-0.15624537,-0.10564147,0.15765543,-0.0079508135,-0.043698274,0.11337067,-0.06708535,0.17427915,-0.12435783,-0.21196333,0.10632716,0.11818794,0.087822035,-0.07580998,0.14793363,0.12073313,-0.18104273,-0.01608167,0.0781313,-0.15674329,-0.089809135,-0.063977234,0.12723702,0.20332819,0.19366053,0.005206648,-0.042958647,-0.026870348,-0.07296506,-0.046861034,0.17038299,0.080292374,0.22812603,0.10256087,0.07341574,0.14200841,0.015795035,0.05303697,-0.21713626,0.23000374,-0.1742626,0.0997574,-0.04903915,-0.09255433,-0.11476695,-0.09282746,0.092366576,0.17060292,0.21827644,0.09035174,0.13327624,-0.19789849,0.07455122,0.077338286,-0.18148348,0.123913966,0.16679968,-0.07054052,-0.036563993,-0.09502949,-0.0351363,-0.21633227,0.029048543,0.16299786,0.23925087,0.12549818,-0.025817243,-0.21778452,-0.23495018,0.12792867,0.13547112,0.10729195
0.01788116,0.067054555,0.0136282705,-0.09465322,0.01565974,-0.07779744,-0.14690599,-0.0895729,0.28571576,-0.028813213,0.07512899,-0.10759795,0.09687209,0.00916926,0.3073841,0.114241205,-0.1619151,0.09272324,-0.037786596,0.18088467,-0.0468863,0.1340457,0.26417062,0.22695261,0.17593099,-0.100466244,0.046400543,0.20640379,0.014836402,-0.21038581,-0.033860613,-0.21211286,-0.04875786,-0.0759196,-0.19308901,-0.14982165,0.073678404,0.2601812,0.24717961,-0.16330373,-0.010230894,-0.23090155,-0.24820124,0.093466975,0.021955011,-0.11757407,0.04423683,-0.20717902,-0.19654188,-0.15355004,0.16095743,0.1361677,0.06150182,0.17392972,-0.17805451,0.11575329,-0.15711252,0.012381868,-0.1553268,-0.20521796,-0.09408047,0.027973633,0.058752798,-0.041791953,-0.19535963,0.081369676,0.09881075,-0.04887213,0.16423579,-0.20530446,-0.03761964,-0.010727938,0.27255026,-0.00053791545,-0.05892313,-0.040542085,0.16882026,-0.14942344,-0.11929887,-0.028050711,-0.108822845,-0.01378535,-0.036027938,0.16649087,0.20861663,0.060656313,-0.1439388,0.028667744,0.15155399,0.016436648,0.1601988,-0.037056033,-0.17372532,-0.041072525,-0.051686812,-0.022189265,-0.19440828,-0.22852135,0.18597601,-0.12373682
0.09400575,0.14001194,0.084935136,0.017266307,0.023252407,0.056426745,0.016566467,0.02008339,0.13600409,-0.2520827,0.28877977,0.13931797,0.26614255,-0.055960327,0.024514876,0.13386229,0.031109957,-0.23545969,-0.20638801,0.088789806,-0.097970776,0.16120361,0.05868589,0.07587516,0.09830429,-0.05273288,0.05331724,0.23283872,-0.00094687194,-0.0061349664,-0.015393926,0.024806665,0.03817171,0.15071784,0.027400116,0.09464832,-0.08331921,-0.029490625,0.020870378,0.059002325,0.12966341,0.17158157,0.12721188,0.042109206,0.15458742,0.04202768,-0.049247395,0.05780126,-0.029305058,-0.09890654,-0.14197531,0.27292675,0.013573471,-0.07373851,0.097582094,0.2002139,0.0147137465,-0.08701488,-0.03322935,-0.17640767,0.033814564,0.26134363,0.09311351,-0.09322201,-0.066386394,0.19130608,0.06327359,0.13926369,-0.0142414095,0.055028528,0.13501216,-0.025839252,0.0081876265,-0.17036161,-0.048099056,-0.25471032,0.081881925,0.025381293,0.014916262,0.10348202,0.06181526,0.018078119,0.0063027493,0.014689068,-0.02095453,-0.0006427569,0.18380344,0.24004398,0.04303208,-0.14900489,0.13886179,0.23564178,0.079080254,-0.033640277,0.13342147,0.095000856,-0.13685852,0.24268934,0.055381298,0.18260865
0.10400251,-0.07573608,0.14239193,0.10966459,-0.06467792,0.028590469,-0.11598384,-0.005523905,-0.0052516097,-0.07486512,-0.0051341183,-0.19641729,-0.26010108,-0.23602378,-0.26731554,0.025446232,-0.09804984,0.079193085,-0.20926121,0.04505368,-0.19250958,0.024271028,-0.0020562778,0.024852743,0.041854817,-0.15137178,0.030180201,0.23144071,-0.044566885,-0.28501475,-0.023939585,-0.19561812,0.17309456,0.07177443,-0.24880993,-0.24638954,-0.19013596,-0.22330593,0.06920821,-0.16079123,-0.17764254,-0.071662895,-0.15901203,-0.030884711,-0.02831915,0.16171335,0.019646725,-0.041465923,-0.14697759,-0.1795188,-0.03294876,-0.10525724,0.10788808,0.2991741,0.10713071,0.005380091,-0.25822696,-0.32357624,0.064429976,0.09928365,0.012842016,-0.024228988,-0.08331304,-0.101408914,-0.052302998,0.11950231,-0.032392364,0.16005215,0.07482811,-0.23454331,-0.20056258,-0.28340986,0.13431524,0.11979555,-0.23361935,0.05190866,0.061669864,0.12621458,0.118681274,-0.28942814,0.13101073,-0.107651964,-0.015894147,-0.014403932,-0.14513354,-0.23407258,0.13398337,-0.13188586,0.10927927,-0.009210096,-0.007533443,0.17681167,-0.20553103,-0.036763087,0.14023523,0.02162874,-0.039380915,-0.11824445,-0.21152592,0.27223283
0.13113257,0.1453278,-0.002325575,0.17992748,0.18917802,0.04060325,-0.069298305,-0.13341033,0.014240489,-0.058103263,-0.006585561,-0.05271627,0.2838407,-0.16577382,-0.021494761,-0.10584457,0.11154843,0.0561011,-0.14882736,-0.044758603,0.111383714,0.03506318,0.11870947,0.11599321,0.27202898,0.2089397,0.15586708,-0.04757309,-0.273916,-0.03586109,-0.03270929,-0.11680404,-0.10398561,-0.12277879,-0.0842808,0.114713326,0.08006465,-0.07852591,0.076701574,0.26024732,0.16128866,-0.028162548,-0.090217836,0.11563106,0.07969147,-0.014906037,-0.045917958,0.22258145,-0.13538104,-0.060950562,-0.20462331,-0.07154111,0.12909958,-0.097228214,-0.0022310582,0.060620297,0.07809899,0.09327865,0.06808772,0.15175642,0.046791095,-0.070539504,-0.08617637,0.0014025412,0.09963569,-0.18542255,0.07139098,-0.119926445,-0.19042772,0.11183284,-0.10195837,0.06437078,-0.08311375,0.06679527,0.27065498,0.3738033,-0.029059142,0.018288653,0.0030378406,0.03389403,-0.1357822,0.10566118,-0.23414902,0.22320873,0.018115012,0.05676442,-0.04253045,-0.18078296,0.044883706,0.06679153,0.07931014,0.04720126,-0.09750759,-0.112313725,-0.19354926,0.12124331,0.23327081,-0.15819654,-0.046048306,0.1476759
-0.09689403,-0.08091473,-0.17875323,0.18612364,-0.0856144,0.022577498,-0.02424961,0.07267383,-0.04842919,0.08047477,0.13069195,-0.059749447,0.038430803,0.17565918,0.07699956,0.027336255,0.052755132,0.09607876,-0.115926124,-0.12191324,0.30477947,0.003693783,0.17933607,0.22362594,-0.1835659,0.19835061,-0.1330959,0.25791338,0.0472373,0.097828135,-0.17585436,0.043439798,0.12732567,0.14202425,-0.10678288,0.18530126,0.04940347,0.05494596,-0.18855776,0.12747698,-0.13760178,0.04430522,0.005989473,0.30963904,0.1688457,-0.1391529,0.112193435,-0.02978256,0.13565767,-0.01830508,-0.010918985,0.17950927,-0.13163324,0.06725961,0.03195045,-0.24060935,0.22160175,0.026577258,0.27318573,-0.069573954,-0.11538398,0.28385112,-0.1437539,-0.036314696,0.14269099,0.015503484,0.033135403,0.0066004656,-0.0026940296,0.004993979,-0.092721134,0.024878154,0.12244845,0.025302066,-0.1733938,0.19195211,0.2922944,0.0689783,-0.21181089,0.07980083,-0.23466468,-0.18767615,0.1762768,0.010277108,0.16594505,0.0022450094,-0.033437178,0.2051543,0.061991666,-0.031983614,0.0017590979,-0.07897917,-0.07318891,0.070457645,0.07294271,0.01961989,-0.0049560927,0.08069917,0.15113385,-0.13147192
0.007158987,-0.13862248,-0.059145432,-0.09224364,0.13047646,-0.2888728,0.1264297,-0.20701224,-0.08183475,-0.08442204,0.08241808,-0.030512264,0.11374108,0.12715988,0.0089627635,0.08278654,-0.14948604,0.13205075,0.039528843,-0.12281191,-0.062978655,-0.02928447,-0.28459278,-0.21451926,-0.036215566,-0.09040062,0.11299244,-0.17519045,-0.15636629,-0.03431447,-0.22568871,0.066153094,0.12439787,0.074993245,-0.083747506,-0.021728335,-0.0010692145,0.039069053,0.059590504,0.08854614,0.10694143,0.11899703,0.23043531,-0.19203281,0.24421139,0.04628188,0.08512926,-0.12108035,0.22731058,0.11039587,0.25518137,-0.07919092,0.013472251,-0.031429432,-0.18271762,-0.0743505,0.13704824,0.13203534,-0.054152444,-0.2073524,-0.20389996,-0.19465852,0.0583076,-0.11848469,0.16321774,0.099388756,0.14014265,0.017913677,-0.10239229,-0.080164514,0.055509247,-0.09236474,-0.032916,0.098743156,0.06679445,-0.17243181,0.14172153,0.07127552,0.034078807,-0.09345907,0.15202421,-0.014167186,0.13605216,0.11377308,-0.052184295,0.06337578,0.16923335,0.06282575,-0.006850068,-0.21932836,0.08907116,-0.08597175,-0.06746562,-0.100769415,-0.00056582707,0.07115702,0.074231476,-0.23214887,0.2367184,0.06730934
-0.09312866,0.02338289,0.15347941,0.11026648,-0.044937074,-0.115512796,0.17546614,-0.032921605,0.18729793,0.17598519,0.018282147,-0.08500775,0.21514094,-0.019546952,0.019053265,-0.08473672,0.03147618,-0.063729,-0.20593324,0.114245474,-0.1179828,-0.133184,0.03678375,0.114378996,-0.17694509,0.15493362,0.13402243,-0.17537723,-0.15642996,-0.13329007,0.005935136,0.06779712,-0.047371253,0.019498264,0.025186408,0.014254733,-0.07972912,-0.19483401,-0.19233252,-0.07407557,-0.15820289,-0.13899581,0.024693357,0.03500314,0.17064562,0.093813956,-0.09901412,-0.120769165,-0.12041083,-0.09598539,0.091123626,0.00819492,0.049959533,0.13842455,-8.407628e-05,0.006455402,0.18500125,0.056297794,-0.056383453,0.080750115,-0.07454952,0.13196759,0.07338922,0.15816711,-0.07036089,-0.16882223,0.056143396,-0.11773614,-0.08171185,-0.07796437,-0.050806377,-0.07384881,-0.07045646,-0.095946595,0.2017955,-0.03694967,0.09964378,0.0040671797,-0.13153462,-0.114056125,-0.14442773,0.01348189,0.020052917,0.11582599,-0.1306996,0.029642126,0.07520821,0.038731426,-0.15340644,-0.17577209,0.2592414,-0.0071781804,0.073093034,0.00017197493,-0.12672375,0.0030187706,0.025828145,0.0035875395,-0.21410185,-0.13955154
-0.18826357,0.1695462,0.22938462,0.12149222,0.012306115,0.03563313,0.02063167,-0.08904416,-0.04975274,0.14271025,0.03213164,0.14755012,0.091863655,0.107447974,-0.09857453,0.21539322,0.07347452,0.23816352,0.088949196,-0.2717376,-0.058490667,-0.051249422,-0.19488497,0.07621023,-0.09799951,0.032985605,0.004732507,-0.070006885,-0.24190633,0.24882208,0.14087991,0.28113654,-0.05674875,0.059157852,-0.069667585,0.09687458,-0.05830793,-0.022400526,0.10659247,-0.13234493,0.12727134,0.03886329,-0.06438095,-0.0044492055,0.1761363,0.05889865,0.035011254,-0.055642195,0.029340483,0.18672849,0.18641303,-0.24225964,-0.09498301,0.06259123,0.12835062,-0.041282766,0.064191386,0.0330361,-0.14503041,-0.2743622,-0.09848484,0.2732496,-0.19744644,0.010367696,0.028032677,-0.058104165,0.023238717,0.31104243,0.029085368,0.19038793,-0.09920938,-0.0021320973,-0.035199225,0.03680949,0.17696698,-0.12157824,0.09362666,-0.04961562,0.11222694,0.06469889,-0.020986557,0.29864043,0.02962246,-0.07545347,0.17933093,0.034749877,-0.02870648,0.24410363,0.018945767,0.101087004,-0.12745345,0.16072987,0.032884136,-0.17940037,0.0057703243,0.0030544978,0.07952943,0.28388116,0.11602306,-0.2040378
0.16963826,0.020917345,-0.093403846,-0.14991093,-0.28403288,-0.08485967,0.27980152,-0.22294939,-0.038054068,-0.027431153,0.083184,-0.043998223,0.16555877,-0.15958211,-0.08630484,-0.023476435,-0.13022573,-0.087521985,-0.053437334,-0.05099655,0.19406393,-0.070952974,-0.05352126,-0.2700631,-0.17596275,0.19791153,0.0021088829,-0.09412422,0.050116576,0.08699606,0.15089998,-0.10668427,0.20744565,-0.11179024,0.1228248,-0.040725343,-0.017300868,-0.27102205,0.03139972,0.114235215,-0.0067081535,-0.274918,0.11000108,-0.003000801,-0.04348001,0.04846134,-0.23804735,0.13016196,-0.027501363,-0.13487999,-0.1631492,0.1649492,0.050972883,-0.037759397,-0.007530364,0.09434912,-0.040328432,-0.044020884,0.04684527,0.19470477,-0.008035457,-0.07804017,0.021041144,-0.0022552311,-0.19531694,-0.26784644,-0.17712514,-0.047569774,-0.037423354,-0.15226987,-0.06715284,-0.1972313,0.14245963,0.012258096,0.02755608,0.16987267,0.084561475,0.012228039,-0.19270882,-0.1438308,0.054872196,0.18949465,-0.10387555,0.025899885,0.03801724,-0.17505607,-0.1939805,-0.008711479,-0.1916193,0.119465925,-0.067294076,-0.13461044,-0.18834503,0.08507858,0.16149807,-0.09468312,0.03848812,-0.10314585,-0.012299536,-0.08402691
0.09282541,-0.07077973,-0.19958451,0.23770458,-0.11602615,-0.07846068,0.29002705,0.18459141,-0.026932184,0.18416868,-0.08663479,0.21521714,0.0598526,-0.16603704,-0.102024436,0.11628881,0.2190008,0.19299795,0.052217286,-0.20522219,-0.21797518,0.026046056,0.11548335,0.16708618,0.28013474,0.024059283,0.22235942,0.21464239,0.031825002,-0.08235273,-0.09424286,-0.042497896,-0.11112283,0.07435718,-0.01319388,0.05570708,-0.021022256,-0.037643213,0.022523338,-0.2713866,-0.13330095,0.11583565,0.21208966,-0.10395037,-0.065475516,-0.029101007,0.012731129,-0.11068265,-0.00055553805,0.2937926,-0.18825737,-0.13794586,-0.048587993,-0.016022999,-0.09519372,0.051073413,-0.117103405,0.09385778,0.045818336,0.21243544,-0.04197086,0.14862871,-0.035251483,-0.08320228,0.16512762,-0.03276537,-0.0018394177,-0.043293614,-0.19957049,-0.0329619,0.29511097,0.1335577,0.12146447,-0.047749892,0.13718086,-0.011055899,-0.11318067,0.04735367,-0.14137277,0.09325099,-0.19390583,-0.015149795,-0.09416223,0.08316304,-0.013572172,-0.12632133,0.2777877,0.19181466,-0.16724935,-0.026631119,0.1162699,-0.009135518,0.306855,0.15531088,0.07847646,-0.26410815,-0.25176284,-0.033979546,-0.06741591,0.22596084
-0.14817537,-0.07043156,-0.02848146,-0.17586592,-0.19417752,0.04852331,-0.053905297,0.285121,-0.02637014,0.12551902,-0.12497444,-0.023544544,0.19914752,0.025837379,0.13705681,0.0957673,0.087878056,0.22124277,0.13822477,-0.24502496,0.13498926,-0.04831296,-0.060202945,0.09648952,-0.0029057537,0.30894417,-0.028165566,-0.14950873,-0.07917833,-0.06502318,0.2016622,-0.24507701,-0.11215655,0.24820031,-0.27510422,-0.092755735,0.0273204,0.026749706,-0.15425289,0.16933893,0.15366323,-0.2190621,-0.03565156,0.17867367,0.21273701,-0.071923554,-0.24552329,-0.27941877,0.26455963,0.10006104,0.10880999,0.03743236,0.1149493,0.07470249,0.038532514,-0.12654231,-0.12322476,-0.11988043,-0.021335797,-0.12906668,-0.14006269,-0.20910498,-0.059844807,-0.016717264,0.051576905,-0.0130056925,0.07205539,-0.14385623,-0.069082886,0.17607354,0.0014735842,-0.05763504,0.21490608,-0.045095854,0.13271758,-0.013842472,0.07404407,-0.10199429,-0.20715259,0.2639329,-0.050123952,0.1703628,0.01477332,-0.26044598,0.031855933,0.11084344,0.19945464,-0.0701866,-0.10954179,-0.22753881,0.09447597,-0.17175432,-0.131805,-0.049944904,0.015125879,-0.0066383155,0.06155038,-0.21408682,0.08625327,-0.012448155
-0.07936389,0.1901844,0.121993415,-0.069956355,0.19075145,0.021863442,-0.044638727,-0.156809,0.25384504,0.059670668,0.016483022,0.0664454,0.16830692,-0.19446424,0.03237935,0.08034755,0.2935726,0.17155805,0.1629378,-0.0009675299,-0.06370262,-0.22363406,-0.050081193,0.036241647,0.011176819,0.06492544,0.16310392,-0.008296526,0.105064884,0.078365065,-0.07945448,-0.18833493,0.2010939,0.1814498,-0.26482618,-0.013970613,-0.13025092,0.14302021,0.08794869,0.04698077,-0.029600356,0.28016192,-0.11738395,-0.21009618,0.04675031,0.15794705,0.080551855,-0.1651521,-0.19958144,-0.09023906,0.20046674,-0.028627804,0.084537715,0.01572074,-0.04129084,-0.08748155,-0.026617378,-0.13941975,0.048913505,0.0060612475,-0.06335586,0.076593846,-0.12200889,0.016945917,0.022626534,-0.22295193,-0.030700555,-0.11077399,-0.016455336,0.16213335,0.08529982,-0.066210665,-0.1641973,-0.07249158,-0.094623365,-0.07758914,0.018413058,-0.11602268,-0.107711785,0.10991892,0.0074804723,0.02581845,0.25412473,0.24211328,-0.014387073,-0.043675188,-0.053102642,-0.17151724,-0.029772382,-0.019548498,-0.12979169,0.2256592,0.075935245,-0.0054692705,0.059554335,-0.24964072,0.044432577,0.06319273,-0.023090988,0.03917083
-0.074935056,-0.10788268,-0.029031925,-0.11419954,-0.14861095,0.22111194,0.22340535,0.018865744,0.28365272,0.1497569,-0.0681411,-0.18615991,-0.11397334,0.23569573,-0.079352565,-0.027285568,-0.033693105,-0.09631263,0.25422016,-0.014680596,0.06358957,-0.12384472,0.11876634,-0.15772991,-0.16772962,0.14010057,0.13285805,-0.13617893,-0.18906097,-0.18100181,0.03211966,-0.112559855,-0.17325579,0.15635687,-0.077255934,-0.026350789,-0.0832357,0.09047696,0.021178193,0.018432582,-0.019084062,-0.009964814,0.21825108,0.29299504,-0.11102959,0.012997972,0.03110619,-0.110122845,0.2319832,-0.020623725,0.27870157,0.054866463,0.054416966,0.13289239,0.031753086,-0.058261085,-0.028223619,0.23190081,-0.18801458,0.029956857,0.1381541,0.051490985,-0.05976923,-0.022748036,-0.07815326,0.07448115,-0.1014244,-0.14808239,0.30620676,-0.06530123,0.0981308,-0.0031860338,0.16257441,0.06920513,-0.14012368,0.3001029,-0.05675823,0.08080704,-0.05005333,-0.11930943,0.17908555,0.0603044,0.12157633,0.08456918,-0.110404044,0.053629294,-0.027914567,-0.025486311,0.16214997,0.1937534,-0.088405006,0.012027871,-0.0050278073,-0.08368454,-0.07221924,0.17629988,-0.036094155,0.16843368,0.14097664,-0.24545966
0.28863713,0.08069371,-0.10540931,0.019121997,0.13519564,-0.041760925,0.011301785,0.17854954,0.026482299,-0.17076638,-0.0723446,0.15001154,-0.057832263,0.103956446,0.3160837,0.1937263,-0.018453456,-0.05072007,0.14397338,0.06628536,-0.013012312,0.3003891,-0.12505566,-0.01677712,0.26456612,0.23220892,0.06726663,-0.071992286,-0.04468634,0.13880852,0.09786794,-0.013497657,0.07013673,-0.1053941,-0.21025774,0.17289333,0.12879302,0.23458667,-0.15653116,0.122261435,0.06534962,0.008714815,-0.21807386,0.022290377,-0.0037209003,-0.060179956,-0.14852783,-0.23112744,-0.0045039575,-0.110972,-0.06692697,-0.22290806,0.21337536,-0.11291392,-0.025887737,0.12905782,-0.21312553,-0.12851782,0.15822622,-0.046657328,-0.2106639,0.028052872,-0.026561191,0.0797405,0.124696486,0.0663865,0.20897141,-0.17471528,0.046853203,0.15884785,0.18860255,-0.09460688,-0.22358093,0.04584336,0.3341819,-0.18298769,0.1635976,0.05470292,-0.063705906,-0.029848328,-0.12567645,0.103295,0.09101313,0.07603715,0.017131321,-0.019539105,0.09979238,-0.0048505105,-0.0011288628,-0.10901658,0.14099362,0.07639112,0.18576929,-0.14760093,-0.05689276,-0.10272988,0.13139243,0.024507413,0.0545276,-0.037288405
-0.0040857894,0.054423124,-0.13332775,-0.0025779803,-0.15127432,0.23573822,-0.036405988,0.26135805,0.16202971,0.10270651,-0.036890622,0.017929101,0.034876138,0.17975906,0.01377117,-0.096698426,-0.014252823,-0.14065662,0.125172,-0.13395032,-0.23395465,-0.06332143,-0.08507481,0.035465017,-0.10345841,-0.061271634,-0.1773789,-0.19995442,-0.073865384,-0.20092261,0.16451368,-0.052601576,0.19138813,0.0070065944,-0.033160783,-0.0065754163,-0.23190618,-0.035919342,0.061847813,0.035575,-0.22743273,0.10918073,0.25670257,0.17611726,-0.039046757,-0.09613948,-0.045692768,-0.07773756,0.06554655,0.02188505,-0.03304142,-0.06060633,0.051063232,-0.15773454,0.026744392,0.19187301,0.09678348,-0.031436555,-0.02246998,-0.3014793,0.05172536,0.10874249,0.011948096,0.18937078,0.04563878,0.1944425,-0.018775038,-0.22641844,0.24464162,-0.03555644,-0.042300545,-0.06409128,-0.049283806,0.18121314,0.032023594,0.11044898,0.196076,0.06422627,-0.08633183,0.1175272,-0.03934671,-0.11056335,-0.14039627,0.07872741,0.20853864,-0.091547534,-0.09006888,-0.22176987,0.17281744,0.05193369,0.0035977762,0.13857208,-0.16997318,0.07537314,0.13816023,-0.28483754,-0.079523414,0.2361068,-0.109613605,-0.15644087
0.22108243,0.003513568,0.10756983,-0.08783813,-0.052468542,-0.15922901,0.14701852,0.009943285,-0.05319583,0.097046375,-0.08988218,-0.016763292,0.19706383,0.077259615,-0.26746112,-0.1489684,0.06631572,0.26125622,-0.17804116,0.05579435,-0.13914758,-0.25523725,0.080064796,0.116109945,0.16558269,0.19141151,0.06457077,0.07258411,0.026971262,0.17291184,0.034986336,0.11789659,0.024361413,0.05894159,0.19386852,0.124152206,-0.27848503,0.23037408,0.09919264,0.22303896,-0.17867808,-0.16982314,0.08304187,-0.01713464,-0.14197752,-0.26254246,-0.15075232,-0.16924365,0.04553125,0.2345503,0.13998197,0.14035136,0.17159785,0.23396604,0.0053576785,-0.017755989,-0.10411199,-0.020352958,0.100717634,-0.2161243,0.08533282,0.09379771,0.079270676,0.17034072,0.018057913,-0.16917677,0.3046631,0.07018434,-0.04747849,-0.13087462,0.07005758,0.13727891,0.09921063,-0.19537476,0.120643675,-0.033121455,0.03604184,-0.17704196,-0.040481165,-0.022625273,0.07825888,0.10197632,-0.032448962,0.09274687,0.1211275,-0.14343861,0.10407124,0.24679776,0.02800277,0.11446294,0.062328037,-0.0022990254,0.034602135,-0.11035612,-0.10929012,-0.04189467,-0.031797875,-0.19445139,-0.24435334,-0.19781137
-0.16240574,-0.022235906,0.06425029,0.20066161,-0.21416938,0.08760407,0.029860897,0.1998356,-0.11437085,-0.016477987,-0.112161785,-0.07601833,0.07128595,0.083679624,-0.25078315,0.018239412,0.054346994,-0.0884188,0.23297659,0.052914485,0.00017102523,-0.017295523,-0.057016257,-0.14332588,0.19712563,-0.20328642,-0.18996844,-0.05837665,0.21082944,-0.065074846,0.05341058,-0.15919212,0.105070345,-0.13192098,0.12343663,0.03299779,0.030154409,0.0044581536,-0.09564961,-0.26520717,0.012256321,-0.1137523,-0.1907894,0.13796516,0.20648214,-0.0037359553,-0.11760564,-0.051242527,0.026174728,0.07219804,-0.23245144,0.08384917,0.17529128,0.0938368,0.06474841,0.08054001,-0.051506292,0.1020746,-0.07755868,0.04940406,-0.17201288,-0.10393873,-0.08197008,-0.29562598,-0.042755205,-0.18691753,-0.040924866,0.20267868,0.10160336,-0.0793698,-0.19796157,0.03351686,0.03511499,0.13285957,-0.0891201,0.09294215,-0.044205636,-0.0198744,-0.043597914,0.12779924,-0.003903074,-0.20598249,-0.12589666,-0.16935381,0.1906859,0.23177867,-0.16895406,0.07382304,-0.32094213,-0.07623398,-0.012678846,0.034162354,0.114042595,-0.058110237,-0.03190544,0.22978358,-0.08645222,-0.15307811,0.1862503,0.15903883
0.14928885,-0.038202308,-0.3003623,0.20432149,-0.12120309,-0.09041313,-0.27932155,0.018689834,-0.28004557,-0.0057076328,-0.1117346,-0.1777019,-0.050507657,-0.006814893,-0.20064272,0.24152142,0.034842614,-0.30535033,0.029995585,-0.0824202,-0.21635737,0.26642945,0.116466105,-0.14357445,-0.121849656,0.17912774,-0.046208862,0.025396919,0.117816836,-0.030726708,-0.15943499,-0.09007499,0.05432162,0.08858527,0.105510235,0.23571189,-0.19476645,-0.08139556,-0.06996924,0.25661287,-0.14348382,-0.037296295,0.043556396,0.025980234,-0.08332599,0.10169522,0.10909371,-0.16266073,0.06708073,-0.24485028,0.07489074,0.16239086,-0.24238,0.025339507,0.024375467,0.15782455,-0.097731955,0.073190406,0.04879853,0.03983433,0.105059065,-0.17241526,-0.15488301,-0.11165376,-0.12405539,0.13489364,0.11456829,-0.07286839,0.21372862,-0.315746,-0.28862348,0.16430758,0.24428809,-0.30253074,0.23240644,-0.020717295,0.08774267,-0.039661944,-0.23871076,0.18370368,-0.18407728,-0.28950086,-0.19936115,0.20626573,-0.1118762,0.053659126,0.20375809,0.016929956,-0.21637319,0.11352857,0.060809564,0.062919945,-0.036253497,0.11162704,0.053948775,-0.13826056,-0.044494357,0.24736497,0.18260373,-0.1504008
0.09097072,0.11446055,-0.24947613,0.118966445,0.21915942,0.16668649,0.14804329,0.027675556,-0.075302176,-0.012180296,0.0079016555,-0.15455748,0.079185426,0.082079165,-0.16038111,0.05417019,-0.24176711,-0.13366638,0.17862889,0.272928,0.029236559,-0.10119577,-0.2067379,0.11497985,-0.034051925,0.079341754,0.18784568,-0.010828136,0.250707,-0.19835949,0.031478606,0.16673434,-0.02161448,-0.12554848,-0.24118872,0.13308592,-0.0765289,0.12550914,0.069346964,-0.044010397,0.032722116,-0.032326084,0.035192713,0.018505137,-0.011893928,0.03969198,-0.11394367,0.17821467,-0.023669997,0.10259835,0.000103161176,0.073519975,-0.15134524,-0.26239866,-0.22560547,-0.0772077,0.022303542,-0.007046687,0.15067555,0.0016249537,-0.04956174,-0.0606659,-0.16277736,-0.0939327,-0.009426692,-0.1429222,0.036132667,0.1995289,0.053717364,0.09112109,-0.11324163,0.26659438,0.08858035,-0.08495639,0.17004177,-0.075364165,-0.115679204,-0.12616205,-0.13014112,-0.17794907,-0.03381803,-0.12611724,-0.16873588,0.0045945267,-0.18720312,-0.1396181,0.091360554,0.054904755,-0.23580119,0.13628492,-0.07642496,0.0044623227,-0.017789174,-0.10983453,0.050806046,-0.23519753,-0.047328383,-0.064449824,0.07612938,-0.29063183
0.2604317,-0.23217088,0.0125183975,0.08977247,0.11692851,0.16791323,-0.1758361,0.03572125,0.115412235,0.117956154,-0.014180571,-0.10741874,0.016092766,0.14673576,0.1693672,0.054863695,-0.08467368,-0.1254081,0.1723757,-0.08275863,0.18866798,-0.12174953,0.047309916,-0.2797255,-0.065211214,0.1285483,-0.14656101,0.02821533,-0.08062493,-0.16634807,0.09213734,-0.085621655,-0.22418159,-0.029300537,0.18228544,0.02897218,0.075303786,0.012814395,0.05236932,0.09559949,0.031234,-0.05440835,-0.05019405,0.04617169,0.11167611,0.15171923,0.026379267,0.1718832,0.09590428,0.027498538,-0.24004336,0.020627381,0.10994106,-0.30190864,0.1381878,0.018632285,0.07348457,-0.14387247,0.13159493,0.044586107,0.13440713,0.089953065,0.025669038,-0.102638744,0.088410825,0.15731592,0.04448491,0.047795713,0.081182845,-0.073817596,0.035464127,0.03946409,0.15188988,-0.046836544,-0.21426412,-0.16085868,0.11956681,-0.09794226,0.09729901,0.1271971,-0.23550327,0.043271504,-0.07194324,-0.09221292,-0.0038503513,0.11619153,-0.015367629,-0.17051949,-0.26758465,-0.06927664,0.14928691,0.24528584,-0.10318957,0.028776918,0.23882537,0.0733793,-0.18864104,0.0092995325,0.13130735,0.16430286
-0.08596766,-0.15570378,0.095383324,0.11894202,0.035829395,-0.15605058,0.21682052,-0.14093915,0.06524434,0.017128391,0.025235457,-0.030623272,-0.13498007,0.23466094,0.11188315,-0.1305181,0.2844708,0.111579776,0.04049764,-0.009083223,-0.109360576,-0.015121734,0.026261915,-0.09529226,0.08664446,0.0025218066,-0.1375831,0.077597156,-0.01765314,0.15522277,0.16869877,-0.23437436,0.1188886,-0.08964028,0.0011794943,0.038033832,0.105290905,0.2367477,0.045449443,-0.10901041,0.03868193,0.1957264,0.0052433396,-0.055544112,0.055548403,0.043676503,0.2738572,-0.015205856,0.13114224,0.06627922,-0.27101588,-0.03967739,0.14709106,-0.12108368,0.080892764,0.10055595,0.09877893,0.18841404,0.15743238,0.23518082,0.23826082,-0.19008934,0.20543496,0.093058124,0.15375851,0.03254438,0.036060248,0.04306019,-0.08682035,0.15331234,0.10132755,-0.3061994,0.004949561,0.12712622,0.15163644,0.18729624,0.05922517,0.28120303,0.17332383,-0.03277684,0.15794364,0.0048196064,0.17479481,0.027530452,0.28557774,0.17718765,0.027276354,-0.001346023,0.0039754524,-0.06971804,-0.14447674,-0.024202714,0.2473315,0.22350007,-0.012708448,-0.039164696,0.04525823,-0.1331088,-0.16780107,-0.10401316
-0.10667185,-0.0148335295,0.06156855,0.18317673,0.081159525,0.013889358,-0.104856126,0.039388034,-0.31340337,0.07197344,0.28076762,-0.12666419,0.025649551,-0.1594895,-0.07230886,0.15475011,-0.101793356,0.006495863,-0.07811051,-0.17847124,-0.09112468,0.11071182,0.025651107,-0.21854824,-0.27822414,0.10875591,-0.18758748,-0.08631527,-0.16971876,0.067193195,-0.19274423,-0.29363677,0.03750772,0.05664719,-0.1738677,0.115182735,0.009326355,-0.18972483,0.122090906,0.15576304,0.109013736,-0.117860325,-0.011870515,-0.06972268,0.08772748,-0.16627748,0.15495035,-0.17526159,-0.18542053,-0.14186503,-0.20996629,0.13129471,-0.21704769,0.24784626,-0.23700762,0.03311455,0.016008368,-0.069738686,0.044975102,0.02533674,0.10243976,-0.005655866,0.09364141,-0.13277301,0.00051088893,-0.043756932,0.10774889,-0.20018229,-0.11255019,-0.004808023,-0.0061794445,0.10894005,0.06813316,0.14584918,-0.15448572,0.13959299,0.06600553,-0.3168397,-0.16617018,-0.19856709,-0.099636324,-0.21510895,-0.05173834,0.0373256,-0.046275504,0.038729854,-0.15425219,-0.20876373,-0.22907577,0.069478326,-0.18640654,0.14759916,-0.10976442,0.13275142,0.08541345,0.09876817,0.22287917,0.088174395,0.03793783,-0.019705025
0.03889185,0.0973998,-0.26024994,-0.039856758,0.043141577,-0.25682262,0.058458284,-0.08545047,-0.1180625,0.061598264,0.18478695,0.07027905,0.026148776,-0.27969152,-0.101193346,-0.044744927,-0.008170543,-0.04203221,0.15114051,0.25461635,0.044421945,0.10381031,0.20588052,-0.24629341,0.13585523,0.009468611,0.039762076,0.0015171662,-0.073491886,-0.01510596,0.123318106,0.01457089,0.032371975,0.057953417,-0.16729082,-0.1865933,-0.0670836,0.024322279,-0.07357935,0.26443344,0.18034391,0.0924972,-0.0061226394,0.12993644,-0.037166804,0.018760065,-0.1985641,0.109672755,-0.14625815,-0.13352944,0.2216842,0.005132828,0.105190165,0.21526897,0.27081504,-0.15371455,-0.16693626,-0.14559698,-0.11728499,0.036575247,0.13573086,0.13595586,0.027294265,-0.18248443,-0.04702696,0.27607173,0.20015986,0.21095268,-0.062294472,0.15051253,0.12281857,0.067431204,-0.16677551,0.097745106,0.04963561,0.1347511,-0.19737974,-0.041446704,-0.109834306,0.14402643,-0.16277602,-0.1546967,-0.2621071,-0.16877112,0.09246287,-0.038505673,-0.07674931,-0.08975994,0.0007845969,-0.09567317,-0.020738222,0.0851873,0.10811191,-0.041069735,-0.06487982,-0.052601706,-0.23176287,-0.14023712,0.184263,0.1959635
-0.21367073,-0.14056695,-0.0020488806,-0.12361141,-0.13430613,0.07651043,-0.121574916,-0.29844135,0.008787751,-0.2238529,0.10852512,-0.08560988,0.022667179,0.04540115,-0.29721338,-0.047994453,0.16342509,-0.30402383,-0.07093644,0.2693669,-0.20277637,0.04826232,0.12031852,-0.09364027,0.16854148,-0.0308157,-0.01289895,0.03364974,0.18016066,0.09889514,-0.0269524,-0.0043778704,-0.17764473,0.05240875,0.121745095,-0.118665636,0.11092063,-0.04607565,-0.13792044,-0.15641563,0.024088608,-0.15357554,-0.16229436,0.10309551,0.077645116,0.0069782757,-0.060302246,-0.13418546,0.08586696,0.11421989,0.19948864,0.1953056,0.0132132005,-0.1292857,0.19749752,0.15905222,-0.11913904,0.14174226,0.23375773,-0.018966664,-0.12714675,0.12673855,-0.10590805,0.062445484,-0.20141827,0.057798967,0.21250026,-0.16196185,0.0030616485,-0.25887966,-0.19585972,-0.21613702,0.15681742,-0.040230997,0.0039570746,0.14673796,0.12236385,-0.046473056,-0.1907367,0.0734251,-0.0020479697,-0.073286906,0.03930583,-0.16762762,-0.20632418,0.05459241,0.0002821843,0.14377132,-0.09322943,-0.076756954,0.045421235,-0.034442082,0.044227198,-0.25487366,0.12567216,-0.17004931,-0.14704724,0.12962426,0.00056809076,0.028350417
-0.17264852,0.18046086,-0.07277917,0.16844249,-0.1447905,-0.014010808,0.09441522,-0.06823011,0.048238747,0.1491436,0.16371886,0.04068584,0.05787529,0.035094664,0.087468535,0.12404939,0.19552678,-0.09626737,-0.080986306,0.06137969,-0.07128985,-0.059984952,0.13237143,0.1542232,0.08325408,-0.15888308,-0.27285248,0.043470252,0.008700322,-0.16037272,0.21634325,0.20888853,-0.057742957,0.15151261,-0.018276358,-0.12047237,-0.17847237,0.1919203,0.061703056,-0.118920855,0.24915443,0.17906693,0.15510511,0.1894442,-0.058895957,0.08497008,0.10993817,-0.1057312,0.06744494,0.0116071915,0.05757053,0.014922257,0.07346228,-0.11706594,-0.1426203,0.07024135,0.26979628,0.15702225,-0.08283739,-0.096880004,0.103558905,-0.0075711305,0.16535549,0.08150929,-0.05263782,-0.00503424,0.1122161,-0.036103755,0.10873033,-0.26615098,0.034953073,-0.25712687,-0.0006804768,0.058816146,-0.047532097,-0.14053679,0.24503255,-0.18199243,0.07490226,-0.0062035373,0.06749969,0.19732997,-0.10954426,-0.12152002,-0.17345312,0.071143106,-0.24507234,-0.052672245,0.07299277,0.14241964,-0.13374521,0.014422471,0.22501709,-0.07658866,0.019006275,-0.2483242,0.17412165,0.19788943,0.21934903,0.100254744
-0.020246765,0.18207762,0.08190401,-0.049788292,-0.025595454,0.21532038,-0.1427705,-0.066793635,-0.18571575,-0.15360634,-0.10901309,0.1801882,0.23648043,-0.09314847,-0.246796,0.008765628,-0.03719532,-0.2008849,-0.032332536,0.09581143,0.113313295,-0.29216105,-0.007901744,-0.24364066,-0.03416853,-0.0010026789,-0.014721518,-0.049742255,-0.118971154,-0.15515198,-0.0722513,-0.10992461,0.10130402,0.09383676,0.19519295,0.079659924,0.05684861,-0.14535421,-0.060829535,0.009044959,-0.1491651,0.105091244,-0.021227928,0.076733075,-0.097463086,0.036349285,0.08449277,0.17485555,-0.035068963,0.16213112,0.15224126,0.1690282,-0.011775022,-0.10874889,0.2557034,-0.045252558,-0.030331869,-0.08021263,-0.048767854,0.110778525,0.062467933,0.055438995,-0.09886128,0.27460617,0.26590616,-0.028489083,0.0971043,0.09053761,-0.17484035,-0.068683065,0.09066805,-0.087183625,0.28225988,0.116628274,0.097696014,-0.14539476,0.1067579,-0.10194369,-0.014745438,-0.10604139,0.056013778,0.20833294,-0.0051713674,-0.084404506,-0.10673482,-0.17493719,-0.07377294,0.09759568,0.04914166,0.020841066,0.12528452,-0.04895445,-0.16664706,0.17620425,-0.12897898,0.040793307,-0.071719944,-0.10715932,0.2219631,-0.0015329104
0.046874203,-0.01498576,-0.099565744,0.20572005,0.13036953,0.16054222,-0.16317268,0.084042996,0.03876427,-0.0030338292,-0.008590386,-0.12301003,0.107941344,0.19443932,0.18730035,-0.298556,-0.1325799,-0.13980766,-0.05536579,0.119724385,-0.122233994,-0.18039846,-0.16007546,-0.12978928,-0.19550274,-0.031668104,0.15198418,-0.13155618,0.17335863,0.27925378,-0.28365922,0.057482842,0.03549749,0.16920584,0.16805877,0.018517792,-0.06071354,0.084914014,0.19657041,0.118990324,-0.06527424,-0.25059703,0.00776447,-0.018489785,-0.1402531,0.14784503,0.18399341,0.20238729,0.111074105,-0.027163034,0.04149047,0.26273388,-0.01151077,-0.013419503,0.12486095,-0.027039845,0.06475295,0.028477808,-0.14014831,0.09025862,-0.048566505,0.22701843,0.10350647,0.06699243,0.08251209,0.09860564,0.072527796,0.1381106,0.25381634,0.20687427,0.12334917,-0.087339014,-0.18904,0.077241525,0.20820494,-0.011937338,-0.061532483,-0.16256739,0.059909206,0.07263535,-0.21242572,-0.039731044,-0.05328822,-0.15053564,0.111352436,0.16094679,-0.16568682,-0.102801435,-0.19802798,0.07127677,0.21341428,0.1630065,0.11660418,-0.23715644,0.10989969,-0.17418653,-0.023208808,-0.15933917,-0.00910041,-0.17487271
-0.029767612,-0.22044286,0.17752525,-0.05625262,-0.284203,0.29365376,0.058354694,0.04518,-0.10028031,0.106813885,-0.06458641,0.30350772,0.067776956,0.08987036,-0.143893,0.23752066,0.08257965,0.105109416,0.2036773,0.121165745,0.029983606,0.1315242,0.050636098,-0.016119052,-0.017666075,0.10614951,-0.2852806,0.06817559,-0.055007976,0.2925911,0.34326634,0.33111736,0.22665675,-0.033638433,0.11055489,0.06520897,0.14252245,-0.044955652,0.034695294,0.14684363,-0.058190323,-0.026679704,0.18173064,0.13243581,0.073828645,0.12650006,-0.03798022,0.27787098,0.13691063,-0.15968339,0.14616469,0.12389482,-0.105061516,-0.25185817,0.06706155,-0.110472,-0.0017680473,-0.077878214,-0.20865688,0.30240226,-0.27379394,-0.092382886,0.12511112,-0.1422289,-0.004133282,0.116019964,0.011928415,0.060424536,-0.02657636,0.15899122,-0.095470436,0.19309337,0.006620329,0.06695822,0.09434599,0.10889628,0.110526085,0.054694142,-0.030114,0.07279119,0.008010885,0.15045181,-0.0040534763,0.06586549,0.18882726,0.13318257,-0.2240314,-0.045668174,0.29850462,0.26678336,-0.085818954,-0.14420573,0.13806039,-0.069347635,0.004119386,-0.01865615,-0.26340383,0.14236146,-0.07361073,-0.09820923
-0.21631034,-0.33999026,0.03315042,0.021797517,0.31043848,-0.14494267,-0.23668218,-0.18912284,-0.08377635,0.0029586894,-0.024541153,-0.1337574,-0.1821735,-0.102707945,-0.013314705,-0.045644037,0.16404392,0.03684014,0.005326655,0.18059045,-0.039776795,-0.31180704,0.17883623,-0.2585242,0.06545099,-0.045347355,-0.07599437,-0.11737235,0.13434681,-0.13774778,0.015481901,0.078439176,0.053596597,0.09815648,-0.19320734,0.0020587246,0.055728305,-0.106348254,0.08828959,0.14912514,-0.029328661,-0.1241512,-0.029086508,0.16527013,0.01470101,-0.0056729275,-0.23810117,-0.112521745,-0.12540177,-0.20869173,0.14055273,-0.11956639,0.029311758,-0.021168709,0.26005083,-0.32033682,-0.07476953,-0.2727379,-0.115012586,-0.031296644,-0.1831741,0.124809764,0.002182868,-0.044969123,0.074234724,0.087845266,0.05876218,0.026671024,0.053222056,0.17824444,-0.0021512033,0.1966992,-0.01716838,0.056022916,0.058936987,-0.21045525,0.091015585,-0.2225691,-0.2588875,-0.21641259,-0.012098006,-0.026102867,-0.20520248,0.09956165,-0.098935075,0.15046766,-0.044606913,-0.038882654,-0.23177762,0.18375969,-0.038240515,-0.233111,-0.06965342,-0.112079956,-0.27354065,-0.01342531,-0.033063848,-0.0028608069,0.07889856,-0.20179713
0.007970443,-0.14672355,0.25907245,-0.04354583,0.021779075,-0.078146555,0.10696547,0.01614529,-0.27438647,0.058988094,0.03242391,-0.055656973,0.12746902,-0.07163175,-0.26798725,-0.037048955,-0.15591802,-0.27999848,-0.22017981,0.02428839,-0.035384662,0.13443969,0.020055108,0.1498645,-0.048351515,-0.02086317,-0.08357902,-0.021640649,-0.2521976,0.11798948,-0.17830834,-0.13475412,-0.12635432,-0.17300656,0.059651613,0.053053495,0.095553756,-0.26684338,-0.023148756,0.05695436,0.074889444,-0.18718117,-0.123810045,0.16383198,0.0338333,-0.19771375,-0.066927776,-0.14349934,0.019499255,-0.10393367,-0.08486349,0.13249049,-0.034787487,0.018423306,-0.13359654,-0.03953005,0.093776196,0.20981495,-0.13002805,-0.09779891,-0.17098387,-0.055495564,-0.25093794,-0.10467226,0.10289104,0.12720375,-0.07564659,-0.1923262,0.04033,0.08997921,0.03574505,0.12316659,0.10100485,-0.04056551,0.021716306,-0.14099395,-0.045117248,0.15147334,-0.022854494,-0.16713649,0.0075022187,0.23879538,-0.20762645,0.24461837,0.06406674,-0.12969473,-0.20307039,0.11325944,-0.16245016,-0.06532914,0.10603619,0.02087614,0.07804412,0.12898082,-0.0834909,-0.15010597,-0.121752344,0.15758578,-0.14681399,-0.09455978
-0.016059915,0.14037307,0.1377795,0.25588036,0.20520027,0.004024006,-0.017806916,0.10769208,0.21755286,-0.031768326,0.17712678,-0.038111515,-0.011746717,-0.101706654,-0.16432367,0.10405593,-0.18658261,0.130312,-0.08308567,-0.10585774,0.13498297,-0.050581798,-0.18558808,0.22694899,-0.16018409,-0.059922684,0.220013,0.02143387,-0.22728585,-0.15243535,-0.18361951,0.20322004,-0.065311484,-0.09787048,0.116346605,0.19325647,0.064134516,0.04896805,0.03275742,0.120998025,-0.11126496,0.14304373,-0.20876852,0.20563395,-0.19703917,0.0672703,-0.20359129,-0.06267126,0.11940547,0.1294036,0.09877266,-0.09570763,0.029677132,0.181041,0.07463659,0.20864086,0.091021284,0.08725502,0.14374858,0.02176046,-0.038461722,0.02260732,0.29901963,-0.20809108,-0.018242935,0.062506534,0.08280515,0.12959467,-0.06745879,-0.010530777,0.070024066,-0.002998284,0.1688202,-0.08619545,0.15018994,-0.1563239,-0.037631463,0.16576691,-0.013699649,-0.020870818,-0.0770911,0.28238326,-0.12461131,0.12128417,0.13070491,0.018017948,0.07214865,-0.14567411,-0.13891964,0.038576238,-0.21586998,0.038220536,0.038277756,0.028413432,0.031474695,0.04920479,0.1507927,0.06778026,0.03413653,0.1413749
0.109670736,-0.2631266,0.15620133,0.07588486,-0.086709686,0.05959413,-0.31117383,-0.15641096,0.020036785,0.15125948,0.12801485,0.01075613,-0.13575341,-0.22919293,0.116825014,-0.059512176,-0.1986099,0.22402398,0.19866842,0.20566414,-0.18643726,0.054654565,0.14962125,0.20138425,-0.11228374,-0.23107179,-0.0007918324,-0.10001078,-0.0600946,-0.08432179,-0.122103475,-0.01858367,-0.07609377,0.04339362,-0.2015415,0.12289167,-0.11482691,-0.10987323,0.023902658,-0.1140172,-0.10335937,0.029782245,-0.1866277,-0.013247947,0.040115386,-0.027429031,-0.05887031,0.10736606,-0.044840105,-0.26249883,-0.13605942,0.04373087,-0.031687215,-0.030204706,0.077944405,0.014348147,0.07232475,-0.18716267,-0.13988607,0.04741547,0.23213005,-0.12464084,-0.026958711,0.15894224,0.1558296,-0.13091062,0.12453261,0.08699331,0.16777343,0.039970286,-0.09464436,0.012549507,0.1073977,-0.23372477,-0.21979061,-0.060959093,0.15333234,0.09364449,-0.025961913,0.13120581,0.0027899505,-0.28892073,-0.08646215,-0.040979583,-0.107553616,-0.14289008,-0.035139464,0.079476416,-0.15430501,-0.113693826,0.094115786,-0.15011422,0.14213584,0.11382476,0.19630258,0.26583374,-0.07726741,-0.11160116,-0.36135706,-0.0144196395
0.12299136,-0.06470801,-0.18369462,-0.21993187,-0.14259417,-0.0050390903,-0.1737201,-0.008309389,-0.018173516,0.058190394,0.058348443,0.22168854,-0.083053425,-0.2477029,0.22350073,0.15262587,-0.0013535724,-0.057674065,-0.023702748,-0.066096656,0.14739768,-0.15228379,0.17967753,0.01719112,0.0012222173,0.08486275,0.019321345,-0.09227319,-0.20216192,0.18383037,0.10230319,0.30655906,-0.0043611443,0.025810782,-0.07412723,0.18164599,0.19406231,-0.14566505,-0.19146472,-0.088454776,0.12816791,-0.04770917,-0.02110644,-0.09224907,0.21994735,0.13555686,0.07706421,-0.15599589,-0.18818375,0.0684427,0.057347585,0.15126191,0.33259618,-0.027985863,0.07296258,-0.16875248,0.01024333,-0.24965177,-0.05360864,-0.1471698,-0.054957405,-0.012535834,0.2840286,-0.08223561,0.0710643,0.028420033,0.17927615,-0.032815266,0.15089217,0.11101735,-0.21483515,0.002528132,-0.027057834,0.063362226,0.21439837,0.06624215,0.016544966,-0.17025867,0.037129555,-0.124591455,0.1644325,0.25199464,0.026989914,-0.1236597,-0.09604497,-0.06553237,-0.027055947,0.12656891,0.1573658,0.110293716,-0.17874172,-0.10830899,-0.25720477,-0.04994922,-0.11832046,0.2062842,0.15040441,-0.0013284617,-0.09718058,0.03134978
-0.12486007,-0.10149277,0.24324353,-0.16587035,0.010941455,-0.098934144,-0.20947202,-0.08194203,0.24289703,-0.18123278,0.30488336,0.06435863,-0.06515155,0.10823011,0.18242814,0.122486494,-0.17565738,-0.074764244,-0.07805981,0.046637964,-0.30737543,-0.024367206,-0.03273851,0.17484336,-0.030401336,0.15787682,0.046003878,0.048860654,0.18304272,-0.04984819,-0.024891578,0.13315773,-0.17551792,-0.045081183,0.021694299,0.12943274,-0.13273065,-0.20850375,-0.20074543,0.037543226,-0.1837737,0.06271601,0.2267104,-0.013222271,-0.21569245,-0.020518396,-0.105021566,-0.19098961,-0.2611361,0.029913351,0.17282225,0.081825584,-0.11255883,0.041866824,0.19273537,-0.08137073,0.03880599,0.19918834,0.10144312,-0.07812285,0.03215913,0.011298357,0.14794508,-0.042571716,0.01625523,0.11526391,0.26498547,0.079071745,0.032802146,0.16004163,0.011277822,-0.1308955,-0.09390259,0.18681422,-0.03561013,-0.05561987,0.09850225,0.18179637,0.004301996,0.11198912,-0.07881647,-0.1565042,-0.08378975,-0.09723537,-0.08758877,0.03566,-0.013728953,-0.0011781522,-0.06946782,0.07429151,-0.21206382,0.13180561,-0.063502036,0.15764989,0.19291411,0.018811226,0.059006017,-0.056206364,0.09359614,-0.08868197
-0.05647725,0.1378904,0.18505958,-0.14337733,-0.2814821,0.18432741,-0.07849508,-0.04088966,0.14142323,0.11206183,0.023313064,0.16234702,0.16962217,0.12360301,0.225999,-0.08265788,-0.06507986,0.18722218,-0.19480218,0.29150817,0.027072985,0.12660004,0.122239284,0.13728935,-0.13228442,0.06713619,-0.028998148,-0.18373536,0.11588561,0.2859311,-0.10932563,0.13885652,-0.044579156,-0.22847229,-0.12481206,0.31610152,0.07263141,0.15940948,-0.010935611,0.061337896,0.10184036,0.25580135,-0.011457446,0.028601343,0.06603073,-0.12046948,0.081330426,0.1295901,-0.026383981,-0.099484846,0.02359851,-0.045643628,0.08059409,0.028446894,-0.23023178,-0.06606104,-0.2765981,-0.02432186,0.17910373,0.14441454,-0.15624066,0.10235814,-0.11739205,-0.0023459818,-0.008765399,-0.25696355,0.10937287,-0.06755414,-0.06599565,0.16260567,0.25163075,0.032406166,-0.030336667,0.046168614,-0.090595305,0.15643074,-0.1541801,-0.0826386,0.10681602,-0.20619969,0.28443208,0.18628232,0.23930089,0.054132372,-0.15344174,-0.25077015,0.068908975,0.16883689,-0.20578662,-0.013247436,0.0042487364,-0.11298902,0.1350208,-0.008447043,-0.10717187,0.26814297,-0.041142024,0.0051541054,-0.06513586,-0.0865441
-0.0966055,0.1877746,-0.2230158,0.122574285,0.06995823,-0.15532793,-0.067216896,-0.17871176,0.24450214,0.19438066,-0.2293956,0.2643466,-0.16683689,-0.14329863,-0.076381564,-0.07186394,0.19900125,-0.15612713,-0.14090668,-0.10886214,0.0260883,-0.16608244,0.17691728,0.03504529,0.0986527,0.0014243519,0.08163116,0.10454606,-0.07142318,0.032547675,-0.06219468,0.0098726945,0.24836883,0.005478581,-0.018664382,-0.019526456,0.053623,-0.03974244,-0.31789318,0.17252961,-0.056039486,-0.14731596,0.054623727,0.08328734,-0.11550686,-0.12885986,-0.05008413,0.21481666,0.10636349,0.13512751,-0.0034633304,0.00050100114,-0.0030011805,-0.22272575,-0.05490314,0.019718718,0.077240005,-0.03169216,-0.25016683,-0.021745373,0.0040368754,-0.006580738,-0.053605065,-0.052231926,0.24621531,0.022045227,-0.13166073,0.19062647,0.31637618,-0.047617916,-0.10174437,0.20489556,-0.1976175,0.016784627,-0.048885535,-0.09847613,-0.08191595,-0.10382679,0.22598825,-0.08010331,-0.0056077107,-0.097629175,0.048124615,0.060640745,0.121161126,0.22245294,-0.05739005,0.30636698,0.21971595,-0.02928401,0.013223709,-0.0503165,-0.11625858,-0.10934328,-0.10290625,-0.042005494,0.10392924,-0.17515947,-0.09049308,-0.011122274
-0.09639261,-0.12719816,-0.066733636,-0.06620429,0.12506172,0.13516125,-0.0094185835,-0.15056439,0.012441209,0.07866608,0.17588785,-0.25329453,0.021096416,-0.114343174,-0.07488955,0.023754781,-0.037497986,0.04665032,-0.17506781,-0.10258751,-0.041524466,-0.25504956,-0.038257297,-0.08868367,-0.116546296,0.06331159,-0.30932033,0.061892685,-0.23457995,0.023202106,-0.09580159,0.043402698,0.091216676,-0.20632765,-0.15454285,-0.06064021,-0.213344,0.056953408,-0.13584802,0.15231462,-0.056111336,-0.2863539,-0.03312878,-0.04373612,-0.14407285,0.016164636,0.0662246,0.15084729,-0.09974178,-0.049352508,-0.12961063,0.06674039,0.1090977,0.20818153,0.07539828,0.072166175,0.004657772,-0.28635743,0.022926247,-0.04548554,-0.00066312565,0.2037568,0.045344498,0.14998949,-0.273436,-0.030735224,-0.004376078,-0.05730939,-0.07154826,-0.10065028,-0.12649593,-0.0026068462,0.0054335417,-0.17614093,0.24485858,0.05316211,-0.042507246,-0.013638517,0.056261875,-0.17308937,-0.0535463,0.028891882,-0.07745898,0.08494716,-0.015530646,-0.12380122,-0.014716693,0.07271805,-0.14691699,-0.034016144,0.18466258,0.061364163,-0.2903109,0.019977894,-0.107271016,0.16385996,0.1853958,0.022474384,-0.008876576,-0.15136772
-0.00029132073,-0.10302886,0.077430226,0.10687883,-0.15516452,0.13183215,0.012259001,-0.0850957,0.06933613,0.10534389,0.028957846,-0.0666094,-0.018534262,-0.05489265,0.12855077,-0.22863753,0.093806885,0.00674108,-0.071319565,0.06882003,-0.16660053,0.06908588,-0.23425551,0.21759292,-0.037086196,0.12054857,-0.085904635,0.17748989,0.013510611,-0.23924968,-0.0767507,0.18597028,-0.054203972,-0.18835548,-0.08392602,0.27914858,-0.014457311,0.07285685,-0.027482122,0.18976122,-0.05213056,-0.16802333,-0.04534733,0.2984404,-0.038896587,0.22028434,0.09538478,-0.31053597,0.1173988,-0.15075593,-0.17139246,0.14663774,0.32179922,0.03403769,-0.018757133,-0.05833436,-0.06319833,-0.066937886,-0.062337946,-0.08192878,-0.09600145,0.05062942,-0.010205844,-0.11326959,0.12092258,-0.03873196,-0.23116922,0.101500325,-0.13737509,0.114416845,-0.1282131,-0.21126413,0.27172214,-0.10717619,-0.020641867,0.050751515,-0.0063534654,-0.016008122,-0.047798906,-0.04331041,-0.16685683,0.1304222,-0.23883528,-0.07273426,-0.10715264,0.07051011,-0.057249688,0.22967918,0.2515592,-0.06692426,0.040348463,-0.20628464,0.19608676,0.10770363,-0.16153964,-0.13208117,-0.04942289,0.015830452,-0.27275628,0.04890528
-0.004543823,0.19533324,0.06352744,0.022420282,0.15483339,-0.21386868,0.031183835,0.11989318,-0.081886336,0.076472126,-0.14471208,-0.14299497,0.20581834,-0.03881682,0.02410776,0.008702614,-0.16336042,-0.035604782,-0.027980646,0.1054749,-0.009099306,0.07250366,0.012318375,0.20225911,-0.053156838,-0.1612531,-0.26409015,-0.19976723,-0.1671363,-0.15723577,0.05594552,0.07454824,0.029533206,0.079560116,0.038824905,-0.012300873,0.12066284,0.14954889,-0.22736043,-0.04695262,0.08639379,-0.067600906,0.118468344,0.05794293,0.026178734,-0.20197263,0.23900057,-0.018132167,0.002129882,0.120755315,0.119061016,-0.02598871,0.037363097,-0.04077017,-0.019233324,-0.115276724,0.076054566,-0.07900171,-0.00036004087,0.19270077,0.042938244,-0.03073982,0.05910756,0.0457299,0.2742657,-0.09113526,-0.006532686,-0.12327181,0.22647217,-0.15635782,0.11758068,-0.26810563,-0.18175279,-0.2495791,0.04976054,0.14346516,-0.21453226,-0.0099027045,-0.049716752,0.06845326,-0.042302713,-0.023577759,-0.03461613,0.16450056,-0.26767194,-0.049722876,0.109269,-0.11942372,-0.1904874,-0.15839219,0.13926248,0.21016826,-0.315941,0.2858741,-0.26037446,0.085965,-0.054259174,0.10781812,-0.17104666,0.012974621
0.04826303,-0.022436405,-0.031071218,-0.06455604,-0.21599539,-0.016902825,0.0010359652,-0.108191356,-0.03112926,-0.12002426,0.02128609,-0.09949937,-0.044657364,-0.28706595,0.16009109,-0.14141962,-0.040819835,0.036020704,0.24092022,-0.09253356,-0.26161644,0.10856376,0.12439383,0.24943396,-0.06499274,0.28010866,0.057041127,0.029883703,-0.124459274,-0.053020712,0.11686309,-0.0074627576,0.092203796,0.06421756,-0.0041174255,0.03402065,-0.009423754,-0.20930195,0.034002382,-0.20634922,-0.028884524,-0.37401274,-0.23626934,0.017161643,0.13130265,-0.21881098,0.13226122,-0.15472785,-0.21943541,0.026515618,0.069878705,0.28026038,-0.10539858,-0.29406163,-0.24291101,0.0776744,0.18971014,0.21883737,-0.20101564,0.13646226,-0.017742794,-0.18075475,0.12741396,-0.07531266,-0.037165735,-0.17098954,0.057014514,-0.06941547,-0.021721806,-0.016078932,-0.11557303,0.048652258,-0.11053489,-0.22975376,-0.010774175,0.15198854,0.012514281,-0.10084887,0.17160447,0.107589915,0.025173033,-0.30937138,-0.15285511,-0.07371368,-0.20713499,-0.11303322,0.03710094,0.033503868,0.034375593,0.0869043,0.074840456,-0.19193812,0.0103730485,-0.060506295,-0.05528822,0.106713384,0.010596664,-0.30173025,0.212732,0.08969616
0.00014523891,0.2586009,-0.079074904,-0.048902586,-0.061736263,-0.096364856,0.121923946,-0.11662946,0.17485628,0.00449825,0.014828791,-0.06500388,0.10438872,-0.12659067,0.030507607,0.16849862,-0.04637071,0.034023724,-0.040699374,-0.08650703,0.32171267,-0.15435377,0.14564607,-0.030840794,-0.18354511,-0.039217956,0.031463347,0.17073485,-0.117843166,0.11553651,-0.10174447,0.10672615,0.057546083,0.07110599,0.15810452,-0.14727387,0.14956717,-0.11798839,0.04966361,0.008799433,-0.027503803,0.3217074,-0.15490983,-0.020453714,-0.09126738,0.2639604,-0.108278655,0.18530516,0.23177704,-0.079883896,-0.07122238,0.1600385,0.20024051,0.065697454,0.1578577,0.030436013,-0.10073305,0.28215858,0.11602129,0.035989504,-0.050392546,-0.11893247,0.31417462,0.11478662,0.14763632,-0.19162758,-0.110389136,0.16721067,0.2318627,-0.05957262,-0.008928678,-0.15348731,0.013020864,0.13106595,0.24812384,0.12058876,0.15348688,0.09202723,0.25478834,0.028671395,-0.004360686,0.16995598,-0.0013750361,0.057167757,-0.18285286,-0.0076227323,0.017391834,0.25080106,-0.19755574,-0.10319493,-0.026966523,-0.04873566,0.255979,-0.11944878,0.030319976,-0.06165955,0.12249522,0.23087972,0.05033605,-0.01113966
-0.29691157,-0.08671094,0.20425731,-0.029011313,0.13817346,-0.18282251,-0.093883246,-0.13197675,0.11409786,0.19755165,0.041847218,0.15776122,-0.026687136,-0.21956186,0.28750283,-0.07895591,0.017166002,-0.00571185,0.12939829,-0.26101807,-0.084143065,0.18645515,0.31643036,-0.09497058,0.30038297,-0.00040895544,0.025475012,0.12480051,-0.09069581,-0.04077049,0.024081247,0.1130644,-0.017417515,0.21571608,0.082782105,0.09863131,-0.18935789,-0.05915844,-0.0752445,-0.062102187,0.21012484,0.26867953,0.16488962,-0.23263666,-0.2239304,-0.11904196,0.30152008,0.083719544,-0.13029853,0.05956936,-0.2568892,0.14771226,0.26646337,0.23049702,0.011424048,-0.013732601,-0.089137755,0.09323318,-0.22194727,0.056406714,-0.11997613,0.3097766,0.17217964,0.043758374,-0.017454512,-0.02637738,-0.04206976,0.15584584,0.23466815,-0.10177721,-0.091487885,0.18771711,0.18501723,-0.044223253,0.10545039,0.14902186,-0.056337144,-0.13941805,0.12664215,0.15688214,0.1237491,-0.09448106,0.1486283,0.13914014,0.06420643,0.016361859,-0.11162896,0.17272098,0.15470842,0.013559637,-0.03281508,-0.109059565,-0.104270354,-0.08454751,-0.087427415,0.016817693,0.23397532,0.17349648,0.28834254,-0.070356585
0.12612379,0.14193964,-0.2480674,0.069939,-0.017093152,-0.3066878,0.23636423,0.068990715,-0.06282738,-0.15778564,0.079389706,0.04141708,-0.15537153,0.07840634,0.06727285,-0.18864213,0.056371555,0.117441855,-0.025962956,0.08063826,0.10762264,-0.0042986,-0.13440417,-0.2137526,-0.18548475,-0.16926827,0.042211503,0.17527151,0.2199567,-0.031413235,0.03492464,0.034911975,0.28028893,0.11006067,0.007929037,0.025171008,-0.040767416,0.0089747785,-0.26929423,0.029849079,-0.056121964,0.08266874,0.008488384,0.12560283,0.18853772,0.036127705,0.14730586,0.032183398,-0.23118196,0.17313756,-0.17835338,0.06824939,-0.1288646,-0.20265538,-0.011701934,-0.1753938,-0.0048930426,0.10732765,-0.094430424,0.2491775,-0.12256734,0.037678786,0.10081683,-0.26413938,-0.15734217,-0.26493114,-0.15545207,0.122724764,-0.008167858,0.26337686,-0.0029246146,0.17572658,-0.0055371122,0.07442789,0.10703415,0.11697117,-0.19891554,-0.13161972,-0.16459951,0.16101715,0.07986846,0.28213426,0.32275626,-0.12745312,0.10466829,-0.0061128032,0.076370046,-0.029816877,0.12011657,-0.08089814,0.037472945,-0.045295306,0.048768386,0.19075558,0.025108334,0.035992425,0.019658832,-0.08054738,-0.07517696,-0.10178478
0.11212001,0.19836794,0.068284184,0.12854284,-0.003920945,0.12559508,-0.18862028,-0.14480202,0.048789583,0.28493804,0.032431178,0.28026015,0.0025909576,0.13726434,-0.16277803,0.019802315,-0.31089756,-0.06818923,-0.011120299,0.10028692,0.044098474,0.14539875,-0.08160545,0.17313054,-0.043915194,-0.01264395,-0.06833195,0.23715158,0.16520603,-0.06671885,0.022297027,-0.156412,0.093258016,0.20530911,-0.07102361,-0.21501692,0.06407545,-0.088805325,-0.060510233,-0.010005828,0.011052584,-0.058454644,-0.11101044,-0.24999325,-0.0030190083,0.003595418,-0.038270544,-0.22657229,0.03575237,-0.036151987,-0.015918009,-0.08410877,-0.10273626,-0.058456674,0.18274152,-0.020522675,-0.016942758,-0.0082034785,-0.12417519,0.027636807,0.18905039,0.012888945,-0.09259181,0.2429933,0.057946455,-0.11376466,-0.008811461,-0.03938829,-0.108945474,0.19735643,0.20317726,0.2667047,-0.13588583,-0.08350077,-0.22554602,0.12672412,0.029704116,0.06323288,0.11821057,0.08452339,-0.21191047,-0.23982616,0.1427746,0.0929754,-0.0020538084,-0.11123042,-0.10047358,0.017723314,-0.23461786,0.15869412,0.082409315,0.21623257,-0.13151915,-0.07818804,-0.059730425,0.082437955,-0.26404572,0.008498788,0.17916548,-0.08003234
-0.10343798,-0.22255176,-0.26541957,0.12344476,0.09868038,0.1404764,0.0694708,-0.06190935,0.010701619,-0.20152302,-0.0058336644,-0.07829615,-0.16758703,0.02164511,0.0690903,-0.23040333,0.039332505,-0.09999091,-0.09010203,0.18653989,-0.13333698,0.10489436,-0.21880938,-0.01549742,0.052991115,0.021834118,-0.19047222,0.003816255,0.031981986,0.00034926907,0.08287033,0.05852478,0.14566721,-0.17198306,-0.2795522,-0.1347019,0.07974792,-0.32229924,0.16496742,0.20283078,0.03835958,-0.042847864,-0.08956115,-0.1395344,0.03469341,0.27532455,-0.24563143,0.07278164,-0.18810406,0.014397395,0.10862659,0.18663853,-0.19476172,-0.21181102,-0.100753896,-0.15835293,0.16362795,-0.1926183,-0.09356333,-0.08714456,-0.13938974,-0.010292448,-0.15927228,0.14168072,-0.055861507,0.12959102,0.097150445,0.15094925,-0.07852513,0.13056083,0.065720536,-0.012669871,-0.03582691,-0.009437565,0.06940739,0.008431549,0.17489918,-0.13577488,-0.055577517,0.13531825,0.07624221,0.005139397,0.06158131,0.17721693,-0.16634002,0.21177833,-0.22955424,0.12359499,0.022536969,0.1320055,-0.17620045,-0.001896611,0.035969492,0.14375584,-0.056171343,0.05110487,0.14663471,-0.29409596,0.2481196,0.053780526
0.065335006,0.010676582,-0.09077079,-0.14983107,0.044783827,-0.020277053,-0.29089448,-0.18897103,-0.16828774,-0.10887628,-0.036270574,0.03500985,-0.087243564,0.18243513,-0.016309312,-0.03015111,-0.056965496,0.010175205,-0.13646156,-0.05671102,0.0994732,-0.1611026,-0.034012772,-0.25457597,-0.05644851,0.010692177,0.14348672,-0.04465076,-0.06562766,0.27046314,0.039964274,-0.06667267,0.092728764,0.0047022994,-0.03461033,-0.23150426,-0.025944691,-0.13204665,-0.029758008,-0.11026808,0.076094426,0.03500815,0.08480741,-0.18710002,-0.15491353,0.04211371,-0.005460188,-0.26406014,-0.26946998,-0.0722372,-0.20806941,-0.26822725,-0.0027466211,0.06095008,-0.31908864,0.22766598,-0.08596943,-0.021121005,0.16934888,0.015325681,-0.11049461,0.0036572348,-0.02439273,0.031216173,-0.24818873,0.16831322,0.061324783,0.13278745,0.050909683,-0.08143664,-0.030028855,-0.057230227,0.1830977,0.070837334,0.08668344,0.08279934,-0.23525146,-0.026728151,-0.247689,-0.07737111,0.10970693,-0.08214782,-0.20838486,-0.09400438,0.13313696,-0.020376643,-0.070908375,-0.1597727,-0.09296867,0.06744287,-0.07878794,0.094534315,0.22436105,0.016131619,-0.10238402,0.014099427,-0.06434342,-0.13112783,-0.19671343,-0.14017987
0.14202303,0.12010774,0.15732972,0.06363277,-0.012294092,-0.06039891,-0.17178996,-0.11196301,-0.092360325,-0.0090834005,0.01775346,0.07738655,0.15533738,0.09151283,0.15288027,-0.07668363,0.19640806,0.124322005,0.10205137,0.07279544,-0.01433744,-0.03768689,-0.13456242,-0.1655434,-0.12354693,0.31173274,0.0331757,0.0947558,-0.007855517,-0.1553215,-0.06308854,-0.27127597,0.04594488,0.28309706,-0.054967184,0.04981865,-0.1913886,0.21888417,-0.06377327,0.20015672,0.078614846,-0.21731167,-0.14857723,-0.021595526,0.17523474,-0.124386646,0.09125428,0.07645467,-0.0046453183,-0.156972,-0.121421054,-0.06429244,0.13718392,0.3126055,-0.19974448,-0.009120497,-0.32287496,-0.28181455,-0.16067226,0.16155414,-0.25113043,-0.11825448,-0.18548478,-0.25064173,-0.06758304,-0.009038565,0.003363581,0.07265092,-0.10603678,0.06312282,0.07351836,-0.09508447,-0.26718283,0.11008717,0.069367066,-0.13522033,-0.030359916,0.19214822,-0.19287811,-0.035714414,0.14607042,-0.09491337,0.29464534,0.1454368,-0.05052721,0.11617943,0.020411324,0.266261,0.046811365,-0.14941087,0.025557032,0.1007235,0.10250249,0.10138047,-0.034749035,0.052257005,-0.06266043,0.04699031,0.013840389,-0.15831201
-0.095258996,-0.025474817,0.2844583,0.06624591,-0.073335454,0.098172024,0.13247031,0.08771846,0.15480621,-0.10391774,-0.060872506,-0.04559369,0.077613704,0.12089231,0.2036964,-0.13198835,-0.07966549,0.15156636,0.157873,0.055943362,0.24390846,-0.041445,0.001031939,-0.17083827,0.09066122,-0.05325582,0.2034677,-0.030454846,0.08913332,0.16813764,-0.042401433,-0.16799675,0.030613188,0.11102582,-0.068027034,0.05951281,0.032291137,0.04800685,0.028244728,0.02734658,0.10536878,-0.02552454,0.10917881,0.16054016,-0.084195085,0.19252129,-0.052216947,-0.26267317,0.053177424,-0.06592623,-0.090647824,-0.27188352,0.041348547,-0.11036532,0.102334395,0.055342466,0.025569538,0.032942787,-0.0021442908,-0.28344667,0.083470926,0.16347428,0.10230578,0.029596213,0.22902067,0.1303785,0.17085786,-0.10210433,0.03154841,0.115855895,0.00813094,0.21467532,0.12287785,-0.0032588174,-0.01156992,0.08587065,0.118086554,0.02052944,0.026796829,0.2024588,-0.049931765,-0.06723255,0.16903903,0.21295236,-0.0070774797,0.09696979,0.11172064,-0.10732783,0.044762157,-0.13978909,0.1062247,0.18767151,-0.034471866,0.06880815,0.03359878,0.20305933,0.016650679,0.174777,-0.07391982,-0.19248717
-0.10101592,0.103768595,0.12814596,0.05771419,0.022933653,-0.079243526,-0.22515772,-0.15001409,-0.13978034,-0.1409845,-0.21426709,0.06006657,0.020613186,-0.09300373,-0.0723804,0.003207154,0.17518441,0.0657835,-0.019722518,0.23465039,-0.09236893,0.063513815,0.16343127,-0.105131134,-0.08953472,-0.056460783,0.03056125,0.20686297,-0.00389106,0.14974323,-0.07831681,-0.2738627,0.21013032,-0.07054458,-0.08600443,0.18559296,-0.07449543,0.1647309,-0.24865651,-0.061917875,0.20056559,-0.13987517,0.14554957,-0.18202376,-0.039259486,-0.04038697,-0.10483702,0.038686614,0.001457789,0.23322426,-0.138059,-0.06308592,-0.14741164,-0.083324395,-0.05300408,-0.12171896,-0.055269666,0.22688445,0.14801489,-0.13323969,0.007261137,0.25826272,0.008778049,-0.04618956,-0.1496106,0.017195025,-0.055550553,0.16998059,0.12997556,-0.056986045,0.21430402,0.19647102,0.07487567,0.17708312,-0.15411054,0.010133374,0.14264424,-0.11966652,0.116794586,-0.09221487,-0.075626686,0.26581377,-0.14986442,0.11386395,0.1476858,-0.11489678,-0.14546868,-0.24625915,-0.09454104,0.15550467,0.16551824,-0.06616704,-0.049439996,0.03455793,-0.1303336,-0.2623237,-0.06762135,0.14460479,0.2043417,-0.019408017
-0.12858245,-0.08399165,0.18306725,0.17673653,-0.14361605,0.04105901,0.114924334,-0.14744076,-0.24133281,0.08508789,0.058493674,0.11514472,-0.026749408,0.16932555,0.23376165,0.012333247,0.054980285,0.30776924,-0.13424772,-0.1955003,-0.0014747529,0.012742637,0.13332611,0.13905074,0.020237714,-0.1097849,-0.05576394,-0.041931715,0.025858779,0.06218802,0.07839233,0.11193239,0.2129693,-0.11778709,-0.0065664714,0.069310024,0.00763232,0.07142336,-0.2628506,-0.15730536,0.0502955,0.0062442604,0.011896898,0.07710921,-0.0013255973,0.0056330045,-0.1272294,0.023042683,-0.26972678,0.04935381,-0.037627883,0.08102311,-0.13840178,0.0025013955,0.06955456,-0.10587943,-0.092103265,0.058332462,0.07697229,-0.2013682,-0.12186455,0.1733213,-0.007613958,-0.21250239,0.100968435,0.06423541,-0.002964191,-0.065669365,0.17294976,-0.034846775,-0.07854282,0.26695493,-0.019274538,0.051391453,0.08337672,0.098624125,0.0120286085,0.27493387,0.10346406,0.06373919,-0.055928823,-0.040568855,-0.024142293,-0.15387516,0.3049346,-0.04253314,0.12933137,-0.06403599,-0.28342307,0.052405752,-0.059242766,0.035930414,0.13030891,-0.04399906,-0.005868233,0.1467578,0.025887469,-0.0805968,0.19428457,-0.09157381
0.19535893,-0.07887957,0.20267558,0.011952249,0.19953516,-0.06397937,0.101190366,-0.008699595,-0.14506212,0.017010236,-0.10095622,0.03791075,0.24636199,-0.10149156,0.08910206,-0.10139532,-0.33053553,0.0739769,0.052971702,-0.2741414,0.020715136,-0.22527201,0.19477886,-0.12095586,0.0093614515,0.18916324,0.08335499,-0.20729883,-0.021514803,-0.26809314,-0.093156755,0.122823045,-0.02734437,-0.2839969,0.013402974,-0.005264028,0.03773187,-0.11359848,-0.047752284,-0.120424405,0.13726129,-0.12459544,-0.0959079,-0.23476285,0.058581293,0.03196932,-0.12475223,0.11992333,0.13781148,-0.3206964,-0.027377542,-0.03634103,0.07962176,-0.123815686,0.0002812591,-0.19312789,-0.032844003,-0.067340806,-0.24372819,-0.08005596,-0.019642016,0.0014103232,-0.051006787,0.04389773,-0.1516903,-0.13543253,-0.13349731,-0.18535313,-0.19301447,-0.017786933,0.044719506,-0.29165417,-0.0167432,0.029925978,-0.04684021,-0.11649268,-0.1921746,0.04502394,-0.019103682,-0.12991492,0.054913227,0.16957127,0.24115284,0.036362402,0.051938046,0.0046860217,-0.046401132,0.11828462,0.04316833,-0.04657376,-0.1500183,-0.17642951,0.13082545,0.03742885,-0.17352073,-0.2936234,-0.094787806,-0.08259429,-0.056599278,0.046861265
-0.12889583,0.2615315,0.18033414,0.08345649,-0.040622327,0.16229324,-0.10956175,-0.15390417,-0.1256957,-0.24702874,0.029937502,0.04142364,0.016212387,0.005827836,-0.06109646,-0.17653279,-0.031027734,0.039529454,0.25142765,-0.123117045,-0.18630746,-0.016313877,-0.037453316,-0.2058888,0.11773465,-0.08287881,-0.08711948,-0.2395461,-0.11386602,0.012117128,-0.01899017,-0.06275373,-0.108496115,0.059340164,-0.26328415,-0.27521613,-0.13707237,-0.19470954,-0.024358759,-0.14164183,0.1445372,-0.032790717,0.025709094,-0.0020195672,-0.2596661,0.16831765,-0.10211094,-0.20240921,-0.018493937,0.03606835,-0.010932236,0.12746501,-0.092024475,-0.047782473,0.00023771817,0.13246666,0.021809902,-0.29995546,-0.28012067,-0.04548078,0.022953955,-0.17152144,0.054269593,-0.10970054,0.04479143,-0.13918488,0.04200522,-0.22761343,0.0912591,-0.10115772,0.006925468,0.057534464,-0.09704269,0.18343754,-0.061884057,-0.18996513,0.040381406,-0.06612381,0.10593524,-0.11798088,0.13776793,0.029710894,0.0075725117,-0.12036326,-0.21878198,-0.09380818,-0.10548523,-0.17269504,0.12858962,-0.17998612,0.14422916,-0.21700329,-0.09995468,0.071444675,-0.14109169,0.20497003,-0.16657382,-0.13351038,0.0978113,-0.11632506
-0.008400858,0.12818323,0.15513587,0.047204334,-0.16293922,0.12609921,0.13398556,0.1800438,-0.12195149,0.12989858,0.20210806,-0.026266119,0.20086099,0.021351716,-0.35286036,-0.21209039,0.040859148,-0.26692167,0.22064956,0.008625074,-0.32565144,-0.19671729,-0.23072116,-0.11408824,-0.009195941,0.15788491,0.046723716,0.19860715,0.07961503,-0.12669677,-0.18401887,0.036292642,0.12857734,0.0066118333,0.1579664,-0.05986603,0.18306959,-0.17112003,0.095087156,0.03505498,-0.17498936,-0.013857371,-0.03092327,0.17668805,0.113879845,0.19929262,-0.005117362,0.045038097,-0.09191908,-0.17457923,-0.06442489,-0.17255896,-0.16195,-0.18924361,-0.06409169,-0.069483146,-0.077430665,-0.001660013,-0.14098974,-0.13146542,-0.13010085,0.10084017,-0.004687965,-0.12761065,0.05886596,0.10171584,-0.26396486,-0.13134012,0.28343913,-0.0057379655,-0.1989812,0.08867896,0.08044583,-0.12106266,-0.26753816,-0.07553594,0.13560277,-0.020415388,-0.11111357,-0.022885973,-0.14281198,-0.17489925,0.022195008,-0.13678174,-0.18686555,-0.060667142,0.067724936,-0.1801095,-0.11820001,0.009014951,-0.028389059,-0.1433167,-0.061257806,0.043151952,0.012365519,-0.26395962,-0.029982515,-0.058186796,0.16294073,-0.051796887
-0.1718482,-0.10710146,-0.01725054,0.0038602632,-0.20530711,0.070311606,-0.09629162,-0.0048675435,-0.030476766,-0.093792275,-0.06284842,0.030859262,0.14557327,0.073037475,0.07258935,-0.03217995,-0.22726545,0.0006027234,0.051780306,-0.06030817,-0.24077117,-0.03574836,-0.025911145,0.007840681,0.21992426,0.06787401,-0.10654055,0.19057909,0.10542587,-0.06932381,0.13192818,-0.08337114,0.12461634,-0.16138777,0.08158808,0.09882999,0.1839461,-0.30405393,-0.14303418,-0.11634237,0.018943183,0.046548657,0.008438832,0.011494777,-0.2375181,-0.09508229,0.02307196,-0.14871435,-0.20344307,-0.04004462,0.15699145,-0.24611712,-0.14886807,0.19027907,0.0837554,0.08592922,0.059643276,0.087773144,-0.044532467,0.097824454,0.12681274,-0.20216496,-0.04081156,0.10142907,0.030874856,-0.16795696,0.035770502,-0.0833747,-0.14584984,-0.11955479,0.02417309,-0.044105776,0.1228475,0.07149036,0.10414685,-0.011181943,-0.23369978,0.033063285,-0.15849246,-0.1295941,-0.06815921,-0.038080607,-0.109659985,0.25933722,-0.050008576,-0.063068114,0.14700909,-0.04545396,-0.063037135,0.037987724,-0.27597162,0.06947124,-0.059758198,0.24536145,-0.07779443,0.04957055,0.07668785,0.08046566,-0.19453652,0.25514007
0.15753743,0.006091552,0.12229359,0.11801386,-0.1649342,0.01310829,0.14956848,-0.16207169,-0.012852605,0.01958048,-0.060808897,-0.06002217,-0.0051079746,-0.15799198,0.052578714,-0.2600076,-0.09089831,-0.12572807,0.12328929,0.109751575,-0.033798125,0.08668104,-0.17013349,0.022158451,-0.18114696,-0.076326385,-0.1573292,-0.08163271,-0.24116567,0.22953501,-0.05965097,-0.032017242,-0.062692665,-0.041023258,0.14273235,0.016200181,0.08347204,-0.29506525,-0.1048462,-0.07579029,0.12524879,0.12169806,0.17339027,0.09603784,0.07841782,0.101291575,0.08402555,-0.20729744,-0.1528393,0.13821203,-0.08981155,-0.044997644,-0.18133941,-0.024066504,-0.10793428,-0.06430387,-0.03978399,-0.27233076,-0.0947404,-0.0701907,-0.11962318,-0.18096572,0.16690964,-0.015559677,0.03607571,0.02235205,-0.3051078,0.00257646,0.04120573,-0.1446342,-0.06334133,-0.06464863,0.061370272,0.13990216,0.12510486,-0.23937152,-0.26483062,0.1374408,-0.14226109,-0.18408297,0.07717232,-0.10543656,0.06304187,-0.14206386,0.10097531,-0.07025267,-0.039269585,0.003972314,0.13452683,-0.14550662,-0.24694562,-0.24501938,-0.046936736,0.15672542,-0.02564326,-0.15737091,0.043298308,-0.13363336,0.044764813,-0.28443104
-0.028244281,0.06468252,0.18922882,0.18692136,-0.119704425,-0.30191967,0.033297054,0.06814634,-0.10715988,0.03823375,0.025039485,-0.03138042,-0.32775253,0.20066106,-0.107299455,-0.027783103,0.0073872763,0.09164358,-0.09074905,0.26895112,-0.25332832,-0.05425698,0.25488344,-0.19170088,0.0064942334,-0.086113594,0.06315341,0.09252665,0.05250697,-0.1665873,-0.12337616,-0.11978928,0.08042322,0.1292482,-0.092119984,0.12413809,0.027820317,-0.063028075,-0.013801542,-0.045723323,0.054560214,0.030909406,0.16226263,-0.22393121,0.0004238815,-0.1055754,0.11241463,0.11111063,0.03390449,0.070347026,-0.055065323,-0.060243655,0.08625255,-0.07526072,0.16565728,0.056292072,0.022607392,-0.07202378,-0.29390925,0.18780756,-0.07876701,0.045855083,0.097250804,0.035559434,-0.024638418,0.012802689,-0.03231048,-0.075354144,-0.095731705,-0.018854491,-0.114747405,0.009753881,0.08587413,-0.2015057,0.045421686,-0.009130804,0.1334995,0.14707522,-0.20469412,-0.19412835,0.24963737,-0.11395233,0.23147517,-0.20553795,-0.15538576,0.26364133,0.10619805,-0.156798,0.20559075,0.013726565,0.026626829,0.056641884,-0.008302176,-0.04974741,0.19508968,-0.09075889,0.15989262,-0.21066095,0.19287857,-0.08793924
-0.0038441173,-0.04538336,-0.056825247,-0.1597683,-0.17643142,-0.06641621,-0.26217622,-0.14341368,-0.03526079,0.047013763,-0.08244966,0.0061605866,-0.020929739,-0.15106472,0.029144358,-0.17556728,-0.1788712,-0.18225057,0.20954065,0.09853854,0.05289962,-0.03357439,-0.29577017,-0.16537598,-0.1714708,0.07871771,-0.022867663,-0.27136263,-0.17215951,-0.0024028034,-0.095019616,-0.25183836,0.035438552,0.13672128,-0.13993602,-0.15423599,0.0019725412,-0.07459914,-0.042349055,-0.07521993,-0.0095763,-0.15487875,-0.1176739,-0.18930303,0.2194249,-0.05815742,0.065652534,0.14934999,-0.14574347,0.10524274,0.063981734,0.23092535,-0.21251822,0.1283832,0.050355796,-0.24100865,0.13185264,-0.168183,0.11059666,-0.015532674,0.14207894,-0.16578808,0.013464207,-0.2591111,0.05110777,-0.11895557,0.22881183,-0.26014146,0.11021764,0.055112973,0.020605259,-0.18059482,-0.08262326,-0.045361593,0.14557804,-0.23527132,-0.15407562,0.06428323,0.06343219,-0.040129393,-0.10022632,-0.040996484,-0.16302629,-0.054243386,-0.19150707,-0.1472805,0.13551661,-0.21842717,-0.1104161,0.08980046,0.063885204,0.043176074,-0.048047237,0.06953581,-0.085882135,-0.22381061,-0.115280226,0.20743607,0.2552758,-0.08727624
-0.061212167,0.2786839,0.017800368,0.18648884,-0.022278244,0.20513558,0.26428148,0.16382377,0.19772883,0.3077083,-0.12399228,0.1391264,-0.08562443,-0.2215667,0.064466275,-0.105739914,0.14914718,0.28911445,-0.1932505,0.11674203,0.16910757,-0.021836732,0.17703083,-0.02610249,0.383652,0.1349003,-0.045310438,-0.049674567,0.2846928,-0.056542136,-0.036539443,0.13775167,-0.025158983,0.098263465,0.13030794,-0.07876684,0.124411695,0.111101255,-0.076061524,0.25735426,-0.18712479,0.08915891,0.045688104,-0.0025485647,-0.09003374,0.084763244,-0.15696774,0.07156359,-0.17891021,-0.01061393,-0.066046566,0.15949051,0.09182269,-0.18467367,0.19568296,0.012737639,0.039870143,0.046633866,-0.20926529,0.12314593,-0.19387694,0.06520677,0.03582714,-0.16224466,0.21497788,-0.18522222,0.00018672587,0.18998684,-0.1584563,0.16800202,-0.011121755,0.20123865,-0.10946462,0.11228965,0.029981578,-0.23991926,0.0102637485,0.3415313,0.32629198,0.019269513,0.019340571,0.069656126,0.072070286,-0.092913345,-0.020332122,0.1324166,-0.13328707,0.07195119,0.206693,0.2556607,-0.06035671,0.24909383,0.11481161,-0.041913517,-0.08027744,0.07927872,0.05931118,0.25201896,0.14722587,-0.16876258
-0.14510676,-0.0012882587,-0.10170715,0.30189863,-0.24969025,-0.12995498,-0.16238421,-0.008703635,0.11872563,-0.059673138,0.046536926,-0.061814077,0.029082857,-0.073772795,-0.14535439,-0.13236514,-0.12838635,0.17358229,0.0005299257,-0.039741956,-0.0883183,-0.113597,0.019823797,-0.0011713291,0.021879911,0.25053626,0.067884564,-0.09533574,-0.01724757,-0.0139252115,-0.095730275,-0.29461694,0.10138877,0.07376353,-0.077774495,0.14277689,-0.048744917,0.04474415,0.014790544,0.1909633,0.07237096,-0.11581033,0.033659,-0.034810714,-0.040300723,0.2335702,-0.23949991,-0.21885476,-0.00608814,0.26510316,-0.19450563,0.08521363,0.086123385,0.096968845,-0.05650366,0.050064955,-0.050733585,-0.1798794,0.08161159,0.00014832683,-0.08864356,-0.036022387,0.11215847,0.23648378,0.07847325,-0.20187809,-0.01727702,-0.105512366,0.138624,0.20720302,0.08976465,-0.25552967,0.1361611,0.22758594,-0.06566663,-0.028667182,-0.1553315,-0.016825464,-0.1476323,-0.19102128,0.05889969,-0.2249288,-0.16148894,-0.2612446,-0.18205252,-0.0014359853,-0.22442709,-0.20658487,-0.058223642,0.10590921,-0.04346047,-0.053072445,-0.0016681233,-0.03929023,-0.01625067,-0.101905525,0.26015836,-0.23308167,0.29676875,0.17622899
0.09569154,0.08947811,-0.10542475,-0.096676625,0.074114755,0.16607048,-0.0065794014,-0.054623432,-0.10250237,-0.27756023,-0.16435002,-0.07257562,0.0907369,0.11723513,-0.069863856,-0.14557004,0.029333206,0.019550428,0.20059744,0.09475627,0.07873567,-0.16759059,-0.1314887,-0.24390747,-0.16636477,0.023158062,0.002316604,0.1873241,-0.029975412,0.078550085,-0.023615865,-0.2318288,-0.30663168,-0.08230117,-0.025382929,0.21500848,0.13332966,0.15434493,0.10794875,0.09900235,0.044430874,-0.32000032,-0.16165575,-0.12313356,-0.1733144,0.28238097,0.11603928,-0.109538645,-0.33072993,-0.23768766,0.038565915,0.05431734,0.14633103,0.02421934,0.11602162,0.020735027,0.2025176,-0.3084423,-0.03270825,-0.27983975,0.07002134,0.051942404,0.15882665,-0.29977173,0.010768562,0.25272125,-0.13933979,-0.20308892,-0.07474878,0.2683099,-0.18509239,-0.12436852,-0.1067814,0.11868674,-0.11268538,-0.064222395,-0.0010612446,-0.23227401,-0.11689673,-0.17744851,-0.08196614,-0.104709424,-0.09579953,-0.16800259,-0.050320722,0.13764252,0.2236962,0.2993296,0.20860259,0.22079803,0.13501737,-0.07738269,-0.26549122,-0.103521,-0.12308238,0.07319121,-0.010542544,0.057896912,-0.21977468,0.02846708
0.26960814,-0.11624402,0.074834265,-0.13601804,0.17066136,0.3006401,-0.2191371,0.12964752,-0.15605529,-0.16695367,-0.10348415,-0.3372035,-0.18860465,-0.031877954,0.19031522,-0.025152013,-0.13163194,-0.03493349,0.021693261,-0.24014524,-0.008374862,-0.033652183,-0.12108387,0.10177186,0.07747405,-0.16142595,-0.16163483,-0.22852205,-0.059228864,-0.111153476,-0.19619848,-0.07290681,-0.3036195,0.14212814,-0.015764428,0.110175684,-0.16335148,0.101671405,0.03837535,-0.03339059,-0.1525102,0.11058358,-0.11235558,-0.22400069,-0.05128075,-0.24895665,-0.24762484,-0.14683604,-0.06506083,0.054526694,-0.020810606,0.022788925,0.18796949,0.04762064,0.03677919,-0.20048533,0.054267824,-0.03361008,-0.25151765,0.13652681,0.13416746,-0.041718934,-0.26905784,-0.15085082,0.07359368,0.018293658,0.28666398,-0.02809968,-0.11463317,-0.05130334,0.040981743,-0.19126394,0.020158948,0.07705938,-0.023426734,-0.10004816,-0.16638154,0.13899335,-0.023690408,-0.14892909,0.15465228,-0.122481816,0.028846888,0.0017152352,-0.2154727,-0.13194211,-0.003409085,0.047675706,-0.21243508,0.089961134,-0.21146956,0.08730105,0.06397756,0.091716304,-0.06887085,-0.06410612,0.14930539,-0.09627638,0.12547842,0.00033155625
-0.16416591,-0.13741174,0.046574805,0.065787576,0.16417296,0.107536584,0.19277054,-0.11987064,-0.120802864,-0.11429721,-0.006691611,0.26568604,0.054305647,-0.061695896,0.10129971,-0.045004297,0.20031664,0.204862,0.14520046,0.20111631,0.11781379,-0.17895812,0.09592839,-0.10326643,0.015956111,0.058395732,-0.06349709,0.2242523,-0.1042797,-0.18228455,-0.068989925,0.1407055,-0.009077124,0.029163087,0.12942527,-0.013352173,0.05246338,-0.09628887,-0.1111078,-0.017090611,-0.028143624,0.2516425,0.01568062,0.17517039,0.12406385,-0.15646909,-0.022783808,0.014942842,0.05256564,-0.03094714,0.059354737,0.096375965,-0.009127326,-0.015048128,-0.039380327,0.32186347,0.1325801,0.08591327,-0.0012088659,0.08808449,0.17008099,-0.12091906,0.049423017,0.03371288,0.118037745,-0.14773104,-0.116420336,0.08348299,0.2090063,-0.1948735,-0.044394318,-0.01608382,-0.05102778,0.11812681,0.09058552,0.13015963,0.093926705,-0.09928318,-0.001290341,0.005591308,0.11283382,0.2846305,0.12526922,0.24282347,0.31342757,0.020759733,-0.06686357,0.15622921,0.09396436,-0.057812087,-0.034549814,-0.16069028,0.15960675,-0.0036801763,-0.07892788,0.26685444,0.20757055,0.26756957,-0.07773999,-0.052837815
0.069609486,0.119218275,0.15821847,-0.1454696,-0.055677887,-0.22989526,-0.19441564,-0.0876366,0.0374059,-0.103498176,-0.06346441,0.023551391,0.2305962,0.11555784,-0.25484663,-0.034086358,0.12421904,0.038704664,0.024409218,-0.014266591,-0.0020891787,0.24350369,0.1440151,0.024627088,-0.06666052,0.014622307,-0.057677463,-0.12127517,0.037465405,-0.041135207,0.28468683,0.075152546,0.058024783,-0.00796837,-0.11099593,0.08756567,-0.07952004,0.12691247,-0.12608707,0.27490598,0.07437107,-0.012237429,0.014149937,-0.18967484,-0.060470086,0.21498647,-0.17068134,0.28703028,-0.107606255,-0.15138651,0.061434828,-0.05163002,-0.105602,-0.01716476,0.01556173,-0.01705483,0.118291795,0.046768144,-0.2540565,0.073619075,0.049641524,0.15822192,0.060896598,0.016572867,-0.14720148,0.039312627,0.014899668,0.23481336,0.03604235,0.0017195432,0.16348557,-0.054225028,0.08295756,-0.1112181,-0.11161725,0.1368926,-0.0955023,-0.1458738,0.04000617,0.11278453,-0.037098832,0.124883905,0.24221452,-0.18985322,-0.024203401,-0.0069005513,-0.050114416,-0.14027405,0.18442848,-0.08094993,-0.101029985,0.21126626,-0.13261876,0.17785929,-0.2661768,0.14114104,-0.17579593,0.07349828,-0.12679483,0.14776306
0.105534025,-0.06405466,-0.063097134,-0.038965866,-0.25443247,-0.17159262,0.24319968,-0.025013808,0.17542939,0.18044345,-0.26806548,-0.12398706,-0.13124835,-0.13563094,0.059364334,-0.16552755,-0.065280296,0.27132243,-0.021911306,0.10920181,0.06276495,0.02552699,0.18470255,0.022758212,0.19406754,0.14754204,-0.076233,0.049526542,0.04906107,0.18634154,0.10955731,-0.1158427,-0.29263163,0.028680293,0.03830724,0.15945736,-0.23424545,-0.03248665,-0.03707001,0.20405737,0.25367188,-0.15966193,0.09639601,-0.31183895,0.1600143,-0.12243961,0.04473561,0.17204875,-0.12842748,0.26451716,-0.1378746,-0.035066742,0.19028,0.17202498,0.024780056,0.014258728,-0.1729864,0.21902989,-0.017729886,0.2329935,-0.11700223,-0.17687383,0.123742886,0.08699961,-0.09927614,-0.034656305,0.21521047,-0.10755375,-0.07446835,-0.01278315,-0.17748028,0.061947625,0.19338045,0.02068239,0.18579656,-0.12634797,0.09331903,-0.08710624,0.051802907,0.12263064,0.063114434,-0.11311042,-0.23846655,0.14095809,0.26032975,-0.0022431235,-0.09755323,0.037166696,-0.08708552,-0.16110666,-0.037421,0.3039415,-0.016122473,0.13115622,-0.12613992,0.14069498,0.04925764,-0.009857335,-0.02915945,0.047897864
-0.042726226,-0.3134009,-0.12082098,0.08785518,-0.024898348,-0.02661975,-0.100838244,-0.15211503,-0.2504486,0.15512745,-0.020287836,-0.04946466,-0.22483276,-0.12150793,-0.07477506,-0.20828584,-0.21258356,-0.07564598,-0.04108106,0.06219428,-0.1340036,0.2030283,0.13442694,-0.18073173,0.06137686,-0.2293664,-0.07481047,-0.09095492,0.13815206,0.23476724,-0.091857895,-0.19342312,-0.30270568,0.24776912,0.11437099,-0.10123624,-0.15542412,-0.07254003,-0.13713363,-0.15991178,-0.10400978,-0.2751077,-0.15234248,-0.063476816,-0.11403456,-0.091357514,0.008999384,-0.0121909175,0.014916703,0.2571053,-0.023356903,-0.056284424,-0.008563308,0.2659614,0.09037693,-0.0045613,0.22569689,0.0391352,0.08540285,-0.019308805,-0.14873178,-0.10600999,-0.19157256,-0.052611593,0.03666384,0.0696623,-0.16735764,-0.05409927,0.041364904,0.039576147,-0.2532173,-0.10745154,-0.15828194,-0.14586078,-0.037876885,0.102614656,-0.06893567,0.13667522,-0.2306638,0.0062742075,-0.092951596,0.006736352,-0.20520687,-0.27661768,-0.2589079,0.008254103,-0.18726976,0.19223271,0.07717199,-0.21652739,0.048226994,-0.07049146,-0.30175745,-0.07010954,0.11845154,0.16793966,-0.012520892,-0.14551724,-0.26417312,-0.10424222
0.071633145,0.0063188043,-0.093201555,-0.013909968,0.22347283,0.03815489,0.121584706,-0.087526314,-0.12090281,0.016214646,-0.071211815,0.07897084,0.10942562,0.17269422,0.23704353,0.13186774,-0.067393415,0.046838336,0.13681835,0.047372732,0.23502946,-0.014985308,-0.109414645,0.13096175,-0.08288905,0.15788743,-0.05453234,0.114460036,-0.010813408,-0.11533621,0.050540354,0.15706912,0.042717494,-0.13187654,0.10673035,-0.09883713,0.1398964,0.076072216,-0.06040213,0.10057454,-0.12010763,0.0891131,-0.098013125,0.15770234,0.02213943,-0.112090476,-0.08017219,0.0700448,-0.08451616,0.034441814,0.09829625,0.32861513,0.0022487494,-0.12588255,0.006108331,0.15619947,-0.27557948,-0.09977088,-0.0761434,0.092129156,0.10028615,0.2592761,-0.31836733,-0.032934763,0.07820501,0.019909041,0.17890508,-0.030877065,0.03665384,-0.15650067,-0.089700066,-0.014958457,0.07073604,-0.22350767,0.018446686,-0.068534546,0.041512188,-0.14474514,-0.14179726,0.08083031,-0.31781217,0.28297684,-0.0009302558,0.0026493003,-0.20986852,-0.06489909,0.117745355,0.30094624,0.01977657,-0.13641734,0.08268027,-0.060296506,0.04583821,-0.03556879,-0.09097182,-0.21130799,0.202105,0.11433883,0.23348337,0.049156502
0.100528814,-0.05288431,-0.05771989,0.016270826,0.23067926,-0.086184114,0.043043792,-0.25155634,0.28664306,-0.1273177,0.111950986,0.066849634,-0.07939324,-0.2510654,-0.08200793,-0.18457611,-0.07876869,-0.0058444184,-0.081828974,0.018348483,0.00057658507,-0.16625403,0.16351381,-0.14166418,-0.14743684,-0.015185397,0.06732476,0.023740921,-0.25775245,0.27105474,0.15157123,0.09009249,-0.23925827,0.12469088,-0.0058701728,0.06625423,0.08427009,-0.24191262,0.12773521,-0.24991791,0.0006997585,-0.109367006,-0.08057073,-0.06433705,-0.002761322,-0.05223179,0.024295885,0.16394764,-0.14167434,-0.06731664,-0.031697292,0.035524603,-0.07781891,-0.07621875,-0.0618829,-0.07699094,-0.074696004,-0.059537433,-0.0072939415,0.00018397863,0.05947723,0.07922529,-0.11414836,-0.19205923,-0.02123351,-0.054222267,0.027773172,0.008243105,-0.16970772,0.019756224,-0.23040457,-0.11986095,0.091372356,0.07141435,-0.050757095,-0.035382114,-0.19376203,-0.051950835,0.09412537,-0.21881603,-0.11934031,0.17578879,-0.20473681,0.045542493,0.052439053,-0.16765133,-0.12104839,0.14228854,0.06026885,-0.16494636,-0.14701986,-0.29320145,0.054117605,0.08561431,0.03746234,-0.18122835,0.22908403,-0.09800689,0.10608664,-0.051444598
-0.08640168,0.2023596,0.15975438,-0.0024567193,0.0011636167,0.23879433,0.009039147,-0.19419833,-0.17182305,0.008438417,-0.16417721,-0.06894935,0.16158187,0.15267879,-0.13283107,-0.15767473,0.2193613,0.12558219,0.067012504,0.19117348,0.034864824,-0.10234289,-0.013610075,0.11577241,-0.056105636,-0.07263513,0.015795136,-0.18328749,-0.064486586,0.30035335,-0.106475465,0.2981723,0.04851142,0.08671939,0.106522,-0.018360987,0.116751224,-0.024932856,-0.021807486,-0.07817313,0.18177573,-0.08351667,-0.1995914,0.22914477,-0.07077711,0.13315725,0.22280928,-0.0013176893,-0.16060717,0.13867301,-0.12064926,-0.078089476,0.0989205,-0.027633931,-0.1482308,-0.12631723,0.026170928,0.17019752,-0.003256486,-0.05180389,0.22675617,-0.16147299,0.25921157,0.26932687,0.25931406,0.22468188,-0.016252449,-0.113125846,0.15269977,-0.27198222,-0.07880205,0.0021832315,-0.06281113,0.078495845,0.23840286,0.08747703,0.3932071,-0.07841707,0.1833531,0.2675097,-0.13124399,-0.08063143,0.088036366,0.13595332,0.26729774,-0.14888687,0.04268267,0.3067342,0.0949224,-0.02647252,0.20462218,0.009359694,0.19148682,0.0071645323,0.084245265,-0.13232659,0.2140849,-0.10391933,0.074945465,0.10865215
0.0060994304,-0.30000395,0.10623103,-0.05393236,0.12974185,0.111877434,0.085789174,-0.20396891,-0.16843756,-0.26723698,-0.092348255,0.05341854,0.095768325,-0.07265889,-0.061437212,-0.17356728,0.3179262,0.081914596,-0.13909096,-0.057138197,-0.010237895,-0.040400222,0.023694908,-0.09528647,0.11922649,0.011384719,0.13934311,-0.08078066,-0.028476646,-0.057531625,-0.031403057,-0.033675745,-0.042797852,-0.12511227,0.10747582,0.022953259,-0.021100547,0.024006628,-0.03938624,-0.11949252,0.14820014,0.10500822,-0.25098133,-0.08339331,-0.16392954,0.18716082,0.10324761,-0.25117204,-0.0021590993,-0.09800904,0.11156103,0.0063926633,0.023154944,-0.011145374,-0.2613026,-0.049333476,0.1305768,-0.23024544,0.105356194,-0.1718216,-0.04390337,0.14533739,-0.16775586,-0.2331933,0.123338275,-0.18016145,-0.04492969,0.052944772,0.09691406,0.043068726,-0.13136625,-0.2168993,-0.057540152,-0.012823581,-0.095517315,0.041361667,0.106695086,-0.21394192,0.056722753,-0.1169049,0.2181682,0.23663348,-0.043471772,-0.15480429,0.05679819,-0.08360715,0.27416384,-0.009728126,-0.27791485,0.12670392,-0.18544532,0.09659362,-0.044497438,-0.12423283,-0.21283272,-0.05375303,0.062746204,-0.12427771,0.067084186,0.044631433
0.14481965,0.10763303,0.07912462,-0.05695616,-0.17235853,0.12890938,-0.037804894,0.14198478,-0.2540536,0.14319816,-0.015776707,-0.041805215,-0.036665305,-0.15983139,-0.19554558,0.1980015,-0.20622228,-0.2728342,-0.04126298,0.031425584,-0.1286577,-0.004227999,-0.0752699,-0.037060045,0.09799281,-0.10891319,0.05143514,0.247064,0.24720734,0.12836558,-0.11464275,0.18469872,0.064306825,0.24819797,-0.114973046,0.09636965,0.06258401,-0.06962614,-0.062861755,-0.09382194,-0.13359876,-0.15777989,0.07660131,0.18930015,0.119058624,-0.07292243,0.049575415,-0.2012815,-0.19594894,-0.204919,-0.14980605,0.062182724,-0.06873708,-0.044803604,-0.28570658,-0.063834235,-0.048275676,-0.11547743,0.11678365,0.10044525,-0.28940734,0.14706792,-0.05989684,-0.17712864,0.0047901715,0.11366388,-0.10809744,0.03710683,0.10107429,0.16083924,0.098888166,0.042268068,-0.27070647,-0.24343058,-0.1918694,0.03764274,0.15118498,0.017917734,-0.2250338,0.0060664616,-0.05572017,0.012357065,0.06356523,-0.012245269,0.12614568,-0.14337921,-0.13805439,-0.10858513,0.14514047,0.018764386,0.07661521,-0.12414121,0.225614,-0.073543146,-0.1271015,-0.011194536,-0.19078664,0.044290785,0.07716087,-0.2377398
0.18343435,-0.027151693,-0.16210754,-0.11880305,0.10221138,-0.035931073,0.055469863,-0.15463111,0.242075,-0.044685293,-0.18687662,0.0025014721,0.108098224,0.007072468,-0.15498522,0.20661561,-0.117513664,0.2586168,0.13880588,-0.075127065,-0.22108483,0.11226406,-0.027412562,-0.042108804,0.13498871,-0.12670565,-0.13588722,0.039607238,-0.026634263,0.031309746,0.28734347,0.15951738,0.079113044,-0.0840099,0.036385745,-0.13649271,-0.13327631,0.07559395,0.05932683,-0.046487175,0.19577472,0.2651337,-0.13855559,0.2121118,0.3160135,-0.09826821,-0.024421565,-0.08100288,0.16220915,-0.10381934,-0.016964896,-0.009470347,0.0157711,0.2524621,0.15536469,-0.015831096,-0.08891958,0.07617479,-0.11670703,-0.0031329766,0.030400524,0.07787907,0.1910354,-0.13779315,0.17357507,0.086164646,0.058750477,-0.22032401,0.06278033,-0.13105823,-0.18958488,0.114320636,0.08406864,0.084698826,0.083028026,0.05242293,-0.20064189,-0.08111155,-0.23731045,-0.09303717,0.26317388,0.23451756,0.23785311,-0.035656147,0.028312081,-0.27775532,-0.1402698,0.11067711,0.07685045,0.20093097,-0.021953437,0.21554488,0.022413813,-0.0789498,-0.25861377,0.16254829,-0.080394775,-0.06912574,-0.024025291,0.15221143
0.017155059,0.24728101,0.09622862,-0.20764934,-0.2238685,0.2133889,0.21690215,-0.08449259,0.20700814,0.25217658,0.018657997,-0.23600192,0.08383816,0.10208753,-0.12684475,0.12817162,0.11730718,-0.0037591574,-0.12702312,0.14571567,0.2025315,0.04332741,0.26739973,0.046472978,-0.08030335,0.14995587,-0.1675003,0.061076757,-0.13134085,-0.14271191,-0.006976717,-0.021492405,0.017007627,0.17287537,0.06835082,0.13542508,0.037064515,-0.07921858,0.050079904,-0.04720742,-0.1232004,-0.08385062,-0.07849342,0.033039544,-0.18924773,0.1816305,0.23814268,-0.15251873,-0.12941845,-0.0679942,0.16230942,-0.040842835,-0.15010913,-0.063909166,0.099108614,-0.0540284,-0.07069878,0.2089512,0.1209254,-0.14107537,-0.25439057,0.03183189,-0.051139165,-0.053563666,-0.11261352,-0.14662634,0.19906776,0.17434034,-0.1770502,-0.106480174,-0.025121555,0.025839705,0.13650507,-0.03850662,-0.017789565,-0.057233743,-0.0517811,-0.26146933,-0.1469426,-0.14829911,-0.16394992,0.12634076,-0.004251252,-0.17137083,0.13274595,0.13185237,0.02543962,0.0019904024,-0.15213937,0.034102317,0.06572406,-0.06626846,0.117089175,-0.1846097,-0.15074614,-0.010830831,0.03417323,0.2516882,0.03058474,-0.016203597
-0.058740426,0.096904136,0.063241705,-0.036683563,0.1953479,0.035272565,-0.03878985,-0.03284203,0.10316686,-0.0503215,-0.28085333,-0.12675978,-0.19510542,-0.06864392,-0.19354971,-0.08402694,-0.08060726,-0.06303766,0.0052331015,-0.16573884,0.14860617,-0.15174265,-0.28057948,-0.03161655,-0.30647504,0.19713634,0.07977196,0.021824472,0.0434642,0.0042861197,-0.24526711,0.041791055,-0.09195947,-0.21540265,0.0127444565,0.14820264,0.008735383,-0.014380197,-0.26716033,0.2916774,0.070470124,-0.029313214,-0.17167242,-0.00043223694,-0.08322895,0.08575828,-0.075827815,0.12248314,-0.058662586,-0.014630081,-0.13863139,0.057983555,-0.22801347,0.058878597,-0.031040791,0.16194591,-0.006056982,0.09496555,-0.013037402,-0.106443584,-0.025845742,0.23012035,0.050871886,-0.01328349,0.16051854,0.16388345,-0.003417491,-0.22670102,-0.019756755,-0.047699142,-0.056168426,0.05362814,-0.09768136,-0.30562612,-0.013377943,-0.08957072,0.090264365,-0.16395919,-0.08457377,-0.29897195,-0.20835516,-0.009149588,0.041730247,-0.1277349,-0.17592202,0.05214192,0.04148133,0.09322374,-0.23809378,-0.10425728,0.17710917,0.022164434,0.052964643,0.06940837,-0.08666068,-0.030630223,0.1727561,0.041528866,-0.08445929,-0.026138887
0.09814238,-0.26109275,0.047145214,0.03361489,0.024142899,0.13107237,0.05990937,0.19973248,-0.0432088,-0.2569857,-0.20603508,0.26868382,-0.13131677,0.19637476,-0.20462677,0.043463085,0.09619347,0.037375137,-0.2386145,-0.03396971,0.13773432,0.13638662,0.12186834,0.106524386,-0.05830872,0.056331825,-0.11754239,0.027353654,0.17916231,-0.09013297,0.14945753,-0.20139511,-0.011615792,0.116860926,-0.002693727,0.02793908,-0.065489605,-0.22696334,-0.090084486,-0.17681824,-0.015780272,0.16831318,-0.09748779,-0.12897097,-0.058570597,-0.03433684,0.14201842,0.1464855,-0.12186804,0.030818313,-0.2526909,-0.13245465,-0.103537135,-0.2534299,-0.11753718,0.1836245,0.09992468,0.12767328,-0.09741092,0.11143258,0.14227271,0.1729567,-0.16718787,0.015428176,-0.08401737,-0.08417666,-0.18023235,-0.09709934,-0.046738118,0.001457762,0.08161975,0.0018167908,-0.041463252,0.15733947,-0.0023436367,-0.096371666,0.11423941,0.2224777,0.008555869,-0.09645401,0.064548746,-0.054084778,-0.32825148,-0.22052005,0.118895665,0.020775681,-0.21503353,-0.081073366,0.07015648,0.03685909,0.00021638873,0.096197076,-0.20863572,0.09616996,-0.23632437,0.080783814,-0.10633364,-0.027838314,0.13280506,-0.20101449
-0.084961675,-0.058561187,-0.17845304,-0.2350607,0.035919912,-0.29665503,-0.060470242,0.1266523,0.12381561,-0.27503315,0.045670696,-0.103941955,0.08118249,0.03600759,-0.19331671,-0.14671202,-0.17990768,-0.056477547,0.12813374,-0.14216839,-0.22437173,0.02116725,-0.05626628,0.21537405,-0.104798175,0.017705781,0.097034246,-0.12957977,-0.08318785,0.13442002,-0.010093275,0.002314822,0.10999924,0.1972218,0.016614623,0.06383608,-0.013002069,0.095429435,0.022474851,-0.15460038,0.21703428,-0.078825034,-0.042058505,0.21509048,-0.27234608,0.08451121,0.04883057,0.10578383,0.044301577,-0.1689607,-0.12588109,-0.06782063,0.08626086,-0.060349803,0.017111415,0.07584249,0.16939695,-0.12492271,0.0439364,0.20636886,0.044999823,-0.06370222,0.12474918,-0.18673626,0.24868062,0.043361377,0.016589163,0.018083515,-0.041508675,0.15490371,0.22864644,0.29195493,-0.14139637,-0.12126227,0.15008718,-0.085255325,0.04361665,-0.14680138,-0.1675328,-0.058919773,0.080667906,-0.08631387,-0.06401247,-0.004809695,-0.025368394,-0.113429435,0.099230036,-0.09639983,0.21537384,-0.14357851,0.008641325,-0.14229006,-0.12673534,0.2046899,0.025488194,-0.043848824,-0.107366696,0.03255154,0.034533784,0.15196657
0.07949541,-0.10518325,0.055891763,0.15303443,-0.021494893,-0.056343153,0.19866484,0.03955907,0.068665355,0.07561075,0.24222758,0.26522768,-0.27895412,0.08482695,-0.06905039,-0.16873243,0.015102294,0.25507417,0.0151236225,-0.122330524,0.15577598,0.04999012,-0.09304168,0.06360453,-0.10199124,-0.10592104,0.16697706,-0.26067346,-0.08638338,0.16485327,0.06360053,0.023874093,0.1308109,-0.041159153,-0.06611884,-0.18820441,0.075664416,0.056609303,0.11064117,0.15125008,-0.026726035,0.029270023,0.19151941,0.14055157,-0.061540138,0.060069993,-0.019729756,0.117305264,-0.07948238,0.21805899,0.065938585,0.10221928,-0.10352743,0.12130753,-0.10140105,-0.053638272,-0.16309819,-0.061593898,0.12435651,0.052235413,-0.13610291,-0.10971558,-0.258506,-0.054357704,0.16312145,-0.08301132,0.05894612,-0.07394165,-0.25110713,-0.02932339,0.0056256684,0.11870849,-0.18544337,0.03008431,-0.0028655112,-0.21588589,0.11960208,0.042513736,0.12133406,0.03896125,0.14171419,0.043211896,0.18484458,-0.11488129,-0.041954484,-0.068000026,0.31157935,-0.044576496,0.051140513,0.0562557,-0.08466643,0.17153391,0.09655836,-0.08989314,-0.12953828,0.15617937,-0.20522478,-0.09313237,-0.04925414,0.0857317
0.22482772,0.107703246,0.19088174,-0.007858727,0.13193716,0.061255552,0.19555293,-0.055035245,-0.05672971,-0.13630378,0.2138876,0.14590484,-0.22333238,0.011878196,0.046954125,0.07284154,0.09710582,0.26841053,0.15175775,-0.15730298,0.21181333,-0.048918966,0.117762506,0.110352494,-0.03563436,0.17510818,0.041767538,-0.053135835,-0.1189743,0.14376386,-0.090970576,0.04982338,0.010964445,-0.04508046,-0.021042192,-0.049862463,0.057147976,-0.17626627,-0.026336612,0.015939247,-0.24868065,-0.12065841,0.04445593,0.13500445,0.25206465,-0.04572672,-0.09048466,-0.017142467,-0.095400296,-0.013632387,0.052277353,-0.1679964,0.14753038,0.035996035,-0.17597389,0.07110704,-0.27658206,-0.093785614,0.025871722,0.09352663,-0.048032958,0.13989677,0.019639734,-0.16612603,-0.053100172,-0.079079874,0.033462312,0.17591906,-0.0857849,0.059421882,0.032186255,-0.198167,0.24236833,0.06920445,-0.13606887,-0.09586103,-0.14760998,-0.024863983,-0.18257318,0.046212155,-0.24888669,0.046432417,-0.11176318,0.17727862,0.08373926,0.06341455,-0.055606343,-0.12741786,0.18192913,-0.056437,-0.10730054,-0.20694554,-0.30218855,0.075983614,-0.1626529,-0.07983601,-0.19798388,-0.23083706,0.27783504,0.017550437
