0
-0.06759636
-0.020119237
-0.082757294
-0.028429898
-0.07837206
-0.03403885
-0.028338425
-0.07731478
0.017088957
0.018911118
0.0019765582
-0.059666842
-0.07616162
-0.05221372
-0.026013019
-0.0053914753
-0.1348603
-0.032211315
-0.01834747
0.011713869
0.0074378666
-0.01429945
-0.09755228
-0.052400593
0.007794248
-0.06283019
-0.047065895
-0.0103653325
-0.06266955
-0.13073444
-0.06366627
0.03809323
-0.008671066
-0.04072435
0.025402805
-0.1260601
-0.020811262
-0.031239092
0.06953719
-0.043128066
-0.10466829
-0.061862968
-0.06374216
-0.03356078
-0.011179976
0.042573705
-0.12117807
-0.03572499
-0.020677803
-0.063376196
-0.027229952
-0.00086394197
-0.091303885
-0.037388276
-0.012236646
0.0059465584
-0.010675348
-0.09292861
-0.051239293
-0.04702251
-0.04625828
-0.10919721
-0.029061643
-0.06981251
-0.05666798
-0.09358651
0.017605996
-0.079400264
-0.052274227
0.04478345
-0.08571493
-0.008174302
-0.09413386
-0.016648507
-0.11462934
-0.11165101
0.01519169
-0.015388493
-0.038422417
-0.05013745
0.01657759
-0.04591038
0.052687835
-0.0033166036
-0.01493339
-0.01901185
-0.026411671
0.04296002
-0.042447872
0.049075283
0.012814597
0.05309975
-0.025003055
-0.016933206
-0.08600345
-0.0663147
-0.088871576
-0.018740386
-0.018476734
-0.06760441
