0
-0.06225403
-0.08615967
0.0041591367
0.047015123
-0.063622564
-0.03879087
-0.03775947
-0.02022027
-0.07004913
-0.011724319
-0.020797208
-0.095177464
-0.03313216
-0.038496874
-0.078969084
0.027467227
-0.04979178
-0.052566107
-0.016589677
-0.08486566
-0.045984097
-0.052342452
-0.025584279
-0.027415626
-0.024202455
0.032677107
-0.043370735
-0.04270863
0.006000314
-0.08558175
-0.04223659
-0.07376133
-0.07035096
-0.045017883
-0.12150941
-0.008269532
-0.012680198
-0.06898204
0.028907066
-0.049089152
-0.024996817
-0.08742419
-0.056593664
0.006875088
-0.0215224
-0.055917848
-0.0009033235
-0.07537498
-0.107843824
-0.046862204
-0.051667757
-0.01868027
0.040175848
-0.03571725
-0.09210636
-0.065656275
-0.1261358
0.032905873
-0.0047136727
0.0050679236
-0.032572385
-0.0071793725
-0.038606193
0.0119463205
-0.09616766
-0.007162
0.004965515
0.013267172
-0.05889879
-0.05838939
-0.06327176
0.028647661
-0.032405533
0.010625417
-0.08572928
-0.00077075866
-0.004496237
-0.048050925
-0.03855062
0.0027153243
-0.0011014587
-0.02290117
-0.0230993
-0.044562675
3.5689613e-05
-0.034903295
-0.026180053
0.013879967
-0.07113317
0.014229969
-0.03261087
0.006472796
-0.050452225
-0.034051426
-0.058767017
-0.054306727
-0.08033412
0.012265789
-0.023893723
-0.020242026
