0
0.00681884
0.051110275
0.011907987
-0.036588192
-0.048343
-0.11436026
-0.026570927
-0.0068341102
-0.006264906
-0.042182777
0.018920153
-0.062217433
-0.113022014
-0.02712734
0.0010659464
-0.073367104
-0.042049512
-0.053252704
-0.045902885
-0.013824151
-0.032563023
-0.077243045
-0.04128427
-0.05649385
-0.042534783
0.02351449
0.009073885
0.016504843
0.004251723
0.050772738
0.006284801
-0.020429572
-0.10891623
-0.050870836
-0.07359926
-0.024511857
-0.018496715
4.1229334e-05
-0.021995852
-0.020629074
-0.033751186
-0.05075386
-0.11313023
0.012670314
0.033627048
0.00604592
-0.072880544
-0.056238938
0.01897293
-0.011085703
-0.122103
-0.037899945
-0.11711795
-0.04361542
0.05207157
-0.0034417824
-0.045015395
-0.069930635
-0.04248433
-0.089044444
-0.035606205
-0.08169322
-0.08722475
-0.02360278
-0.10669886
-0.07186427
-0.057877325
-0.043195147
-0.0662645
-0.056366835
-0.030319441
-0.021206874
-0.046243653
-0.07546743
0.028438205
-0.0012021918
-0.019277986
-0.07077837
-0.022737894
-0.038814466
-0.06156623
-0.04228415
-0.017612115
0.039478056
-0.11582866
0.08240849
-0.08457769
-0.054917507
0.00036481456
0.014619235
-0.015143802
-0.061070025
-0.09275875
-0.12525235
-0.06447316
-0.026929814
-0.01938558
-0.0013695545
0.003388995
-0.066477336
