0
-0.1555801
0.015257086
-0.05695858
-0.0048398217
0.005575137
-0.059780788
-0.054438353
-0.019649984
-0.012948229
-0.06419965
-0.03591789
0.008069006
-0.014197542
-0.039839394
-0.02644672
0.045941137
-0.058254413
-0.091469094
-0.025256725
0.025528857
0.027306866
0.0037124984
0.016666025
-0.0215742
0.02897715
-0.007769523
-0.04490519
-0.091704205
-0.117257155
-0.06230863
-0.0016838749
0.027683156
-0.054946013
0.007352455
-0.06136745
-0.03525153
-0.09673592
-0.006028451
-0.050388757
-0.019090917
0.023358872
-0.06907507
-0.067519784
-0.041370828
-0.0758924
-0.1378817
-0.03133103
-0.04928414
-0.053038586
0.008884587
0.009419625
-0.041185778
0.012589547
-0.024237737
0.013802352
-0.045314755
-0.07149158
-0.016276728
0.025801228
-0.015375276
-0.047431696
-0.057931732
-0.031028504
-0.07199661
-0.042765103
-0.020071184
-0.008323147
-0.105220445
-0.099912904
0.06084769
-0.10143071
-0.09922534
-0.069875106
-0.0773414
-0.064190246
-0.024564167
-0.007925334
-0.0935561
-0.06358024
-0.044497885
-0.10356934
-0.022488208
-0.031146267
-0.089791976
0.05087147
-0.037936345
-0.03748223
-0.059104882
0.0046080914
0.019373579
-0.114892356
-0.0008758142
-0.057100493
-0.063254975
0.014290432
-0.09676611
0.0299359
-0.038305923
-0.02155983
-0.015601677
