0,1,2,3,4,5,6,7,8,9,10,11,12,13,14,15,16,17,18,19,20,21,22,23,24,25,26,27,28,29,30,31,32,33,34,35,36,37,38,39,40,41,42,43,44,45,46,47,48,49,50,51,52,53,54,55,56,57,58,59,60,61,62,63,64,65,66,67,68,69,70,71,72,73,74,75,76,77,78,79,80,81,82,83,84,85,86,87,88,89,90,91,92,93,94,95,96,97,98,99
0.17145644,-0.11760032,0.24156332,-0.16176379,-0.19111326,0.10764103,-0.09451105,0.011052335,-0.053233873,0.04479804,-0.2866066,-0.11287124,-0.21536267,0.13749193,-0.03793584,0.17977418,0.114072904,0.22201875,0.0299827,0.17457375,-0.14406368,-0.2321899,-0.11281339,0.048008386,0.31121454,-0.071045876,-0.19190079,-0.07511209,0.072977215,0.2290495,-0.011157726,0.13614252,-0.057589423,-0.021632152,-0.18409175,0.19504103,-0.0065413164,0.3185921,0.09283295,-0.04661586,0.27987856,0.19554341,0.05535858,0.09426753,0.084021054,0.0037800097,0.23204833,0.18328606,0.08913159,-0.061315775,-0.032334372,-0.021718996,0.07653049,-0.138874,-0.04755769,0.09238488,0.23019621,-0.021529894,-0.15193896,-0.115667135,0.038948808,-0.00032495792,0.20794119,0.04529161,0.112315476,0.066918895,0.008589541,0.0446003,-0.02782485,-0.019842342,0.16947451,0.04491574,0.00095089764,0.092657015,0.10272701,-0.049525574,0.03627009,0.0644758,0.06521296,0.10683023,-0.15294093,0.0152844265,0.038668185,0.20798579,0.12096668,-0.12929617,0.050401412,-0.123901844,-0.19960615,-0.04754197,0.005917448,0.27637318,0.1716235,-0.13195719,-0.22542216,0.21520318,-0.094580434,-0.17552024,-0.26849684,-0.050782837
-0.19671683,-0.013377722,-0.010990674,0.13170695,-0.03244568,-0.009749992,-0.05167209,-0.21241777,-0.10082697,-0.018890454,0.049156368,-0.06923501,0.026334919,-0.07968322,-0.21669911,-0.27864382,0.28619385,0.027699662,-0.07119104,0.1263793,-0.20866768,-0.25784418,0.13181055,-0.02994394,-0.12497531,-0.098259956,-0.025826827,0.18377247,0.012230422,-0.16686508,0.03335431,-0.12752329,0.100828685,-0.05005667,-0.10889957,0.060079962,-0.09016236,0.15004694,-0.08132367,0.06883413,-0.08903291,0.108214796,0.07250892,0.024760233,-0.10293914,0.22116481,0.07835402,0.2656166,-0.1410416,-0.1460006,-0.1626124,-0.120275885,-0.04594272,-0.21841206,0.09285655,0.20259859,-0.045703933,-0.12588632,-0.11388723,-0.15585405,-0.21163307,-0.06739669,-0.10473294,-0.11750272,-0.18197376,-0.09043818,0.18715881,0.05735049,0.16643864,-0.006061695,-0.041085433,-0.02819785,-0.04598531,0.16035584,0.065941654,0.0149951335,0.2702749,0.15280327,0.10647956,0.13762107,-0.060390107,0.23363547,-0.22902273,-0.1185537,-0.2457373,-0.023390356,-0.31708306,-0.08587769,0.10512357,-0.16698068,0.1516489,-0.027644407,-0.086675465,-0.113690935,0.025368443,0.22415543,0.0793001,-0.2187281,0.1656701,-0.08097264
-0.028237568,0.041427303,-0.11624411,-0.104352914,0.098628275,-0.009282781,-0.103006735,-0.06966263,0.03088672,0.08152123,-0.19007511,-0.008399233,-0.19271179,0.022838885,-0.16379094,0.06764073,0.028375259,0.094802104,-0.013377729,0.074480966,-0.15595096,-0.008143631,0.0592666,-0.24912766,0.029750254,-0.07218971,0.11131679,0.000308382,-0.26559433,0.15762098,0.065600455,0.009780906,0.09746406,0.102506444,-0.14011925,-0.1193001,-0.087811634,0.09036178,0.0065239924,-0.0022563706,0.0109111415,-0.06377477,-0.30128017,0.23954684,0.040718835,-0.07430909,-0.011366554,-0.01756329,-0.03346611,-0.23128659,-0.19466414,0.024501467,-0.15592709,0.071875066,-0.13472892,0.18931149,0.06377795,0.013662897,-0.10830865,-0.114737205,-0.094095126,0.11325431,-0.05434436,-0.09289305,-0.19365962,0.04430183,-0.16064104,-0.06024116,0.083878025,0.028616536,-0.0849892,0.0003494442,-0.09648494,0.0038217553,0.1058157,0.18892185,0.033027507,0.19868194,-0.24403194,-0.0034316243,-0.0050203204,0.16152672,0.15604623,-0.00445168,0.09232548,-0.09775284,-0.0367853,0.057751555,0.046688717,-0.12488152,0.068489425,-0.07437874,0.02609978,-0.1425483,-0.11449526,0.020765116,0.3219213,0.09948886,0.2781869,0.04621628
0.031998266,-0.06956877,0.18427195,0.06910056,0.03154072,-0.056462992,0.012146348,-0.05906181,0.08655972,0.1772098,0.0030324662,0.016472187,0.09437707,0.10688522,-0.07973672,0.11722575,0.046156958,0.038148277,-0.17199771,0.30511367,-0.13168274,-0.06709716,0.04017903,0.15195562,-0.16050766,0.19803151,0.025568336,-0.009006971,0.0008595259,0.075341426,-0.27586073,0.2629768,-0.12171101,-0.33069476,0.09555227,0.05331539,0.028188158,-0.25238666,-0.011788875,-0.08872727,-0.15557274,-0.1957188,0.21667756,0.23812494,0.05956594,0.19280072,-0.01954151,0.041734137,-0.005133423,-0.0745402,-0.012370076,0.032133117,-0.2114127,0.1075363,0.021674667,-0.11330738,-0.09979158,-0.12201688,-0.12711485,-0.06480402,0.23164982,0.012832591,0.12759858,-0.047984883,-0.0551753,0.07373144,-0.020184333,0.004742053,-0.23885944,0.0005598459,0.05586339,-0.12129224,-0.25518978,0.0036338617,0.08664176,0.28356248,0.017657539,-0.012610156,-0.1803317,-0.12829591,0.23084922,0.19278292,0.1791446,-0.32237443,-0.094027154,0.101639345,0.20379932,-0.042502712,-0.18032932,-0.08876346,-0.029736962,-0.08793701,0.090145506,0.10007184,-0.0014324974,0.22177097,-0.15786356,-0.27444142,0.09068169,0.066245735
-0.07852324,0.27581024,0.2306856,-0.18098025,-0.216328,0.050884705,0.08706903,-0.016150413,-0.17456833,-0.00623204,-0.124313585,0.079750024,0.061027978,0.10472738,-0.057814833,0.08854998,0.11464949,-0.1604737,-0.18010074,0.194169,0.06859729,-0.021578422,0.23369291,-0.03750742,-0.24216741,0.31454366,-0.15420061,-0.11631061,0.29044688,-0.110357605,-0.18087657,0.09446237,0.07388345,-0.026218167,0.15691416,-0.037820045,-0.14075069,0.14747787,0.09540211,0.09538889,-0.15477055,0.13060643,-0.022001084,0.14912389,0.13918789,-0.04426319,-0.16757089,-0.064970054,-0.2668873,0.08830892,-0.29399863,-0.11016504,0.13907786,-0.14060399,-0.056496847,-0.032010727,-0.08048118,0.23149067,-0.08133405,-0.004193868,-0.0673915,-0.12325147,0.08031703,-0.10272619,0.013958462,0.047493562,0.0075434456,0.02847708,0.1027705,-0.32831186,-0.049332395,0.12287284,0.122005835,0.059288293,-0.105555944,0.21132995,-0.21615057,-0.110257186,0.01774478,0.31229877,0.2154392,0.1470717,-0.013226026,-0.025547624,0.033231154,0.09373489,0.1882489,-0.05093366,-0.10123356,-0.008568575,0.0079025645,0.025883207,0.12194367,-0.057717543,-0.1644868,0.19671915,-0.030464595,0.047673754,0.11173171,0.0989581
0.04286132,0.15881218,-0.026323512,0.08004611,0.06878386,0.25620538,-0.087295525,-0.054385856,-0.025275055,-0.18057753,-0.018189324,-0.044132106,-0.24782626,0.009541602,-0.13526729,-0.12243938,0.098044835,0.14486492,-0.10956892,-0.3105193,0.044637933,-0.16261561,-0.0480498,0.09079229,0.19491357,0.1353737,0.019517438,-0.06263724,0.2399727,0.15444872,0.08698094,0.13555858,-0.1460658,0.09784419,-0.23631449,0.09517532,-0.107558995,0.117070295,-0.30604127,0.0136225615,0.17495145,-0.07564937,0.0083129825,0.033354484,0.12103877,0.11295493,0.098768294,0.19698966,-0.050332326,0.12017336,0.09942982,0.12713438,0.20156936,0.07127411,-0.004293962,-0.012363307,-0.07153063,-0.002078777,-0.12726367,-0.23386225,-0.08078773,0.011063445,-0.07884052,-0.2147546,0.17746596,0.03607401,0.018939018,0.010029089,0.004496179,0.052972615,-0.13755658,-0.09868805,0.06036535,-0.045978907,0.14369246,0.041768614,0.010971766,-0.052721657,0.1674017,-0.024008038,-0.048183594,0.11916846,-0.16881439,-0.072152086,0.010273568,0.058625896,-0.12144259,-0.19117297,0.003702822,-0.28320348,-0.07166428,0.14338017,0.05869572,-0.05275967,0.028389007,-0.030366795,-0.15643668,0.057655886,0.14492483,0.033855166
-0.02258323,-0.09666321,-0.16530189,-0.059521895,0.030703293,0.20984256,-0.13420056,0.13372968,-0.13033795,0.16682139,-0.011837423,0.18135522,0.31569132,-0.12693337,0.08479541,0.009059028,0.082486995,0.107260846,-0.03810301,-0.06556919,-0.083064206,-0.08081285,-0.14648528,-0.073789254,-0.011122007,-0.009301276,-0.10424976,0.01750868,-0.14340362,-0.06833453,0.17415904,0.26258552,-0.08050266,-0.023900144,0.10457142,0.23682475,0.0025789451,-0.076426454,0.001129482,-0.07888755,-0.14647561,-0.063335866,-0.031128772,0.09895368,0.29257202,0.051897075,-0.0026293837,-0.0551924,0.022031004,-0.03926244,-0.13535666,-0.26380447,-0.17282514,0.011450007,0.09522804,0.025527215,0.008282057,0.08726011,0.21160866,-0.22048938,0.19793259,-0.20907573,-0.06526382,0.07743379,0.27818993,0.16255033,-0.019876556,-0.0048715067,-0.08270836,-0.0033462287,-0.05006127,0.025873888,-0.030825404,0.061211504,-0.12635721,0.1510273,-0.25566575,0.14220062,-0.21483143,-0.05343479,-0.18947017,-0.19337413,0.20729868,0.124098584,-0.28702807,-0.111015506,0.18683505,-0.032077298,0.18399473,-0.12185192,-0.33971947,-0.09172082,0.02795202,0.0959018,0.10128146,0.0029943031,0.2642727,-0.07627161,-0.1092623,0.2026622
0.12638922,0.0859476,-0.03705685,0.14869095,-0.2598077,0.16142061,-0.13325292,-0.088977665,0.14409412,0.19634943,-0.11444137,0.13172556,0.10461502,0.019692013,0.06529733,-0.04564909,0.041144382,-0.05276944,-0.14553873,-0.1006607,-0.02830668,0.21926644,-0.031276915,-0.16234645,-0.16888458,-0.23037969,-0.15143906,0.023902591,-0.08219747,0.15661111,0.07515672,-0.19295707,-0.05825274,0.20964822,0.27287546,-0.0050847474,-0.041104905,-0.09041986,0.01353449,0.006084353,0.103752054,0.08608281,-0.19132046,0.163743,-0.0067592193,-0.31267697,-0.083557166,-0.06018611,0.065477416,0.19436425,0.12381478,-0.061806027,0.25687912,-0.16924328,-0.057380997,0.11842139,0.085535586,-0.09020228,0.12394547,0.24738969,-0.13240443,-0.24805309,0.21393618,-0.2155004,-0.28000167,0.2964842,0.22636887,-0.061039206,0.2504388,-0.23487945,-0.002237281,0.0384447,0.11818234,-0.15756686,-0.013475665,-0.13493873,-0.119373836,-0.1088106,0.03236639,-0.19193678,-0.11868525,0.087933086,0.09193248,-0.25092077,-0.1542525,-0.07076377,0.27617526,0.22240335,0.02753876,0.06337325,-0.099689245,0.0110041825,-0.20449646,-0.12327373,0.11926961,0.20167297,0.14347516,0.042538468,-0.03782894,-0.23365079
0.23915711,-0.23784797,0.011111738,-0.19590272,0.03026025,0.059716735,0.20155172,0.17391855,-0.13917035,-0.010237497,-0.06394437,0.08873631,-0.19248836,0.15169115,-0.14509778,0.027832555,0.20000093,-0.01281995,-0.02912777,-0.16977865,0.05792313,-0.15528661,0.17097643,-0.029767219,0.16673483,0.25491303,0.0708963,-0.3007262,0.14684702,-0.0235643,-0.03179647,0.05714692,-0.10829021,-0.15099713,-0.09746606,-0.19964041,-0.22889993,0.055657875,0.00661197,-0.14381908,0.11658537,-0.052684035,0.1088624,-0.03250375,-0.02711155,-0.029501129,-0.10294033,-0.25799224,0.18245462,0.0017444144,0.015400067,-0.22296692,-0.12684566,-0.1616055,-0.02949264,-9.014814e-05,-0.062059443,-0.23834364,-0.040171064,0.01712765,-0.13552703,0.0899839,0.09801227,0.08209645,0.14076361,0.19330855,0.025298776,-0.15988272,-0.121287346,-0.21157421,-0.088270195,-0.26649463,0.14016241,0.04077269,0.019477267,0.07139451,-0.0969739,0.06516516,-0.24901608,-0.08575433,0.09885892,0.011019643,-0.09184425,0.01684129,0.06273141,-0.06510941,-0.1988042,0.08117679,0.2332987,-0.034983538,0.084186934,-0.08763106,-0.17325272,-0.18546413,0.11899581,-0.20622103,-0.17137043,-0.18531519,0.31266028,0.07003207
-0.056159385,0.046309,-0.035294563,0.044006944,0.27999255,-0.04417524,-0.25233722,-0.10710199,0.2984157,0.24577987,0.015566424,0.21960576,-0.28265214,-0.020021453,0.09207287,-0.03383087,-0.21720049,-0.0021097844,0.05193354,-0.054981768,-0.008821751,-0.11206259,0.028831802,0.20315331,-0.36265734,-0.2907057,0.053061873,0.014838349,0.19807579,0.1190446,0.1197245,0.016442776,-0.057137687,-0.029082382,-0.09942809,-0.23343615,-0.08538216,-0.036804892,-0.061239813,-0.015827673,0.17477454,-0.0077693667,0.054300465,-0.15925094,0.01676156,-0.02715871,-0.083959155,-0.17640714,0.26091594,-0.010010379,0.17338513,0.095828325,-0.014295201,-0.14750797,0.13621809,0.020677116,0.17747423,-0.06750807,0.088841036,-0.27294523,0.12454521,-0.26848593,-0.05234932,0.2909194,0.28886506,-0.0061619226,0.01778526,-0.2152916,0.04087568,-0.068634875,-0.09606588,-0.018326802,0.16203628,-0.19231354,-0.016539654,-0.058849916,0.039526008,-0.113601826,0.20302165,0.09205505,0.0031506608,0.005089641,0.025902838,0.1450953,-0.080089286,-0.116555534,0.22063579,0.07407928,-0.04536,0.017522275,-0.2558587,-0.14245707,-0.06711791,0.16621865,0.05267454,-0.11518564,-0.040798455,0.12581863,0.11431265,0.099864334
0.15422136,-0.17694673,-0.05302938,-0.044652957,0.02392675,-0.23761338,0.042446706,-0.045575947,-0.18431814,-0.041233342,-0.023047596,0.016951809,0.20088823,-0.26608112,-0.05658906,-0.050414134,-0.0411574,-0.06978027,-0.15199155,0.13170955,0.09663518,-0.041122068,0.07831897,-0.041603386,-0.021057723,0.117264144,-0.030167744,0.2342643,-0.06103606,-0.06173692,-0.034660496,-0.11798108,-0.11997642,-0.1599555,-0.06926795,-0.10563087,-0.07018751,0.038317636,-0.23721631,-0.2157785,0.033715095,0.005365607,-0.24054469,0.041316297,-0.18744911,0.09755973,-0.06957512,-0.22732034,0.07768503,-0.030991593,-0.12819219,0.2210123,0.08272833,0.1371078,-0.009409071,0.06846034,0.024573231,-0.14832483,-0.082434,0.04957475,0.03158325,-0.13400526,0.023740951,-0.31049883,0.113779224,0.060028434,-0.027416743,0.20591736,-0.116139874,-0.051984996,-0.09971355,-0.0172433,0.14037946,-0.030878887,-0.17409535,-0.12771249,0.120257564,-0.3301026,-0.008890486,-0.17365703,-0.033812013,-0.014860449,-0.13462226,0.14290841,0.06600001,0.16993082,0.1715878,-0.22900182,-0.05436629,-0.00346043,0.006865468,0.12644951,-0.038422298,0.09715869,-0.29840696,0.24207954,0.08471256,-0.03905516,-0.1826887,0.10395899
0.17120169,0.160711,-0.02347829,-0.04369564,0.066997774,0.040826134,0.21958217,-0.1751964,-0.042559188,0.27152288,0.0968865,-0.008529394,0.32471967,0.047229607,0.17712998,-0.21578981,0.04903162,-0.038888898,-0.039957512,-0.11790017,-0.11694122,0.22298214,0.024205618,-0.026259623,-0.08871036,-0.06030748,-0.071252786,-0.19507039,-0.14847341,-0.10154372,-0.09170582,0.1620946,-0.078395,-0.026326949,0.3209738,0.025575044,-0.22904436,-0.19371478,-0.066413105,-0.01832604,0.16923818,-0.06932795,-0.055320486,0.33173528,-0.15646285,-0.1654208,0.20899187,0.22486396,-0.012518887,-0.15544939,0.11173125,-0.09769205,-0.13402994,0.07962131,0.013165832,-0.17557015,0.21118394,0.031296365,0.16717388,-0.09128359,-0.25937742,0.1348076,0.012678529,-0.01896588,-0.062690414,0.31958568,0.19189547,-0.018967286,0.2545078,-0.09675187,0.19360241,0.009593859,-0.21169554,-0.014848727,0.05619323,-0.070889995,0.053071707,0.31838062,0.16201453,-0.14344868,-0.19280219,0.17357278,0.19293875,0.13986856,0.24316326,0.015531133,0.05390723,0.039935324,-0.30381328,0.096569896,0.03222602,0.10103103,-0.06669652,-0.16673197,-0.06448813,0.05841902,0.05766905,0.15287413,-0.15142643,0.06406492
0.093472265,-0.13945803,0.010133612,0.14468502,-0.054386113,0.09387337,0.17368001,-0.046548884,0.2606188,-0.2301286,0.045850996,0.107117444,0.16164288,0.14820544,-0.0029098415,0.11288216,0.32489476,-0.31169903,0.07631385,0.033891942,-0.2439299,0.12502067,-0.10937151,-0.06109911,0.027973134,0.1960324,0.09664701,-0.2128323,-0.16395682,-0.0023759243,-0.21428865,0.022171006,0.006171097,-0.078134105,0.025005631,0.008032086,-0.22233087,-0.02196912,-0.010824728,-0.20457138,0.11168298,-0.014331354,-0.0780144,0.060653154,0.1784551,-0.047146305,-0.12113613,0.15814748,-0.05648796,-0.0329952,0.14273438,0.039945785,0.25315884,0.101582386,-0.1540125,0.06125855,-0.15854494,-0.19235766,0.054744165,0.08575552,0.11770971,0.040140722,0.08319799,-0.18110111,-0.1267652,0.09043836,0.19304225,-0.17047906,0.1337313,0.28960294,-0.18611783,0.027294103,0.026197353,-0.028397778,0.05587828,-0.21497644,-0.22526705,-0.017862007,0.062403735,0.09710283,0.0042070886,0.10578226,0.04593726,-0.21209596,-0.013098118,0.19048963,0.18810052,-0.22113894,-0.04494788,-0.10859842,-0.04780817,0.09846149,-0.116967835,-0.052704446,-0.038522515,-0.013649211,0.2067913,-0.042510323,-0.0406239,0.045957744
-0.2617039,0.04503321,-0.2582262,-0.047097918,0.12615012,0.16051435,-0.09077663,-0.22924727,0.042840555,-0.31014788,0.13045761,0.053654645,-0.08225656,0.13707998,0.1771208,0.084289216,0.10541528,-0.07360322,-0.12392804,-0.15505522,0.050948467,-0.10874215,0.12023429,0.009885589,0.11200753,-0.026404371,-0.09558553,-0.30551153,0.0999291,-0.20346498,0.13745241,0.0101863975,-0.05966339,-0.15083382,0.07068302,-0.07243834,-0.018925676,-0.24604869,0.3005861,0.12180239,0.11405253,-0.205369,0.117773436,0.04965073,0.11413979,0.14444804,-0.17591408,0.06286335,0.21523167,-0.063840725,0.080476075,0.27026096,0.1454432,0.0068424493,-0.04229048,0.14533131,0.04227892,0.03559236,-0.15168223,0.06632306,-0.070685424,0.058934353,-0.027050959,0.063428015,0.017337978,0.03509046,0.28454882,-0.019654442,-0.024181712,0.0709666,0.02479891,-0.1329913,-0.28980672,0.10813115,-0.1811529,0.029181503,-0.02521873,0.0686355,0.032483775,-0.10053916,-0.059520785,-0.06463467,-0.078109525,-0.022351336,0.019087352,0.026725871,-0.16185743,-0.07514133,0.06279735,0.10231077,0.11620761,-0.2223869,0.12283716,-0.22006223,-0.12385938,-0.16844733,0.084419765,0.08111191,-0.29644153,-0.16494706
-0.28803387,0.02711382,0.14085135,-0.008556318,0.1049795,-0.030447962,-0.0065036146,0.21892905,-0.027382765,0.12307969,0.14861125,0.08510233,-0.18194672,0.095137164,-0.22662435,0.017901422,-0.17734441,0.16330253,0.16777284,0.090001635,-0.16028546,-0.076950386,0.22946651,0.058360618,-0.224037,-0.00082299084,-0.036324423,0.2397955,0.046049595,-0.048055157,-0.2690072,0.22624895,0.25185183,-0.18332796,0.10392171,0.008403883,0.24429262,-0.046089318,-0.052931078,-0.062114414,0.0674165,-0.08963315,-0.28745645,0.110754475,0.2394763,0.13149682,-0.0638077,0.04644294,-0.05238577,-0.12146842,0.2807276,-0.06797724,-0.024722472,0.0073353653,-0.023032043,0.004367841,0.21152867,0.21354096,0.00037310628,-0.021152057,-0.008317732,-0.28780305,0.13323924,0.048404377,-0.017104186,0.20816666,-0.042451147,-0.07376422,0.29806784,-0.11211264,-0.13271853,0.121116705,0.05311999,0.052441955,-0.055288706,-0.06575044,0.20860086,-0.24306439,-0.076302245,0.027966112,-0.086108714,-0.18961194,0.057247438,-0.11905456,-0.25581184,0.00079644145,-0.085387796,-0.049955104,0.007019035,0.029617535,-0.055897236,-0.07795594,-0.28404793,0.11358221,0.056055937,0.22367664,0.09346732,-0.16045755,0.18785112,0.23284023
0.16612309,-0.18929726,-0.29639176,0.10345752,0.28149733,-0.15307216,-0.16887839,0.14378978,0.2377576,-0.09823238,-0.063825205,0.01699635,-0.062480103,0.12156168,0.07888968,-0.08161531,0.16425072,-0.22821689,0.17114918,-0.24219339,-0.012626608,-0.014384642,0.016236857,0.035564747,0.08328888,-0.00014453285,0.098529406,0.2414914,-0.023554092,-0.08279157,0.053993866,-0.07636289,-0.0020879223,-0.24871194,0.030471768,-0.16206779,-0.10578375,0.17520767,0.27927956,0.0667495,-0.22136134,0.0335698,0.088083036,0.08289005,0.0837819,0.26240656,-0.20076023,0.15318382,-0.1197879,-0.05589392,-0.07263815,0.1884619,0.08068061,-0.083081074,0.2233186,0.035122298,-0.13303648,-0.19975275,-0.14687404,0.103229225,0.117891006,-0.06438303,0.019355282,0.2680457,0.09153391,-0.04135487,0.010872058,-0.13887355,-0.29930726,-0.256139,0.13975526,-0.05481673,0.060609587,0.05542236,0.18399468,0.1087157,0.15854834,0.13325748,-0.36114642,0.15205441,0.03751015,0.102164075,-0.16048461,-0.2037076,0.06294763,0.14822757,0.025159212,0.07046379,0.046225723,0.09244061,0.20878339,0.052935872,0.07458384,-0.115584925,0.009462864,-0.05240454,-0.1564683,0.27800378,0.06067277,-0.1156453
0.012179517,0.11339671,0.06423568,-0.12001003,0.19528152,-0.25288773,0.053986933,0.08998943,0.087756924,-0.10063908,-0.07587846,-0.10801502,0.03282895,-0.15064412,0.22189118,0.08262235,0.26311544,0.24550094,-0.20839661,-0.10599003,-0.2578986,0.0034982,-0.025423067,0.04306328,-0.1389515,-0.15943533,0.0617498,0.15070733,0.112680405,-0.13139595,0.15374304,0.12423066,0.071587145,0.15138279,-0.13020667,-0.04779197,-0.18465146,-0.11811055,-0.05284463,0.0518199,-0.013021867,-0.21705702,0.123410314,-0.23916417,0.07000382,-0.116368555,0.16124253,0.07055779,0.15570019,-0.19699582,-0.09103835,-0.07978819,0.25617367,-0.024090845,-0.118322164,0.21691617,-0.07554851,0.06994061,-0.057706386,0.002053431,0.13888423,0.10902833,-0.0026981817,0.027268793,-0.12932333,0.20174906,-0.12712145,-0.043081626,0.161532,-0.09465929,0.18224975,0.21557522,-0.01694479,0.02900463,-0.10918609,-0.0072822925,0.0658861,-0.021202521,-0.039295956,-0.05965087,0.0864787,-0.24541213,-0.0066123973,-0.014681914,-0.17120749,-0.00546703,-0.050600182,-0.13187654,0.08541033,0.0824742,-0.17112043,0.0818721,0.23971412,-0.236908,-0.09314322,-0.08962094,-0.02404864,-0.007620012,0.048209075,0.02111162
0.035139963,-0.34019968,-0.091273166,-0.084213436,0.04694754,0.20673826,-0.20705825,0.14372388,-0.060566057,-0.11739749,0.042014066,-0.1988317,-0.14266579,-0.23422696,-0.07522761,-0.090263054,-0.07262061,0.092771485,0.12671717,0.29597026,-0.25466758,0.12286965,0.14499882,0.09789429,0.033263013,-0.03202901,-0.00086508825,-0.04396537,0.19365886,-0.030545296,-0.08128375,-0.09946878,-0.041618407,-0.09991213,0.1325134,-0.055721916,-0.23325849,-0.14527316,0.10373344,0.061499797,0.12480618,-0.049033165,-0.20771898,0.025276223,-0.16498947,0.0025642146,0.024613898,-0.024149515,-0.21854219,-0.17061523,0.06234183,-0.13438053,0.049587615,0.038676452,0.24240728,-0.08066974,0.1202026,-0.011994889,-0.02460979,0.09220412,-0.056432996,0.12036698,0.0072097983,0.28672642,-0.12550345,-0.14340957,-0.17798355,0.22926465,-0.049851466,0.033655595,-0.064540155,-0.11110306,-0.071998544,-0.17246842,0.23735285,-0.008646399,-0.044557724,0.040336654,0.12751685,-0.11559969,-0.026918571,0.015337019,-0.056580406,0.19353361,-0.30526128,-0.12327158,-0.011776881,0.084848806,-0.010946451,-0.081141226,0.13563445,-0.022463104,-0.16865037,0.18906565,0.27379104,0.11192609,0.1582002,-0.13094091,0.074694164,0.09339057
-0.31919906,-0.13164921,0.14457412,-0.25932363,0.17628537,-0.04879355,0.09573679,0.06264432,-0.07414112,0.05689231,-0.09862977,-0.029306775,0.08925168,0.08149838,0.2799529,0.16074944,-0.05931685,0.12027816,0.14433482,0.055315107,0.12232767,0.26754424,-0.25555632,-0.062684014,0.072111696,-0.032242596,0.01962056,-0.02484923,-0.21647687,-0.16939731,-0.17211786,-0.2442368,0.097064145,-0.029042594,0.10493846,0.006563331,0.17815924,0.13253747,0.0514666,-0.12942402,-0.04291023,0.05799787,-0.044249713,0.041876554,-0.18414272,-0.13539852,-0.16423154,-0.100000285,-0.16412017,-0.23577365,-0.009664848,0.016200319,-0.2778513,0.110076465,-0.21265405,-0.2299809,0.03273358,-0.065292515,0.024559647,-0.1307836,-0.015667086,0.13101575,0.16747381,-0.0042693014,-0.14591597,0.11557457,0.04426632,-0.016412064,-0.06717447,0.009052579,-0.03860112,0.057106595,0.06416454,-0.07997899,-0.0033403053,-0.16856265,0.08013288,0.027929762,0.18000521,-0.07638263,0.040293902,-0.12992348,-0.077008344,-0.08862691,0.12666136,0.12812643,-0.28434715,-0.08060493,-0.0357507,0.0847776,0.0190115,-0.06462572,0.16583385,-0.27592772,-0.16648664,0.025500419,-0.1473212,0.013050473,0.21498813,0.11934206
0.08898217,-0.13003002,-0.21092936,0.11657617,0.1943332,0.060104694,0.111811146,0.1509279,-0.011760545,0.00742542,0.11665766,0.19584768,-0.034632083,-0.082998514,-0.047889255,0.18657067,0.018402055,0.21359223,0.16933611,0.05664317,-0.034299545,-0.0189396,-0.057625216,-0.031303044,-0.14708644,-0.1154335,0.10846535,0.018178781,-0.3158145,0.10643174,0.09098504,0.006591844,0.010105017,-0.022820383,0.18463981,0.096445754,0.023746947,-0.020237789,0.25810462,0.06964721,0.10841002,0.059127912,0.12902343,0.07733617,0.15769064,-0.42685446,-0.05288506,-0.086095236,0.11625298,0.0019380858,0.18496443,0.0602723,0.29392692,0.02140484,0.012067495,0.06746382,-0.023316357,-0.09418211,-0.18750373,-0.060353845,-0.04249103,-0.031340096,0.041069023,-0.11634033,-0.05740901,0.21644153,-0.072484225,0.17314446,-0.14924268,-0.021351885,0.08885272,0.12740903,-0.28396225,0.040476993,0.22910008,-0.26502433,0.1004086,-0.2185713,0.01441164,-0.22332191,-0.06543867,0.14315549,0.13652648,0.07056154,-0.17763095,0.17657328,-0.16032599,0.29247078,-0.11401382,0.03560748,-0.06723716,-0.043492313,0.07661411,-0.07783022,-0.21260352,-0.059928305,0.22639193,0.10373284,0.1009173,0.08117728
0.2113129,0.15414147,-0.13418518,0.19220257,-0.12569997,-0.06533383,-0.07745715,-0.09802608,-0.18339877,0.2530071,-0.022815112,-0.09620771,-0.35339096,-0.29094535,-0.032105327,-0.01005147,-0.14707613,0.039908014,-0.22953925,-0.10035104,0.028002847,-0.049246207,-0.058308214,0.15131705,0.020095535,0.21679895,0.07041173,-0.14351462,-0.013664364,-0.09922686,0.12777577,0.014432127,0.0735459,-0.24590568,-0.21306178,0.013825866,0.26874447,-0.24214368,-0.09057217,0.16198766,0.023578255,-0.20018065,-0.1022763,0.022651983,0.101538606,-0.086683705,0.16329138,-0.24918966,0.2705548,0.27013105,-0.13281359,-0.07161923,-0.010918705,0.1421048,0.014958523,0.058319822,-0.022780834,-0.0013004395,-0.045185164,-0.08299018,-0.02352862,-0.020637188,0.27084926,-0.09810839,-0.0342072,0.107131414,0.008640599,-0.014405815,0.07281624,0.13270216,0.02467792,0.15061736,0.036381956,-0.10685709,0.21983778,0.017500162,-0.07235304,-0.17593154,0.14261067,-0.044946853,-0.023212949,-0.072580524,-0.21106862,0.011343447,-0.013382663,-0.06718456,0.062456377,-0.13242571,-0.12427834,0.03424163,-0.28969923,-0.075620465,0.033840165,-0.25148043,0.24412507,-0.088615775,-0.004995829,0.051501017,-0.1256757,0.05858626
-0.11180209,-0.09485749,0.1537909,0.07690428,-0.1250603,0.2389985,0.14081743,0.053772,-0.20539811,-0.26066068,-0.10080086,-0.14547555,0.035186183,-0.0902923,0.13256179,-0.101142995,0.059002664,-0.0062048067,0.12727562,0.039828643,0.17025737,0.15818955,-0.07755039,0.008181035,0.012825925,0.12036669,0.17690727,0.19163156,-0.0507638,-0.13397433,0.06561634,0.08064166,-0.11023839,-0.14770675,-0.042741332,0.026066769,0.009958673,-0.03539284,0.029257873,-0.22783783,-0.007042921,0.13168973,0.042710688,0.1490536,0.1532444,-0.02296917,-0.3286193,-0.0049020727,-0.03728456,-0.197695,-0.093485706,-0.013531435,0.06282254,0.12875496,-0.12626334,-0.22406399,-0.060197525,0.0058818418,0.10933292,0.08380693,-0.0052799513,0.13544995,0.12243444,-0.040114146,0.061830867,0.20077673,0.021973299,0.13608497,-0.02960249,0.19316494,0.029173657,0.092801236,-0.08928007,0.19740322,-0.22961946,-0.11389021,-0.0015710881,0.09490955,-0.15981962,-0.056371108,-0.106399216,-0.2514711,0.07203713,0.041260015,-0.06304156,-0.047573406,0.1739989,-0.24217744,0.018646631,0.020944523,0.12538956,-0.11065088,0.08689281,0.14607681,0.06567114,0.12304937,-0.24938641,-0.14823195,0.13103579,0.25460857
0.0031297673,-0.13333368,-0.15640502,-0.21197017,0.14260407,0.1497171,-0.15866302,0.07037693,-0.11247527,-0.02022628,-0.24425942,-0.12992392,0.15338297,0.15833484,-0.1194186,0.027906636,-0.110090286,0.023579301,-0.20045494,0.19421992,-0.24353163,0.0022244998,-0.32003,0.13632137,-0.05293948,0.12182985,0.117438816,0.02462073,0.13418505,-0.07284722,0.18036191,-0.008564655,0.025289673,0.14922658,0.032734282,0.052905228,0.14846028,-0.07362154,-0.14653365,0.22301544,-0.17666844,0.003286329,-0.06353879,0.051267505,0.066782065,0.00012739946,0.13770351,0.02545674,0.16931891,0.14701033,0.061031632,-0.028493809,-0.041017227,-0.21402755,-0.13287348,0.11544154,0.12580134,-0.077284865,0.21641052,0.18758865,0.05230335,-0.116849266,-0.16771677,-0.114919916,-0.14522663,-0.0039061443,0.085764244,-0.11383072,-0.13491386,-0.031778626,-0.040234327,0.012964751,0.07028869,0.07099771,-0.12780748,-0.027199475,0.22350009,-0.04734899,0.20156655,0.12690003,0.09917821,-0.058294244,-0.19234711,0.17078559,0.0059231184,0.12618089,-0.10095427,0.25373757,-0.15699509,0.13077016,0.15755773,-0.015994396,-0.13270089,-0.08577976,-0.011891727,-0.13017812,-0.04697916,-0.28071278,-0.20860747,-0.12864438
-0.031741012,-0.08191787,-0.101056784,0.13182499,0.15768656,0.025749799,0.01849815,-0.2160852,-0.13086751,0.20197804,0.27808782,-0.07716115,-2.2040882e-05,-0.12663132,0.07431501,-0.015722835,-0.06646449,0.014153945,0.052982893,0.026527848,-0.10586326,0.110689744,0.20668367,0.15759015,0.119279645,-0.22115672,-0.049366824,0.045183428,0.16209124,-0.19545506,0.09192772,-0.017610788,0.28379253,0.33105284,0.041647952,-0.10136968,-0.0033438208,0.19962706,0.089519575,-0.15452039,-0.029006595,-0.037209287,0.11504645,0.028478699,0.111216284,-0.054314855,0.25896353,-0.10800111,-0.107312,-0.027385585,0.13168445,0.15504661,0.21865264,0.050730016,0.004580216,-0.12418645,0.0041577127,-0.07466745,-0.21806635,-0.16334613,-0.06831431,0.08687129,0.13636889,-0.1628434,-0.2883922,-0.07487935,-0.071044736,0.09809004,0.008917121,0.15310441,0.02304156,0.21788462,-0.061142474,0.14519425,0.20675603,0.21782036,-0.0012929875,0.18264595,0.2270459,-0.05550941,-0.18696392,0.042451397,0.12852058,-0.17502327,0.12980261,0.17328538,0.09072243,0.05848473,0.38193527,-0.018108735,-0.05957839,-0.20829028,0.1735623,-0.12642999,0.20790564,-0.031644724,-0.15722604,-0.08335014,-0.22914624,-0.13781472
0.073008455,-0.15888427,0.06416818,0.023882076,-0.002120081,-0.088291444,-0.16500063,-0.20987499,-0.033995334,0.047249246,-0.07975034,-0.25189906,-0.030544499,-0.040982846,-0.137123,-0.026195927,-0.19092803,-0.06728792,0.021270469,0.004956117,0.21283782,0.09642764,-0.16534667,-0.05972735,-0.1435096,-0.1061083,-0.07490314,0.11426192,0.05642069,-0.2731905,-0.2529306,-0.05785542,0.011259007,0.128125,-0.08058728,-0.049432013,0.031654548,-0.0797838,-0.047677014,-0.07853291,-0.053396814,0.06781178,0.15251637,0.11500784,-0.053121917,-0.0635991,-0.0744911,-0.107484415,0.115585715,-0.027894143,-0.006800119,-0.15752843,-0.032261375,0.12033408,0.045119423,0.12299978,-0.2953635,-0.09728775,-0.17867127,-0.15007155,0.0627101,-0.13673994,0.060497515,-0.013510017,0.07699172,0.050051246,-0.030401006,-0.052299198,0.02449816,0.07346341,0.0743524,0.009443669,0.18357362,-0.12124649,0.33779997,-0.1963944,-0.20144415,0.0748015,-0.087529816,0.009033948,0.09030629,-0.22659035,-0.062255155,-0.052945185,-0.02094142,0.022238731,0.02282148,-0.050744843,0.069366045,-0.12298125,0.26106933,0.11418784,-0.25436205,-0.12491575,-0.15155356,-0.11336651,-0.10635139,-0.08190057,0.16563085,-0.13979596
0.28171352,-0.21619564,-0.37706947,-0.11543557,-0.15578584,0.016548747,0.031459454,-0.13413954,-0.34419847,0.21710008,0.15667325,-0.01822365,0.017941143,-0.14212538,-0.021404222,-0.17747849,-0.07545893,0.064034455,0.07677803,0.07581907,0.19881332,0.04819584,0.0011039444,0.03583655,-0.09000845,0.055753972,-0.043335993,-0.06856118,-0.060069937,0.02164638,-0.08176022,-0.104926564,0.27940854,-0.28808674,0.053603258,-0.058569152,-0.033744257,0.013350088,-0.040901296,0.10005797,0.15228903,-0.01295231,0.22518475,0.035245374,-0.058719784,0.054038145,0.01226229,0.020338029,-0.037274342,0.17689557,0.13432932,0.07830447,-0.09062708,-0.008162936,-0.15431808,0.0774385,-0.0131704705,0.022519136,0.17255013,-0.25754282,0.069907546,0.14937659,-0.09825669,-0.114086464,0.10361449,0.041374527,-0.20817447,0.1339217,-0.14237954,0.1796632,0.21099783,-0.060862627,-0.08883615,0.11890971,0.027159885,-0.17937344,0.19573954,0.12122119,-0.13214423,-0.08834019,-0.20358184,0.19074552,-0.13941534,0.160607,0.03547677,0.03441071,-0.10025034,0.024896504,-0.076134376,-0.15771051,0.11893782,0.042155847,-0.19849214,0.102805965,-0.04076314,0.11541195,0.0733333,-0.116566874,-0.15577213,0.06522717
-0.15248877,0.052937806,0.06434559,-0.095688865,0.2991233,-0.060335327,0.25418973,-0.18958744,-0.13592194,0.019853035,-0.028117938,0.0830327,0.09706783,0.088904805,-0.09698793,-0.09932784,-0.057360645,-0.12728836,-0.19505067,0.22045822,-0.026068263,0.20023738,0.14657897,0.08927201,0.08154057,0.09994125,-0.083627515,-0.07010043,-0.043048825,0.058876943,0.016680345,-0.12470491,-0.059088323,-0.23939726,-0.069599256,-0.0751919,0.06399129,-0.17559585,-0.076738395,0.19167997,-0.02519276,-0.012436126,0.15736113,0.04889292,-0.05164739,0.08666508,-0.08383859,-0.18594578,0.16284953,0.1808108,-0.266942,0.07984581,4.762995e-05,-0.21292727,0.06410801,-0.26322752,-0.0640676,0.19348748,-0.074846424,0.15017119,0.020396776,0.1862009,-0.3154717,-0.2340886,-0.08732784,0.1315066,-0.07674727,-0.21043667,0.10638367,-0.18227884,-0.26733524,0.06385924,0.018447965,0.045687564,-0.16341671,-0.015456609,-0.21614163,-0.20043652,-0.26538754,0.17553712,0.23385036,0.028996693,-0.08536251,0.016479127,-0.19485207,-0.03635401,0.20996024,-0.090802215,0.1834508,-0.058337577,0.08758685,0.07044543,0.019806502,0.1606033,-0.109199405,-0.21289866,-0.0015289092,0.07888708,-0.21263488,0.018817527
0.015460826,-0.2296038,-0.08318953,0.023017554,0.0247045,0.056074996,-0.21920185,-0.103231326,-0.13891535,0.15744428,0.14532165,-0.12509596,-0.06460319,0.30761498,-0.06975068,-0.12580118,-0.025939912,-0.15487815,-0.0061565,0.012889369,0.13671198,-0.2123167,-0.035205297,-0.09145049,0.04667427,0.05540196,-0.014465126,-0.33882058,-0.10400843,-0.28196472,-0.11263369,-0.090562105,-0.003395513,-0.017159423,0.034398917,0.14081484,-0.10538118,-0.122136824,-0.022263627,-0.061857987,0.03706573,0.061529882,-0.19051078,0.03817043,0.23042619,0.050287526,-0.038424663,-0.2220919,0.03914821,-0.087750785,0.2855841,0.1942851,0.037202645,-0.17967902,0.114779055,-0.27607003,0.06331705,-0.020324973,0.06041049,0.1984779,0.09119235,-0.07718286,0.062093485,-0.05678025,0.038916472,-0.16489919,-0.009271252,-0.30460387,0.23251696,-0.1902828,0.048735067,0.10360308,-0.1178177,0.074281484,0.17480247,-0.15341294,-0.055169795,-0.09214823,-0.0139995,-0.10829275,0.057873245,-0.12871157,-0.090530924,-0.2720109,0.078508094,-0.03200136,0.050244596,0.097538725,-0.13794176,0.24943799,-0.15476184,-0.13502218,0.23593274,0.19267246,-0.13018116,0.016406119,0.09719231,0.09802974,0.31919336,0.12369694
0.08850879,-0.111643605,-0.14759159,0.09201235,0.023124704,-0.25808617,0.14168248,0.3731823,-0.30925095,0.25307047,0.17243357,-0.14457726,0.015427777,-0.0062855766,0.0044179233,-0.0346292,-0.028088976,0.0462205,-0.124085836,-0.1221957,-0.07447108,0.031484462,-0.15875877,-0.13716567,0.025322052,-0.16058156,-0.30240643,0.19068953,-0.1149081,0.09677949,-0.18028559,-0.103584886,0.22877245,-0.11863289,0.093427606,-0.13795026,-0.18742399,0.08415189,0.28397864,0.0847052,-0.028209139,-0.016748026,0.060217854,0.24585636,-0.093249835,0.07328175,-0.021870945,0.04642242,0.16991985,-0.05913398,0.22015436,-0.14703377,0.0196636,-0.0914173,-0.27403754,-0.05950237,-0.022511095,-0.071663894,-0.08112985,-0.04741555,0.2822021,-0.02181066,-0.15432492,-0.015068572,0.2427186,-0.057317436,0.29953495,-0.16776665,0.23297407,0.28943595,-0.1757353,0.12121439,0.13963115,0.13132636,-0.27629015,0.0049784067,-0.054850925,0.013911767,0.007373965,0.032796644,0.04216634,0.030590184,-0.19163993,0.042511478,-0.11354925,0.15496676,-0.12678427,0.24453671,-0.20887077,-0.1757567,-0.17683834,0.032690007,-0.38955104,-0.118398905,-0.11360823,-0.24451852,-0.07339844,-0.13569528,0.07462314,-0.09321907
0.18479587,0.04609081,-0.108651735,-0.025827035,-0.114825085,0.09376811,-0.0024716612,-0.10731383,-0.022571303,-0.09387502,-0.1414962,0.071834005,-0.011142106,-0.14804195,0.1754521,0.20598716,0.14563708,-0.15420987,-0.21133845,0.23544374,-0.03262136,-0.04125453,0.1731077,-0.04811898,0.012112509,0.2505534,-0.18976422,-0.3387289,0.021862209,0.087262586,-0.01055165,-0.08924598,-0.094709605,0.088143006,-0.15622899,0.08191505,-0.14156413,0.024100604,-0.09145416,0.13938679,-0.06728083,0.22893046,-0.10378388,0.037300166,-0.10976618,-0.10195281,-0.034414455,0.011932864,0.15891682,0.32372925,0.23509248,0.066808075,-0.045755878,-0.21202484,-0.052636135,-0.077875145,0.088068396,0.16016619,0.047752015,0.019046884,0.092144765,0.0445529,-0.11352131,0.11715918,0.28807607,-0.004015115,0.05959257,-0.18609054,0.29332706,0.03276083,0.06486927,-0.005123309,-0.29452115,0.15783058,-0.03213801,-0.16769655,-0.0924893,0.075968325,-0.1238627,-0.07382607,-0.01058131,-0.048418436,0.17606257,0.17681798,0.1833597,-0.030964047,0.025602208,-0.063968144,0.29869783,-0.093821995,0.26398855,-0.08081297,-0.15528148,-0.2568956,0.021522667,0.061066482,0.21769197,0.15276513,0.17342985,-0.02261077
-0.15154628,-0.24175036,-0.08036348,0.2605351,-0.012062829,0.094423294,0.05798522,-0.1524424,0.03369014,-0.151972,-0.13855739,0.09714436,0.004309078,0.074469075,-0.14365491,0.109545805,-0.25508237,0.25909823,-0.039079353,0.17962304,0.1664522,0.24880306,0.18824093,-0.14937936,0.22344021,0.19846438,0.1134168,-0.0646657,0.026305353,-0.108018026,-0.06400299,0.055808626,-0.046693508,0.09375555,-0.20031668,0.07004991,-0.19133915,0.028853718,0.10193018,-0.21119416,0.11763161,0.08313797,-0.06637424,0.028433496,-0.07919242,0.097627535,-0.06812052,-0.056149933,0.22492565,-0.18748623,-0.050513055,-0.09382212,-0.176212,0.32328868,-0.19654033,-0.1831985,0.1531303,-0.2110579,0.10451983,-0.03967698,0.06416893,0.07991905,0.12111112,-0.06982985,-0.15970069,0.07445679,-0.23696944,0.2423246,0.19889441,-0.0027290466,0.17275164,0.05768907,0.08648607,0.0027326497,-0.03804495,0.02930549,-0.28145385,-0.09783486,-0.27877268,0.06700601,-0.057087876,0.02654437,0.066697806,-0.1555154,0.12531878,0.04940102,0.045629393,0.012114356,-0.119496085,0.08691242,0.1665317,0.28737652,0.23308979,0.19374718,0.14622451,-0.22295728,-0.08626478,0.21982267,-0.026444526,-0.06948047
-0.05672486,0.026143946,-0.029747227,0.06781862,-0.14142895,-0.2570703,0.31868318,-0.06628347,-0.2275696,-0.06985232,-0.04542204,0.17146888,-0.25731575,0.05639572,-0.19152422,0.22250533,-0.19591543,-0.17416164,-0.044902872,-0.12329753,-0.10883733,0.06671076,-0.23953514,0.1510449,0.01330881,-0.12757623,0.0021228383,-0.15420091,0.07744308,-0.21364477,-0.13129483,-0.14043275,0.028413443,0.018148672,0.048884127,0.0038159005,-0.043728177,0.009717978,-0.29409367,-0.26833498,0.2101704,-0.25825223,0.17961863,-0.13895717,-0.06484058,0.0031657058,-0.13457398,-0.11206198,0.051731896,-0.057876423,-0.13501067,0.2921456,-0.07422409,0.0027768672,-0.28176993,0.08235823,0.06383358,0.16796096,-0.096332744,-0.3457103,-0.086083815,0.09957666,-0.014677163,-0.17348383,-0.2868983,0.289322,-0.05868071,-0.12303842,-0.20203526,0.039395373,0.039256588,-0.17955771,-0.080352046,-0.2700061,-0.0009998243,-0.08532003,-0.2519002,-0.043512207,0.060544662,0.011421042,-0.083332725,0.1335104,0.042727448,-0.003764005,-0.18053111,-0.17379895,-0.13075702,-0.07973949,0.11953604,0.21270376,0.20899802,-0.110171035,-0.2302225,-0.11958166,0.06203059,-0.11906931,0.2890539,0.07878594,-0.18197575,-0.27437863
-0.16700418,-0.075793214,-0.33552244,0.061616622,0.096588805,-0.08239829,-0.041940957,0.044305265,-0.0067056767,0.07604649,-0.15297529,0.18133463,-0.16837446,0.12749061,0.119738035,0.08614504,0.036448825,0.0221054,-0.12935263,-0.1129037,-0.12981117,-0.11130544,-0.103890836,0.15007243,0.028695451,0.008004434,0.008567562,0.060883407,0.259961,0.06658467,0.06603528,0.28341442,-0.09757754,-0.085285805,-0.014832574,0.059265237,-0.034686532,-0.14692543,0.09149157,-0.18834414,0.09556134,0.16521402,0.0861163,-0.18113472,0.041119084,0.12574919,0.048750214,-0.20061105,0.08193386,-0.04293091,0.019925011,0.19174038,0.043944873,0.25382492,0.04154494,0.18832286,-0.075270094,-0.1762518,-0.10384356,-0.3257727,0.07792904,0.15454583,-0.16736616,-0.018923108,-0.13552871,0.12246456,-0.25892282,0.1128567,0.26385388,-0.20343758,-0.08437637,-0.073452115,0.021357276,-0.00017099074,0.13655151,-0.17239375,-0.15061022,0.16326283,-0.044692185,-0.09033055,-0.15092626,-0.058231056,-0.038320042,-0.21248785,-0.048139837,-0.24635787,-0.03490309,0.06593094,-0.114811905,-0.10053911,-0.10766151,0.037157174,-0.016529704,-0.00019052147,0.037542447,0.12708472,-0.13083063,0.047901276,-0.1357234,-0.14257926
-0.13499919,0.04454683,-0.019769263,0.06642859,-0.18895784,-0.028833259,0.1939168,0.039703816,0.093236364,-0.11960739,0.24387501,-0.018817663,-0.17703632,0.073896945,0.01672703,0.2915203,0.024987409,-0.09243625,-0.047916483,0.021394633,0.01155803,0.2546419,0.09623886,-0.029839225,0.21127217,0.15464209,0.12837584,-0.07473577,0.018779753,0.16437376,0.17339438,0.068941146,-0.13991362,0.009041322,0.16211718,0.14310727,-0.028910486,0.11270054,-0.15964642,-0.13135813,-0.32037467,-0.21798328,0.028644027,-0.12784736,0.09742114,0.033353776,-0.14595838,-0.11923156,0.16340972,-0.20836516,-0.13182323,0.15284641,-0.03416485,0.020120231,-0.014454309,0.19223809,0.23835848,0.15795562,-0.1909933,-0.10855243,0.010180059,-0.0334007,0.17004463,0.22584149,-0.38178042,-0.09390299,-0.1408389,0.15568902,-0.002074563,-0.059778266,0.11473893,0.098077714,-0.01675329,-0.02722231,-0.16787402,-0.15896372,0.054121036,0.10776824,0.25846177,-0.12556191,-0.21431127,0.1467971,-0.21178983,0.10391216,-0.1105387,0.18800947,0.2714926,0.057161655,0.1933329,-0.022162102,0.2016556,0.004183547,0.06979417,0.1962236,0.09253378,-0.06999825,-0.09125761,0.27297878,-0.052993145,-0.27404898
-0.005421544,0.14810525,-0.11741302,0.112134345,-0.086485885,-0.09143824,-0.2972047,-0.024307296,-0.21181908,-0.01199268,0.10507573,-0.18926041,-0.07358281,0.1611415,0.016404385,0.084716134,-0.26445505,-0.21751845,-0.08680892,0.07963068,-0.1931919,0.0021894332,-0.16051686,0.07225788,-0.10819733,0.047790747,0.13154349,-0.09444446,0.14400262,-0.050944556,-0.012865085,0.11420004,-0.2107843,-0.10172512,-0.13424471,-0.00061799417,0.21466441,-0.19732903,0.039332435,-0.06102749,-0.09400278,-0.024906617,-0.04511229,-0.077382185,-0.23118822,-0.06724339,-0.26026696,-0.07341614,0.05046299,-0.05396955,-0.14618818,0.15645084,0.029833674,0.022055538,0.096260376,0.00695023,0.089140445,0.14299797,0.23502325,-0.21102214,-0.12636536,-0.09002048,-0.31820732,0.22551553,-0.11535908,-0.043090302,-0.06498548,0.14619136,0.08408513,0.027087936,-0.007480387,-0.0457417,0.067936085,0.18456353,-0.16080518,0.102604896,0.03262868,0.021066992,-0.066505946,0.104875356,-0.07778934,-0.05933039,0.05960877,-0.19835946,0.02206513,-0.0016892967,0.12526283,-0.1773447,-0.12155958,-0.043394957,0.13488877,-0.08386296,0.021238629,0.13354385,-0.022880124,-0.25897005,-0.14789622,-0.03223035,-0.107491136,0.11752683
-0.0702173,-0.1741067,0.32984376,0.19158,0.32157844,-0.035902284,-0.13842753,0.06128822,0.17670335,-0.101843804,0.0754478,-0.11142544,-0.12430107,-0.12391025,-0.2597605,-0.10898883,0.04218796,0.036746863,-0.2613088,-0.030931119,-0.23996383,-0.13123038,0.1114002,0.00463035,-0.11030593,-0.0676081,-0.18973428,0.029375236,0.14657205,-0.18222438,-0.005785196,-0.18094294,0.11055693,0.19556813,0.09339681,-0.042513493,-0.018145466,-0.077584036,-0.18967637,-0.10999747,0.06964135,0.13813652,0.089737654,0.19929428,-0.081591316,-0.103808716,0.039095398,0.0070186253,0.023622213,0.06562697,0.034862798,0.08804003,-0.04278368,0.17932846,-0.04112155,-0.03184556,-0.19814265,-0.06355525,0.1814106,0.35460258,0.17446594,0.16845073,-0.016373914,-0.105251916,-0.0222268,-0.1082253,0.11473062,-0.0012361205,0.14188378,0.1625275,0.36174196,0.06883677,-0.31467995,0.12162558,-0.13705057,0.016817927,0.32990786,-0.3097327,0.059038006,0.052245867,0.04619502,0.056336295,-0.06520289,0.11605363,0.16022977,-0.05201171,-0.06056653,0.13452223,-0.04047527,-0.1331502,0.019402301,-0.00045661247,-0.059188675,0.009798847,-0.25150618,-0.021986458,0.075877726,0.06927415,0.14615987,-0.17224315
0.100727335,0.119106345,-0.05940376,0.07398108,-0.056287162,-0.20019801,-0.035742383,-0.24669614,0.0956664,-0.025720362,-0.054513685,-0.26228347,0.014363757,-0.09301566,0.025439154,0.050229583,0.020079372,0.12724301,-0.026119832,-0.06525349,0.18344116,-0.05634709,-0.047259223,-0.0794617,0.043610107,-0.13888675,-1.2643661e-05,0.14619759,0.12206997,0.24872513,-0.286702,0.13075966,-0.13706455,-0.022451121,0.13968535,-0.11026193,-0.010106564,0.14958863,0.07836842,0.057112433,0.23614165,-0.09038718,-0.03970836,-0.06647574,-0.099031165,0.004185708,0.02540941,0.13669528,-0.0004982368,-0.086568944,0.020397078,-0.13229978,0.19336839,-0.12882456,-0.029411543,0.27941334,0.14385809,0.084466316,0.05409369,-0.2689714,-0.1239463,0.061402418,0.15723814,0.08874735,0.17086184,0.20783661,-0.13516042,-0.29318696,-0.18164541,0.08385694,-0.016385594,-0.21807028,-0.21406448,-0.15014018,0.007429315,-0.05401298,0.14863013,-0.04550387,-0.11901026,-0.10730812,0.08905134,0.062027626,0.20975111,-0.12605853,-0.2170096,-0.029321147,0.020824216,-0.040893175,-0.15296516,0.20350274,-0.084504955,-0.077456765,-0.066511884,-0.13143142,-0.04065541,0.18319538,-0.09591006,-0.061977435,-0.15932441,-0.117642626
0.21794984,-0.114115976,-0.06189197,-0.14222941,0.105795585,-0.06038255,-0.09204412,0.245087,-0.056599062,-0.17407559,0.3179825,-0.058722503,0.07963266,-0.1353825,0.07595069,-0.27424753,0.23998123,0.19909005,-0.10982856,0.27754605,-0.03774482,0.10612923,-0.03356512,0.12661646,0.05114524,0.26465887,0.2868431,-0.27621862,0.16797309,-0.2354431,-0.26807168,0.06293375,0.0084147835,0.08552858,-0.050942916,0.16415453,-0.01106432,-0.019937128,0.14707129,-0.032074243,-0.0390468,0.0013519299,0.07403762,-0.01937715,0.011398472,-0.009200333,-0.013153642,-0.025685553,-0.001628609,0.016047824,0.067513056,-0.11128898,0.07940965,-0.28028893,0.06403659,-0.20968486,0.15286747,-0.029058075,0.0981689,0.09398281,0.19163056,-0.09936752,0.18980175,0.13574879,-0.08158742,0.06559648,0.17584147,0.048151437,-0.04503798,-0.0315668,0.017086651,0.24616317,0.17060132,0.106207825,-0.045077883,-0.2210609,-0.033894163,-0.11997647,0.0691309,0.063511856,0.029330064,-0.20964123,0.07346094,0.042409856,-0.29308972,-0.27206957,-0.1381661,0.17212252,-0.12582241,-0.051199272,0.07977505,0.059827395,0.08244022,-0.17835476,-0.04232611,-0.012958591,-0.15255561,-0.10480281,0.074005164,0.074415475
-0.15839452,-0.06038442,0.09107566,-0.12093893,-0.00980498,0.20788637,-0.29132754,-0.15898761,0.018310828,-0.015944334,0.1389927,0.050874524,-0.08365412,-0.14021942,-0.009043951,0.27734593,-0.016895248,0.048153065,0.03746795,-0.09337857,0.115634196,-0.068398744,-0.15660356,-0.05933586,0.06735638,0.01017404,0.022424305,0.018297885,0.122238286,-0.05277952,-0.22242141,0.055123508,-0.12789604,-0.2577792,0.25184998,-0.044928983,0.072231926,-0.076003894,0.0424234,-0.062135804,0.09494372,0.052892294,0.12468894,-0.14184895,-0.19424933,0.10230378,-0.06911465,-0.12833402,-0.14499007,0.15464269,-0.011737673,0.19948481,-0.33032358,-0.063779235,0.117748365,0.14737637,-0.030911723,-0.13597536,-0.10814753,-0.08215975,-0.09988951,-0.13557103,0.13149044,-0.118394725,0.017544601,-0.24337701,-0.27071956,0.18512467,-0.009212655,0.09728084,-0.27760166,0.18910176,0.13249286,-0.21740165,-0.22258563,-0.18085971,-0.20148556,-0.15224832,0.09531343,-0.0064797997,0.15332818,-0.22215034,0.14669082,-0.06332776,-0.18256223,0.1698369,-0.07800712,0.12553719,-0.04951187,-0.06675474,-0.018238705,0.015519724,-0.1728644,-0.056596164,-0.03407113,0.022049528,-0.15992182,-0.09321157,0.03193529,0.10654655
-0.14899077,-0.075228654,0.25002074,-0.16124074,0.21747892,-0.13617337,-0.052946396,-0.2841733,-0.026115432,-0.028597958,0.009409132,-0.10226617,0.13733542,0.061563898,-0.19684698,0.09427728,-0.06112998,-0.06051,0.100488946,0.0453352,-0.1805809,-0.1943934,0.055392787,-0.06750964,0.047977302,-0.066003606,0.03531353,0.1809508,0.0061243153,0.019454345,0.17703559,-0.20617476,0.2947078,0.04939974,-0.10027304,0.15495509,-0.094085604,-0.07451379,0.100599766,0.100927226,-0.08991605,-0.07584728,0.16598153,0.07301151,-0.1725127,-0.06746153,0.10864498,0.046949405,-0.140662,-0.14654668,-0.073061526,0.041329645,0.03766457,-0.21710034,-0.15094508,0.04229181,0.23649615,0.15324539,0.032598455,-0.0320989,-0.13626623,-0.118072934,-0.07609822,-0.13518515,0.0845266,0.06788508,-0.005789209,0.15893877,-0.21927862,-0.09980664,0.010185164,-0.13449936,0.13868625,-0.038828943,0.093956396,0.032795347,-0.17830911,-0.106749825,-0.15944846,-0.0372243,-0.15289274,0.046924077,-0.1391654,-0.102281086,-0.16232969,-0.3056985,0.21605027,-0.02302351,-0.15724531,0.0192546,0.21941596,0.08843226,-0.06183253,-0.010656518,-0.11467078,-0.029756438,-0.08249717,-0.12451584,-0.005056172,-0.110169016
-0.10199806,0.003791314,0.035764962,0.11605265,0.08123633,0.1050897,-0.060267247,0.0200773,-0.13036503,-0.14093632,0.21835594,0.2535206,0.20477787,-0.13582365,-0.04767087,0.22930352,0.049420986,-0.08197723,-0.07040562,-0.07164303,-0.034783084,0.072105825,0.22148333,-0.0460684,-0.049799833,0.3186416,0.088651456,0.0074676815,-0.004338767,-0.1470018,0.102540046,0.23442663,0.11988784,0.08806457,-0.068005666,-0.037240393,0.066945896,0.004467024,0.12029559,-0.035804965,-0.2905435,-0.04388066,-0.09139497,-0.14227802,-0.14551821,0.20496923,0.098852724,-0.009784551,-0.08615171,-0.20806563,0.075947516,0.09892172,0.17618157,-0.09635857,0.21240179,-0.03656648,0.043803852,-0.10580027,0.04146563,0.109545864,-0.058449943,0.17779447,0.059295297,-0.09760296,0.0639316,-0.009549955,-0.06940264,-0.050387297,0.16405702,-0.26677886,0.05769823,-0.31562963,-0.10290467,-0.027742151,-0.036595225,0.17328562,-0.2554446,-0.010101003,0.03261733,0.17528811,-0.022753984,0.22219233,-0.21451885,-0.07471242,0.12870838,0.20094606,-0.00030939744,-0.09808088,0.14295919,0.03858099,0.32334346,-0.05749665,-0.0037600198,0.24358098,-0.036317587,0.14070058,0.071204565,0.047937717,-0.27136388,-0.09188853
-0.15626948,0.043010473,0.091668986,-0.035949107,-0.13208531,0.06575067,0.2044338,-0.12524441,-0.022461133,0.07761455,0.17231886,-0.23603778,-0.1272088,-0.14213106,-0.02262278,-0.24209481,-0.19572757,0.12575218,0.1757663,-0.0755388,-0.07806714,-0.004233904,-0.0741687,-0.030394109,0.17113717,0.2447205,-0.16049333,-0.07417215,0.19549988,0.25136873,-0.15851025,0.20738986,0.016331997,-0.18615338,-0.21905284,-0.26460046,0.11205976,-0.13042982,0.07814438,0.13720587,-0.094179675,-0.15679143,-0.034881447,-0.3218639,0.04830659,0.038604535,-0.19326682,-0.11387368,-0.005118587,0.01886819,0.024138873,-0.12063992,0.12396078,0.09456049,0.23430726,0.04692127,-0.09177105,0.21664701,0.13849156,-0.182775,0.11961999,0.12461544,-0.29379705,0.03643498,-0.094001524,-0.14115989,-0.07966003,0.1186213,-0.2749551,0.1408931,0.015709892,-0.043558225,-0.009865557,-0.1105557,-0.24060968,-0.1764024,0.09065712,-0.10160148,0.060921036,0.06434665,0.13526583,-0.24202153,0.0326757,-0.064694926,0.16576608,-0.2717769,-0.07310962,0.25870943,-0.043575168,-0.0059271366,0.26601598,-0.033361875,-0.0136192925,0.14588904,-0.23312458,0.016397685,-0.008705805,-0.19286889,-0.10573502,0.09270317
-0.06142687,-0.26176772,-0.037494354,-0.022623919,-0.14598961,-0.10385446,-0.07530562,-0.12311327,-0.0564871,-0.009735484,-0.04376114,0.2788592,-0.0025582863,-0.27588934,0.054491304,-0.10386626,-0.053495258,0.11526856,-0.004917117,0.2037404,-0.059509665,-0.03233115,-0.016768606,-0.24405652,-0.21373905,0.062849104,-0.2132416,-0.015328255,-0.0023479287,-0.04475022,0.102339104,0.04470008,-0.09740197,0.22318722,0.13121414,0.091988385,-0.040303465,0.14067063,-0.031499773,-0.1777224,-0.138395,-0.14708546,-0.20411842,-0.06002144,0.14927132,-0.19397102,-0.24359518,0.115925185,-0.071643345,0.14634997,-0.023823606,0.039567046,-0.15014942,0.1200692,-0.015685564,-0.0018854644,-0.097270444,-0.14190139,-0.045521747,0.2893851,-0.13828991,-0.0489497,0.37911892,0.20929062,0.07930538,0.07799082,-0.1591779,0.08791002,0.039123144,0.05127311,-0.040221155,0.14545111,-0.12769979,0.062414836,0.19795023,-0.14010043,-0.15216194,-0.17173925,-0.24221008,-0.23079336,0.09853903,0.10280834,-0.23290637,-0.060653303,-0.12776375,-0.067013025,0.20604067,0.14576994,0.31539673,0.0890915,-0.0323159,0.16028558,0.24074845,-0.06514668,0.054570157,0.045496304,0.25035593,0.04788682,0.032072708,0.24660972
0.22971293,-0.08370055,-0.09246189,-0.014517825,-0.03310363,0.02284936,0.23124218,0.0838313,-0.049504146,-0.049851604,-0.31551212,-0.0987649,0.008479531,-0.015364275,0.09242961,0.044223502,-0.14681487,0.0072405715,-0.13570695,0.023859248,-0.17733014,-0.017184742,-0.13717657,0.085488394,-0.34407738,-0.20309791,0.09761226,0.22879511,-0.02740587,0.0025073125,0.024576763,0.051537756,-0.1478296,0.0017964914,0.018930156,0.058015857,0.28856897,-0.11815904,0.098234,0.10103812,0.007939565,-0.08030484,0.0014771549,0.25187308,0.16295733,-0.13089256,0.12283998,-0.37160298,0.047715936,-0.18464819,0.23025052,0.20086947,-0.15068153,-0.008765135,-0.23372538,0.20218553,-0.079960026,0.053321682,0.19319628,0.10014004,0.038349688,-0.033936027,-0.01719639,0.058508687,-0.048992787,-0.1696516,0.08721428,-0.10407588,-0.1958338,0.030107856,0.07867799,-0.105446145,0.076634064,-0.056348797,-0.012273394,0.104004644,0.24715127,0.13700783,-0.15183991,-0.24106841,-0.17147423,0.20946479,-0.065290436,0.2604872,-0.23286054,-0.06803612,0.0062897103,0.1703533,0.26687878,0.11909215,0.051718418,0.06739173,0.2230502,-0.18165694,-0.010443192,0.118394814,0.09731298,-0.064853035,-0.22380783,-0.0632251
-0.064181976,-0.006624976,-0.20156032,-0.18971942,-0.00072673603,0.06994625,0.018435238,0.11635738,-0.045907985,-0.041150745,-0.029870318,0.013062249,-0.24668454,-0.07425935,-0.11211941,-0.02606393,-0.07540543,-0.0720991,-0.19508605,-0.17591265,0.0966216,-0.09917401,0.19811344,-0.16943273,0.13319442,0.231361,-0.15227027,0.04133121,-0.36681148,0.19470513,-0.2622933,0.13950098,-0.028159589,-0.21188205,0.08678374,0.08783623,-0.23991442,-0.11103207,-0.16618337,0.027917292,0.08856058,0.10199242,0.13612272,-0.044670563,0.019905925,0.08898832,0.008891938,0.22744416,0.030057648,-0.06081684,-0.08149534,0.3432113,-0.13441847,0.09616783,0.024598278,-0.24978136,-0.19063355,0.17467982,-0.068499066,-0.1221541,0.21398361,-0.13156514,-0.20881318,-0.030696047,-0.0030249844,0.030688876,-0.003493681,0.06702014,0.015296684,0.06385558,-0.14062181,-0.16958715,-0.0014208037,-0.1579268,-0.26376277,0.03776146,-0.07596362,0.14078727,-0.23708081,-0.18591425,0.12166822,-0.14829841,0.016796121,-0.052784674,-0.120371796,0.2227197,-0.19069786,-0.01224314,-0.03757165,-0.08316962,0.2589253,-0.16122232,-0.14080353,0.010148295,-0.014289776,0.25410005,0.1045991,-0.01996246,-0.075500414,0.13089034
-0.06808555,-0.076365456,-0.0032769267,0.013418886,0.18855731,-0.023122545,0.038349833,0.08957294,0.0318146,0.009800994,0.2807807,-0.1587801,-0.055537805,0.26019523,0.069472484,-0.060925324,0.09964834,0.1046513,-0.01852145,-0.076639056,0.12695552,-0.2894667,-0.06718969,-0.072367154,0.2581364,0.05521387,-0.015361001,-0.059207086,-0.0099666035,0.07720934,-0.25960106,-0.05916776,-0.13626072,-0.039587665,0.023106173,-0.27816495,0.29605547,0.18995331,0.061479405,0.050848763,-0.104861766,0.09816635,-0.031754486,-0.11630187,0.18038249,-0.07419776,-0.09278387,0.047618352,-0.07428728,0.05131424,0.06643355,0.18946986,-0.10402901,-0.07021368,0.13597733,0.015246677,-0.0645103,-0.21184109,-0.2425124,-0.094758384,-0.11438191,0.02596169,0.12804313,0.20399773,-0.16895308,-0.12526909,-0.15428585,-0.08740911,0.2703895,0.2731424,-0.070921265,0.29614508,0.023949094,-0.041520152,0.060012918,-0.0258195,-0.3223647,-0.071226254,0.121516265,-0.18312083,0.13933435,-0.08734773,0.041145813,0.08765248,-0.08392982,0.014641287,0.042925887,0.17352153,0.056166507,-0.16544382,-0.24399018,0.06885964,-0.13783616,-0.13962458,-0.1486522,0.24211627,-0.23387085,-0.056236785,0.011277715,0.07976894
0.28252643,-0.22539155,-0.10946658,-0.06294723,0.1139339,-0.24716513,0.13475966,0.12078617,0.04965286,0.15786605,-0.03917913,-0.20335868,0.08109412,0.11602046,-0.14485776,0.33951762,-0.0063294857,0.046216812,-0.035677258,0.13456291,-0.16245706,-0.10749797,-0.0065546576,0.006860331,0.109380536,-0.086054295,0.028975213,0.06306413,0.058111947,0.12165992,0.15039937,-0.030757964,0.2218828,-0.10013209,-0.09503146,0.026082091,-0.10889501,-0.15605094,0.19845557,-0.24317436,0.070815526,-0.016281003,0.0754129,-0.07468016,0.15788582,-0.11043245,-0.06948686,0.095632546,0.12991248,-0.019131053,0.055725746,-0.06500994,0.28875238,0.022576625,0.025080224,0.20080847,0.19909473,0.016186064,-0.089001745,0.24167205,-0.25527894,0.113597386,-0.23252553,0.022241179,0.06864665,-0.18531322,0.06328674,-0.048182197,0.11435397,0.034649294,0.0835199,0.15278666,-0.005983565,-0.28223485,0.13341914,-0.092168204,-0.100625,0.011993036,0.119890496,0.17879054,0.20790018,0.23354605,0.29997027,-0.2034562,-0.098921075,0.17846094,0.14950435,-0.061576184,-0.036621276,0.18060964,-0.024261069,0.20764764,0.0124776615,0.1022492,0.25055397,-0.022431478,0.100059874,-0.15233089,-0.07779849,0.06882343
-0.014146268,-0.22512874,-0.2765953,-0.04991982,-0.14306541,0.12884296,-0.2971177,-0.1930819,-0.00588986,0.13792524,-0.24455534,-0.17603531,0.12091301,-0.263409,-0.0104630925,-0.07746399,0.07761655,-0.059222534,-0.2744317,0.19417676,-0.017143087,-0.12863071,-0.15213342,0.15118918,-0.005346397,-0.03825288,0.13236804,-0.047616478,-0.11734536,-0.1346234,0.049566194,0.25591314,0.12563694,0.10521762,0.07233053,-0.25720873,0.046095423,-0.17825155,-0.17285727,0.2716533,-0.11203434,0.13543907,-0.017199723,0.120096825,-0.07929296,-0.019843828,0.2522808,0.13731569,-0.08834659,0.07788406,-0.11773197,-0.0012076298,0.035270102,-0.13618484,0.019281527,-0.19771005,-0.06538363,0.028166585,0.08455421,0.028005466,0.013188011,-0.1625817,0.18571104,-0.17093915,0.1070181,0.2102466,0.10570243,-0.017304644,-0.005425561,0.22072665,-0.20417663,-0.1868895,-0.2348029,0.019800643,0.036701348,-0.208621,-0.20605986,0.1839269,-0.24475959,0.112413175,-0.115275584,-0.22602025,0.1273868,0.04040248,0.26204363,-0.020484367,-0.31753308,-0.112516396,0.06447234,-0.06183619,0.18451017,-0.01888526,-0.12045528,-0.29216284,-0.02665464,-0.17864719,0.19892344,0.15073085,0.15036963,0.17436388
-0.060396984,-0.1377696,-0.11867553,0.16202319,-0.14370894,-0.13542233,-0.09425285,0.16718043,-0.08131684,-0.23287193,-0.0256223,-0.08755159,0.09053509,-0.06722516,0.14103083,0.2641043,0.058806058,-0.067219794,0.0058313143,0.1165351,0.22100529,-0.06782782,-0.04053863,-0.29201472,0.04859103,-0.05400471,-0.0044556856,-0.03482261,-0.19291034,-0.23940434,-0.023418842,-0.09012528,-0.057938308,-0.24514697,-0.04077939,-0.16655138,-0.22755225,-0.18772583,-0.2865199,-0.12738131,-0.26207784,-0.19212057,0.13942675,-0.022504622,-0.058738187,0.018863313,-0.24908638,0.0765066,0.005262259,-0.09008954,-0.015032869,0.035774656,0.123542935,0.059348505,0.002628689,0.03223261,-0.025251359,-0.34163374,0.031718303,-0.036237817,0.14428648,0.042574327,-0.023581916,0.009552208,0.109326474,-0.2638178,-0.07583972,-0.056529578,-0.011917436,-0.01807375,0.112777784,-0.0074522076,0.10487944,0.034607597,-0.07383181,0.22752811,0.014346092,-0.100175515,0.0062261727,-0.15255901,0.0010975312,-0.072715975,-0.14452007,-0.0033959975,-0.023721797,0.013641921,0.08675691,0.16057718,-0.24360445,0.021578845,-0.19174927,0.13143048,-0.049551148,-0.18997173,0.11238693,-0.078490414,-0.17271972,-0.17052022,-0.11417833,-0.26003394
-0.21704237,-0.22934382,0.05500032,-0.037318464,0.0108757205,0.074851796,-0.016906831,0.0006736382,-0.1566174,0.3076735,-0.1908048,0.029593999,-0.23047934,0.036606867,-0.17441578,-0.13918784,-0.06946856,-0.06076115,-0.05597594,-0.07144334,0.28234088,0.07373907,-0.023839321,0.24308774,-0.08918967,0.050455812,0.0850775,0.014044572,0.018154338,0.043635227,0.124857835,0.019329417,0.05276142,-0.16785413,0.18990803,-0.120119825,0.34328687,0.07757411,-0.16534695,0.049586598,0.00065760507,-0.112939626,0.121680096,-0.057611827,0.031432442,-0.03045678,-0.10860722,-0.14146762,0.11794961,0.079853795,0.16315891,-0.24800713,-0.107867695,-0.17761935,-0.056338057,0.032751817,0.1317147,0.110916,-0.034082297,0.15792501,-0.0012074946,0.03424603,0.15347086,-0.0050886893,0.12079669,0.012572393,0.05387488,0.20002365,-0.06137965,0.22929169,-0.019048769,-0.01514468,0.052786347,0.1352032,0.0059140217,0.00047921977,0.11165593,-0.079948515,0.01121907,-0.079646066,0.21236165,-0.06210105,-0.019720944,0.13622488,0.14780658,-0.1379176,0.10065398,-0.16041674,0.11272943,0.22112119,0.03853549,-0.071087144,-0.17335162,0.0771555,-0.052059434,0.08452626,0.041288313,-0.10829918,-0.095051564,0.004115306
0.052563086,0.04024124,0.07939705,0.03070128,0.047538605,0.050230905,-0.043524135,-0.0951421,0.05307916,-0.09866327,-0.033376515,-0.15768547,-0.117819086,0.168414,0.030526858,0.0071316618,0.024221031,-0.21328463,0.13019925,0.06338369,-0.13862415,-0.0066227387,-0.24548733,-0.07400334,-0.019788515,0.22613364,0.05526369,0.21270739,-0.084773265,-0.10204973,-0.14031208,-0.031894393,0.172639,0.09448129,-0.17283656,-0.09268594,-0.21812613,0.04982488,-0.014960579,-0.16073167,0.020797731,-0.22699235,0.20849241,0.0766361,0.022391738,-0.14239897,-0.071803086,-0.057284176,0.031382736,-0.0021058854,0.26655677,0.0048955157,0.21194433,-0.10203409,-0.15305308,-0.17959031,0.050333805,-0.3063084,-0.064068586,0.2024706,-0.30311215,-0.0008986028,-0.15274896,0.051096927,-0.028099,0.02408384,-0.0043985555,0.15399046,-0.019376718,-0.0717084,0.0034530088,-0.2939606,-0.16056493,0.035552315,0.12363497,-0.13964276,0.17122436,-0.04319103,-0.22671126,-0.19492483,-0.17678455,-0.17966121,-0.0106318565,0.042657763,-0.15298615,-0.0750075,0.14998367,0.014681541,0.15693143,0.14848755,0.032719698,0.044509914,-0.086048804,-0.18354467,0.05882213,-0.06061639,-0.2744187,-0.11818124,-0.035338756,-0.1723147
0.24637753,-0.14051159,-0.20591372,0.30071685,0.07596504,0.010928815,0.1028126,-0.08048866,-0.08449163,-0.18470043,-0.06644402,0.09142726,0.1216388,0.051832266,-0.24749185,0.0405873,-0.013861137,-0.044060968,0.0062580863,-0.014158598,-0.15754601,0.09865295,-0.061588306,-0.23176023,-0.06663296,0.052844103,-0.06265272,-0.14575133,-0.07982397,0.06132284,0.17482853,-0.045717128,-0.16482376,-0.08231451,-0.06625393,-0.09737132,-0.071929276,-0.1344682,-0.0012048703,-0.019165618,0.04691327,-0.07047083,0.16978209,-0.3115723,0.28702822,0.113886945,-0.06821167,-0.09581564,-0.16479903,0.119448446,-0.2174134,0.058031943,-0.12892489,0.05829822,0.015397609,-0.011867813,0.13493252,-0.22423398,0.16384652,0.22729154,-0.23568049,-0.02946765,0.12769963,-0.014879396,0.052288983,0.017450983,0.19979593,0.09161276,-0.017884381,-0.16803375,-0.012162634,0.119420186,0.004836,0.068090044,0.04534161,0.049028646,-0.13840069,0.033544764,0.2667508,0.14627108,0.08800601,-0.01669349,-0.22179782,-0.08084922,-0.09742235,-0.31670067,-0.22255331,-0.22309694,-0.043100324,0.060777154,-0.1870247,-0.13086733,-0.19197224,-0.05055554,-0.1556103,-0.092440166,0.037815716,0.003980543,-0.105946764,-0.18657812
0.12551351,0.06279591,0.12549777,-0.082847856,0.12634592,-0.07846909,0.04588465,-0.12814437,-0.13602385,-0.22200121,0.037558768,0.06932978,-0.13992043,-0.1310422,0.1015406,-0.06498422,0.13780671,0.061021745,-0.25618124,0.27285564,-0.16676112,-0.26452804,-0.0026757761,-0.03415557,0.19970492,-0.10108587,-0.12154861,-0.02374615,0.15519026,0.042656325,-0.2241799,-0.02151734,0.1955762,0.25203282,0.10614386,0.23717417,0.12592106,-0.043083142,0.22982572,0.05631379,-0.19959977,-0.31233186,-0.12527461,0.0066341734,0.09622822,-0.07880616,-0.122426346,-0.13177563,0.11832747,-0.2285501,-0.20401955,0.09174561,-0.06943738,-0.17298144,0.011395717,0.01600725,-0.06286518,-0.0568475,0.064902544,0.24525204,0.10715282,0.102653325,-0.077206135,-0.124684505,-0.014779055,-0.31941366,0.11038388,0.18367313,-0.13755354,0.17454803,0.0299152,0.05768522,-0.10152247,-0.052149452,0.23192899,0.016808664,0.065907836,0.020872973,0.07628317,0.07296265,0.05548517,-0.17609957,0.13426977,0.017374817,0.12367103,-0.23206565,0.17003353,-0.053493675,-0.06362285,-0.05499724,0.09347778,-0.21963033,-0.14184333,0.1442225,0.061816122,-0.34883052,0.018862193,0.012914536,0.0396969,0.22129191
-0.17574084,0.10353589,0.16694954,0.06587143,0.022044636,0.03529274,-0.20250078,-0.10919193,-0.30396467,0.22381084,-0.1420956,-0.14682667,-0.19995318,-0.08906093,-0.06789113,0.029161053,-0.025943253,0.06353433,-0.15112875,0.11310843,-0.06408953,-0.027623793,0.04164901,0.11567914,-0.048794344,-0.08899381,0.0359743,-0.026856013,-0.33579743,0.06825058,0.2179604,-0.13081259,-0.057513416,-0.29371485,-0.2898212,-0.029930139,-0.17826399,0.31887585,-0.19911388,0.09535456,-0.22415942,0.0027808468,-0.10080815,-0.02599473,-0.112344585,0.069072545,0.1879018,-0.2553206,-0.073484406,-0.09241348,0.22937837,-0.014262317,-0.011949961,0.29134288,-0.017178759,0.07403616,-0.07521278,-0.11581626,0.09926675,-0.05171604,0.023785284,0.05723223,-0.14692228,0.093180425,0.18870185,0.2253344,-0.26660606,0.21314223,-0.20303531,0.21605946,0.094116025,-0.149226,-0.032003004,0.09434435,-0.10397935,-0.063432895,0.15226711,-0.19355626,0.08260483,-0.14489688,0.05291469,-0.047853228,-0.049295235,-0.22327118,0.16548859,-0.18820415,0.24236438,0.05646453,-0.0037220914,-0.07106392,-0.12300974,0.15133156,-0.21063066,0.28883395,-0.29990992,0.13087985,-0.1304569,0.16640125,0.07661476,0.039085068
-0.11013735,0.11475357,0.016059488,0.03502778,0.071478315,-0.19117689,0.22889154,-0.16724491,-0.17570598,-0.09145945,0.02408352,0.045746505,0.21406737,0.024204487,-0.010270124,0.07582618,0.27751672,0.006165188,-0.18079598,-0.20598488,0.061263952,0.09072685,-0.1562354,-0.0075059053,-0.23349519,0.11009645,-0.04884342,0.15432434,-0.04479445,-0.20183471,-0.10688966,0.18098067,-0.08192285,-0.12179009,0.030346433,0.33799347,-0.13586776,-0.013776319,-0.20934504,0.15236862,-0.00424269,-0.110445395,-0.13781768,-0.07738693,-0.0673531,0.04480523,-0.10728364,-0.2674013,-0.3016319,-0.1910287,0.079465106,0.14946817,-0.08873477,-0.05951532,0.018109499,-0.05598141,0.14911295,0.061840348,-0.2936641,0.11924107,0.17855284,0.046475995,-0.064439,0.0017646718,0.06189473,-0.16477607,0.08771932,0.020470293,-0.0657964,0.070785604,0.12973079,-0.16240473,-0.15917587,-0.06671025,-0.2320531,0.09636385,0.28033516,-0.101076595,0.13869089,0.13877021,-0.12510188,-0.121680886,0.07939752,-0.24394011,-0.16448487,0.078182556,0.24077457,0.01947914,-0.10782601,-0.0023907272,-0.234645,0.0043329177,0.037959963,-0.16959333,0.054837808,0.022617633,-0.15784545,0.17332299,-0.115681894,0.07412473
-0.29577,0.006691363,0.039662145,-0.13932249,-0.010485589,-0.05416509,0.08269076,-0.2650399,0.14023754,-0.15678665,-0.1924441,-0.16435273,-0.055475716,-0.20789532,-0.22070295,0.0059025977,0.0076098633,-0.0021574583,0.0024301568,0.0110894,-0.09797183,-0.24819975,0.036904093,-0.073199786,-0.18310444,0.10632008,-0.09371743,0.014725373,0.264668,-0.07422702,-0.12468318,-0.20896974,-0.0270259,-0.2548774,-0.025965143,0.009666033,0.18299542,0.1044827,-0.19141205,0.13951789,0.029825656,0.20705968,0.12395091,-0.16019331,-0.028584912,-0.2035468,0.04356021,0.014481946,0.0918329,0.015962686,0.13226217,-0.12571993,-0.090725906,0.07394105,0.07628352,0.028210914,0.07136928,0.10870397,-0.11587123,-0.06737046,-0.12160777,-0.12496212,0.031030407,0.058050226,-0.17139663,0.032271173,-0.0036320232,-0.1813181,-0.15575893,-0.06638662,-0.0694444,-0.011896251,-0.30718243,0.10147163,0.26982337,-0.04763524,-0.16586955,-0.2579545,0.09039653,0.11308151,-0.09684989,0.19343157,0.07825266,-0.062329505,0.1564044,-0.06799909,0.118423365,0.00618164,-0.19882362,-0.07089153,0.11240805,-0.058610354,0.058257453,-0.037288543,0.097860105,0.01648827,-0.07185838,0.106241606,-0.2404321,-0.05931001
0.09940239,-0.033303935,-0.23783596,-0.090358734,0.04153372,0.05120203,-0.23582631,0.22758253,-0.07371582,0.008868247,-0.030862447,0.22990419,-0.03126322,0.03368085,-0.040904168,0.09916359,-0.07193616,0.17836536,-0.050723363,-0.14436711,-0.10388596,-0.17168875,-0.19405834,-0.12593573,0.028064849,0.027353192,-0.21657516,-0.12487426,-0.24569815,0.044117402,-0.27141395,-0.20638657,-0.089005046,0.12312279,-0.15805432,0.23355055,-0.23440216,-0.20810442,0.19621532,-0.10589735,-0.24953741,0.012473358,0.040295888,-0.24772868,-0.11238473,-0.01718819,-0.17780599,-0.08074219,0.073776215,0.0133019285,-0.14688952,0.015728902,0.34425998,-0.095747024,-0.20174377,0.11854328,0.030976186,-0.09382281,0.25854975,-0.05366752,-0.21457963,0.11093863,0.0021193537,0.043434896,-0.015298136,-0.14109637,0.009280408,-0.01782278,-0.08401927,-0.025518227,0.15728608,0.02307452,-0.06391576,-0.16679546,0.107338905,0.008613369,0.028698966,0.20568973,0.041330643,-0.14410539,-0.08861804,-0.16630058,0.04253218,0.019668147,-0.07105972,0.21399961,0.16088802,-0.044084597,-0.10019273,-0.20085745,-0.05079394,-0.030974822,-0.056894433,-0.13819483,-0.1140461,-0.16959274,-0.028867787,0.08440335,-0.04842893,-0.18113156
-0.04396798,0.1002668,0.31472835,-0.06244287,-0.09747048,0.052077238,-0.08535103,0.25591838,-0.13453309,-0.103209145,0.19953604,0.14886613,0.26372468,0.0018435897,0.26426226,-0.051248636,0.05965933,-0.0119271735,-0.3001016,-0.09590348,0.055381723,0.044085804,0.1697755,-0.21849665,-0.09505513,0.098509006,0.17662607,-0.0014619168,0.2929214,-0.08264795,-0.27941397,0.10899916,-0.11006087,0.08566071,0.30403304,-0.0822086,0.21808247,-0.29668084,0.07407251,-0.019072099,0.14803919,-0.18519227,0.091370784,-0.084353566,0.11706587,0.035352223,-0.252344,0.028140947,0.10225363,0.1584616,0.33828923,0.27607676,-0.062142197,-0.046699256,0.16755244,0.06256406,0.03404502,0.05876733,-0.20498751,-0.027675968,0.07040285,0.043882173,-0.30600566,-0.019255355,0.13208579,0.21768436,0.034209564,0.11262263,0.17725068,-0.09549124,-0.05631054,0.064708054,0.18335406,-0.17098391,-0.22298726,0.05722904,-0.28546542,0.013359056,-0.020128155,-0.02996614,0.14586322,0.25633302,0.18455489,-0.17282401,-0.06685093,-0.17534685,-0.16593441,-0.08082813,0.20607422,-0.027808549,0.17917521,0.27122775,0.03277691,0.0024238084,0.15500231,0.18319075,0.03340463,0.13953774,-0.1589407,0.017861376
-0.10535549,-0.019502424,-0.0020599752,0.04385229,0.09406427,0.0089298235,0.15307046,0.10492672,-0.06644535,-0.26322794,0.095054366,0.0071329293,-0.14801754,0.23136543,0.07322065,0.022623707,0.008190023,0.07331194,-0.16577934,0.10811679,-0.08250815,0.0033671116,-0.07545726,-0.03812105,0.090572245,0.20161219,-0.0021387797,0.08901334,0.12337991,-0.12024795,-0.077935755,0.10099641,-0.050284754,0.0015205254,-0.3130345,0.16410063,0.028793043,0.13002701,-0.0827845,0.19968204,-0.047116745,-0.17967874,0.10858993,0.16119085,0.11132674,-0.21454796,0.022172516,0.002830483,-0.1347038,-0.11610074,0.053012714,0.064068794,0.1310231,-0.3202955,-0.121947095,0.13317688,0.08154237,0.16907863,0.1540719,-0.1960463,-0.008616177,0.010248127,-0.077909045,0.26736176,0.016622901,-0.07943978,-0.1356322,-0.162699,0.12866041,0.08350012,-0.089152776,0.10509546,-0.29047957,0.28332198,-0.12695095,0.19307145,0.0024443504,-0.07220171,-0.08277763,-0.1735322,-0.22248742,-0.051501147,0.12392099,0.09728761,0.19149242,-0.22325467,0.09232241,0.004170002,0.11925596,-0.17023684,-0.17775643,-0.2006172,-0.11143197,-0.13390926,-0.01588856,0.0008199079,-0.08560734,-0.020168805,-0.06728397,0.08161283
0.17987262,-0.3155163,0.085197836,0.10939818,-0.2554389,-0.13759714,-0.23487085,0.08681536,-0.06015987,0.11069054,0.07958881,0.05243531,-0.2471638,-0.07884974,0.063003324,0.004376167,0.12308182,0.11327473,-0.09819664,-0.10839529,0.059211217,-0.19357891,-0.12953158,0.035155293,-0.06681009,0.11525025,0.1806077,0.015952587,-0.006108711,-0.059884198,0.01461502,0.05325955,-0.15938126,-0.0892559,-0.12832311,-0.17942081,-0.044890847,-0.10127433,-0.009106698,-0.21994968,-0.24885146,0.22277854,0.06560226,0.07853504,0.072319515,-0.17902867,0.027913801,0.041356,0.3132422,-0.06606919,0.01635864,0.1807388,-0.06137574,0.2207951,-0.061602056,-0.001621563,-0.10013518,-0.060465604,0.13568003,-0.070231274,-0.012276259,-0.052560598,-0.10764776,0.06396173,-0.21993534,-0.27870017,-0.039806064,0.18169051,-0.20794608,-0.08180482,-0.21040562,-0.054584667,0.091521375,0.202055,0.06764213,-0.31002513,-0.14526404,0.09571472,-0.19263403,0.10870013,0.077777684,0.11298384,-0.011086157,0.013151168,0.2010286,-0.20751712,-0.1941297,-0.22337356,0.047076933,-0.22260532,-0.1578175,0.13998671,-0.17034312,0.08740665,-0.1577442,-0.07099095,-0.054844473,-0.0017083831,-0.21456736,-0.028956957
0.119044535,0.056667253,0.108491644,0.0028688484,0.042895935,0.1395645,0.05136602,0.08472434,-0.14880566,0.06910211,0.07030178,0.05434592,0.2927341,0.12517892,-0.09560931,-0.10889685,0.1941202,-0.09396167,-0.084958576,0.12301237,0.10628732,0.023427235,-0.036017124,0.07163618,0.0453864,-0.14887898,0.08342861,0.018690731,0.10875593,0.03458984,0.027746761,0.12183543,0.04711571,0.026495496,-0.2252823,0.037275918,0.18599062,-0.06430284,-0.06707429,0.07831132,-0.12203264,-0.11197636,-0.06508761,0.07819982,0.0481495,-0.023585852,-0.024612064,-0.027154474,0.047250487,0.108420394,0.14255056,-0.10867934,-0.015885187,0.11764543,0.040345553,0.09871169,0.27321917,-0.32926786,-0.17697647,0.04676313,0.2460195,-0.308591,-0.04582913,-0.059790153,-0.005101318,-0.052735604,0.16803099,-0.088480726,0.031562362,-0.14770842,0.027175633,-0.2812486,0.044121094,-0.21367133,0.02588952,-0.10529851,5.6373665e-05,-0.10850133,0.02268741,0.14285144,0.27360928,-0.2647968,0.09400785,-0.068007484,-0.17242625,-0.120483845,0.12624022,-0.051857572,-0.10438734,-0.25742504,0.10373432,-0.16062249,-0.05963616,0.024507055,-0.19697046,0.1247062,-0.06513169,-0.080739856,-0.0020857137,-0.1027264
-0.11007363,0.19846232,-0.21418612,0.16227826,-0.11265813,0.1161743,-0.26952225,0.2456203,0.18320256,-0.070557386,-0.17381027,0.122424744,0.075948395,-0.16589299,-0.011722595,0.2528005,-0.18128085,-0.134995,0.18733102,0.13050063,0.28295034,0.09013881,-0.15337458,-0.15768518,-0.060450472,-0.066434525,-0.14080052,-0.010706778,0.19422026,0.024890974,-0.061546624,0.15850684,0.05520805,0.009824512,-0.16135506,0.16421936,-0.035271417,0.07560595,0.012091211,-0.17192437,-0.14269398,-0.06425589,0.030098312,0.105754346,-0.10305689,-0.02878094,0.082715064,0.056903753,-0.0075486116,0.051575117,-0.036761627,-0.21267597,0.066951275,-0.10308619,0.09642478,0.32741734,-0.057192422,0.13029926,0.12981151,-0.021074234,0.1582321,-0.18562101,-0.07132012,-0.04284604,0.080644615,0.069779254,0.00022783646,-0.121246316,0.0133640915,0.0969605,-0.08893632,0.24716318,0.02196464,0.073943615,-0.1703018,-0.19554015,0.2058209,-0.0038306003,0.052048028,0.0048328615,-0.1568095,0.07758357,-0.21831064,-0.043827392,0.16496135,0.19558887,-0.10060822,0.103898905,0.08772444,0.31081435,-0.05507345,0.007835581,0.0616545,-0.19288489,-0.10778401,-0.018731521,0.08813961,0.01122256,-0.080362484,-0.2972579
0.13652614,-0.1810569,0.20091623,-0.14383501,-0.10378,0.15486678,0.15328012,0.016403098,0.10427062,-0.2593128,0.17569627,-0.083068915,-0.10486367,0.13290302,0.06141372,-0.08382637,0.063097484,-0.10034332,-0.072645724,-0.06548681,0.14612058,0.10199503,-0.021130646,-0.12344606,-0.06435169,0.035674125,0.27474135,-0.08531567,-0.056750692,-0.134051,-0.032385033,-0.056748446,0.2715038,-0.17729805,0.17671792,0.24464315,0.22570165,-0.19073756,-0.07406707,-0.17084236,0.110657625,0.0052127102,-0.20953916,-0.09848111,-0.08622866,-0.16814382,-0.13591304,0.086398706,0.06108955,0.099071726,0.115943104,-0.27667186,0.22899297,-0.06262408,-0.11557526,0.08158435,0.1601787,-0.21593186,-0.057349175,-0.15022583,-0.13341491,-0.094378665,-0.13994835,0.14855748,0.053043727,-0.027567344,-0.1541034,0.026437705,0.07938053,-0.17427309,0.098960035,0.18352884,0.11464025,0.17346925,-0.049099576,-0.12969017,0.17438206,0.14240104,0.24603872,0.07333662,0.22562009,0.10726179,0.14138576,-0.2174183,0.0901385,0.22088125,0.026949465,-0.21905291,0.12683545,0.035195522,0.09412936,-0.007240425,0.037450682,0.0032358554,-0.06266675,-0.09300096,-0.09555175,-0.039276525,0.33702758,-0.0320409
0.036425285,-0.20277847,-0.03874164,-0.038003184,-0.26888806,0.28331745,-0.02356078,-0.33617568,-0.05663432,-0.017528908,0.12624753,-0.06856465,-0.059388213,0.07171324,0.22430661,-0.06703308,0.1215923,-0.039266836,0.18286961,0.056394227,0.06620591,-0.07093711,0.036846872,-0.12233572,0.25573757,-0.07673025,0.035270844,0.021087402,0.011319587,0.1316582,0.029687392,0.2146363,0.09484871,-0.0014789177,-0.04396923,-0.0026034925,-0.20946117,-0.030357242,0.12591143,0.2824752,-0.21895753,0.04360724,-0.02349744,0.08127378,0.13167419,-0.092679895,-0.050674867,0.11902379,0.06660229,0.30613923,0.07432684,0.13274291,-0.039663505,-0.023366028,0.017946126,-0.028778713,-0.21869321,0.12129276,-0.009205388,-0.09748851,-0.13979566,-0.037201114,0.004237721,-0.020927085,0.18283093,0.19824031,0.17156582,-0.20429538,0.02767149,-0.11375692,-0.19491398,-0.007887071,-0.004950136,0.100093395,-0.11415195,0.07120803,0.13965192,-0.18540029,0.0098002395,-0.07972578,-0.28986323,-0.051007006,0.17348042,0.14612176,-0.06290404,0.12949958,-0.079032995,-0.053627066,0.14199789,0.11094711,-0.05162617,-0.22422667,-0.174846,-0.2746058,-0.2991125,-0.17523581,0.12979272,-0.029368926,0.34041178,0.050819274
-0.03746779,0.019781262,0.07067418,-0.35140267,-0.21398343,-0.024094831,0.05614058,0.14612725,-0.03901411,0.16558631,0.14096613,0.015009926,0.2044121,0.058714524,0.12242362,-0.24493948,0.07908466,-0.16597068,0.0014873462,0.09673779,-0.10279886,0.082858145,-0.081776775,-0.08079762,-0.20005888,0.004311412,-0.220368,-0.10217055,0.09426139,-0.23365776,-0.025117997,0.08856351,0.2599355,-0.10672327,0.017893953,0.17839979,0.005378475,-0.09554824,-0.07540545,0.08983078,-0.084364325,0.058149915,-0.14691153,0.080887094,0.057525303,-0.06254234,-0.24019523,0.06450976,-0.017399013,0.022982292,-0.12016538,-0.043638762,0.24838392,0.18735424,0.07033788,0.1867383,-0.27167723,0.14239033,-0.015530285,-0.06955389,-0.023636876,-0.15600632,-0.0702431,-0.008611797,-0.34656462,-0.073250234,-0.20550257,0.20561929,0.07278036,-0.20818768,0.13578838,-0.077532925,0.14548972,0.064651266,-0.16638501,-0.08616161,-0.021887459,0.100668356,-0.16411,-0.12382856,0.16521184,0.17606775,0.055341233,-0.2762346,-0.17736973,0.01147884,0.029299516,0.20674829,0.17740607,0.264957,-0.14927025,-0.025270589,-0.09861912,0.011799354,0.26299152,0.039812837,-0.29060504,0.19257782,-0.117086835,-0.061098542
0.11750146,-0.26954994,0.12995748,0.29024258,-0.1830719,0.16513413,-0.23126313,0.11091142,0.068165846,0.034385227,-0.075144276,-0.085898116,0.121256396,-0.021474905,0.12238566,-0.16297945,-0.09007105,-0.006668492,-0.04626572,0.10802821,0.33635157,0.2235886,0.05504115,0.018267674,0.1371224,-0.14377582,0.09312556,-0.084299974,-0.047622927,-0.05119329,-0.020845389,-0.03202499,-0.05131668,-0.19460317,-0.061541848,0.21355587,-0.08822481,0.089440204,-0.015206878,-0.14164048,-0.028856622,0.050888218,-0.10336248,0.03597733,0.0373916,0.111465625,0.054205474,0.14534332,0.039346997,-0.1649892,0.00083379855,-0.15042171,0.016900927,0.14500752,-0.11777214,-0.0013438119,0.035126846,0.20517619,0.19564945,-0.1277027,-0.18094446,0.24680273,-0.09870498,-0.10968569,0.119571105,0.11473137,-0.029867852,0.11538371,0.06288564,-0.06365851,-0.07484042,0.09587528,0.12362722,-0.14124776,-0.26549512,-0.025905121,0.05684937,0.035805464,0.04294916,0.08860185,0.011385263,0.026439091,0.28363326,-0.13097245,-0.01782092,-0.019952707,0.13461715,0.12523502,0.14924577,0.074343584,0.2956404,-0.13123925,-0.25032413,-0.06233915,0.1906718,-0.012775024,-0.050137434,0.049984466,0.13293797,0.10411937
0.001090942,0.05983165,0.0331189,-0.3748677,-0.005994633,-0.039923623,0.06926106,0.050864387,0.076529406,-0.2619926,-0.06677397,-0.06098384,0.12745155,-0.14973493,0.038775828,0.104229495,-0.12204377,-0.011117797,0.14350359,-0.1974569,-0.14186807,-0.27066037,-0.09926106,-0.006995844,-0.37041417,-0.20849566,0.20947942,-0.2041294,-0.053289816,-0.031916242,-0.05909838,-0.01917891,0.19467194,0.23024163,-0.039594043,0.017858896,0.032785036,-0.051377602,-0.26839736,0.06512572,0.08319121,0.15212962,-0.10618069,-0.06174625,-0.09738377,-0.058320664,-0.13738996,0.051356986,0.05938004,0.21120103,0.009210039,0.060128886,-0.14152998,-0.17011455,0.07516506,-0.008155703,0.06915257,-0.10993927,-0.025070198,-0.12042486,-0.060701136,-0.013372172,-0.19032514,0.04561351,-0.028643545,0.044835582,0.034090478,0.2143149,-0.19770192,-0.012262571,-0.025683992,-0.14027135,-0.0045927432,-0.011705674,0.28739223,0.14622678,0.10005637,-0.032529347,-0.09895576,-0.26303932,0.1169674,-0.076818496,0.07894244,-0.20564759,0.18825826,0.18698958,0.10454969,0.06786798,-0.20489688,-0.19905654,0.02416455,0.23708493,-0.18497518,0.027397394,0.27009082,0.08085865,-0.10424458,0.04420936,0.2892021,-0.16893168
-0.24342991,0.13162282,-0.057734404,-0.062366094,-0.11494385,0.21419948,0.16305235,-0.08854401,0.101152174,-0.020246208,0.11555127,-0.024824392,0.08945384,-0.28570905,0.19836019,0.011698017,0.047644004,-0.03715009,-0.013766348,-0.09213797,0.075033166,-0.010773909,-0.14569081,-0.042390946,0.013384636,0.042536702,-0.20128076,-0.03488141,-0.22104104,-0.16674083,0.007116742,-0.19038615,-0.22393161,0.029666943,0.033912968,0.089181356,-0.23613459,-0.0049942075,-0.18608852,-0.14620653,-0.14976816,0.03762729,-0.03412247,0.076760925,-0.0515336,-0.069594115,-0.16366383,-0.17113048,-0.080116905,-0.13648875,0.30660397,0.12211366,0.09650328,0.106692046,0.14926098,-0.057702146,0.19154328,0.09917412,0.054823663,-0.032469966,0.21896988,0.07458523,-0.23059238,-0.049408667,-0.25663635,0.12976028,0.10398885,0.231124,-0.11121343,-0.0978245,-0.06266279,-0.13474588,0.2556941,-0.023904962,0.09805041,-0.021612985,0.13007353,-0.16299453,0.060351964,-0.1483867,0.0400239,-0.040874425,-0.010050032,-0.15695249,0.046439495,-0.2073939,-0.080220185,-0.0613678,-0.2821271,0.19816539,0.011113413,-0.036471155,0.23178889,0.2672983,-0.14032122,0.075388595,0.23378286,-0.17850217,-0.12800589,0.022043906
0.06359062,-0.13610157,-0.07575841,0.005728374,-0.005668356,0.23485067,-0.05485023,0.014303821,0.036257982,0.15981035,0.06893884,-0.0010737021,0.33636704,0.020344412,0.14716274,0.104604475,0.018514492,0.110906504,-0.022795081,0.0132990675,-0.020028617,0.2065192,-0.0560379,0.051687896,0.06628834,-0.1847913,-0.1256535,0.22457948,-0.1445866,0.118200585,-0.08483003,0.2214451,-0.1579638,-0.0495598,0.09964283,0.10574022,0.07331314,0.04110372,0.22299722,-0.0803303,-0.07279185,0.11091963,-0.02171399,0.18609618,-0.0028671413,-0.0030576624,-0.064319074,-0.19265494,-0.23707694,0.010502003,-0.19395721,-0.2731178,0.29120928,-0.053014882,0.0055706836,-0.10752177,-0.08207658,0.059158158,0.06873624,-0.008767219,-0.12088083,0.07314891,0.07777018,0.09261792,0.018497936,0.18421979,0.024379581,-0.033163443,-0.19703516,-0.093474954,-0.11904028,0.18909639,0.050074853,-0.07799085,-0.0901741,0.0031249085,-0.057464536,-0.011199207,0.03441736,0.119175896,-0.009959246,0.008802774,-0.08548592,-0.23528948,0.085077606,0.05439515,-0.06515273,0.03145498,-0.29272854,0.03714838,0.10218768,-0.16723919,0.12736431,0.15804753,0.017438382,0.04844247,-0.026126634,0.032920085,0.0028137865,0.17021015
-0.20011042,-0.02736664,-0.1086121,0.006584061,-0.07535594,-0.21160951,-0.04593433,-0.112196036,-0.2456338,-0.21637227,-0.110805854,-0.05941885,0.016009172,-0.20611648,-0.06328802,-0.057002928,-0.10662326,0.008252834,0.07829607,0.22921737,-0.0009347571,-0.11107668,0.014720853,-0.076990336,-0.17990375,-0.31338355,0.07279954,-0.13903093,0.14705142,-0.029887423,-0.07784277,-0.1066809,-0.21278207,0.13604432,0.09339212,-0.10436316,-0.070467636,-0.21171609,-0.024606053,-0.027020456,-0.061373662,0.22550394,0.05392545,-0.03380569,0.23447101,-0.04169498,-0.2938448,-0.1612582,0.057268403,0.30525064,-0.09784126,-0.099964105,0.09118712,0.13225654,-0.0047392864,0.031675313,0.071976274,-0.015362169,-0.10192191,-0.15929945,0.1600942,-0.27293527,0.17405502,-0.035838727,0.15894939,-0.035934296,0.016861979,0.0024185108,-0.14997011,-0.0058031087,-0.16023579,-0.213232,-0.06759911,-0.02989778,-0.09842481,0.19180639,0.07214192,-0.08345373,-0.037648134,-0.14903776,-0.04122216,-0.13995111,-0.02137075,-0.15076157,-0.19130555,0.11576114,-0.1605427,0.29547593,-0.10366507,0.21602587,-0.0751242,-0.15702003,-0.051469944,-0.06848531,0.1591738,0.07803144,-0.056776695,-0.12234798,0.07860374,0.15310895
-0.2669488,-0.13510421,0.12772888,-0.08188153,-0.057030715,-0.022730585,-0.1509557,0.09905375,0.041732404,0.16046965,-0.27289462,-0.011433985,0.18495072,-0.09742491,-0.02253566,0.10615011,0.026571054,0.26278841,0.21571183,-0.033487163,-0.19656277,0.29910973,0.063074835,-0.042616636,-0.103803776,-0.15530936,-0.13697183,-0.0058668857,-0.072034426,0.10707388,-0.19080102,0.090961024,0.08741637,-0.039045412,-0.00042178185,-0.09865433,-0.24156238,-0.120490886,0.01837176,0.00718717,0.08484286,0.010449098,-0.03770851,0.214159,0.22298138,-0.06800647,-0.017324524,0.017161636,-0.14093773,-0.10914913,-0.06975354,0.031715456,-0.15691009,0.17546083,-0.19884233,-0.07175321,0.14724748,-0.019479683,-0.16992891,-0.04626747,-0.13038215,0.26264295,0.041541364,-0.19515797,0.11367042,0.118490174,0.065743566,0.033673186,-0.02382344,-0.09631318,-0.16181873,-0.039889395,0.11884135,0.16772735,-0.21846004,-0.2188077,0.27340654,-0.16099885,-0.16547106,0.040043846,-0.07836233,-0.36642173,0.04221592,-0.21713796,-0.032399625,0.0038863143,-0.09426677,0.003935726,0.06474389,-0.17786872,-0.046271943,-0.067754224,0.07317891,-0.062483206,0.058652658,-0.025636401,0.08945376,0.022829682,-0.010558886,-0.041081008
-0.15092072,-0.17305489,0.10518497,0.009597644,-0.18294328,-0.06876046,0.15763317,-0.26496595,-0.11781545,-0.08447225,0.032763373,-0.119904436,0.0714573,0.1399937,-0.012664199,0.16637771,0.03695252,0.18449554,-0.068350956,0.19809231,-0.028984014,-0.053025313,-0.115411304,-0.04842349,-0.013701298,-0.33066076,0.13435799,-0.09823499,0.013936437,0.018718418,0.059170574,-0.03208925,-0.27296308,0.029772822,0.11729891,0.028246164,-0.100302584,-0.19829752,0.061165433,0.20072147,0.08776009,0.10465027,0.072385564,0.08771069,-0.15763806,-0.10921955,-0.09329502,-0.060366433,-0.019762544,-0.18161452,0.00893058,-0.13286221,-0.003828492,0.15466452,0.07566608,-0.03226746,-0.11150502,0.20228776,0.14585045,-0.20042625,-0.15974101,-0.14904144,0.009408507,-0.056305535,0.20816231,-0.09867681,-0.20695564,0.046090096,0.20173928,-0.04091322,0.13555348,0.11411586,0.08256471,-0.16209513,-0.040367622,-0.2446247,0.16492733,0.08624476,-0.1542606,-0.068191044,-0.013776447,-0.19779707,-0.028782368,-0.1653682,0.04831295,0.30387163,-0.06723722,-0.19930096,0.19134937,-0.030336158,-0.21229103,0.24151869,-0.14538485,-0.05697077,-0.006764815,0.028906312,0.17207657,-0.113723606,-0.16934602,0.2372371
0.06149436,0.049248736,-0.087711275,-0.21679054,0.036968384,0.19235843,0.008628254,-0.22373813,0.023308028,-0.00035856446,0.21064231,-0.025172032,-0.12483523,0.065589786,-0.005061047,0.18776257,0.2708022,-0.16875729,-0.18686487,0.076557375,0.064447194,-0.2259261,0.14994256,0.11162453,0.087271474,0.13704483,-0.2173257,0.11717989,0.064598516,-0.061499327,-0.18439825,0.2138234,-0.0029602293,-0.120153055,0.066017486,0.12821937,-0.06052616,-0.029268995,0.071963534,0.20174019,-0.1405292,-0.022553826,0.014976807,0.012342096,0.30786398,0.1250571,0.23380432,0.07748859,0.105645366,0.3521991,0.084415846,0.14801317,0.12796302,0.03429631,0.003636411,-0.01471252,0.08774587,0.17366111,0.12576115,0.19607347,0.30345505,0.17505091,0.066182084,-0.0040142103,0.12582889,-0.040205203,0.21909833,-0.15105323,0.1889618,0.15034077,-0.08239805,-0.19887365,-0.0025234178,0.12014635,0.051527496,0.100436665,0.0777718,-0.021121565,-0.26086313,0.13132201,-0.16945182,-0.20501994,0.11543009,0.08562847,-0.04184842,-0.062444646,0.17865795,-0.15989073,-0.10112887,-0.1800768,0.24421966,-0.012784326,0.06141306,0.15884429,0.2811534,0.07197557,-0.052311145,0.010552194,0.1661963,-0.026069678
-0.1176076,-0.09335943,-0.061645,0.2871621,-0.27888903,-0.21322277,0.16642283,0.18243363,-0.17270581,0.115147196,0.288659,-0.07800705,0.029435271,-0.18107313,0.011686965,-0.09339656,-0.23164926,0.043751165,-0.054819096,-0.21840477,-0.14812739,0.12241703,-0.025832634,-0.15316845,-0.21460529,0.21715896,-0.17565641,0.010627694,-0.15547666,-0.10214819,-0.34553754,0.16203141,-0.17394647,0.124063365,0.3335016,-0.1392152,0.09201815,0.064126916,0.06951525,0.124884404,0.11427687,-0.0859087,-0.22286306,0.007698427,-0.033911705,-0.017437698,-0.0706653,-0.104711,-0.048713144,0.15045127,-0.17073819,-0.003700926,0.040295765,-0.18070273,0.032687034,-0.2226839,0.33642802,0.06332672,0.09037178,0.094637655,0.025077214,0.13924079,0.2546198,-0.12368925,-0.010542601,-0.0080453595,-0.096295245,0.10959672,-0.1262125,0.15293173,0.20085259,0.19441317,0.24556151,0.010375586,-0.02675434,0.24745686,-0.30772358,-0.010398295,0.16079608,-0.00233599,-0.19231226,-0.011434544,-0.10068402,-0.06994345,0.07556663,0.04709184,-0.10899447,0.33174455,-0.106367715,-0.09302019,-0.14879332,-0.2308694,0.07474815,0.06564063,-0.051576044,-0.1040545,0.053920183,0.062371157,0.046501692,-0.024586407
0.042119253,0.16017665,0.051483277,-0.22210848,-0.01885684,0.11711726,-0.124674,-0.14727637,0.038487412,-0.17576486,-0.02134742,-0.05612257,0.14917651,0.044218965,-0.10168946,0.0073958724,0.030981468,0.061321612,-0.07140111,0.15394671,-0.10516189,0.02973171,0.22836107,0.13327,-0.08236446,0.0037550034,0.022268437,0.06472948,0.02046299,0.11647832,0.027879588,0.14288674,0.0023100555,0.13414231,-0.22392766,0.0022609753,0.21439269,-0.10858506,0.05609952,0.06874785,0.04622821,-0.12802966,0.03007252,-0.04377568,0.03856853,0.26279497,0.16968209,-0.08027168,0.027844971,0.2304072,0.07124381,0.11251445,0.0743124,-0.008963732,0.16672567,-0.011454341,-0.042450037,0.08386789,0.17548841,0.060997233,0.10009917,-0.020200806,-0.16071564,-0.10811473,0.16598001,0.17585598,0.009615133,-0.04428635,-0.109211,0.1225025,-0.1934758,-0.026319606,-0.024780678,0.096304595,-0.11840865,0.23997653,-0.0018640925,-0.21557333,0.1368084,-0.05908618,0.057255387,0.2063355,0.028916812,0.3110771,0.23120281,0.23175468,0.061652783,-0.07454138,0.260951,-0.07895881,0.036591228,-0.1494242,-0.045583285,0.10302117,-0.17564714,-0.068273276,0.06748176,0.029385297,-0.117475905,0.0077166366
-0.042899556,-0.16151984,-0.15508683,-0.06285778,-0.18603402,-0.09294694,0.08639051,-0.11848565,0.19129531,-0.074258074,0.16027597,-0.10565547,0.092665486,-0.1053288,0.048400868,0.11830261,-0.036126584,0.22418219,-0.034163482,0.21671163,0.074239396,-0.021085463,-0.09207359,0.09193039,0.20492989,-0.10607554,0.073863365,0.11488974,0.08309743,0.1054011,0.13292027,-0.10277381,0.118284024,-0.21722123,-0.001772522,0.3090698,0.03311181,0.12551048,0.028356936,-0.027579699,0.029029276,-0.1419499,0.13935311,0.076212354,0.23615025,-0.17347229,-0.04179497,0.13253704,-0.11652357,0.1449245,0.14796638,-0.021418855,0.132327,0.2278742,-0.15510616,-0.03809491,-0.09853269,0.13009281,-0.011628603,0.029112427,0.12519239,0.08581229,0.14596778,-0.13143834,0.14506902,-0.25623137,0.05820782,0.0014692094,-0.037650216,0.19806825,0.09911523,-0.12203142,0.05588557,0.10481757,0.057911355,0.1929529,-0.018772487,0.23215215,-0.13885504,0.09877481,-0.12318348,0.11909794,-0.027077042,0.09015472,0.15289009,0.05753879,-0.15595661,0.14728956,-0.032812517,0.081892826,0.21547915,0.065239884,0.16019742,-0.0057483786,0.26207572,0.07703058,-0.121510245,-0.06775648,-0.107207954,-0.03630562
0.014166401,-0.13205941,0.008756818,-0.075038865,-0.08673952,-0.12909696,0.028175151,0.15836743,0.1761566,-0.07522809,0.01243514,0.21976075,0.019891705,0.03117864,0.0723231,-0.01776104,-0.04918594,-0.053991105,0.14071041,-0.014118851,-0.17418824,0.100514255,-0.11022789,-0.09938678,0.0064964658,-0.2295733,0.10049073,-0.13283499,0.19966221,-0.29192933,0.036937933,-0.14462061,0.13763545,-0.20447345,0.1898507,0.04795926,-0.10312544,0.02622172,0.032258783,0.025941852,-0.072680876,0.21431753,0.034445897,0.1263494,0.120090805,0.07753298,0.017514173,-0.32507992,0.051254943,0.02853909,-0.19757934,-0.20169124,0.091131635,-0.24644044,0.23614731,-0.041965567,-0.09525655,0.09660298,-0.043213516,-0.0040446986,0.19039129,-0.09852712,0.19297497,0.056263536,0.095717035,-0.26922598,-0.13409358,-0.24838227,-0.0070497156,-0.2838293,-0.059899848,-0.071339965,-0.1054193,-0.002980502,-0.1850471,-0.02315365,0.14502686,-0.14245884,0.14946076,-0.16427098,-0.05485399,-0.1057069,0.22670783,0.3631885,0.025542712,-0.14306213,-0.05815681,-0.2352854,-0.3660177,-0.050424214,0.06489866,-0.2575102,0.1289215,0.10943153,-0.020170817,0.11514766,-0.03566493,0.012507413,-0.0800977,0.042938553
0.23304005,-0.30606672,0.09271426,0.23660034,-0.017811585,-0.21906534,-0.06544142,-0.2527988,0.03067062,0.004974446,-0.13751426,0.07261871,-0.07222707,0.19107127,-0.10343582,-0.14226685,0.045083985,-0.07427096,0.10197958,-0.032743555,0.18999049,-0.07448258,0.02736595,-0.21073398,-0.056140184,0.19716479,0.07584947,-0.02469292,-0.29519212,0.17041647,0.25829446,0.11974131,0.25177273,-0.21742682,0.15990138,0.102643795,0.081221744,0.096004866,0.20986874,-0.0439362,0.081094086,0.056908704,-0.118564755,-0.013822719,0.046608478,0.1163482,-0.08270664,-0.08182065,-0.22905955,-0.089411095,0.078650944,-0.17893223,0.16640925,0.06466071,-0.24218675,-0.09080045,0.0094629675,-0.082908876,-0.2839548,-0.00065817125,0.066089,-0.17245142,-0.0677145,0.01416037,-0.13422672,0.059485376,0.24084453,0.2515825,0.21727191,-0.045396723,-0.023661027,-0.008872236,0.119078256,0.055553686,-0.19152865,0.03845671,-0.22152825,-0.092846416,0.1070188,0.068229795,-0.092006415,-0.04891296,0.09252866,0.025296547,0.09977042,-0.049216386,-0.2748069,0.08835287,-0.07719571,-0.15398481,0.054073464,-0.007896787,-0.14623734,-0.28512147,0.09762347,0.051186185,-0.0044079586,-0.06286074,0.05968574,-0.25864795
0.0991848,0.13890727,0.20056148,0.09777304,0.27022338,-0.24519752,-0.09134163,-0.041173324,-0.14306821,-0.105991624,0.09336299,-0.07019695,0.052425504,0.16982037,-0.1013657,-0.20654906,-0.2704969,0.21874125,-0.07831438,0.07179487,-0.08843318,-0.024419444,0.11322216,0.0946062,-0.112921916,-0.08280585,0.13783413,-0.06811403,-0.28969562,-0.12292881,0.22556837,0.09960985,0.21389082,-0.30986792,0.13197006,-0.067908816,0.15933551,-0.121058956,-0.18742299,0.04414917,-0.2438917,-0.037533507,0.09851383,-0.0013742296,0.17669824,-0.0020230622,-0.11759999,0.039861698,-0.16755843,-0.014783611,-0.1936599,0.09893767,-0.07555269,0.013579336,-0.07554455,0.31173623,-0.15274529,0.0002513686,-0.2487039,0.0865869,0.15377128,0.27224514,0.008377677,0.022140639,-0.03763975,-0.043254655,0.052714318,0.046563014,-0.23400266,-0.15140986,-0.20852667,-0.09685593,0.12657006,-0.13045225,0.008778121,-0.3404226,-0.25339782,-0.022303928,0.14392212,0.15026239,0.094891675,-0.05021841,0.046352662,-0.107419655,-0.1707682,0.22511813,0.12324242,0.025638022,-0.3452611,-0.07516355,-0.2070995,-0.09869345,0.19926883,0.11383648,-0.010782239,-0.04276696,0.03576619,-0.0013247591,0.10375774,0.08609881
0.02516283,0.076915346,-0.044164237,-0.11748244,-0.05703133,-0.04305672,-0.15329903,0.17129874,0.023239065,-0.014279732,-0.10788902,-0.063158445,-0.03339842,-0.10431444,-0.012008539,0.039885566,0.08814568,-0.11699008,-0.29297432,0.07109089,-0.07820537,-0.10449225,-0.10878875,-0.1875724,-0.20576279,-0.14270197,-0.011054197,0.037217893,-0.044888783,-0.128389,0.122231625,-0.10034352,0.083728306,-0.12969533,0.1182156,0.03102117,-0.027397074,0.2909053,0.070465624,0.08256384,0.28650397,-0.14595304,-0.23770867,-0.019390987,0.1217271,0.0005268946,-0.21463898,0.073407054,0.0053594294,0.056604974,-0.07415332,-0.102125205,0.13972865,0.14488098,-0.041056424,-0.25628966,-0.13776779,-0.033411395,0.05799371,-0.021647342,0.05172045,0.10851391,-0.048575696,0.050921835,0.08358383,0.04151558,0.0778452,0.2711331,0.18697426,-0.19700123,-0.016372351,-0.262341,-0.042493768,0.18612528,-0.07702382,-0.1609562,0.0020556527,-0.11162913,0.03894395,-0.07819098,-0.03065638,-0.1872266,0.02530464,0.24412097,-0.072491884,0.054167163,-0.05512713,0.21507937,-0.13298503,0.181856,-0.27089265,-0.036828715,0.13166818,0.038467173,-0.35235274,0.011713434,-0.30913538,0.056796536,-0.01895701,0.041656736
0.18439226,0.20144656,0.15403809,0.071661495,0.12327947,-0.0757323,0.2765849,0.1817213,-0.19453757,0.109059595,-0.08993057,0.0355091,-0.008374472,-0.040956322,0.040134598,-0.06354159,0.11305552,0.06239811,0.010643841,0.2847907,-0.0033815717,-0.07868652,-0.11114594,0.020865753,-0.20823921,0.22606629,0.14332101,0.050185394,-0.021664727,0.07767212,0.02022364,0.039678346,-0.17854606,0.13586995,0.13730468,-0.22668749,0.06495616,-0.040614504,-0.1558399,-0.011021785,0.11836767,0.06873961,-0.2519565,0.08538219,0.047081262,-0.16024059,0.2828977,0.1123509,0.008520553,0.041588508,-0.05687327,-0.06545849,-0.105623834,0.04322908,0.026874758,0.11608001,0.10532766,0.18506584,-0.2552093,-0.10744417,0.21888131,-0.05504612,0.09945437,0.1933647,-0.07711985,-0.18330887,-0.076683015,0.23705837,-0.216738,0.19979322,-0.08654723,0.13227275,0.029160341,-0.26901236,0.07486978,0.0946467,-0.08629637,-0.08679104,0.17896825,-0.04801208,-0.026961165,0.17161247,0.095716305,0.058540147,-0.24393183,0.03772038,0.034759685,0.12324617,0.103437446,-0.103102714,0.043403026,-0.014350406,-0.10825269,-0.16019025,-0.01289803,-0.03715344,0.26353973,-0.006545111,0.18388514,0.08165676
-0.0381352,-0.10689211,-0.14802423,-0.07432251,0.17777498,-0.047276292,-0.098394595,-0.1678192,0.23082292,0.02983844,0.016838297,-0.27100345,-0.0012070192,0.120055325,-0.2521048,0.24672233,-0.083151214,0.30931398,-0.15790877,-0.021268582,0.11355837,-0.1403192,-0.3398361,-0.024115488,0.09011415,0.06783854,0.05618075,0.1841389,-0.08391152,0.09726004,-0.24628489,-0.02346967,0.07998298,-0.04704435,0.0019668762,-0.20897093,0.12872355,-0.15204743,-0.10796027,0.016291376,0.13203242,-0.09303143,-0.0063530137,0.17363156,0.0024255468,-0.00804696,0.18259303,-0.093970545,-0.2939378,-0.074250035,0.09371141,0.009269193,-0.12947406,-0.001535455,-0.042706236,0.012449336,0.008589469,-0.08687114,0.12149416,0.1682186,0.051466327,-0.23903415,-0.1364896,0.11104312,-0.049897157,0.20696032,-0.042236004,-0.13934483,5.124961e-05,-0.09982674,0.14950147,0.025631243,0.0069930023,-0.24041699,0.0015497403,-0.26779,0.053518318,-0.18452601,-0.011877313,-0.042918712,0.013701621,-0.24129647,-0.023756042,-0.07476848,-0.038726535,-0.06313722,0.015946982,-0.12645933,0.28054497,-0.030606152,-0.0037469312,-0.1294062,0.16534923,-0.028431024,0.20208308,0.05656272,0.04390834,-0.20623511,-0.10827767,0.032107603
-0.0020093229,0.05400373,-0.18209542,-0.1038412,0.011059262,-0.111512244,0.08129624,-0.11207736,0.038002577,0.013712281,-0.15046638,0.09449052,0.041119862,-0.001520277,-0.21755373,-0.10403265,-0.24175324,0.035026502,0.12363331,-0.21299978,0.07181603,-0.18821934,0.004031107,-0.050222393,-0.18687935,0.20541477,0.16288495,0.08042337,0.04842511,-0.13624898,-0.26990637,0.15517522,0.041964453,0.029535605,-0.32710287,-0.14422122,-0.048387695,0.14767694,0.058176477,-0.27689835,0.14095616,0.13921298,0.030707533,0.017582243,0.039333515,0.15150706,-0.19424,0.19476452,-0.1414632,-0.044684287,-0.09392843,0.042748537,-0.15402378,0.052788522,-0.03043944,-0.17502476,-0.18610953,0.08856762,0.22249581,-0.14732201,-0.08276139,0.15256217,0.036549933,0.12969024,-0.16646965,-0.09035566,0.16107371,-0.16070479,-0.051195204,0.07384636,0.018028736,-0.17718175,-0.14141147,-0.107485205,0.0038597519,-0.068053134,-0.10595734,0.016204642,-0.019372514,-0.0037181063,0.043853052,-0.17116815,-0.11639625,-0.11780412,-0.15343998,-0.059945494,0.124669604,0.08778706,-0.06353536,0.16047886,0.05454003,0.0658183,0.07125989,-0.050462686,-0.04282989,0.08471326,0.13673376,-0.012640016,-0.0056335498,0.27357954
-0.0199369,0.000754483,-0.004950764,-0.008242502,0.10006716,-0.09055545,-0.33075145,-0.22921173,-0.1901964,-0.19951153,0.12778597,-0.1610264,0.15179299,-0.09916089,0.023094943,0.07575074,-0.24205147,0.20886578,0.0817336,-0.1537315,-0.02224098,0.014370639,-0.013710034,-0.059786726,0.007544314,0.17253189,0.0357582,0.1653432,0.009645262,0.16097695,-0.28227717,0.17272373,-0.06849787,0.16240104,0.0058379928,-0.252422,0.17096905,0.260706,0.14483489,-0.23714972,0.09899307,-0.044564962,0.0026246684,0.05522384,-0.14196289,0.011112073,-0.16450748,-0.19489665,0.0016400022,-0.024344213,-0.06020005,-0.07249212,-0.036536362,0.07458539,-0.0032253168,-0.12439485,-0.19098851,-0.0058443127,-0.10570798,-0.25280377,-0.16652274,0.046750177,-0.11448055,-0.03722096,-0.045649815,0.049529333,0.05739643,-0.031113338,0.012936227,0.06266138,0.022421066,-0.1087242,0.101594895,-0.10037067,-0.055341687,-0.13517916,0.104194514,-0.16613099,0.07958404,0.07296461,-0.083167486,-0.03856371,0.0829205,0.13980095,-0.12114298,0.16488864,0.20719314,0.023332812,-0.013455712,0.1889146,-0.08087453,-0.22907116,0.15260622,-0.21385995,0.043429866,0.17109612,-0.03174096,-0.06415368,0.10066411,0.19757444
