0
-0.08340238
-0.022961797
-0.04231415
-0.03540179
0.029527763
-0.020938486
-0.027766732
0.0012244354
-0.03127511
-0.043333527
-0.027892372
-0.010381592
0.0015681611
-0.058050342
-0.017884197
0.015243694
-0.023679113
-0.029321112
-0.009419041
-0.008488322
-0.033724938
-0.05411475
-0.022677349
-0.009077363
-0.008523941
0.004930193
-0.014328471
-0.022178832
0.012522312
0.0021056244
0.001858888
-0.021184945
0.032039974
0.057847362
-0.004963164
0.00374989
-0.027954409
-0.058493327
-0.0030168486
-0.009156899
0.0071601155
-0.021777472
0.010327438
0.0028803018
-0.027655255
-0.0471796
-0.060847443
0.0034292005
-0.058109898
-0.0009683268
0.0088621825
-0.045749217
-0.035241153
-0.014006963
-0.04413857
0.012137067
-0.0115066515
-0.023357444
-0.006574562
-0.046625346
-0.014314061
-6.368921e-05
-0.010884407
0.0016228312
-0.037302356
0.080507204
-0.01512316
-0.047104005
0.011317754
0.006270608
0.00057016
0.017637054
0.008586807
-0.030666916
-0.024898844
-0.06725502
-0.014129709
-0.052638665
0.0011608442
-0.04126226
-0.009076437
0.02358245
0.009195299
-0.014992002
-0.03275577
-0.080711424
-0.009243059
-0.009703478
-0.05574305
-0.037077703
-0.017899789
-0.026794111
0.013462034
0.0064992206
-0.049136627
0.051430393
-0.035001975
0.0075626182
0.010737665
-0.0092974575
