0
0.017396338
0.018342856
-0.08727042
-0.038000293
-0.084156856
-0.021124853
-0.017770065
-0.011863616
-0.010520981
-0.006863177
-0.033671997
-0.021848759
-0.037938584
-0.062989675
-0.063105114
-0.030245502
-0.0008384853
-0.07752991
-0.015018908
0.06278253
-0.080651015
-0.013004658
-0.011430444
-0.05118442
0.002767447
-0.06970828
-0.016143
-0.07037849
0.008893554
0.04434554
-0.049624432
0.03929535
-0.024980385
-0.022697411
-0.04588617
-0.034387574
-0.014687244
-0.008936943
0.033958532
-0.012447429
-0.0027612632
-0.041721247
-0.002931828
-0.030639665
-0.032535084
-0.014908426
0.012676432
-0.026057595
-0.006464981
-0.0478752
-0.021315902
-0.019503204
-0.015612564
-0.026488528
0.023958484
-0.04288557
-0.033322535
-0.049329553
-0.002367077
0.035431545
-0.015717614
-0.052361615
-0.0106730275
0.018496567
0.017513003
-0.05984488
-0.026349252
-0.018377213
-0.013035431
-0.027099798
-0.0611302
-0.025877614
-0.08059653
-0.00030862523
-0.024142854
-0.034010537
-0.05548234
0.03214602
-0.061000835
-0.034722824
0.0023338872
-0.055740673
-0.022758482
-0.03620491
-0.02403846
-0.039005637
0.0077706696
0.00083212863
-0.034776945
-0.029856341
0.0074762884
-0.029721616
-0.042191267
-0.0047636945
0.031011855
-0.01813139
0.006138231
-0.05274989
-0.03810632
-0.052720986
