0
-0.14979073
0.2803155
0.3501916
-0.08754984
0.15985079
-0.15068816
0.43065405
0.022398124
-0.33139807
-0.24052222
-0.30328393
-0.19133276
-0.11739195
0.05193399
-0.17590693
0.01910359
-0.16840105
0.21843679
-0.09965839
0.20391576
-0.32760367
0.19599803
-0.2405059
0.5141723
0.05940755
0.043105442
-0.3830188
-0.13021626
-0.08045948
-0.5406003
-0.11918781
-0.03196379
0.11759733
-0.042193927
0.36376354
-0.12983346
-0.17363955
0.48335236
0.61265296
0.101757765
-0.10857341
0.003877195
-0.40545094
0.001036796
0.21903442
0.15044016
-0.27096373
-0.03380579
-0.091992244
0.010526272
-0.2422177
0.41558838
0.23318727
-0.17104918
0.289904
0.30114254
0.155316
-0.30446535
-0.07399862
0.03496603
-0.15626928
-0.1694202
-0.022356255
0.073804535
0.15607148
-0.038009267
0.119189866
0.07342875
-0.22479169
0.026580663
0.034588683
0.11282275
-0.058216162
0.35019422
-0.4519072
0.20852138
0.059652336
0.071546756
0.18177326
0.104786664
0.2097752
-0.2927022
-0.13253826
0.4323835
0.2844951
0.51055896
-0.2828609
0.32285103
-0.08851041
-0.13083267
0.24048722
-0.017027006
-0.27346867
0.20100752
-0.14946346
-0.36513776
-0.042891543
0.08927842
-0.06046353
0.005938138
