0
-0.000996984
0.0005607442
-0.00033656388
0.0009495935
-0.0004750431
0.0011912158
0.0012711543
-0.0006662684
-0.00017413497
0.0023658178
0.0007767105
0.0006613236
0.0009956605
-0.0017581164
-0.0008262447
0.00076655095
0.00032875277
0.0009709011
0.0012893346
0.0005232941
-0.0019966052
-0.00019988956
-0.00012374046
-0.0011933235
-0.00026506316
0.00033431477
0.002313699
-0.0016870649
0.00062957086
-0.00087351754
-0.0010158478
-0.0010593048
8.8643144e-05
0.00070276705
0.00020803361
0.0015812761
-0.0010533483
0.00020906568
-0.0013341497
-0.0001961137
0.0016424726
-0.0016723886
0.0007622287
0.0020893614
-0.00080731564
0.00094318466
-0.00091282127
-0.00097232225
0.0012234524
0.0013327097
0.001309596
0.00037308686
0.003646601
0.0010256801
0.000617095
-0.0010541831
0.00011559214
-0.0020076148
0.0013568664
-9.952705e-05
0.0016755874
-0.00023934868
0.0012666007
-0.0012494419
-7.607972e-05
0.00013692088
0.00033128212
-0.00029791574
0.0021346551
-0.00041360283
-0.00046424093
-0.0018309053
0.000459069
0.0015917271
-0.0007889438
-0.0025072615
-0.0022507934
0.00090746704
-0.00088077143
-0.0020692807
0.00074503414
0.0010211051
0.00034521974
-0.00067943626
0.0016801567
0.00078630896
0.0013550748
0.0015718213
0.00062468264
0.0005642862
0.00094189856
0.00142667
-0.00090997794
0.0008896596
0.0008925833
-0.00031626265
0.00016888815
0.00053789845
1.6773283e-05
0.00264853
