0
-0.16371103
-0.03392505
0.16079588
0.11202699
-0.23522994
-0.18489836
-0.15280375
-0.3325967
-0.19021823
0.38227266
-0.25251636
-0.21138941
-0.13564172
-0.11084392
0.18431851
0.32212052
-0.047133636
-0.26546302
0.0017185478
-0.16581717
-0.079679154
-0.07080616
-0.07101908
-0.24208933
-0.1604553
-0.07577918
-0.21907006
-0.20120382
0.06337495
0.10875498
-0.38017014
-0.30130664
-0.1258483
0.45674568
-0.09009421
0.5780256
0.27706793
0.18900353
0.12758768
0.080316566
0.2767937
-0.047006663
0.042586595
0.16038097
-0.11656118
-0.16307953
-0.21301788
0.22404073
-0.040938884
0.19067487
0.48742804
0.15318723
-0.1763617
-0.100972414
0.05454064
0.43738055
0.051834844
-0.19101131
-0.022914857
-0.13784845
-0.05085797
-0.15536329
-0.114067554
-0.36790764
0.35162348
0.37508488
0.18323115
-0.15002596
-0.08333154
-0.11236967
-0.24318436
-0.23400491
0.038687795
-0.40554443
0.1481143
-0.14526047
-0.62179697
-0.3696015
0.05006366
0.12239814
0.2641404
0.25679803
-0.113690905
-0.10281546
-0.046915084
-0.178005
0.00966796
-0.1701131
0.10493623
0.17329104
-0.08756002
-0.023371324
0.39648905
0.1663622
0.38455993
0.22719632
0.2730761
-0.0051711057
-0.21565413
-0.27989754
