0
-0.030425956
0.020967897
-0.008418825
-0.0378634
-0.019610222
-0.059656207
-0.02783941
0.056957908
-0.017368756
-0.038702402
0.007861722
-0.0005125861
-0.00525354
-0.0236043
0.026581068
0.01790192
-0.020346973
-0.046379816
0.055224612
-0.021046637
0.05764891
0.010758487
-0.06653028
0.030527689
-0.0013748277
-0.040267333
-0.025877215
-0.006471504
-0.022728372
-0.02521124
-0.023393285
-0.04695851
0.02952519
-0.011838192
-0.010521
-0.02834049
0.013193467
0.0064431587
-0.016287923
0.00068630534
-0.024850572
0.029603802
-0.0107551515
-0.03717063
-0.005473316
-0.02148221
0.006562152
-0.004688845
0.01500902
0.020569269
0.0021753495
-0.013503168
0.007501605
-0.0055860355
0.01297377
-0.008687216
0.03335884
0.041849613
0.05285648
-0.02525022
-0.00100131
-0.008964409
-0.036336556
-0.04676231
0.035864376
0.042145476
0.032473594
-0.048010007
-0.027964639
0.011929319
-0.021704342
-0.0080772815
-0.003194589
-0.0018493576
-0.016514102
-0.05358015
0.0040959315
0.01752836
0.025200231
-0.0029161028
0.004977177
-0.02067922
-0.009145727
-0.03637252
-0.020979278
-0.023511214
-0.027780736
-0.06828693
-0.0053198705
-0.0123257935
-0.028220912
0.023725886
-0.0075063226
0.061159167
0.02281725
-0.0175003
0.01156272
-0.008355488
0.037441455
0.025677359
