0
0.15845078
0.07473827
0.11742337
-0.17363724
0.092605375
0.059885073
-0.048989005
0.028937476
-0.121744536
-0.1354736
-0.22361109
0.14148043
-0.025409412
0.059923485
-0.027957628
0.32262802
-0.06729321
-0.100268565
-0.124484114
0.024481973
-0.134772
-0.22881298
-0.21186689
0.12530813
-0.11677998
-0.059784617
-0.24459201
0.080499634
-0.1389662
0.049917758
-0.007109568
-0.1733749
0.15318297
-0.17238311
0.13442203
-0.048501864
-0.13362512
-0.077684075
-0.2607473
-0.07085282
-0.041122682
-0.00872889
0.1721625
0.30999306
-0.3843191
-0.040426813
-0.15864868
0.3517841
0.041169543
0.41731548
-0.25444072
0.20754737
-0.21838047
-0.3147645
-0.18167956
0.028770573
-0.03028742
-0.114769764
0.031376395
-0.2246967
0.28892067
0.064688556
-0.17979556
0.37685603
0.09532157
0.1941244
0.01943672
0.27954713
0.037806395
-0.015809704
-0.050050948
-0.008390348
0.07754551
-0.12382784
0.13698265
-0.15373825
-0.007030379
0.08728723
-0.08931687
0.25304604
-0.04293043
0.25077495
0.023000244
-0.27172992
0.25749686
0.072832026
0.016975883
-0.32823572
0.07056454
-0.062466986
0.42879456
-0.182757
0.035460703
0.10499628
-0.03135791
0.02277695
-0.26762617
0.017234448
-0.1628545
0.21183966
