0
0.084953114
-0.16326803
-0.19965981
-0.05211986
-0.1656798
0.30360344
-0.15803307
0.16616224
0.075717196
0.12932988
-0.05361242
-0.10206884
-0.13423955
0.13224965
0.33443302
0.06788026
0.13775435
0.08848926
-0.10406965
0.18640697
-0.08086433
0.04190946
0.001234518
-0.23298083
0.08899534
0.08714709
0.035241652
0.014284518
-0.37891477
0.042618882
0.099691525
-0.02182867
0.122439615
-0.03978215
-0.08230406
-0.22611722
-0.23048267
-0.20675401
-0.055737745
0.10629807
-0.024073351
-0.08649469
0.27983737
-0.23173691
0.3552482
0.19774924
-0.29791862
-0.061132908
0.124797255
-0.046469137
-0.0810891
-0.011529048
0.10161734
-0.08611268
-0.13523746
0.18527913
0.0982856
-0.029605068
0.48454773
0.11298095
0.0452686
0.21901177
0.0032433062
0.019434068
-0.31441838
-0.19379728
0.11556154
0.07172487
0.031496756
0.045503102
0.21831667
-0.15114906
-0.021980943
-0.1774073
-0.12750386
-0.23013711
-0.19068052
0.20685232
0.31429672
0.098313615
0.18136568
-0.23126414
0.11089096
-0.2958908
0.04397762
0.122267455
0.092525974
0.13952659
0.10861933
-0.3599447
-0.34359413
0.26927233
0.12197498
-0.0019041685
0.026963944
0.020436728
-0.160234
0.43720824
-0.11924257
-0.17032796
