0
-0.12532349
-0.17359771
-0.076107375
-0.04197293
-0.24316074
-0.08985617
-0.3615687
0.047466137
0.03030023
-0.21772467
0.3900492
-0.062996514
0.09982317
0.020668399
0.14894839
-0.060643643
-0.22475035
0.034327667
-0.08136628
-0.10435442
-0.035222948
-0.08518983
0.12537733
0.17864332
0.11680901
-0.015623515
0.01235049
0.026966548
0.084624924
0.15419994
-0.21331331
-0.32866237
0.16527057
0.4852871
0.00031715466
-0.3034866
-0.018278671
0.3825279
0.036197804
0.27107188
0.17114788
-0.0651698
-0.33075947
0.04550565
-0.26237386
0.040172372
0.275502
-0.15917611
-0.012646497
-0.60177064
0.00569261
0.15400156
-0.49266526
-0.086190954
-0.0022187217
-0.07538267
0.13295987
0.07119683
-0.052898474
0.21853179
0.21570545
0.0047861277
-0.1073613
-0.2020161
0.018534604
0.36518905
0.11579282
-0.33372837
0.18956834
0.2796716
0.08524163
-0.12081835
0.19784755
0.021841707
0.23038602
0.023884209
-0.26412234
0.11040717
-0.1943879
0.17589675
-0.1338094
-0.26897645
-0.16937488
0.1250393
0.43501675
0.1526675
-0.1392532
0.30652502
-0.19076443
-0.14503758
0.26379773
0.07107448
-0.28884915
-0.28213423
-0.23241912
0.07901815
-0.015488418
-0.06715215
0.29434505
-0.24589819
