0
-0.18460603
0.14250301
0.07183306
-0.5685976
0.1656558
0.14844616
0.08213734
-0.300229
0.11271516
-0.33809382
-0.14123109
0.034263425
-0.18166535
-0.12561105
0.12693188
0.0348678
-0.05025217
0.051347528
0.14795116
-0.06925628
-0.11417766
-0.15666103
-0.13059443
0.20425397
0.04077446
-0.26536188
-0.20551957
-0.2199046
0.05168569
0.040496137
0.20808889
0.4226228
0.05178266
0.15225875
-0.057022497
0.25606245
0.04295237
-0.18150973
0.17657116
-0.010528339
-0.04213569
-0.036503162
0.38323733
0.033803053
0.0926152
-0.22626786
-0.056757092
0.021654878
-0.18782574
-0.057771653
-0.20382524
-0.10790369
-0.20270875
0.1275309
-0.12102642
-0.10242729
-0.058015987
-0.36274448
0.3058769
0.10195278
-0.16746286
-0.16802157
-0.40479633
-0.056258023
-0.25177255
-0.13238446
-0.17663491
-0.02087854
0.11416488
-0.30275545
0.300266
-0.12865718
0.44319114
0.20301056
-0.31004697
0.034873217
0.19257767
0.12170246
0.14408481
-0.051423036
0.07830087
0.099797025
-0.2537891
0.24112852
-0.067457624
-0.10030657
0.09600141
-0.23796038
-0.29516882
0.24608918
0.065992996
0.056743763
0.19444169
-0.20858668
0.29055917
-0.16263506
-0.30642998
-0.21392241
0.019659141
-0.07450718
