0
-0.04321185
-0.1820275
-0.085615024
0.027182959
-0.27620614
-0.061265092
0.18073799
0.33281127
-0.35760278
-0.37678155
0.18988027
0.23981255
0.27201712
0.11167518
-0.013356789
0.013218338
0.34318474
-0.27520484
0.027095148
-0.44308278
0.025307553
0.28887978
0.33409482
0.054493945
-0.071887515
-0.076658525
-0.25637773
-0.15739337
-0.18219961
-0.47988164
0.22957847
-0.17911416
0.45467186
0.3386594
0.3661635
-0.0641988
-0.10288746
0.28524497
0.07652626
0.043911282
-0.09060579
-0.17045338
-0.032417607
-0.1637446
0.0062845796
-0.030015564
-0.06319752
0.008528874
-0.1913976
-0.15581314
-0.20405978
-0.07425194
0.09757851
0.42547318
0.00681537
0.18228178
0.03264411
0.19333579
-0.21873915
-0.41492757
-0.28737023
0.046756115
0.14825211
0.22183451
-0.116324075
0.2363919
0.16665882
0.0020676425
-0.008024178
-0.23976605
-0.12147467
0.10557751
0.050880518
-0.24680571
0.23488311
0.09646506
-0.083943866
0.11772041
-0.38853246
0.09371096
0.0057950993
-0.07266344
0.5602654
0.0018933747
0.13596886
0.14874144
0.00979162
-0.008204635
-0.06958748
0.1891541
0.17212465
0.101609714
-0.1306172
-0.0777276
-0.01352361
0.22394966
-0.37927562
0.11025951
0.14206801
-0.13090865
