0
-0.02952183
0.0292037
0.0075751124
-0.053931624
-0.0061237076
-0.043307424
-0.02349312
-0.05446496
-0.060241845
-0.004225312
0.02288432
-0.049559183
-0.01080274
0.041404493
0.031987425
0.00096407474
-0.08105453
-0.047091007
0.05716314
-0.014056963
-0.061349113
-0.038532875
0.03129298
-0.01380571
0.024329623
-0.122520775
-0.020965992
0.009151231
-0.0009397616
-0.01482843
-0.08594078
-0.09067833
-0.06246906
-0.017759267
-0.07603567
-0.06340217
-0.055016756
-0.03196945
-0.096436955
-0.047950413
-0.009674435
-0.08507595
-0.0057432964
-0.0410454
-0.043649185
0.045052413
0.00068342127
-0.06941355
-0.0029801722
0.06316265
-0.029697213
-0.015054541
-0.029167628
-0.02732734
0.0056635723
-0.030597676
-0.08704382
-0.06860303
-0.034662087
-0.046186164
-0.0264521
-0.046995595
0.016107963
-0.023947395
-0.086679935
-0.03880147
-0.041959938
-0.07798775
-0.015107428
-0.013356882
-0.09585746
-0.04280269
0.009709065
-0.07508363
-0.039752167
-0.035396714
-0.05420068
-0.050455585
-0.0148704555
-0.056853812
-0.06363643
0.009042759
0.042029683
-0.035322797
-0.020961208
-0.060277354
-0.0054054004
-0.008328663
0.009139988
-0.12450284
-0.05945136
-0.0049590888
-0.006156543
-0.038671702
-0.02219976
-0.008564988
-0.04489596
0.02815209
-0.010390397
-0.08606211
