0
0.015672509
-0.029720388
-0.0035417622
-0.013671634
0.022873335
0.032694597
-0.010725623
0.035694405
-0.0010853856
-0.046743087
-0.02140431
-0.046483368
-0.026401639
-0.012237768
-0.010878445
-0.0398939
-0.03653353
0.037668962
-0.025720367
0.0059255925
-0.04204702
0.03460118
-0.024912285
-0.060526274
-0.024436535
0.006313593
-0.041800033
-0.0073785717
0.004172574
-0.044608574
-0.051294636
-0.018036356
-0.023620732
-0.04510429
-0.038213395
-0.00937262
-0.05734672
-0.032512564
-0.026646374
-0.022764249
-0.02905058
-0.03325114
-0.029149765
-0.0736464
-0.016984934
-0.06254254
0.001987417
-0.021106718
-0.04363538
-0.06754511
-0.066500135
0.01450423
-0.0074522733
0.01600816
-0.031321853
0.0041371025
0.013251524
-0.007677034
-0.019671572
-0.0359286
0.009069748
-0.039707854
-0.047301296
-0.028288784
-0.009072794
-0.05547828
0.0011667797
-0.051314045
-0.02404
-0.030175555
-0.011912087
0.02751067
-0.039884385
-0.07002037
-0.026193649
-0.017865926
-0.00260042
-0.056130417
-0.048522037
-0.06946257
-0.021672133
-0.044097673
-0.015327465
-0.08879068
0.0137470905
-0.0004941332
-0.020443635
-7.664075e-05
-0.0049772044
-0.0033568267
-0.01844291
-0.011736595
0.028033452
-0.010118526
-0.029446924
-0.045794763
-0.014046573
0.02858538
-0.039413046
-0.034305546
