0
-0.031695213
0.008891791
0.010658121
-0.019753834
-0.013673011
-0.008304919
0.0067213746
-0.012134834
0.010596653
-0.019423427
-0.028858788
-0.025011178
-0.03880212
0.005773488
-0.006156445
0.040995505
-0.050453283
0.032868195
0.005851424
0.0052182684
-0.013716119
0.012154348
-0.035269
-0.023349453
-0.025158735
0.06708381
0.016098311
-0.007087911
-0.09539567
-0.07508738
-0.05595223
-0.015500401
-0.003478032
0.01731047
0.017484143
-0.087930396
-0.0698822
-0.02095634
0.025657855
-0.07288809
0.022317521
-0.007976394
0.0146270385
-0.02139334
-0.016428916
0.05228126
-0.0008166279
-0.020252265
-0.017105708
-0.060415134
0.033533603
-0.046801887
0.01823449
-0.029636271
-0.0313804
-0.0006069795
0.0141874645
0.00082363107
0.01454295
0.013795467
-0.08841318
-0.021822846
0.0076418263
0.01601758
0.036442265
-0.022553597
-0.056231614
-0.040359523
0.03242718
0.0100422995
-0.04243945
-0.038622834
0.012857758
-0.046957143
-0.033902165
-0.014200291
-0.049249258
0.022249522
-0.040755346
-0.024222808
-0.00095801556
-0.029446485
0.035453964
-0.00013241582
0.02499322
-0.019686624
0.0027392672
-0.0022924053
-0.0321573
-0.031210318
-0.016078046
-0.018355876
-0.043622
-0.007087891
-0.03821936
0.019780127
-0.02753811
-0.014975183
0.0040938286
-0.043784466
