0
-0.011514318
-0.17707822
0.26318213
0.08079751
0.036012236
-0.14911963
0.11885513
-0.17840807
-0.14894904
-0.11580521
0.05336136
-0.28371564
-0.049551293
0.10615311
0.37687802
0.6739223
0.39787027
-0.048528645
0.061154947
0.24891497
-0.12886089
0.23939168
-0.17742416
0.2530983
0.2050218
-0.3054523
-0.35210472
-0.22229324
0.37475315
-0.1260403
0.17970562
0.092262946
0.081367195
-0.16969843
-0.112458445
-0.016689213
-0.1764145
-0.029397711
0.19881457
0.20735238
0.4040652
-0.06281015
-0.11914992
0.027974
-0.10631684
-0.19327678
0.25106865
-0.38928398
-0.30974454
-0.11270813
0.025766397
-0.22488153
0.0040711663
0.031505838
-0.32940534
0.14725605
0.35221776
0.10733761
-0.007235162
0.30447468
-0.39869583
-0.07007256
0.036518984
-0.19570635
-0.08092971
0.42554322
0.184312
-0.1314698
-0.059956674
-0.16183259
-0.0141083505
-0.086078845
-0.10282894
-0.053216264
0.5194134
0.6097997
0.18054208
0.11134568
0.14628081
0.2746903
-0.12852108
0.1755705
-0.08628253
0.23255025
0.14174949
-0.070193335
-0.19398831
0.05345598
-0.05982836
-0.005852272
0.22805898
-0.11231754
0.050944965
-0.10667952
-0.1895371
0.12350579
-0.69206953
0.3558193
-0.10728577
-0.06054021
