0
-0.012096952
0.004657441
0.0050950814
-0.003452358
-9.262405e-05
-0.00015252706
-0.0021802615
-0.0026862987
-0.00342105
-0.005173536
-7.775414e-05
0.0007183852
-0.0029604323
-0.0002844623
0.0036833563
0.0031710137
0.00016510981
9.332184e-05
0.0026768548
-0.0014298069
0.003293061
6.6363384e-05
-0.00049294665
0.00035150634
-0.0012647398
0.0010526171
0.0017388299
-0.0012874771
-0.0009617833
-0.00012363763
0.0021025687
-0.0005950009
0.00057564944
-0.0003763857
-0.00289716
0.0007245606
0.00022197652
-0.00031821
-0.00179332
0.00040637236
-0.0013778991
0.00072160584
-0.0014372431
0.00093761
-0.0017242029
-0.0017511339
-0.00025897153
0.00041132147
-0.0005812187
0.0004702487
0.0014380831
0.0007300233
-0.00025419932
0.00072907424
-0.0012720411
0.0011869675
0.0008640818
0.00049400557
0.00038517156
0.000882762
-0.0010629398
-0.00027242416
0.00018017442
0.0017382042
0.00038420394
0.00041649374
-0.000893792
0.00013110391
0.0022577855
5.123463e-05
-3.8996746e-05
0.0008748324
-0.00047785894
0.0009980217
-0.00051398197
-0.0003344891
0.0011960086
0.00039492428
0.00074488105
-0.0004448027
0.00018199135
-0.00078639074
-0.0008336731
0.0005848789
-0.0003387402
-0.00064061116
-0.00075728376
-0.00011903297
-0.0003781407
-3.8126305e-05
0.00019880186
0.0006966451
0.0004859384
0.00020850037
-0.00034191346
-0.0005100517
6.0972176e-05
-0.0007869273
-0.0017033298
-0.00030098553
-0.0002869327
-0.00024455154
-1.2729404e-05
0.00014546399
-0.0010223839
0.00014121982
0.00018125861
-9.56549e-05
-0.00021259187
8.0622456e-05
-0.00039562827
-0.00023609115
-0.000659455
0.0008070231
0.00020050764
0.0006503656
0.00039838834
0.0002788569
-0.00024235935
-7.3355695e-06
-0.0005458093
0.0004762102
0.000503673
-0.00063734065
3.2206124e-05
-0.0008320535
6.527736e-05
0.0001869294
-0.00046163966
0.0005135999
-0.0005484754
0.0008164573
-0.0003360015
-0.00044073898
0.00037380273
0.0010235043
-0.00067461596
-2.8546798e-05
-0.00041998684
-0.00039146194
6.036516e-05
0.0006573955
0.0004674073
0.0005359978
-0.00042555103
0.00058095844
0.00025481737
0.00064188475
-0.00032757845
-0.00025800057
0.0004804234
0.00019864389
0.00029340485
-0.0002531967
0.00024491915
-5.9682963e-05
-0.0001024569
1.0768599e-05
0.00013922786
0.0007433028
-0.0006140701
-0.0013780417
-0.0006343439
-0.0006387508
0.0005858187
-0.00028430714
-3.2830103e-05
0.00032761582
0.00043625783
0.00030000877
-0.0002800644
6.89853e-05
0.00027131115
-5.7941812e-05
-0.00010476944
0.00084683887
-0.0005198932
-0.0007865766
-8.8719054e-05
0.00017569904
-0.00021008609
0.00047189032
-6.8936075e-05
0.0006005806
-0.00030848454
0.0006281645
4.5675813e-05
-0.00061773736
-0.00044980316
0.00011000845
4.017372e-05
0.00010813154
0.00044176067
9.792095e-05
6.392076e-05
-0.0004063649
0.0005240745
0.0004446094
-0.000139246
0.00066320715
0.00054335693
0.00024613843
-0.00063338317
0.00055752404
0.00012848339
-0.00024459322
-0.00032419167
0.00032982978
6.5966145e-05
-0.0004157308
-0.0005899929
0.0007999299
0.00015640323
-0.00044647232
2.888526e-05
0.0003907197
0.00012054018
-0.00041650952
-0.00017132968
0.0003981925
-4.7722624e-05
-0.0004826772
-0.0002258039
-0.00058333814
-0.00011549075
-7.321655e-05
-5.7900084e-05
2.3639142e-05
-0.00025335676
-0.00040621805
-0.00037593697
0.00026075915
0.00023265326
0.00055067206
-0.00013766022
0.00016207056
7.1448085e-05
0.00017293822
-0.00042550272
-0.00031140892
0.00016640368
-0.00011969349
-0.00018025884
-0.00018000806
-0.0002983674
-0.00033447595
-0.00018375026
0.0003172413
0.0004761894
-0.00030721357
0.000390479
0.0004706633
2.0612199e-05
0.0001342435
-0.0002321229
0.00036646955
-0.00071083335
5.240208e-05
-0.00017835363
0.0003256361
-0.00034364854
7.4197014e-05
-0.00020546324
-0.0007562593
-0.00010207175
0.00015164833
6.928797e-05
-0.00013770061
-0.00021432959
0.00038778552
0.00022792074
-5.891634e-06
9.5358555e-05
-4.661698e-05
-0.00046261467
2.5990275e-05
-3.809579e-05
-0.00041165817
0.00057324406
-0.00047774464
-0.00037562917
-0.00036274534
-0.000307476
0.00022924208
-0.00030142788
-2.244116e-05
-0.00039305992
5.7654812e-05
0.00013063342
0.0005691015
0.00023873904
-0.00014810309
-0.00028788013
0.00018593844
-9.0326386e-05
0.00029788408
0.00012350049
0.00041184982
-0.00011078625
-0.00025293938
-0.0003695768
-0.00026551698
1.6554513e-05
0.00016642935
0.00012638881
7.485496e-05
-2.8045659e-05
-0.00025129126
0.00030829126
0.00010771649
-2.4747416e-05
0.00041977485
0.00034924463
0.00010743545
-0.0004445368
8.550423e-05
0.0001911876
0.00012538065
0.00019780666
-0.00011527127
1.1527685e-05
7.715584e-05
0.00018326181
0.00014640622
0.00033411355
0.0005001656
0.00046362026
-0.00037113175
0.00011337105
-2.6083086e-05
-7.393046e-05
-7.938275e-05
-0.00010285272
0.00042643616
-0.0004283343
-9.870523e-05
0.00011162931
0.0003640177
0.00030725557
1.7510702e-05
4.3353764e-05
0.00015851243
0.00038681517
-0.00028352166
-0.00048370572
-1.829407e-05
0.00011009599
1.9088362e-05
-0.00044154172
0.0002502617
0.00016362975
2.668472e-06
0.00014199359
0.00022317319
-0.00015637536
-0.00011630962
0.00021439388
0.00033708426
-9.696737e-05
0.0002468084
-4.4098146e-05
0.00025289063
0.00027631468
-0.00029625627
4.4329343e-05
-0.0002686916
-0.00024644204
-3.8575545e-05
0.00025218172
0.00053442223
2.4964134e-05
-8.487523e-05
-1.6830436e-05
0.00019069188
-0.00030929458
-0.000104664636
-0.00020407424
0.00033819085
-0.0003731667
0.00011056037
-0.00044579498
-0.00015440464
0.000207701
0.00026418094
0.00020893427
-0.00016401989
-0.00010301573
6.478351e-05
-3.0025669e-05
0.00020784912
6.749196e-05
-0.00011537475
-0.00036427382
-0.000117151925
-0.00015105178
-0.000106361374
0.00040724062
-0.0001518139
-0.000256832
-0.00041030772
-0.0006253925
8.27997e-05
0.00036005393
-0.00018953408
0.0002830402
0.0003062246
-0.00049868383
0.00014120268
-8.637658e-05
-0.00034508444
-0.00017870823
-8.268736e-05
-0.00048273566
1.3652981e-05
0.00012502685
0.00020621967
7.096887e-05
-0.0006141743
-9.754596e-05
-0.00046120537
-0.00038469606
-0.00012819152
9.268361e-05
-0.00017895977
0.000294821
-7.662267e-05
1.7467772e-05
-0.00033304899
-4.4558055e-05
9.162926e-06
1.1791059e-05
0.00022246114
0.00021439184
-4.052963e-05
-0.0005080866
3.9231698e-05
-0.00023571975
-5.196689e-07
-9.685733e-06
-0.0003583963
-2.5543291e-05
-0.000250563
0.00014178279
4.6312976e-05
-0.000114365095
9.3738694e-05
5.9833143e-05
-1.878574e-05
-9.6366064e-05
-0.000115270646
0.00020123646
6.809332e-05
5.6662095e-05
0.00034091264
5.5643093e-05
0.00015446561
-3.6095793e-05
0.00016141406
0.0001052315
0.00010829802
8.862336e-05
-1.2191333e-05
-5.976952e-06
-6.367679e-05
-0.00017338493
-8.336728e-05
0.00012775036
-0.0001608834
5.4044023e-05
-0.00027751207
-0.00037728678
9.297964e-05
0.00024195526
6.3647516e-05
-8.37885e-05
2.9238981e-05
-6.811315e-05
-7.7766264e-05
-0.00016184847
0.00043843553
6.382671e-05
5.3634503e-05
7.899139e-05
0.00024313052
0.000111829824
-0.0001434913
0.0003536582
-7.89038e-05
-6.0206366e-05
-0.0001553571
-7.808155e-05
2.9124822e-06
0.00024873286
-2.529414e-06
-0.00014539006
4.2721433e-05
-5.118103e-05
-7.869223e-05
0.00021018155
-0.00015752856
0.00015454873
7.564361e-05
-5.3265172e-05
0.0002775671
6.3283485e-05
-7.699497e-05
-0.00011588562
-0.00019654693
0.00014345099
-0.00017150221
9.8438766e-05
-0.00029135618
4.5423396e-05
0.00038625087
-8.542798e-05
-4.029154e-05
-7.8785546e-05
-9.221888e-05
0.00015202508
0.00028943818
6.363212e-05
3.2820408e-06
0.00015920907
0.0004064538
-0.00010703655
3.6523386e-05
-5.600728e-05
0.00019901428
-7.80003e-05
7.8603814e-05
-0.00010484763
7.5580374e-06
-2.923304e-05
-0.0002021974
-0.00017723023
-2.1555534e-05
-0.00022522944
-0.00027670077
7.940528e-05
3.00588e-05
-0.00022372398
8.5657295e-05
-0.00037738305
0.00022280138
0.0003514062
6.4427426e-05
-0.00015593639
-0.00015881936
0.00014629558
-0.00029163924
-5.9737697e-05
0.0001019599
-5.1417304e-05
0.0002634739
2.8966835e-05
1.1343474e-05
6.181821e-05
0.00024573557
0.00023004218
0.00017969293
-0.00022374501
0.00012932772
1.8181006e-05
-0.00018357029
-0.00012007953
-8.264746e-05
-3.555439e-05
1.768244e-05
-1.08353925e-05
-0.00016958323
-0.00018093549
0.00020709203
-0.00018653262
0.00030260612
-0.0004241633
7.502929e-05
0.00019908763
-0.00011130479
-9.334179e-05
6.690669e-05
0.000103283244
-1.8249943e-05
0.00010304712
2.5897469e-05
-1.3237506e-05
-5.4192962e-05
-0.00020642555
3.8173643e-05
-0.00013056851
0.00011661948
3.133273e-05
-9.461783e-05
-2.56128e-05
5.7028494e-05
-4.801892e-05
-7.543569e-05
8.387136e-05
0.00012247173
-0.000111888236
-9.501957e-05
-0.00015070003
-0.00029751108
-8.1769125e-05
6.774833e-05
-1.2927074e-05
-5.711261e-05
-0.0002870211
9.448228e-05
-6.974477e-05
-0.00012478326
-1.5657966e-05
0.00036865822
-0.00019184756
-0.00014470832
-8.603499e-05
3.9473416e-06
6.51746e-05
0.000101753445
-0.00020480232
0.0002908137
0.00018774698
-8.345606e-05
-7.830274e-05
-3.6033234e-06
0.00014435413
9.080529e-05
-0.00020581475
-3.3391458e-05
8.064938e-06
1.583208e-05
-0.00030908175
-2.694558e-05
-3.5961966e-05
-2.564293e-05
-0.00013618605
1.4885188e-05
-0.00017557078
4.4430537e-05
-0.0003185113
-3.983997e-06
0.0003672929
-4.9963124e-05
-7.445687e-05
7.71972e-05
-2.9463019e-05
-9.2225135e-05
-0.0002862089
-0.00012104908
-0.00012860278
0.00018598876
-8.991611e-05
-0.0003897853
8.737958e-05
5.090578e-05
0.00010942767
-3.654217e-06
6.390098e-06
-3.7827347e-05
-0.00021124996
9.973481e-05
-2.9252915e-05
-7.493649e-05
-2.9193234e-05
0.00030427266
-0.00011600144
-9.281217e-05
2.0546846e-05
-9.744957e-06
0.00013404278
7.789045e-05
0.00033640282
7.224273e-06
-3.229808e-05
4.847609e-05
6.631655e-05
0.00010722848
4.8803904e-06
-1.4089244e-05
4.0273128e-05
0.00015514817
-8.3419945e-05
0.00012472867
-0.00010442598
0.00011190629
0.00011285438
0.00010247627
-5.2074618e-05
6.0115282e-05
0.00014642595
1.4464797e-05
6.661042e-05
0.00014282262
-6.2519306e-05
8.962904e-05
2.2549513e-05
3.4637862e-05
-0.00034011304
-0.00011934511
0.00016935237
-6.7778456e-05
