0
-0.03499623
-0.046225216
-0.033251777
-0.01776203
0.004017085
-0.04353001
-0.0065999934
-0.08413983
-0.032068983
-0.0712213
-0.008827852
-0.056283906
0.0071759475
-0.04329489
-0.007217082
-0.014669143
0.014913025
-0.09809108
-0.025458476
0.019500185
-0.06016533
-0.063548215
-0.03329238
0.08539769
-0.027478838
-0.07970463
0.030079389
-0.00092809414
-0.029898819
-0.089732036
-0.12184591
-0.020547092
-0.0028219244
-0.026394539
-0.001942248
0.0037012622
-0.034720067
-0.06420479
0.011210485
-0.103813015
-0.04881252
-0.09611277
0.0009450933
0.021057533
-0.011488667
-0.02571893
0.0071525616
-0.046409354
0.012573195
-0.032836325
-0.064247936
-0.014652326
-0.06942603
-0.01620192
-0.06309607
-0.062453825
-0.0040169777
0.017582687
-0.0347181
-0.035391755
-0.05431481
0.00083557394
-0.0020165422
-0.060293294
-0.02579659
-0.022439979
-0.020857846
-0.0047125514
0.006146362
0.033142183
-0.02778142
-0.017440993
-0.048301984
-0.029462006
-0.04731853
0.035682198
-0.029486911
0.019409101
-0.041207504
-0.018913042
0.008704578
-0.030349143
-0.0060883006
-0.08017749
-0.053116817
-0.039409056
-0.041763198
0.0219385
-0.009793113
0.008421229
-0.028700363
-0.0090371845
-0.052363966
-0.016380223
-0.009437956
0.033440642
-0.11768056
-0.004507398
-0.020606339
0.00046921044
