0
0.080867566
0.695095
-0.1420988
0.10202049
-0.10791179
0.13176493
-0.021851689
-0.13221896
-0.080987826
-0.015039783
0.12750532
-0.39230978
0.1867931
-0.1768202
0.45325089
0.25544164
0.42905992
0.40169984
0.0680834
-0.06145185
0.019172879
0.0022591834
0.4711788
-0.1260309
-0.14846638
-0.2742157
0.034540087
0.18774848
0.021287527
0.19332084
-0.08596505
0.024255771
0.16326787
0.10874572
0.031134734
0.10069592
0.10039597
-0.25025132
-0.065476626
0.3603111
0.2039782
0.037591625
0.0033367632
0.2271827
0.123759925
-0.18863735
0.014697274
0.31300214
0.053917397
0.040662672
0.062449828
0.5310945
-0.030819401
-0.013000811
0.05073077
-0.14895009
0.14095989
-0.3287829
-0.1494478
-0.20031455
0.13255736
0.17721418
-0.6174771
0.003741896
-0.048603065
0.16183221
0.27746335
0.13134164
-0.16208944
-0.18044896
0.19618648
0.21531047
-0.011764343
-0.048329256
0.1303932
-0.22073594
-0.28375113
-0.021281159
0.030226983
0.08516006
-0.2580629
-0.04664999
0.061570138
-0.114408955
-0.2162107
-0.16073166
-0.20104903
-0.21740264
0.12186234
-0.1661059
-0.3147404
0.05652076
-0.15379913
0.16782519
0.042855382
0.30199063
0.025915204
-0.08075763
-0.047523562
-0.11597568
