0
0.031834323
-0.021964807
-0.17412372
-0.39275733
-0.14286906
0.20471638
-0.3768613
-0.29710022
-0.16248748
-0.11767073
-0.44314602
-0.21996553
0.10937716
-0.09987995
0.034987833
0.13432279
-0.014501903
0.06937197
-0.095645145
-0.31924847
-0.0047026067
-0.12012447
0.078167684
-0.26275414
0.2659181
-0.09533246
0.082488276
-0.21581057
-0.16213997
0.102160074
0.06291284
0.10092094
-0.2731498
0.123460405
-0.0065876283
0.16923468
-0.3662536
0.114061154
0.43363646
0.080225095
0.036022604
-0.09501669
-0.28541762
0.19380513
-0.1190359
-0.103138536
-0.0053586657
-0.19997504
0.10870993
-0.30095735
-0.009438702
-0.31555673
-0.137692
-0.1796169
-0.2552335
-0.39293244
0.037384514
-0.3277814
-0.17434171
0.13746816
0.25774083
0.0511139
-0.18826632
-0.05059208
-0.23877664
-0.1006009
-0.012168881
-0.42019412
-0.069136545
-0.05325646
-0.01492213
0.063309714
-0.32875538
-0.24241999
0.1328665
-0.15855211
-0.14668004
-0.116439894
-0.11642332
-0.10605193
0.053823642
0.103302546
0.22614206
0.28924
-0.058096934
-0.3617345
0.04879968
0.18574037
-0.04447455
0.13710463
0.012284926
-0.38908246
0.16596474
0.05702364
0.17021273
-0.25017142
-0.09758548
0.06799753
0.07322054
0.0773389
