0
-0.115901954
0.08520356
0.71505415
-0.04604014
-0.02216097
-0.13101894
-0.14671704
0.0046792165
0.23686212
-0.72290534
-0.35551608
0.1781113
-0.11076537
-0.04154317
0.11690645
-0.11341495
0.009231106
-0.3036557
0.16560066
0.04327446
0.23143715
-0.051322144
0.25525677
0.11375309
0.03769755
0.1019156
-0.04008463
0.20298375
-0.15305813
-0.35731006
0.19337691
-0.09124495
0.2528355
0.01103675
-0.35630423
0.035407573
0.013058615
-0.050131716
0.30537403
-0.3136887
0.016914878
0.06859551
-0.1959484
0.17884383
-0.35159138
0.020447396
-0.11533849
0.082614765
-0.26958185
0.18079038
0.06719346
0.2872346
0.0010525356
0.09560584
0.27427286
0.036112793
-0.07803244
-0.20443256
0.199544
0.27304536
0.10165734
-0.27627867
-0.42338657
-0.25395778
-0.11919271
0.15076587
0.2116419
-0.26432964
-0.13676621
0.22301772
0.45389044
0.1859978
0.09676493
-0.008033717
0.16164857
-0.039608937
0.17182893
-0.4403545
0.49785185
0.22128855
0.4896857
-0.10011092
-0.31097606
0.012386949
0.13124587
0.12860373
0.116774224
-0.05384156
-0.24931784
-0.048725523
0.38407183
0.21987738
-0.3730467
-0.1119368
-0.20931491
0.044973228
0.03228567
-0.30428186
0.16143669
0.05959059
