0
0.16533455
0.20400576
0.1346905
0.042579897
0.22592916
0.3741687
0.05589672
0.070985116
-0.040614385
-0.67769
0.3347854
-0.2540175
-0.37172797
0.7009996
0.33340156
0.34354684
0.07763252
-0.30670923
-0.25655794
-0.23257516
-0.34924957
-0.13793299
-0.12608866
0.09205445
-0.15304977
-0.49241486
0.38887975
-0.55667907
-0.057648245
0.21148294
0.013185196
-0.05468441
0.15496601
0.07483611
-0.04673361
-0.27686524
-0.48165247
-0.2838223
-0.42512953
0.20547482
-0.1027788
0.049277876
-0.035518885
0.43397892
-0.0066268663
-0.40453577
0.55393577
-0.30432457
-0.41381055
-0.0673208
0.4359606
-0.1614723
-0.22759509
-0.18461387
-0.24453479
-0.06632655
0.21247886
-0.1287064
-0.2952298
-0.1362303
0.1265755
-0.2880475
0.20437613
-0.22598921
-0.07055697
-0.22370021
0.30113506
0.37555715
-0.32901195
-0.16858898
0.15339784
-0.29491246
0.1573864
-0.20700619
-0.07001979
0.24749815
0.31424013
0.062388267
-0.10388487
-0.053791698
0.13975175
0.009321863
0.34846124
-0.15724854
0.28840673
0.2049018
-0.40695232
-0.11462131
-0.12720093
-0.10951687
-0.12831508
0.37768063
-0.39560747
-0.014420628
0.3724677
0.036018394
-0.13182902
-0.010918643
0.2619395
-0.100241125
