0
0.0014672725
-0.00025765883
-0.0025118773
-3.0144201e-05
-0.00012178961
0.00036490287
-0.0004821926
-0.00014204794
6.934256e-06
-0.00035563493
0.00030167765
-0.00032313744
-0.0009672565
0.00022854103
0.00031264967
-2.921713e-05
-0.0007326672
-0.00022465014
-3.3605982e-05
2.7234522e-05
0.00021943076
0.00021457477
-0.00015143839
-0.0005858869
-8.8277084e-05
-0.00023130424
-5.20134e-05
-0.00028970273
-2.051367e-05
0.00029329464
-0.00023575925
0.00029530196
0.00056325336
0.0005249727
0.00010518492
0.00023372677
0.00053821737
0.0001479213
0.00046586507
8.801518e-05
0.00039207566
-6.6491106e-05
-0.00024043003
4.931192e-05
0.00048471717
-0.0003150831
-2.59135e-05
-0.00024431033
-7.793011e-05
-1.949619e-06
-0.0006651477
7.565332e-05
0.00034009392
-0.00033041852
-0.00018442723
-0.00024674495
-0.00010603671
2.2890576e-05
-0.00047899553
-3.323869e-05
0.0002502905
-0.00028094425
-0.00045151298
-0.0002683596
0.0001400596
0.00017988116
-0.00032837846
-0.00036635227
0.00014114635
-0.000107693435
0.00053348247
-0.0003880912
-4.2121654e-05
2.4740986e-05
0.00031385876
-0.0005138256
0.00042775006
0.00019661561
0.00030575297
8.080304e-05
-0.00035971118
-0.00020169107
0.0004642568
-0.00037854793
0.00013524918
0.00013709211
-3.2858945e-05
0.00039498883
5.206354e-05
0.00020426814
-0.00010691642
-0.00038132395
0.00048732114
4.4934353e-05
0.00034448304
1.770927e-05
-4.951492e-05
-0.0002598895
-0.00019102804
0.00023393304
-0.00036011287
0.00021364016
0.00010656871
0.00011015477
0.00011720299
-0.00033542287
-0.00023844824
-1.1258429e-05
-0.00015776105
0.00032469025
0.00028072932
-0.00018048844
-0.000117908035
-0.00014599242
0.0007744707
0.00019465155
4.572119e-05
-2.5095136e-05
-0.00021422036
-0.00011233282
-5.834581e-05
0.0005730266
-0.000117950025
0.00052332855
7.291638e-05
0.00044163648
-0.00031677852
3.9253882e-06
-6.1000275e-05
5.9126945e-05
-7.736331e-06
-0.00021456124
-0.00066452846
-0.00033294235
0.00063226453
-0.00019599027
0.00025701436
0.00023657695
0.00029121
-8.373918e-05
0.00038016832
-0.00036454928
8.724687e-05
2.8701743e-05
-0.00014417413
-0.00019949737
-0.0005092718
-0.00023836998
-0.00015501397
-0.00010197626
0.00024081847
-0.00012381756
0.0005650248
-0.00021980837
-0.00023462398
-8.316426e-05
0.00018154776
0.000117509175
-6.9165595e-05
0.00034194128
0.00020083887
-0.00011507511
-0.0003479118
-0.00021656013
0.00020041317
-2.8170976e-05
0.0005811836
0.0006114792
-4.5134897e-05
0.00016124989
-0.00011954171
0.00013767628
0.00012372306
0.0004605602
-0.0001719174
-1.3705791e-05
3.3095308e-05
7.2050476e-05
-0.000428696
0.00026992045
0.00032499712
-0.000223706
0.00023529516
-0.00035638353
0.00014910586
-0.00027415078
0.00025470924
5.4539614e-05
0.00012797328
5.4095366e-05
0.0001415526
-5.1776555e-05
-0.00046960553
-0.00031189146
-0.00023839912
-0.00026418516
0.00029766627
0.00066813687
-0.0004957448
-1.7160071e-05
-4.191832e-06
9.722206e-05
0.0003954321
-7.232648e-05
-0.00020100184
-0.00019498302
0.000119827426
0.00010223565
0.00015963537
8.232008e-05
-0.00015985117
-0.00040773296
-0.00037584492
0.00060017605
4.402903e-05
0.00013429095
0.00013627575
7.2632305e-05
0.0004897553
-6.622767e-05
9.414695e-05
-8.705304e-05
-0.00018805785
-0.00010515098
0.00040002668
-0.0004212325
-0.00012465405
-5.950207e-05
0.00028712506
-0.0003034353
0.00023086535
-9.67998e-05
-0.00012602223
0.00011730407
-6.430916e-06
0.00029486758
-5.6183915e-05
0.0003794208
-0.0002156846
5.7572775e-05
6.644599e-05
-1.2036606e-05
-4.1928757e-05
5.717873e-05
-4.7504764e-05
0.00014428147
6.599245e-05
-0.00043142738
-6.221144e-05
-4.358065e-05
9.750528e-05
-3.6875696e-05
7.76663e-05
0.0004168386
-0.0001661507
8.5575426e-05
-7.049831e-05
-8.1807164e-05
-7.4138785e-05
-0.00010706754
-0.00043373872
0.00021232793
-9.699001e-05
-4.799856e-05
0.0004109153
-0.00020188403
-0.00038008153
0.0002345015
-0.00017135937
6.322977e-05
0.00045881225
2.3042658e-06
-0.0003583628
1.37416155e-05
0.00024237619
-0.00013931746
0.00031437093
0.0003697723
0.00031697558
5.8100513e-06
-0.000110218956
7.5154196e-05
8.189124e-05
2.2896864e-05
-0.00022567442
-0.00035027164
0.00014525058
0.0003873119
0.00022329976
-0.00021821857
-7.961362e-05
9.856907e-05
4.864402e-05
-0.00020498926
0.00012309609
0.00014648569
0.00022579299
-9.068655e-05
8.2171726e-05
-0.00013953699
-0.00021258782
0.000319231
-0.00012390917
-0.00017211995
0.00021869487
0.0003595769
-8.0787286e-05
-8.605324e-05
0.00035472028
-0.00020883945
0.00015497293
0.00022672534
0.00017626304
5.585949e-05
0.00048537372
-0.00028409026
-2.588045e-05
-0.00026091412
0.0001766698
0.00050098146
0.0002937443
-0.00012100619
-0.00023050912
0.00049208436
-0.000158926
-4.6299778e-05
0.00031600046
0.0010492787
7.946619e-05
-9.39334e-05
-9.122794e-05
-0.00019406236
0.00039735317
-0.00013266715
0.00020421547
-0.00015556019
-3.4081626e-05
-0.00013253209
-4.2445445e-05
0.0005130005
0.0001551141
-0.00015036506
0.00028072164
-2.278571e-05
-0.0001032142
4.998309e-05
-0.00014424804
0.00018639336
0.00020145556
6.494862e-05
-1.323528e-05
0.00020445592
-6.719765e-05
-0.00047123575
0.00018528647
-9.05204e-05
-0.00033545718
0.00019658232
-0.00046513494
0.00032522908
-0.0004190723
0.00012378309
0.00017217848
-0.00017404833
7.743084e-05
7.022677e-05
0.0006994991
-8.054292e-05
9.589858e-05
0.0002894377
-0.00037162556
-0.0004979459
-0.000111377594
-0.0005379092
0.00052157557
-0.00014546403
-0.00013768069
2.8025272e-05
0.00010715342
0.0002515097
0.00026569638
0.00022438962
0.00025460694
-7.603641e-06
0.00024616008
-0.000102189784
-0.0001618872
-5.9203194e-06
-1.1238857e-05
6.3359716e-05
0.0001637851
-9.329097e-05
0.0001538086
0.00049059646
-0.00046959685
-0.00023569576
0.00014230232
0.00061996636
0.0002575801
6.2500134e-05
0.00016561909
-1.4424808e-05
0.00016541236
3.1362983e-05
-0.00021954338
-0.00017501847
-0.00017679278
0.00038878786
0.00023386018
-0.0002370066
-3.0798514e-05
6.369057e-05
0.00028133264
-0.00059295323
0.00025020973
-0.00012999433
7.782055e-05
0.0002127115
0.0005185117
-0.0002573599
8.940119e-05
-0.00037053562
0.0005330626
0.00024808064
-0.00019706877
-0.00019949408
0.00015548867
-0.00010753739
7.3745105e-05
-0.00041864775
0.00010083416
-2.548852e-07
-0.00033757545
0.00018045765
-0.00013872498
7.70205e-06
0.00022907284
0.00045617225
0.00020771542
8.794e-05
0.00059086154
-0.00017920756
0.00019532932
0.00014218171
-0.00026539745
0.00034503153
-0.00017696874
0.00031085478
0.0001753342
-0.00043806987
0.000332444
6.656277e-05
-0.00027261977
2.7630642e-06
-0.000106110405
1.7854147e-05
0.00028842175
7.0527516e-05
0.00043289733
-4.1738112e-05
-0.00015279805
0.00033257485
6.960156e-05
-1.0612055e-05
-6.336212e-05
0.00017250518
2.4597188e-05
-0.00013577788
5.1270632e-05
-9.893444e-05
-0.0003694498
0.00016489033
-0.00027748148
-4.1241736e-05
0.00028567054
0.00016563803
-0.00021577241
0.00011086646
0.00032679632
-0.00026207222
-0.00025493046
-6.181534e-05
-9.296773e-05
0.00015409126
0.00019142656
-0.00038226496
0.0002006108
-0.00023504214
0.00037268182
-0.0001804073
-0.00014125158
1.13036185e-05
0.0004495591
8.379633e-07
-0.0001785093
0.000115842304
0.00012018719
-0.00019624404
0.00020629769
-0.0002737633
8.496487e-05
0.00036476302
-0.00039752352
0.00016289378
7.696738e-05
-8.5924745e-05
-0.00016722592
0.00015746485
-0.00013823718
-0.0001812859
-0.0004147367
-6.689567e-05
-0.00030620082
3.140786e-05
0.0005727256
-0.00020145898
2.6725334e-05
-0.00025556952
-8.1128295e-05
-0.00017799558
0.00067031034
0.0001846321
-0.0003655714
5.2078256e-05
0.00023184021
-0.0004502324
-0.00029160758
-0.0001572166
4.2806885e-05
-1.1297586e-05
3.061083e-05
8.872351e-06
-0.0002669141
-0.00013420761
-0.0002493689
0.000433967
-0.00034123813
-0.0001848787
0.00022372352
0.0005730072
-3.2385702e-05
-6.567432e-06
1.2191472e-06
0.0003794129
0.0003986396
5.466338e-05
-1.3183109e-05
0.00014002962
0.00014206929
0.00021273269
2.4154476e-06
-0.00017042768
0.00011394442
1.8102879e-05
-2.3933067e-05
2.712839e-05
-0.00019778725
0.0002843096
-4.9976064e-05
0.00017807526
0.0010540806
0.00020907202
3.863501e-05
0.00018615225
-5.3689822e-05
6.797785e-05
-0.00019537828
-1.963143e-06
0.00043379221
4.0028015e-05
-0.00026940324
2.29108e-05
-0.00016818702
0.00030708328
0.00025951798
0.0002756505
8.9927154e-05
-0.00015216599
1.481164e-05
-0.00043974892
-3.9563383e-05
-0.00044825274
0.00019783068
0.0001299223
4.7130536e-05
8.169813e-05
0.00028579295
6.2712985e-05
-0.00025006488
-0.00013161096
-0.00019269912
8.356094e-05
-0.00017849903
-0.00034796435
-2.529344e-05
0.00038572156
3.636234e-05
3.85122e-06
0.00032505035
0.00012335015
-6.357135e-05
8.4848594e-05
-0.00010096098
4.2617023e-05
2.7905686e-05
0.00028954737
-0.00034692424
-0.00016929684
0.0003996448
-0.00022650139
-0.0005546423
-7.295787e-05
-4.4898195e-05
0.0011352672
8.889464e-05
-0.00025634642
8.501381e-06
9.041441e-05
-0.00012510641
8.325625e-05
-9.827123e-05
0.00022262357
0.00013785895
-0.00024248452
7.057858e-05
-9.1247704e-05
-0.00027119395
0.0002732629
-5.1030627e-05
-0.00021416419
6.6825945e-05
-0.0001909081
0.0002265457
0.00011693734
-0.00024891843
0.00021945161
-0.00026844803
-6.8676694e-05
-0.00019746226
-0.00026869716
0.00045644597
0.00022452581
-9.048103e-05
-7.359853e-05
5.312614e-05
0.0003393351
-3.4408178e-05
0.00010748818
5.6351168e-05
-0.0003987884
0.00021954231
-0.0002270725
-0.00032724024
-0.000127958
0.00012379399
-0.00011887464
-5.4207445e-05
0.00038724364
0.0004072698
0.00018749772
4.808473e-06
0.00029668072
-0.000593079
-9.2202354e-05
-0.0002568976
-5.361246e-05
-0.00015430125
7.981703e-05
-0.00039440233
0.0002995139
8.2872066e-05
0.00025591903
-4.9369475e-05
-0.00031600872
1.2811315e-05
0.00011829061
-0.0003052373
0.00016846485
0.00014477402
0.00011901811
-4.313266e-05
-0.00010450554
-0.00029870286
0.00021962675
-7.46673e-05
-7.2376046e-05
0.0001440719
-2.626214e-06
0.00010196565
-1.6084356e-05
9.143392e-05
-0.00012773494
-0.00023007898
1.0762039e-05
9.59047e-05
0.00029335177
0.00014544518
-0.00018705628
-1.7982999e-05
-0.00010093767
