0
0.0076211346
-0.044037413
-0.08061767
-0.027940875
-0.0050646313
-0.056648124
-0.03101072
0.041652124
-0.036456086
-0.03759863
-0.01164083
-0.05074928
-0.06046815
0.020133993
-0.015820213
-0.080064885
-0.00833278
-0.018003399
-0.058405604
-0.006403349
-0.042768594
-0.0017713171
-0.01693646
0.03214392
-0.059613265
-0.038875613
-0.027234202
-0.017232135
0.03701093
-0.021805607
-0.06361541
-0.023220723
-0.033571716
-0.03548303
0.0072795493
-0.03743415
-0.021575375
-0.03557242
-0.024022982
-0.04134483
0.038557578
-0.0013562356
0.023264859
0.00013449205
-0.016106457
-0.0013997885
-0.0100143645
-0.04224718
-0.03787622
0.031004364
-0.026590334
-0.029902086
-0.00031919987
0.011957163
-0.042709652
0.060314827
-0.01144274
0.007327222
-0.04557168
0.010116614
-0.069793515
-0.024797726
-0.0060401587
-0.027363088
-0.011875524
-0.041337684
-0.061244946
-0.011391786
-0.022821363
-0.016513586
0.030791163
-0.0092418175
0.010389726
-0.010526023
-0.042635962
-0.0015745097
-0.09779226
-0.021241618
-0.0050202752
-0.0361895
-0.014790606
-0.050675042
-0.007738049
-0.04267931
-0.077952534
0.011166405
0.017678296
0.026180623
-0.017786596
-0.07004398
-0.046616055
-0.02988527
-0.025318425
-0.00960644
-0.025385039
-0.005031001
0.01105156
-0.026474781
0.012202072
-0.040854912
