0
-0.12675077
0.33748353
-0.078685
0.6099893
-0.19612467
0.020769741
0.022948725
0.46361774
0.10389756
-0.013681997
-0.43455896
0.34159586
0.013633032
-0.41468567
0.04790547
-0.20584013
-0.1387539
-0.18795522
0.03245396
-0.06395999
0.04804393
0.2960599
0.086999744
-0.079086766
-0.002968199
-0.2521586
-0.002624586
-0.05032329
-0.37226614
0.010178047
0.033354025
-0.24131572
0.37767094
-0.16923043
0.1457006
0.15239006
-0.003354495
0.28493524
0.0770184
-0.40009138
-0.15229449
0.15507008
-0.13484164
-0.1054665
0.2037927
-0.026997104
-0.08175608
-0.31041196
-0.100928776
0.03810481
0.4298144
-0.0069181942
0.18984315
0.047781467
-0.23006539
-0.16238591
0.06569757
-0.060778853
-0.08517378
0.22715324
-0.26925346
0.031947426
-0.118380055
0.042015366
-0.3385856
0.1998749
-0.21479322
-0.22989225
0.54384893
-0.22365595
-0.058214765
-0.19030894
0.07552718
-0.1706792
-0.01463749
-0.06410165
-0.35347933
0.2569078
0.2843624
0.09791111
0.015482906
0.13984053
-0.11749351
-0.05744557
-0.06649653
0.057101063
-0.038795777
-0.3017062
-0.020042092
0.03726211
-0.17749704
-0.15007159
-0.50532156
-0.45407546
0.08821253
0.08937564
0.042573515
0.04654996
-0.15123282
-0.08922841
