0
0.013442949
-0.2447949
0.18658772
0.035400894
0.1854284
0.2780072
-0.027895123
0.42399314
-0.21940085
-0.031688347
-0.0589608
0.07711983
-0.031620797
-0.34323278
-0.17382078
0.098458976
-0.14469393
-0.13957517
-0.161427
-0.038576532
-0.08726062
0.21765627
0.15333787
0.13714285
0.17162393
0.08988797
-0.116776876
0.24025564
0.16924384
-0.05477035
0.058213893
-0.009434239
-0.031779118
-0.161413
0.06414154
0.0860412
-0.12237541
0.20524588
-0.2206352
0.11079536
0.19073942
0.14349473
0.060181245
-0.018968122
0.09346976
-0.007502464
0.0025257254
-0.19490384
0.089425735
0.11106765
0.10667697
0.2794045
0.042473815
0.034725953
0.07246314
0.05493023
0.13549758
-0.040326156
0.14940673
-0.22547856
-0.34175757
-0.36701342
0.28881004
-0.107294634
-0.14871983
0.17546433
-0.045129117
0.08146033
0.36284077
0.27271783
-0.0549587
0.3498259
0.05628646
0.2503948
-0.18856712
0.06835733
-0.33199808
-0.29548705
-0.080515824
-0.01076044
0.10083954
0.096486725
-0.44379887
0.25956368
-0.43538868
0.00356965
-0.38721108
0.09663716
-0.06969874
0.045699786
-0.38119847
0.3068502
-0.38244998
0.09186401
0.2955285
0.26193002
-0.06783415
-0.016882544
0.091298774
-0.16604541
