0
0.026755119
0.06702508
-0.2385396
-0.09144816
-0.14821242
-0.15622075
-0.24821414
-0.043956902
-0.3775724
0.021997713
-0.24335688
0.23931338
0.04254132
0.07954501
0.10615675
-0.07939264
-0.19479215
0.409309
0.14156501
0.20508301
-0.042962085
0.041933715
0.34991086
-0.11453169
0.35975283
0.089560844
0.023167646
0.050620858
0.3933091
0.16890405
-0.06123395
-0.22271483
-0.23845547
-0.11917855
-0.2013897
0.07255549
0.2409492
-0.26090893
0.07216666
-0.019222269
0.11718998
-0.15994152
-0.17458138
-0.04826956
-0.07618636
-0.0014157402
0.17411831
-0.22957999
0.048497673
-0.050808694
0.12746467
-0.009952406
0.10911703
-0.17720786
-0.05644631
0.05006362
0.2904202
-0.14228608
0.086576134
0.2360529
0.16317974
-0.16390698
-0.3190994
0.061803855
-0.12622598
0.13333218
0.18817867
-0.19152494
-0.013173566
0.39221105
0.018145312
-0.2067497
0.16718918
0.20574297
0.09409169
0.00015506442
-0.48037612
-0.0062553035
0.109090924
-0.22532257
-0.13819477
-0.2867605
-0.20919187
-0.1989053
0.0042244163
-0.30756822
0.11418801
-0.30118954
-0.17237154
0.2884585
0.23995034
0.1945303
0.27206454
0.14175446
-0.38610786
-0.26963055
0.13800603
0.07690555
0.2623519
-0.239699
