0
0.039639167
0.005239721
-0.06673336
-0.041693836
-0.10737508
-0.103276365
-0.050055556
-0.022350717
-0.09964611
-0.03617583
-0.025295887
-0.06335596
-0.02918456
-0.074415185
-0.053645454
-0.07772587
0.02415487
-0.04154581
0.035237126
-0.046938676
0.059902996
-0.01166082
-0.066925876
0.010475896
-0.032193054
-0.05050101
-0.021811264
-0.048862454
-0.033007894
-0.065543674
-0.01624687
-0.03549171
-0.0737294
-0.1114513
0.010844344
0.0052190856
0.006620186
-0.103165515
-0.058299046
0.012838046
-0.0849255
-0.04384203
0.022812681
-0.046341885
0.0043821135
-0.025070177
-0.024640104
-0.067040145
-0.09043264
-0.034312863
-0.109677926
-0.06703453
-0.058026403
0.023844574
-0.080513775
0.008730625
-0.122526206
-0.029272074
-0.057001974
-0.07260701
0.016187966
-0.07691108
-0.038283337
-0.029729728
-0.08009039
0.011615485
0.019566244
-0.05306664
-0.06719508
-0.046203658
-0.09138479
-0.040593635
-0.09775568
-0.052741885
-0.11727141
-0.010791212
-0.009268183
-0.040038664
-0.08490258
-0.042711847
-0.046546478
0.00866831
-0.048855443
-0.035132017
-0.06921934
-0.024734126
-0.028709326
-0.09320183
0.014782923
-0.09544625
-0.048403103
-0.061941933
-0.048194487
-0.048018835
0.07709649
-0.09944051
-0.07036167
-0.08110904
-0.05075031
-0.08196875
