0
-0.026375161
-0.25529444
0.039557844
-0.2751821
-0.2271549
-0.51443887
0.08015113
0.03888653
0.32270828
-0.1322671
0.003981858
-0.044567894
0.28749898
-0.081825174
0.0051573524
-0.30627015
-0.421605
0.21246701
-0.28019422
-0.017325917
-0.0035706647
-0.1258544
0.45043528
-0.40384412
0.04638018
-0.17409945
0.07163266
-0.36808896
-0.41514733
0.22941542
0.49436876
-0.4631516
0.30819264
-0.18707068
0.29192197
0.055872478
0.28337455
0.0149911465
-0.11747258
0.15017796
-0.5037637
-0.015689947
-0.2421609
0.21478875
0.2572185
-0.21106854
0.1916296
-0.015780356
-0.14951599
-0.23673604
-0.16984832
-0.17427337
-0.06678592
0.027103757
-0.41216445
-0.12712966
-0.39597854
-0.24328889
0.22146228
-0.15707584
-0.013537693
0.23787682
0.19241686
0.27468237
-0.04212636
0.06949159
0.32033333
-0.06919985
-0.5244756
0.26914525
0.42182076
0.38106784
0.40102527
-0.009566401
0.16802888
-0.096598536
-0.018626273
-0.11846101
-0.00509702
-0.12083791
-0.034619343
0.052448694
-0.066802375
0.042920716
0.28662574
-0.26250347
-0.09599864
0.072875604
0.19003691
-0.43046522
0.079264216
-0.26713857
0.16624811
-0.53931725
0.13294116
0.15575546
0.029393021
0.26518202
0.17514025
-0.1708863
