0
-2.3878501e-05
1.9649267e-05
-0.00018649713
5.1621773e-05
0.000104085986
-1.5865882e-05
9.603617e-05
5.581332e-05
0.0001890386
-0.0001443313
-0.0002479778
-4.7124955e-05
-0.00029825006
-0.00016836781
-8.4040184e-05
-9.140285e-05
-0.00016612626
-0.00018550627
-0.0002883731
-0.00019568372
2.017686e-05
-7.422866e-05
4.4420587e-05
3.1895488e-05
0.00011332214
-5.9276095e-05
8.843179e-05
0.00015884417
-0.00010137236
-2.7343951e-05
0.00031184198
0.00015183109
-2.5262354e-05
-8.533852e-05
-9.562543e-05
0.000119992386
7.688982e-05
-0.00019277309
5.9804923e-05
-7.1188144e-05
4.4942535e-05
-0.00017386132
0.00028671385
-2.3331339e-05
-0.000109418295
6.291589e-05
-1.425114e-05
0.0001543828
0.00013075215
1.1325983e-05
8.948196e-05
-0.00014995667
-6.451905e-06
0.00011417086
-7.836126e-05
-0.00013644478
0.00011475022
2.62611e-06
0.00010812592
3.0645588e-05
0.00018221463
9.9026554e-05
0.000165058
0.00014596983
-3.2729333e-06
5.080974e-05
6.252e-05
-0.00014687523
0.00017388945
0.00013175479
-0.00014310384
-0.00015858682
0.0001511378
0.0001314951
-0.00013697887
3.4073535e-05
0.0003782807
-5.2542677e-05
-2.2340785e-06
-0.0001112817
-8.054927e-05
8.555254e-05
0.00012245671
-3.109302e-05
0.00022915061
7.679302e-06
4.577226e-05
-0.00019917483
-0.00014601329
-8.092542e-05
-0.00034243835
-0.00020831246
-0.00017631405
0.00034325657
-0.0001571022
3.603409e-05
-8.5591804e-05
-5.930997e-05
-0.0004841342
0.00015262247
