0
-2.1674025e-05
5.2998243e-05
-8.738745e-05
-0.00033648772
0.00043523117
0.00021621834
-0.0001888081
0.00017084082
0.00033046227
-0.00016084012
0.0001811174
0.00017753162
0.00025623688
0.0003185769
1.9438952e-05
-0.00010230119
2.7725948e-05
0.00051848387
0.00014061619
3.8894545e-05
-0.00034505542
-1.8921875e-06
0.00020574126
0.00030151228
-5.7772628e-05
0.00046645344
0.00012270802
-4.917969e-05
8.055731e-05
-6.24974e-05
0.0003575158
0.00017631658
9.956566e-05
-0.00010249021
0.00040587064
-6.1732855e-05
0.00032782415
0.00039806816
0.00031687852
-0.000100859754
0.00014692884
4.5711713e-05
-0.00025860613
0.00015086612
-0.0002318714
-3.0789004e-05
0.00034116572
0.0001537575
-0.00015593569
-2.5236151e-05
6.0177485e-05
0.00012026535
0.00028701162
0.00023806236
-1.066254e-05
-0.00014312484
-0.00039613908
-0.00029719117
2.2845172e-05
0.00029378262
-2.5301195e-05
-0.00030473675
4.9445727e-05
0.00016684395
5.258124e-05
0.00034226888
6.461006e-05
7.8752244e-05
0.00036150523
0.00029902975
9.5352625e-05
-4.9958457e-05
-5.4737517e-05
0.0001230492
5.7735393e-05
-0.00082653936
-0.00013063179
-0.00010726424
0.00015713515
0.00025311924
0.00015986801
-0.00047013955
0.0003366279
0.00012132016
-0.00011447563
0.00027685167
-6.0161557e-05
4.3268003e-05
0.0004381812
0.00031828735
0.00023560665
-5.6532757e-05
0.00026269205
0.000169596
0.00022695237
7.4287354e-06
8.03241e-05
0.00057222147
-0.00022942937
0.00021218766
