0
1.5082309e-05
6.568361e-05
0.00022426755
6.3010746e-05
0.00015713063
3.311046e-05
-3.6131732e-05
-0.00016857969
-3.61322e-05
5.5025528e-05
-4.332174e-05
8.6401604e-05
-5.1942647e-05
-8.517226e-05
-7.819754e-05
7.016441e-06
-2.2006725e-06
3.186324e-05
-0.00014479824
0.00020087081
9.1931026e-05
-0.0001013819
-0.00012609336
-0.00040392726
-0.000127116
-0.000101042206
3.7676247e-05
-1.6421349e-05
4.4054545e-05
0.00010167638
-3.26624e-06
-5.3768388e-05
0.00015944685
1.7720837e-05
4.1792253e-05
0.00015260463
-7.160998e-05
-6.364335e-05
0.00016501131
9.134828e-05
0.00017484078
0.00014946943
1.807595e-05
-5.2476607e-05
6.000275e-06
0.00015003777
-0.00014843752
1.2220265e-06
-7.1857816e-05
-8.965417e-06
0.00017168888
0.00014335799
1.7309734e-05
0.00022487246
0.00014038998
0.0005162593
2.7972905e-05
-0.00026795076
5.5880857e-05
4.163687e-05
0.00016074652
3.740724e-05
0.00014264834
7.552437e-05
-4.7805115e-06
-0.0001796268
9.274762e-05
-5.0573486e-05
-1.493512e-05
7.635857e-05
-7.188941e-05
-7.4852454e-05
-0.00019548944
0.00020385213
-8.570373e-05
-2.224082e-05
0.0002714446
0.00024229329
8.515255e-05
2.8432369e-06
-0.00030620187
-7.258403e-05
4.3286163e-06
2.4505098e-05
0.00036019646
-0.00023704249
-7.3819225e-05
-0.00033064722
-0.00011909493
0.00010410834
-0.000114820235
-0.00033387472
0.00012263125
-0.00032222146
-0.00014686791
-3.757858e-05
-9.4828014e-05
4.172784e-05
-6.732318e-05
-0.00018305526
