0
-4.8011105e-05
0.000112571244
-0.00020093459
5.3953998e-05
-0.00023692365
0.00015627724
0.00025372507
-5.8801466e-05
-1.3660303e-05
6.4193606e-05
9.091915e-05
0.0003126974
-0.00034309414
0.0005788469
0.00011413906
-0.00027475008
9.695867e-05
3.5383764e-06
-0.000114652175
-0.0001582497
-6.5360415e-05
6.626271e-05
-0.00021229811
-0.00047886404
-0.00015448891
5.436282e-06
0.0002163029
-0.00017864688
0.00021878458
0.00014085932
0.00015688242
-5.453479e-05
1.93528e-05
5.1184154e-05
0.00017967919
1.2382934e-05
0.00020641876
0.00013757945
6.0263843e-05
-0.00010199485
0.00031918508
0.00014288434
-0.00022638707
-4.313782e-05
0.0002370465
0.00020789559
-3.4662982e-05
-0.0002718369
-9.472815e-06
0.00027583205
7.081077e-05
-5.283442e-05
0.00033577054
-7.5583965e-05
4.993943e-05
5.587691e-05
3.300221e-05
6.308629e-05
5.214732e-05
0.0001867791
-0.00010751117
-6.895075e-05
7.632435e-05
-3.46853e-05
0.00010718911
-0.0002490969
3.0735093e-05
4.9759976e-05
0.00018456369
-0.00035387193
-9.623167e-05
0.00011377936
-7.9834535e-05
-0.00026001746
2.374801e-05
-4.4582892e-05
0.00019251317
-0.00025219633
-0.00032763972
7.5817305e-05
0.00015583809
5.374344e-05
-0.00027335036
8.341087e-05
0.00012272189
-0.00016096295
-0.0001669962
-0.0002849654
-8.9287816e-05
0.00037415457
6.69136e-05
1.3981566e-05
-0.00010455412
0.0002036318
6.014402e-05
0.00036579883
9.025068e-06
0.0002997255
-0.00021215726
-0.00029580464
