0
-0.0006032319
0.00047467282
-0.000198574
-0.00044880944
9.406648e-05
0.00036107033
-0.00026578654
0.00048620437
-0.00023231497
0.00020086308
-0.00037611395
0.00019410872
-0.00028971184
0.00047235593
0.00010012128
0.00011507461
0.00011861237
0.0010523588
0.0002455354
0.00027119217
3.593956e-05
0.00021487795
-0.00047666088
-0.00060701056
7.78902e-05
4.4841043e-05
0.0013068517
0.0006016128
0.000109339875
-0.0001335636
9.045281e-05
0.0005140889
-9.2693685e-05
0.0002084913
0.0002008728
0.00014634263
1.8763403e-05
0.00024332218
8.074486e-05
-0.00015595971
-0.00055393134
0.0005591253
0.00031892592
0.0004247201
-2.9024995e-05
0.00043723226
0.00021587656
6.814951e-05
-9.842174e-05
0.0002477515
-0.000113087786
9.981064e-05
-0.00020687577
6.933632e-05
-0.0008783706
9.417115e-05
-0.00015838443
-0.0007344637
0.00023554396
-0.00023256228
0.0001252072
-0.000471191
-0.00044392314
0.0002778637
-1.3191304e-05
4.9991115e-05
-4.419546e-05
0.00030254642
0.00030146504
0.00018351835
0.00016987011
0.00012815118
0.0010424533
-0.0003807282
-0.00010755787
-0.00044284598
0.000111548216
-0.0003693904
0.000793575
-0.0003934698
0.00083841773
0.00036829367
-0.00076209434
2.8423926e-06
0.00038477508
0.000117389936
1.8740337e-05
0.0002975873
0.00050206063
-0.000106344145
0.000295528
0.00071791874
0.0006871013
-0.0002098521
5.5001656e-05
0.00021292089
0.0004318412
0.00029263945
0.00035726867
-0.000531143
