0
-0.00012541625
-0.00023895797
1.0751419e-05
0.0001009668
-5.9954153e-05
-0.00022779845
-3.5858764e-05
0.00022162686
-6.3982196e-05
6.0153914e-05
-0.00020775817
5.3447715e-05
0.00016215244
-0.00022919128
0.00038994747
5.5976225e-06
-0.00012584469
-0.00012278807
2.47141e-05
0.00012641399
-1.5546337e-05
4.348681e-05
0.00011270853
-1.8388819e-05
-6.238992e-05
0.00026213023
2.7043647e-05
-4.010538e-05
0.00046243283
0.00015403533
-5.1227464e-05
0.0002763168
-8.8244815e-05
9.255011e-06
-4.838349e-05
8.146626e-06
0.00011712709
-0.00010863108
9.53982e-05
-0.00029492282
0.00013777231
-0.00010739415
2.3357741e-05
-3.4592493e-05
6.236867e-05
0.00019526423
-0.00012641418
8.800435e-05
-1.3912043e-05
-0.00015895271
0.00010290276
-0.00017378267
0.00019192281
-8.640859e-05
7.4942e-05
-0.00023410069
-4.549792e-05
3.0302253e-05
0.00015725508
-0.00019592037
-0.0002528103
-7.09323e-05
-6.7507666e-05
0.00022331545
-0.00013489375
0.00015515838
3.4721885e-05
0.0005410739
-0.00018541269
-0.0001104482
0.00026107364
-0.000118778364
5.3211694e-05
5.6124227e-05
0.00010290265
-0.00016899874
3.4185898e-05
1.0939238e-05
-0.00012137083
-5.2078536e-05
0.0002994959
-0.00011348997
0.00018560268
-0.00012696839
-0.00016651592
0.00013596861
-0.00027085203
0.0002895304
-0.00012010942
0.0001442495
9.8428696e-05
-6.513798e-05
2.550176e-05
-0.00010477536
0.000123751
0.00012226032
-0.00018154354
9.648601e-05
-2.1024596e-05
3.5819077e-05
