0
-0.0001424542
0.00015188147
-3.7210728e-05
5.600823e-05
-0.0002092168
0.00044445097
-0.0002467995
-8.3570245e-05
0.00039115682
0.0003108513
-0.0002558214
0.00029778943
6.2975696e-06
0.00015268128
-0.0005090615
-0.00016609501
-0.00011146234
-0.000227359
0.00043205757
0.00022595556
0.00015974022
-6.702788e-05
-0.0002004557
-0.000579402
0.00013541567
0.0002633245
-9.2688155e-05
-0.00041951463
-0.00025681703
-0.00037763777
2.267391e-05
-0.00011339675
0.00018832088
0.00020026877
-8.886962e-05
-7.749122e-05
9.548483e-05
0.00031596428
-4.5249777e-05
0.00019903127
-0.00040559986
-0.00019245502
0.00013979264
-5.9198483e-05
0.00020091108
0.00013413806
-0.00024690418
0.0005366002
0.00028934595
9.261008e-05
-9.999045e-06
0.00023755757
5.5373537e-05
0.00015024589
0.00022110107
0.00025277436
0.00022815388
9.673079e-05
0.00017932054
-5.3642176e-05
4.1798874e-05
-0.0002929405
0.0001659925
0.0001579161
8.8773384e-05
-4.0245024e-05
-1.8645858e-05
3.944302e-05
-0.0003308268
-0.00035953821
8.132779e-05
6.501735e-05
0.000102036734
8.024419e-05
0.00040876245
-2.8786973e-05
-0.00029888484
0.00021376635
-0.00047667464
-0.0004120878
-0.00031626227
-0.00010046999
-0.0003305484
-8.293291e-05
0.00012263075
0.00041187234
-2.4629024e-05
0.00026376892
-8.681892e-05
5.3934286e-07
0.00060387177
6.1277766e-05
-5.5959776e-05
-2.7382292e-05
8.300508e-05
8.525644e-05
-0.0005731091
-5.736432e-05
-0.00047036208
-0.0005516814
