0
-6.350344e-05
-0.0010651362
0.00028001325
0.00077468256
0.00028561833
-0.00017679836
6.900622e-05
-0.00045354513
0.0008384261
-0.0015131298
-0.000102950224
0.0005135217
-5.4766257e-05
0.00021183254
-0.00032831827
-0.0005948234
0.00020536638
0.00019515127
0.000536278
0.0004726371
-6.5939916e-05
0.0003973049
0.00026950942
0.00018264323
-0.00024939637
-0.000700477
0.0002535885
-0.00024387547
8.128923e-05
-9.841451e-05
0.00015288833
0.0003496101
-9.6289645e-05
-0.00018964292
-2.0874955e-05
0.0006088963
-0.00025338551
-0.000199813
5.2013333e-05
-0.0006771358
0.0002166125
0.0012009797
0.00038625588
-0.00063504284
-1.1411152e-05
-0.00025194982
0.00023162339
-0.0006564179
-0.00030456483
-0.00010513369
0.00050010893
0.0006102972
-0.00010925693
-0.00016389122
-4.304826e-05
4.9244292e-05
0.0008657083
-7.190042e-05
-0.00026816057
-0.00022336969
0.00056785217
0.00035257352
0.00015055455
-0.0005107108
-0.0003353333
4.391736e-05
-0.00017942273
0.00026323827
0.0003654344
0.0008378896
-7.043579e-05
0.00026647502
0.0009107636
-0.00031384284
0.00031598232
-0.00025353848
-0.00039031534
-1.7204515e-05
-0.00032838888
0.0005262127
-0.00015353113
8.981357e-06
0.00047868054
0.00053990626
-8.261128e-06
-0.0002780407
-3.1989028e-05
0.00017574156
-0.0005469186
0.0003370843
0.00057266245
0.00022854186
-0.00048164543
0.00043159755
0.0003393809
0.0003377129
0.00037391915
4.3034466e-05
-0.0002680516
0.00085519074
