0
-0.00038622093
0.00012090075
-0.00022847258
0.00012648404
0.00018727664
0.00031084853
0.0002375325
-9.992194e-05
9.218227e-05
0.00033123628
0.00022840749
-9.6656404e-05
0.00014141916
-0.0003495519
0.00022352584
0.00019421925
-0.00020892014
0.0003820468
0.00026039316
-1.6425794e-05
-0.00097326166
0.00021911183
-0.00016390538
3.5328183e-05
-0.00010816092
0.0003815236
0.0007374107
-0.00024488266
0.0001073629
-0.00012565905
-0.00011191802
-0.00012681595
-4.2296186e-05
-7.245639e-05
0.00023751317
0.00037169637
-9.4701445e-06
3.3837674e-05
-0.0003859762
-3.404575e-05
0.00036729424
-0.0004302577
0.00018908511
0.00039997033
1.5799393e-05
0.00034352293
-0.00036333723
3.20123e-05
0.00063827477
0.00059583015
-8.224228e-05
-3.8980947e-05
0.0008709311
0.00029279638
0.00015509763
-0.00017112444
0.00034125688
-0.0006349212
0.00018336534
1.49205125e-05
0.00025106632
-8.55849e-06
0.000649122
-0.00023511503
0.00010100442
2.0306263e-05
-0.00015070086
-9.246476e-05
0.00067445345
1.2125372e-05
-0.000218299
-0.0007402508
0.00028245087
0.00048404754
6.466421e-05
-0.0006009405
-0.00057160243
2.5045936e-05
-0.00065601076
-0.00026018106
-2.909703e-05
1.0544065e-05
0.00024222644
-9.4214476e-05
0.00044829637
0.00021270453
0.000572275
0.00016162092
0.0004240095
0.00012720107
0.00045278427
0.0004748991
-0.00028569423
0.0003702818
0.00012231653
-0.00032251788
0.00016493109
-0.0004492561
0.00026421822
0.00043443445
