0,1,2,3,4,5,6,7,8,9,10,11,12,13,14,15,16,17,18,19,20,21,22,23,24,25,26,27,28,29,30,31,32,33,34,35,36,37,38,39,40,41,42,43,44,45,46,47,48,49,50,51,52,53,54,55,56,57,58,59,60,61,62,63,64,65,66,67,68,69,70,71,72,73,74,75,76,77,78,79,80,81,82,83,84,85,86,87,88,89,90,91,92,93,94,95,96,97,98,99
-0.27245882,-0.1469864,0.09675989,-0.087460965,-0.22876939,0.074661575,0.07674436,0.16524063,-0.23952615,0.116878614,0.036205478,-0.14612201,0.2684414,0.07343586,0.13880965,-0.027837932,0.21782549,0.06720893,0.07760765,0.2888626,-0.10573867,0.120708935,0.16549493,-0.13834712,-0.08544557,0.06637521,-0.06307853,0.033639934,-0.013148581,0.017421504,-0.14459473,-0.26925713,-0.0485952,0.31672797,0.27138302,0.14600542,-0.1313884,0.0974762,0.19739152,-0.047502037,-0.027136834,-0.20893449,-0.19212197,0.0441785,0.19947758,-0.031631134,-0.15185362,0.11046417,0.25125986,-0.08874798,-0.26819408,-0.10714984,0.11425887,-0.24800466,0.14141831,0.010640766,0.2887158,0.16772476,0.20559314,0.19817673,0.059579413,0.051412523,0.31389067,-0.26998404,0.0780159,-0.07564585,-0.040173993,0.07347085,-0.089960925,-0.10238933,-0.0908255,0.11957476,-0.21777587,0.16681339,0.019381128,-0.22535703,0.007940295,-0.07161328,0.16113356,0.12988274,0.2143183,0.13884631,-0.07489135,-0.17866172,0.028546916,-0.03751942,-0.008183491,-0.07270471,-0.08324472,-0.050455816,-0.20157032,-0.024156215,0.15515703,-0.13344036,0.081079885,0.1621838,-0.043537177,0.15631233,-0.31348294,0.080178715
-0.00027394955,0.07424862,-0.17973793,0.091999605,0.0052024783,-0.11201967,0.06680816,0.1609115,-0.054700606,0.034446944,0.19109984,0.08673184,-0.19609526,-0.15920146,-0.16072051,0.044134784,-0.044852797,-0.11230659,-0.13357644,-0.17977484,-0.13180703,0.18376409,-0.041703615,0.3083589,0.1614932,-0.05244559,-0.05600348,-0.075899765,0.06108415,-0.066481344,0.15351805,0.031616986,0.0850341,0.015413397,0.09785229,0.12799193,-0.20494027,-0.11216895,0.22109812,-0.14168994,0.023437358,0.036673542,0.09376795,-0.075969495,-0.22065024,0.28992537,0.07718785,-0.15917192,0.038614135,0.06708118,0.039443005,0.29968604,0.09916066,-0.059175964,0.22117274,-0.17044239,0.043558534,0.07778826,0.006641505,-0.16828166,-0.14830843,-0.12992835,0.06341253,-0.07496047,0.28470045,0.23214881,-0.010426923,0.28889033,0.25312057,-0.07303731,-0.048498143,0.036980405,-0.007520542,0.08766265,0.12787691,-0.15524374,-0.06461332,-0.12539457,-0.25669283,-0.02028768,0.013153139,-0.032208744,-0.2561988,0.07032333,-0.26421723,0.025582928,-0.19302051,-0.15858957,0.08768414,0.021216564,0.019762473,0.06282238,0.14007209,-0.011115977,-0.057541873,0.1884402,-0.17939627,-0.004437301,-0.3178449,-0.06354617
0.13118254,0.12682366,0.029960446,0.036863476,0.10388166,0.05684737,-0.22935577,0.2186643,0.14394048,0.12306516,0.14128657,0.1027333,-0.051801685,0.0073321955,-0.09860493,0.1903411,-0.15883747,-0.22179186,0.0021684486,0.017013613,0.07856647,-0.07962402,0.03470398,-0.105661966,-0.12483846,0.06387216,-0.051169988,0.1848608,0.1392799,0.02070016,-0.14857166,-0.0663406,-0.10881669,0.0030519739,0.20205921,0.015904734,-0.25412273,0.09610248,0.061181117,-0.09469827,-0.071573965,-0.09668985,-0.12772608,0.108360596,0.05884779,0.25138447,0.15433724,-0.17840983,0.009235135,-0.2842847,-0.27755272,-0.064783126,-0.03595952,-0.08870944,0.14945607,0.12281025,-0.031712905,0.049087092,-0.08711778,0.23043855,0.26704216,0.12843803,-0.07004326,0.14879915,-0.077252,0.19741471,0.22475971,-0.18284649,0.30256647,0.010495896,0.30712453,-0.02996051,-0.2931079,-0.10618366,-0.085524485,0.17574437,-0.03990505,0.2782315,0.100921944,0.095763445,-0.054121494,-0.18403716,-0.13194425,-0.14220044,0.10384287,-0.057763405,-0.04177898,0.16880454,0.20671876,-0.15468493,0.031957366,-0.11124859,0.15710661,0.013047919,0.12720172,0.32350084,-0.14001809,-0.1222688,-0.07573618,0.040574916
-0.004641338,-0.00490374,0.007874133,-0.102064855,-0.007736569,-0.14194134,0.054224674,0.17383921,0.03709698,-0.19917536,0.22820896,0.01967337,0.020872805,0.022518817,0.22091226,-0.23278806,0.03849677,0.20248762,0.16974178,-0.09664825,0.0043796212,-0.08696178,-0.0383706,0.1657165,-0.23123543,0.08814219,-0.068701774,-0.05834698,-0.10192424,-0.21503153,-0.032695837,-0.015873648,-0.03539399,0.073200256,-0.09193675,0.15442066,-0.21621098,0.015572137,0.23029858,-0.20249476,0.16585715,-0.082560375,0.17204049,-0.07509838,-0.26215398,0.03410229,0.15544043,-0.16089372,-0.036438964,-0.017043645,-0.21832028,0.055222355,0.13765787,-0.15161853,0.04708692,-0.18228301,-0.024073645,-0.07747142,-0.0005808397,0.19752029,0.045669273,0.16043667,-0.34476554,-0.20952716,-0.04946776,0.049345333,-0.11882731,0.09214974,0.06591238,-0.2694856,-0.07619385,0.039172094,-0.08450893,0.09767178,-0.10810484,0.27181366,-0.089219436,0.14254025,0.16684043,0.2515311,0.24565768,0.011408971,0.09169857,0.13219261,0.115132235,-0.002618414,-0.16375244,0.110937916,-0.08250015,-0.039966505,0.13230608,-0.009033174,0.008941662,0.12832534,0.30028775,0.12672295,0.058746334,0.25086355,0.12906748,0.06879326
-0.227885,0.003946218,-0.006862454,0.0076802964,0.0096029425,-0.048160087,0.20077653,0.14405133,-0.26486924,0.19832021,0.0747095,0.13101779,-0.030815443,-0.29357344,-0.06684018,-0.12434948,-0.13865392,0.07267117,-0.1875578,-0.14286646,-0.19547032,0.123154595,0.022570493,-0.11742047,-0.25473428,0.018527748,0.012600527,-0.0279401,-0.060644306,-0.27573287,0.03920652,0.020260524,0.04306395,0.16287756,0.18112977,-0.1014638,-0.06302008,-0.0039964477,0.012047157,0.07562548,-0.19555235,-0.0039052872,-0.088399075,0.03177419,0.014077772,0.025929498,-0.013116621,-0.004652811,0.038714327,-0.033821233,0.07302152,-0.108325906,0.08570311,0.06154578,0.042672433,-0.017547505,0.049462818,0.07651958,0.09174881,0.022579752,0.20214076,0.18785208,0.03656467,-0.057464108,-0.1642468,-0.043263026,0.059967745,0.17268534,0.013125116,-0.3198262,-0.1011923,0.2260803,-0.106246725,0.04439322,-0.13639359,-0.08754984,-0.045905396,-0.20365556,-0.26001975,0.20457385,0.1472895,-0.34886587,0.11497936,0.22405043,0.063160315,0.08838554,-0.048938844,0.15282275,0.15910535,-0.08612241,-0.14434847,-0.012765095,-0.256292,-0.006105054,-0.018336423,-0.053224236,-0.24901,0.07385029,-0.13127956,-0.00058555196
-0.1860478,-0.23266208,-0.028370347,0.23876944,0.081657216,0.3175482,-0.1444665,0.21534054,-0.028193679,-0.11225916,0.074521415,0.08275533,0.17126338,0.02763456,0.07521538,-0.14260146,0.040575374,0.10636591,-0.1460241,-0.08981946,-0.14881222,0.16239293,0.29395732,0.2454029,0.08201282,-0.042054072,-0.33011875,-0.036549177,-0.12704015,-0.072456986,0.011592103,-0.20545304,-0.17116798,0.04834011,0.11987465,-0.256466,-0.037004612,-0.0019665596,-0.12665406,0.19857287,-0.11630812,0.17092146,0.10618255,-0.1412355,-0.02356695,-0.07913662,0.3162072,0.046965953,-0.04041669,0.056639656,0.01942491,-0.016502133,-0.26509967,-0.26075923,-0.12901121,0.2064053,0.2150886,-0.21817255,0.26828068,-0.053622913,-0.06348826,-0.061039254,0.22785923,0.28288338,0.07376594,0.0827317,0.08997681,0.07116384,-0.10352396,0.19346257,0.04713594,0.2522615,-0.049086373,-0.13370134,0.021687659,0.32401833,-0.014935914,0.23739807,-0.16351172,0.040457815,0.20788974,0.07680498,-0.25640938,0.13894215,-0.07748371,-0.2773199,0.21289,0.2745462,-0.04741859,-0.023631053,-0.13565454,0.110227875,-0.1493523,0.065277584,0.078349486,-0.042804994,-0.15908691,0.15946403,0.003458261,0.032000124
0.10680155,-0.09001825,0.04155002,-0.22331887,0.27688128,0.25819218,-0.08327945,-0.20944744,-0.22869687,0.115438566,-0.12081426,0.034436326,0.09495696,-0.10804615,0.10357161,0.11704249,-0.08242273,0.019751823,-0.041936968,-0.084469005,0.2747999,0.05575658,-0.07640178,-0.090812474,0.078509614,-0.069318175,0.081655845,-0.25345024,0.10757215,0.15285785,0.08394147,0.17475457,-0.052270994,0.3194059,-0.15814883,0.0774852,-0.033316895,-0.06128253,-0.1271626,-0.013985308,0.12734975,-0.16490947,-0.009501059,0.0627639,-0.028951334,-0.08820354,-0.11756864,0.03429331,-0.095958866,-0.10691399,-0.2509826,-0.10380735,0.07388138,0.18728031,-0.0009394837,0.29888195,0.24873193,-0.04686495,-0.13527276,0.107833214,0.10390408,-0.14219745,0.20371905,0.0651075,0.10335646,-0.23950878,0.25516304,-0.08608796,-0.14399369,-0.04713133,-0.14796264,-0.11551993,-0.31118065,-0.16297634,-0.060981676,0.10587733,-0.12214072,-0.20076446,-0.10510179,-0.14724086,0.047553953,0.09186625,0.12219216,-0.22024013,0.22567911,0.1350143,-0.02147429,0.04051979,-0.28265586,0.09889616,0.042893223,-0.073603675,-0.10302162,0.045919765,0.14653575,0.052563813,-0.20391232,-0.2430752,0.12002774,0.20425378
0.041395698,0.2971517,0.14004713,0.07959276,0.03319378,-0.014722621,0.27510366,0.24545793,0.036988474,0.013040991,-0.05139919,-0.090541705,-0.16171007,-0.09029459,-0.1432733,0.16331893,-0.00617315,-0.12534654,0.035721507,-0.046256207,-0.04593787,0.05447055,-0.18762028,-0.13763086,-0.0670039,-0.023905147,-0.17642488,0.1694543,-0.08112004,-0.24719514,-0.11406458,-0.05991477,0.07379527,-0.3234418,0.17305954,-0.12719947,0.09674957,-0.23462546,-0.045242712,-0.31592077,0.0051321024,0.04536164,-0.315459,-0.20340799,-0.06566653,-0.024181448,-0.22116171,0.052313566,0.27953348,-0.25425354,-0.07250007,0.21904172,-0.06381963,0.07673155,-0.24818636,-0.023602448,-0.17338544,-0.14917041,0.12904134,0.12721919,0.11659305,-0.10917623,-0.19313627,0.032830004,-0.24199909,-0.00924893,-0.15583873,-0.13394515,-0.04284019,0.0773548,-0.027979765,-0.15305261,-0.04622169,0.15180928,-0.13221548,0.14202105,-0.22576992,0.059175193,-0.17399043,0.11965465,0.17675592,-0.09957987,-0.003451081,0.23224376,0.10863193,-0.18881795,0.08335299,0.26425055,0.06852236,-0.07005687,0.023379978,0.10435631,-0.012586713,-0.1015092,0.2678909,-0.058740523,0.023518305,0.32012314,-0.23370034,-0.19091968
0.01862699,-0.23964703,-0.14266892,-0.003442538,0.20865022,-0.18346636,0.10050312,-0.19045524,-0.13271132,-0.2621876,-0.048256136,-0.04489614,0.20776142,-0.19237426,-0.3267488,0.21844833,-0.121996485,-0.013010616,-0.15497275,0.2899567,-0.17862202,-0.03473136,-0.1306717,0.1177976,-0.1505787,0.15840617,-0.106919535,0.22021991,0.018796071,-0.13960068,0.051926,0.1524927,0.0346755,-0.1100501,0.11338197,0.11541305,0.09136625,-0.18592621,0.22327425,-0.13659133,0.02984087,0.07203213,-0.027923077,0.17043528,-0.13572523,-0.20127682,-0.13746251,-0.042278543,-0.21931148,-0.041897945,0.22364187,0.34693244,0.108603045,0.03560164,0.25592023,0.1403165,0.17301804,-0.15436003,-0.05930257,0.035874132,-0.31762922,0.026648525,0.10021687,-0.048955604,0.19073045,0.14727102,0.05966391,-0.028100887,-0.053672154,0.11619603,0.23485595,-0.18506697,0.07716482,-0.064532675,-0.06468388,-0.22825977,0.11938134,0.048851322,-0.1870364,-0.13646065,0.053270735,-0.34676465,-0.074291974,-0.16467416,-0.0883336,-0.2755998,0.19257593,-0.24824761,0.17010705,0.28695235,-0.15734898,-0.21610484,0.082626924,-0.094421014,0.12565158,0.2348122,0.13416398,0.043055225,0.017356642,0.021166861
-0.04725679,0.3466998,-0.014136959,0.21354279,0.12725928,-0.24464501,-0.10586399,0.06581966,-0.05660082,-0.10179901,-0.15282926,-0.055591453,0.27670223,0.21249914,-0.14153412,-0.23985712,-0.035690885,0.2878237,-0.049145635,-0.20139514,0.03216692,0.013867897,0.0686098,0.12865831,-0.15696344,-0.1994102,-0.0014196429,-0.005155975,0.079358764,0.012703673,-0.05707616,0.3223363,-0.020779995,0.101041324,-0.07553324,0.08348376,-0.11022448,0.020607172,0.09940427,0.0019091768,-0.13204795,0.18880196,-0.2029518,-0.15720333,0.014933437,0.15071481,0.054196134,0.21219695,0.011151509,0.14108218,-0.068719804,0.079298854,-0.10670272,-0.026871188,0.085879624,0.0215666,-0.23187025,0.014922962,-0.21271363,0.23108488,-0.124083616,0.28677997,-0.034601867,-0.016159052,0.054485027,0.15879054,0.29205686,-0.040071744,0.031628497,0.20989421,0.09856771,0.15565987,-0.10942907,0.11746919,-0.08532071,0.11794916,-0.00061075913,-0.0052366615,0.049575113,-0.27582064,0.04735158,0.07827559,0.09861609,0.29541904,-0.2215499,0.17005596,0.049464077,-0.17652142,0.02754294,0.067476064,-0.19612885,-0.19806205,-0.25376138,0.1641871,-0.032114763,0.039335597,-0.08079523,-0.14952092,-0.12137719,0.07321746
0.08247282,0.180989,0.25607908,-0.16089182,0.2918805,-0.081409186,0.14410093,0.0007305028,0.13610415,0.30084565,0.0029731768,-0.020352932,0.1757897,0.09735813,-0.0376682,-0.02219369,-0.21739955,0.1704264,0.030592449,0.03459495,-0.26683125,-0.041741617,0.03294403,-0.09218335,0.05703838,0.1076605,-0.047515105,-0.15209387,-0.10072275,-0.18678153,-0.06691173,0.028481862,0.26417994,0.028057406,-0.14774927,-0.0599639,0.26389173,0.059701666,-0.2391162,0.19927773,0.06671212,-0.02975395,0.08594456,-0.12183806,0.15366876,-0.15175013,0.21157901,0.17089342,-0.06096823,-0.24454072,0.097636975,0.22008361,-0.11270211,-0.0260658,-0.26497775,0.05954787,0.049684886,0.014134899,0.002445164,0.036499623,-0.04033948,-0.13515848,0.23859201,-0.026169801,0.16565622,0.041350618,0.015219428,0.08236957,0.10764611,0.23504259,0.10669187,0.014086147,0.05503103,0.32410288,-0.03610573,-0.03261436,0.25363985,-0.16476853,-0.11960271,-0.17763935,-0.010905073,0.24689032,0.13099466,-0.09586565,-0.31565002,0.06344117,0.1065209,0.10990591,0.15634757,0.12440748,-0.14186974,0.064554654,-0.06420671,0.08750024,-0.32622793,0.029209236,-0.19641738,-0.27395737,-0.20282428,-0.11869768
-0.06054774,0.15193813,-0.21199949,-0.04605953,0.1376188,-0.038739085,0.19687289,0.05049397,-0.19433907,0.2007531,-0.027862009,-0.31937492,-0.11839146,-0.049656704,0.067843355,-0.1838706,-0.22292218,-0.07135519,0.051323432,0.22253907,-0.032245122,-0.02001287,-0.23697853,0.06913724,-0.21286151,-0.20627347,0.2648971,0.19917579,0.068702765,-0.15831032,0.2182359,-0.26739424,0.09075604,-0.025753723,0.117847696,0.07047304,-0.005056781,-0.12913603,0.08290352,-0.10744613,-0.03560106,-0.10282933,0.13223715,-0.11942446,-0.12112779,-0.009630029,-0.2737491,0.14242828,-0.23911288,-0.23953255,0.26277465,-0.026295256,-0.047060877,-0.1725125,0.1596663,-0.19850062,-0.007816369,-0.077667736,0.0019494754,0.11581073,0.20950794,-0.1043007,-0.017215889,-0.05265391,0.18874443,0.16362531,0.175819,-0.042813577,0.022035627,-0.10307553,0.21787922,0.06658446,0.06056403,0.027198048,0.1265513,0.03780638,-0.11163377,0.0056213685,0.20951352,0.21308829,-0.17674695,0.11640698,-0.22642441,-0.1424051,-0.027461566,-0.033930115,-0.29287487,-0.028201276,0.1363831,0.028571108,0.023610268,-0.22163767,0.06677529,-0.15428478,-0.19425805,0.03679075,0.026698666,0.32107672,0.010670647,-0.17071003
0.11406913,-0.08295827,-0.048308354,-0.26986247,0.07648797,-0.14513892,-0.021828933,-0.057055507,-0.28259674,-0.052619815,0.048294418,-0.025382651,-0.11186558,-0.029351808,-0.0037366264,-0.00938312,-0.03633308,0.089978114,-0.15296933,0.16118066,-0.120260805,-0.082412556,-0.03326571,-0.046193164,-0.2581084,-0.036729805,-0.0010249554,-0.18514453,0.15126683,-0.14460754,0.17648618,-0.14902344,0.053076982,0.16051888,-0.16640994,0.18728788,-0.1340181,0.057525728,0.02741942,0.013281346,0.16826513,0.16780952,0.09595426,-0.26135275,-0.2960954,-0.06452966,-0.06377181,0.24752268,0.18455155,0.22845192,0.1283273,-0.021680558,-0.10655779,-0.018123232,-0.19276047,0.0056933146,0.16999072,0.048457306,-0.053821646,-0.08360513,-0.0761471,-0.1479931,-0.3188557,-0.06949632,-0.038040563,0.12014465,-0.26117924,0.15551136,-0.13535847,-0.26676553,0.19304371,-0.07397917,-0.15895934,0.11372517,-0.10620715,0.13536815,0.13309903,0.3710953,-0.1407646,-0.24634781,0.15649927,-0.13486151,-0.171093,0.25953573,0.1504034,0.15469226,-0.041099884,0.071481876,0.056467835,-0.16675594,0.07041014,0.17242193,0.23491089,-0.22417697,-0.07542558,0.023985075,-0.13804936,-0.0025576425,0.27530226,-0.24968094
-0.02268147,-0.2120071,0.09335015,-0.038694516,-0.33950517,0.18757683,-0.16749209,-0.095414676,-0.17978404,-0.063893475,0.15805627,-0.27263328,-0.14258903,0.06172974,0.29130515,0.11463108,-0.14259568,-0.09373007,-0.10761027,-0.16077793,0.110053465,0.0863403,-0.09666435,-0.08277276,0.10586391,0.10736688,0.15734895,-0.06821725,0.10872304,-0.0028870073,0.1202054,0.04971643,0.0124528855,0.14440116,-0.048200205,-0.17319195,-0.078252375,0.08637672,0.33542556,0.001463583,-0.121448874,-0.08313154,-0.19621518,0.19553211,-0.049181834,-0.06132238,0.34566945,-0.036498107,-0.19496532,0.04950991,0.008336745,-0.07339605,-0.0058692247,-0.20707177,0.03177792,0.21729955,0.062996335,0.05205287,0.09760903,-0.016696341,-0.071333595,0.07749066,-0.007885487,0.118094705,0.07516839,0.32825783,-0.025256565,0.13136289,0.056148414,-0.11661326,-0.06762721,-0.33847803,-0.013598113,0.083439775,0.083820574,0.09505321,0.050216194,0.12432601,-0.009954844,0.06040345,-0.09139726,0.19790123,-0.057134315,0.12023403,0.13322286,-0.12055052,-0.10991551,0.041971374,-0.030673347,-0.15622067,-0.09214148,-0.045452908,0.26739353,0.08102025,0.21230002,-0.08626593,-0.055826224,-0.032891747,-0.18095508,0.04141183
-0.20888841,-0.118113175,-0.044613943,-0.16844328,0.13158286,-0.003168536,0.03663164,-0.17146537,0.2986286,0.13269286,-0.1282106,0.22590585,-0.14140703,0.056341145,0.12483673,-0.19551225,-0.24982786,-0.12628926,-0.15754443,-0.04067053,0.049714603,-0.10444394,-0.07169744,0.2438976,-0.095006876,0.30649176,-0.057810917,0.19500649,0.06816837,-0.01197892,-0.29055437,-0.013919977,0.059313156,-0.0069118766,-0.13213603,0.07420032,-0.019054329,0.21837163,0.29463404,-0.048483443,-0.033324063,-0.19192211,0.18663037,0.2375662,-0.22646523,0.0501207,-0.18770441,-0.03436295,0.16472344,0.22345202,-0.060775433,0.039928477,-0.12616305,0.01769257,0.29317313,0.08240848,-0.0647211,-0.3106943,-0.03145341,-0.0041141165,-0.002578093,0.21402363,0.18284772,3.6255515e-05,0.28030375,0.030409945,0.2560451,-0.2600308,-0.040015727,-0.13412791,-0.031042883,0.15714584,-0.02258646,0.28662667,-0.119187705,0.13921304,-0.038485568,0.115369104,-0.06321678,-0.16782188,-0.07269245,-0.19941318,-0.058643013,0.06392758,0.046523195,0.118925676,0.0175379,0.15190512,-0.07385789,0.034788504,-0.18218006,0.015082292,0.072804004,0.07883659,-0.12123227,-0.10126022,0.32375082,-0.11468218,0.17781024,-0.17328197
0.09103128,0.02813142,-0.064873375,-0.24367166,0.10932425,0.19061872,0.016052902,0.029140815,-0.057489052,-0.0606339,0.18730457,0.16270462,0.096036464,0.0361832,-0.28230575,-0.14649494,-0.2783162,-0.102224596,0.033891935,-0.048280925,-0.12386831,-0.087089814,-0.31157857,0.20186663,0.029223273,0.111395754,0.12479206,0.061910093,-0.20147869,-0.34109363,0.12640613,-0.06169006,0.0061914115,0.21841596,0.089296155,0.00833594,-0.041314315,0.17740604,-0.10995915,-0.041226957,0.012594766,0.08957795,0.044394772,0.18769836,0.07747013,0.11354287,-0.04020022,0.17489399,0.037569936,-0.21523537,-0.19082603,0.12526843,-0.016899196,0.07165144,0.09191196,-0.012299973,-0.013184432,-0.14999606,-0.037171338,-0.2593167,-0.09836539,0.022139814,0.21081349,0.0017449984,-0.06661113,0.1292304,0.023743035,0.05035269,0.117392175,-0.17014565,-0.20395924,0.0074190455,0.31280902,0.027226167,-0.23720291,0.027070358,-0.076300025,0.052013014,0.07470061,-0.23802435,0.14202414,-0.09355646,0.078617044,-0.022637345,-0.00090683193,-0.03928801,-0.11429862,0.0077019515,-0.043841798,0.18850301,-0.07535517,-0.041558187,0.16531503,0.0691191,-0.13770226,-0.08777034,0.075310856,0.15206233,0.0715119,0.037411485
0.18416245,-0.11402807,0.21682823,-0.0016969728,-0.28590405,-0.029927177,0.06536188,-0.07120164,-0.13667439,0.20435451,0.09531388,-0.08067634,-0.16224457,0.107077226,0.25557697,-0.018037768,-0.07300538,-0.10342798,0.026572037,0.04069438,0.067820214,0.04347329,-0.035304207,0.074149735,0.081720546,0.20533323,0.059467986,-0.024935538,0.08199808,0.13566972,-0.12662049,-0.016899772,-0.017826935,0.059107307,0.039586544,0.11120153,-0.1658973,-0.094820134,0.21140975,-0.12951717,-0.055597655,-0.114691876,0.08631475,-0.04424441,0.22802833,-0.07060563,0.022164831,0.10673982,-0.15530902,0.12480485,0.21378213,-0.110046074,-0.3176741,-0.068796895,0.19895795,0.08596039,-0.07375439,0.073697746,0.16143821,0.10903608,-0.04199996,-0.016368978,0.0687409,-0.09394704,-0.10740923,0.005496564,-0.028183656,-0.15872632,-0.007605766,-0.09268185,0.033295713,0.040343586,-0.1662543,-0.07996086,-0.053171434,-0.015955254,0.08906812,0.2646398,0.0014329911,0.062387016,0.044463266,-0.03523314,-0.13065462,0.0067469305,0.22974093,-0.10632059,0.039241698,-0.1588447,-0.22223972,-0.006433558,0.109511316,0.19740923,-0.07825487,-0.0056669433,0.2619109,0.11999215,0.0025398738,0.32163855,-0.20064838,-0.26151878
0.039415494,0.03648127,-0.16015992,0.09116359,0.12116456,0.012607122,-0.018201254,-0.1180351,0.07166647,-0.27571028,0.095313355,0.17217699,-0.078488186,0.17878745,0.2851373,-0.029502256,-0.2980475,-0.034045197,-0.06416267,-0.09244763,0.048796073,0.2160032,-0.14172252,0.018435018,0.20212519,-0.060524326,-0.08110135,0.08028182,0.021951651,-0.043037727,0.10257328,-0.036241584,-0.100668974,-0.18834065,0.13114959,-0.22472703,-0.0120600015,0.009305371,-0.06975077,0.24803104,0.010111345,0.06303851,-0.1638908,0.1059507,0.12155285,0.15432903,-0.20649472,0.07892155,0.19869088,-0.15388158,-0.03334292,-0.22050607,0.19934261,0.06662574,0.15756352,0.24257861,0.030310499,0.09952909,0.032983985,0.1842369,-0.004989814,-0.042784307,0.0511007,-0.09992558,-0.11423636,0.16477615,-0.22680567,0.13732669,-0.04793526,-0.15612295,0.078398526,-0.10557553,0.21389693,0.28365946,-0.06930964,0.07481028,0.06502333,-0.11313078,0.11591715,0.18233608,-0.027381396,-0.1746704,0.020796658,0.18783182,0.098633975,-0.22300631,-0.024586324,-0.042507485,-0.16145797,0.14425784,0.2161804,0.044528864,-0.23920082,-0.19443735,0.03939382,-0.0007971014,0.1768441,0.20012912,-0.22963113,-0.057269096
0.23565648,-0.04223244,-0.16777597,0.13316609,0.16654678,-0.22051008,0.25503263,0.048381522,-0.10778603,-0.08484775,-0.18774098,-0.017668122,-0.029780721,0.13166066,0.001546669,0.099443495,0.297542,-0.14849964,0.17205374,0.0008282957,0.059105143,0.030345226,-0.070940666,0.064421505,0.022447288,0.030817859,-0.06002153,-0.051912766,-0.1242032,-0.06907806,-0.055080313,0.17244121,0.27058792,-0.04872553,0.073974416,0.15178485,0.25348437,0.050607894,0.043518648,-0.09649851,0.016468817,0.10435822,-0.10269293,-0.039648145,0.16778475,-0.1363488,0.08647156,-0.096645445,-0.06411456,0.09325963,0.09866352,0.24344169,0.24425149,-0.015946519,-0.15030523,0.10647338,-0.23083778,0.013186501,-0.067512,-0.031402394,0.28927442,-0.07791322,-0.05839862,0.069807,-0.21787693,-0.0061691613,0.0220353,0.10313589,0.019255677,0.181703,0.17205909,0.09303826,-0.06363244,-0.16373427,-0.09901496,-0.28602055,-0.27311537,0.10124871,0.1707017,0.08685439,-0.13039905,0.12028136,-0.008783138,0.18244825,-0.11634053,0.0112990355,-0.19299181,-0.008706013,0.16439444,0.038415987,0.013012588,0.1656181,0.028086819,-0.20155805,0.21454182,0.03893187,0.023725651,-0.0016687211,0.058223795,-0.11543672
-0.14092374,-0.017218413,-0.15677519,0.12166537,0.24015412,0.029484864,0.17865223,0.15155464,-0.019164514,-0.2573901,-0.008746268,-0.1028289,-0.08883194,-0.18256961,-0.029585464,-0.14291245,-0.00010473703,-0.2708389,-0.06310955,-0.21826679,-0.1251462,0.17302994,0.17816944,0.0058570043,-0.016700499,0.001850296,-0.22586988,0.09015772,0.040298916,-0.021079209,0.18570603,0.1933331,-0.0063635027,-0.021050747,0.24734642,-0.14583503,-0.13558005,-0.04223314,0.30605808,0.14732416,-0.2203578,-0.008426727,-0.1338786,-0.28835157,0.1359808,0.09079951,0.05139373,0.23067756,0.04762385,0.1343382,-0.097911425,0.10099769,0.14132218,0.19649602,-0.18138164,0.31630793,0.03907392,-0.30199108,-0.19207817,-0.13582698,0.019629274,0.26428983,-0.049621247,0.05487271,-0.053673353,0.0103552295,-0.2733038,0.026703132,-0.10162441,-0.0359183,0.14141624,-0.049158927,-0.25322297,0.09603291,0.14330925,0.014169304,-0.23519503,-0.19990374,0.1602062,-0.09668457,0.13043788,0.22216247,0.063727304,0.08423339,-0.014624031,0.024406983,-0.010301701,0.14082891,-0.047626853,-0.18711616,-0.108689524,-0.052520406,-0.037804384,-0.10353176,-0.20369767,0.19090967,-0.056247473,0.11453905,-0.14348146,0.14727798
0.14606977,-0.15989214,-0.054266423,0.14845367,0.12969063,-0.012967276,0.22267151,-0.13096064,-0.16604151,-0.08190194,0.10236889,0.045925874,-0.054673683,0.27458513,-0.11332998,-0.13818975,0.019560022,0.17362186,0.11440513,-0.038828265,0.2471285,0.17887463,0.049927305,-0.029675312,0.01118859,-0.02300005,-0.048184764,-0.20363113,-0.02006204,-0.26886603,-0.096933715,0.20618448,-0.06278705,-0.037903935,0.22193232,0.17813839,-0.23454662,-0.08053208,-0.019918945,0.065681495,-0.04980489,-0.04956297,-0.27025348,0.0559383,-0.100377694,0.2865374,-0.28285542,0.026816841,0.15424155,0.31482905,-0.102198206,0.02844029,0.21406832,-0.051199075,-0.090500765,0.078905635,0.059668034,0.114285894,0.19192627,0.2224185,0.12015869,0.009105353,-0.18450558,0.24880043,-0.05644899,-0.17935593,0.07113225,0.110959835,-0.1914064,0.08103725,-0.03377517,-0.18021496,-0.24199061,0.30933464,-0.14736496,-0.05418744,-0.072928585,-0.11727029,-0.23940642,0.05902872,0.17618589,-0.23378898,-0.29176205,0.03665544,-0.033013135,-0.005087121,0.027746838,-0.040901292,0.014793208,-0.13638487,0.013237565,0.10328584,0.01691365,-0.032799456,0.1702139,-0.19959016,0.020511258,0.14189939,0.25305694,-0.009383784
0.119305275,0.20188752,-0.09019609,0.27518016,-0.04947186,0.05001687,-0.09461952,-0.08899724,-0.04740548,0.093516536,-0.2134906,0.124394156,0.12263056,-0.06824882,-0.1301717,0.0032750452,-0.052464027,0.16939124,-0.21673805,0.26151505,-0.052144323,-0.0028327224,0.004898224,-0.09146512,0.35019085,-0.13369009,-0.32029325,-0.11613994,-0.119017966,-0.31442553,0.26337296,0.07513333,0.1503517,-0.08021312,0.06491419,-0.20896749,0.07820654,0.21826397,-0.0866262,0.10878905,-0.18079202,-0.109175995,0.105793886,0.06522823,0.108203836,0.29994926,0.08781355,0.23326531,-0.14959207,0.18118086,-0.19847679,0.22176841,-0.080677085,0.05576124,0.10567721,-0.0998891,0.08125207,-0.039544214,-0.0055922354,0.28598133,-0.13354123,0.060982175,-0.059708755,0.00804072,-0.015600282,-0.06304175,0.07776876,-0.09108003,-0.08050944,-0.19989829,0.058923822,-0.11409067,0.22417738,0.1997067,0.13018678,0.044355385,0.0906999,0.35487837,0.17966229,-0.16957013,-0.015164459,-0.029685603,0.039930724,0.045666855,0.103132136,-0.21778937,0.024806641,0.18182625,-0.15157837,-0.08583989,0.09574935,-0.2780958,-0.05534115,0.3008818,-0.12909524,-0.24820036,-0.15238464,-0.17264447,-0.16316305,-0.21678646
0.0020594469,0.1212929,-0.09362973,0.121106386,0.10665905,-0.23817983,-0.0013428293,-0.024490481,-0.061745156,-0.0081727225,0.038383797,-0.1298879,0.075911365,-0.08498884,-0.016296877,-0.31376645,0.1408356,0.0868555,-0.33848256,-0.16102931,-0.16465807,-0.14359815,-0.03498548,0.24801543,-0.055161506,-0.13339895,-0.16471119,-0.058971748,-0.043546304,-0.020862564,-0.12973528,0.095780715,0.14692158,-0.24869947,0.11669571,0.066753484,0.19789703,-0.08815733,0.2484719,0.12494769,-0.06889732,-0.05895378,0.09584316,0.08101131,0.09396886,0.20401894,0.07012372,-0.3346495,0.051669087,0.04250242,-0.11258434,-0.05103595,-0.111156926,0.08214972,0.15721,0.21067548,-0.14811125,0.048539262,0.20325938,0.022254514,0.13954987,-0.027730968,0.008615758,0.08591215,-0.0096487645,-0.0035140358,0.16680598,0.09390544,0.035322264,-0.07594971,-0.08324409,0.24639334,0.14888346,0.12352256,-0.009177385,0.25781983,0.31236452,-0.07488418,0.22062358,0.19270667,-0.13103117,0.11159933,-0.10446055,-0.0052072885,0.042101678,0.09447977,-0.22790684,-0.14629851,0.020305783,-0.0092583215,0.08934512,-0.02660021,-0.069095954,-0.045473006,-0.014670755,0.06669964,-0.14119373,-0.0033469282,-0.08764812,0.31021747
-0.0079285,0.075471684,-0.102918245,0.1526227,-0.16989873,-0.00708436,-0.11083333,-0.003601571,-0.085501984,0.04645751,0.13855399,-0.15962529,0.015765123,0.26251858,-0.08607236,-0.018344471,-0.09167373,-0.046634067,-0.13283607,-0.2241111,-0.29824764,0.05694258,-0.0053783692,0.038437083,0.2697149,-0.033323556,-0.03203957,-0.19033232,-0.30921605,-0.056094155,-0.14238876,0.069172494,0.11000268,0.12949352,0.042493764,0.013603664,0.26148137,-0.010341611,0.17926565,-0.03168314,0.023117749,-0.19121787,-0.22958954,0.017596047,-0.046068158,-0.32742152,-0.24148884,0.05242305,-0.08446143,0.074412316,-0.0746407,-0.07818096,-0.14443424,-0.0887009,0.27520466,0.059705015,0.16446093,0.06284437,-0.13052008,-0.021723438,-0.054289404,-0.11611741,0.11093254,0.24100067,0.07520223,0.19678114,-0.04819843,0.08203163,-0.33823958,-0.079962574,0.2783377,-0.21813343,-0.19583075,-0.25507587,-0.33938602,0.16159292,0.17394535,0.054706868,-0.25118142,0.08984898,0.22537631,-0.018018113,0.018438347,-0.08232404,-0.03294159,0.16229543,0.1102586,-0.09491525,0.09859423,-0.029737817,0.16244352,0.12824968,-0.038124196,0.19428074,-0.13480075,-0.051947903,0.006401174,-0.014823896,-0.18259352,0.1351951
-0.092984304,-0.13441028,0.26198977,-0.008699364,-0.23000258,-0.038109113,0.069662474,-0.1894388,-0.010751503,0.19055347,-0.2719976,-0.079024464,0.034804612,0.13579486,-0.32229325,-0.13036074,0.10584904,-0.11478521,-0.23463967,0.12341717,-0.11170801,0.018216444,-0.117064856,-0.2355513,-0.21937469,0.13023286,-0.04085657,0.012778609,0.24207623,-0.11146938,-0.14508075,-0.10840591,-0.13228396,-0.04311398,0.12283312,0.16000386,0.17018916,-0.028093679,-0.16162968,-0.09687918,-0.0018156259,0.1496412,0.11928253,0.107214965,0.095740646,0.10382773,-0.18710276,-0.123313144,-0.21043989,-0.02067343,-0.013917106,-0.031815216,0.27351528,-0.19037649,-0.078601725,-0.11814268,-0.32344902,-0.2567768,0.067660846,0.18679558,-0.13645399,0.29171595,-0.12635273,-0.044624172,0.05673518,-0.006389071,-0.28797296,-0.10732191,-0.14198495,-0.05326234,-0.077999204,-0.2338307,-0.21394676,0.31827742,0.0037327008,-0.09013759,-0.06766733,-0.070075884,0.2436468,0.03992105,0.12840647,0.2755304,0.20666127,-0.10182586,0.10543797,0.05515885,0.13771732,-0.1041951,-0.096331306,0.30655912,0.16097592,-0.019599127,-0.10286192,-0.1645679,-0.24469763,-0.18215555,0.13042852,-0.22587524,-0.070341155,0.21247269
-0.30958614,0.10123426,0.044047028,-0.030554077,-0.09408016,0.055294894,-0.04197154,0.13334161,-0.17870687,0.15711069,0.09438014,0.13738926,0.22746891,0.023997804,-0.060449935,-0.16060446,0.26990744,0.15924308,0.08408736,0.008393149,0.042419057,-0.06163876,0.2821893,-0.31126547,0.27459484,0.2535024,-0.29160234,0.31781027,0.21993136,0.0894971,-0.19678774,-0.12684956,-0.19283873,-0.19757758,-0.005800074,-0.10443646,-0.2620332,0.16615199,-0.07014631,-0.2959876,-0.051848873,0.033961773,0.13600464,0.11302657,-0.18165605,0.122365244,-0.2555864,-0.12931563,0.040680274,0.11356396,-0.041783907,0.08704824,-0.16249079,0.0026931518,0.029646207,0.071481846,0.027753934,-0.29900095,-0.06627435,0.16738832,0.23684615,-0.12755013,0.018741013,0.20150383,0.11621249,-0.23105085,0.101144284,-0.06669294,-0.15781151,0.06862915,0.01912771,0.03538735,-0.2829465,-0.24034885,0.061996337,0.0021574632,-0.06330968,-0.037602995,0.08056716,0.2482011,-0.12944107,-0.036908723,0.06665964,-0.10432875,0.014077741,0.27026772,-0.05835703,0.027389048,0.05742275,0.07518372,0.23915477,0.30145538,-0.04925375,0.023483146,0.02559162,0.23724571,0.17986088,0.2882673,0.29206184,-0.014857414
0.06564981,0.18324962,0.20847711,0.31761312,-0.0021771572,-0.19791482,0.007836482,-0.13632345,0.12520355,-0.058067042,0.049882807,-0.031623095,-0.15051745,0.118815124,0.13682333,0.09441214,-0.23582233,0.23758234,0.119239524,0.07441346,-0.098612994,-0.1819689,-0.07065908,0.10959194,0.023015996,0.10844237,-0.048366826,0.08365203,-0.16031905,0.056788895,0.024270242,-0.09878562,-0.23343629,-0.24901588,0.30642828,0.0007622289,0.0048156334,0.12594606,-0.026117532,0.028855983,0.05999616,-0.048273224,0.100887254,0.09938927,-0.19133443,0.09595741,-0.3413164,-0.13378263,0.20185919,0.15859172,-0.31665447,-0.012513855,-0.10645318,-0.24899885,-0.2126227,0.15208341,0.1806831,0.05456935,-0.010927461,0.19087172,0.2232215,-0.09270845,0.20292929,0.124989696,0.23203804,0.033258438,-0.2135642,0.29460284,-0.18476371,-0.113755405,-0.18144016,-0.13396497,-0.14715613,0.09685792,-0.21231148,-0.28368855,-0.056556024,-0.044968866,0.095597416,0.103657715,-0.13705315,-0.02984653,-0.016522588,0.24998976,0.24052387,-0.15160593,-0.12796727,0.17492999,-0.0017641354,0.1709853,-0.030738818,-0.08136154,0.14654039,-0.21200742,0.21313418,0.0566264,-0.07916072,0.17612441,-0.12525786,-0.10516102
-0.0048567955,0.13589184,-0.023259217,0.12762849,-0.18385696,-0.3269019,-0.2625988,0.048956677,0.29350552,-0.14516874,-0.027375713,-0.02293793,0.0057174163,-0.16579936,0.003943119,0.25067663,-0.11851633,0.27068055,-0.19297013,0.18983172,-0.009930612,-0.31242335,0.10026678,-0.051734623,-0.038769383,0.0945891,0.20489387,-0.2929381,-0.09501196,0.20316002,0.010038741,0.04081635,0.2947378,0.28608388,0.04258294,0.022860928,-0.0045702336,-0.00024378535,-0.25667682,-0.13053188,-0.041614268,0.18921413,0.08082265,-0.08840963,-0.06460949,-0.010792,0.03596462,-0.1268201,0.06930859,0.011755124,-0.19035009,0.030798435,0.002573497,0.11112345,-0.03887414,-0.074541725,-0.090247296,0.09701023,-0.32049274,-0.3459056,0.10387645,0.30644694,-0.22233456,-0.080618545,0.06634622,-0.11389796,0.17933103,-0.27721798,-0.1867094,-0.13170545,0.17167976,0.10735849,0.033725895,-0.010378913,-0.051983636,-0.05355732,-0.18907069,-0.11749862,0.075714625,-0.1664615,0.0065826555,-0.22887242,-0.17557122,0.09911684,-0.024697494,-0.21119483,-0.12064162,0.20497799,-0.07993577,-0.08827282,0.033065915,-0.032292712,0.08566071,0.010010127,0.09830953,-0.16689995,-0.01405419,-0.20059507,-0.09268544,-0.053186465
0.18711668,0.06693391,0.27435917,-0.06512179,-0.08502997,0.14586505,-0.14286488,0.05233621,0.1015315,-0.1911401,-0.14880092,0.11071363,0.03183979,0.13962214,0.00019802788,0.0017897831,-0.2056454,0.011908631,-0.027757116,-0.17834936,0.078584865,0.13285576,0.070861466,-0.047727764,0.105759084,0.14515074,0.05151019,0.15822543,-0.09699323,0.017034093,0.00083547516,-0.13450576,-0.14901881,-0.09311376,-0.12075507,0.16098349,0.20327155,-0.11046722,-0.01718697,-0.16954717,-0.0110002225,0.041524343,-0.12063841,0.13034636,-0.37917703,-0.30281323,0.18966736,-0.13428502,0.16516383,0.12755361,-0.122457,0.22732435,0.32386556,0.14459303,0.043006092,-0.14500993,0.11331706,-0.05266915,-0.13698177,0.17504866,-0.028358525,0.20525092,-0.20557363,0.2089057,0.29873237,-0.017464979,0.15567157,-0.23680046,-0.1801723,0.19692734,0.0623732,0.19170924,-0.071685694,-0.16869222,-0.036771767,0.020647746,0.026864648,-0.10659379,0.24007368,-0.05944026,-0.049355317,0.2918442,0.1371983,0.00095226086,0.05266044,0.21971764,-0.032695692,0.27855375,0.0015234108,-0.2144546,-0.1345076,0.13286734,-0.08567915,-0.005359274,-0.120109335,0.15775743,-0.24705993,-0.057141405,0.03401108,-0.099706575
-0.21333322,0.022440605,0.09819074,-0.08258576,0.20997666,0.0135877775,-0.19717562,-0.14309588,0.23957217,0.3182119,-0.13647373,0.0046233577,-0.052729312,-0.0014516803,-0.11760754,-0.06850981,-0.082835406,0.22826113,0.2120934,-0.03982038,-0.032191183,0.03653361,-0.03402146,-0.13226411,-0.1837349,-0.11357816,0.24012858,-0.034683414,-0.36921704,-0.15986109,0.12971577,0.09110405,-0.063339144,0.10861655,0.07202822,0.18500093,-0.14469562,0.20645386,0.20311397,-0.0062812963,0.13500857,0.13832185,-0.030223165,0.23155475,-0.018985664,0.17350353,-0.09608854,0.015775116,-0.078931995,-0.057836216,-0.22464894,-0.050926045,0.17029922,0.24767627,-0.061471373,-0.073430344,0.019681823,-0.05577156,-0.016433386,0.08495761,-0.1477007,0.011964659,-0.27035335,0.11700118,-0.17599857,0.08896892,0.0874071,-0.14413464,-0.07370713,0.046051227,-0.032174375,0.08184914,0.1665934,0.0009292946,0.24848956,0.15620498,0.042192932,0.21320955,-0.06595054,-0.2514937,0.3161562,-0.11635783,-0.0070875636,0.041942388,0.023288267,-0.116749994,-0.08402491,0.3371793,0.14124067,-0.1776893,0.16016908,-0.09883305,0.119435795,-0.0052809897,0.18943429,-0.052146725,-0.18507585,0.038335975,-0.19916324,0.12488519
-0.16119938,0.19587876,0.08362418,-0.029843375,0.054356024,0.02584677,0.10520495,-0.014199719,-0.09731821,0.057542108,-0.020841068,-0.24520533,-0.096718535,0.098469175,0.039489966,0.03183126,0.0122914305,-0.12540112,0.07141599,-0.12635899,-0.04214918,0.11394162,0.20634878,0.049969908,0.09110938,-0.19117172,0.3496519,-0.04872725,-0.11568986,0.072100595,-0.13514559,0.204963,-0.011786132,0.19475013,-0.20103863,-0.007849946,0.086846516,0.3808608,0.047612034,0.033136457,-0.06601075,-0.25936168,-0.18751325,-0.13241118,-0.12813723,0.0050654192,-0.05729943,-0.020281974,-0.11865726,-0.15983228,0.071472846,0.054942198,0.06582468,0.025126252,-0.13995534,-0.13393405,0.19572146,0.036293283,-0.27035972,-0.114301845,-0.16591151,-0.31108046,0.002403756,-0.3031472,0.19863674,-0.07943481,-0.09896497,0.12252115,0.0014476123,0.26879564,-0.15399317,-0.12127111,0.2216838,-0.12731154,0.32190233,-0.1477514,0.14504482,0.24984848,-0.22267398,-0.047613338,0.00064904836,0.07747763,0.060447216,-0.0018114749,-0.025237534,-0.007023518,-0.021776216,0.17159869,-7.3736355e-06,-0.2295301,-0.14053893,0.20369464,0.005983808,-0.035125226,0.04767543,0.03575894,0.16860186,-0.052771058,-0.12310243,0.031576302
0.036426816,0.05833492,0.06285165,0.110946596,0.14183407,0.3205481,0.17186575,-0.07125458,0.005425494,0.025126325,0.049733333,-0.25351727,0.07357139,-0.2654441,-0.02304451,-0.2273923,-0.031967554,0.2517621,-0.04609057,0.19174065,-0.09480042,0.28587317,-0.2120898,0.20959727,0.09003831,-0.1364049,0.19494937,0.07246197,-0.3100055,-0.115048535,0.24591161,-0.14002393,-0.05725314,0.021903832,0.055261973,0.04155763,-0.20424047,0.30284104,-0.101539865,0.01855704,0.026519265,0.04370967,-0.06764989,0.09351262,0.15042742,0.018183872,0.072713204,-0.19976145,-0.13367602,-0.2017057,0.06226993,0.10694084,-0.24205413,0.018686034,-0.08900975,-0.26269257,-0.013880245,0.011808956,0.11522438,0.0073917345,-0.2732574,-0.20903154,-0.07694884,0.02668866,-0.14079599,0.093096934,-0.108449504,-0.017656317,0.033313725,0.18468253,-0.25597024,0.05781693,-0.03788761,-0.19700806,-0.04534803,0.0923393,-0.17354259,-0.09882471,-0.30579007,0.054738052,-0.25592232,0.12082529,0.07844159,0.15422864,-0.22675125,0.11298936,-0.03279793,-0.1384875,-0.17898533,-0.2361372,0.13642083,0.04839437,0.0059145335,0.18426259,-0.19549662,-0.26685822,-0.044246133,0.1489275,-0.0013129838,0.19593604
-0.14081141,0.006855139,0.2550917,0.045576606,-0.03458481,0.16437091,0.08566773,0.057195973,0.1982152,0.29542208,0.27686703,0.030606976,-0.076719955,-0.27277374,0.23013543,0.06760141,0.16854995,-0.10918593,-0.2951031,-0.06377504,0.28971577,-0.20567259,0.017308317,-0.0016308601,0.20928313,-0.17338352,0.02318274,-0.13713396,0.11620622,-0.15087497,0.2513915,-0.02641756,-0.050461844,-0.24512504,0.05461916,0.040760253,-0.007375235,-0.20373444,0.122610375,0.12137059,0.31467542,0.1459885,0.08054606,-0.12417693,0.09699689,0.10785263,-0.05505048,0.005273163,0.2367469,0.072999015,-0.19941059,0.10611651,-0.116790265,-0.14272448,-0.18671678,0.31413907,-0.0944981,-0.061757874,-0.09785707,0.008743233,-0.089410044,-0.08969791,-0.20501176,-0.12390455,0.18875223,-0.08122797,-0.2834712,0.22069778,0.090354115,0.14342591,-0.18412626,-0.09085022,0.028991397,-0.1611059,0.117289305,-0.07280099,0.089374274,-0.13041575,0.0046184105,-0.07460892,0.06204411,-0.06021127,-0.18491799,0.053122323,-0.03393023,0.03552877,0.023630511,-0.009803617,-0.25946012,0.15433355,-0.07170211,-0.09944728,0.22719437,0.15238957,-0.14142017,-0.048423477,-0.18516077,-0.15429834,-0.17793813,0.036554683
-0.13429286,0.15242077,-0.16262233,-0.1821007,-0.06651743,0.027018877,0.0003983984,-0.019364733,0.08634783,-0.06877901,-0.28897288,-0.018705042,-0.0571596,0.065573014,-0.088869706,0.20976847,-0.02099018,-0.027933428,0.26333746,0.15456039,0.1732939,0.08945183,-0.07877161,-0.19649142,0.026998265,-0.10214743,0.1442149,-0.15693773,0.1376366,-0.15303119,-0.032081705,0.058944285,-0.08281687,0.048964813,0.31146273,-0.12734647,0.02489105,0.024543986,0.13568239,0.16301255,-0.23447101,0.05437389,-0.20775469,-0.1997249,0.115637854,-0.18447877,0.059373267,-0.028846363,-0.22777718,-0.22247669,-0.16175343,-0.2624723,0.0497403,-0.27518612,0.13859779,-0.044207543,-0.11379012,-0.35351586,-0.023550825,0.13144663,-0.10038243,-0.078531906,0.20616183,-0.18693337,-0.15747844,0.047997195,0.08943435,-0.0435504,0.17454216,-0.040439133,0.16138259,-0.046715647,0.16988331,0.23811221,0.096132696,-0.17861354,-0.123985685,-0.25077146,-0.10069045,0.06126912,0.039148714,-0.21006608,0.03453831,0.25780788,0.14848298,-0.090681925,0.11757723,-0.16152863,0.31419203,0.18301018,0.078770414,-0.117859654,0.034661688,0.2014996,-0.16634405,0.10288285,-0.03946545,0.029695982,-0.067496374,-0.002442072
-0.09257737,-0.28752056,0.21205424,-0.10157584,-0.24278004,0.071304485,0.08001979,-0.1319978,0.017126698,-0.31785822,-0.23777409,-0.08155705,0.004592481,0.037490733,-0.03930539,0.10558128,-0.006911457,-0.10204559,0.17839892,-0.08342726,0.072732635,0.0478436,-0.00075956347,0.3476604,0.11140908,-0.08200398,0.19586697,0.033265896,-0.13652648,0.25066012,0.04432067,-0.01982623,-0.034591448,-0.09778649,-0.0012802767,0.076655746,-0.19813734,0.17146158,-0.13873921,0.11251774,-0.2307947,-0.040727064,0.024153315,-0.2139088,0.062204618,0.09786066,0.22558522,-0.07284163,0.051074814,0.0070986925,-0.017444598,0.23626035,0.22774546,-0.18790147,0.17497504,0.15776673,0.04659472,-0.0031724905,-0.3024821,-0.009396543,-0.07556592,-0.20964251,-0.09640637,-0.099573545,0.32251495,-0.26501834,0.15657128,-0.21208799,0.08021402,-0.039914053,-0.011700344,0.020125436,-0.19538222,-0.054442674,-0.08036447,0.29684755,0.28511295,-0.25287777,0.22568151,0.17183213,0.15854326,0.112808615,-0.13266048,0.07227739,-0.11571577,0.1695335,-0.20154828,-0.054547887,-0.15518695,-0.006327457,-0.12378151,0.10444747,-0.12447515,0.23749425,0.025842024,-0.15462655,-0.09945019,-0.05320449,0.176728,0.06326343
0.026727572,0.19683765,0.20346676,0.208641,0.18029249,-0.2402577,-0.036573168,-0.059941284,0.012444798,-0.21997635,-0.028754277,-0.2400021,-0.16516167,-0.004254995,0.17344081,-0.04204571,0.2643405,0.0016202996,0.15869161,-0.06238123,0.21350417,0.1947722,0.08135275,0.09593502,-0.2099183,-0.002064602,0.22193588,0.28933463,-0.028781816,-0.32663214,0.17126492,-0.040174577,0.10833795,0.15850501,0.087244846,-0.1407363,0.20886265,0.048090503,-0.08240149,-0.0012324944,0.12469655,-0.18542318,0.10814618,0.17290726,-0.16449466,0.08256059,-0.07075315,0.10814016,-0.0028782904,0.29682693,-0.1658276,-0.05103234,0.10254569,0.072582126,0.2278073,0.28167608,-0.07729883,0.043236952,-0.23848093,-0.08990285,0.16708365,-0.014746417,0.1581427,0.27160636,-0.03443695,0.121786766,0.23512769,-0.30877098,-0.075040735,0.2569522,0.13364644,0.20827274,0.29032362,-0.34040433,-0.047461234,0.22930501,0.1367509,0.20635645,0.17186348,-0.015148031,0.23014627,-0.33884773,-0.029171193,0.07476254,-0.04698023,0.26267028,-0.1310934,0.20769691,-0.18125914,0.2141823,-0.12543371,-0.2618869,0.10542027,0.19757827,0.15069586,-0.16810623,0.014195726,0.09311219,0.20713441,0.002903666
0.12580687,0.3091973,-0.09945215,-0.027808899,0.1017962,-0.066780515,-0.046355803,0.07834634,-0.028684694,0.030657878,-0.2781317,0.1860332,0.119578905,0.118264705,-0.024572251,-0.24530622,0.23204246,0.09748952,-0.024694249,0.1937495,-0.18051487,0.0823363,-0.13117984,-0.14718026,0.040490553,0.11355471,0.22032152,-0.10770415,-0.031522553,-0.1035809,-0.14770013,-0.13878947,-0.10398552,0.10629099,-0.06460021,-0.041750684,-0.05758912,-0.21986496,-0.0072542164,-0.26003617,0.08857565,0.031339113,-0.09772666,0.12557463,-0.0065717804,0.12362863,0.026931826,-0.19824542,-0.196279,0.09644425,0.14173527,-0.18500274,-0.1311406,-0.112915605,-0.10971711,0.095898286,-0.19804272,0.11424809,0.10987446,0.09391966,-0.111449085,0.026867481,0.02363116,0.11369012,0.06491022,-0.3278671,0.22125395,-0.026250808,0.07146969,0.19772719,0.21310359,-0.12680468,-0.084218755,0.07416613,-0.17653817,0.1215504,0.1171967,0.033013437,0.030063516,0.20591356,-0.078259654,0.19509855,0.048943464,-0.046412453,0.21034554,0.1663958,0.104999825,-0.06328941,-0.035742488,0.29265442,0.042928632,-0.2546038,0.112671666,0.22240959,0.03781825,-0.15551563,0.2635518,-0.14931063,0.17277232,0.017075343
-0.13897516,0.056742616,0.105753325,-0.16825205,0.16184713,-0.13791324,0.2825488,0.1411986,0.11044203,0.19499505,-0.19199005,-0.04404953,-0.013942062,0.21520872,-0.065224595,0.04397001,-0.07500255,-0.11560045,0.062452372,0.08951373,-0.18370368,0.2162675,-0.13997214,-0.11848592,0.016078677,-0.23603888,-0.06734385,-0.052289512,-0.19884567,0.033517223,0.0650619,-0.0435407,-0.38995248,0.110154375,-0.08820458,-0.1082711,-0.076357104,-0.050570942,0.18858068,0.0162913,0.045888506,0.01691511,-0.023161756,-0.20701496,-0.025306143,0.1925704,0.038985986,-0.16147645,0.20053332,0.035524875,0.019468404,-0.006472461,-0.043806437,0.06628872,-0.11147155,-0.15268004,0.22443481,-0.26766184,0.17445935,0.18790121,-0.3171487,0.1951007,-0.1428202,0.05226009,-0.040317476,0.11624953,0.19152366,-0.053511936,-0.06773587,0.16490787,-0.12235282,0.12866727,-0.15372905,0.061918702,-0.050551984,0.23273113,-0.034649894,-0.21233726,0.1705779,0.2394902,-0.3587097,0.045098573,-0.06480568,0.02110345,0.018115193,0.19637787,0.17741016,0.08200335,-0.007843167,0.0017053578,-0.08599216,0.27234605,-0.12680614,-0.1253938,0.09891694,-0.05728161,0.0034652115,-0.25814041,0.09913393,0.017669387
0.11802938,0.28936228,0.053323254,-0.12098816,0.11938123,0.23356785,0.19868276,-0.0610295,-0.332725,0.113761604,0.0556408,0.02884169,0.10499146,0.08504273,-0.06410019,-0.2330941,-0.069994785,0.043743804,-0.058668744,0.029165601,0.147326,-0.14716579,-0.15930548,0.26798564,0.15350308,-0.122122884,0.20043208,0.023209022,0.15955073,0.21699516,0.0040782555,-0.119178146,-0.09732158,-0.04599872,0.22582498,-0.022187233,-0.02066161,0.11734319,0.0037218693,0.06492867,0.05589993,0.050004695,0.13240665,0.16644166,-0.071241416,0.33817914,0.16166973,-0.017799592,-0.10980627,0.09075019,-0.12583148,0.06976552,0.22179817,-0.036639486,-0.045520075,0.15950938,0.107381046,0.1810606,0.10459341,0.0012800095,-0.19944523,-0.05324806,0.067583285,-0.18445203,0.021561952,0.03725769,0.06632401,-0.0034580152,0.011365547,0.11286124,0.07395557,0.005628762,-0.100988396,0.14842346,-0.038069658,-0.3140491,-0.09468345,0.12638134,-0.043843582,0.13193962,-0.08654169,-0.11777031,0.06182305,0.17485933,0.19589347,0.040509727,0.1297594,0.18626972,0.07823863,-0.07006,0.2188848,-0.1343909,-0.19441243,0.1738864,0.0003692716,-0.03559425,0.28887042,0.08164524,0.16414563,-0.018359715
-0.122669026,-0.058276217,-0.05130688,-0.21752541,-0.044597473,0.041322805,-0.16759925,-0.008149152,0.119355954,-0.044150498,0.056020115,-0.032967836,-0.14634681,0.12254956,0.24699564,0.17691635,-0.19294837,0.004875748,0.11067287,0.2462069,-0.12255995,0.08505051,0.012331782,0.052057024,0.1461251,-0.2637947,0.0064541255,-0.20955439,0.0032916444,0.24060166,0.0021484205,-0.07165849,0.05952091,0.13082628,-0.012693283,-0.22931637,-0.09653493,0.08867091,0.30092627,0.0999857,0.024387775,0.27368316,0.1262138,0.2149383,-0.110039674,-0.015892262,0.015220808,-0.039057944,0.05764361,0.08838659,0.106218055,-0.19257072,-0.078991085,0.16843268,-0.15778877,-0.15141208,-0.15264387,0.087195374,-0.035648797,-0.033061136,-0.04649848,-0.11559742,0.19898665,0.02458153,0.24834602,-0.26589027,-0.09671318,-0.15318672,-0.12518784,0.15059674,-0.07228019,0.076348655,0.050789203,-0.044051714,0.057310805,-0.3330465,-0.20454422,0.04362289,0.03671269,-0.0076049673,-0.010604165,-0.1455041,-0.21409924,0.048095472,0.13809314,0.15958552,0.062395748,0.13036075,-0.14486355,0.024232825,-0.059363533,-0.14396906,-0.17416549,0.18750216,0.13854022,-0.14445116,-0.09310966,-0.2802301,0.054381017,-0.03916975
-0.1881873,-0.03141043,0.17403634,-0.14643434,-0.19416633,-0.099527374,0.084735155,-0.10036201,0.09357569,-0.03141509,0.039616745,-0.00050083274,0.19573702,-0.05535002,-0.11661773,0.1135482,0.21971099,0.08125272,0.056889992,0.24356711,0.095280744,0.106500804,0.119892046,0.309369,0.050526045,0.035729222,0.046078134,-0.084862486,-0.0846354,-0.15262194,0.02097357,0.08954805,-0.085114665,-0.06499531,0.046617206,-0.13903072,0.22865067,0.19787955,0.17960738,0.28154138,0.15773837,-0.04576588,-0.23903865,0.24799882,-0.27185997,0.22345278,-0.0020330297,0.039846193,0.32431602,-0.12496112,0.002463597,-0.1076623,-0.079653375,0.13322978,-0.10435833,-0.2925489,0.13990143,0.004035395,0.1508979,0.013200146,-0.06822276,0.0070174714,-0.059821114,0.28283164,-0.05055454,-0.11004549,0.016160045,-0.02000775,0.123194285,0.11836246,-0.07618129,0.031959552,-0.12921315,-0.049087625,0.090333216,0.10841305,0.21256533,-0.0687363,-0.27258277,-0.18729872,0.26999134,0.034583583,-0.035310153,-0.040574044,0.100994885,0.15802619,0.12520282,-0.1888897,0.022819355,0.022369439,-0.00054556807,0.081063926,0.14194044,0.11191692,0.120289676,0.033138797,-0.0011357529,-0.20077014,0.17447245,-0.2938547
0.0326734,-0.14637856,0.10408895,-0.295962,-0.10877372,-0.14153482,0.027647255,-0.14339007,-0.0030588359,-0.10007146,-0.02741555,-0.26554275,0.07920047,-0.17790489,0.14365624,-0.045494802,-0.0064954027,0.17463517,-0.06291911,-0.16761291,-0.17166464,0.016472863,0.21564414,0.07791666,0.190161,-0.23360243,-0.14626807,0.20818262,-0.044648092,-0.09270338,-0.22531794,-0.001599299,-0.0023476165,-0.20907533,0.06594989,0.050124664,0.28562352,-0.052962855,-0.084416024,0.25765136,-0.12107597,0.18439253,-0.08249932,-0.13617629,0.08805759,0.023297774,-0.22472194,-0.06145426,0.24779567,0.062186636,0.03070248,-0.115719624,-0.050755195,0.17166974,-0.13458784,0.21209228,-0.04675015,-0.12177906,-0.24435587,-0.09115534,0.22565924,-0.09331829,-0.25517595,0.11316263,-0.11723124,-0.11104343,0.105500884,-0.10886605,-0.11873683,0.038291603,0.17908487,0.049631435,-0.12783726,-0.21735342,0.1544273,0.21879348,-0.10322065,0.07280031,-0.3160602,0.13423106,-0.017310739,-0.03567419,-0.035806723,0.15174107,-0.010668106,-0.14336322,0.080699824,0.13683753,-0.15866385,-0.065788135,-0.028252186,0.20499766,0.16813906,0.12814999,0.14378181,-0.031066218,0.13310948,0.0060893428,-0.024670526,-0.1635829
-0.11924658,-0.2407093,0.06990773,0.021589331,0.23104541,0.14080943,0.12397039,0.052370206,-0.21580629,0.2018626,0.20407076,-0.13268018,0.009527316,0.1263033,-0.039527234,0.0095697595,0.32036185,-0.008057172,0.08669376,-0.03798435,0.10800557,0.08480359,-0.23323981,0.048098966,-0.053402983,-0.097611144,-0.16375667,-0.13631207,0.2887462,-0.03560853,0.14881249,-0.063050546,0.23531778,-0.014231591,-0.07507572,0.09657208,0.013398146,-0.05000102,0.2301416,0.22669208,0.1590106,0.2609671,-0.24073954,-0.01643854,0.12172741,0.16259696,0.06760137,-0.21280423,-0.12592287,0.01978227,-0.28086972,0.11294356,0.2181886,-0.018069178,0.05782917,0.28231764,0.12518008,0.0010042368,0.12933934,0.16521756,0.049561117,-0.15757598,0.08043858,-0.13238633,0.08851399,-0.13321465,-0.268794,0.06313133,0.0069509638,0.10170327,0.058490038,0.24120186,0.14418268,0.061893463,0.030014712,-0.20095389,0.21756482,-0.06766966,0.07492055,0.022454305,0.0686759,-0.15316997,0.06937304,0.15523271,-0.032922626,0.23936546,0.11173025,0.28601515,-0.010836731,0.013055993,-0.080893315,0.25774792,-0.075234756,0.21790572,-0.11075703,0.07773952,0.05670719,-0.20060754,0.24663919,-0.0076322593
-0.018243004,-0.0016272949,0.28475618,-0.2356354,-0.24488713,0.2050086,-0.06620181,0.25702852,0.03707994,0.022330735,0.11273409,-0.20844947,0.014861816,0.23017997,-0.17535704,0.059161205,0.007821423,-0.13255942,0.03741341,0.14843312,-0.12042451,0.08818127,-0.25310212,0.21924293,0.080325015,-0.06517435,0.00025353883,0.04704515,0.07209802,-0.32398063,0.15828651,0.18624023,-0.10134816,0.15006712,0.11065624,-0.0866758,-0.16023654,0.1660034,-0.0069318544,-0.09373831,-0.10839801,-0.015018127,0.2568579,-0.038403552,-0.028017953,0.12653841,-0.055970013,-0.05626499,0.1793014,-0.1016783,0.10717962,0.2409233,-0.08243646,-0.17779617,0.20547147,-0.24579114,-0.027064832,-0.103264585,-0.29784912,0.3455088,-0.04109775,-0.028523909,-0.17116198,0.09189807,-0.16367428,0.015275416,-0.040792257,0.23153184,0.17674576,0.18994765,0.19775687,0.15135461,0.18000159,0.20705713,-0.28343162,0.21022698,0.04792545,-0.064681,-0.22608341,0.034037698,-0.28170303,0.111216396,-0.12606049,0.079508245,-0.005129884,-0.15817569,-0.054364294,-0.13435985,0.19539987,-0.24642198,-0.136942,-0.06534163,-0.072585925,-0.06831601,0.2731546,-0.048858874,-0.070030965,0.08767378,-0.16384308,0.14868386
-0.073597796,-0.0118333595,0.14919905,0.16651343,0.19407155,-0.09809328,0.11582124,0.225578,0.16792735,0.21504872,-0.065969504,-0.06803036,-0.1787501,0.052698903,-0.16891554,-0.1684639,0.14303163,-0.0142211635,-0.17210606,0.11649902,-0.016180452,-0.015380777,-0.030922927,-0.10067513,0.24640104,-0.33222476,-0.06140007,-0.04666102,-0.08476634,-0.28599486,-0.06493107,0.24147506,-0.010160841,0.01463263,-0.052443277,-0.29237375,-0.0009390245,-0.16716392,0.03531021,-0.08060203,-0.15123656,-0.03310977,0.14983314,-0.24386762,0.11677262,0.13102116,0.16181435,-0.19390169,-0.044131882,0.087201506,-0.14228156,0.2519741,0.12070587,0.06680219,0.08440299,0.07477654,-0.040396754,0.040863995,0.07148011,0.019617552,-0.091170155,-0.084440075,-0.30553722,0.021314502,-0.1006191,-0.17336668,0.16550598,-0.056147594,0.22414705,-0.058918633,0.26643786,-0.049352184,-0.026125835,-0.05348735,0.045683123,-0.26059902,-0.0056018154,0.098613165,0.17506659,0.0014984799,-0.05914556,0.17533635,0.07409955,0.1949895,-0.048257053,0.16234235,-0.18627414,0.1156251,-0.03146305,0.11072088,0.13265009,0.15138589,0.10146665,0.09883775,-0.28494364,0.05120686,0.113677934,0.0074968627,0.20422241,0.24312115
0.12230332,0.14057086,0.15440395,0.00458003,0.08308895,0.1475112,-0.016936002,-0.106676295,0.1899626,0.08857783,0.10609533,0.015456237,0.15088688,0.21876311,0.09092777,0.14870273,0.038065623,-0.038665775,0.10372055,0.028306795,-0.07479053,-0.1338546,-0.0776696,0.11269716,-0.09979341,0.110317774,0.25185397,0.33990997,-0.19733864,-0.121743366,-0.115668796,0.22298579,-0.21922797,0.14796865,0.12849268,0.2337446,-0.0053769853,0.03100765,-0.1381839,0.29931724,-0.13799587,0.08953682,-0.30963725,-0.08562319,-0.17873701,-0.008684463,0.04909353,0.049377184,0.09677751,-0.10850281,-0.036252134,-0.059485402,0.04491057,-0.17852142,0.18131827,-0.20869353,0.04133981,-0.062147625,0.29457363,-0.1421888,-0.11087167,0.30420664,-0.067915104,0.3286957,0.018797021,0.04185025,-0.16053332,-0.020393886,0.07415614,0.09598346,-0.28408125,-0.04096614,0.019271169,0.02090278,-0.015528131,0.060676105,-0.05529997,-0.026852306,-0.028779972,-0.025065234,-0.08190139,-0.17121926,0.04506023,0.1346832,0.07649201,0.10921792,-0.30308408,-0.13252568,0.28969967,0.16383074,0.10295459,-0.056505777,-0.30974957,-0.28932592,0.020033745,-0.14348204,-0.0020883132,0.06771039,0.30344442,-0.005121576
-0.012663836,0.046833534,0.07034533,0.11592234,-0.052188456,0.025253087,-0.013471744,-0.09803402,-0.001019029,0.122384116,-0.18730927,0.070065625,-0.18061191,-0.101595506,0.17235829,0.12456229,0.058542483,0.23394439,0.16604489,-0.0521692,-0.0018977681,0.058651622,-0.14629467,-0.019712148,-0.19018759,-0.081021465,-0.32121804,0.15130173,-0.052876946,-0.23493606,0.26611644,-0.18025616,0.18608245,-0.06038204,-0.20604302,-0.03158198,0.13752276,0.04130983,-0.21606408,-0.016787987,-0.017792823,-0.097068764,0.13383268,0.06544245,0.21331489,0.0751925,0.109014764,-0.042384896,-0.15675597,-0.028564211,0.22555475,-0.004111691,0.0070036114,-0.015740471,0.2727489,-0.15751669,-0.1969523,0.12481024,0.2101515,-0.11058847,-0.025914297,0.016511349,0.05185484,-0.2852998,-0.00066167477,0.07205253,0.16477017,-0.03354389,0.13528115,-0.11794645,-0.02010158,-0.14559138,-0.12409725,0.039735194,-0.19158716,0.022906002,0.18141125,0.3094879,-0.24397442,0.06714175,-0.10153404,0.009102791,-0.2268266,0.11064441,-0.14354886,0.22254683,0.22287273,0.044723272,0.118768446,-0.0891946,0.113280356,-0.19039434,-0.281782,-0.026815744,0.12396475,0.07151712,-0.17274188,-0.02554362,0.1543415,0.2484082
-0.16740116,0.16121356,-0.16079627,-0.09791592,0.011766955,0.19843246,-0.28375146,-0.080581106,0.026206689,-0.22209303,-0.16567424,0.12394746,-0.27266097,-0.14543486,0.07427972,0.022592766,0.07431061,0.18197997,-0.031023871,0.16872387,0.043712966,0.22829,0.06279845,-0.08100122,0.010436098,0.0105961375,-0.21559298,-0.1172811,-0.1845886,0.11067799,-0.101323605,-0.018824946,-0.06756604,-0.096103154,0.01899539,0.21868221,0.20954128,0.24502768,0.07506732,-0.07621207,0.18860503,-0.010832346,0.059706587,0.020432018,0.089095496,-0.2863021,0.015729105,0.15989809,0.26222852,0.04871695,-0.13659908,-0.11290241,-0.17486125,0.089532174,0.11817606,0.3228868,0.16611764,0.22538574,-0.09964533,0.24543203,-0.28006333,0.12185614,0.018204648,-0.23541293,0.009366228,0.06277338,0.11024785,-0.20721906,-0.20381264,-0.24969037,-0.17453927,0.059964467,-0.09579298,0.242963,0.04869521,0.2750721,-0.0054583517,-0.2650381,-0.10335758,0.07042621,0.08964279,-0.06267753,0.017659238,-0.22914669,0.2648978,0.345584,-0.060424037,-0.08361501,-0.21096924,-0.027936108,0.2549414,-0.10696499,0.2595751,-0.06498174,0.065741554,-0.09007203,0.08763377,0.0657087,-0.069290556,-0.2601255
-0.037956256,0.23971952,0.19519572,0.080904126,0.014193061,0.12236648,0.21615523,-0.0025710468,0.14562154,-0.24338372,-0.29497775,0.20500647,-0.023457298,-0.1320968,0.034211252,0.24518377,-0.06761571,0.07905607,-0.1362682,-0.07831454,-0.08883817,0.3181969,-0.16033994,-0.09340187,0.12926853,0.14461102,-0.13401341,0.05154097,0.114539206,-0.00048439205,0.23176014,0.106307134,0.19840512,-0.14860347,-0.06983906,0.123631604,-0.17951562,-0.10454991,0.20869792,0.19704004,0.13171883,0.04875136,-0.08369724,0.17832148,0.12980734,0.08238015,-0.056555193,-0.059483092,-0.023251116,-0.11281284,0.17733504,0.052774392,-0.00013183156,-0.027209854,-0.16232604,0.09957353,-0.02604711,-0.15870316,-0.1868107,-0.04418794,0.17364426,-0.09307467,0.03438101,-0.0432371,-0.0390278,-0.34344542,-0.09574725,0.15312052,0.009330763,0.12256142,-0.11712404,-0.096248485,-0.04628023,0.0017075294,0.08736246,0.27438504,0.2866474,-0.062401995,-0.02609561,-0.015638195,-0.013037555,0.06838052,0.123445116,0.23064378,-0.0014299707,0.0046079173,-0.2548,-0.21280488,-0.21266145,0.026481088,-0.09994133,-0.039905198,-0.098340675,-0.13496777,0.13931333,-0.065597214,-0.11805638,0.2015086,0.12801029,-0.034428764
0.099198185,0.061919827,0.038070865,0.06421729,-0.028082173,-0.1402307,0.3037915,0.067126974,0.04372988,0.1429096,0.22103538,-0.22557801,-0.0581367,-0.18515599,-0.07439216,0.30268234,0.026688773,-0.036295716,-0.13109554,0.08682784,0.31378838,-0.22026587,0.299992,-0.0056943116,0.039944585,0.3245157,-0.00361665,-0.043262165,0.17624302,-0.020833062,0.04280877,-0.18480843,0.17187153,-0.2943712,-0.116661094,-0.12964846,0.046144016,0.32159552,-0.050999865,0.1393799,-0.04660155,-0.11745076,-0.22363397,0.15007211,0.09237564,0.013176269,-0.16389823,0.20312169,-0.15884419,0.20145741,0.24120235,0.1566842,0.2507548,0.010008609,-0.0024992942,-0.077803716,-0.16185738,-0.12635863,-0.1262356,-0.2581574,0.08432574,-0.009845473,-0.04723534,0.09653375,-0.18656076,-0.108821176,-0.12594372,-0.006277744,-0.004663074,-0.00053456234,0.26940227,0.075786054,0.07788824,-0.18769515,0.15733646,-0.068828315,0.18953934,-0.014079631,0.2120622,0.063048676,0.06574781,-0.108742654,0.13127694,0.14464884,-0.22629823,0.029927438,-0.14893281,-0.08732054,-0.14440395,-0.120086506,0.033020355,-0.060832057,-0.06932768,-0.27910644,0.07332991,-0.0027976811,-0.15746483,-0.19306925,-0.021802688,-0.033737577
0.14953315,-0.15516628,0.05417129,-0.050813314,0.14509107,-0.0362601,-0.042429645,-0.05334319,-0.0297071,-0.0920243,0.003124068,0.07312049,-0.24202412,0.21824783,-0.30711296,-0.11542225,0.034136906,-0.13068181,-0.27342767,0.19649562,-0.044342775,-0.22956656,0.011675596,0.083691716,0.039306547,0.08270372,0.073428065,-0.0549634,0.0743636,0.015495015,-0.25745472,0.325754,0.09691183,-0.08157886,0.03574196,-0.083281785,0.091386825,-0.012156603,0.10223693,0.140077,-0.067388006,-0.13503756,-0.040017538,-0.10951431,0.1374763,-0.06659022,0.08241562,-0.060254198,-0.012803658,-0.07344205,0.17885862,0.093485974,0.01064891,0.0021974228,-0.006145459,0.28391716,0.0132364845,0.16694021,0.09698643,-0.05145891,-0.056937777,-0.28234917,0.014709636,-0.05903046,0.06200484,0.12640357,0.21421853,0.18098591,0.012973933,0.13601068,-0.14900921,-0.16984099,-0.32988045,0.038198132,0.1640999,-0.073957555,0.14830866,-0.13777657,-0.17784938,-0.023332566,-0.1968449,0.18991399,-0.1556842,-0.123357944,0.28078327,0.035236094,-0.16937728,0.111521944,-0.30534244,0.23834753,-0.16899644,-0.15002874,-0.13025297,-0.19854148,-0.19332364,-0.12858596,0.27931908,-0.05425487,0.098441236,0.18690759
0.03516979,-0.056054685,-0.24593563,-0.021140661,0.043072823,0.1864853,-0.20695797,-0.007983587,0.021922275,0.07553681,-0.04638418,-0.110146254,0.3248883,0.19413263,0.21467097,-0.0531537,0.23495321,0.089195624,0.04758344,0.13511069,-0.00499437,0.07293151,-0.005480022,-0.08927844,0.045648452,-0.024954336,-0.19513851,0.15455647,-0.014128086,0.19755602,0.0076259086,-0.006009816,0.13824451,-0.045045815,0.19183882,-0.10297715,-0.20712094,0.08736466,-0.088915884,-0.11586877,0.12724544,-0.08906654,-0.09045111,-0.16807179,0.22984247,0.1494382,-0.08466838,-0.15684143,-0.18899198,0.074123316,0.13536267,-0.026185118,-0.046854705,0.06478338,0.112228654,-0.10634649,-0.060479306,0.09535102,0.04071554,-0.21281505,-0.14136308,-0.010192605,-0.106266834,-0.08580197,-0.082833745,-0.06641256,0.01557444,0.012543331,0.2881675,-0.1009666,-0.10613083,0.2246326,0.08689962,-0.162738,0.11633235,0.065854706,-0.21167734,-0.3098789,-0.019712098,-0.038322195,-0.011972643,-0.02435145,-0.093092605,-0.041615956,-0.210302,0.14473225,-0.08393166,-0.31775975,0.01232322,-0.13964307,-0.1660136,0.20125633,-0.017664498,-0.16861658,-0.1457985,-0.012839966,0.090720184,0.0009921384,0.15357576,0.04941441
-0.30929723,0.15133475,-0.2922598,-0.19718495,-0.24563275,-0.12655795,0.065688536,0.14429232,-0.22905919,0.3113779,0.043656167,-0.095312476,-0.0045980006,0.0715045,0.14981283,0.09219288,-0.17522414,0.04633461,0.051914766,0.008963716,-0.15193662,0.03364316,-0.059439275,-0.14492439,0.0070482986,-0.13015552,-0.21111019,-0.16892509,0.12311135,-0.15953423,0.10108235,-0.030279832,-0.03970644,-0.013916687,0.10677986,-0.0029646936,0.036586363,0.104633905,-0.01779912,0.046196617,-0.10087025,-0.18606035,-0.1315068,-0.029603463,0.12753181,-0.058672607,0.027952012,0.0867229,0.21579285,0.012654327,-0.21539555,-0.029908033,-0.031228801,0.028450869,-0.25645247,0.12567222,0.07992054,-0.16875,0.08904045,-0.1524949,-0.21305925,0.0411054,-0.20626812,0.061047394,0.24896346,-0.0055444594,0.029915025,0.20813824,-0.22470884,-0.052521,-0.09447384,0.14892884,-0.02446215,-0.08586595,0.23473024,0.16900817,0.049215127,-0.07889159,-0.0010410621,-0.07888146,-0.21225798,-0.19256051,0.012282999,-0.033308383,-0.26195905,0.03650902,0.12577017,-0.026732467,0.02959705,0.051383615,-0.021533854,-0.024042921,-0.07295364,-0.14695913,0.13123277,-0.07802568,0.04859304,-0.10882261,-0.02422749,0.22107878
-0.15034969,-0.27241445,0.17551832,-0.12515402,0.053063795,0.006329427,0.28926516,-0.0511913,-0.10678645,0.020628413,-0.30530995,-0.13513039,-0.30622208,0.040681954,0.0913054,0.12291536,0.18084903,-0.084263556,0.036201928,0.04201483,0.12828127,0.1295543,0.0517567,0.21155688,0.15383707,0.2953258,0.0932818,-0.09961918,0.13278417,-0.17494036,-0.07680904,0.029896209,0.14774299,-0.02297993,0.06678161,-0.13539271,0.107479185,-0.031023754,0.20180005,-0.15902248,-0.057168253,0.1914825,-0.083914734,0.1371061,0.11872132,0.1417057,0.08418787,0.070904985,0.18056127,-0.054635685,-0.06363458,-0.053801052,0.117222175,-0.17034814,0.14267382,0.16428812,0.18648419,0.16746207,-0.08224288,-0.04034279,0.20354241,0.10402815,0.19867708,0.15223818,-0.092595056,0.1393269,0.23225696,0.19773489,0.33055943,0.11801109,-0.15164708,0.05124628,0.038224813,0.16812257,0.25536573,0.25186425,-0.22136031,0.033221263,0.23563832,-0.0040620714,0.22548516,-0.07012798,-0.04864594,-0.15130521,0.19865856,0.05851375,-0.2438151,0.12168533,-0.09730428,-0.27556932,0.14417349,0.13671155,-0.16943297,-0.070329994,0.16709709,0.0406943,0.028501809,-0.18232389,-0.20540892,0.03311271
0.11510064,-0.105979495,-0.16298503,0.17779756,-0.11018414,0.23688245,0.10331465,-0.20178905,0.28516114,-0.20810318,-0.08731328,0.04817017,-0.047985975,-0.14425686,-0.028803391,0.10299753,0.04911378,-0.09801614,0.09615426,-0.06896053,0.03061987,-0.11934631,-0.18916838,-0.07868296,0.13775273,-0.059674125,-0.033572666,0.06554141,0.13599049,-0.24878423,-0.16002545,0.09474525,-0.32575312,-0.15959455,0.032383908,0.018067762,-0.22007743,0.2638849,0.101863,-0.07143149,-0.17296542,-0.1410728,0.19883004,-0.19509827,0.19649306,0.012574758,0.09765128,0.09566602,0.038760245,-0.15110922,0.28812823,-0.11826567,0.28506842,-0.124180436,-0.15605345,-0.14534591,0.015573491,0.0787329,-0.29106522,-0.17623718,-0.1753807,0.0062708077,-0.013537741,-0.096886754,-0.13830493,0.28768834,0.17507996,0.028496863,-0.15775162,-0.015914029,-0.20492698,-0.021029118,0.19241136,0.020498872,-0.04102877,-0.0553985,-0.12933937,-0.31873846,0.042922355,-0.10619805,0.25018576,-0.014445488,-0.027936274,-0.098470755,0.2658287,-0.06856054,-0.0791271,-0.04157261,-0.025102098,-0.06161641,0.032493357,-0.07140008,-0.12363278,0.2062952,-0.21059921,0.02956189,-0.07510615,-0.059698854,0.113917686,0.32659078
0.26256505,0.07802883,0.11292986,-0.14748335,-0.09660595,0.011623708,0.3032459,0.02712487,0.21402366,-0.24290808,-0.14837691,-0.077792875,-0.06766162,0.16989456,-0.26741174,-0.08997078,0.026179342,0.1097452,0.19631852,-0.022377111,0.019637415,-0.21118018,0.17841496,0.19294499,-0.21565446,0.016713995,-0.3120271,-0.11235956,-0.006841586,0.0516014,0.03512358,0.13892312,-0.05248102,0.1439558,-0.31499055,0.26119903,-0.13279144,0.020691093,-0.18200594,-0.102815814,-0.03595386,-0.13179387,0.23125474,-0.16881496,-0.07917859,0.055100918,-0.051999886,0.18817222,0.17088912,-0.14796317,-0.030375013,0.07911575,-0.26625794,-0.06185889,0.08308114,0.27116966,0.32215452,-0.28570154,-0.14361487,-0.099127755,0.018548282,-0.08327749,0.017128414,0.22785063,0.08610088,0.1117046,0.29439908,-0.010045432,-0.20993572,-0.023929724,-0.17711857,0.009913572,0.2845758,0.15535508,-0.3383869,0.21315143,-0.29284212,0.16797796,0.11671475,-0.12942098,-0.095113516,0.020713918,0.06001823,-0.008166458,0.097059906,-0.18706188,-0.24972717,-0.1730253,0.3007539,-0.11260306,-0.17152523,0.010814017,-0.21026672,-0.05660486,-0.18154554,-0.02440101,-0.115596615,-0.115993924,0.06044616,0.06627636
0.054028552,0.019985558,-0.060189147,0.08003016,0.08234493,0.00793786,-0.12368989,-0.02779628,-0.013328202,-0.042676266,0.13265021,-0.10193804,0.039056797,-0.11874148,0.043299895,0.2126704,0.065970026,0.1691805,0.11350279,0.20908628,-0.12609583,-0.08871115,-0.08183079,0.17985623,0.1208338,0.2126784,-0.1831129,-0.31267783,0.017067647,-0.049430452,-0.28418356,0.3471006,0.0520866,0.25335085,0.12815511,0.015671775,0.018388629,-0.016574662,-0.12165054,0.30439264,0.30620387,0.19300188,0.016589504,-0.19664086,-0.06677305,-0.17597394,-0.06634684,0.16371323,0.13374303,-0.02012284,-0.16121212,0.12140805,-0.080551416,-0.17801106,0.10787772,-0.08716053,-0.006330861,0.005671877,0.07512827,-0.076225236,-0.0748635,0.053825665,-0.1946316,-0.32854766,-0.18761809,-0.28188822,-0.13563286,0.056069855,-0.033038143,-0.08380428,0.0044211023,-0.055363517,0.1635717,0.2057013,0.161688,-0.03263999,0.17611837,-0.08046549,-0.0011425308,0.12551597,-0.18231432,-0.026882015,0.042250384,-0.111361876,0.00094743905,0.11777974,0.23383068,-0.15031919,0.27644658,-0.2127391,-0.05078895,0.2808177,0.020325536,-0.086219855,0.09983291,0.2828072,0.024447618,0.07393419,0.16971372,0.058170423
-0.08268599,0.015207392,0.20570755,0.13438478,-0.06207486,-0.1533567,0.012868147,-0.05951163,-0.048811074,0.14595988,-0.1487311,0.023475654,0.11980585,0.0034247683,-0.08498722,-0.20874093,-0.0075967805,0.079876535,-0.019598378,-0.111866966,0.1457249,0.19392598,-0.07175662,-0.028145105,0.13804358,0.07705872,-0.2790223,-0.053588137,-0.17343782,0.021578105,0.06990293,-0.1842813,0.12748815,-0.022003407,-0.005709686,0.04452444,-0.17782788,-0.052469965,0.0724244,0.25503588,-0.17475392,-0.0010885173,0.06764712,-0.13754079,0.029966246,0.009796965,-0.0062317913,-0.14068384,0.044947807,0.26764995,-0.10936153,-0.020936396,0.038359676,0.14346081,0.21227774,0.15321988,0.107082576,-0.21373938,0.09466319,0.04370963,-0.030728923,-0.24883908,-0.009309061,0.04817857,-0.03826766,0.1310054,-0.117464095,-0.18974257,-0.16102193,-0.0054252553,0.02744052,0.060917724,0.17586423,0.27943754,0.027602045,0.0067981905,-0.1617368,0.024635347,-0.07843594,0.057300955,0.24594465,0.14922795,-0.0970606,0.10300663,-0.02560986,-0.013709906,0.20086257,0.165593,0.09351104,-0.11843435,0.27806267,-0.105120614,-0.105720386,-0.17805937,-0.27652067,-0.0431388,-0.14006671,0.16461954,-0.13284327,-0.32449663
0.21444666,0.034893986,0.097825766,0.31520474,-0.17711827,0.24668321,0.16787124,-0.15489274,-0.14290722,0.106343225,0.084597126,0.08764381,0.04436031,-0.20747304,-0.116001196,0.0031434456,-0.055370666,-0.10381034,0.32249305,0.17588711,-0.21047336,0.116005704,-0.108666494,0.04060371,0.040386107,-0.033908226,-0.19236942,0.16399673,-0.1211371,0.22770503,-0.18210395,-0.27477217,-0.0562303,-0.25486875,0.10282872,-0.2952817,0.130067,0.10790966,0.1929201,0.010174873,-0.09963184,0.07820855,-0.19565783,-0.17554373,0.20414592,-0.02138614,-0.10392756,0.15300387,0.01742096,-0.25398743,-0.09167138,0.05605422,0.1136052,-0.05936676,-0.052125394,0.16211776,0.19923486,0.15909328,-0.111516215,-0.25881943,-0.09647139,0.09552388,0.18846013,-0.14311825,0.1190713,-0.12464565,0.100475796,0.007824627,0.13609989,-0.1234132,-0.11692943,-0.31243554,0.03595496,0.0926979,-0.32511583,0.31335524,0.18447441,0.3422268,0.13632584,-0.24565338,0.27990496,0.14876707,0.19462048,-0.344846,-0.07721059,0.2539887,-0.115853846,0.046495654,0.08822688,-0.21031843,0.24460106,-0.2927542,0.052315637,0.11189694,-0.054924794,0.0007892811,0.13913529,0.11767764,0.029710785,-0.1408082
0.1327623,0.2919966,-0.1850497,0.17243464,-0.034776445,-0.20868546,-0.07112103,-0.10200234,-0.006195073,-0.18262924,-0.07594075,0.068342045,-0.15578045,-0.14470458,-0.1280565,0.19807799,0.15574203,0.049702108,0.028760927,-0.07999894,-0.101281315,0.15149802,-0.0041739694,-0.060565438,-0.16955437,-0.043610625,-0.3008444,-0.0068185786,0.05229013,0.17340587,-0.24190159,-0.024508696,-0.058552645,0.008756059,0.12538259,-0.1725331,-0.06291703,0.02543005,0.0070184297,0.26203287,-0.1654901,0.04062751,-0.2492853,0.07760046,-0.12184981,-0.2290168,0.09511799,-0.034371376,-0.14122628,0.043056514,-0.009162235,0.0020022576,0.124999575,-0.02231481,-0.04645772,-0.29679838,0.03515009,0.06477044,0.08431988,-0.005267464,-0.12916882,0.023045212,0.22410186,0.1337934,0.1531328,-0.2109365,0.14221054,0.0649604,-0.037839826,0.24285962,0.16851307,0.13192095,0.040516943,0.05509472,-0.03882174,0.1656752,-0.07271075,0.24589533,-0.076953135,-0.09704628,-0.30601367,0.15075451,0.09599329,-0.1459267,-0.113221005,-0.059348937,0.081116535,-0.07896355,-0.29978323,-0.19897556,0.003453162,0.08549354,0.046004687,0.0035143765,-0.027985828,-0.14302003,0.16893476,0.05097806,-0.2109554,0.104283415
-0.07067575,-0.056680232,0.06836289,0.006420641,0.00088202476,0.011214303,0.07290257,0.002856312,-0.059113503,0.094138205,0.10919191,0.14523114,0.05264761,0.08780999,-0.20377186,-0.13584942,0.2668457,0.026448978,0.17106804,-0.20928374,0.15863429,0.046209086,-0.057284497,0.07387146,-0.055246506,-0.2528983,-0.013383482,0.077597015,-0.09234289,0.0021578826,0.21770136,-0.13627827,0.18098731,0.015201131,-0.13811241,-0.011006892,-0.016963651,0.07398416,0.20495327,-0.14427005,0.18348354,0.052166797,0.27638617,-0.011055964,0.06690361,-0.060896512,-0.05610457,0.1341602,-0.20202075,-0.01584679,0.2473405,-0.20196162,0.06701205,-0.041498095,0.14175174,-0.043572463,-0.1323669,0.015192875,-0.1716818,-0.12095785,0.20321652,0.043669723,0.109972455,-0.0038511367,-0.07167295,0.09858943,0.10077053,0.20149703,0.010151216,-0.09317354,-0.10900463,-0.055716183,-0.09175864,0.20699954,-0.14174585,0.022445079,0.30428633,0.11601056,0.3151415,-0.09637852,0.03777791,-0.17471935,0.14868751,-0.1022576,-0.033694174,0.26837802,-0.2857124,0.22915208,0.25491253,0.19291866,-0.037663173,-0.053065177,-0.30710012,0.086540975,-0.26939374,0.055047028,0.053797364,0.035451736,0.18999857,-0.045387764
-0.052171167,-0.07000074,-0.20538273,-0.19991714,-0.25187814,-0.22101574,-0.27808484,0.19293426,0.07022518,-0.030883826,0.07437131,0.15050489,-0.062242318,0.110028856,-0.17616627,-0.26423892,0.0066726236,0.067981556,-0.015133368,-0.14749573,-0.28745922,0.04380771,-0.24623841,0.061466314,-0.12010275,0.026337998,0.020971399,-0.058316078,-0.08535074,-0.30191028,0.18299846,0.19707534,-0.072897956,0.10846076,-0.2012439,-0.0107309325,-0.015543605,-0.035576757,-0.08649405,0.06342452,0.13642949,0.28165054,-0.12794366,-0.044553462,0.3046304,0.08492494,0.16062944,0.121830255,-0.15565804,-0.1572448,0.12780525,0.06309522,-0.17530386,-0.103888765,-0.13450235,-0.13117224,-0.08792327,-0.13357662,0.23595914,-0.060434766,0.051588546,0.05424238,-0.08317115,0.11657282,-0.1202449,-0.0016265771,0.21387413,-0.0753841,-0.11567886,-0.02488002,0.08200656,0.30725417,-0.2766967,-0.08665263,0.120638795,-0.08542825,0.008449572,0.17141427,0.0005909201,0.12841845,0.22275488,0.16886842,0.003279342,0.03378149,0.30857378,-0.06580269,-0.2831969,-0.18019143,-0.0481808,0.26412317,-0.17185296,0.08096746,0.0008024781,0.09776044,0.0988178,-0.061598107,-0.09421393,-0.26397124,-0.20899378,-0.068871886
0.09583784,0.31623387,-0.21888405,-0.08673434,-0.30282766,-0.09083555,0.22805738,-0.15419273,0.03672669,-0.11905904,-0.14647403,-0.20763402,0.15528576,0.012350876,0.28476867,0.036786664,-0.029231865,0.07824663,0.104862,0.11298367,-0.13176607,-0.12524545,0.10875281,0.06295187,-0.20696644,-0.19595218,0.08135674,-0.056652855,-0.081837706,-0.1585084,0.13245721,-0.22588348,0.12246969,0.118784286,0.16589785,-0.09513103,0.12147178,0.1093019,0.11372189,-0.24692541,-0.054797065,-0.025712894,-0.23741889,0.10746587,0.02782174,-0.09950531,-0.06989456,0.2481664,0.010821392,0.1595454,0.14910461,0.2798662,-0.06678713,0.0029026233,-0.07194589,0.16494182,-0.067006074,0.07521727,-0.14859293,0.050373204,-0.062057782,-0.0562971,0.20419493,0.3583042,0.014881673,-0.012077311,-0.1684125,-0.11873547,-0.0025853228,0.14017959,-0.1485516,0.042011794,-0.09712874,0.23093297,-0.008532668,-0.09232805,0.05546516,0.025562163,-0.16012196,-0.08294513,-0.014881252,-0.18149,0.0311176,0.37922078,0.012544017,-0.101474665,0.2906634,-0.1696491,0.26673192,-0.08518916,0.21437466,0.01617219,-0.31618693,-0.09524628,0.12016048,0.05878708,0.19817287,0.18365471,-0.14304492,-0.15458731
-0.080088414,0.17297198,0.25279793,0.013662033,0.27667066,-0.11782199,0.15829627,0.11999814,-0.19551413,-0.32069993,-0.0492402,-0.04211917,0.19456159,-0.2446696,0.09371982,-0.19299878,-0.01786174,0.26234755,-0.25830615,-0.1488668,0.21908556,0.012304765,-0.024298059,0.18094563,0.15919705,0.012652109,-0.036541015,-0.07346898,0.15168795,0.031849034,-0.13372248,-0.18772383,-0.19690754,0.21378195,-0.028232075,-0.21713594,0.085023284,-0.033392362,-0.1462479,-0.29622707,-0.051848356,-0.028493254,0.1293582,0.04958066,0.037046697,0.025212824,-0.17209114,-0.20433845,-0.047835622,0.2523855,-0.09920957,-0.067052364,0.06646598,-0.2618758,0.24351506,0.18798776,-0.13459954,-0.027770676,0.033358924,-0.25297016,-0.1709999,-0.06343214,0.03473574,-0.057570025,0.23323905,0.12404516,-0.001990851,0.24844614,0.16307041,-0.22038276,-0.06464266,-0.116794996,0.02893658,0.1571153,-0.21719337,0.066851184,-0.04423513,0.18592475,0.2470262,0.07926207,0.13339949,-0.17168252,0.06198307,0.034201648,0.2660448,-0.030634416,0.014504711,-0.14260629,0.027082771,-0.09089313,-0.14758258,0.10755383,-0.1351458,0.19822492,-0.05172724,0.10409857,0.15098904,-0.101301424,-0.10992324,-0.048568085
0.03555645,0.08214943,0.15230669,0.015166468,0.12984757,-0.17902191,0.030015225,-0.022292787,0.10685453,0.12294433,0.06600334,0.036678642,-0.103426784,0.011279212,0.17643502,0.1418243,-0.12748945,-0.0014842141,-0.22630668,-0.18077402,0.11665608,0.008377896,0.049586203,0.10423691,0.30983415,-0.024009857,-0.039892495,-0.013508021,-0.065527074,-0.03283005,0.087135054,-0.042873,0.034389827,0.11214572,-0.20667268,0.16491458,-0.0074406983,0.17449512,0.08800558,-0.008985944,0.0049194265,-0.28859642,0.007120785,0.27677405,0.22067212,-0.3236361,0.33836693,0.18856637,-0.0032981238,0.15681104,-0.07663965,0.0395713,0.15838106,-0.15576059,-0.17988536,-0.22536643,0.0036980526,0.06615579,0.09899296,-0.21959387,-0.27457154,-0.23698439,-0.10639194,-0.10546453,-0.0012664128,-0.12206859,-0.14634572,-0.06813097,0.05147541,-0.039331224,0.18675749,0.07402556,0.0057874476,0.2087579,0.044344768,0.22237988,-0.091115184,0.09083733,-0.08554968,-0.10570964,-0.111042626,-0.051325735,-0.16913591,0.19039248,-0.02740093,-0.01593136,-0.00052387704,-0.06295246,-0.13225296,-0.28050515,0.27688417,0.008400204,0.21272713,-0.0019371941,-0.27088362,-0.036725804,0.065805465,0.049099676,0.043608766,0.10750221
0.09503094,0.25931546,0.17179629,0.027188279,-0.067472406,0.083081655,-0.07452964,0.13887763,-0.0070088995,-0.16457963,0.06498185,-0.158286,0.25542888,0.28227565,0.16913745,-0.006797062,0.18647358,0.03608086,-0.20724402,0.078564376,-0.16521159,0.010388468,-0.32134578,0.15445626,-0.107723884,0.2161428,0.081743374,0.22116157,0.078526154,-0.019177977,-0.28852493,-0.08951043,-0.024600083,0.17993262,0.03218558,0.04512903,-0.060410973,0.25067493,0.03199494,0.10468955,0.1619707,0.04296668,0.16474558,-0.17856199,0.1479466,0.0046586194,0.069641106,0.121850275,-0.18417217,-0.23144583,-0.22933534,-0.25715566,-0.03944454,-0.22407609,-0.02246201,0.028774528,0.04997157,0.058383867,-0.055576015,-0.06349554,0.26337963,-0.013470642,-0.14110163,0.048261732,-0.17492189,-0.14960013,-0.08290525,0.23402898,-0.0481468,0.068457216,0.10886247,-0.17391786,0.027531361,0.023263535,-0.12806246,-0.0450028,0.011435094,-0.00870458,0.07132943,-0.19393341,-0.080304995,-0.17410931,0.12267714,-0.20270091,0.32913262,-0.038217608,-0.21948817,-0.1257054,0.28869995,-0.21082444,0.21081436,0.05201948,-0.12480149,-0.016383126,-0.06948093,-0.11234294,0.0727454,-0.14029798,0.021398801,-0.13131009
0.16690129,0.08009397,0.20197994,-0.15884022,0.06118992,-0.10988946,-0.2645034,0.32989267,-0.08733499,0.025941826,0.054020945,-0.28622657,-0.12530482,-0.16336618,0.039784566,-0.08621555,-0.17562057,0.1417599,-0.08877717,0.06957219,-0.21613237,-0.14078778,0.13907313,-0.013600839,-0.06038175,0.11734174,0.16094555,-0.0885287,-0.108402446,-0.0114885345,-0.2543356,-0.26637417,0.2606887,0.18216436,0.016961282,-0.117188685,0.047894426,0.019853722,0.10972268,-0.0486554,0.20903303,-0.18491517,0.09087926,-0.09612929,-0.32018098,0.05944897,0.09421645,-0.28516123,0.069631346,-0.065957345,-0.117190495,-0.15595712,0.18542777,0.04201568,-0.24462265,0.19683895,-0.16872512,0.05646906,0.022217534,0.2701555,0.10762568,-0.14599544,0.024266096,0.24797945,0.1312103,-0.17846707,0.062732495,-0.083205536,-0.05658103,0.113015085,-0.158908,0.15929925,0.0051814853,-0.012611463,-0.03839651,-0.014225746,0.11461137,-0.17384224,0.24090433,0.010462569,0.2505275,0.062014863,-0.104060374,0.22144021,0.038112253,0.2679933,-0.19923395,0.0018348135,-0.10045247,-0.16490288,-0.08706945,-0.29398367,-0.14477155,-0.052043784,0.05735555,0.044249434,0.078823075,-0.19510561,0.016294016,0.02910346
-0.16746423,0.16029172,-0.03353464,0.035066184,0.061921597,0.0639292,0.16596982,0.16119848,-0.040206686,0.03316379,-0.012327602,0.19163977,-0.11584162,-0.04902019,-0.080138914,-0.27174595,-0.07828925,0.09462962,0.35364816,0.041607123,-0.05270939,-0.23352447,0.07584786,0.1602836,0.112207785,0.18678524,0.10311642,-0.053008404,0.06969488,-0.09776668,-0.13857798,-0.11005386,0.054634266,-0.01432437,0.013620311,-0.118425794,-0.15701598,0.24486522,0.22899328,-0.14335881,-0.17381117,-0.10676801,-0.08108166,-0.1570829,0.28127453,-0.039728295,-0.21622738,-0.028570771,0.006225209,-0.00045393308,-0.127482,0.10548672,0.14684136,-0.103681475,-0.10778802,0.1431723,0.066962875,0.18580256,0.1353728,-0.1095152,-0.213047,0.11764529,0.124390535,0.06591323,0.1565101,0.045333244,-0.119881466,-0.25196677,-0.23252565,0.10553457,0.050595775,-0.09562751,0.2109279,0.14923878,-0.07564588,-0.11968367,0.32707325,0.16040635,-0.06008731,0.19039948,-0.14229573,-0.14081968,0.09131373,0.049668893,-0.10798559,0.053345628,0.0058987313,-0.10917653,-0.03576024,-0.10559878,-0.039236203,0.29667482,-0.19124144,-0.09596816,-0.1033587,-0.05197181,0.16771966,-0.31630567,-0.0023341484,0.20884588
0.022959897,-0.08350752,-0.16152564,0.086932965,-0.14602962,0.006103446,-0.17404081,0.2214174,0.07011189,0.19111696,-0.079211235,0.19252178,0.12847719,0.09694859,0.17626783,0.12968242,0.066879116,0.23554483,0.013333543,-0.17014414,0.036898375,0.24628124,0.1628611,-0.05454296,-0.15254681,0.12602735,-0.19118051,0.13192177,0.18997315,0.08317163,-0.016628968,-0.08473444,0.25022992,-0.2101659,0.27483356,0.080407694,-0.054422654,0.020468693,-0.078586906,-0.074500024,0.015924368,-0.064727545,-0.06712332,-0.24393971,0.21172121,-0.071003765,-0.14291944,-0.12996653,0.14544891,-0.13006912,-0.024115397,0.21801925,0.012422295,0.13644478,0.00964972,-0.1354233,-0.16399524,-0.1130715,0.092448056,0.13589719,-0.0020857768,0.043370407,0.07844738,-0.017489638,0.2834633,0.29401353,0.114679426,0.016607776,-0.13281177,0.0018943169,0.037877038,0.15787277,-0.036336824,0.118551835,-0.070472665,-0.02425279,-0.2600857,-0.11455917,0.15964618,0.12618572,0.04196894,0.30044523,0.2717541,0.04943859,-0.025542513,0.27793723,0.079590715,0.2587199,0.23366085,-0.019507896,-0.016493902,-0.05893816,0.033584125,0.048995737,-0.10781504,-0.24811372,0.033723008,-0.1358516,0.18046999,-0.19139032
-0.066985875,-0.08416671,-0.016623497,-0.096281745,0.2535533,-0.028349217,-0.11795931,-0.20926946,-0.006531975,0.036851212,-0.24910459,0.12563677,0.06402039,0.051930748,0.01801533,-0.1867515,-0.051062725,0.24940632,0.080585904,0.08038175,0.0040422166,-0.13001312,-0.09501683,0.19112149,0.16622052,-0.24634703,-0.061423402,-0.19847083,0.13556513,-0.060841292,-0.0656008,0.22870095,0.03958547,-0.14819123,0.20497328,0.17010266,0.10818255,-0.08897891,0.100806646,0.18733813,-0.06563885,-0.19018173,-0.15698111,-0.23779924,0.18435623,0.09127394,0.12309724,-0.018375289,-0.19517241,-0.036136836,-0.03367727,0.12560807,0.11956737,0.24914476,0.0134834545,-0.019869892,0.039202366,0.024481218,0.08605507,0.036584325,-0.056284793,0.014246114,0.01704547,0.0390111,-0.003489817,-0.30756724,-0.2549075,0.2718017,0.21184362,0.12666121,0.09532408,-0.21229407,0.1634774,0.025600985,0.089843184,-0.18071763,0.18076904,-0.05559811,0.25376514,-0.0037620547,-0.040921893,-0.11790933,0.10079616,0.017926171,0.033330455,-0.07411664,0.19284108,0.03641577,0.07118822,-0.078169964,-0.10520817,-0.08028922,0.27138966,0.030995177,-0.10953248,0.19946052,0.07121627,0.27547675,-0.028249403,0.32985798
-0.12940736,0.10215226,-0.18136111,0.16661477,0.06453815,-0.19340943,-0.02303559,-0.09251166,-0.109403715,-0.098937176,0.069276005,0.050401945,-0.0047836406,0.018353185,-0.13446145,-0.29962078,0.1375034,0.0014912281,-0.24170755,0.021710273,-0.023829136,-0.09105253,-0.046235725,0.2569116,-0.25561705,0.07027387,0.32471508,0.07486962,0.08408553,0.045959778,-0.21465544,-0.0321308,0.045607187,0.118255794,0.08070067,0.11600383,-0.019027984,-0.049983773,-0.0493252,0.121255755,0.05348768,0.025528211,-0.21813184,0.016773336,-0.13792428,-0.2044624,-0.12212626,-0.012313874,0.039874736,-0.1908065,-0.08376742,0.2658908,-0.079762526,-0.28950056,0.03386355,-0.16288514,0.21971436,-0.06961538,0.08832838,0.056576885,-0.10269087,0.08603707,-0.09285694,0.020175833,0.18575025,0.031159543,-0.24177723,-0.16850728,-0.13127477,-0.044440832,0.04805713,0.20388289,0.054543365,0.0515385,0.07940169,0.01702342,-0.0084589,0.1017875,-0.08773818,-0.15575498,0.17803141,-0.031125052,0.30260354,0.26792976,0.098187104,0.031105384,0.06127365,-0.07077777,-0.2560539,0.041754436,0.16788036,0.013404011,0.14220501,-0.18256687,0.059006445,0.25346607,-0.1203912,-0.03809931,0.13158116,0.16943884
-0.3023191,0.06552416,-0.14952603,-0.08054927,-0.10948038,-0.2692061,-0.10582033,0.22114486,-0.2795912,0.025178924,-0.25820035,-0.21346049,-0.30977747,0.14563467,-0.01814512,0.008992263,-0.20418721,-0.039806414,-0.10369368,0.026300998,-0.046171304,-0.13124302,0.20789537,-0.07834293,0.079696015,0.12657276,-0.116424136,-0.013529449,0.05753045,0.046393488,-0.25751603,-0.07440006,-0.070783876,0.06243669,-0.045477334,-0.02513758,-0.20748451,-0.13909924,-0.068092175,0.1421898,0.040131617,-0.03186888,0.1820513,0.11946388,0.22181547,0.08996445,0.015525392,0.18437608,-0.21253642,0.21671125,0.08530845,-0.14933525,-0.088825986,-0.061217677,0.07440634,-0.2876434,-0.009036423,0.27326757,-0.13048802,0.018278316,0.28540683,0.040633835,-0.050353512,0.22377765,-0.029901184,-0.15563947,-0.062363807,-0.2025296,0.08190416,-0.046117,-0.3315129,0.22095476,-0.102584675,-0.055895314,-0.17487277,0.0017783203,-0.06528404,0.242241,-0.18692553,0.017610673,0.22762534,-0.2398992,-0.2747379,0.17909019,0.24602067,0.19140694,0.13213317,-0.15532693,0.032994706,0.18873121,0.11110445,-0.041427057,-0.15201388,-0.091604955,-0.08817646,-0.19828439,0.08320392,-0.21127215,0.12714894,0.1644533
0.1068196,0.017366609,-0.04962931,-0.080126256,-0.009352259,-0.15575562,-0.16526237,-0.2355934,-0.26704645,-0.0339083,-0.047515716,-0.28048736,0.16371359,0.10564719,-0.15543771,0.14155455,-0.23670526,-0.09131525,-0.15344298,0.0069331047,-0.2557973,0.0639345,0.028627727,0.11023354,0.05097293,0.04330404,0.023567617,0.118499056,0.081452005,-0.13607042,0.2581859,-0.1397644,0.11320559,0.019864673,-0.08101568,0.07346099,0.2586187,0.060784366,-0.074803956,-0.009103181,-0.12765378,-0.028360894,-0.031007627,0.19976819,-0.08107821,-0.3095375,-0.25100544,-0.20781192,0.031356815,-0.23066078,0.032171782,-0.15385672,-0.020958139,0.21584186,0.0802276,0.1989147,0.034669388,-0.0478684,0.17904961,0.112229936,-0.11627738,-0.16762264,-0.30823004,0.13939443,-0.07312552,0.12135109,-0.13704747,-0.17390087,-0.10263747,0.051878303,-0.23825274,0.23250277,0.17479353,0.08467532,0.07304605,0.012407303,-0.14749853,-0.1864064,-0.03475715,0.32720423,-0.25979415,-0.31000122,-0.21605746,-0.06931594,-0.21804796,-0.1781371,-0.0097367205,-0.04831038,-0.07036668,0.16273995,0.10562966,0.0965745,-0.07865756,0.1049291,0.07223091,-0.10059622,0.1500553,-0.13813211,0.13391173,0.033813454
-0.023293389,-0.07359762,0.002107154,-0.12731838,0.03067827,0.016120533,0.14258239,-0.025710557,0.09018127,-0.11557921,0.006540464,0.004761858,-0.15111355,0.15996669,-0.21724628,0.15951742,-0.063067816,-0.113546714,-0.29297164,0.08513332,-0.12993902,-0.11250572,-0.07078968,-0.09499589,-0.17874408,-0.24411629,0.077596195,-0.0026061018,-0.1610325,0.03526604,0.1759392,-0.033384245,-0.048912458,-0.08054534,-0.102623306,0.07194206,0.06528944,-0.117009215,-0.08388866,-0.15143308,-0.07190366,0.12833828,-0.30631566,-0.2736049,-0.17946592,0.06216622,-0.12059118,0.032457143,-0.2609739,-0.00031632558,-0.29896623,0.21491691,0.026609357,0.1622785,0.007917545,-0.024307925,-0.15124798,0.04296862,0.16403915,-0.08227115,-0.12838429,0.05750787,0.1073617,0.069389924,-0.33765054,0.057324424,0.028360326,-0.004024613,0.23208794,-0.06884152,-0.12864295,0.07981416,-0.19405092,-0.045097563,0.22944686,-0.04798513,0.003248954,0.114623375,0.13794507,0.06682224,-0.034393862,-0.20525847,-0.07044341,0.0011401343,0.26711395,0.0029730706,0.041876104,0.03285693,-0.05351325,0.041313857,-0.10762562,-0.015689502,-0.13336799,0.100680456,-0.19733474,-0.1561035,0.03764363,-0.12065718,0.095581226,0.14192788
0.22792752,-0.018860735,0.007055163,-0.17802134,-0.07845052,0.1372399,-0.077074096,-0.032990728,0.06572026,-0.17186703,-0.037300944,-0.13187554,0.21007945,0.18960455,0.0025935508,-0.13431716,-0.3089915,0.14524215,-0.3017478,0.08814252,-0.005802069,-0.007191769,-0.09189798,0.105918005,0.10081629,0.015607407,-0.13151944,0.082325816,-0.20860617,-0.2625716,0.26470706,-0.023709178,0.23068199,-0.20292912,0.21966511,-0.2793411,-0.26438314,0.16943091,0.009227212,0.067642145,-0.014267157,-0.25982693,0.079792224,-0.28222895,0.011828083,-0.20303558,0.14804532,-0.022352515,0.14699745,0.05094306,0.2648045,-0.20374611,0.08887498,-0.16581944,-0.030441057,0.1614068,-0.09925153,0.09207134,0.024633609,0.07837348,0.05022652,-0.0013252853,-0.16798162,-0.28209624,0.14777774,0.1333938,-0.08845565,-0.0061488897,0.08889606,0.005598737,0.06999231,-0.120109886,0.10451976,0.070902534,-0.07991433,-0.11248954,0.1427942,0.090356074,-0.2507351,0.11399258,0.09776745,0.1581587,-0.25543588,-0.20377938,-0.22681673,0.04434333,-0.09813767,0.101813965,0.08701254,0.007557124,0.16669612,0.23940468,-0.16904433,-0.1645917,-0.2884475,-0.10729095,-0.01610389,0.1990587,0.15621363,-0.16785914
0.074404314,-0.19312316,0.17427498,-0.10694237,-0.066945344,0.007555238,0.07895447,-0.05447038,-0.09932599,0.06672645,-0.11032583,-0.0011685942,-0.061906144,0.15391757,0.024425613,0.20200114,-0.3106612,0.031639628,-0.13825382,0.14935812,-0.21603423,-0.13806851,0.118235216,0.24410361,-0.15392634,0.1973958,0.04781667,-0.16061424,0.007859404,0.04359697,-0.22217987,-0.29828018,-0.24985063,-0.08550612,-0.14252044,-0.23466595,-0.08569383,0.040236067,-0.049022906,-0.050139315,0.27547786,-0.022878528,0.0538976,-0.100841865,0.04139681,0.06252987,-0.04884635,-0.0695355,-0.13242115,0.13832803,0.12182245,0.20013583,-0.026811171,0.055722687,-0.13845555,-0.06219587,-0.11187987,-0.1672608,-0.29506347,-0.06892278,-0.015829397,-0.1005968,0.03040587,-0.07895617,-0.29698372,-0.11930152,0.05000732,0.1007174,-0.15209422,0.18453161,-0.1514465,0.08536552,0.03057895,0.011750763,0.11950768,-0.1905666,-0.07406844,0.100927636,-0.0029611785,-0.07088945,-0.04974564,-0.055548154,-0.17602406,-0.053922743,0.07918413,-0.057348717,0.13117512,0.22493719,-0.13655634,0.26282907,0.2495054,-0.07003963,0.12811515,0.1399286,-0.08730623,-0.18562636,-0.21331029,0.06644171,0.14304382,0.018901983
0.09017508,0.13153623,0.09467562,0.033675462,0.2046848,0.047095686,0.10265188,-0.23084529,-0.025806466,0.0028291866,-0.06725002,-0.09909662,0.025875455,0.09665389,0.08641149,-0.23930176,-0.059582897,0.034483444,0.02224758,-0.20968014,0.1985063,0.24517862,-0.09033673,0.1611365,0.07069846,0.068259366,0.09663876,-0.03799048,-0.10507302,-0.07696268,0.067065574,0.11801165,-0.13943774,-0.1183282,-0.018427342,0.08177563,-0.26899073,0.00011027255,0.009606588,-0.14168718,0.010055261,0.15360531,0.20695849,0.10646586,0.14328095,0.028632134,0.106656194,0.25488573,-0.14893751,-0.13347656,-0.006970675,-0.012607908,-0.068570666,-0.013144051,-0.23848397,-0.009874693,-0.14297184,0.07589974,0.053474616,-0.020576002,-0.09415998,-0.16842721,0.081114,-0.087722324,0.0068351086,-0.19765551,0.0153614795,-0.1548906,-0.25327381,0.071778186,0.082223594,-0.11827229,0.08883351,0.1510088,-0.09525482,0.01233074,0.08661537,-0.058401164,0.14652084,0.18792734,0.09115911,-0.0322809,0.19429591,0.058865182,-0.1369427,-0.0052507007,-0.31915674,0.15072013,0.19073233,0.14650996,-0.2146778,0.21814619,-0.060266923,-0.0028819228,0.07225676,-0.059180945,-0.08191565,0.3270874,-0.16241056,0.035538338
-0.15522547,0.019703709,0.09487126,0.010374204,-0.2036266,-0.11387764,0.14112557,0.10939304,0.027594665,0.016734883,0.1753208,0.2880759,0.2015969,-0.009751791,-0.16660285,0.02472525,-0.17126605,0.08462351,-0.2010759,0.039964993,0.1575041,0.09630189,0.06382074,0.20519483,0.27427337,0.31783253,0.23011942,-0.0383007,0.17744647,0.03203532,-0.15941666,0.050858185,0.14671357,0.13602391,0.049487505,0.056121618,0.020552514,0.16868997,-0.05368827,-0.17388721,-0.10746408,0.0072879,-0.2549962,-0.09761492,0.18259005,-0.049061444,-0.05478503,0.28580508,0.28412312,0.21526593,-0.038239893,0.10695532,0.0034467215,0.22448759,-0.08634671,0.054064684,-0.0025054177,-0.02024679,0.2529793,-0.11035582,-0.16985866,-0.07082275,-0.3352837,-0.13283646,0.12175406,0.1828196,-0.070886746,0.08305479,0.049040657,-0.25532657,0.17289567,-0.02917562,-0.16433272,0.032798287,-0.103102736,0.013345986,-0.100056715,-0.022212647,-0.019297091,-0.15679738,-0.05697563,0.117652155,-0.16776286,-0.015248678,0.107068144,0.11392878,-0.012840306,0.2882627,0.104242176,-0.10957346,-0.055831384,0.14397033,0.09213671,0.33711895,-0.058366533,-0.10746478,0.17158099,-0.12792823,-0.10429935,0.1264727
-0.018934097,0.040989265,-0.03436546,0.102589026,0.21583647,-0.06800777,0.019255199,0.049855154,0.18411945,0.03016148,-0.027861577,-0.2790028,-0.117153764,-0.09930814,-0.1197111,-0.19237898,0.06797337,-0.17644545,-0.041660007,0.0036628325,-0.33509076,-0.107898496,-0.13002326,0.0189013,-0.02443482,0.111129716,0.005736665,-0.067060165,0.15608366,-0.21614064,0.14227307,0.07541091,-0.18640947,-0.080711715,0.13092524,0.11558698,-0.116493165,0.050859656,0.24081838,0.07623574,0.28449732,0.009278942,0.13258368,0.080634356,0.109663986,-0.12726422,-0.033170156,-0.032809068,0.12841871,0.049550883,0.092584506,0.025432328,-0.0363859,-0.15498245,-0.15273036,-0.16293594,0.025088431,-0.17292082,-0.040529754,0.013666012,-0.23683086,0.06158222,0.28534955,0.12627897,-0.089602344,0.05499009,0.056369867,0.009972864,-0.16454718,-0.13118725,0.0022542758,-0.20831485,0.16530481,-0.10355,-0.2510603,0.1089007,0.2023804,-0.3092612,0.19378108,0.18123524,0.076982565,0.019643538,-0.15343873,0.17217025,-0.21185388,0.015648188,-0.1540952,0.1911445,0.02087205,-0.02628863,-0.17315464,0.13923252,0.052499384,0.2540975,-0.1033008,-0.22569372,-0.28887507,0.22845106,-0.31161654,-0.15767434
0.18726613,0.13554764,0.19160439,-0.10302901,-0.021243786,-0.18747622,0.21572746,-0.16215825,-0.04938531,-0.24451032,-0.25491846,-0.11706017,-0.24834391,-0.02478144,0.020910438,0.20992486,0.091271326,-0.124692336,0.021878421,0.012628117,-0.2446501,0.018306514,0.23569165,-0.039550457,-0.066596664,0.0943123,0.067859866,0.14134595,-0.14441846,0.22218266,0.24535128,0.052556038,-0.15340048,0.0017907734,0.20667295,0.031473063,-0.05553685,-0.23502716,0.23713443,-0.24199831,0.19761972,-0.18466018,-0.318361,-0.07142425,0.14806549,0.091696665,-0.21662237,-0.2298436,-0.1514577,-0.23084578,-0.07126216,-0.035525937,0.032455985,0.10915697,0.28485003,0.14443155,-0.08993778,0.25203827,0.020238843,-0.008289767,-0.015659204,-0.054808136,0.11650761,-0.0150873875,0.1389542,-0.016629526,-0.18312658,0.085314825,0.079147495,-0.2890041,-0.13613239,0.22562017,-0.030871876,0.021572115,0.046179775,0.07333355,-0.19870748,0.17523633,-0.073115416,0.10761398,-0.006624261,0.07227128,-0.0019549993,-0.030247517,-0.08832758,0.25836223,-0.03144456,-0.007433309,-0.22283143,-0.21131402,0.030892804,-0.028203277,0.12006253,0.18038735,-0.24231413,-0.11226121,0.0126387235,0.16532063,0.2689063,0.10597321
-0.09468471,0.05068216,0.030289246,-0.1225518,-0.053722795,0.061567936,-0.14862448,-0.030553795,-0.19089215,-0.24511008,0.0683376,-0.032873556,0.05534459,0.091614254,0.12276103,0.022337507,-0.21792728,-0.19787812,0.081789725,0.15066548,0.117693335,-0.23978892,0.016117012,0.12169807,0.12399005,0.3104294,-0.20856139,-0.015826324,0.011084316,-0.04760248,0.044059973,-0.009484842,0.045184456,0.08168006,-0.2919749,-0.1861239,0.03192867,0.015777418,-0.032753233,0.05863803,-0.086315066,0.23178087,0.009265193,-0.10778934,0.08149217,0.17996475,0.19282427,0.12325048,0.12370594,0.04690682,-0.09163887,-0.1294755,0.039757736,0.021872768,-0.025888491,0.028813006,0.052386876,-0.0092020165,-0.2365269,0.20967466,-0.07767748,0.022786891,0.10951019,-0.043088205,0.15322256,-0.1273082,0.04330584,0.10447585,-0.009407506,-0.1450156,0.14639515,-0.16109405,-0.3330467,-0.14429253,-0.23779893,-0.1796639,-0.10926799,-0.1339347,-0.13973948,0.19621159,-0.030494833,0.16262403,0.18600407,0.07459452,0.19166943,-0.09815862,0.0055267992,-0.16493772,-0.047063872,-0.095143594,0.19715683,-0.12976158,0.09552666,-0.089254975,-0.14834234,-0.03086565,-0.16330583,0.16801417,0.016357351,0.18313523
0.02865277,0.026249178,-0.12645504,0.053323917,-0.17227024,0.18859385,0.21091421,0.109308034,0.07436143,0.11306025,0.013074166,-0.09177018,0.06825844,-0.046528973,0.030219447,0.097773544,0.040962465,-0.05227958,-0.101156145,-0.03593944,0.023031153,-0.14616267,0.18325244,0.07908182,0.13192302,0.033809677,-0.23099606,0.18835366,-0.02824034,0.025061436,-0.016706012,0.012586594,0.009477928,0.13831286,0.13706858,0.2474549,0.12152599,-0.025901249,0.07137964,0.14001769,-0.25224572,-0.020914165,0.06441584,0.04100444,-0.046256118,-0.1351728,-0.03217252,0.2052283,-0.09433156,0.24728458,-0.0048628873,0.08269083,-0.12433768,-0.05821757,0.053238705,-0.2103815,-0.013422209,0.10446175,0.16333444,-0.08183793,-0.083506405,0.19398777,0.011850565,0.028209139,-0.2688657,0.050988697,0.2646522,0.10652037,0.14228228,-0.14398451,-0.08257126,-0.10002762,0.17026173,0.054660667,-0.20134261,-0.15825155,0.17911105,0.1966558,-0.09066991,-0.22777307,-0.014875122,0.16870528,0.26262578,0.26082638,0.06440754,-0.030765133,0.07030487,-0.2913711,-0.18367252,0.29039428,0.10112221,0.023193624,-0.056199335,0.14907819,-0.16947809,-0.1189297,-0.08344685,0.1538293,0.07538354,-0.17743458
0.010061846,-0.14373577,0.03682983,-0.24999706,0.047684938,0.26603514,-0.07494781,0.29076642,-0.14603342,-0.22874035,-0.09734679,0.12711377,0.10798845,0.025203219,0.15200314,0.015777817,0.008677862,-0.24557973,0.13896601,-0.028414493,-0.16338825,0.077611774,-0.056423467,-0.05157669,-0.22819144,-0.2811928,-0.046651866,-0.20620744,0.13377915,-0.23193476,0.10493897,0.11813871,-0.1281883,0.29265702,0.1210269,0.24571225,-0.1030597,0.013863432,0.08619323,-0.064123504,0.05103851,0.034871772,-0.14219622,-0.043058872,-0.035491724,0.21722831,0.073265575,-0.13639127,-0.21922685,-0.013843943,0.180461,0.00019012106,0.22315207,-0.054113004,0.29097092,0.05369114,-0.26698622,0.017760731,0.06355379,-0.10329571,0.006764716,-0.17484604,0.06622766,-0.11473233,0.09419175,-0.055273302,-0.09101706,-0.2206485,-0.12484666,0.053832475,-0.057515986,-0.073585376,0.07064435,-0.18100987,-0.07107866,-0.008818785,0.054281015,-0.23521322,0.22897305,-0.033577703,0.015117952,0.0022855154,0.004938331,0.038976423,0.1683509,0.073883735,-0.00013185071,0.07245468,0.009809324,0.033370744,0.026768077,-0.1404569,0.09133727,0.14442079,-0.012871069,-0.22202171,-0.064525455,-0.046786863,0.022001963,-0.06818178
-0.008605644,-0.29358548,-0.014777059,0.022348892,0.057174183,0.2515585,-0.061441183,-0.15981528,-0.24700087,-0.18990983,-0.08604843,0.22843164,0.022440426,0.021450257,-0.026778316,0.15918723,0.06869758,0.06900471,0.16514291,0.20617083,0.2992584,-0.088814616,0.037338465,0.020376733,0.010344466,0.12861063,-0.27515846,-0.049088445,-0.050158694,0.28663126,0.17036581,-0.100996025,0.07951675,0.12128584,0.16537617,-0.049535397,-0.1553049,-0.018048443,0.14807427,-0.09135287,-0.028152717,0.103913516,0.17941016,0.2524069,-0.1512091,0.039185133,0.10095324,-0.17654644,0.15006039,0.03956802,-0.031257905,0.15938367,-0.11583219,-0.0640761,0.22423545,-0.2913554,0.1572483,-0.07583239,-0.015392637,-0.06867612,0.11018325,-0.17292409,0.21104576,-0.21925575,-0.14497298,0.19562209,0.19172196,0.07705027,0.010760647,0.11909221,-0.08920131,0.143043,0.02154163,-0.05231862,-0.10299416,0.19907399,0.14781217,-0.22682282,0.2403133,0.14344478,-0.02702166,-0.29213873,0.053879656,0.030449668,0.033851806,0.078383304,0.019104386,0.11073765,-0.10847149,-0.14621748,0.06398086,0.03367465,0.17338523,0.113936886,-0.00042207283,-0.1717067,0.109289676,-0.04096083,0.05863921,0.2100053
0.031842224,-0.13846265,0.10539756,0.04178303,-0.20607331,0.14866948,0.03061067,-0.026922809,0.095043264,0.058607116,0.055256538,-0.004345833,0.20939332,-0.2846667,0.005217429,0.015389243,-0.096030876,-0.0072021866,0.16445786,0.06942599,-0.2512726,-0.11630364,-0.080846235,0.283803,0.12837438,-0.23446925,0.0019786628,-0.21328832,-0.16934061,0.16004764,0.26916957,-0.07111381,-0.0025735958,-0.14359106,-0.27962112,-0.1629283,-0.19412425,0.058733314,0.08326236,-0.32742542,-0.2505125,0.29943758,0.13133402,-0.115549676,0.1236262,-0.13670021,-0.1272373,0.26914388,-0.27970636,0.12915626,-0.052297793,0.18708365,0.15894106,0.13402122,-0.16634959,0.12872873,0.07890176,0.14909633,-0.21776268,0.18698882,-0.036795117,0.209213,0.2837802,-0.017995864,0.048784286,-0.14598499,0.14910878,-0.12552339,0.09160194,-0.03344855,-0.120517105,0.29838404,-0.23619261,0.1065159,0.042461585,0.15632184,0.17977503,0.09194845,-0.0435627,0.059190866,-0.04768214,-0.17467877,-0.110396475,-0.00072441425,0.265319,0.26821467,0.186484,-0.12951155,0.089428626,0.18508783,-0.14019974,0.15236166,-0.0097671505,-0.04982731,-0.24379957,-0.16119647,-0.07390432,-0.1486239,0.06718405,-0.097405456
