0
1.6640051e-05
-0.00013165802
0.00015284878
-6.0953585e-05
5.0771367e-05
8.923724e-05
0.00013929646
-0.00015781606
8.39019e-05
-0.00019232646
0.00016095738
0.00041673033
-0.0001382385
-1.0522395e-05
0.0001213002
-2.065154e-05
-0.00015468009
-5.8755704e-06
0.000431125
-4.3764595e-07
-7.596684e-05
-0.00012322652
-1.5076419e-05
0.00015289278
7.3519084e-05
9.377371e-05
-9.4556526e-05
-2.7518383e-05
1.1305515e-05
0.00013881976
-0.0001072056
-8.664529e-06
0.0002795399
6.0137696e-05
-6.354301e-05
-0.00019038405
5.3018903e-05
0.00019815948
-2.102453e-05
-8.898285e-06
-1.6927715e-05
-0.00030072368
1.1963048e-05
-3.7335918e-05
-2.6645434e-06
-6.448309e-05
1.5102406e-05
-0.00016679752
4.97245e-05
6.20846e-05
-0.00026036997
4.896023e-05
-0.00019985653
6.9250804e-05
0.0001430761
2.1755308e-05
0.00020402024
0.00010745089
-0.00027049126
-7.3693554e-05
9.8737204e-05
-0.00013233128
6.8167676e-05
0.00025143207
-0.00021145763
0.00010882066
7.899041e-05
-0.0002477139
-0.00022445298
0.00019654413
-0.00025387973
-1.8606246e-05
-5.7197005e-05
0.0001143461
0.0004003673
9.580501e-05
-7.8134144e-05
-0.000104844505
1.8748003e-06
-0.00015632986
-0.00018034542
0.00018707795
-6.032206e-05
0.000120690784
0.00015799096
-0.000127427
-9.754289e-05
2.096708e-05
3.146434e-06
0.00017910924
8.315125e-05
0.00010822537
1.593234e-06
-2.1285212e-05
0.000118737065
0.00019147569
0.0003015536
-7.362237e-05
8.930239e-05
7.0596384e-06
