0
-0.0003204946
-8.194736e-05
0.00034320776
-9.658136e-05
-0.00014287593
2.079473e-05
0.00013785553
7.488508e-05
0.00046527322
-5.081278e-05
-0.00038977727
0.00015957463
-0.000281909
1.2603053e-06
-0.0005468743
0.00017793523
0.000109129614
3.8587215e-05
9.927954e-05
-1.0250336e-05
-0.0004407918
-0.00017962465
0.00018902517
-9.0519345e-05
-0.00025379102
0.0009426661
-0.00019454051
0.00040908784
3.3449345e-05
3.649397e-05
2.6871065e-05
0.00026493575
0.00037251852
1.0900394e-06
0.00036443683
1.9889008e-05
-0.00034388315
-0.0001483658
-0.00017642662
0.0001526927
-0.00035767714
-6.2280335e-05
4.8250113e-05
-4.8522168e-05
-0.00071575935
-3.8318387e-05
0.0005236332
0.00044458124
6.200271e-05
-0.00015350283
6.325663e-05
0.00068375457
-0.00027901633
0.00023572227
0.00019553359
-0.00011343488
-4.0311156e-06
-0.0007453314
-1.7855157e-07
-0.0003926803
0.0002809548
1.0962239e-05
7.7390934e-05
-0.00021280193
8.436099e-05
0.00021981979
0.00023235788
-0.0007027025
-5.3202035e-05
8.126941e-05
7.128623e-05
0.00023333365
0.0002199872
0.00010633679
-0.00032324
-1.9911966e-05
1.956885e-05
-9.2671835e-05
0.0004238418
-9.262015e-05
0.0006900573
0.0004126204
-0.00034424188
-0.00013552749
0.0003973303
4.2883254e-05
-0.0003348999
0.0005005444
6.881563e-05
0.00037093373
0.00013954735
-4.7890037e-05
-7.694003e-05
0.00025304366
6.791225e-05
4.9043916e-05
0.00023150988
-0.00047215816
8.905631e-06
0.00015069646
