0
0.00012870303
4.367947e-05
0.00023502333
7.367418e-05
0.0004434674
0.0001930998
-4.030417e-05
-0.00027380267
0.00032964567
0.0001778138
0.00024337547
0.00015597581
-0.00017761215
6.141545e-05
-0.00023713615
0.00017324596
0.00010574197
-0.00012765465
5.885096e-05
-3.7480684e-05
-0.00013653401
6.33108e-05
-6.627904e-05
-0.000266594
-0.00034388134
-0.00027661916
-6.999647e-05
-5.9358976e-05
-0.00016636774
-0.00060592114
0.00031772588
-3.0159606e-05
6.5247514e-05
0.00013438425
0.00030544665
3.0271389e-05
0.00014003688
-0.00015285038
0.00035294288
-6.814166e-05
-2.2470978e-05
0.00018552072
3.575507e-05
-2.4915798e-05
8.8301014e-05
-0.00013994229
0.0003112521
-0.00014678623
-0.00027479755
-0.0005272151
-0.00013459957
-0.00045602152
6.336865e-05
0.00028280343
0.00020020867
0.0001430995
0.00039459797
-0.00027727452
0.00015944656
0.00015808934
8.7345376e-05
9.483489e-05
8.608005e-05
0.00012443715
5.5014974e-05
-0.00021728536
0.000229411
7.2773706e-05
4.9084585e-05
0.0003951553
-0.000100307785
-3.407257e-05
0.0005038928
0.00028125316
-0.00020207459
-1.6039618e-05
2.2805252e-05
0.0002980628
-0.00013587096
0.00014716176
-0.00032475745
-2.6888905e-05
-0.00026651548
-0.00019715267
-0.00037530332
0.00018690866
-4.5936136e-05
6.9415866e-05
3.734432e-05
-0.0001630191
-6.072822e-05
3.337546e-06
0.0001493724
-2.0582693e-05
-0.00014773905
-0.00016817081
-0.00023302442
-0.00030358846
-0.00014038557
0.00020332303
