0
0.00035888553
-0.0002702719
-5.751801e-05
0.0005280022
-0.000116135445
-0.00017741564
6.554196e-05
0.00014330982
-0.00012674877
0.00011978018
-0.0002460551
-0.00026542987
0.00014462482
-0.00015141684
3.8794893e-05
-7.5285216e-06
0.00013677275
-0.00023277923
-0.0002438588
0.00032809758
-0.0003030993
-0.00029768868
2.5728825e-05
0.00036928494
0.0001615777
-0.00016935698
8.09466e-05
-0.0004074458
0.00029746676
0.00073398306
0.00020360183
0.0005927659
-3.956049e-06
0.0006523561
0.00030051148
0.00033880456
0.00019137381
-0.00033613507
-5.7661648e-05
-0.0006841609
0.00025434198
0.00015979334
0.000871027
5.238064e-05
-0.00012394202
0.00029748277
0.00018889374
-1.3955572e-05
-5.3258078e-05
-0.00021332937
0.00013363802
-0.00011983599
0.00013712962
8.231349e-06
0.00021267899
-6.258001e-05
-0.00044869992
-8.5106214e-05
8.197527e-05
-0.000102894344
0.00043374012
0.00026671888
-0.00061020866
-7.9278034e-05
-0.0005668714
9.343039e-05
0.00010680007
0.00023328362
1.0385944e-05
-9.819218e-05
0.000749984
-0.00038469
0.00033977668
-0.00081735547
-0.0002279712
-0.00026185063
0.00017150451
-0.0004007441
-1.01889855e-05
0.0003651592
-0.00021346383
0.0001854773
-8.938804e-05
6.56211e-05
0.0002932644
4.633756e-05
-0.00043234281
-6.283569e-05
-0.00013275689
-0.00020369516
-7.498863e-05
0.000504373
0.00037550385
0.0001273564
0.00064267573
0.00020221109
-5.714577e-06
0.00015325074
-0.00016982756
0.00045054214
