0,1,2,3,4,5,6,7,8,9,10,11,12,13,14,15,16,17,18,19,20,21,22,23,24,25,26,27,28,29,30,31,32,33,34,35,36,37,38,39,40,41,42,43,44,45,46,47,48,49,50,51,52,53,54,55,56,57,58,59,60,61,62,63,64,65,66,67,68,69,70,71,72,73,74,75,76,77,78,79,80,81,82,83,84,85,86,87,88,89,90,91,92,93,94,95,96,97,98,99
-0.2238306,-0.054527577,-0.1466968,0.021447023,-0.21045485,0.10920978,-0.23030666,0.04303442,-0.015968695,0.0467889,0.010897856,0.017594,0.25813374,0.14304204,-0.0764281,0.09149812,-0.07713703,-0.18504857,-0.074921705,-0.11649679,-0.06793106,-0.13243906,-0.13831043,-0.06203876,-0.08529294,-0.010345923,0.103983685,0.10780683,0.10920678,-0.043432806,-0.18470527,0.06518635,-0.11545319,-0.013779316,-0.13122818,-0.19376497,0.03996702,0.1216152,0.19383702,0.096943356,-0.12765843,0.0688716,-0.18864721,0.023244528,0.015049495,0.008552281,-0.03728449,-0.22233513,0.2956983,-0.06836582,0.06465782,0.15522751,-0.055830635,0.09869234,0.018381389,0.09046337,0.12126933,0.010647023,-0.092342556,-0.260982,0.25110108,0.053996947,0.22879848,0.13290128,0.057192873,0.07115416,0.18973523,-0.052263744,0.3161395,0.0655276,-0.059491467,-0.06787802,-0.08775412,0.095096655,-0.09523216,-0.2014294,0.010813166,0.07239644,-0.18133362,-0.04237593,0.17392834,0.26045233,-0.026923496,-0.09731373,0.070451856,0.10028801,-0.120962344,0.13669078,-0.1408351,-0.09503078,-0.101596914,-0.071891,0.01002822,-0.28023353,-0.0391595,0.099951185,-0.008056694,0.02034333,-0.30598232,0.10546457
0.17808746,-0.15514891,0.07437697,-0.09136956,0.15162341,-0.31857672,0.11471778,0.009083634,-0.10616914,0.2852451,-0.15651317,0.24930131,-0.19534187,0.1860948,-0.20142509,0.13347659,0.2048592,0.060768425,0.26276255,-0.18781695,0.010550157,0.14942016,0.053879257,-0.07543062,-0.22557119,-0.2554457,-0.16245528,0.3112021,-0.059843175,0.09922971,-0.08825664,-0.04341674,-0.06572151,-0.09669627,-0.11157387,0.19229235,-0.018660828,-0.2650829,-0.002717476,-0.022811197,-0.09406617,-0.068349354,0.060915865,-0.06687639,0.06642095,0.2133509,-0.040929276,-0.121473245,-0.17503628,-0.16425419,-0.071479924,-0.16409135,-0.26099405,-0.16185603,-0.13463852,-0.09901512,0.20215392,-0.022530094,0.11951291,0.11538059,-0.12197492,-0.20759659,-0.17709962,-0.011437785,-0.10646243,0.0003203352,0.051118307,0.19408959,0.0098956395,0.0070733395,0.08443117,0.13751256,-0.096493445,-0.17149916,-0.22407494,-0.05644578,-0.017802423,-0.116002515,-0.010532791,0.022170337,0.012285704,-0.18343277,-0.24094398,0.01053941,0.041007176,0.020846797,-0.076044574,-0.19832791,0.030582527,-0.049554057,0.15856671,-0.08819576,-0.06412523,-0.06324274,-0.07913891,-0.2788217,-0.046723917,0.07762451,0.19251765,0.0030566875
-0.1761862,-0.26543105,0.13479626,-0.12026944,-0.03984215,-0.119285606,-0.22532302,-0.09579971,0.01571241,-0.194619,-0.07482579,0.05367626,-0.117968,0.23185018,0.15905915,-0.17027794,-0.09161872,0.037725165,-0.21280672,-0.047793593,-0.057985306,-0.08369568,-0.25009498,0.065643124,-0.0070076603,-0.025950233,0.19687565,0.11102989,0.080523826,-0.06795092,0.36884552,0.14936125,-0.10937531,-0.10245239,-0.018719735,-0.15617876,0.110036016,0.10865649,0.11821726,0.11628862,-0.1678395,-0.021282088,-0.050959915,-0.21853271,0.017580235,-0.06712106,-0.09137503,-0.015376805,0.12544492,0.12511095,-0.19978951,-0.24060354,-0.26306936,0.121053584,-0.010340006,0.03291084,-0.029237408,-0.043580238,-0.1910394,-0.15087809,-0.16439566,-0.14945254,0.028910987,0.18112697,-0.022428298,0.020995699,-0.005341115,0.02225765,-0.1241811,0.21903226,0.020648489,0.1454963,0.22565599,-0.087115906,-0.049836997,0.14139529,0.08598938,-0.09811298,-0.1271941,0.0023437296,0.11902753,-0.06380895,-0.007566591,-0.15395215,-0.21167849,-0.09970115,-0.033615828,-0.11703174,-0.030332588,-0.044244904,0.050073594,-0.08547232,0.0032918463,0.085139774,-0.076287135,-0.19011223,-0.106253505,-0.2004949,-0.08734682,-0.2690638
-0.22717349,0.052129764,0.181274,-0.20942514,-0.27228275,0.017608194,-0.06448421,0.015346084,-0.007095664,-0.0037487664,0.09079078,0.09616436,0.10928764,0.13052884,0.10749056,-0.027440164,0.11595977,0.02688758,-0.045274407,-0.051965263,-0.05441951,-0.18229917,-0.08090795,-0.015730316,-0.1510028,0.1612274,0.062015895,0.08242431,0.05009544,-0.15832445,-0.13094498,-0.0027656124,0.16957723,-0.118718855,-0.08890058,-0.08445467,0.13639554,0.016212856,0.18853775,0.091222115,0.031224309,0.036856223,-0.13458447,0.0030444406,-0.119271815,-0.0064116516,0.08484711,-0.040531754,-0.035444546,0.17177851,-0.05334066,0.12787378,-0.07552651,-0.018691199,-0.059666727,-0.04693802,-0.039776042,-0.13448143,-0.26530197,-0.17863972,-0.019287765,-0.058120746,0.2526757,0.14729974,0.08940751,0.077250786,0.123401634,-0.030686142,0.056639735,0.09164005,-0.18454486,-0.17629698,-0.14191818,0.050945774,-0.023322925,-0.082671165,0.13577278,-0.026040401,-0.046849754,-0.029977296,0.13588598,0.12359299,0.10602648,-0.039325505,0.053983893,0.024507217,-0.069641665,-0.00894666,0.070626676,-0.102991864,-0.086109444,0.05923938,-0.09028617,-0.07782408,-0.016861375,0.08650775,0.068070404,-0.111406066,-0.050119188,-0.035720766
-0.35446858,0.043881457,0.21987428,-0.1138383,0.0077450783,0.047942985,-0.24271518,-0.039642766,-0.039519046,0.05336644,0.12687594,-0.1321978,0.18405621,0.0720138,0.08095111,0.020114392,-0.12941018,0.09712639,-0.041458648,-0.10064743,-0.28014576,-0.19079523,-0.10900838,-0.0832251,-0.067236565,0.08689983,0.06967663,0.24646087,-0.048112225,-0.046543673,-0.059521362,0.04578395,0.08554631,-0.07988613,-0.2533038,-0.21877737,0.2857629,-0.015646297,0.07658695,0.10942926,0.1152469,0.028817978,-0.13683958,-0.11512833,0.04114524,-0.089603536,0.046900053,-0.23622023,0.10948488,0.11533263,0.08919862,-0.037671797,-0.1870021,-0.059688017,0.10588956,0.12477943,0.06553411,-0.14109108,-0.091863126,-0.29678726,0.06575604,-0.10091552,0.16909441,0.16314223,0.034986854,0.13985622,0.15648055,-0.107391365,0.0938412,0.19730558,-0.17939736,-0.31513393,-0.010389324,-0.06901417,-0.042900212,-0.15889546,0.055672664,-0.035061475,0.0009289932,0.034648523,0.16394065,0.23538634,0.067754775,-0.06679176,-0.028866524,0.057128895,-0.11055579,0.010295903,-0.01545189,-0.24162872,-0.26206648,0.021649692,-0.036962993,-0.16243346,-0.17781658,0.06489814,0.08446947,-0.04487714,-0.255725,-0.08175113
0.06342839,0.15937574,-0.00823522,-0.12849468,0.06394486,-0.19441122,0.08139305,0.15485562,-0.08268798,0.02493382,0.076373614,-0.18822362,-0.056999054,-0.069760114,0.033644326,0.027212976,-0.060768332,0.07527212,-0.11405852,-0.040543403,0.05700157,-0.026284793,0.17050713,-0.041966833,-0.017965723,0.054941267,-0.10516885,0.054457083,0.043138806,0.016869321,-0.17723197,0.021174164,0.0131212855,-0.076016515,0.00080514327,0.055260383,0.05054183,-0.07467558,-0.23064058,-0.15110765,0.05997822,-0.20379055,0.17124906,0.1839492,0.0621519,0.012714033,-0.20388769,0.0074363034,-0.12397803,0.11657666,-0.13900223,0.032031342,0.0046898066,-0.046318877,-0.03188269,-0.0033140227,0.20388502,0.110614255,0.022950055,-0.1138045,-0.073643714,0.11923264,0.108412005,0.10626844,0.010855178,0.06310883,-0.0052184374,-0.14931518,0.06322519,-0.19752322,-0.05439687,-0.17299446,-0.23161338,0.078578025,-0.05166828,0.0907509,0.14724639,0.015377642,0.11851834,-0.08656027,0.08598082,0.19526424,0.04571007,0.16927978,0.01997837,-0.034612864,0.010271604,0.017729552,-0.07397096,-0.12706238,-0.008789796,-0.108280994,-0.13623205,0.073105164,0.17056608,0.2319184,0.1297941,0.04627324,-0.07911281,-0.15771134
-0.08392704,-0.045626983,-0.09741801,-0.06537489,0.032094743,0.18391433,0.065762535,0.10964136,-0.025240773,0.0015076827,-0.20722727,0.13899767,0.19212106,-0.07975795,-0.04669697,0.055413697,-0.0627812,-0.09408734,-0.115999624,-0.10692606,-0.04270218,0.10389359,-0.11595016,0.042769056,-0.19475396,0.038099125,-0.04982896,0.08612437,0.3303568,-0.053031616,0.15625054,0.06641355,-0.11303857,-0.09585128,-0.05630733,-0.04949968,0.046167117,-0.06976375,-0.019825209,0.049176108,-0.036131416,0.019275518,-0.0789773,-0.019891215,-0.038499713,0.1011577,-0.2130851,0.04800298,-0.10184316,-0.11715611,-0.18386494,-0.29649845,-0.06639714,0.08744777,-0.0014844971,-0.21809424,0.03219905,0.04009976,0.06799482,-0.04541696,-0.12319919,-0.012087754,0.1834889,0.09769326,0.03139793,-0.03311731,-0.073338285,0.07813519,-0.07454884,0.09292651,-0.06183651,-0.039812308,0.08852418,-0.17047295,0.024139656,0.24818014,-0.17058182,-0.16968666,-0.12995407,0.13161895,-0.17728458,0.22533144,-0.096703194,-0.0018753447,-0.08012907,-0.27695408,0.092109285,-0.10315528,-0.19750047,-0.079235055,-0.05180571,-0.11849266,-0.00074955326,0.03308487,-0.15154363,-0.09483944,0.07446898,0.004937536,-0.016777039,-0.14819442
0.097510904,0.051247306,0.04174075,-0.073086604,-0.028155282,0.030536002,-0.05512923,-0.08847763,-0.18418598,0.042693917,-0.081791125,-0.082842916,-0.029981233,0.06105984,-0.046013027,-0.08605258,0.13870841,-0.018563831,-0.086158335,0.033961236,-0.026268246,-0.00791588,-0.044979062,-0.01454306,-0.07607926,-0.06450884,-0.028694335,0.09034024,0.053609733,0.0022193189,-0.18656553,-0.050101664,-0.08231326,-0.06488337,0.0064423447,0.029642869,-0.06652867,-0.09251435,-0.009465282,0.08260585,0.045551527,0.0518985,-0.11570687,0.04728005,0.016412582,-0.079412624,-0.022283074,0.057317458,-0.01027013,-0.031363558,0.004881715,-0.05078173,0.021810038,-0.016699055,-0.0059306184,-0.061356436,-0.046867725,0.09784981,-0.021528995,-0.075361766,-0.07449809,0.0053715617,0.01103958,-0.024184288,0.017975478,0.06988648,0.054119945,0.12328874,0.019850308,0.0571613,0.0071011516,0.08264119,0.05462828,0.013915216,0.04619232,0.03761031,0.044073947,-0.014623081,-0.018976577,-0.054332726,0.052614294,0.05060393,0.0057902955,-0.08129474,-0.025021061,-0.089866206,0.011849918,0.11472284,-0.074332245,0.020419102,0.19468468,-0.07899057,0.0033274477,-0.04755374,0.06408822,-0.0563054,0.02000316,0.020284329,0.00025130235,0.034837145
-0.11212289,-0.007868291,0.08066276,0.020225398,0.100027464,-0.050227102,0.12965459,-0.019998416,0.024127942,-0.112458065,0.097681515,-0.1434647,0.0032467272,-0.1237988,0.18206595,0.07756154,-0.11758128,0.09613571,-0.015351805,0.15392715,-0.08749619,-0.13050702,0.18523093,0.036602415,0.0108499825,0.016523626,0.017069027,-0.1655577,-0.06428726,0.014021145,0.1568792,0.082926214,0.23213527,0.061297525,0.10815798,-0.06667938,0.26083386,0.033604868,-0.22611909,-0.19024596,0.26366594,-0.073095426,-0.045144487,-0.039268285,-0.114593334,0.032310076,0.06477305,0.097432785,0.1320346,0.055774517,0.1666404,0.10062877,0.07920873,0.11963377,0.06483536,0.13024971,-0.10684394,-0.112508245,-0.111949734,0.1961056,0.1459474,0.10773442,0.12657954,-0.061006468,-0.10826181,0.034339353,0.02299045,-0.19872713,-0.028821653,0.043274783,0.10077215,-0.1273505,0.10057445,0.09421402,0.046504606,0.16038781,0.22948301,0.1269744,0.1118205,0.068108484,0.07400399,-0.034234896,0.17062566,-0.18007188,0.13507451,-0.012625829,0.18025473,0.020201568,0.10504581,0.17194329,-0.07424416,0.057617076,0.14955412,0.12254606,-0.07606759,0.113864385,-0.14535327,-0.033948924,0.1453287,-0.07264545
0.061257888,0.060892716,0.04495913,-0.070292935,-0.017729796,-0.15938677,-0.03562095,0.027407993,0.02461784,0.058841106,0.045250267,-0.11531236,0.03158561,-0.13204674,0.06451028,0.047829647,0.005436895,0.06849663,0.0273276,-0.15943536,-0.10382701,-0.013142368,-0.057842553,-0.0040864623,0.0023338387,0.022185754,-0.10275617,-0.12376738,-0.043658864,-0.10895402,0.12181627,-0.013324035,0.00746643,0.07899865,0.03204489,-0.015972795,0.004805931,0.08822181,0.011511507,-0.008978619,-0.108852245,-0.018224776,0.044404842,-0.045875803,0.034282047,-0.044037733,0.021417322,0.04729256,-0.046012398,0.05334691,-0.01486288,-0.02826202,0.07294079,0.11512009,0.04793422,0.05287692,-0.044704292,0.023347123,0.029783417,-0.07673317,-0.00077879167,0.06169835,-0.06911766,0.08057385,-0.040084433,-0.053290203,0.016037965,0.027679276,0.100771055,0.007503315,-0.049058795,-0.069589816,-0.07549171,0.086435966,0.09785882,0.002850383,0.06684179,-0.09290596,-0.09323192,0.021111278,-0.023582296,0.01689156,-0.028288526,0.13301405,-0.0045765154,-0.052309766,-0.0349892,-0.031023031,-0.05204459,-0.08901728,0.051657386,0.0019087063,0.11453308,-0.014045436,-0.08176242,-0.02441313,-0.0133754,0.07773008,0.06544371,-0.0033957975
-0.11161756,-0.02533235,0.01404916,0.06149697,0.043092676,-0.0037714601,0.063457824,0.08338025,0.12444463,0.0028306043,-0.027054278,0.0033715742,0.06248783,-0.020130761,-0.16395937,-0.034032248,0.049393322,-0.12171293,-0.043702696,0.105383165,-0.120236516,0.09962116,-0.037415445,-0.021388948,0.006337943,-0.11110681,-0.09357676,0.0131032495,0.096304104,-0.109583095,-0.13719952,0.13766918,-0.07400162,0.009023022,0.01579928,0.11802407,0.020702777,-0.04802751,-0.047838263,0.07157329,0.1062328,-0.010161854,-0.031861957,-0.048599765,0.018068176,0.1585124,0.030881723,-0.029902512,-0.10619182,0.04018036,0.089941755,-0.06690683,0.13055943,0.005809269,0.05661092,-0.0006738669,-0.11820605,-0.07300248,0.22548337,0.07233293,0.10427473,-0.055141516,0.061217356,0.031430993,0.1036679,-0.13291854,-0.13974638,-0.09705133,-0.100407645,-0.0013625581,0.005203934,-0.023174435,0.031430118,-0.18410209,-0.059107985,-0.024952242,-0.124866545,-0.011726881,0.059459675,-0.06106613,0.041486014,-0.011680498,-0.011469759,-0.13124405,0.1088648,0.05487212,0.17561994,-0.015490263,-0.074474126,0.08562912,-0.05084984,-0.16600838,-0.06502885,0.015628975,-0.058253232,-0.027785989,-0.14520936,-0.089600064,-0.061083626,0.044907253
-0.015505009,-0.08855138,0.025459213,-0.035346683,-0.02034591,0.027145576,0.015845958,-0.1984552,0.12331703,-0.040407978,-0.006035259,-0.067602046,-0.014712748,0.047281336,-0.028702151,-0.018225614,0.17045324,-0.022995383,0.05336053,-0.030506741,0.030128865,-0.15288822,0.03366412,0.08248671,0.015330524,0.051399432,-0.09871571,-0.104911976,-0.11027021,0.05289232,0.07009424,0.04595692,0.042798523,-0.14284112,0.17952268,0.030837273,-0.031202115,-0.13504365,0.107706696,-0.0016432309,-0.031312197,0.18500453,-0.081811085,-0.08906376,0.009612351,0.003713166,-0.055449285,0.053325497,-0.03934662,-0.080960505,0.045472596,0.0031866096,0.06673409,-0.076891795,0.14596774,-0.0768922,0.01053359,0.19786498,-0.12330848,-0.04740735,-0.11123451,0.14046967,0.05818628,0.06764462,0.020465432,0.08815802,-0.058334768,-0.013905845,0.056483276,0.17320257,0.1791264,-0.04401625,0.047627483,0.0053568645,-0.09650819,0.1024115,-0.03217593,-0.12737048,-0.054980956,0.09783136,0.15987705,0.010315052,-0.048020594,0.08236661,-0.02207471,0.048869878,0.13009955,0.0019240126,-0.098780274,-0.11608412,-0.053763635,0.009902687,-0.09281752,0.11157179,0.049913548,0.0047380454,-0.09923017,0.15590674,0.07241387,0.042080063
-0.066233605,-0.05696671,0.10225548,0.05494227,0.018035654,-0.06648859,0.03224979,-0.014047876,0.10362151,-0.047066554,0.005041467,-0.060274083,0.051924694,-0.056685258,0.008622668,0.02611759,0.029006083,-0.09695937,0.016964754,-0.08529111,0.047496025,-0.070994824,-0.12541893,0.17987916,0.06677897,-0.05562529,-0.15686212,0.08182064,0.055788208,0.07196065,0.04871556,-0.02514345,-0.08623327,-0.012601701,0.12543917,-0.06395103,0.0862185,-0.014427672,0.10250387,0.055847414,-0.115236335,0.14596964,-0.048414543,-0.004535457,0.15499964,-0.0994928,-0.01810706,0.008698503,-0.16170606,0.06074256,-0.06687803,-0.13469209,-0.029162174,-0.05320903,0.12781686,-0.09870324,0.12162255,0.066054896,-0.034833997,-0.056514993,-0.0426473,0.06730125,0.1817146,0.041270692,-0.08495454,0.002380943,-0.12257567,-0.14081047,0.10341274,-0.038089473,-0.017309733,0.16695006,0.029349709,-0.045465317,-0.1279386,0.017784614,-0.07964199,0.024233982,0.077238224,0.056573916,0.07096253,-0.052282702,-0.023703322,0.01922657,-0.10724611,0.08583869,0.052923538,0.11754253,-0.116190314,0.00107647,-0.10885659,0.0043502534,-0.036504,-0.041280303,0.093360655,0.01701949,-0.16732551,0.07973955,0.08783365,0.101058714
-0.036329225,0.018045366,0.103190936,-0.015251752,-0.07875392,0.03444006,-0.03494071,0.057163484,-0.12725505,0.030678581,0.05872418,-0.05253267,0.13842766,-0.14581184,0.029346133,-0.0124040935,-0.0050494447,-0.042294316,-0.070105344,-0.06323673,-0.025732754,0.0069351243,-0.119359285,0.02166677,0.014430578,-0.030442491,-0.105886,0.08570123,0.10987881,-0.025306826,-0.17070852,-0.0052995128,-0.18488649,-0.02891832,0.12498329,-0.034250416,0.030568494,-0.101844296,0.061340842,-0.090696275,-0.07796871,-0.13198552,0.034263436,0.014859164,-0.009299931,0.10634295,0.07623521,-0.11782945,0.0008660992,0.14127144,0.00930267,-0.11865526,-0.0067086224,-0.047129203,0.056432474,-0.12548299,0.057576198,0.026152777,0.013193866,-0.08486402,0.008523013,0.088873155,-0.045349143,0.061835732,-0.15313095,-0.012754915,-0.16745532,0.013495609,0.053549014,-0.0693763,-0.0046217786,0.124062,-0.20448264,0.0786755,-0.15161112,-0.022138301,-0.17476326,0.0125439605,-0.06009847,-0.058430117,0.015139583,-0.050573647,-0.07752119,0.01826246,-0.067858055,0.05570112,-0.08617175,0.03910667,0.16419598,0.04309159,0.057626467,0.03258873,0.15117145,0.16824873,-0.047280926,0.003310073,0.06673042,0.07265182,0.039804637,0.07443487
-0.037949104,0.13587108,0.016535658,-0.058184486,-0.15843265,-0.04127155,0.029670672,0.040313657,0.0029253336,-0.12919258,0.06412152,0.012536166,0.07450309,0.07935086,-0.096392475,0.116413064,0.14141266,-0.011359574,-0.020012239,-0.016615257,-0.068477765,0.040888924,0.057865724,-0.034235504,0.027162438,0.1264513,-0.03099816,-0.08556558,0.05262098,0.09174523,0.057468675,-0.058898374,-0.10801912,-0.05346835,-0.037204035,-0.006620497,-0.01478016,-0.112222545,0.027745148,-0.06275229,-0.05806011,-0.009957972,0.0045138015,-0.07788975,0.0046696137,-0.09809947,-0.017508935,-0.078293435,-0.016890792,0.033468112,-0.08407988,0.18832022,0.0480061,0.08942541,-0.027129795,-0.052973468,-0.013490765,0.049410693,-0.0080828285,-0.13776344,-0.012848849,0.10999307,0.07728167,0.0054432675,-0.09077941,-0.12361585,-0.11345815,-0.09588105,-0.067131214,0.10963006,-0.004255677,0.02974777,0.013774746,0.01820611,-0.007594471,0.0030565998,-0.044443436,-0.069998786,0.007219014,0.07316016,-0.00038039184,0.01637521,-0.046229858,-0.0636781,0.093289144,0.14032608,0.10702706,0.012996189,0.007250237,-0.024108293,0.050545476,0.15022475,-0.026688252,-0.04424553,-0.0014355228,-0.09517607,0.15431245,0.009123257,0.045584615,0.036620967
0.08140136,0.0478599,0.0352681,0.010886783,-0.007166524,0.08738614,0.07224087,-0.10691886,-0.098149136,0.13314189,-0.0050415527,-0.014091084,-0.014225231,0.0077145346,0.069778,-0.012248618,0.0308546,0.007660611,0.13445991,-0.024076339,0.15158494,-0.098350614,-0.042809922,-0.03302064,-0.04794183,0.010951935,0.01461744,0.08460064,0.08377935,0.12417313,0.0070754346,-0.025769595,0.004636287,-0.08130332,-0.026583347,0.121448204,-0.07841525,-0.16573429,0.06757599,-0.0058937524,-0.051917974,0.095916085,0.06643014,-0.021314187,0.017634524,-0.00843817,-0.023979278,0.046096455,-0.0914363,0.16287293,-0.096409656,-0.044544972,0.016427763,0.028346956,0.03319746,0.032559764,0.070202336,0.026622148,0.03325694,-0.13971223,-0.13683651,-0.08244704,-0.06526034,-0.003582751,-0.055963185,0.118660055,-0.03494128,0.04885785,0.06806641,-0.026734909,0.014369176,-0.043535583,-0.025621042,0.10056871,0.030806256,0.042256154,0.049745023,0.02306711,-0.04375218,0.10055213,-0.009288263,0.02163865,-0.03285694,0.015113872,-0.03880956,-0.10529052,0.07603758,0.011964193,-0.002800839,-0.057412587,0.07775534,0.09020614,0.05424625,-0.07434411,0.017758494,-0.0073061264,0.022088254,0.052986532,0.06844291,0.037182704
0.13817221,0.15576343,-0.039223958,-0.07970194,0.056172572,-0.057988863,-0.090996996,0.12041028,-0.12902977,-0.07549373,0.19569324,-0.16248101,-0.0599188,-0.10175056,-0.013978719,-0.16010518,-0.07317581,0.02977688,-0.042229082,-0.1666297,0.25449994,0.014305805,-0.061254285,-0.10739743,-0.0064511183,-0.0777815,0.1379658,0.121288426,-0.13209525,0.0404962,0.03963704,0.012179055,-0.153692,-0.08542605,0.31159592,-0.0063992674,-0.14012149,-0.20088129,-0.09201769,0.062336728,-0.013974312,-0.06713724,0.31672356,-0.01632589,0.114727445,0.15133175,0.13194281,0.2032849,0.007463702,0.11765895,-0.118291564,-0.106028825,-0.13090658,0.11875086,-0.041539047,0.034035347,-0.06309811,0.13466872,-0.12989569,-0.16176029,-0.027261332,0.1447708,-0.10912204,-0.13601866,-0.0526667,0.09015405,0.07095985,-0.015403154,0.0664471,-0.08067879,0.095959105,0.2039518,-0.21391034,-0.01932654,-0.032906998,-0.19703469,-0.0696355,-0.0018497738,-0.01339778,0.045110118,0.021592962,-0.12123113,0.11514008,0.22932306,-0.122764066,0.007974289,0.067447424,0.05969434,0.09053659,0.09024485,0.0016524651,0.04939331,-0.1157873,0.24486963,-0.0012532836,-0.04585714,-0.07383251,0.022672715,-0.1343142,0.2106023
0.11154991,-0.059771277,-0.096635304,-0.13739859,0.20295963,-0.22932972,0.12803102,0.117158055,-0.08707326,-0.005249121,0.06982366,0.12768187,-0.0034885225,0.043934032,0.047468077,0.20733431,-0.06733907,-0.047314875,-0.010806238,-0.06555464,-0.10996216,-0.03344114,0.19511843,0.032875437,0.105203256,-0.14789486,0.10602061,0.10946429,-0.12862633,-0.06654381,-0.08269153,0.021585507,0.014944219,0.06332039,0.030792633,0.0776868,0.21545875,0.0463457,0.083560094,-0.1762443,0.12801087,-0.10373529,0.018218292,-0.08331415,0.09516462,-0.13750562,0.08311062,0.11646274,0.11092581,0.24708515,0.063234515,-0.072603434,-0.07803468,0.010006761,-0.17549632,0.17151289,-0.18723448,-0.13588978,-0.04538702,-0.040457465,0.10554525,-0.07147534,0.110495105,-0.038701165,0.04294656,-0.10060413,0.14775233,-0.07817613,-0.18920337,0.039695404,-0.024980705,-0.08349182,0.06580529,0.19647638,-0.10844951,-0.1400097,0.10851633,-0.05543067,0.15445374,-0.07739744,0.11137129,0.0039353897,0.03744157,0.058720015,0.24593623,0.058388416,-0.09421462,0.15283042,0.121104345,0.09711888,0.02106645,-0.12308103,0.0834188,-0.030522393,-0.106680796,0.035764433,-0.046569236,-0.10501702,0.16749637,-0.057191305
-0.03235412,0.004792181,0.110605784,0.13876878,-0.21921468,0.10059524,-0.10017694,-0.17667803,0.030141845,-0.14607581,-0.037471015,-0.105184026,0.16396174,-0.06880551,0.084970124,-0.13967112,0.20862447,-0.027196823,-0.055594027,0.023963423,0.03036075,0.097915746,-0.0719679,-0.056935474,-0.05090862,-0.084763,0.027182257,-0.017205548,0.011623099,-0.040411215,-0.18048455,-0.17482835,-0.15071376,0.14834319,-0.007642898,-0.17145221,0.0042100796,-0.0047558513,-0.058682118,-0.06654127,-0.17397104,0.04113756,-0.061731696,0.11498332,-0.0022324054,0.04291929,-0.0713903,-0.0075412425,0.009726134,-0.040734917,0.09928866,-0.005856418,0.20830742,0.009082284,0.07816687,-0.13794395,0.1966105,0.15867963,-0.10901844,0.018779514,-0.01117708,0.09143545,-0.1637419,0.020425117,-0.09338043,0.119253166,0.025845442,-0.05806219,0.19090846,-0.165457,0.16237259,0.14849994,-0.15809463,-0.06490482,-0.005681046,-0.012460922,-0.046443507,0.049095076,-0.018550707,0.13903427,-0.11149703,-0.11933191,-0.024474295,-0.08943653,-0.12660751,-0.010360538,0.010652815,-0.12497495,-0.05795274,-0.16340537,0.06582758,0.104069114,-0.009701492,-0.06284746,0.051659163,0.075589724,-0.09744363,0.24719962,0.04122087,0.048981152
0.0074863248,0.09156344,0.014500542,-0.03995631,-0.030984143,-0.069426976,-0.034462754,0.05881002,-0.02329779,-0.037722092,-0.013417865,0.0081398655,-0.027164217,0.09527,0.015132173,0.03799826,-0.025311094,-0.0013546807,-0.061179917,-0.03468433,0.11390906,0.09517364,-0.05295726,-0.01077881,-0.026374014,0.09818072,0.045579463,-0.04981385,0.00094548904,0.09978866,0.109952845,0.074447684,-0.03497815,-0.022261983,0.006564904,0.032183412,0.023269577,0.058516514,0.11152543,-0.087974876,0.07284925,-0.020632712,-0.045574322,0.008303767,-0.07922405,0.020725396,0.090471976,0.006175536,0.05642109,0.028628895,-0.07655603,-0.013733009,0.05253703,-0.04934415,-0.010466915,-0.03161615,0.05115508,0.113445476,-0.02819164,0.023384977,-0.072146416,0.001397859,0.038781848,0.030620908,0.017612468,-0.07424654,-0.0696679,0.13122988,-0.04028706,0.09034561,0.087561205,0.03528317,-0.026090117,0.07468085,-0.07963418,-0.021322845,0.0017446605,-0.05202048,0.001297289,0.08018642,0.13242246,0.06394052,-0.06799812,0.066394456,0.03307452,-0.032220665,-0.04192392,-0.0852903,-0.027220182,-0.042288583,0.1292009,0.027878124,0.068861246,-0.06715304,-0.023396896,0.05554324,-0.0008578696,-0.07883389,0.042641018,-0.07884233
-0.007570272,-0.087098084,0.07094847,0.0870743,-0.049375575,0.0073456806,0.057613637,-0.033759102,0.10765443,0.04268527,0.010935678,-0.019062703,0.02595637,-0.11547168,0.056625064,-0.08823754,-0.00066375546,0.104507565,0.068974234,0.0076219616,0.10815333,0.02698898,-0.16819553,0.008546764,0.13590328,-0.07507065,0.023821127,0.01144896,0.032476034,0.10395143,0.06840899,0.13826592,-0.026344368,0.084802,0.060196545,0.029140735,-0.02605243,-0.05307752,0.10658699,-0.13693187,-0.0755821,-0.035669666,-0.09181564,0.037476078,0.05234879,-0.060313225,-0.08536574,-0.035710618,0.013185059,0.10803266,-0.03550024,0.06359031,-0.01139841,-0.15174633,0.054253243,-0.07764838,0.07255422,0.02537701,-0.115946144,-0.029591912,-0.0030312513,-0.020539647,0.06591233,0.020613201,-0.020951783,-0.015586658,-0.080732755,-0.057330754,-0.15011038,-0.08567617,-0.038066898,-0.11713348,-0.071948186,0.026867315,-0.014050369,0.056012828,0.12751776,0.18463127,0.05908587,-0.059035573,0.14336349,0.014002376,-0.009239531,0.052753843,-0.06580271,-0.06852756,0.084395595,0.05322587,0.022720538,0.06744726,-0.020539261,-0.06395619,-0.1350272,0.008683503,0.011894248,0.10242914,0.028729761,0.010706566,-0.004601658,-0.1289893
-0.009106813,-0.035487987,-0.013446216,0.17095405,0.07676953,0.06507399,-0.10447743,0.051940348,0.05633075,0.066324495,0.02202612,0.05690781,0.10344037,0.17790294,-0.06849937,-0.012260485,-0.04407285,-0.06543048,0.026126118,0.033362567,-0.018892853,-0.024103442,-0.10264706,-0.046628106,-0.05092466,-0.04805537,-0.081960335,0.11832947,0.010706859,-0.06331499,-0.09092278,0.032480378,0.011526807,0.039735228,-0.09516222,-0.029088937,0.04840819,-0.0054824697,0.13788253,0.11201453,-0.04579965,-0.0070347236,0.07126616,0.12498191,0.021907438,-0.0054950328,0.033348754,-0.083104365,-0.07626926,0.064305305,-0.063537486,-0.040384367,-0.035882436,0.044252,-0.04265871,0.017570715,-0.0010577778,-0.048480965,0.13476352,0.032207932,0.038005687,0.0074979416,0.03794415,-0.092075475,-0.066803925,0.031107264,0.11902506,-0.05434715,0.027262518,0.09154537,-0.108885914,0.078238085,0.06858903,0.10170393,-0.043722216,0.09846138,-0.037864685,0.0114092715,-0.04071499,-0.057314947,0.025836296,-0.025914798,-0.037578456,-0.041994046,0.05555358,-0.011549235,0.24853067,-0.056309,-0.1279376,0.14987032,-0.0141599085,-0.08658322,-0.15883616,-0.09965192,-0.023110986,-0.014419375,-0.100255236,-0.08060742,-0.009060595,0.10670954
0.05457539,-0.05642127,0.16922632,0.015125281,0.01427643,0.038569976,0.013249085,-0.011484479,0.056315836,0.034396537,0.018681029,0.13330033,0.0202337,0.009119266,0.012509623,-0.08090626,0.036172166,-0.092787,0.16501758,0.017807305,0.035192885,-0.0020106034,-0.038348347,-0.018795712,-0.10224554,-0.025372919,0.0018582807,0.07516108,-0.22754838,0.0842469,0.039311342,0.019775288,-0.0061688395,0.01407692,0.016927185,0.0004440848,0.0608818,-0.014534778,-0.13911602,-0.050765898,-0.05401323,-0.08435272,0.04537978,-0.12308993,0.054164182,-0.060775623,0.123534136,0.07052703,0.08780938,0.0489063,-0.061442986,0.0014905112,-0.09899817,-0.0054531437,0.096429825,0.027921723,0.00676096,0.04679559,-0.09316544,-0.109024316,-0.08291115,0.024128703,-0.04254067,0.100053094,0.08582952,0.05999944,-0.005716032,0.2180671,-0.06441696,0.06339568,-0.023058806,-0.046120603,-0.012137398,0.05547286,0.080141544,0.07626886,-0.039769888,0.098246105,0.03077033,0.06320596,0.06061666,0.0014194682,-0.042684756,0.08585915,-0.09623549,0.016972326,-0.099734254,-0.08774352,0.064508155,0.10575646,0.1153534,0.08753935,-0.09027421,0.03373337,-0.09751694,0.040781755,0.06794247,0.08740524,0.0070216632,-0.19656469
0.1069825,-0.0039116396,-0.031295575,-0.02629745,-0.027811138,-0.14378095,0.044730034,-0.04098047,0.09214278,-0.03532494,-0.09968239,0.12124647,-0.05519534,-0.039589386,0.0050520613,-0.11469215,0.037026253,-0.05159428,-0.010451791,0.04860642,-0.12198081,-0.024097733,-0.030658131,-0.054925002,-0.11264906,0.012710346,0.0064399065,0.10175109,0.1122864,-0.0012472649,0.05442864,0.027194288,0.11576943,-0.06432574,-0.047733907,-0.009026013,0.03509906,0.025145149,-0.05420377,-0.096681915,-0.015843304,0.11885322,-0.08610461,-0.0829591,0.0040404988,0.019670572,-0.059975658,-0.061292704,0.000746142,-0.014202515,-0.0013123935,0.08823079,-0.101992,-0.040846407,0.03735293,0.002528351,-0.093880065,0.039168302,-0.14998053,0.10836582,0.012310698,0.09297411,0.021083202,-0.1301825,-0.029731994,0.031436622,0.0719788,-0.14165556,-0.0583813,0.027451046,0.05194261,0.055279136,0.0026419112,-0.098018415,0.053239495,-0.0049891644,-0.0119981095,0.034361105,0.12654428,0.050028957,0.04094947,-0.026574245,-0.03227833,-0.02983138,-0.038389992,-0.062699124,0.0949141,0.11526472,-0.053877693,0.047232084,-0.043694355,-0.10814911,-0.14980093,-0.060792074,0.1467361,-0.010818144,0.08677151,0.019236138,-0.05447804,0.13812953
-0.10059185,-0.050523106,-0.22116435,-0.0018266155,-0.045929827,-0.06457959,-0.097305484,-0.082919426,0.19522661,0.01444051,-0.14262992,-0.048893064,-0.06592086,0.016353555,0.1169857,0.04910987,-0.05219786,-0.027754402,0.018219847,0.16833423,0.08050635,0.05344616,-0.036694374,-0.14797388,0.113855526,-0.07916204,-0.16145882,-0.051333867,-0.0913531,0.060208417,0.10317611,-0.2221036,0.11825086,-0.10853415,-0.2507806,0.007997509,0.0677994,0.06339576,-0.21993265,-0.16380547,0.041206203,0.110843904,-0.081423014,-0.08916708,0.13159893,0.057387643,-0.18924879,-0.11383587,-0.012345897,-0.15829708,0.051748343,-0.0036179367,-0.08582084,0.16138697,-0.13514876,-0.26308337,0.006643271,0.24354888,0.015055884,0.13480236,0.04585469,-0.04780834,-0.030197121,-0.084221415,0.115648344,0.028427517,0.0019968075,-0.051308844,-0.084925644,-0.15512085,0.1317598,-0.03854261,-0.013174123,0.042385023,-0.26743302,0.00763092,0.14693223,-0.17846167,0.025747525,0.27668124,-0.28401724,0.1175811,0.0052769,-0.11363039,-0.29591462,-0.09907954,-0.22222202,0.044027667,-0.20555049,-0.10758085,0.19733566,-0.17773457,-0.16417862,-0.11767468,-0.24298762,-0.0897215,-0.35784048,-0.04214977,-0.080128916,0.07749038
-0.019405859,-0.0068316846,0.078540415,-0.03701893,0.095151916,-0.01857528,-0.006188803,0.121180534,-0.004433069,-0.1294058,-0.033395592,0.056855842,-0.14353284,-0.0068004346,-0.047191583,-0.009068794,0.04065897,0.08167639,0.045403346,0.04235297,0.055188514,0.1021819,0.05200531,0.014182083,0.007935493,-0.10638469,-0.05642662,0.15598594,-0.12570816,0.062309198,-0.033987228,-0.04554407,-0.024453413,0.011165379,-0.09204423,0.13648085,-0.04363018,-0.15817979,0.12278426,-0.07931095,-0.040491916,-0.022711093,-0.1158945,-0.142014,0.038467817,0.02224549,-0.04879714,0.076408714,-0.096479855,-0.15033169,0.0037791028,-0.08440138,0.046416406,-0.01648791,-0.16841786,-0.023358915,0.02322237,-0.0065995962,0.09559515,0.052073702,-0.025691498,-0.0717972,-0.01225037,-0.05459026,0.03435127,-0.0066256556,-0.10054808,-0.12646818,-0.08757468,-0.01785759,-0.029832568,-0.026827915,-0.09849918,-0.0924749,-0.029579207,0.038550925,0.052837282,-0.043097395,-0.011194961,0.038025293,0.09361017,0.055473212,-0.060302597,-0.04062682,0.069818184,-0.08852209,-0.20873763,-0.049835984,0.01580448,0.02566342,-0.059346534,-0.073676445,-0.028961884,-0.03917223,0.03923783,-0.13357335,-0.034385268,0.035078783,-0.090829,-0.0122417025
-0.013391795,-0.014449148,0.076976,-0.09094698,0.09464177,-0.14000668,-0.013635374,-0.19226538,0.010396957,-0.05646046,-0.094125785,0.00082584564,0.109517165,-0.04345259,0.10183043,0.09978885,0.05872446,0.075895645,0.055957366,-0.010567156,-0.048396256,-0.07635674,-0.000238039,-0.09962823,-0.068943314,-0.077936746,-0.113722295,-0.056144357,0.11528167,0.11796033,0.03927052,-0.016701378,-0.036760908,-0.06484625,0.06428818,-0.07500091,0.062350232,0.032742888,-0.0092687905,0.0015219767,0.020711692,0.05978414,0.043551344,0.028584644,-0.0953701,0.10608923,0.009618856,0.018876154,0.00064779614,-0.015985599,-0.05569355,0.059362877,0.003615038,-0.08056458,-0.0501928,-0.121802755,0.099053055,0.031831976,-0.051977046,0.08689002,0.058719307,-0.040122706,-0.078890696,0.049476113,0.056588996,0.10942901,-0.01042206,-0.043947328,-0.018389264,0.064977095,0.07171759,0.060145225,-0.010817435,0.10802126,-0.07562301,0.0066629145,0.07622726,0.11593827,0.032987017,-0.0060029035,0.09698067,-0.012830825,-0.10001878,0.06684143,-0.10716161,-0.08230595,-0.04129713,-0.022665536,-0.07981304,-0.08457213,-0.09564924,0.105302,0.1369333,0.044391457,0.020200575,0.07871087,-0.16846858,0.011728818,-0.008348446,-0.11930499
-0.02522756,0.070521,-0.030194467,0.01155562,0.06223268,-0.043859225,-0.03174081,0.034183066,0.10124001,0.15352589,0.13621084,-0.045172874,0.03914983,0.07591965,0.05905154,0.074946776,0.10597428,-0.059857268,0.09361043,0.04112768,-0.010664156,0.1146284,-0.023921642,-0.03434629,0.021775639,0.07070134,-0.028005118,-0.022126941,-0.057390146,-0.085963465,-0.055675164,0.0031444158,-0.047733042,-0.08971621,-0.13414633,0.079715274,-0.097722,0.016608577,0.045166567,-0.0047988286,-0.016895363,-0.02574446,-0.11659231,-0.104556456,-0.09869962,0.07667458,-0.063587345,-0.06800341,0.051803257,0.10504981,-0.0017510143,-0.0024109932,-0.003095291,0.0066204276,-0.20978524,-0.031508636,0.041411303,0.062393367,0.08586437,-0.07062484,-0.033301525,-0.01636249,-0.10717579,0.07862693,-0.04662717,0.01711278,0.032669343,-0.04902754,-0.012615031,0.004424123,0.012433731,0.050797176,0.12948197,0.057150964,-0.0615723,-0.09683156,0.03996785,-0.0914634,0.09301942,0.026836991,-0.050822347,-0.066341616,-0.037165057,-0.067479216,-0.104455665,0.027725989,-0.06560141,-0.098267764,-0.016288461,-0.006707233,0.11360308,0.035617992,-0.084807955,-0.03657389,0.02251601,-0.057668794,-0.040901486,-0.04564557,0.056192555,0.039356127
0.08761451,0.047111634,-0.09304022,-0.057825778,-0.03831573,0.020065308,-0.039792582,0.007951509,0.0005788026,-0.033959344,-0.03578114,-0.004096222,-0.049587596,-0.064764746,0.09481197,-0.117870435,0.015760785,-0.014586423,-0.030852117,0.0006991607,0.059242047,0.0732395,0.057731684,-0.12666167,-0.0585289,0.14029342,-0.1402725,0.06562066,0.09242679,-0.055218473,0.13453613,0.037490666,-0.037393913,0.000126478,-0.019106466,0.015121126,0.10544588,0.12296395,-0.108784355,-0.016099729,0.1913525,0.019754741,-0.007616889,-0.04883596,-0.0538199,-0.137054,-0.092698626,0.0002641662,-0.012445038,-0.0034682301,-0.015176331,-0.10525863,-0.04738161,0.002924154,0.004291753,-0.05320495,0.033679575,-0.05599673,0.06267312,0.068784915,0.022840511,-0.00021457666,0.10065431,0.01021712,-0.035191413,-0.03198065,-0.0601978,-0.01435852,-0.07500047,0.0062843994,-0.009257203,-0.013826467,-0.040227205,-0.02882456,0.10566383,0.013315634,-0.11059203,-0.072540075,-0.031104423,0.07605451,0.074539706,0.20397688,-0.07528593,0.060339183,0.02297324,0.01014672,0.06466562,0.14817858,-0.0810549,0.057995368,0.035888176,0.0509131,-0.06503521,0.047574308,0.03721947,0.01435029,-0.070497476,-0.0025264628,0.070331186,-0.06371485
-0.012212846,0.0031650295,0.052870598,-0.012078756,0.022547865,-0.020251581,-0.02673012,0.04133999,0.049790755,0.101154596,0.049476888,0.06707243,-0.01102832,-0.017531645,-0.0347275,0.06677762,-0.04089889,-0.035217952,-0.111463614,-0.009601253,-0.062490582,0.0073329783,0.031442758,-0.050106153,-0.10800691,0.0029093374,0.059471566,-0.03493965,-0.066902116,-0.085149154,0.0020464114,-0.06966031,-0.11113447,0.018230213,0.0618353,-0.066220224,0.04195957,-0.040209457,0.16042216,-0.04810979,-0.04865286,-0.01748899,-0.12840796,0.007475489,0.0003458874,0.0718569,-0.065692924,-0.034509476,0.0018983396,0.083673745,-0.0015346216,0.0745055,-0.009635659,0.042346105,-0.03214758,-0.048922084,0.05626376,0.0058192234,0.050049465,-0.00868038,0.057818398,0.032309208,-0.021496145,-0.09315172,-0.0292972,-0.021400094,0.07061563,-0.017583754,-0.044979773,0.09083981,0.014382118,0.1342783,0.034159068,-0.056490764,-0.0036795903,-0.10065047,-0.13093178,0.040928595,-0.051939867,-0.058333706,0.018362498,-0.07942389,-0.056824412,-0.0076806885,-0.018307408,0.17264995,-0.061277438,0.138022,-0.011675858,0.012259609,0.049236335,0.09792783,0.005711327,-0.08038754,-0.037997797,0.025426265,-0.018868472,0.04101954,0.12538543,0.024599927
0.06394239,0.006459129,-0.03332255,0.06692062,0.055291142,-0.05871252,-0.04512877,-0.037522633,0.0051191733,0.040808532,0.13301197,0.031484187,-0.11738633,0.15318029,0.00060771237,-0.030531876,0.013793855,0.04397214,-0.10574968,0.06393826,0.014095519,-0.055770222,-0.06757036,-0.009006525,0.076354675,0.01166463,-0.09002294,0.027843693,-0.103195354,0.06729735,-0.06073963,-0.04662552,-0.03042594,-0.05191532,0.017872518,-0.03681568,0.04857748,-0.055617634,0.018310506,0.06550971,0.10556352,0.016736822,-0.067808345,-0.091913104,0.00045377613,0.058403093,-0.06337763,0.043693744,-0.080194354,-0.10400361,0.06679925,0.029967722,0.038616046,-0.12745562,0.005390843,0.08031629,0.07222945,0.0058880495,0.0654902,-0.041481145,-0.119275175,0.10607781,-0.062435485,0.13875477,-0.035043586,-0.04989943,-0.030837882,0.08451236,0.03969391,-0.022578396,-0.006945952,0.0052233795,0.10805598,-0.13424605,-0.033852335,0.04421263,0.054437958,0.12145461,0.0030658266,-0.06848018,-0.008207802,0.023884533,-0.122347176,0.010672104,0.08703173,-0.03480941,-0.12632217,0.02078889,-0.039205663,-0.10240442,-0.022043195,0.040204328,0.0035456847,-0.01836788,-0.0020575423,-0.034852415,-0.051902365,-0.00030693453,0.04787721,-0.11652741
0.07871954,-0.03746074,0.04432789,-0.044397946,-0.03177553,-0.08862979,-0.019864097,-0.035539255,0.026664086,-0.07337492,-0.094545506,0.034192447,-0.07135858,0.052797496,-0.13688396,-0.085555784,0.10086117,-0.0045088744,-0.08207464,-0.074755736,0.01270211,0.035001095,-0.028746549,-0.042020004,-0.15848303,0.065403365,-0.0024571975,-0.07560287,0.05289948,-0.119564414,-0.050631598,0.13290524,0.017114818,0.032709647,-0.041765835,-0.036257584,0.07813113,-0.07010153,-0.07825168,0.03285448,-0.057849523,0.039662223,-0.09148116,0.040509213,0.049228817,-0.038102828,0.022922594,0.016868027,0.0010678255,0.11906869,-0.014944284,0.102765046,0.09614793,0.03062484,-0.04964276,-0.049055256,-0.049614474,0.063678324,-0.035162255,-0.058792748,0.08109836,0.02457087,-0.015672348,-0.003205657,-0.028809477,-0.05858259,-0.0074613686,-0.08646009,-0.011406528,0.05149029,0.073779516,-0.0351666,0.09240893,-0.05809272,0.08170269,-0.030799335,0.083989024,-0.07001023,0.04880046,-0.04489077,-0.037284452,0.025423514,0.0035366723,0.03498863,0.030304808,-0.07948839,-0.07017776,-0.030759173,0.11020594,-0.038414057,-0.008635625,-0.048827816,-0.0073288814,0.10786253,0.0500365,-0.13192162,0.0021938472,0.15668269,-0.017318673,0.06584529
-0.046193995,-0.03452254,-0.03289413,0.028204184,0.059055947,0.060602356,0.008588545,0.1070462,0.04664702,0.046831682,-0.023421124,0.13345844,0.084238015,-0.015758365,0.01317435,0.065517865,-0.055519942,0.05177015,-0.03025327,-0.008325007,0.10440482,0.034300756,0.011859534,0.012777901,-0.056125753,-0.035475265,0.088123724,-0.013267077,0.009352596,-0.08434685,-0.12130457,-0.073093005,0.008282625,-0.01130458,0.10936949,-0.03141007,-0.02591842,0.05304669,0.031386554,-0.07586741,0.044317685,-0.12079275,-0.019472543,-0.08629805,-0.0041672406,0.012748064,0.033188097,-0.109880954,0.0793303,0.13812186,-0.026415482,-0.03344368,0.16057418,-0.05185919,0.06871496,0.05256848,-0.06329779,0.09821774,0.046428744,-0.087212496,0.026625656,-0.032873403,0.079572245,-0.018521463,-0.07486836,-0.051152755,0.12126434,-0.015420177,0.03977805,0.07701488,-0.044683233,0.032611784,-0.038630977,0.0025594956,0.10698586,-0.024639688,0.008739604,0.058566947,-0.02843535,0.01627162,0.0044463165,0.1490184,0.011672876,0.012398152,0.08981272,0.039558567,0.0027476845,0.16831061,-0.03111681,0.051264796,0.052457616,0.023160148,-0.064931124,-0.06089309,-0.15749207,0.068376675,0.002911991,-0.004966264,-0.07493957,-0.0047598323
0.014111197,0.12767553,0.036923602,-0.06652515,0.09055954,-0.05134284,0.039831847,0.0859038,-0.11238976,-0.043051176,-0.052168895,-0.03526003,-0.11235921,0.012876142,0.07176707,0.048672665,-0.0037127547,0.094655976,-0.039001476,0.06811084,-0.08068007,-0.053114943,-0.068119444,-0.00075836235,-0.13088056,-0.051559042,0.12451038,0.010073547,0.10248377,-0.05940821,0.041407697,-0.07168297,0.10101074,0.0478815,-0.03699648,0.030152356,-0.10115875,-0.08259576,0.01831571,-0.02621644,-0.025822595,0.030774128,0.017021377,-0.008166684,-0.026472125,-0.0771355,-0.09179429,-0.12342645,-0.068947725,-0.007189495,-0.017703973,-0.08519883,0.10062304,-0.038228773,-0.07989253,-0.12399478,0.031786658,-0.096080296,0.119626075,-0.030596353,0.08227685,0.08441791,-0.02032824,0.044138152,-0.16583747,0.01762845,0.11247312,-0.037456676,0.03155433,0.008237422,0.0038979133,0.060195446,0.11362059,0.092708066,0.04179385,0.118099265,0.01704283,0.01484001,0.0032814622,0.041280035,-0.0720357,-0.09871546,0.14321958,-0.021474097,-0.0024546047,0.009020609,0.0659981,-0.020188205,0.038577337,0.03680552,0.06783428,0.081476085,0.013251117,-0.049712196,-0.065940574,-0.17862052,-0.03354026,0.03817138,-0.111664414,-0.09116611
-0.012906694,0.004369645,-0.05258809,0.029125959,-0.0058900137,0.033982046,-0.09384842,-0.005795458,-0.0015800082,-0.026196262,-0.0026216607,0.03615182,0.02074149,0.07992405,-0.0739038,0.01928115,0.0303545,0.07243719,-0.08458308,0.16994412,0.036709663,0.041327626,0.0063378913,-0.010108048,-0.026369052,0.07863611,-0.14884135,0.06113853,-0.0018667836,-0.009628675,0.14604414,0.03620674,-0.005997857,0.08109747,0.06589218,-0.01573249,-0.033904705,0.022568576,0.08403675,-0.102754526,0.06386862,-0.022476038,-0.030504005,-0.014396059,-0.013702753,-0.07784953,0.044966042,0.1061484,0.04560674,-0.0847957,-0.005180137,0.05360071,-0.015233287,7.913673e-05,-0.050712135,-0.05085616,0.018096268,0.021956792,-0.025614074,-0.061958723,0.030877952,-0.027940672,-0.0423322,0.054048274,-0.041451156,-0.04842236,0.017994186,-0.064081855,-0.017657962,-0.037462804,-0.054494794,-0.10881393,0.058166467,-0.042738516,0.048540212,-0.0563939,0.0106258225,0.035062402,-0.010267696,-0.07006083,-0.024210572,-0.0768428,0.05034655,0.03625647,0.12343072,-0.060053784,-0.0003078635,-0.041200258,0.009431743,0.09904965,-0.03652752,0.027500553,0.112668276,0.008869537,-0.020669697,0.11472458,0.06677848,-0.034812268,-0.10764108,-0.060873467
-0.054182105,0.10823191,-0.0649898,-0.07410161,0.114898555,-0.0140013695,-0.008869321,-0.00026484777,0.05356403,0.017014207,-0.026692025,-0.14410189,0.02738473,-0.03616054,-0.053391136,-0.054362632,0.030368298,0.057671122,-0.08676949,-0.074292265,0.059871025,0.07037781,-0.011958613,-0.0328994,0.043807495,-0.06128702,-0.052539155,0.022640938,0.10097425,-0.0911985,0.058923744,-0.036602713,-0.00045476918,0.051378526,0.05253045,0.081389494,0.0358498,0.12129588,0.058610514,0.12894084,0.11875543,-0.030530253,0.008350704,0.023117831,-0.011988189,0.053190857,0.031351097,0.006544345,0.006382364,-0.034474187,0.00836234,-0.049828127,0.04614642,0.025386538,0.014156098,-0.006540127,0.06321057,-0.12203014,-0.046510026,-0.03998934,0.01600905,0.021359842,-0.007328278,-0.079012804,-0.10464181,-0.033700503,0.016505942,-0.10392521,-0.07951298,0.008333094,0.11154186,0.0012345079,0.078392535,-0.058641307,-0.06311175,-0.01341481,0.13235697,0.0046238634,-0.12143113,-0.028087819,0.067722335,-0.03713466,0.06307208,-0.031492505,0.074380524,0.12455662,0.04680463,0.040551484,0.064826556,-0.0041223667,0.054590087,0.024678962,0.079258345,-0.08270185,-0.13449697,0.044144984,0.098972134,0.042196546,-0.031337515,-0.07857218
-0.04865236,-0.03416925,0.068603314,-0.03828011,-0.07089713,-0.11234087,-0.046649367,-0.117785364,-0.05317249,0.072690666,0.05052581,-0.016256275,0.022890288,-0.019952167,0.04043673,0.057655256,-0.043597434,-0.0037760206,-0.07988883,-0.07217961,0.0745631,-0.11248399,-0.026481073,-0.004289975,-0.034185756,-0.03962027,0.062293928,0.05058921,-0.017287971,-0.0077996524,0.010192468,0.056233212,0.026827801,0.030769693,0.041296337,-0.008151535,-0.0744372,0.050993096,-0.017842608,-0.04326769,0.10634852,0.046278786,0.10880453,0.13330148,-0.0380985,-0.004594334,0.029989092,0.026196897,0.09750866,0.12361371,0.0430102,0.06317824,-0.041504122,-0.07655719,-0.09046883,-0.041345783,-0.025774114,0.05761982,0.10931592,0.0366989,-0.00059737806,-0.0050260336,-0.070762455,-0.04329416,-0.15579368,-0.021788137,0.032050695,-0.15224487,-0.010084028,-0.05032646,-0.07124289,-0.020528013,0.08179095,0.101589136,0.10232837,-0.009486523,0.047992487,0.0054001883,0.14315546,-0.053666376,-0.047052477,-0.11413514,0.06532578,0.03206631,-0.06815731,0.05069724,0.0050866716,0.0827204,0.17121854,-0.09551989,0.012462418,0.12276417,0.042272896,4.590911e-05,0.0084893275,-0.009965139,0.09556356,0.06035723,0.016801452,0.105411924
-0.15265028,-0.06559665,0.03517626,-0.059432056,0.06381927,-0.035278223,0.08851201,-0.014519599,0.0029392422,0.070828706,0.050137073,0.03638971,0.041815866,-0.038440432,-0.07671209,-0.002058664,-0.066024005,-0.015146082,0.047474183,0.118178315,-0.073999055,0.11296204,-0.009623218,-0.030054783,0.06491431,-0.030907175,-0.028625997,-0.010002031,0.004522607,-0.021075219,0.06720618,-0.07405242,-0.041706625,-0.11653386,0.039624456,-0.017061822,-0.046714604,-0.072010614,-0.018673904,0.07803113,-0.08794791,0.07119406,-0.019540701,0.018029865,-0.03015831,0.033814125,0.0465252,0.13651405,-0.09814462,-0.0157853,-0.0621166,-0.028116938,-0.039759956,0.002975057,0.097374536,0.01307119,0.03428935,0.035487276,-0.056009814,-0.07154319,-0.016445883,0.02068242,0.08048359,-0.0061596446,-0.048290968,-0.07367958,-0.067199126,0.03824925,0.050234057,-0.14019045,-0.041826934,0.007953318,0.0841271,-0.025827467,-0.014061845,-0.16570494,-0.12961034,0.03524834,0.07559951,0.07652144,-0.017003989,-0.022770442,-0.037150748,-0.029263312,0.0076337047,-0.09647911,0.055054247,0.0013418801,-0.059282694,0.0030811399,-0.05183958,-0.021783784,0.065319255,-0.082043715,-0.05710965,0.02178164,-0.15354468,-0.01000666,0.01005639,0.07015623
0.022131361,-0.050338656,0.011210052,-0.017175911,-0.10292352,-0.10189116,-0.08211162,-0.16580941,0.20979612,0.067439914,-0.05707053,-0.037441272,-0.15810025,-0.1382352,-0.05784444,-0.01614208,-0.021404544,-0.08615942,0.010075865,-0.04590755,-0.006333265,-0.02258246,-0.039557334,0.08429881,-0.0041302056,-0.03636486,0.08507097,0.07750956,-0.08835253,-0.11099109,0.016438998,0.10597842,0.07709422,0.03888704,0.016399385,-0.005779721,-0.08811579,0.10325992,0.03780506,0.035415266,-0.0153325815,0.034579523,0.0005934279,-0.022706209,-0.026477505,0.10757978,-0.056035142,0.019651594,0.095548436,0.040290095,0.0018077396,-0.079146676,0.011086929,-0.042308256,0.20508943,0.13405113,0.053246442,-0.10070644,-0.04890509,0.112855315,0.014495005,0.01180029,0.05261863,-0.10085508,-0.042342626,0.113454625,-0.020402564,0.10931413,0.06793343,-0.09118668,0.060843434,-0.0067896983,0.027458057,0.07074204,0.05776845,0.068098076,0.00028221332,-0.0037111281,-0.0072430833,0.011029928,-0.010081402,0.048361525,0.1724739,0.0027633046,-0.014304749,0.055628497,0.016982524,-0.06537305,0.1661626,-0.14301735,0.003753485,0.023597475,0.005702849,0.059805408,-0.08684897,-0.042621564,-0.09357882,0.04971524,0.051641773,-0.050969593
-0.053968213,0.1661809,-0.07276649,-0.055505313,0.08183032,0.040849905,-0.01571684,-0.046529945,0.14005885,-0.0555758,0.023766384,-0.020918522,-0.15416378,-0.051577125,-0.03188467,-0.0072471863,0.030659575,-0.08538173,-0.017069817,0.05991922,0.004486551,-0.020097667,-0.084972814,-0.06115477,0.018581629,0.02431582,-0.07007286,0.093265764,-0.09929492,-0.031643942,0.04430325,0.013775618,0.0037252654,-0.022343824,0.0521919,-0.12647472,-0.04615861,0.039332442,0.04577185,-0.0051431265,0.07923763,-0.027306873,-0.07485688,-0.018890353,-0.13537124,0.11564108,0.07184224,0.13408202,-0.058342535,0.020336518,0.07216371,0.029916637,-0.028656458,0.05186556,0.070060045,0.07448124,0.023347666,-0.05354639,-0.058223687,0.07997828,-0.103875406,-0.111215524,-0.009334079,0.17816706,-0.059451837,0.030424742,0.02698554,0.19537593,-0.048036054,0.03005527,-0.0060422174,-0.009387556,-0.035636857,-0.070869215,0.070825726,0.053850487,-0.056613937,-0.0725375,-0.1262537,0.003372608,0.068431556,-0.08516282,-0.015437753,0.13746746,0.026325922,-0.012875002,0.018691871,0.06104495,-0.060566526,-0.079337336,-0.075880155,0.11463183,-0.08009224,-0.061032098,0.014910556,-0.04739855,0.095877536,-0.030062292,0.029708128,0.05727837
-0.13714164,-0.009651194,-0.026283372,0.049846318,-0.031157069,-0.013922861,-0.04600503,-0.070019685,-0.0068570133,0.09328478,0.034652915,0.114494696,-0.10368947,0.0047225947,0.0750092,0.12767391,-0.05891106,-0.08318529,-0.051192805,-0.041961037,-0.011836476,0.09517597,-0.09751885,0.065267965,-0.05285949,-0.0818426,0.070080206,-0.043816827,0.10156479,0.11143407,-0.07437557,0.052465536,-0.057592284,0.055367943,0.03713433,0.06888691,-0.0659187,0.023410827,-0.16829805,0.061963007,-0.08461457,0.0024131725,0.038802166,0.0017654736,0.0007453694,-0.047655813,-0.04834638,-0.062952794,-0.067267895,-0.09454839,-0.013250729,-0.013206314,0.058789093,-0.063507184,-0.032811034,0.03213421,-0.030121278,0.034189038,-0.07868639,0.068490855,0.018783111,-0.0033706124,-0.05168994,-0.085654065,-0.0072385003,0.087486796,0.045092758,-0.0987643,-0.01345708,0.022520201,-0.050197504,-0.05951365,0.07963954,-0.0378165,-0.03499533,-0.10907421,0.050979078,0.015247555,0.1038664,-0.016864369,-0.06402694,0.0021284088,-0.03256477,-0.01873372,0.13049208,0.019133173,0.049417615,0.048530042,-0.08467578,-0.0635911,-0.14337997,-0.072328866,-0.032481216,-0.022326218,0.065112725,-0.043770254,-0.12079048,0.0021337515,0.06472134,0.014218595
0.015838606,-0.020447984,-0.0051299403,0.05715092,-0.0043914435,-0.04377542,-0.0497229,0.095195845,0.04248334,0.007319096,-0.026836041,-0.12170413,-0.0736281,-0.010821716,0.058207497,-0.029671168,-0.07343517,-0.021408556,-0.09170438,-0.056521896,0.03706466,-0.036853638,0.023697702,0.1031936,-0.036388338,0.00507708,-0.058683746,-0.015958222,-0.12257401,0.039642464,0.018374752,-0.01205603,-0.0051421802,0.01953017,0.07079686,-0.02983622,0.02110267,0.048417546,0.001799631,-0.07396456,0.0082877595,-0.1340393,-0.066046715,0.06950963,-0.0153953945,-0.0807357,0.044631165,0.034269407,-0.029214637,-0.123286486,-0.06080765,-0.048865855,-0.017612997,0.04565924,-0.063252755,-0.06370827,-0.057577647,-0.02708327,0.018466033,-0.07514067,0.04552749,-0.091641925,-0.057307184,-0.022147123,0.08552712,-0.026832558,0.054972496,0.01663995,-0.037929133,-0.00809538,-0.051308934,0.006022742,0.014790208,-0.0075827283,0.009498734,0.13703193,0.09101308,0.056368265,0.063795,-0.078698754,-0.023276363,0.05155609,0.018141704,0.06607304,-0.08745614,0.001910318,0.011103208,0.015861033,-0.087325886,-0.02874313,-0.039233804,0.062313713,-0.03292816,0.016629161,0.11618397,-0.009733689,-0.03493251,-0.11832356,-0.03781376,0.07046386
-0.09361933,0.01842612,-0.04779881,0.11629478,0.008077417,-0.03326692,-0.009268604,0.13267814,-0.00975412,0.06338617,-0.053147446,-0.013709225,0.001729204,0.016361667,-0.107933186,0.08273446,-0.09969071,0.015017085,-0.06269755,0.069356754,-0.0020027303,0.065222666,0.024755375,-0.09821113,-0.006136449,0.031991366,-0.12099408,0.024215905,-0.16346471,-0.018927813,-0.041696586,-0.002616782,-0.036586117,-0.08086883,0.059971236,-0.022484185,0.007338927,0.030995255,0.050399087,-0.09836851,-0.048006114,0.049250502,-0.08324476,-0.049308773,0.12541603,0.016831176,-0.02984741,0.04740294,-0.02332521,0.09230995,-0.041811172,-0.09776015,0.050612923,-0.06864549,0.004769532,0.07197228,0.02951923,0.027939623,0.1257312,-0.02210221,-0.11339205,0.01657819,0.008653874,0.115691245,0.050284512,0.031821925,0.027838746,0.09953388,-0.053295027,-0.066275805,-0.083510146,0.09473679,0.103558816,-0.06430249,0.13056712,-0.08699686,-0.026606988,-0.026093656,0.041615747,0.15940629,0.009871015,0.0053000604,-0.041435525,0.059819892,0.08587431,-0.061299656,-0.04714038,0.17919078,0.14008796,-0.045296833,-0.08178493,0.022416841,-0.0712659,0.0059973644,0.098118275,-0.043611582,0.03271902,-0.06989643,0.03857405,-0.11896603
0.045129307,0.021400115,0.072052956,0.08332634,-0.12076743,-0.05457278,0.0026874475,-0.08644683,-0.040491577,-0.086813144,0.090350784,-0.01813868,-0.043183748,0.06463738,0.02392061,-0.01400738,-0.020955386,0.09294435,-0.029750612,-0.007795929,-0.047016107,-0.053367008,0.04435189,-0.019742323,-0.008383188,0.0051406114,0.061004065,-0.0812936,-0.0048844325,-0.13147563,0.07146451,0.012403916,-0.018293941,-0.03456094,-0.09180058,-0.11841442,-0.049364273,-0.09476969,-0.009628135,-0.12934063,0.045729127,-0.10311884,0.059466466,0.0066856043,0.029456822,0.029389149,-0.0052433116,0.07927207,0.06445727,0.078839526,-0.13956988,-0.07876746,-0.04031327,-0.041696202,-0.048101094,0.042515587,0.11240924,0.11139736,-0.004733663,0.079260685,0.044085085,-0.0972975,0.11319348,-0.088176556,-0.009514108,-0.03462967,0.04627188,0.022302274,-0.0038561807,0.07704345,0.04501448,0.11972731,-0.06830517,0.0011817131,0.1267278,-0.069800265,-0.08931848,-0.005907356,-0.040158875,-0.052923907,0.03578657,-0.1230252,-0.013699488,-0.015475198,-0.048274238,-0.08950332,-0.010281497,-0.02508626,-0.076828755,-0.068726815,0.034742706,-0.09795089,-0.056378063,-0.11412688,0.08079972,0.00570262,0.023561668,-0.11984742,-0.014739718,0.04242884
-0.10509247,0.023534454,-0.028361386,-0.057342175,0.058735345,0.071186304,0.10362728,0.046406258,-0.010622499,-0.04131666,0.07832451,0.08465764,-0.046493363,0.02303335,-0.030099543,0.039353922,0.055056233,0.12576349,0.012767829,-0.005117274,-0.048172895,-0.013809505,-0.112128526,0.08026326,-0.009642428,0.012817488,0.06722108,0.06458272,0.037646797,-0.0069503733,-0.06458243,-0.08229076,-0.08012631,0.013078744,-0.026511611,0.013146995,-0.100182146,-0.04473953,0.037955947,-0.0015139529,-0.043001693,-0.015336991,-0.06324756,0.04757136,-0.071389444,0.027734797,0.055231757,-0.018536441,0.07039076,0.06073505,0.017965918,-0.0040195263,-0.0075181513,0.14616357,-0.04968025,0.052814003,0.0342176,-0.057549104,0.12667517,0.076133884,-0.041009963,0.0353313,-0.04172397,0.029237881,0.017026443,-0.051878523,-0.0031071298,-0.042624567,-0.007658375,-0.1241503,-0.11270255,-0.03434166,0.0074157156,0.06315399,-0.019226145,0.038746566,-0.030283248,-0.028202772,-0.11389104,-0.12677673,-0.06225634,-0.036329556,0.1471014,-0.08640741,0.003022132,0.098205365,0.012948603,-0.02165842,-0.08686973,0.0057709566,0.01197159,0.019822352,-0.02560015,-0.00094211026,0.091913015,0.067772314,0.06336635,-0.04714377,0.074713126,0.051273745
-0.009348291,-0.011559514,-0.10675544,0.023137609,-0.023987975,0.03399258,0.036692694,0.057232518,-0.024313591,0.06051952,-0.09398277,-0.08410052,0.092379116,0.05963107,-0.10216102,-0.019926175,0.00039892236,-0.13076068,0.0913571,0.01654732,-0.019407732,0.081884295,-0.01934193,0.091684505,0.061825316,0.024265539,-0.15405136,-0.01155143,-0.019074664,-0.013849865,-0.16014135,-0.07128441,0.06536565,-0.14022104,0.08754537,0.016564302,-0.07963011,0.038722426,0.0874556,-0.009100924,-0.030090628,-0.049159523,-0.10399952,0.097937495,-0.09967939,-0.03920016,0.016201556,0.015884753,-0.0124928355,0.015469321,0.056672547,-0.10856472,-0.07909865,-0.014797364,0.06840773,-0.11944317,-0.013639335,0.007832655,-0.003633452,0.029104855,0.015479361,-0.112401955,0.09760952,0.022918789,-0.2255331,-0.028045893,-0.009367105,-0.15293059,0.011828343,-0.019594572,0.02774988,-0.012198705,0.06962338,-0.118892916,0.0977723,0.07600277,0.10184123,0.028848499,-0.04503257,0.073680386,-0.093508676,-0.009036088,0.10085865,-0.061281737,-0.031777497,0.075652346,-0.18675318,0.02786008,0.07349527,-0.12021351,-0.014226076,0.015521535,-0.010921639,-0.0065525817,0.092811115,0.0016636148,-0.059378326,0.08046805,-0.0020124814,-0.08608637
-0.01676427,-0.073297106,0.020399436,-0.11377448,0.061123554,0.099040605,0.04675899,0.08958752,0.018328544,0.07305244,-0.111189,-0.05527936,-0.024643928,-0.08931151,0.08176695,0.007369367,-0.0106978435,-0.04305031,-0.053518035,-0.005379138,0.05932559,-0.043167103,-0.033188872,0.027885912,-0.036391903,-0.088907436,-0.035798956,-0.00873158,-0.03885726,0.055265266,-0.0018430381,0.01950493,0.04405877,0.02236172,0.0007298443,-0.13703653,-0.019329777,0.0485752,-0.06707002,0.07966195,-0.015007026,-0.036174368,-0.046998773,0.0011027921,-0.01894206,-0.03027573,0.04945874,-0.024844639,-0.10060212,-0.14484614,0.06381028,-0.09867743,-0.078730986,0.054351754,-0.049689513,0.0035319936,0.019692287,-0.015185396,0.053086758,0.017436452,0.015747136,0.028723165,-0.10452538,-0.01194888,-0.010709759,0.023014555,-0.0463676,0.038059514,0.0025737414,-0.03593752,-0.08620731,-0.027111774,0.021948598,-0.08795123,0.0101404665,-0.014768525,0.07228082,0.032941956,-0.005066277,-0.02696036,-0.024999313,0.034396414,-4.674506e-05,-0.043094266,0.046525232,0.05793226,0.06802147,-0.05314816,-0.074646406,-0.08503646,0.067774236,0.097909994,0.011920152,-0.09464549,-0.01614279,0.027490057,-0.030261112,-0.101406425,0.062083896,0.08190259
0.12079989,-0.07423843,-0.07255432,0.055972964,-0.09770229,0.1418406,-0.0031864203,0.04895777,-0.031000372,-0.11034146,-0.05912972,-0.026945623,0.12022059,-8.4276704e-05,-0.054409098,0.012100854,-0.012841512,0.0047251745,0.047745645,0.006835507,-0.054627683,-0.02941448,-0.025153784,-0.010959065,-0.012143001,0.045630917,0.06962452,-0.07501244,0.09980797,-0.16100296,-0.027298652,-0.05714214,-0.0838149,-0.052841384,0.046503015,-0.0038675533,0.046862017,-0.07501755,-0.11833633,-0.0073975194,-0.049202245,0.0027545544,0.037862975,0.022638561,-0.0037068184,0.01716174,0.007152271,0.029800775,-0.033593632,0.0028727388,-0.07269452,0.091229625,-0.048913717,-0.12446041,-0.03305457,0.012901358,0.013792884,0.07831509,-0.008663346,-0.03565591,0.059835587,-0.03773118,0.013026243,0.13924354,-0.13652167,-0.053351622,0.09167075,0.014420608,0.12378403,0.035626568,-0.00081893906,0.072049424,0.057595383,-0.045210224,0.083999544,-0.022317009,0.1371381,0.0121052405,0.0005120097,-0.00083484664,-0.0505652,0.0041798493,0.045795653,0.037228882,0.032373287,0.02394349,0.01403169,0.064846605,-0.13898978,0.058046903,0.02216771,0.14036931,-0.056765772,0.039525747,0.114343815,0.05201564,-0.009941844,-0.05631982,-0.06446492,-0.07366237
-0.029150223,0.007838801,-0.1153921,0.06257229,-0.03870626,-0.0035018898,0.012373175,-0.04723727,-0.06876208,-0.04161932,-0.06834107,-0.05911304,-0.05723215,-0.03861088,0.06412074,0.11329419,0.036467306,0.034686316,-0.009732328,0.009891168,-0.08143678,-0.004683007,-0.0046571647,0.024017492,-0.00965018,0.14100641,0.065094404,0.03117146,0.10077885,-0.014556345,0.06601077,-0.034102656,-0.055235025,-0.042047165,0.055662148,-0.015677566,-0.12571865,0.03827715,-0.18613431,0.042278063,0.016709184,-0.10077357,-0.02349711,-0.017832119,0.030200215,-0.009508616,-0.021583993,0.11889245,0.07172551,-0.048452053,-0.011534933,0.1197329,0.0124224,0.027040709,-0.16982135,-0.051294286,-0.006861218,0.08840919,0.06814363,0.016050847,-0.039295685,-0.0049817343,-0.0077570076,0.058896147,0.07784947,0.01567541,0.09534632,0.009575029,-0.030854216,0.006237156,0.035661157,-0.025451541,0.036246862,0.02163623,-0.14770852,-0.009710429,0.008976648,0.04861811,0.052908845,-0.018668335,0.028393764,-0.122525826,-0.11626992,0.035659492,-0.024468219,-0.015205911,-0.03601599,-0.0445143,0.09117163,0.12761848,-0.062261578,0.060154997,0.015174522,-0.04925716,-0.118309185,-0.010943724,-0.024449214,0.13085906,-0.03593834,0.030579263
-0.060874503,0.09673021,0.026594725,0.013615488,0.06008762,-0.049762644,-0.05522908,0.0061773816,0.015322502,0.13748802,0.044787865,0.08407133,0.030091187,0.056578577,-0.16591434,-0.120377645,0.06068927,-0.05953088,-0.0034227597,-0.076722905,-0.0077869054,-0.09700577,-0.055664226,-0.06972213,0.059234567,-0.1298769,-0.0022218672,0.014261744,-0.12996393,-0.0057431175,-0.060280412,-0.05776198,-0.061658043,0.060733076,-0.0819248,0.06812102,-0.10976237,0.04571929,0.031991206,0.0029459416,0.03647904,0.069401935,-0.082709484,0.08542887,-0.12669921,0.0067897364,-0.015022598,-0.11451276,0.00057289633,0.05709484,0.06529885,-0.011430784,-0.009031767,0.013356631,-0.029557252,0.027370568,-0.027835544,-0.01817792,0.03296637,0.03954763,0.052317537,0.02789827,-0.06170719,0.038772542,-0.041887768,-0.027810493,-0.09386609,0.07444435,0.031674415,0.07658645,0.058570366,-0.041517872,0.022267137,0.01269389,0.1130751,0.06513032,-0.056809828,0.10494278,0.035099216,0.031526346,0.051428854,0.07740615,-0.112730585,0.0042623095,0.022351943,0.06266265,0.07534671,0.044044722,0.011644919,0.010840736,-0.10104632,0.11211544,0.004269364,-0.072433874,0.00848361,2.453936e-05,-0.05432669,-0.01523495,0.017977767,0.023464328
0.06004007,-0.07021067,-0.117382884,-0.015568188,-0.052532658,0.0012236881,0.09561336,0.05445302,0.036294762,-0.12714592,0.065673776,-0.035450667,0.012856435,-0.08231738,-0.07212429,0.15430304,-0.048232663,-0.019800121,-0.0642197,-0.055020966,0.085185915,-0.0754711,0.016843813,0.037983295,0.13481309,0.10519549,-0.11911624,-0.000995468,0.07936679,-0.14041454,-0.040125612,0.012005922,0.037982572,-0.010860376,-0.060122725,-0.06826494,-0.11504198,0.08599788,-0.023763768,0.093247384,0.00027942474,-0.02721027,-0.053362206,-0.03520291,-0.021768661,0.049894914,-0.06695473,0.08224589,0.020788362,0.093315676,0.015410781,0.03291516,0.054138463,0.026072653,-0.037994385,0.020425854,0.013537166,-0.11156185,-0.05076573,0.08283985,-0.0038139976,-0.04545734,-0.06937136,0.03767812,0.110112615,0.085285775,0.009704039,0.07265391,-0.049096994,-0.0147955,-0.07281694,0.09746799,0.019030254,-0.04617608,-0.024221089,0.089683704,-0.0021278108,0.042440444,-0.030858988,0.04997715,0.04377817,0.068861,0.09332438,0.069086365,0.09916306,0.019159207,0.009419173,-0.111411795,0.027128339,-0.17053264,0.099651106,-0.08892173,0.06748966,-0.04779859,-0.039923485,-0.029375138,0.057558455,0.01119355,-0.041197833,-0.020751562
0.0212462,0.023209218,0.015297861,-0.02509832,-0.10963956,-0.017006047,0.014723746,-0.070986606,0.0544751,-0.03453141,-0.06875139,-0.019913232,0.05128797,-0.012658233,0.06737219,0.025485322,-0.08795281,0.011754006,-0.003094604,-0.008912694,0.018531125,0.027665257,0.08026024,-0.10009993,-0.020222731,0.002886555,-0.10547805,0.10711942,-0.024952803,0.0047070687,0.07970611,-0.0705837,0.047894564,-0.06358287,0.0666284,0.07359669,0.0856867,0.0934393,-0.008413704,0.027701039,0.051398113,-0.07037155,0.09247884,-0.068090044,-0.056087874,0.12396842,-0.07243985,0.0598128,0.029042868,0.0038207925,-0.13054262,0.05733891,-0.052934688,0.073306106,0.1006729,0.09241427,0.007802302,0.064962804,-0.041162755,-0.05571181,0.075111315,0.06421841,0.0048946864,-0.045216203,-0.027110834,0.008525531,0.14080824,-0.16546865,-0.08089796,0.010214688,0.08766916,-0.07293971,0.09057776,0.04149428,0.00016170347,0.16421986,-0.07903726,0.0828096,-0.09848825,0.02578729,0.047296394,-0.029632503,-0.065666765,-0.038071483,0.06908659,-0.052962273,0.009468269,-0.062139653,-0.02418372,-0.03692297,-0.08586689,0.040132374,0.029802041,0.031669002,-0.077195056,0.035885222,0.03525115,-0.06303363,-0.049390323,0.13530916
-0.0072075706,0.06248666,0.082900494,-0.08136019,0.08856324,0.050480925,0.08919952,0.0346676,-0.056827165,0.052162446,-0.021317886,0.101885356,0.04193496,-0.13019107,-0.08719988,0.08241207,0.045418236,-0.048889637,0.09582946,0.027527176,-0.0006543691,-0.0077012153,-0.04746627,0.03321666,-0.02292919,-0.03298343,0.0457932,0.17921828,-0.05762444,0.0064266697,-0.009701168,0.06398872,-0.051466852,-0.060044885,0.018777696,0.09265925,0.082978934,-0.08430155,-0.07553261,-0.103024796,0.041827865,0.07135756,-0.11380067,0.01550098,0.011683708,0.0014289193,0.117862195,0.03002861,-0.036031645,0.022055246,-0.07761454,0.03058738,0.054012552,-0.04899993,0.06836327,-0.041900944,0.1096137,0.00397823,0.012170308,-0.013025355,0.0791188,0.028403737,0.024731535,0.087446004,-0.05388772,0.14929874,-0.059473366,-0.0023049621,0.054914594,-0.006679112,0.13179871,0.05880146,0.026649637,-0.0058139293,0.12610838,-0.08435232,0.011993215,0.0844026,0.033143073,-0.025131261,0.025578849,0.056311864,-0.005925314,0.02094072,-0.028265767,-0.03930778,0.013184119,0.00855561,-0.11624725,0.043599233,-0.056238543,0.06761395,-0.04691866,0.026450062,0.052303992,-0.026293524,-0.06851489,-0.01896986,0.07419628,-0.03991047
-0.033351514,-0.110776596,-0.004173519,-0.004388701,-0.057140242,0.09844931,0.081038706,0.2739348,0.007279927,0.027789544,-0.14042175,0.102887295,0.14880936,0.014397377,-0.103249,0.14257021,0.16890818,-0.11990398,0.016591657,0.117529124,-0.11443643,0.15070169,-0.04757407,-0.014159591,0.054054745,-0.004751101,-0.099231005,0.013835553,0.019512167,-0.02229108,-0.115519226,0.009603102,-0.0026179696,0.12599981,-0.1271415,0.10906622,-0.0640504,-0.14355187,0.14434877,0.05317157,0.1434059,0.19039884,-0.10029775,0.072862916,0.0039731474,0.033459436,0.21209778,-0.1136355,-0.07936168,-0.059962194,-0.10987378,0.069293365,0.036771983,-0.06339491,-0.06821664,-0.1666056,0.12072874,0.18738124,0.019881068,0.044812318,0.07278624,0.18643287,-0.013805134,-0.0067989537,-0.13259864,0.13731894,-0.08146837,0.048780233,0.09430818,0.058465164,0.11864764,0.07601194,0.08441569,-0.022263104,-0.050834205,0.06832043,-0.18318748,-0.049025975,-0.014738488,0.086445615,0.0292822,-0.07010411,-0.13233046,-0.090906136,0.07262329,0.056617454,0.07995268,-0.12665106,-0.08320034,0.026946807,-0.07866696,0.07628107,-0.024933197,-0.083169006,-0.095219895,-0.021088514,0.097457804,0.026395421,0.056805886,0.039765716
0.050859764,-0.008767739,0.16225238,0.07894752,-0.003474809,-0.01606533,0.009262532,0.011343506,-0.054608338,-0.11095285,-0.00030912168,0.056942593,-0.015017164,0.050857317,0.0719012,0.0010746708,-0.031231763,0.08319232,-0.017592106,0.0759592,-0.0462842,-0.099449985,-0.06285918,0.020516658,0.055235505,-0.122311786,0.062555805,-0.036338814,0.031147948,-0.004241632,-0.08571905,0.0060112556,-0.07428992,-0.03845373,0.008074085,-0.07718414,-0.01779354,-0.025106417,0.047661714,0.070333,0.016209442,-0.14500658,0.0032081166,-0.0267886,-0.06240988,-0.08915699,-0.078393176,0.020010596,0.017529434,-0.089464694,0.047532085,-0.0007090894,0.08168381,0.047881465,0.09020189,0.012077387,0.10955592,-0.027843324,0.088590354,-0.021794826,-0.005033471,-0.0823342,-0.031658355,-0.044229437,-0.10276277,0.07716083,0.001598128,0.096854866,-0.06946578,-0.06014119,0.06576582,0.053304486,0.09765948,0.10934504,-0.041944887,-0.14542876,-0.013545112,-0.06494328,-0.058568317,0.10911222,-0.08026328,0.010389347,0.03146962,0.04832322,-0.010029806,0.057973593,-0.07988062,0.052001864,-0.025994433,-0.04650434,0.019309463,0.016326237,-0.071136914,0.047073245,0.1356913,0.028689455,-0.01628741,-0.082451746,0.06802405,-0.09427235
0.0025914814,-0.04459579,0.16748534,-0.07651189,0.024629464,-0.0634854,0.0011492735,-0.040829428,-0.010345631,-0.07026296,0.09632224,-0.022844385,-0.058442574,0.06987553,-0.017787838,0.05720129,0.015341831,-0.08180554,-0.08014042,0.04214072,-0.01977335,0.049539153,0.021213211,-0.028184535,-0.11964401,0.08165519,0.015112755,-0.11654914,0.06824971,0.06368301,0.15077086,-0.007033294,-0.13035516,-0.013049995,-0.020462811,-0.007392142,-0.106620885,-0.08068478,0.13213338,-0.005654594,0.063501745,-0.18423323,0.07041189,-0.03090019,0.047594167,0.02069782,-0.06328889,-0.06931776,-0.16547085,0.07122243,-0.11302022,0.029936591,0.06720752,0.0051621436,-0.015304361,-0.022042468,0.0040385537,0.090250954,0.05232492,0.0047978284,0.039027356,-0.016244527,-0.1603674,0.09792474,0.009360739,-0.065015376,-0.009342556,-0.061776914,-0.1621941,-0.06360809,-0.06323568,0.047763128,0.018675547,-0.10594604,-0.028170457,0.08415971,0.020983372,-0.034449425,0.03267955,0.10866618,0.033177827,-0.03780814,-0.038073663,-0.07704582,-0.0335502,-0.056253754,0.080128774,-0.052339945,-0.14108744,0.052552547,0.022360597,-0.0012905305,-0.029523652,-0.06682552,-0.107948236,-0.07825822,0.019569859,-0.09150415,-0.16221786,-0.046580434
-0.056027688,0.027189858,-0.047299977,0.13895896,0.12368603,-0.1460966,-0.0065735923,-0.008771058,-0.0035551963,0.072066724,-0.11162872,-0.12940201,0.0074986215,-0.058551665,0.097446404,0.015443741,-0.026795203,-0.1342796,-0.044332135,-0.03668469,-0.15893179,0.078083284,-0.0072492957,-0.03391171,-0.03771691,-0.09604242,0.03231738,0.08053657,-0.025819307,-0.037895463,-0.06069807,-0.14007258,-0.053635295,0.034216087,-0.1041844,0.12524855,-0.08901597,-0.07933529,0.0193682,0.05087895,0.036058817,-0.044638027,-0.027734289,-0.13073716,0.17810693,0.077456445,0.0753775,-0.07748159,0.02721787,-0.017146342,-0.07900844,-0.055313557,-0.07089949,0.008919538,-0.081281096,-0.06585111,-0.029639851,0.097102925,-0.033021547,-0.008865833,0.05033298,-0.0022083814,0.028691513,0.003325794,-0.029398404,-0.034591798,-0.08219186,-0.02939503,-0.045371898,-0.06508444,0.09667152,-0.0016505759,-0.13145567,0.04802578,-0.24722499,0.025047531,-0.05699001,-0.013925104,-0.01590379,0.04192452,-0.15332952,0.02094231,0.0945637,0.065651506,0.00433657,0.0014169122,-0.025742378,0.002309592,0.049900156,0.05639648,0.024056146,-0.21507977,-0.09079972,0.04369386,-0.07712033,-0.055087723,-0.19965309,-0.029603478,-0.07338538,-0.075742796
-0.05911413,0.029288692,0.076666184,0.032442875,-0.047392115,0.01568318,-0.02253605,0.099722214,-0.07680044,0.011154105,0.037970748,0.003554615,0.04041417,0.0124141425,-0.0995599,-0.118380986,0.0013037757,-0.003801636,0.00029711187,0.034763023,0.008314599,-0.018165076,-0.08503303,-0.009986959,0.043349687,-0.0015234324,-0.09181954,0.0351819,0.009214182,0.04571705,-0.052640583,-0.14446409,0.05477551,-0.021043025,-0.014217245,0.010629662,-0.122864306,0.009866613,0.016473928,-0.13778682,-0.050729956,-0.1270824,-0.025854193,-0.04328302,0.04330207,0.029273208,-0.037917003,-0.0053980746,-0.10738621,0.027404115,0.00072474964,0.030409727,-0.09604792,-0.03353682,-0.004615703,0.06619914,0.06083323,-0.0144929495,0.013896128,-0.021665737,-0.009721703,0.13278556,-0.0011581321,-0.07148947,0.020604316,0.013637524,-0.027108518,0.025970627,-0.051061872,0.05393274,-0.11219776,-0.13021404,-0.13557559,0.01628185,0.058264542,0.107032895,0.10451924,-0.0904782,0.053697497,0.0868245,0.0536154,-0.002409385,0.15833907,-0.042982355,0.049521893,0.014174356,0.042385537,0.054118942,-0.015804714,0.14068161,-0.025405206,-0.07060983,-0.14915438,-0.08807758,-0.005395278,0.018813843,0.021836193,0.106660195,0.118341535,-0.037867285
-0.060978483,-0.090403974,0.0010843419,0.04054327,0.0398161,-0.13527508,0.06561917,0.11978402,0.017919583,-0.17734984,0.018777644,-0.16208325,-0.046469938,0.06585332,0.010464166,0.054693583,0.047697425,-0.055823904,-0.018846203,-0.013229711,-0.013081379,-0.002210537,-0.01609166,-0.03431457,-0.055799194,-0.19445916,-0.07554502,-0.06411393,0.04814151,-0.042603195,0.049843468,-0.09055192,-0.048270054,-0.09593928,-0.15472175,0.14392594,-0.1242529,-0.1483682,0.047608517,-0.12740053,0.13983801,-0.15890342,-0.089265175,-0.053534146,0.15601142,0.14653577,-0.062225085,0.012067833,-0.049660053,-0.054200847,-0.0062428396,0.07427312,-0.09778737,0.07589444,-0.16882312,-0.08216755,0.07089959,0.11745948,-0.09552841,0.06815422,-0.08174188,-0.030569742,-0.07796811,-0.16059548,-0.009191703,-0.027621392,-0.034957178,-0.058751196,-0.020231275,-0.08100159,-0.018659765,-0.032967377,-0.116167955,0.014044213,-0.10261579,0.036915675,0.08808869,-0.20549546,-0.013183913,-0.007753996,-0.007246549,0.025820484,0.049577422,-0.11331024,-0.043407224,0.09932451,-0.1034187,0.13203731,0.026167626,-0.0932137,0.17445476,-0.016890895,-0.24597004,-0.012753878,-0.08155128,0.06600602,-0.037604947,0.05350363,-0.034278832,-0.26591256
-0.03873343,-0.0748665,0.15006438,-0.09009124,-0.1281614,0.09655252,0.009078427,-0.103351474,0.02900889,-0.051286165,-0.13242185,-0.03286498,-0.043609336,-0.029965142,0.06855924,0.028310673,-0.012642348,-0.05395605,0.14078553,-0.007012609,-0.035677765,0.055239927,-0.015387904,0.053722676,-0.052008204,0.069633916,0.016134312,0.03657913,-0.08426378,0.11800198,0.038960118,-0.14658089,-0.08436825,-0.060595434,-0.009180928,0.10001546,-0.08792288,0.0028053317,-0.082944304,-0.004928291,-0.023166666,0.0687131,-0.047821086,-0.033610985,-0.01679536,-0.020084068,-0.0024567186,0.051719446,0.082652524,-0.04897927,-0.03143021,-0.0072471327,-0.1034967,0.0030470057,-0.080052726,-0.067474015,-0.04303706,0.0437218,-0.033748448,0.14997812,-0.04778678,0.0427029,-0.0013920697,-0.11329667,0.01384003,-0.062804416,-0.10390088,-0.06331407,0.08018394,-0.06517515,0.0036859694,0.06580592,-0.08479033,0.15406828,-0.110019796,0.02348279,-0.04337368,0.048421104,0.13688487,0.10158752,0.06743497,0.01395646,-0.017773628,0.0149896545,0.06648478,0.06600593,0.005615736,0.10242802,-0.05448318,0.04622385,0.009436155,-0.012091238,-0.030788321,0.024975028,0.043826718,-0.04437898,0.046933524,0.030809563,-0.029683469,0.016907927
-0.08875832,0.09820862,0.007571354,0.08651855,-0.119552046,0.015255099,0.024539443,-0.06433122,-0.05023108,0.013321945,-0.005618303,0.06143316,-0.025239615,-0.07497767,0.04310242,0.022081401,-0.07704043,-0.03084274,-0.009063622,-0.043607365,0.028175935,-0.04227042,0.058601186,-0.075258195,-0.101918474,-0.036515735,-0.009916516,-0.04365732,0.1741025,0.04495972,0.09423222,0.047277354,0.018660543,-0.072268136,-6.0903054e-05,0.06923951,-0.041065346,-0.004992115,-0.030994618,0.043387122,0.012873335,-0.07710268,-0.023115816,-0.05790816,0.017434534,-0.02535313,0.025642844,0.04457683,0.097884595,0.029379351,0.043928932,-0.084738344,-0.12442391,0.043816704,0.07089661,-0.07197786,0.042862453,0.0032145388,-0.027659934,-0.054682042,0.01983422,0.107779406,0.03497199,-0.03292741,0.030406853,-6.981111e-05,-0.033200994,-0.037768148,-0.020527098,0.03954446,-0.012373227,0.045202624,-0.09245959,0.024850598,0.06425866,0.13939121,-0.062071826,-0.024329018,0.0020804612,0.08764883,0.021301402,0.032619685,-0.15902025,0.1313141,-0.041709017,-0.063578054,0.0425536,0.030476432,-0.14697106,0.06883294,0.060787227,0.08436469,-0.009573947,0.15489906,0.059630897,0.02163199,-0.07979075,-0.014259307,0.003852959,0.0890381
-0.036092956,-0.02991657,-0.05959319,-0.14812632,-0.026313966,0.112888955,0.11828571,-0.007394891,0.057788275,-0.10869026,-0.06786734,-0.047085453,0.026546195,-0.10037911,0.039770495,-0.1301263,0.07765095,0.0831362,0.04470251,-0.07712334,0.010391952,-0.019173652,0.070298105,0.11998773,-0.02942329,-0.0060248915,-0.010752951,-0.16100425,-0.017340204,0.038447376,-0.00925987,-0.02709506,0.08513351,0.00834155,0.05314008,0.11985312,-0.067545,-0.14111002,-0.11133497,-0.00758241,-0.056280166,-0.07068026,-0.082437515,-0.01905089,0.08671881,0.03553266,-0.07205081,-0.0929016,-0.07060916,0.025697611,0.1465047,-0.123328365,0.015110046,-0.045347005,-0.073722586,0.019489484,0.0149680395,-0.002664181,-0.09647198,0.0065442305,-0.062352024,-0.041187055,0.063578606,0.01831122,0.08772328,-0.0462089,0.007556211,-0.005014921,-0.03700647,-9.103242e-05,-0.14862159,-0.026170397,-0.03686487,-0.023765182,-0.13087825,0.008633435,0.030697528,-0.08855781,-0.10763292,0.014419699,0.05430973,0.060526818,-0.055116415,0.044855084,0.002608465,-0.06346937,0.05481524,0.009737192,-0.028062612,0.12575041,0.026626978,0.04497178,0.05834248,-0.008773124,0.004320185,0.08812748,-0.043037873,0.03180039,0.024501873,-0.023057053
-0.124836616,0.11473567,-0.11378772,-0.010602756,-0.03577741,0.033264097,-0.002723106,0.021719549,0.029818041,-0.092755504,0.072389975,0.08487786,0.098142505,-0.12851101,0.06793579,0.052731313,0.048413284,-0.1076043,0.061881542,0.08206402,0.030094929,-0.047468454,-0.022701656,-0.018574283,0.050625686,-0.051409103,-0.029215649,-0.013660475,0.042420875,0.1427845,-0.057428464,0.010646072,-0.033148393,-0.0007159247,-0.021339165,0.07889862,0.02320261,0.0087329205,0.024455078,-0.1416071,-0.056834478,0.03210922,0.06419813,-0.07501107,0.026381211,-0.010485357,0.00076490914,0.033639174,0.0038782486,-0.01133977,-0.075730026,-0.043700702,-0.12207343,-0.03546384,0.10152847,-0.042966012,-0.040329292,0.09217555,-0.02637604,0.028345808,0.0359797,0.15788576,-0.06848349,0.0359022,-0.06336505,-0.003672594,-0.028876424,0.010919074,-0.024696328,-0.09218398,0.047746256,-2.7951115e-05,0.05626735,-0.0061542434,0.035204325,0.1000424,-0.031343978,-0.012354339,0.029386185,-0.07051711,-0.0074841874,0.030946085,0.07918157,-0.03825121,-0.05232731,-0.07092796,0.054821238,0.15394178,0.09782361,0.03618132,0.00021526584,-0.07095782,-0.011048697,-0.010414185,-0.095371835,-0.015338326,-0.021494588,-0.0028349066,0.057066016,-0.1466773
0.0009266815,0.01704098,0.06050791,0.02848727,0.093466096,0.15226124,0.00013572909,-0.010346052,-0.088035986,0.11335685,0.039013505,0.0037243816,-0.013512564,0.09998365,0.0032201563,0.100026414,0.07150454,0.07284818,-0.01481896,-0.122999944,0.08409521,-0.03749606,0.010457546,0.027946297,0.009187636,-0.0010575153,0.06531525,0.08213071,-0.11499098,-0.030245822,-0.062939316,0.0036628265,0.11830272,-0.018375482,-0.056651715,0.036732025,-0.0056915106,-0.018577058,-0.007164898,-0.047467094,0.06245311,0.0045561134,0.055781342,-0.0054397313,-0.09603059,-0.021645453,0.059428133,0.040387798,-0.027056744,0.012515295,0.028489713,-0.0025928488,-0.0044471496,0.0132605,-0.07346165,0.06040922,0.009135696,0.05148402,-0.0041611344,-0.04564965,0.050895777,0.08052384,0.04969763,-0.053402834,0.055935334,0.0153723,0.020385016,-0.08415633,-0.06452181,-0.07456402,-0.09832068,-0.009738878,0.0108440695,0.005027943,-0.052406006,0.05817471,-0.072951294,0.04965584,0.05567253,-0.034278616,0.014292911,0.029219687,-0.050761472,-0.048579287,-0.12058235,-0.13081715,0.018345958,-0.19490999,-0.045562353,0.09666593,0.034165453,0.0113882655,0.1420678,-0.033266123,-0.036644995,0.011545786,0.08567659,0.113620035,-0.09158134,0.006798489
-0.054984327,-0.033046197,-0.1947794,0.06234672,0.049040105,-0.009322608,-0.022599291,-0.008682128,-0.05217498,0.06500805,-0.062401965,-0.04532893,-0.06461034,0.020876067,0.11350329,-0.06932687,0.0070133023,-0.029788107,0.033642944,-0.13408467,0.09034894,-0.092799865,0.052096166,0.05668537,-0.064013235,-0.0019483926,-0.032625575,-0.08180216,-0.046182387,-0.021056026,0.053333826,0.046752702,0.006118149,0.006340496,0.005586443,-0.0021992635,-0.040233947,0.023038026,-0.05695563,-0.02305235,0.048535496,0.106708005,0.05530016,-0.037767515,0.0085680485,-0.05292281,-0.09894595,-0.0338064,-0.025887454,-0.04162522,0.019477425,-0.12711391,-0.11161069,0.077083796,-0.008294516,0.04729552,0.026468022,-0.018575026,-0.1366379,0.044403605,-0.09878515,-0.038795806,-0.011901479,-0.04007921,0.068324655,0.015358044,0.031966846,0.0600171,0.072164506,-0.040882748,0.04814701,-0.102972694,-0.09245347,-0.0036221226,-0.026090695,0.06243107,-0.07485487,0.0022458495,-0.097298935,-0.018940242,0.059556153,-0.033118952,0.05819308,-0.007227501,0.030282665,-0.06452199,-0.018698279,0.12130106,-0.087066524,-0.011859145,-0.05772838,0.1662183,0.007995113,0.008306695,-0.0934294,-0.0332478,0.013083699,0.012522619,-0.07225843,-0.03433208
0.0891664,-0.02153215,-0.058301624,0.0743933,-0.015831396,0.073452584,-0.03689732,0.11349288,0.068202056,-0.036243193,-0.07927834,0.060751572,-0.005308632,0.026331652,-0.0047873976,-0.08503346,0.0006696796,0.023775386,-0.0774716,-0.034265053,-0.062531665,-0.06523622,-0.01197434,-0.07653142,-0.038675316,-0.0156734,-0.036173116,0.0061388593,0.12555751,-0.024972063,0.012245592,-0.005209174,0.073404446,-0.011570732,-0.048494257,-0.06259542,-0.11092779,-0.014709914,0.13580552,0.038709704,-0.06993168,-0.062427226,0.05962794,0.013943373,-0.04164798,0.036075443,0.09612399,-0.036482107,0.084227584,-0.008029925,-0.05889606,0.06851093,-0.06047372,0.118943036,0.04483133,0.10061413,-0.020660203,-0.02100519,-0.0042473013,-0.0019974243,0.03682582,0.09358051,0.048044994,-0.013159648,-0.013364793,-0.031694464,0.084021576,-0.06964788,0.007513925,-0.035398133,0.08447492,0.023947636,0.13867997,0.08638373,-0.014875059,-0.0059955823,0.01771642,0.00065021985,-0.0057708877,-0.002066238,-0.039305016,-0.072476916,-0.033290494,-0.049779754,0.04088506,-0.039517608,-0.061234068,0.020337148,0.0015161398,-0.0029538416,0.12728819,-0.045640655,0.019357808,0.033272445,0.0721798,-0.029287197,-0.0656366,-0.068118446,0.097373724,0.12640452
-0.003139949,-0.04990162,-0.0455752,-0.007344026,0.10575196,-0.012607271,-0.04262987,-0.04104738,-0.17195866,0.041889638,-0.009905584,0.027721912,0.0913645,0.07842731,-0.020739483,0.01596812,-0.04275986,0.06885464,0.007773897,0.087738805,-0.07971475,0.10720291,0.11492543,0.1574931,-0.070205204,-0.08967742,0.033505037,0.08360521,-0.19163738,0.08274565,0.01248333,0.14508688,0.006005215,0.07720736,-0.0033683388,-0.06768232,-0.0070644277,-0.084267564,0.03663349,0.094264254,-0.11367705,0.010646675,-0.10484805,-0.012195085,0.06115794,-0.053833403,-0.06629613,-0.016822683,-0.040318187,0.015590676,-0.09668839,-0.009892504,-0.038031083,0.015729906,-0.029348087,0.075142644,-0.005867146,0.008245964,0.079888195,-0.01552591,0.007650638,0.03203865,-0.06804767,0.10767672,-0.09332396,-0.0063692015,-0.010130867,0.0029112187,0.023085205,-0.10140632,0.060003687,0.005330255,0.041317794,0.010046781,0.04119292,0.049958676,0.073001124,-0.005102037,-0.0043250634,0.022975825,-0.011417312,-0.07542908,0.061639957,0.11321483,-0.03791191,-0.0022794898,-0.097405285,-0.068091996,-0.075695194,0.022495775,0.06459628,-0.0009125939,0.032820795,-0.0887353,-0.058036108,-0.015894467,-0.039031863,-0.024822379,-0.019682076,-0.013697138
0.0046600765,0.04005199,-0.098107375,0.023425804,-0.10865488,0.01505133,-0.05720136,0.07750369,0.04407891,-0.01634805,0.05947792,0.07386745,0.008777712,0.0013461547,0.0762614,-0.044290114,-0.0128797805,0.011346972,-0.079236105,0.14546745,0.022934383,0.12957554,0.06693919,-0.019733876,0.0024500538,0.011623824,-0.07991137,0.09920108,-0.12019278,-0.0401736,-0.100220285,0.033464484,-0.058402207,-0.041282177,0.08399557,-0.033289716,-0.062272977,-0.021551568,0.039263036,-0.12368437,-0.018614879,-0.043233965,-0.09160869,-0.035094306,-0.14077517,0.10208754,0.042948402,-0.029905336,-0.055748217,-0.07467233,0.010817467,0.0036114869,-0.010843098,-0.0023887623,-0.040762875,0.09873408,-0.099343,0.021694794,0.050502773,0.03329455,0.009067006,-0.084986776,0.090671256,0.074144214,-0.08756334,0.10964187,-0.016813975,-0.028659882,0.03710413,-0.011478069,-0.037861153,0.13451454,0.07447167,0.057223685,0.0009450138,0.047802437,0.06427169,-0.012041009,-0.07127955,-0.021609062,-0.016611798,-0.0554337,0.09217045,0.06693192,-0.049026426,-0.08730135,0.015289536,-0.0036347858,0.009696027,0.020113884,-0.095268115,0.018273743,-0.07587442,-0.0025839712,0.0047061574,-0.015770076,-0.035881806,-0.084429346,0.071120426,-0.055584952
0.013178871,0.09356321,0.11089803,0.014242453,-0.03762766,-0.055816196,0.07679722,-0.015117471,0.001123849,0.16900836,0.032235034,-0.007581646,-0.07196948,-0.06853279,0.07049439,-0.057920568,0.03684499,-0.050315525,0.019592604,-0.18085271,0.03976623,-0.0076280665,0.00035919802,0.023533178,0.13826123,-0.013159258,-0.012794114,-0.023778228,-0.0820717,-0.03937906,0.058769833,0.042153735,0.09485047,-0.18107694,-0.049078517,-0.021523206,0.06560892,0.023944769,-0.1139793,-0.06381196,-0.067821585,0.08909736,-0.014406018,0.052436378,-0.0547031,-0.11378514,-0.060712513,-0.06870007,0.10929624,-0.013936505,0.054682113,-0.076570965,-0.072073564,-0.046566762,0.07417872,-0.13797621,0.17150065,-0.01161782,-0.018577939,-0.07862663,-0.13101298,-0.11133154,-0.1065963,-0.08091044,0.002901205,-0.03515834,-0.012256547,0.15865695,0.015254986,-0.012140448,-0.012606836,-0.037880782,0.05173774,0.15176773,-0.01096628,-0.009634429,0.10561396,0.11165083,0.05071114,-0.117361106,0.046842366,-0.017111588,-0.14311753,0.03531035,-0.04227991,0.051281847,-0.07168284,0.056311786,0.114377014,-0.10048022,0.015540626,0.026557343,0.057793602,0.0051163845,0.065064624,-0.017335068,0.0076919803,0.077995405,0.032310776,-0.02186796
0.060045138,0.013043477,0.12812874,-0.027008504,-0.019310696,-0.1041151,-0.07738402,-0.032457903,-0.008229638,0.04203988,0.01316009,0.010974998,0.05690917,0.07111949,0.0059406664,-0.04845576,-0.10269686,0.14931098,-0.11797464,-0.009340363,0.08810305,-0.07179044,-0.05076956,0.03767652,0.02989565,-0.05567814,-0.020620203,0.035777975,0.0053505306,-0.019774817,-0.12416308,-0.054589022,0.09916293,-0.025803266,0.13674761,0.0026216297,-0.07255288,0.030450998,-0.082915604,0.062686495,-0.07938689,0.19796021,0.04592764,0.09194945,0.0092106145,-0.15248457,-0.08775804,0.008800021,-0.052062135,-0.06884728,0.15345912,0.10604264,0.10833118,-0.06883099,0.047247604,-0.10300469,-0.062295474,-0.12975657,-0.024278378,0.007602798,-0.0338518,-0.08931572,-0.053267527,0.031660084,-0.031193728,1.0519136e-05,-0.0061346726,0.034308642,0.029558519,0.104516305,-0.09018387,0.061028138,-0.0012454449,-0.0051758615,0.09454727,-0.044246662,-0.039090566,0.11098491,0.16253492,-0.06737197,-0.061392833,-0.025146324,-0.21853279,-0.078561366,0.0031038274,-0.05890163,-0.117968306,-0.0044041253,0.16314116,-0.050081544,0.052720565,0.07818926,-0.06719199,-0.08942269,-0.00519992,-0.040956486,0.047635205,0.112089075,0.06596119,-0.07305531
-0.18550588,0.20735353,0.18640722,0.024412561,-0.06251873,0.025117522,-0.15784064,-0.04144115,0.06960593,0.023011167,0.011348225,-0.107400626,0.018237358,-0.010597754,-0.13761397,-0.047300972,-0.014232929,-0.00063532195,-0.032978322,-0.1514283,0.011972252,-0.102787025,-0.04980387,-0.13168344,0.20686945,0.019910058,-0.06732962,-0.07266081,0.117210925,-0.11512104,-0.08722168,-0.13291274,0.07175946,-0.14186293,0.09423706,0.20636177,-0.04091714,0.19552052,-0.16413076,0.061955683,-0.06521208,0.21528575,0.02998525,0.00793985,-0.09720638,-0.10396807,-0.10750544,-0.0013985868,-0.038691014,-0.036539376,0.2353613,0.06997839,0.030893324,-0.04516411,0.14542848,0.008224084,0.106380306,-0.054926723,-0.0027588252,-0.075187005,0.01918221,-0.070502594,0.046065383,-0.012213152,0.086001575,0.032014918,-0.015225456,0.17517745,0.114207774,-0.22342883,-0.17334968,0.054115146,0.10948548,0.023506114,0.14859098,-0.0716261,0.071882166,0.16848287,0.017368663,-0.053952284,0.031790517,0.09114986,-0.22438996,0.0030899178,-0.22855927,-0.0874618,0.079249516,-0.12921181,0.08660817,-0.024805028,0.008997835,0.17230433,0.05621032,0.008222857,0.13960187,0.03063872,-0.120278165,0.08645862,0.08379586,-0.09592292
-0.07020016,-0.035020296,-0.21540408,-0.04557781,-0.09920055,-0.07386913,0.027262649,-0.045701277,-0.10881182,-0.035586786,0.07700112,0.033145547,0.046086438,0.015762608,-0.010926179,-0.038644984,-0.009869316,-0.058662057,-0.085882075,-0.12918243,-0.01716398,0.06986412,0.072620936,0.062040035,-0.01539345,-0.00016131141,0.09701257,-0.071017444,-0.15653364,-0.035181783,0.08904013,0.018533915,-0.02376199,0.055204194,0.07588245,-0.06480772,-0.04197844,-0.10010062,0.04661005,0.024022343,0.0740835,-0.09904137,0.048421115,-0.080191225,0.025852893,-0.020531917,0.0020100828,-0.0005370458,-0.00054194033,0.006870493,-0.03451538,-0.16522115,-0.0047576823,-0.0070653614,0.02250476,0.046623003,-0.01393104,-0.006638988,-0.06220178,0.038083296,0.068240196,0.019116584,0.00017273136,-0.06399683,-0.052871075,-0.032759067,-0.016012618,0.065104574,-0.08159781,-0.018649401,0.012546157,-0.049176842,-0.023876056,-0.005891102,0.0031032409,-0.08885257,-0.07441007,0.024559136,0.041201234,0.079746306,-0.06839801,0.023978304,-0.0585764,-0.14717758,-0.022524983,0.041301925,0.10427668,-0.04767325,0.05007449,0.024859624,0.0085466355,-0.02002227,0.1252947,0.057528287,-0.118391044,0.20481153,0.031502333,-0.026485763,0.013998598,0.0020454181
-0.06793092,-0.0016763732,-0.010485368,0.007396619,-0.05886203,-0.027449153,-0.06854194,0.08624468,-0.1605018,0.052945483,0.09370792,0.028445799,0.0009809732,0.00082674425,-0.020485032,0.0038195834,0.11674472,0.08782153,-0.020804798,0.023569552,0.044822343,0.02273801,-0.05817023,0.0042186785,-0.0023138428,0.047587797,0.01713653,-0.15120107,0.05566373,0.041367598,-0.043663133,-0.01853472,0.006712624,-0.019387454,-0.089009024,0.012324379,0.07944002,0.09847469,-0.06344483,-0.044162907,0.050247356,-0.10270972,0.10978082,-0.017214814,-0.07593868,0.05374351,0.09092321,0.12006821,0.03406153,-0.08377633,0.13483366,0.11865618,0.068619676,0.028516894,0.040149286,0.020093292,-0.040535547,-0.13859056,-0.034537025,0.019053148,-0.085243784,-0.037107006,-0.022488335,0.057071105,-0.028237667,-0.0029268716,-0.005194332,0.011981331,0.04188194,-0.037508387,-0.05940659,0.05874707,0.045674067,0.121290445,0.1266614,0.05181463,-0.0039148754,0.11226893,-0.09610017,-0.06365292,-0.023436345,0.016299302,-0.1173166,0.0628593,-0.043729853,-0.1042236,-0.025019662,-0.049924213,0.021076517,-0.058544643,0.06867986,0.022317562,0.12195798,-0.050013803,0.019750714,0.06694556,0.027863111,-0.07447235,0.07154707,-0.0038839343
-0.0012645434,0.07991991,-0.14179309,-0.046041433,0.014783115,-0.0016909647,0.016805397,-0.081642464,0.006406385,0.022296589,-0.0038158447,-0.0073483614,0.14414366,-0.1080568,-0.07517731,-0.032139778,0.024417466,0.12512624,-0.021187188,-0.17222697,0.09375249,0.07129904,-0.0046729203,-0.14669299,-0.007295539,-0.0483734,0.099799454,-0.014494974,0.024387063,-0.15842247,-0.013786258,0.04813535,0.03590455,0.026196674,-0.028815608,0.110998295,0.087359026,0.069298565,0.029611211,0.06261754,-0.008716406,-0.03023807,0.013143513,0.04540212,-0.079568855,-0.006120311,-0.12414884,0.10054783,-0.025750479,-0.0069207223,0.22179629,0.043274846,0.069031954,-0.022413554,0.06805009,-0.01819763,-0.006829616,-0.04718893,-0.12506662,-0.0623686,-0.10600596,0.08665658,-0.092936665,0.0466233,-0.026699733,-0.012353368,0.012761259,-0.10225602,-0.08204432,-0.023098474,-0.03704245,0.030411433,-0.05537218,0.06640657,0.04338977,-0.07702802,-0.014396114,-0.06141544,0.0018790129,-0.032792177,0.033746973,0.042622805,-0.04065223,-0.021813573,0.08887793,-0.09537713,-0.043537714,0.0030285318,-0.019161418,-0.036022164,0.021956094,0.13734622,0.07092178,-0.02192124,0.074219376,0.034376327,0.07535462,0.06683148,0.06325557,-0.044372197
0.03872445,0.050622776,-0.08941492,0.005193459,0.16282977,0.009987619,-0.1223854,-0.001367718,-0.11304106,0.056151044,-0.014657908,-0.07916328,-0.012033996,0.024855059,-0.089062616,-0.05414765,0.0937327,-0.025069093,-0.05428359,-0.011857979,-0.010625792,-0.026659863,-0.05552127,-0.011881378,0.121126816,-0.0052841986,-0.070677444,-0.09048977,-0.09627061,0.045202352,0.10947872,-0.03238807,0.033520572,-0.07023116,0.062137946,-0.017233817,0.048541084,0.037601706,-0.08533302,0.097630925,0.03500834,-0.094538696,-0.023608824,0.0790082,-0.09592289,0.07401471,-0.04654954,-0.06389198,0.032325134,-0.10868263,0.041840374,-0.054640252,0.01605737,0.004019006,0.110400565,0.07663698,-0.10444895,-0.015320676,-0.050115906,0.03417856,-0.017645445,-0.07045602,-0.05383114,0.02812185,-0.074904,-0.058134623,0.012381075,-0.05528476,-0.030716477,-0.0200544,-0.04091199,-0.07502518,0.0063777925,-0.023075651,0.06909112,-0.009656173,-0.05712446,-0.102236,0.10778592,-0.053728398,-0.026172701,0.10401775,-0.0035103438,-0.10500939,0.004559234,0.021499299,0.031342022,-0.016330652,0.088832736,-0.07321532,-0.06600519,0.07967648,-0.10715634,0.06953578,0.07516169,0.03287459,0.034210306,-0.0034940536,-0.09872675,0.059154894
-0.09845192,-0.1812486,0.058425613,0.003920101,0.053313415,0.108852096,0.13904767,-0.019068908,-0.14988464,-0.033516057,-0.079441406,0.07416198,0.06303409,0.0031549651,0.13156217,-0.093791366,0.010451637,-0.076989844,-0.056891367,0.013033435,-0.16328426,0.04744291,0.0040181763,0.08153454,-0.06860931,-0.06997528,-0.008774176,0.23441231,0.022683274,0.12414853,-0.091601074,-0.08750869,-0.00024815399,0.06769307,0.014194178,-0.023049217,-0.034037374,0.011736244,0.06747417,-0.01283946,0.022868436,0.11242323,-0.03780627,0.0140838735,0.06716946,0.13921039,0.03812445,-0.048709285,0.022102281,-0.0907844,-0.13178855,-0.026871014,0.03326003,-0.03801218,-0.02233814,-0.018584816,-0.012143362,0.1847539,0.009938443,-7.552904e-05,-0.049716443,0.05607613,0.020520527,0.03626379,-0.030767214,0.030432744,0.04184007,-0.0055329837,0.085224755,0.038758647,0.056872685,-0.030426003,-0.07739036,-0.15892585,-0.13613364,0.111374445,-0.064665176,-0.10076089,-0.023555428,0.047598936,0.03978925,0.004185098,0.03046467,-0.05337346,0.19262655,0.04109834,-0.0938776,0.04265515,-0.11572612,-0.014056357,-0.12792061,-0.09207186,0.032228656,-0.051090203,0.028379964,0.052671812,0.024249837,-0.0064596194,-0.013319924,-0.11925604
-0.0051898314,-0.1055834,0.0067118253,0.11532897,0.110273845,0.002353177,-0.034959227,0.10037624,-0.095872015,-0.04674618,-0.0092657795,0.02723359,0.07855499,0.0004501701,0.02574112,-0.10230044,-0.020751301,-0.03238572,0.017545586,0.07547176,-0.07070995,-0.031150104,0.0029767992,0.12687954,-0.10247329,-0.061225027,0.056094434,0.07292359,0.07407524,-0.020988367,-0.041541167,0.015537811,0.08615918,0.004531804,-0.038243197,0.13849413,-0.035155926,-0.0127308285,-0.06569046,0.050690453,-0.02662415,0.07158791,-0.08483579,-0.01397767,0.08978723,0.058332633,-0.04074022,-0.088468276,-0.14807968,0.09845176,-0.07214,-0.022684693,0.02197813,-0.07562864,0.032056786,-0.04643935,-0.18022712,0.12690201,0.05732065,-0.010350442,-0.07388678,0.1795527,-0.057318915,0.13064742,-0.077337354,-0.008385515,-0.11078329,-0.0054673557,-0.023306923,0.051960938,0.04596434,-0.0023799613,0.00031697674,-0.08981845,-0.114828184,-0.068462566,-0.030269787,-0.025854079,0.07868247,0.03940846,0.0046097217,0.10035338,0.05445737,0.00822265,0.1778131,0.08868546,-0.11284588,0.11530606,-0.11286299,-0.071808994,0.042224694,0.053076126,-0.019245561,0.011402998,-0.06349716,0.07434004,-0.08690188,0.06561906,0.024493845,-0.0075372485
-0.06137463,0.029590124,-0.02157881,0.014254677,-0.070917614,0.06350184,0.011658939,-0.04325579,0.04797486,-0.06721988,0.0010169339,-0.08219107,0.025826216,0.03366802,-0.028765347,-0.059487488,0.003782948,0.0477862,0.06449406,-0.00013879895,0.021658234,0.0079819225,0.016967569,-0.026691403,-0.07399102,0.0065083625,-0.008573682,-0.014833173,-0.020342335,-0.062767,-0.12196213,-0.025355363,0.06734158,-0.037493225,0.03448354,0.045685988,0.0003693959,-0.00373073,0.031477425,0.032137457,-0.005095222,-0.13053378,0.030974232,0.0005646376,-0.14261079,-0.005981097,0.078421324,0.038552195,0.09406791,-0.03906281,0.0018842034,-0.16291782,0.028663505,-0.13043894,0.02678208,0.023068616,-0.0447128,0.042123813,0.06183277,-0.08942035,-0.09363238,0.036177576,-0.07653185,0.038670763,0.034771487,-0.06794352,0.02066007,-0.010134174,-0.0042582755,-0.00067116803,-0.030101309,0.007823809,0.024084443,0.08641217,-0.0693076,0.098871276,0.06399063,0.04548259,-0.02299969,0.02073582,-0.025029434,-0.030957067,0.0817478,0.06286171,-0.051206652,0.118574984,-0.002035929,0.093484886,0.10045532,-0.025685241,-0.022057792,0.019119801,0.12080562,0.028388487,-0.013360634,0.006095793,0.028101882,-0.004012218,-0.0058471435,0.04935163
-0.005686423,0.064818405,0.03906159,-0.13117291,0.053149473,-0.026880154,-0.13268611,0.033731747,0.09730815,0.0076680165,-0.013314699,-0.0028434284,0.030517654,-0.062440485,-0.061185423,-0.10514593,-0.034445062,0.02955199,-0.10589689,-0.042634703,-0.11558473,-0.037986353,-0.014743257,-0.11943416,-0.059496436,0.034691278,-0.09164463,-0.06862825,0.00539553,-0.022543771,-0.006197243,0.070549846,-0.0073295496,0.082713276,0.01930277,-0.08466196,-0.007320054,-0.02642224,-0.056877885,-0.14713818,0.047331247,-0.039585896,0.049861457,0.043118138,-0.008975758,0.11927248,0.05439234,0.039781317,0.026934547,0.060982276,0.011274515,-0.10932912,0.071480826,0.024388032,-0.0062668403,0.045959745,0.01360444,0.14126068,-0.006712374,0.041107148,-0.09171595,-0.056901075,0.016196465,0.021858156,0.016773505,0.08720139,-0.07342082,-0.04789516,0.13587096,0.008571822,0.036040228,0.0051605757,0.092440985,-0.004819655,-0.030118791,0.038793463,-0.018176148,-0.061550252,-0.025418619,-0.010736078,0.006760677,0.004233796,0.03340984,0.0011514693,0.08646359,-0.053162914,-0.030609118,-0.063070655,-0.03298422,0.010777955,-0.045155127,-0.038154982,0.08720613,-0.026292227,-0.080825455,-0.050500534,0.06249556,0.07436798,-0.057779063,0.012458229
0.041597784,0.13882029,0.021907227,-0.03410535,0.018279193,0.107594594,0.054586045,0.045856863,0.055039097,-0.11732886,-0.12608746,-0.036882587,0.043382287,-0.055275016,0.098406956,-0.024106754,-0.06399134,0.0019806372,-0.02321138,-0.04019991,0.035295427,-0.07036376,0.13828447,-0.038085714,0.08118796,-0.06233746,-0.094317004,-0.0023404916,-0.10613657,-0.01186991,-0.025849799,0.051438525,0.0060934233,0.014392211,0.13119707,-0.018928664,-0.013224461,-0.022967674,0.09341403,-0.051788334,0.095648654,0.118579715,-0.06997995,-0.02965987,-0.040839795,-0.044603765,-0.027781704,-0.006107109,-0.09377078,0.009112487,-0.15922019,-0.016501447,0.017096559,0.074465044,-0.0666038,0.04878979,0.022184173,0.0045154104,-0.01987849,-0.025311705,-0.08942035,-0.01709188,-0.08075363,0.035858728,0.049539544,-0.01875887,0.04810966,-0.0061491,0.055448677,0.008207842,0.028655577,0.033095483,0.03811698,0.08260074,-0.007858779,-0.104008585,-0.07734353,-0.06981311,0.0017102731,-0.119496986,0.03160946,0.034437772,-0.033277027,-0.0952699,-0.01896071,-0.07246063,0.012141745,0.0772552,0.04402153,0.049706016,-0.11978506,0.0028576055,0.017831068,-0.083780095,0.013386113,-0.062277768,-0.0591371,0.022332015,-0.02846101,-0.054616366
0.111733906,0.022619875,-0.019124586,-0.045482073,0.013350471,0.012006305,-0.0628632,0.020716775,0.04753653,-0.101324186,-0.006034701,0.023102479,0.07914802,0.105261944,0.10895458,-0.037383687,0.021769052,0.022414647,-0.022761336,-0.055472776,-0.0592152,-0.051602807,-0.039616443,-0.045456707,-0.09658458,-0.051049847,-0.10687417,0.059664764,-0.09162713,-0.05227463,0.048230413,0.050206713,-0.029171895,-0.017839085,-0.017440671,-0.14230697,0.05565111,-0.049170353,-0.059725773,-0.034549605,0.05877721,0.00893811,0.055559475,-0.04770952,-0.10005451,0.04314107,-0.054113414,0.03230377,0.059130054,0.0048767873,-0.05434855,0.057205904,0.041960556,-0.08230152,0.045631293,-0.07507658,-0.0048347656,0.03431441,-0.011302658,0.003159894,-0.14486036,-0.064419575,0.03661717,0.009456898,-0.02942931,-0.018793952,0.02861675,0.05080071,0.15649292,-0.039156824,0.0046324697,0.033422705,0.0105761215,0.01297031,-0.097082235,-0.05578768,0.011407818,0.008898822,-0.04904039,0.04078515,-0.08304265,-0.03789676,-0.049709275,0.044566117,-0.011863738,-0.14726962,0.17782056,0.055870414,-0.053547148,0.16058275,-0.028685052,0.07895012,0.074300714,-0.069178276,0.010282988,0.04415678,-0.06934931,-0.0053566867,0.0640184,-0.054696433
0.057456113,0.046217676,0.007951585,-0.031573318,-0.096382394,0.04649736,-0.002953678,-0.054392435,0.06899534,0.051488645,-0.022911515,-0.097468205,0.016141852,-0.0330265,-0.00905624,0.07721561,0.07683328,0.0194902,-0.08458185,-0.021812417,-0.026063593,-0.001975572,0.035020452,-0.0071757287,0.04342879,-0.06934916,0.0115822675,0.02922212,-0.071789056,0.022422524,0.03215666,-0.10119311,-0.0031055692,-0.016585434,0.06250179,0.059143748,0.07292658,0.047136582,-0.05364367,0.08707831,-0.030689554,0.031616528,-0.035991058,0.025048338,-0.08313779,-0.09319386,-0.08213926,-0.040577732,0.025407333,0.07811218,0.0028897508,0.047499217,0.010983618,0.0028386316,-0.028560417,-0.065270305,0.0184144,0.042758122,-0.022093987,0.0017873457,-0.016851142,0.013341753,0.031444043,0.14559078,-0.0002170038,-0.06803938,-0.011966752,-0.054799404,-0.07459644,-0.06667717,-0.030066954,0.07155803,-0.12585753,0.020844601,0.1188002,0.011372811,0.07485925,-0.047159173,-0.043757293,0.13705108,0.039908502,0.026612058,-0.14567977,0.0637826,-0.004738626,0.015420719,0.056135867,-0.0014649392,0.049078528,-0.010979379,0.0532965,-0.089815885,0.0008150699,-0.030515729,0.029698325,0.029225115,0.061600827,-0.007515421,0.067805,-0.017610362
