0
-0.032460205
-0.044651892
-0.017236644
-0.020099621
0.0123335635
0.011312982
-0.035438135
0.0072900257
-0.060885917
-0.0144824125
0.0181371
-0.011885241
-0.061915647
-0.019263525
-0.024255486
0.018794348
0.014979589
-0.07200519
-0.02822426
-0.03590842
-0.07462669
-0.013559366
0.010492989
0.04482566
-0.053432025
-0.022723714
-0.009671474
-0.071925305
-0.04814506
-0.030391013
-0.04694708
-0.054791592
0.024724828
-0.06725033
-0.02292796
-0.0143524315
-0.06058238
-0.068136685
-0.057316035
-0.07058823
-0.004151495
-0.018644156
-0.03807112
-0.0012395984
0.023776097
-0.05405618
-0.00049554044
-0.032127224
0.014074899
-0.034906242
-0.032737974
-0.074986376
-0.05218484
-0.04824629
-0.07599735
-0.032885592
-0.032009818
-0.015036075
-0.08263115
-0.080810525
-0.0036695998
0.0056167403
-0.009625708
-0.015676556
-0.06320965
-0.0011310462
-0.025617175
-0.014270024
-0.062341765
0.012959024
-0.042472053
0.042457506
-0.05387014
-0.03590963
-0.048394743
-0.062389266
-0.06908524
-0.049744047
0.013163376
-0.03312136
-0.010292096
-0.060112234
0.010291976
0.023832532
-0.041054852
0.021019591
0.01623188
-0.040890645
-0.04749096
-0.009538511
0.0012508775
0.034898706
0.036078267
-0.045824736
-0.0038886198
-0.07021981
-0.012779944
-0.019657586
0.040404174
-0.035480097
