0
0.046025056
-0.012792823
-0.0083983205
-0.007226649
-0.0075940527
-0.01619797
0.0030123633
-0.023030622
-0.04728791
0.010872668
-0.029480312
0.009345608
0.0029379511
0.0009815136
-0.017538104
0.019492662
-0.023880705
-0.026408311
0.019599015
0.005846789
0.011548405
0.0057025743
-0.015923133
0.019255323
-0.010577804
0.0027618736
-0.027264362
-0.03942771
0.024082027
0.008873693
0.00019051126
-0.03614048
-0.033812247
0.029714344
-0.038768142
-0.02625832
-0.033160213
0.03195422
0.020989362
0.023670696
0.029615937
0.011007859
-0.047197998
0.0012820615
-0.0075291945
-0.027079547
0.0047787162
0.01978589
-0.015122354
-0.0171359
-0.022582145
-0.03715458
-0.038647603
-0.010483842
-0.03871976
0.0020131173
-0.019078726
-0.0086820675
-0.027428538
-0.046581354
-0.012022642
0.02211838
-0.017812932
0.02801556
0.0037454173
-0.017250495
0.0028447364
0.0024585736
-0.017294282
-0.0038728917
-0.019680608
-0.026077697
0.013378041
0.017337238
0.010258849
-0.028950525
0.015108615
0.0021669648
0.0339932
0.01571676
-0.03341246
-0.017680192
-0.023943312
0.0009633766
0.008146375
-0.027780207
-0.021618275
-0.0135442605
0.03577497
0.016701804
0.0045071035
-0.0010765634
0.012743828
-0.0068309736
0.008167764
0.005550434
-0.023297822
-0.033486918
-0.05442661
-0.015360923
