0
-0.0038293835
0.00034327197
-0.016460586
-0.03148745
0.013547808
-0.022117525
-0.028299602
-0.01741104
-0.03326199
-0.012525388
-0.030388739
-0.013864224
-0.021600273
-0.0024124354
-0.06744438
-0.00964289
-0.0109397825
0.0029487151
-0.011638419
-0.03589461
-0.008013328
0.02800156
0.033643343
-0.008021159
-0.02981023
-0.016047748
0.023301192
0.0018714716
0.0052852794
-0.0014786427
-0.025433533
-0.05456158
-0.010113714
0.0054967706
0.0038858938
-0.005160525
-0.029353097
-0.009939496
-0.04018428
-0.03167403
-0.011973643
-0.007940762
0.009938936
-0.022729056
-0.018251015
0.05356811
0.012890351
-0.016374871
-0.0026539254
-0.026181998
-0.028567785
0.015827136
0.008905131
-0.0079270275
0.003185923
-0.0185479
-0.014566376
0.0015953465
0.00934036
-0.010585386
-0.030957023
-0.019372817
-0.007964548
-0.03751586
-0.0090038525
-0.010405763
-0.0015003568
0.028673233
0.013716072
-0.037458908
-0.048945814
-0.012488992
0.003749416
0.015104786
-0.01502011
-0.024433913
0.021246713
-0.007785577
0.048703592
-0.03047011
0.015179578
0.004146991
0.0008798746
-0.01452864
-0.013101575
0.002854368
0.014392131
0.007788698
0.00011445205
-0.02622414
0.018731209
0.008420812
-0.01564278
-0.026565993
0.016053442
0.018580135
-0.020303128
0.039350547
-0.017275179
-0.012571396
