0
-0.009730584
-0.019845892
-0.01697884
-0.06320915
0.0106019
-0.028067628
-0.004077474
-0.008295268
-0.0132482
0.010247424
-0.054264437
-0.017970456
0.0030456574
0.016060662
-0.016426867
-0.020640377
0.021241464
-0.0045742528
0.017630147
-0.034117334
0.0019618953
0.018415403
-0.042417165
-0.0068352562
-0.055791967
-0.039532244
-0.043775808
-0.0011460573
0.010219508
-0.016205052
-0.017818782
-0.00851659
-0.023061614
-0.041285604
-0.01612323
-0.0122205615
0.03777782
0.014920863
0.024101475
0.017564343
-0.024017075
0.015534333
0.024572836
0.0076760575
0.013756727
-0.014785164
-0.025923634
-0.022727154
-0.047625672
0.0045376336
-0.012510347
0.019561011
-0.007829977
0.0040367465
-0.022614956
-0.05080489
-0.03775074
0.008824021
-0.034412228
-0.018901506
-0.0034358227
-0.060008775
0.013350614
-0.023395436
-0.023201302
0.008499106
0.0069577796
-0.032179367
-0.01862436
0.026706109
-0.03253177
0.008066526
0.0064600916
-0.02741988
-0.00121487
0.013516724
-0.005439025
-0.010002946
-0.035131097
-0.020005872
-0.034184277
0.0030565725
-0.04464493
0.011142077
-0.021808002
-0.06381673
0.001074946
-0.050022863
0.0034850666
-0.011859937
-0.034486778
-0.036489163
-0.017430242
-0.038936127
-0.031269934
-0.03699732
0.0015470721
-0.030003542
-0.010874292
0.001152739
