0
-0.010648694
0.0048978687
0.0026727072
0.008135804
-0.010276456
0.012913495
0.0020253095
-0.02194039
-0.022101862
0.018252669
-0.016478973
-0.023223057
-0.011147877
-0.00068867934
-0.035932064
-0.038169313
0.019710045
0.009031952
-0.030541323
-0.008163621
-0.034355782
0.0057354784
-0.014933362
-0.02600575
-0.001845535
-0.006463765
-0.034836832
0.032209832
-0.037068423
0.029297478
0.0038000136
-0.01412233
0.00987838
-0.03395647
-0.028436184
-0.031218912
0.026843177
0.00014996485
0.013993604
-0.011487677
-0.0010481452
0.015270848
0.0004059145
0.020578666
-0.02309931
-0.008195392
0.039334424
-0.029072432
-0.028915364
-0.03207218
-0.0005847423
-0.03358821
-0.02350659
0.013732847
-0.03903423
0.006110691
-0.003234256
-0.024907302
0.019113816
0.006964941
0.01323066
0.0018162809
0.011659053
0.0048426935
0.0042189597
-0.010816544
-0.048594993
-0.039907012
-0.016527794
0.005646409
-0.0500236
0.009159733
-0.022020029
-0.049574584
-0.056953993
0.014694101
-0.009416141
0.0025408098
-0.008305038
-0.009948504
0.026341334
-0.027332794
0.023159036
-0.035885695
0.014290682
0.003160551
-0.014348318
-0.027240992
-0.0006886682
-0.015174164
0.005911714
0.0022809638
-0.0029699074
0.008666029
-0.024779493
0.018717697
-0.0030304785
-0.029980918
0.005027493
-0.0041560754
