0
-0.014152169
-0.01956626
0.051790487
-0.003395149
-0.04255315
-0.021872712
0.0045581167
0.0017805453
0.00083222723
-0.01450871
0.015225706
-0.027371615
0.056363504
0.010250611
0.0021615594
-0.005682216
-0.007986555
-0.012848757
-0.028266633
-0.015181826
-0.0006540584
-0.041332137
-0.026769232
0.029698784
0.010487101
-0.020032434
-0.012283183
-0.0011566612
-0.006043216
-0.023971485
-0.024421891
0.03006348
-0.023048768
-0.02702802
0.0070135747
-0.024779456
0.012649054
0.011625977
-0.00019598658
-0.046562325
0.06026879
-0.028164076
0.02249332
0.010440188
-0.013087689
-0.013206139
0.018399503
0.024092035
0.0035205767
0.039533146
-0.020796094
-0.04485458
-0.008071611
0.032974415
-0.0019584217
0.02299393
-0.004384791
-0.005398883
-0.035343442
0.0027856764
0.029110279
-0.030425262
0.02019208
0.013432775
-0.0038648704
0.04190769
-0.026781626
-0.018737586
0.0101525355
-0.009867356
0.005557177
-0.040869415
0.025119087
-0.01498096
-0.029297989
-0.017560322
-0.021728316
0.004912411
-0.043824937
0.024154138
-0.014708132
-0.023177646
-0.004888118
0.0075512445
-0.0278127
-0.008913272
-0.001380769
-0.0031319687
0.0051070084
-0.0015684977
0.013095682
-0.012806448
-0.025009515
0.0036595704
-0.03170504
0.010950327
0.019537607
0.005240479
-0.030950751
-0.016676512
