0
-0.073388666
-0.023885835
0.018682221
-0.017804869
-0.0082558105
-0.05890062
-0.028960044
-0.034545254
-0.018629659
-0.017397271
0.026497634
-0.038007677
-0.029499954
0.018861385
-0.0026433012
-0.05000898
-0.01038555
0.015941925
-0.0010062826
0.011703778
-0.034036875
0.009727488
-0.050839227
0.03473896
-0.014574346
0.043580424
-0.0033190404
-0.05207524
-0.039519463
-0.021141754
-0.07309136
0.00069984427
0.0015896165
0.026986515
0.01353437
-0.010712179
0.020106027
-0.053823683
-0.025819294
-0.045792934
0.0020045834
-0.021796042
-0.03393535
-0.008056276
0.00868591
0.029230446
-0.041764632
0.027933782
-0.032547053
-0.009889236
0.024409585
0.008547391
0.0049292697
-0.03932449
-0.04774776
0.027396621
-0.05220702
-0.027413798
-0.022943322
0.012356337
-0.02438779
-0.040941264
-0.00942415
-0.064087525
0.0069868495
-0.02932234
0.010977109
0.022309339
-0.055501144
-0.005323286
0.01222564
-0.013774955
-0.03917592
0.03112488
-0.023610665
-0.019548604
0.035128456
-0.032591943
-0.0063038836
-0.0061410144
-0.0059362417
0.005022538
0.033466335
-0.035975363
-0.010423086
0.010561413
0.046876725
0.021121982
-0.031041948
-0.030248132
-0.027949307
-0.076107904
-0.0016544304
-0.03420175
-0.04917949
-0.04055833
-0.057068795
-0.012958065
-0.034688197
-0.0058765574
