0
0.02613562
-0.03641345
0.027330652
-0.022484919
-0.02368746
0.018326089
0.004323368
0.014814441
0.010075109
0.014148547
-0.044122636
0.024438797
-0.0153959105
0.011477364
-0.014007882
-0.038015295
-0.056171913
0.028096896
-0.058178525
-0.022163868
0.016310062
0.025701921
0.014713652
-0.015431609
-0.025036307
0.01963828
-0.0088754855
-0.010345065
-0.016973233
-0.010903365
0.018711293
-0.023072839
-0.020116631
-0.01922246
-0.0045530032
0.0077936705
0.008367958
-0.010877464
-0.0066082836
-0.0014403288
-0.017345749
-0.022976918
-0.01812811
0.023602955
0.009608466
-0.0018967155
-0.04471069
0.020670066
-0.037525922
0.0064564864
-0.001963687
0.012863025
-0.011342703
-0.0008712482
0.01732657
-0.0009780205
-0.031072283
-0.03616214
-0.006936008
0.016613552
-0.011463039
-0.03864298
-0.018782485
-0.0035258732
0.009846499
-0.0035407355
-0.014905498
0.020066895
-0.015308508
-0.0135534
0.026870074
-0.009958231
-0.0029727586
-0.025435207
-0.01057543
0.031541843
0.0031175714
-0.014039686
-0.035261367
-0.016911812
-0.027931925
-0.032597814
-0.018456182
0.0053851358
-0.04273431
-0.035990864
0.024692846
-0.043208405
-0.008683016
-0.028230384
0.018996129
0.02680427
-0.041026056
-0.010703096
0.03442121
0.0046143434
-0.03218927
0.011895893
-0.009345852
-0.02605072
