0
-0.016069077
-0.04364135
-0.016997011
0.010606133
-0.033927552
-0.00021710734
-0.034238372
-0.009146675
-0.03283169
-0.004865166
0.009073617
-0.016649753
-0.05145682
0.013838501
-0.028805865
-0.016117916
-0.0038100344
0.0007730268
-0.005115539
-0.021386195
0.0067122835
0.021907205
0.012965518
0.0031568394
-0.009779133
0.02496252
-7.293104e-05
0.010217933
-0.018355953
-0.021861196
-0.0139823565
0.0114856735
-0.0069677695
-0.0026123875
0.0046336795
-0.0031551758
-0.0023806146
-0.010261388
0.0018683389
-0.00054968474
-0.047816843
0.029246151
-0.043656282
0.034767233
0.0016948753
-0.016837426
-0.04004896
0.012710859
-0.0093861455
-0.055116065
0.029075654
0.016230939
-0.011270693
-0.03665915
0.008464324
-0.013438663
-0.043786537
-0.03901058
-0.0043234807
-0.028736612
0.027783582
-0.011815076
-0.006110444
-0.033210866
-0.0053715766
0.0058504944
0.007018127
-0.029670004
-0.01778028
-0.007575906
0.04011714
-0.02859146
-0.023559684
-0.014082679
-0.018201325
0.004324723
0.026569102
-0.016268097
-0.004809486
-0.00012381712
0.00048263368
-0.026702778
0.03281104
-0.003521172
-0.03565321
0.009708954
-0.025364717
-0.010307983
-0.036947995
-0.024126073
0.013317859
-0.021702029
-0.018642586
-0.026288118
-0.023260579
-0.01830771
0.017194483
-0.0127608795
-0.026051695
0.013846615
