0
-0.024368845
-0.008760639
0.025092216
-0.043766454
-0.04298457
-0.031166183
0.035062496
-0.03156244
0.0032638116
-0.024420658
-0.0033875722
0.0016201288
-0.02487466
-0.023466611
0.001106513
0.018111497
-0.008513544
-0.020573042
0.008191275
-0.0065389914
0.0073548104
-0.00071203324
-0.018120479
-0.029517367
-0.011058559
-0.004154627
0.0076816007
0.01234794
-0.010542003
0.00943826
-0.002783372
-0.045597196
-0.008479533
-0.011969149
-0.015406365
0.0038115717
0.011173236
-0.030858837
-0.0057205227
-0.040960547
-0.005249587
-0.011490289
-0.0069693164
0.0042454675
0.0069128866
0.027393276
0.01175583
-0.01026078
-0.04356763
0.034342326
0.0055921646
-0.0069172857
-0.005254406
0.02111359
-0.024543734
-0.030626062
-0.0179176
-0.022488454
-0.000886646
-0.016497107
0.02015342
0.00010443298
-0.05044094
-0.009015089
-0.043541923
0.011031077
-0.014167517
0.019978447
-0.0045820307
-0.004543256
-0.01531673
-0.018186718
0.016015287
-0.008028083
0.03260837
-0.016098948
-0.0052913036
-0.012654299
-0.03744804
-0.0021407283
-0.015983714
-0.028326347
0.011490235
-0.004931513
0.0011201627
0.0008413916
-0.020887593
0.006626245
-0.035080384
-0.019049741
0.008372597
0.010793615
-0.04528642
0.0106790215
-0.016055072
0.014371184
0.03234077
-0.016899629
0.017213311
0.0013433543
