0
-0.048250653
0.04256898
0.00897747
-0.007829814
-0.009793947
-0.0058222236
-0.06333441
0.0017099221
-0.045103766
0.04533184
-0.0007275769
-0.020290231
-0.061988804
-0.060021162
-0.107580654
-0.0285416
0.070572644
-0.10618339
-0.0033806046
-0.04794813
-0.04898637
-0.08010922
-0.018056905
-0.016441135
-0.03074147
0.010857062
-0.061892945
-0.020829927
-0.0065809004
-0.028175415
-0.08394641
0.039492648
-0.018944874
-0.013968311
-0.06145574
0.012903016
-0.010423444
-0.016030138
-0.061756346
-0.02859354
0.026745507
-0.020331688
-0.064390555
-0.1014953
-0.011198829
-0.101756565
0.030264346
-0.046232443
-0.03939412
-0.011012464
-0.07384978
-0.0034065547
-0.011934009
-0.048966214
-0.008161402
-0.010152172
0.007241677
0.06034088
-0.002629408
-0.11455823
-0.04181425
0.024383062
0.033176396
0.065281056
0.06725454
-0.055184375
-0.02696168
-0.0749604
0.006171061
-0.090340465
-0.031298947
0.015368627
-0.058882724
0.036778513
-0.02272377
-0.09970333
-0.03658018
-0.08893108
0.0070250304
-0.014673154
0.040131506
0.045504924
-0.018418621
-0.069257446
-0.027096031
-0.07991862
0.0073276465
-0.07466121
0.0013266292
-0.04135423
-0.08685413
-0.01679402
-0.0753463
-0.06837532
0.014378732
-0.033760384
-0.016008126
-0.06086421
-0.08814819
-0.029734395
