0
-0.023881705
0.022268426
-0.018776223
-0.0029969
-0.027354155
-0.018892268
0.020854495
0.01897704
0.02643315
-0.030217815
-0.027747553
0.028137049
-0.030806009
-0.007738026
-0.022445895
-0.017032636
-0.011659613
-0.0027149904
0.011804761
-0.0011867133
-0.014744579
-0.009936887
-0.049785543
-0.0117101
0.019039106
0.0010911953
0.009929793
-0.006588232
0.0042862496
0.023495616
0.030274022
-0.032954574
0.027617136
0.0020368386
-0.03967729
-0.02256482
-0.04105315
0.029618623
-0.03375922
0.010861839
0.023377743
0.0072835037
0.004265225
-0.037107352
0.00045435716
-0.013502727
-0.0027721366
-0.007856705
-0.003303274
0.009489991
-0.034043394
-0.021824379
-0.007972097
0.00052719336
-0.021022227
0.0024085033
-0.016506992
0.0028726864
-0.031470027
-0.04506417
-0.049044393
-0.01084824
-0.032281153
0.013858268
-0.021746168
-0.019888679
0.025796616
-0.005343692
-0.036512807
-0.0079463925
5.7768564e-05
-0.0003237266
-0.030054875
-0.023091076
0.01721476
-0.022516986
0.010908301
-0.027377848
-0.01881561
-0.024222702
-0.019765401
0.022753833
-0.022765052
0.017729593
0.0009040446
0.022168295
-0.0070994627
-0.020881856
-0.016916169
-0.040092535
-0.02755045
-0.018147694
-0.028024636
0.0021003583
-0.038556203
0.010908286
-0.0283198
0.016768321
0.02170397
-0.040997237
