0
0.005464483
0.010365639
-0.0028586488
0.0069906632
-0.010890943
-0.031992745
-0.01967975
-0.015597888
-0.019486247
-0.010210289
0.013917172
-0.01664857
-0.01319459
-0.006041648
0.0016043439
-0.012841187
-0.004913775
-0.016365891
0.0028363275
-0.0064488337
-0.0080299005
-0.0055499976
0.0078093936
-0.0028997941
-0.013190896
-0.058164164
-0.00058394024
-0.010653437
0.006951312
-0.016889516
-0.025878748
0.02111908
-0.0010433791
-0.016344272
0.011585701
-0.025985505
0.00046896766
0.0042910045
0.0050333845
-0.026842082
-0.0061693806
-0.0022206781
-0.0325414
-0.024600793
-0.020767516
-0.021004962
-0.011441868
-0.0052072974
-0.011447706
0.011339012
-0.007039439
0.005793003
-0.025428763
-0.046181183
-0.0074856486
-0.051896684
0.010767555
-0.042411312
0.019740937
-0.028496208
-0.03991745
0.0036702831
0.0155853955
-0.005277221
0.019317897
-0.011150513
-0.030263303
-0.01528675
-0.0336167
0.009399521
0.0015794779
-0.030603886
0.00673338
0.010975903
-0.05034391
-0.015956804
-0.0015794819
0.039308995
-0.022443078
-0.01117642
0.014559662
0.027246205
-0.012477338
-0.042074196
0.0159731
0.0037966638
-0.041123066
-0.030198924
0.036699362
-0.030530825
-0.0019903337
0.019466184
-0.011439
0.01013232
0.005844829
-0.029276717
0.012790892
-0.01209608
0.003521098
0.0056869932
