0
0.005355797
0.027365103
-0.02840717
-0.0399025
-0.052948516
-0.018180925
0.016791446
-0.022558471
7.148513e-05
-0.003482037
-0.030478727
-0.025676267
0.023892775
-0.0034468991
0.042240184
-0.0012788556
0.020204758
0.008589832
0.01619373
0.01680337
-0.009389011
0.016446522
0.008980988
-0.019494154
-0.004159816
0.007032619
0.0021465933
-0.027251404
0.020232042
-0.020128718
0.012256512
0.008889907
-0.021130485
0.04986923
-0.005234868
-0.015382825
-0.019664412
-0.04382283
-0.019469649
0.003926606
0.020575935
0.005774205
-0.0052872156
0.00070833607
0.019172238
-0.011108021
-0.025098128
0.009326591
-0.012716769
-0.00088029396
-0.04215205
-0.02353066
0.0356818
-0.020982867
0.022428978
0.022431236
-0.019025158
0.003384275
0.03698239
0.04953745
0.009663541
-0.041693836
0.020988468
-0.016205674
-0.002295804
0.0039084475
0.020782243
-0.011859415
-0.02671175
-0.020184252
0.0014218685
0.038051456
0.015578795
-0.021085868
0.028655658
-0.02077408
-0.039081395
-0.008378645
0.000409414
-0.0028698707
-0.015906911
-0.030111467
0.023011994
-0.0029627667
-0.019074388
0.01733518
-0.015413869
0.0023727587
-0.042953677
0.004486428
-0.011597633
-0.005515682
-0.0043393653
-0.019113114
-0.0371755
0.0011979302
0.03835379
0.009271177
-0.0033239792
-0.03924877
