0
-0.024818595
-0.038242016
0.0070415507
-0.033319853
-0.02058322
-0.006219321
0.013550655
-0.027757388
-0.033517245
-0.007625923
-0.035783157
-0.016333533
-0.022485398
-7.2254974e-05
-0.02032518
-0.012428854
3.7555317e-05
-0.014769066
0.010819643
-0.015245594
-0.015083318
-0.016379124
-0.032423686
-0.040507704
-0.0001318799
-0.024211539
-0.028669655
-0.033296116
0.015980395
-0.012892596
-0.053549215
-0.020635772
-0.022157015
-0.049767006
0.016457371
-0.04643628
-0.00026044378
-0.017781014
-0.0020470233
-0.0011250112
-0.020877847
-0.0018919476
-0.0022003797
-0.0312466
-0.0011941586
-0.026793838
-0.014767845
-0.010223493
-0.021662554
0.023168327
-0.02340377
-0.023566248
-0.03364041
-0.022024792
0.00015970154
-0.009856723
0.002725295
0.011706851
-0.020473197
0.028094571
-0.01851982
0.005309227
-0.032784507
0.01913992
-0.027583832
0.01912639
-0.029000528
0.0041524703
-0.0236515
0.014892838
0.0034100553
-0.006343696
0.0024497497
-0.011644843
-0.030138804
-0.0042141867
0.038065817
-0.005501681
-0.0010489605
-0.021726545
0.037416875
-0.015108491
0.024749644
-0.013671193
-0.011921057
-0.015043372
-0.0362855
-0.038709562
-0.033939753
-0.0009014803
0.032264285
-0.027964527
-0.014829729
-0.03278555
-0.0016618874
-0.050933406
0.011638234
-0.030525008
-0.012528067
0.010369621
