0,1,2,3,4,5,6,7,8,9
-0.007974738,-0.13900359,-0.17001307,-0.19874188,-0.11497088,-0.019722093,-0.19708377,0.11880627,0.17431602,0.1656995
0.10626701,-0.13000925,0.16147964,-0.23365083,-0.06791612,-0.0663321,0.18094127,0.15582949,0.079985656,-0.09023381
-0.20460348,-0.15978828,-0.20061329,-0.13135998,0.19280177,0.010312821,-0.09273004,-0.21499568,-0.020324953,-0.12552047
-0.066905625,-0.09471162,0.15564227,-0.085144356,-0.13219367,-0.1786534,0.04151866,-0.12105059,0.09632986,-0.13118626
-0.095849454,-0.043877725,-0.18392242,-0.18696797,0.09497574,-0.012225114,-0.07253391,-0.13410151,-0.24578717,-0.07797747
-0.050929938,0.22839326,-0.18669395,-0.1151051,-0.1871648,0.05296052,-0.08353196,-0.21168281,0.1691777,0.121122174
0.0601004,0.10247009,-0.18652797,-0.09865067,0.021702686,-0.1194562,0.105675966,0.16601819,-0.16219082,-0.13660517
0.18764772,-0.057996064,-0.010395791,-0.12300653,0.020629667,0.19181304,0.0035417827,0.21104476,-0.08881346,0.019255579
0.16765204,0.1380323,0.009657459,0.20563762,0.23222905,-0.18374448,0.22323975,0.1629743,-0.07415118,-0.012893321
0.05067093,0.036906045,0.09106572,0.04365153,-0.048224736,0.17758754,0.11198272,0.12703425,-0.09356315,0.09412053
0.11016362,0.2302729,-0.20345713,-0.20669949,-0.11241877,-0.15173747,-0.1480477,-0.03328543,-0.027652608,-0.0694297
-0.11439825,-0.08278504,-0.008910682,0.17262517,-0.15510072,0.081100844,0.2034958,-0.02563789,0.17090419,0.0789918
0.040682655,0.0811397,-0.11510735,0.15479591,0.10726035,0.10798072,0.20674211,-0.12044297,0.11082876,0.07218066
-0.06833209,0.08100659,0.0018148002,-0.071876116,0.025224354,-0.17901865,-0.043729383,-0.0012050655,0.13833058,-0.121620335
-0.1048336,-0.24600695,-0.013360517,-0.043573055,0.19387467,-0.16213372,-0.10242849,-0.028808592,-0.13557811,0.046619862
0.105410606,-0.15682584,0.0069728508,0.06886706,0.16972113,-0.076865025,-0.16308647,-0.080277964,0.2245319,0.10356922
-0.13018215,0.18925439,-0.17250474,-0.023596542,-0.0034295751,0.098348804,-0.015873289,-0.19623655,0.13578205,0.029045483
0.07367535,-0.09246456,0.21774986,-0.13428424,-0.14110091,0.015222579,0.16081488,-0.083434515,0.16017146,-0.015233322
-0.08901549,0.19840682,0.20003489,0.086330526,-0.20417862,-0.19618365,-0.1379758,0.17993873,0.032241385,0.1622313
-0.1082626,0.22992496,-0.1913727,0.20743643,0.060794003,-0.1745126,0.15829219,-0.0702518,0.0053625526,0.031107074
-0.040263243,-0.118860416,0.11687762,0.18232337,0.00042833318,0.10900414,-0.10981314,-0.057990197,0.13843678,0.12734951
0.02933901,-0.03439603,0.0977793,0.21204805,-0.15554123,-0.12986703,0.13424903,-0.18262382,0.08452451,0.16978033
-0.18479426,-0.05753094,0.13224976,0.07245697,0.002035431,0.24537133,-0.021144716,-0.052301377,-0.10761698,0.047773357
0.1102851,-0.2311928,0.22289753,0.22689696,-0.024491817,0.110608995,0.035430573,0.15514742,-0.027396258,-0.09511273
0.23297212,0.13870099,0.06911478,-0.035822287,-0.06097305,0.19380905,-0.026509855,0.21704431,0.19490668,0.1338117
0.1323836,0.1971629,-0.03903227,-0.101670034,0.0056263297,0.20550933,-0.1914642,-0.15097266,0.12711526,0.07627105
0.03661509,-0.1240616,-0.06487245,0.1685307,-0.14961073,0.2255924,0.2210978,-0.10714712,-0.13213417,-0.071455225
-0.07055272,0.0373555,0.05224858,0.051372223,-0.08671128,0.008717479,0.1825229,-0.0864166,0.021629777,0.081067786
0.23088373,-0.099611476,-0.17979687,0.20898381,-0.023777725,-0.052879672,0.16168915,0.03017542,0.20165716,-0.06282486
-0.23358992,-0.10513277,0.20037748,0.113247156,-0.15178321,0.19636284,-0.009587976,-0.1988461,0.0867536,0.05217419
0.12841108,-0.033473313,0.14780638,0.09283461,-0.017698955,-0.06574205,0.15689382,-0.14385125,-0.13561334,0.1201471
0.21362787,-0.023543319,-0.048774403,-0.06940311,-0.1896941,0.13953723,-0.2289038,0.19936304,-0.175424,0.21001306
0.12897545,0.14455035,0.031831317,0.12144173,-0.25858974,0.01772038,-0.21695346,-0.14277436,0.12144755,0.16363621
0.11066489,-0.1946548,-0.16898502,0.14720155,-0.017818019,0.18452324,0.1554488,0.17440821,0.035686515,-0.048414696
-0.21773632,-0.23006755,0.104600675,0.17280164,0.13833946,-0.017720109,0.19251099,0.10843783,-0.23337728,0.028219974
0.08073141,0.16760486,0.13446184,0.022511207,-0.06927385,0.070969984,0.04265789,-0.23806323,0.060933877,-0.23205279
-0.053151377,-0.12975647,0.07113312,0.086869776,-0.108992755,-0.19786444,-0.1525748,-0.20419386,-0.03548934,-0.13877784
0.04759055,0.060533106,0.16097777,-0.054398123,0.16137332,0.023869434,0.15382318,-0.06665161,-0.11799428,0.027659765
-0.011562576,0.17457816,-0.21791549,0.036534272,-0.18562132,-0.15305823,0.08343547,0.08000007,-0.062230263,-0.0070645297
-0.18122345,0.23333657,-0.15864332,-0.05092355,-0.18399933,-0.22092772,-0.008797587,0.24045111,-0.10624147,-0.1746384
-0.22502604,0.042880334,-0.038474582,0.055628862,0.021201076,-0.024088359,-0.08332583,-0.03760186,0.22916535,-0.21179202
-0.1545686,0.0078048278,0.23836434,0.20066756,-0.15585244,0.043189276,-0.120896965,-0.0063560987,-0.21955119,-0.01699972
-0.018682994,0.09000921,-0.20850493,0.052022472,-0.05897371,-0.08762529,-0.05775656,-0.15612331,-0.12158881,-0.22164156
0.17751192,-0.040603243,0.0843052,0.06704992,-0.13389176,0.13950454,-0.03205342,0.2508612,-0.06854689,0.10359756
-0.15322244,0.10493177,-0.1454003,0.19266023,0.098193035,-0.1784662,-0.13381866,-0.03458465,0.20655212,-0.18703082
-0.12426263,-0.20143998,0.028436014,-0.06543064,0.19845207,0.098138474,0.16560102,-0.05566195,0.0014156227,0.22990522
-0.14572792,-0.03545713,0.21068887,0.009638856,-0.115596585,-0.04036661,0.0006856945,0.0008264335,-0.04464747,-0.07244814
0.016856568,-0.21227868,0.048445575,0.062028605,0.113691464,0.1472419,-0.11412681,0.058960967,-0.06529202,0.1050558
0.18657792,-0.048905168,0.1513501,0.060794245,0.14899865,-0.13390534,0.1697244,0.07612999,0.13330042,-0.062803
0.13915955,-0.18362667,0.11437988,-0.08130997,-0.08814197,0.15437958,0.09089755,-0.069265656,0.1428354,-0.0063064694
0.14382261,0.12127669,0.19337215,0.17437823,-0.010946839,0.15233642,0.09209249,0.18319754,0.15773064,-0.21142241
0.07909073,0.21065792,0.16635595,-0.07404789,0.16029103,-0.056145106,0.12828337,-0.06739136,-0.042177122,-0.20156313
-0.16679129,-0.05988485,0.13461258,0.16054817,0.110423096,-0.1846462,-0.21520567,-0.14852598,-0.17983182,0.032809168
0.030062562,-0.06767364,0.12200172,-0.20453031,0.21258219,-0.13970159,0.074246414,-0.2294011,0.021508088,-0.046405848
0.14028537,0.17937379,0.18646975,-0.20725411,-0.17896274,-0.13482085,0.023823261,-0.067429,0.16501285,0.08111291
0.032436788,-0.0057937307,0.1967682,0.08151464,0.062288642,-0.20527549,0.0975804,0.043092676,0.10671021,0.08554067
-0.15748681,-0.15927815,0.003477233,0.0857329,-0.056209836,0.14636014,-0.22827496,0.07384078,-0.016949536,-0.11855489
0.0059284624,0.20460114,0.18755682,0.16771314,-0.21163407,-0.22764067,0.1888323,-0.044898078,0.044239443,0.10564448
0.19416684,0.072136916,-0.22264498,0.07689203,0.016594248,-0.19691539,0.18205418,0.14570089,0.1341648,-0.105726756
0.15482672,-0.11530241,-0.030607238,0.1461985,0.24481584,0.17625028,0.08554927,0.15444215,-0.0439799,-0.25825015
-0.1944453,-0.026249345,0.17066063,-0.0631049,0.060238354,-0.19710208,-0.054035082,0.006824604,0.1211224,-0.02121354
0.1382795,-0.21632631,0.13774885,-0.10650417,0.027013514,-0.13187075,0.19958676,0.031090168,0.09084754,0.1591265
0.14115474,0.1805875,0.18149227,0.19638567,-0.16270348,0.07174443,0.14543624,-0.06873174,0.17909873,-0.05480126
0.08847701,-0.19189806,0.12142899,-0.053651545,0.046137568,-0.10317049,-0.14367425,0.17926632,0.13850191,-0.10815033
0.019607771,-0.108100474,0.18542266,0.030504638,-0.093394525,0.08060757,0.1576577,0.17762595,-0.13878903,-0.1654162
-0.06781314,-0.0039355396,0.21999554,0.16976607,-0.07061992,0.100644104,0.069390945,0.11078971,0.080589436,-0.04521776
-0.10365503,-0.005478762,-0.018663334,0.22783382,0.11369014,0.13953386,0.065140076,0.1786495,0.19603169,-0.07828278
-0.11499593,-0.1388753,-0.20200263,0.037373662,-0.037327133,-0.052305453,0.06302234,-0.14603779,0.046691485,-0.101498686
0.2560785,0.20008026,-0.05630282,-0.21446602,-0.199651,-0.110436425,0.14248505,0.17093413,0.15195444,0.1553134
-0.1261775,-0.09507049,-0.094108224,0.071151555,0.04675867,0.06534592,0.10870634,-0.07861242,-0.14261022,-0.14717625
0.18191135,0.051026355,-0.08701521,-0.17268947,-0.03483688,0.20909089,-0.1296286,-0.1430242,-0.083086,0.016427008
0.08281596,-0.07052062,-0.063922316,-0.19121896,-0.13344888,-0.15244578,0.14854598,-0.12848943,-0.13628663,0.050794803
-0.09838786,0.06201399,0.09263152,-0.0593919,0.14133649,0.20946573,-0.15755107,-0.034266304,-0.09966419,0.03474093
-0.0034802095,0.08728952,-0.079106845,-0.1745187,-0.025261601,-0.20555685,0.030223642,0.0071267006,0.1624084,-0.08066383
-0.2072129,-0.02403353,0.20990607,0.1913917,-0.08488888,-0.04284501,-0.1973613,0.08105942,-0.010789297,-0.074893855
0.19975863,0.21721292,0.032417983,-0.06581847,-0.24285537,-0.08769868,0.0059043197,-0.12081062,-0.16135083,-0.17522384
-0.20723845,-0.110719964,-0.053419326,0.09647659,0.07218131,0.14439821,-0.14967921,0.1388418,-0.19774696,0.19853783
-0.23561384,-0.12587893,0.1456781,0.17418872,0.103085846,-0.14507756,-0.21796696,-0.03900187,-0.19448954,0.21394534
0.090083875,-0.11796945,-0.063769996,-0.19832078,-0.17142077,0.07421704,0.05647509,-0.20817482,0.091552444,0.20453307
-0.22472021,0.04427139,-0.11962671,-0.18992056,-0.18589619,-0.14687292,0.056579717,-0.09409988,-0.20282413,0.11043474
0.07732121,-0.0017070988,-0.040026926,0.035972346,-0.13480051,-0.23722506,0.11126542,0.11418376,0.07594591,0.00336582
-0.12981167,-0.05680048,0.1852819,0.01733206,-0.043794043,-0.008248272,-0.19510823,0.21589415,-0.13691135,-0.033922657
0.019242726,0.21749192,0.022928957,-0.094785996,0.10106412,0.16206263,0.17852747,-0.23500171,0.06502055,0.12572354
-0.022145908,-0.005218304,0.17576529,-0.00757954,0.14331181,0.006424886,-0.053455837,-0.23934042,0.07635343,-0.17696238
0.048579343,0.1593682,-0.15361178,-0.06747858,0.08959447,0.15294862,-0.113659754,-0.11941866,-0.2372586,-0.12870474
-0.22763488,-0.17290525,0.015303634,0.05080359,-0.18776028,0.07522975,-0.09066904,0.066287115,-0.17578672,-0.06284086
0.1336036,-0.15411188,0.12731683,0.02288007,0.04645074,-0.17984283,-0.03913801,0.12051736,-0.19399267,-0.19496547
0.16115656,0.14416598,-0.033257626,-0.14897642,0.15113078,0.17245613,0.090149984,-0.013726772,0.07614784,0.16379341
0.17270476,0.0885487,0.09882196,0.19139984,-0.22507958,-0.067839056,0.013095822,-0.04283708,0.19494173,-0.11676237
-0.073211774,0.026969269,-0.036179803,0.18023583,-0.008853782,-0.21980669,-0.16095972,0.08787605,0.0009623238,0.0059726294
-0.10399236,0.13697399,0.05521578,-0.05133596,0.16622694,0.14562693,-0.02058793,-0.1572904,-0.19585755,-0.04558417
-0.2717839,0.091009505,0.0014955705,0.0061575943,0.04101793,0.0043658772,0.001449592,0.07739346,0.09514672,0.057355933
0.20401356,-0.03607911,0.034113146,-0.12612851,0.16417857,-0.14650516,-0.14453772,-0.08623567,-0.13087831,0.09986512
0.014035414,-0.079719566,0.13843222,-0.008657295,0.06863577,-0.015861653,-0.19102953,-0.15866901,0.005214952,0.054935556
0.20084566,-0.07428097,-0.19736849,0.13774641,0.0752246,-0.051983718,-0.22348568,0.022752648,-0.122732684,0.13504083
0.19017094,-0.043127332,-0.097214915,-0.15534472,-0.16295832,0.23043872,0.21761201,0.11069424,0.031066766,0.19929828
0.075587384,-0.18910508,-0.012268435,0.1437619,0.062609755,-0.19809234,0.14534554,0.09585332,-0.1066048,-0.18052045
-0.06806486,-0.04183258,0.11857205,-0.15482347,-0.18145609,-0.1830408,-0.21754803,-0.13873978,0.19980003,-0.040314026
-0.133275,-0.07876353,0.06508958,0.17419775,0.10814894,-0.02194029,0.040144674,0.094802015,-0.15836687,0.0967923
0.01853976,0.01632929,-0.18721126,-0.13086048,0.16230103,-0.19292569,0.19830425,-0.006615354,0.08163582,0.06000058
