0
0.0074386
-0.0015453007
0.0037041863
0.0070778867
-0.025378168
0.005429876
0.0018215681
-0.014281965
-0.002580882
-0.013190361
-0.016626535
-0.012161096
0.0033411132
-0.0066470453
-0.00912234
-0.018812876
-0.013230152
-0.006863075
-0.0015534112
-0.020426411
-0.010781924
-0.01741132
-0.016684484
0.0013927146
-0.008139476
-0.0047280765
-0.025953064
-0.00038638766
-0.010014827
-0.02211096
-0.01768897
-0.01786169
-0.034022678
-0.006038993
-0.00067816785
-0.006122146
-0.015046736
-0.020157466
-0.008159992
-0.0029575743
-0.013198282
-0.034978554
-0.0034094283
0.004854972
0.0011328271
0.003693461
-0.013560914
0.009695484
-0.0022590347
0.007959247
-0.018147353
0.008224143
0.008458621
0.01096433
0.009842941
0.0051624617
-0.018004246
0.006329738
-0.0054056
0.0006868427
-0.0043413555
-0.003646908
0.0029984615
0.005231701
0.0031053517
-0.0004247985
-0.006915531
0.0034517907
0.033451736
0.0020201923
-0.022692166
-0.0034890554
-0.0049109245
-0.013837653
0.009334777
-0.022158092
-0.02111593
-0.0029216472
-0.006543429
0.0040463023
0.015441036
-0.008599216
0.012938645
-0.028350422
-0.0053128623
-0.008926521
-0.0017395831
-0.008895546
0.0016662772
-0.013798024
-0.0037834742
-0.0016712758
-0.015161716
0.0096430695
-0.024224613
-0.0113357855
0.014004491
0.008842544
0.000753944
-0.0013563652
