0,1,2,3,4,5,6,7,8,9,10,11,12,13,14,15,16,17,18,19,20,21,22,23,24,25,26,27,28,29,30,31,32,33,34,35,36,37,38,39,40,41,42,43,44,45,46,47,48,49,50,51,52,53,54,55,56,57,58,59,60,61,62,63,64,65,66,67,68,69,70,71,72,73,74,75,76,77,78,79,80,81,82,83,84,85,86,87,88,89,90,91,92,93,94,95,96,97,98,99
-0.09905158,0.20022248,-0.1478248,-0.30342084,-0.20408525,0.18938306,0.14795828,-0.111469924,-0.14382154,0.10005099,0.0060858577,0.07499829,-0.0036781246,-0.17678764,-0.21801712,0.04452775,0.09640632,0.30561048,0.14474547,0.15782908,0.008039005,0.08693569,0.2553508,-0.0152611695,0.2725138,-0.22775239,0.07506239,0.20025004,0.061658747,0.2007095,0.0023045037,-0.065972015,0.19208774,-0.04430745,0.10039138,-0.1490791,-0.023857493,0.16021788,-0.05359691,0.039106227,-0.18840824,-0.20245071,-0.1246427,0.27217847,0.011162625,-0.031495865,0.011577083,0.087557375,-0.09987859,-0.083949886,0.28871027,-0.048613895,0.11057494,0.017151799,-0.14476098,-0.12922038,0.02847406,0.1946386,0.23582444,-0.21512054,-0.07501221,-0.11673607,-0.0061766007,0.14993371,-0.079334706,-0.18939191,-0.05712308,0.14444742,0.09097132,-0.14460614,0.22843823,-0.07892944,-0.028674254,-0.23551543,0.04904857,-0.04713947,0.23422337,-0.05635587,0.18963222,-0.25462356,-0.073300816,0.07060034,0.055764228,0.012100512,-0.03426244,-0.035997305,-0.070774846,0.007321668,0.20970139,-0.11176801,-0.019261535,-0.05035872,0.13230495,-0.11254278,0.03126717,-0.10446716,0.022504358,-0.12326869,0.30588362,-0.07879005
-0.15749188,-0.09172099,-0.014061066,-0.06429993,0.045424316,-0.21559481,0.23041286,0.19970721,-0.120441176,0.15749556,0.09272608,0.020551857,-0.10763357,-0.11598992,0.14291865,-0.13665369,0.1082636,-0.19894885,-0.13048002,-0.2687034,0.025229147,-0.094171695,0.061067447,0.080059335,0.18969089,0.1321451,0.24313459,0.014950996,0.0042496296,-0.19320174,-0.019647004,-0.017504461,0.022375613,-0.16053559,0.1429402,0.06695666,0.02622885,0.19431448,-0.31654817,0.027331587,-0.28051245,-0.08373468,-0.14095908,0.26966423,0.1409769,0.15762188,-0.17329654,0.10297782,0.06609324,0.09076021,0.22596872,-0.10969108,0.033222523,-0.16075215,0.049392745,-0.13882501,-0.012118027,-0.0041218284,-0.2039676,-0.009550913,-0.21457785,-0.015220477,-0.042586558,-0.14430279,-0.14604789,0.15862635,0.033907693,0.21085103,-0.12522654,0.03417385,-0.0019277254,-0.19593237,-0.05375409,-0.06787105,-0.15304002,-0.16955252,0.16538101,0.1242641,0.013843372,-0.14674357,0.16116005,0.060180888,-0.1327854,-0.23287685,-0.22621773,0.018408414,-0.0715978,0.09019317,-0.06938277,0.04704167,0.2594328,-0.18563944,0.06335741,-0.173012,-0.08510668,-0.03443836,-0.14335234,0.0053519546,0.10562431,-0.10488259
0.20722668,-0.17535292,0.06946407,-0.037478734,0.06576651,-0.06002249,0.13117684,-0.006403036,0.10521157,0.16264842,-0.121555105,0.060356274,-0.104298815,0.08768199,0.11186014,-0.30185682,0.007089116,0.04651062,-0.13000499,-0.06697058,0.11098752,0.17052208,0.3172137,0.015240148,0.17842445,0.20986895,-0.2534241,0.054887928,-0.11873135,-0.2594898,0.07550849,0.0199587,0.0034619244,-0.32694876,-0.19635642,-0.15077028,0.072233476,-0.06684551,0.07836386,-0.16049443,0.20830636,0.21061651,-0.027351988,-0.26804763,0.04778549,0.22662927,0.012221596,-0.001865988,0.13438545,0.012576058,-0.14466569,0.26994315,0.034739934,0.052916195,0.26735044,0.13963638,-0.093673125,-0.118323036,-0.2616053,-0.105064735,0.21735476,0.08998888,0.07702886,0.034365524,-0.22848476,0.11251174,-0.2549083,0.0018267652,-0.12464709,0.1825747,0.049018007,0.26460794,0.21243303,0.11800501,-0.28667057,-0.056213804,-0.053863943,-0.007615205,-0.058070984,0.05026329,-0.1801098,-0.052909438,0.10493732,0.01610688,0.1018826,-0.27665168,0.07920553,-0.075540766,-0.20082319,-0.18776004,0.34455234,0.30084243,-1.6582839e-05,-0.014726873,0.018019581,0.1432726,0.00016207606,-0.27152464,0.30539513,0.14916356
-0.16478665,-0.14059858,0.09988579,0.1196578,-0.04614848,-0.0115031935,-0.033412162,0.13807452,0.17212348,0.07782213,0.28118616,-0.004395694,-0.2913463,-0.15955622,-0.09492008,0.21764462,-0.09109513,-0.23660436,0.14209262,0.04804301,0.02846134,0.096867144,-0.19408245,0.048886407,-0.2720297,0.22480263,0.046955455,0.065974616,0.20442723,-0.056445602,-0.038058724,0.2332513,-0.077099115,0.13864025,-0.29211834,0.031626552,0.022264468,-0.14319766,0.14424112,0.015064136,-0.06079449,0.08735007,-0.105152145,0.10660092,-0.27929667,0.22155249,-0.015042234,-0.037154395,-0.04957804,-0.15962861,0.0064499537,0.21133026,0.106839,-0.05773776,0.131916,-0.19815558,-0.01903127,-0.009344478,-0.27369618,0.10747466,0.040519737,-0.10017704,0.0724965,0.0057462784,0.036912534,0.29677308,0.1781654,-0.009650938,-0.06399495,-0.037836846,0.13525286,0.121361576,-0.092205696,-0.2906014,0.17070824,0.03330543,-0.034752328,-0.074242905,-0.24198516,0.16290748,0.0006617668,-0.01013276,-0.14354122,-0.2956166,0.19220829,0.23262967,-0.31876454,0.18485261,0.108418345,0.12667681,-0.20019786,-0.08808316,0.01018962,0.30150124,0.07697536,-0.3118512,0.12068315,-0.123666935,-0.12972228,0.092382416
0.054234393,0.11145908,0.076448634,0.06158652,0.09358599,0.14795871,-0.31042236,0.020505793,0.10279365,0.10118772,0.077301025,-0.14567256,-0.18604521,-0.06939523,-0.10441887,0.18707818,0.1295783,-0.16006723,-0.05679589,0.062710375,0.020262022,0.019234521,0.29083073,0.08852491,0.24144548,0.2243932,-0.09992286,-0.053873874,-0.06358429,-0.18249337,-0.07522412,0.20778342,0.027315835,-0.070380494,0.34286454,-0.17628051,0.21033224,0.16096753,-0.30737662,0.032489043,-0.13653268,0.15850714,0.029780641,-0.1671833,-0.1800947,0.13848482,0.2407192,0.17156892,0.22899798,0.015131612,0.13453451,0.07824324,-0.026713641,-0.18286596,0.16129544,0.1936424,-0.25442615,0.076563664,0.0058072186,-0.09035473,-0.10220971,-0.030603895,0.0028682128,0.0032627408,-0.020812392,-0.22864963,0.12095176,-0.043718934,-0.25308082,-0.08220596,0.07720719,0.13271253,-0.06819933,0.28241187,0.05782331,0.14059818,-0.1677057,-0.06414845,-0.14470328,-0.020122837,0.12102577,0.04341932,0.19615671,0.20200853,-0.0031177385,0.21159136,-0.09026202,-0.011178531,0.15218005,-0.24016328,0.07285233,0.042655714,-0.13174863,0.27058017,-0.15014744,-0.23427178,0.10434744,-0.113745354,-0.05156433,0.32394084
0.13093577,-0.23533338,-0.12144767,0.101935044,-0.21647832,-0.0017155666,-0.080352485,-0.07424195,-0.023238322,-0.20624495,-0.08121178,-0.090595484,0.04723676,-0.2529264,-0.03682623,-0.10407181,0.31184566,0.13535924,0.2103178,-0.14617437,0.15206802,0.17976247,0.19989757,-0.19444984,0.30905816,0.016484413,-0.13571352,0.21352533,-0.13226075,-0.21122098,-0.19579566,-0.021229854,-0.24939933,0.2981134,-0.11962786,0.048239417,-0.17086248,0.23538893,-0.011784081,0.17200646,0.18052585,0.116877995,0.047984496,0.20647508,-0.05433406,-0.08792923,0.20907149,-0.092741005,-0.051493224,0.02048801,-0.05560142,0.07772273,-0.11455562,0.22411112,-0.296726,0.06886794,0.18813051,0.30977815,-0.050728936,-0.10416974,0.032305613,-0.12095972,-0.17410855,0.18352672,-0.17877012,-0.07948623,-0.014974326,0.16574404,-0.16950612,0.25709042,0.16258481,0.018492492,-0.08196662,0.014923827,-0.26724666,-0.084426686,0.02649285,0.02227199,0.0055796867,0.0596898,-0.078923054,0.109305955,0.101298824,-0.1647495,0.10338029,0.31106022,0.14145157,-0.05500256,-0.24955565,0.28169107,-0.14837572,-0.13783644,-0.20351376,0.034441084,-0.02533846,-0.061913095,0.06767211,0.0040083844,0.13286565,0.021866929
-0.065473996,0.11471478,0.2616868,-0.054826375,0.02505996,-0.021053085,0.20887163,0.09517125,-0.0470033,0.17406636,-0.14226554,-0.20842807,0.02056464,-0.21687113,-0.24659503,-0.26734543,-0.038533118,-0.014916149,-0.07533252,0.039770894,0.15571213,-0.036180384,0.036047064,0.027509145,-0.14229777,0.11236256,0.19825338,-0.29340935,0.08273122,-0.060625527,-0.042521287,-0.041323822,0.04983505,0.16549616,-0.21796568,0.025701292,-0.18992557,0.17651132,0.066026464,-0.12619807,-0.0005572897,-0.31999183,-0.17069726,0.2176961,0.021285659,-0.13469857,-0.27835485,0.066424154,0.31567198,-0.18566012,-0.08917181,0.15808573,-0.084054165,0.07164234,0.09441288,0.21245416,0.15627313,0.2561,-0.22394952,0.081719175,0.15847312,0.012237289,0.05773814,0.021671923,0.09405312,-0.026320523,0.060016982,0.16308475,0.17587991,0.012534869,-0.1158619,-0.052435108,-0.12484195,-0.04972381,-0.240508,-0.071990155,-0.011978394,-0.067628875,0.086130194,0.048494842,0.26468202,-0.10261077,0.031644225,0.2251205,-0.037945077,-0.028901068,-0.0011267551,-0.057277277,-0.09921031,-0.20012362,-0.0359157,-0.11206641,-0.24442728,-0.1411169,0.0019693188,0.06001102,-0.16359472,0.049699996,0.04323634,-0.07194412
-0.0640023,0.0627289,-0.06475267,-0.20480447,-0.27736577,0.08012044,0.104551494,0.06282791,0.053498488,-0.023374176,0.03378596,-0.11921085,0.14736994,-0.12600453,-0.03769537,0.16894856,-0.1555867,-0.07548358,0.30865896,-0.08885634,0.10056964,0.08286052,0.11297699,-0.016967608,-0.05593645,0.03185365,-0.07103629,-0.107305795,-0.068439275,0.23423195,-0.03740931,0.0112484265,-0.024092244,-0.15958427,-0.22121404,-0.09180801,0.13596524,-0.29046828,0.18352251,0.09994066,-0.21401757,-0.13697347,-0.1691935,-0.052875698,-0.111658484,0.24969251,-0.2117282,-0.03856125,-0.0033906177,0.19534282,-0.18821767,0.014757967,-0.064336,-0.12529957,0.18523915,0.19933015,0.019053563,0.04525766,-0.05813776,0.03379017,-0.11600054,-0.1396441,0.115120396,-0.22443901,0.07994603,0.09147697,-0.024908556,0.16363925,0.0921797,-0.04867797,-0.06828972,-0.018170564,0.23457897,-0.02825423,0.17108001,-0.054783873,0.064265795,0.1551578,0.23366117,0.09700519,-0.10909761,0.14328311,-0.27866873,0.18396664,0.21383661,0.026709892,0.168523,-0.027918607,-0.05844048,-0.18084957,-0.05042855,-0.08761815,-0.018679956,-0.12597096,-0.11296218,0.2764674,0.30624124,0.075471625,0.122355305,-0.21050431
-0.06706833,0.1992537,-0.08708442,0.059975844,-0.13783388,0.25031286,-0.022687418,-0.09796348,-0.23073477,0.051365,-0.25918144,-0.09497641,-0.3249122,-0.12869447,0.12651077,0.18858302,-0.117220156,-0.061506793,0.035609737,-0.1971268,0.21187408,0.015265085,0.1902452,0.058296777,0.19987205,-0.11046613,-0.24040747,-0.13685744,0.09939512,-0.12011338,-0.111482635,0.1175213,-0.29418135,-0.11861426,-0.10989207,0.0151692815,-0.21266708,-0.048949108,-0.06689076,0.05368239,0.11953935,0.12740088,0.15618128,-0.022160683,-0.22917344,-0.1193475,-0.11226059,0.06332122,-0.02185381,-0.17757633,-0.12098497,0.08574916,0.070234284,0.04437996,0.16645913,0.2183043,-0.052775573,-0.12817708,0.035295457,0.008949663,0.31818265,0.06335622,-0.088564664,0.08902298,0.17364535,-0.09567739,0.18835154,-0.22041236,0.13769165,0.08264999,-0.26279357,0.026875269,-0.1004091,-0.278606,-0.16300954,-0.22208647,0.057177987,0.07837682,0.02882101,-0.07576897,-0.14607577,-0.054348525,-0.30387554,-0.12145587,0.119880594,0.046610065,-0.0281457,-0.042417638,0.1079383,-0.12998511,0.0739637,0.027721325,-0.06570609,-0.05560119,0.28212857,0.03315315,-0.040178385,-0.25356779,0.13694492,0.05764333
0.13111661,-0.13612261,0.016106166,-0.059397455,-0.06830214,0.16319156,-0.039250128,0.12073462,0.13035977,0.07977779,-0.23297916,-0.18168476,0.04286206,0.03319031,-0.0028014195,0.11927812,-0.115835615,-0.1464081,-0.0722014,-0.04927085,-0.12616189,-0.050804228,0.16055961,-0.055175602,-0.078531,0.09303944,-0.00044464774,0.18655083,0.015268691,-0.013588893,-0.06272383,-0.0508822,0.20391452,0.035568982,-0.114785284,-0.27176893,0.027537923,0.11339557,-0.033128753,-0.27879092,0.29161182,0.10128526,-0.060509544,0.2812141,0.06814765,0.041628566,0.10645061,0.051865272,-0.027081138,0.12656628,0.11742859,-0.18222448,-0.13137333,0.25294203,0.11767879,-0.023847643,-0.08493952,0.14558525,0.2909886,-0.055478744,-0.1765965,-0.031564295,-0.032420013,0.009533356,0.14487113,0.100316465,-0.011955265,-0.079505846,-0.18955353,0.1176999,-0.017161893,-0.0054610963,0.10730082,-0.13532095,0.1580901,0.05512289,-0.07716384,-0.30966282,-0.21164984,-0.058105346,-0.13621163,0.33383027,0.042805176,-0.27857557,-0.19940124,-0.1777967,0.29403532,0.16265112,-0.06273591,-0.0039372467,0.22978833,0.05429907,-0.17487733,0.051006477,-0.21098348,0.21244152,-0.0973354,-0.0026414876,0.1014904,0.045041386
-0.21599904,0.010050427,-0.059265863,0.042195998,-0.04102835,-0.048983842,0.13793254,0.21494445,0.24250224,-0.22041176,0.06250229,0.03315825,-0.22593753,0.21303299,-0.09102084,0.3811398,0.04923759,0.08064186,0.004705442,-0.095003314,-0.061083205,0.06826487,-0.2992976,-0.17521301,-0.09759837,0.15591925,-0.1319351,-0.03109951,0.29866982,0.18769711,-0.07997614,0.03814282,0.05170204,0.14459527,-0.03102201,0.066061184,0.2901478,-0.055996142,-0.021666266,-0.17172398,0.11752416,0.06832164,0.113226116,-0.17433861,0.050107032,0.16620037,-0.120328896,-0.07918985,-0.09883695,0.010659778,-0.25224787,0.053107962,-0.062397443,-0.10774057,-0.17731395,0.10654859,-0.14076605,-0.04486646,-0.0035718044,-0.16838633,0.102237225,0.24693176,0.018868748,0.12091941,0.022675624,-0.0065460135,-0.1117297,0.06259793,0.2981336,0.18710297,0.0031532429,0.15683945,0.031225959,0.03260111,-0.13857175,0.095342346,0.045965686,-0.12761725,0.2396347,0.009806338,-0.14422946,0.022246249,-0.09567997,0.11787189,0.0025575005,0.08883746,0.03305674,-0.16927464,-0.10622645,-0.14944354,0.0685516,-0.12876056,-0.24335916,-0.04456017,-0.29686967,0.013615022,-0.12809326,-0.034614842,0.025131416,0.08575087
-0.008135388,0.23843645,-0.031347003,-0.18605478,-0.038331527,-0.22266556,0.0917605,-0.0521475,-0.10337668,0.09433803,0.119965225,0.24643616,0.27279726,-0.08910291,-0.12685499,-0.08746119,0.1838109,0.10241068,0.0896955,0.053941473,-0.108774535,-0.034010857,0.31524432,0.0055179074,0.051833466,-0.21344984,0.021758433,0.0617119,-0.20191945,-0.08256147,0.011591667,-0.17180929,-0.15101457,0.22485732,0.061580826,-0.19761012,0.018220631,-0.12528838,0.22693495,0.0628888,0.106441975,0.059111543,0.08936972,-0.17290436,0.065935254,0.16804552,0.11037183,0.009874808,0.25383896,-0.034436297,0.21021888,0.026160618,-0.13440485,-0.31373438,-0.09528245,0.03874616,-0.003964224,0.27091715,-0.1452179,0.13739417,0.13465966,-0.07606941,0.09457074,0.12008369,0.16293164,-0.01944832,0.26160374,0.16028962,-0.09194443,-0.20432328,-0.19461074,0.08690487,0.08402151,0.03642118,0.0379668,0.30494395,0.058591496,-0.15209748,0.02734336,0.08246613,-0.12339594,-0.2789495,0.13592689,0.015984993,-0.025410611,-0.14375705,-0.16137765,0.122541785,0.07794847,0.06902236,0.047282,-0.17204253,-0.03725454,0.1872896,-0.121407375,0.119397126,0.065934844,0.009433438,-0.2817133,-0.07994843
-0.16274461,0.029066198,0.09154435,0.31653214,-0.045119416,0.15784396,0.17521545,0.17805384,0.030602254,0.08356058,-0.07555464,-0.13938999,-0.14377794,0.27543315,-0.15947504,-0.027893705,0.048925865,-0.03692574,0.040350653,-0.040755827,-0.23286676,-0.21779236,0.07440265,0.09017013,-0.010907091,0.11015588,0.1641389,0.022360569,0.17897001,0.096825175,-0.054917753,-0.27783942,0.18460865,-0.18006544,-0.2786139,-0.05273943,-0.044314,-0.15681686,0.21125712,-0.0044041565,-0.06768342,0.07872022,-0.04836559,-0.025937287,-0.058912896,-0.0700556,0.1905507,0.09292222,-0.028330402,-0.27257228,0.021490859,0.075813144,0.05947549,0.035209253,0.15137471,0.18879364,-0.019254478,-0.11822255,0.08466967,0.28167355,0.012948121,-0.114753716,-0.018234883,0.15762207,-0.016500963,0.026932798,0.2186512,0.11461001,0.037987217,-0.2918949,0.115153216,-0.031100404,0.23082632,0.030785248,0.12780307,0.044643138,-0.0152501045,-0.039209366,-0.011188067,-0.11440695,-0.1402699,-0.29334173,0.08535244,0.06028192,-0.057269312,0.06556039,0.3214574,0.03844935,0.04090303,0.007229249,-0.18721008,0.094284855,0.077781074,-0.07174328,0.046571963,-0.21748063,0.04752551,0.00012654762,0.12705193,-0.116380155
0.13726528,0.063067004,-0.080884874,0.08023206,-0.14750084,-0.07864261,-0.03704888,-0.029286666,-0.29707742,-0.2707935,-0.014558739,-0.17000683,-0.016201261,-0.115185015,0.01345206,0.047873538,0.08360103,0.06853857,0.14010903,-0.18639454,0.12223034,-0.3272269,-0.10776878,0.0011494274,0.14131418,-0.1234428,0.15471049,0.054581385,0.17633978,0.13598026,0.08789786,-0.043942627,0.22367576,-0.070428975,-0.09346939,0.025020527,0.21529716,-0.019256536,-0.039084844,-0.19671144,-0.17169237,0.117650785,0.13803023,-0.16335617,-0.10364046,0.10775829,0.1054466,0.010755349,-0.031307314,-0.013571146,-0.03141534,-0.20765361,0.07575405,0.04402113,-0.09355554,0.00028777524,-0.14501885,-0.05479332,0.30466005,-0.21810898,0.1751404,0.30396357,0.20439845,0.0032669457,0.21249585,-0.020860698,0.30471608,-0.2659954,-0.010917513,-0.2667604,0.026535098,-0.24089192,0.17828916,-0.1659089,-0.16132274,0.021152375,0.09650963,-0.27032655,-0.024977868,0.10632913,-0.033433683,-0.119862266,0.12109766,-0.091236524,-0.014761316,0.21489556,0.17513818,0.00242782,0.10214178,0.041603874,-0.07629895,0.03267615,0.19993342,0.13287695,0.25531128,-0.069151156,0.04500042,-0.009680905,-0.0788901,-0.10262404
0.2750958,0.26235956,0.10263052,0.07082061,-0.26567167,0.121747375,-0.09846792,-0.07848802,0.17543958,-0.09073414,-0.038309325,-0.010907411,-0.10590626,0.076345176,0.116685696,-0.0035146987,-0.113434225,-0.16791555,-0.2368281,-0.03098434,-0.09552041,-0.15413924,0.024789426,0.2588266,-0.11048927,0.05869859,0.022138333,0.1852038,0.102894574,0.26890656,0.048031386,0.01960631,-0.2859247,-0.23521215,0.11335064,0.17965195,0.08275891,-0.09874676,-0.059792038,-0.04836337,0.26501268,0.08016072,-0.110272974,0.07041926,-0.09598247,0.06350561,0.22142208,0.246145,0.06962189,-0.26220626,0.10029864,-0.10237548,0.13500291,0.16752623,-0.08630786,0.036100265,-0.014555916,0.08278549,0.002559232,0.32720467,0.08858999,0.13966198,-0.060912214,0.004942359,0.040724106,0.050140824,-0.12616153,-0.027925244,-0.20549169,0.09415315,-0.0764832,-0.18366377,-0.13527122,0.084214374,0.035881065,-0.11663978,-0.10432624,-0.21366593,-0.06411566,-0.1615951,-0.1529466,-0.2144365,-0.05096497,0.17525272,0.07832463,0.11915204,-0.20637782,-0.013283358,-0.016617376,-0.0191301,0.14667264,-0.06102076,-0.03747579,-0.24423487,-0.15440865,0.08515126,0.20796923,-0.053074308,0.3199878,0.12584868
0.14934002,0.0071305637,0.09947338,0.0753994,-0.023151943,0.034032673,-0.08408476,-0.1079845,0.08003345,-0.031099217,0.049398653,-0.07034095,0.10380254,0.119598456,-0.026041973,0.018881325,0.025931265,0.016640782,0.10434472,0.14733845,-0.06386565,0.0700339,-0.13616383,-0.11160134,0.16248573,-0.018128937,0.112209834,-0.030831695,0.10642381,-0.107019715,-0.05948887,0.18650264,-0.036534812,-0.08291273,-0.26214662,0.2638607,-0.012386296,-0.10102184,-0.24440923,-0.23502342,0.08562141,0.20207258,0.2867161,-0.044630878,0.013897882,0.1104534,0.14134674,-0.026771925,-0.029035132,0.22950967,-0.14337054,-0.1452037,-0.011409334,0.23607795,0.19822128,-0.031578254,-0.25717577,-0.117615044,-0.04328847,0.09016584,0.1557113,0.2930798,-0.08212807,-0.2841716,-0.001815175,0.07971318,-0.021568285,0.17205092,0.19713363,-0.04754972,-0.00030031343,-0.17163344,0.14742534,-0.25037232,-0.033530556,-0.061020035,0.114818566,-0.08059102,0.004397923,0.10631163,0.32177788,0.013811872,0.13948677,-0.21484981,-0.10513773,-0.06520594,-0.18826675,0.10750452,0.18366727,-0.20791368,-0.037281785,0.089267485,-0.14861941,0.019176396,-0.0406609,-0.17641453,0.10082933,0.17116839,0.18550152,0.11381331
-0.032255866,-0.14074756,-0.033851292,-0.060380206,-0.08563331,0.121108696,-0.06609114,-0.23524489,0.02898033,-0.23661397,-0.01779566,-0.17848909,-0.16665103,0.18665487,-0.19579688,0.124657944,0.14942406,0.17230818,0.14100604,-0.16074353,-0.16130903,0.03133139,-0.07532722,0.04628939,0.20583437,-0.11201007,0.11815551,0.17359675,0.19792724,0.11613615,-0.022371814,-0.039780498,-0.033269193,0.098301746,-0.07486122,0.073703356,0.058256567,0.034280386,-0.22781663,0.008578547,-0.16466887,0.12685278,-0.16084893,0.12826513,-0.0032562444,-0.041383784,0.27655125,0.27354118,0.036611155,0.14335136,0.2435377,-0.25195235,0.020931253,-0.18961671,0.24182911,0.15790984,-0.2711541,-0.0014688321,-0.10623452,-0.1820693,-0.09634466,-0.0572894,0.02801161,0.10017197,-0.08855596,-0.22806273,0.3082526,0.18650174,-0.22905865,0.2568257,0.07927318,0.21127671,-0.16195461,0.14668566,-0.11395678,0.07595007,0.15120153,-0.069694534,0.20203148,-0.07043126,0.18196534,-0.11890386,-0.046070296,-0.01559065,0.10998363,0.25738525,-0.21399753,0.0026244856,0.14290231,0.14008081,0.0683775,-0.18792163,0.034848325,-0.21227655,0.1551124,-0.027502714,0.2868296,0.07536074,0.06818874,0.0016562439
-0.09714754,-0.15004796,0.047096875,-0.23484325,0.16040824,0.2594105,0.22890832,0.10820223,0.03432112,-0.092904456,0.20785013,-0.01741765,-0.09094167,0.08995045,0.13770674,-0.050557632,0.066681795,0.08882829,-0.09272847,-0.008954161,0.043209698,0.011637297,-0.15324034,0.05900295,0.29015237,-0.08401849,0.09378766,0.17475319,-0.111711,0.19006263,0.11844451,0.19041047,0.07817286,-0.18135749,0.22898693,-0.059876263,0.16229744,0.082258835,-0.044736218,0.07969855,0.15906361,-0.20729452,0.15240937,0.16850969,0.047654193,0.023026938,0.054029882,-0.08852706,-0.2640606,0.08354622,0.06492446,0.12509434,0.0045359377,0.027062854,-0.105957754,-0.12173597,0.06969943,-0.21874613,0.086978234,0.010021203,-0.11403515,0.2319071,0.064906836,-0.116445325,0.0052424166,0.18021174,0.029296907,0.21991049,0.11474953,0.16144815,-0.27965948,-0.04929108,0.137404,0.12949707,-0.10650136,0.06970769,0.23513445,-0.136648,-0.08819558,0.20228978,0.30766284,0.039004385,-0.24810265,0.24271116,0.006101788,0.09389704,-0.017042601,0.13044383,0.10566647,0.19981107,-0.06217207,0.093482144,0.11230544,0.12218495,0.038203392,0.16274148,-0.113525815,0.29948658,0.15119123,0.11933013
0.08064307,0.21692142,-0.17373356,0.19560257,-0.18848428,-0.15381959,-0.03442776,-0.17545736,0.19004653,-0.021031268,-0.030052433,0.19015858,-0.28335428,0.18095315,-0.2105352,0.014867455,-0.16916205,0.012100651,0.085621014,-0.13495807,-0.0038364967,-0.19377947,-0.048291083,-0.029244032,-0.08166149,-0.13772798,0.08202748,0.2836169,0.13032404,0.28643015,-0.123958856,-0.18039581,-0.22015099,0.04339875,0.018444398,0.20516531,-0.33382827,0.018746426,-0.22801273,-0.030298507,-0.012091957,-0.06752377,-0.074498996,0.054696716,-0.16523081,0.041898936,-0.01072109,-0.049912132,0.009330504,-0.06737,0.006728774,-0.1373075,0.03475375,-0.20192598,0.09567968,-0.1307558,-0.010516789,-0.24264106,-0.13800429,-0.03255415,0.16783409,-0.18230586,0.114760734,-0.056546513,-0.021349644,0.15437894,0.016814498,0.008880795,-0.07908457,-0.10178707,-0.05544183,-0.18933532,0.32150492,-0.09473256,0.08242511,-0.27155033,0.11061735,-0.10773813,-0.03399346,-0.07565384,-0.016777476,0.00741531,0.072142534,0.09384419,-0.15396233,-0.05883419,0.106678076,0.0786471,0.22434649,0.1934046,0.12985109,0.08657355,-0.058169983,-0.042664085,-0.10895697,0.041718114,0.011314998,0.031125847,0.28427103,0.085552454
0.025827413,-0.13838953,0.0426364,-0.046941396,-0.054933537,0.070856646,-0.18218434,0.16284187,-0.1296369,0.13169229,-0.117771104,0.22874297,0.026318522,0.13827844,-0.075606905,-0.0663968,-0.27258387,0.09499556,-0.11028205,-0.05361272,-0.2292363,-0.08677414,-0.12325765,0.032479357,-0.05684398,0.020667251,-0.07675732,0.19920787,0.21896604,0.0128709795,0.07901882,0.30986854,0.097561024,-0.10485493,0.1541999,-0.086413234,-5.9160826e-05,0.015741086,0.09330478,0.20315629,0.069852844,0.11424958,0.05377742,-0.23527977,-0.022667324,0.01828605,0.060649693,-0.07322448,0.036347397,-0.20030582,-0.1454578,-0.1112695,-0.014348279,0.083592355,-0.28071216,0.16272889,0.050593242,-0.17927329,-0.17464416,0.045470577,0.1349895,-0.11732324,0.16595636,0.22129512,0.25082764,0.083910145,-0.20657033,0.009452444,0.21379775,0.16390651,-0.0014765057,-0.22730663,0.14755525,-0.21447982,-0.13392131,0.02319039,0.07227504,-0.114281096,-0.26446772,-0.15141563,0.08705045,0.06506845,-0.1074808,0.047169108,-0.00079301896,0.04876672,-0.18247633,-0.23491006,-0.042925395,-0.14624067,0.070574164,0.010676693,-0.022107216,0.09705268,0.065549105,0.14549638,-0.08264877,0.2547753,-0.06345482,0.22486153
-0.2024075,-0.066040836,0.14094433,0.059001476,0.1571388,0.1315712,0.1042109,-0.042723034,-0.110097684,-0.16391788,-0.28029174,0.13547993,-0.14528158,-0.0036775023,-0.11245085,-0.046987567,-0.017981997,0.17467122,0.27484342,0.06636036,-0.009598514,0.11739692,0.15374106,-0.08840944,0.16389221,0.15832902,0.13489512,-0.18211973,0.057419974,0.010338072,0.22747982,-0.26373035,0.22099046,0.14227235,0.16709457,0.008868933,-0.20811397,0.08495225,0.1395573,-0.24076654,-0.039524924,-0.049476836,0.08184934,-0.15463397,0.2801236,-0.26982397,0.07118766,-0.0507039,-0.16574554,0.030827444,-0.07248224,-0.25840524,-0.25036308,0.10430017,-0.028975748,0.1388283,0.24919768,-0.09509289,-0.30572546,-0.055717044,-0.037050672,0.19060493,-0.023044158,0.16827661,-0.23233728,-0.05200874,0.0046501253,0.17286429,-0.14965391,-0.1504543,0.08948933,-0.058953743,0.057796296,-0.056699518,-0.03421128,0.11870693,0.03822057,-0.13852493,-0.05841584,-0.16066371,-0.07552766,0.0057503046,0.13437144,-0.056011103,0.060560387,-0.05222946,0.024886705,-0.06959058,-0.28213674,-0.21094033,-0.17631647,0.11881549,0.2870362,0.025438223,-0.1734136,-0.0038483748,-0.0383772,-0.15506372,0.21911956,0.2212641
-0.0012442799,-0.07370118,-0.14534833,-0.15860689,0.016356979,-0.17521866,-0.018799858,0.03691448,-0.025476214,0.2832692,0.018138487,0.014244208,0.14482172,-0.28334874,-0.23761132,0.124090485,0.13454312,-0.16115895,0.1544587,0.060059685,0.021951908,0.22499694,-0.26538536,0.15127267,-0.21159895,0.09608268,0.24493313,-0.0677696,-0.19380528,-0.044429712,-0.015005617,-0.045083232,0.0029632035,0.01636552,0.24001211,0.11019437,-0.2142168,0.061994392,-0.010920703,-0.088033505,-0.029946938,0.023795571,0.25083587,-0.22027765,-0.022981899,0.16212292,0.15611224,-0.18092714,-0.21820615,0.17354171,-0.070929445,0.11529855,-0.25032064,0.04872597,-0.03768758,-0.11043002,0.07815059,-0.14529757,-0.035150796,0.033111177,0.0006715798,0.26454407,0.19067906,0.07241189,-0.051140245,-0.14178103,0.0013343038,0.045862913,0.109651305,-0.097733416,-0.18463288,0.18298054,-0.018722234,-0.16572852,0.06599773,0.15096854,-0.18274154,-0.2575133,0.23072505,0.21187016,-0.22466259,-0.21164426,0.15542157,0.081647165,-0.075604185,0.20451008,0.09866843,0.17055857,0.016964938,0.0218036,0.25512958,-0.051806584,-0.06450622,0.0924885,-0.07794183,0.019947251,0.021224663,0.06893816,-0.06794382,-0.010906652
-0.30807585,-0.0035924586,0.036633067,0.104890205,0.08907044,0.105843104,0.1659348,0.08861831,0.24611172,-0.039846163,-0.047120165,-0.022613628,0.120363064,0.20889096,-0.024137106,-0.107940376,0.11059044,0.2554782,-0.21659893,-0.12836231,-0.052129146,-0.09306997,0.10615731,0.05369126,0.017537445,0.01160703,-0.12921844,-0.17380585,-0.30831096,0.05278282,-0.12190979,-0.1955251,0.253845,-0.08678689,0.12939093,-0.07088566,0.08187646,-0.048395544,-0.12105187,-0.15740992,0.15968232,-0.10762385,-0.08076883,-0.06698418,-0.0543757,0.0588605,-0.04760938,-0.0035650989,0.047912695,0.12844501,-0.023410793,0.10113815,-0.07644681,0.12313297,-0.058179952,-0.07134112,-0.04568023,0.2828043,0.07686241,0.28021714,-0.107578404,0.3228065,-0.24586588,0.11648661,0.04318434,0.11322484,-0.039017104,-0.053007063,-0.15628496,0.0038405266,-0.076397575,-0.0011493779,0.021549445,0.19099769,-0.060239583,-0.13611336,-0.15610285,0.012389079,0.0355488,-0.0012547623,-0.21182701,-0.0071120732,0.28362632,-0.079984106,0.17632847,0.048880268,0.12467937,0.033815153,0.05186847,-0.07017865,0.1077831,0.2520838,0.078700945,-0.28124943,-0.17449208,-0.11967843,0.056620024,-0.09497428,-0.105864555,0.24463552
0.15740451,-0.08807118,0.085403696,-0.015180828,-0.03779169,0.13241643,0.13273013,-0.111830235,-0.09998785,-0.118350424,0.119524635,0.017360607,-0.14258972,-0.048766516,-0.052438885,-0.10842492,0.09938521,0.095115095,-0.09515939,0.094127715,0.022348883,-0.070748396,-0.14941381,-0.020846922,-0.14402717,0.18946682,-0.065317705,0.05413874,-0.092018925,0.06811071,0.007312958,0.19301382,0.08229782,0.18143633,-0.09003013,0.04931093,-0.008808008,0.14788419,-0.04169677,-0.14199665,-0.18515266,0.06709482,0.25503182,0.119768895,0.10512073,0.13075238,-0.064960055,0.11058475,0.24179883,0.054331962,0.16066793,-0.009560604,0.055725653,0.004336827,0.068276204,-0.059322238,0.29469272,-0.017629921,-0.30111116,0.10174005,-0.10663194,-0.13617648,0.12146414,-0.08299029,0.3077731,0.12805554,-0.23765692,0.073590495,0.20140849,-0.21457307,-0.041322604,0.04952199,-0.061419103,0.2384499,0.053236812,-0.12591247,0.19667082,-0.1400111,0.19308788,0.1481066,0.25269705,0.10002677,0.033765458,-0.037138205,-0.21197164,0.013626108,-0.28521165,0.02102002,0.09769829,-0.014359459,-0.044606175,-0.16859107,-0.16821465,-0.074475,0.12109984,-0.23151906,-0.17865428,-0.022600632,-0.104334034,0.20152055
-0.014846269,-0.23682955,0.027817644,-0.07266151,-0.23060508,-0.03150164,0.009852254,-0.0075730346,-0.068973646,-0.11891059,-0.032451775,-0.29982507,-0.2618363,0.012490296,-0.19776972,-0.268821,0.29199687,-0.012332251,-0.1092935,0.07595908,0.21742372,0.17689328,-0.044730708,0.14105304,-0.0521874,-0.18707132,0.0643689,-0.14801271,-0.18615921,0.05234124,-0.02125217,-0.16111162,-0.17762993,-0.107414514,-0.010589711,-0.1386849,-0.17699233,0.30943713,0.10284688,-0.11004015,-0.19232059,-0.171703,0.17707111,0.1372425,0.1420549,-0.0060485983,-0.07977225,-0.111484446,-0.054764632,-0.027949696,0.07181258,-0.25235525,-0.059656747,0.03602004,-0.08752885,-0.20506985,-0.24475902,0.053457938,-0.16621627,0.09377336,0.012886473,0.10723733,0.010388535,-0.25182378,-0.14314546,-0.049906947,-0.21725506,0.14899674,-0.19953169,-0.009907747,0.043669604,0.28375822,0.04692282,0.16771892,-0.08656728,0.21708047,0.02227555,0.05782441,0.13646637,-0.020361044,0.21061572,-0.04025727,0.11772014,0.03729002,0.1584355,0.0823842,0.15645212,0.06132177,-0.033873215,0.1992695,-0.17431386,-0.25946566,-0.083635,-0.098602824,0.25124365,0.2100394,0.039487652,-0.046545785,-0.31380624,0.045402583
-0.03662865,-0.01242589,-0.052937184,0.060985386,0.05416037,-0.12954502,0.029721824,-0.029228665,-0.05979769,0.061040387,0.20817329,-0.11329811,0.0847906,-0.218279,-0.0029717071,0.21017897,0.032017928,-0.03888098,-0.13324127,-0.1354017,-0.068051666,-0.23673433,-0.0985216,-0.0061109196,-0.2929125,-0.026506284,-0.03888748,0.19672303,-0.19143988,0.16037907,-0.20777038,-0.14381035,0.027505588,-0.04904729,0.09927624,-0.13991162,0.14213756,0.14134291,-0.19855933,-0.0068381806,0.26076832,-0.08992931,0.09599824,-0.10603455,0.004217036,0.21152279,0.12540084,-0.13495488,0.18409026,-0.1845435,0.14905834,-0.13997355,-0.1389316,0.11733514,-0.10698905,-0.16333961,0.08126973,0.09649787,0.13394973,-0.18866141,0.044897083,0.06001021,-0.29650983,0.16964619,0.2925531,0.107735366,0.12330332,0.22728805,0.1181794,0.3719931,-0.04191926,-0.030010441,0.10840401,-0.023566825,0.035621066,-0.17870332,0.16062321,0.0069787675,0.08378825,-0.10565162,-0.08976461,-0.004807458,-0.20916,0.13671386,0.058907587,0.27700108,-0.022136185,0.14177124,-0.089266516,-0.03673403,-0.11229974,-0.12641051,-0.290057,-0.14539942,-0.090921186,-0.11205118,0.19202727,0.24013016,-0.08172112,-0.103139676
-0.11059919,-0.114241675,-0.14178804,-0.23301591,-0.1781596,0.099726394,-0.076935604,-0.028935416,0.062233966,-0.02238607,-0.014345702,-0.21827608,-0.1293123,-0.075666055,0.11069075,0.19775507,-0.31619325,0.10496665,0.035204038,-0.022265526,0.037584268,0.17467056,0.15467289,-0.11934065,-0.11039065,-0.073492445,0.0065521924,0.11480395,-0.2174254,-0.28673202,-0.10191223,-0.26992017,-0.16956107,0.017317228,-0.14151853,0.22678128,-0.029895768,0.28209144,0.1940905,-0.12726088,0.019279143,-0.032658063,0.045569945,0.09265968,-0.16732678,-0.094664305,-0.014174602,0.06400499,-0.09154747,0.10722114,-0.03242966,0.20771857,-0.13361143,-0.044288017,-0.024337742,0.07685654,-0.06921535,-0.22115766,-0.23184288,-0.08223967,-0.0590899,-0.0066771707,0.03537908,-0.004547558,0.09564663,-0.2580488,-0.010610916,0.015218368,-0.1945059,-0.0022895187,-0.039096635,0.0077404995,-0.11641557,0.094712645,0.01584472,-0.08519493,-0.24536103,0.10621706,0.06682196,-0.010790217,0.005804353,-0.044782765,-0.15857321,0.0401211,-0.27904832,-0.0834411,-0.058774922,-0.19667885,-0.07642235,-0.12171062,-0.101710364,0.043168366,-0.18999209,-0.10228992,0.10375688,-0.070839725,-0.19135146,-0.11825153,0.090665385,-0.1485578
0.0536213,-0.038081504,0.028338214,0.052607972,-0.033688024,0.1499513,-0.17032392,-0.14219649,-0.118152715,0.15209258,-0.2841015,0.1517882,-0.16396666,-0.090753935,-0.051672865,-0.048959572,-0.021256294,-0.011092991,-0.2883515,0.31768265,0.02117779,0.115103744,0.040624507,0.14633995,0.16853644,-0.18667556,-0.11941731,0.014622337,0.18530494,-0.045421507,-0.15375541,-0.21578495,0.028439024,0.20949435,-0.044368472,-0.06824125,-0.21490966,0.19569574,-0.16433369,-0.29053164,-0.023795668,0.05204375,-0.025613692,0.17532282,0.13957445,0.07867324,0.08552905,-0.11186441,0.053951193,-0.20080635,-0.03669685,0.09577663,0.08825175,0.060610514,0.10854959,-0.105068125,-0.08581128,-0.049626205,-0.022289855,0.07204663,-0.25921753,0.23514856,-0.006419186,-0.019784432,-0.22488329,0.16601063,0.045875717,0.041588597,-0.26570866,-0.07150245,-0.1805042,-0.0016765556,0.0058390577,0.16403905,-0.117724806,-0.068111084,0.13811724,-0.24370626,0.025146471,-0.21314922,-0.007339227,-0.20648476,-0.27273256,0.054334324,-0.061249405,-0.22117995,0.06981937,0.08476223,-0.21148257,0.12480067,-0.007741298,0.19258192,-0.24357206,0.1843454,-0.004884377,0.17853926,0.00089049217,0.027484298,-0.101230994,0.03386458
0.27158117,-0.1248125,0.05568256,-0.27967888,-0.27479663,-0.25847012,-0.26848432,-0.33220693,-0.17760995,0.13091718,0.09968018,-0.12684731,-0.16967955,-0.06883505,-0.085930154,-0.21388921,0.10563893,0.05883019,-0.021138983,0.11027208,0.06126626,-0.27063298,0.058359955,-0.026386714,-0.003146904,0.2695575,0.1190394,-0.0056747124,0.1724303,0.014265152,-0.13771506,-0.034127083,-0.04666239,0.09739208,0.06457809,0.1962198,-0.04231455,-0.20994326,-0.19271132,0.17220342,0.22292359,0.08389116,0.12132501,0.26051,0.0022121123,-0.018287018,0.15053631,0.14154942,0.003331453,-0.114558004,-0.31335762,-0.04681269,-0.006793053,-0.0232343,0.22366284,-0.13346116,0.053921103,-0.17542292,0.22015704,-0.02620946,0.26511955,0.041861106,-0.17369655,-0.10848436,-0.19199944,-0.18083997,-0.03672253,0.012744023,0.010989843,-0.038472272,0.041696787,0.1307905,-0.03890839,-0.007929465,-0.26224428,0.058998026,0.07374477,-0.1536679,0.24160704,0.19358481,0.20280835,0.0045526205,-0.0040224353,-0.20734982,-0.031391338,-0.10427525,-0.10082294,0.07607457,-0.04004864,0.16640772,-0.021422524,0.055183306,-0.05465062,-0.017998544,-0.08486957,-0.10124211,-0.033014275,-0.15681307,-0.076032445,-0.2133756
0.14914232,-0.050807487,0.056848574,-0.21710491,-0.15512633,-0.055410907,-0.06052216,-0.041155387,0.1486559,0.096768916,0.0060410057,0.12697478,0.13915262,-0.06299097,-0.038153734,-0.029211668,-0.032595895,0.06678805,0.25462952,-0.15143512,-0.14978312,-0.25034833,0.003288125,0.21850072,0.07093839,-0.024498712,-0.10174125,0.015532738,0.070826985,0.005359636,0.23972113,0.098206624,-0.09710789,-0.21047978,0.15954123,-0.0148025835,0.1680963,-0.15254264,0.038519353,-0.11628749,0.009983156,0.10640583,-0.2854232,-0.24814674,-0.031511433,-0.20324403,0.06563894,0.21791492,-0.23022042,0.14354157,-0.28776234,-0.26300183,-0.08124049,0.08492038,0.13722844,0.062223278,-0.05875665,-0.15525967,0.27371868,-0.0066819815,-0.14736997,-0.21627417,-0.13588074,0.2974478,-0.14274828,-0.050468534,0.05512664,0.03630907,0.11850846,0.15888079,0.07122038,0.019602655,-0.049963243,-0.010843241,0.0051407283,0.037831232,0.03894903,0.2161441,0.025512112,-0.08294205,0.12302969,0.25499097,0.0749276,0.13483734,0.07751137,-0.046653457,-0.03323606,0.15184547,-0.21074565,0.014707739,0.12171989,0.10283649,-0.094797015,0.20272769,0.006424252,0.055395864,-0.1363346,-0.033414934,0.16737822,0.25427204
0.20536485,0.037100896,0.029515333,-0.041259743,0.09302312,0.041593134,-0.051191922,-0.18488607,0.030617995,0.022108305,-0.13711187,-0.12943079,-0.01982438,0.19488586,-0.20780712,-0.18092258,0.13161635,0.25201765,0.1845043,-0.27996522,0.14161643,0.058941998,0.1513171,0.16037884,0.18157636,0.11573259,0.057284325,0.15346324,-0.14411901,-0.095922746,0.00027484808,0.2690185,0.09246363,0.109180674,-0.104122445,0.047906216,-0.17827018,0.24045762,0.118802294,0.059921823,-0.28374407,-0.11168059,0.041792836,0.11633365,0.10300505,0.1901829,-0.3182584,0.10008737,-0.14210543,0.0443,-0.0088241855,0.30370587,0.11781984,-0.054406967,0.024200942,-0.04242575,-0.039884333,0.012717656,0.07647048,0.14555897,0.03134761,0.1173519,-0.16965115,-0.1000023,-0.06234997,-0.040049225,0.06431874,-0.065995745,0.075280055,-0.14269039,0.13826409,-0.26306787,-0.28888494,0.1666155,0.056239597,-0.04050557,0.08822144,0.15394942,0.07480198,0.07661759,-0.045687944,0.1288301,0.28950134,-0.07240061,-0.09675544,0.20159626,-0.22745173,0.0053161746,0.1488892,0.16095152,0.10136456,-0.3230076,-0.19933803,-0.22300427,0.031724922,-0.04289705,-0.23872985,0.11398444,0.09001998,0.0429298
0.022559352,-0.09892718,0.19765048,-0.18126376,-0.015206109,0.10729535,-0.023851663,-0.26714134,-0.008815397,-0.04304816,-0.00019747828,0.2973546,0.13220951,-0.1001346,0.08107713,0.24728186,-0.25418296,-0.042261958,-0.24021327,0.07709691,-0.20647371,0.025100956,0.24268703,0.017886871,0.2212528,0.16687441,-0.027353588,0.0900974,-0.030765004,0.09174023,-0.066576056,-0.00781348,0.06546312,0.19014998,0.069871984,0.0056857853,-0.021566961,0.2670513,0.07197518,-0.09111464,0.049431376,-0.085001536,0.12981907,-0.275027,0.05545324,-0.097437255,0.108972296,-0.23437606,-0.03183062,-0.028450657,0.15057449,0.061052468,0.040788114,0.052628845,0.04454081,-0.13569018,-0.013148753,0.032206178,-0.0034664918,0.10670103,-0.014963367,0.061680447,-0.03841143,-0.039120473,0.16242586,0.118494004,-0.259055,0.25833267,0.09153298,-0.13501844,-0.17582843,0.012277689,0.0867565,-0.067290224,0.029821176,0.13312815,-0.10366362,-0.0017553602,0.1527952,0.22324038,0.072490014,0.18666147,0.06438048,-0.18019214,0.25967547,-0.032221265,-0.15229712,-0.22671564,-0.21811624,-0.07905698,0.09120706,0.076560445,0.13160148,0.082794994,-0.09116191,0.03489839,-0.048812754,-0.13168721,0.11084619,0.14550981
-0.15658255,0.1221245,0.15602942,-0.1385967,-0.07690514,-0.0128228385,-0.17936377,-0.09890785,-0.058767118,0.1799519,0.038016975,0.024223153,-0.03377372,0.09185073,-0.0508679,0.19932339,-0.20202148,-0.21441987,0.036528096,0.007157252,-0.058720008,0.17860988,-0.06785998,0.12258312,0.025175804,-0.24509537,-0.020622835,0.09102076,0.087051116,0.12778415,0.1898342,0.0032140156,-0.2479071,-0.02252943,-0.30616075,-0.19687138,0.010190784,0.28227428,-0.13388675,-0.10078615,-0.075706124,-0.21526092,0.14314635,-0.11017655,-0.14283025,0.13396265,0.18360542,-0.06339931,0.0013166378,-0.264436,-0.19646545,0.15270698,0.20231724,-0.022942135,-0.12068242,-0.037988875,0.15442333,-0.24992791,-6.8579684e-05,0.05479809,0.12769829,-0.12820406,0.045382433,-0.07324668,-0.03061003,-0.08443365,-0.18852678,0.18187469,-0.12187966,-0.11105522,0.0097316615,0.25086048,-0.045286167,-0.19923884,0.20071934,0.17735659,-0.010409893,-0.15777285,0.19823842,0.19102482,0.0830063,-0.025213882,-0.17209907,0.13457268,0.002706811,0.08213879,-0.29435042,-0.036777258,0.10825515,0.0037645681,-0.028218081,-0.094850495,-0.20892522,0.1277335,-0.05182702,0.11332879,-0.091018006,-0.08541701,0.20209982,0.123701386
0.12754373,0.11648607,-0.0826448,-0.028294526,-0.16755475,0.2097467,0.3171109,-0.048564915,-0.15759495,0.04573024,0.16654105,-0.001797616,0.045732073,-0.11304827,0.06741962,0.18608023,-0.27325782,-0.04864752,-0.05093402,0.019418707,0.1909103,-0.009880628,0.1169304,-0.078428954,0.044437084,0.023671959,0.25644225,0.027805114,0.19337931,-0.13106489,-0.04569387,-0.12221565,-0.1722212,0.116105326,0.008011903,-0.28972185,-0.17320938,-0.14103352,0.22170322,-0.022829976,-0.069428265,-0.030694908,-0.08801181,-0.14645335,-0.15328737,-0.10670384,0.2444895,0.03813835,0.015414173,-0.010521489,-0.063110515,-0.068439275,-0.11346106,-0.15583758,-0.17341138,0.10207536,0.010702902,0.2231271,0.042221002,-0.036352314,0.023663836,0.16486114,-0.08485515,-0.14337379,0.1041545,0.14164558,0.020454489,0.11633351,-0.020457374,0.0167576,0.18275948,-0.09731469,0.3385402,0.049691875,-0.028667925,-0.063418195,-0.13723117,-0.007659735,-0.1913614,0.024686534,0.031147417,-0.10035915,0.06775916,-0.2169508,0.22197826,0.06987535,-0.1118574,0.3174682,-0.0036680961,0.00801463,-0.14597325,-0.055465244,-0.14134161,-0.20981164,-0.08982944,0.077152625,-0.1323506,0.09122471,-0.060045965,0.060189094
0.23784073,0.011452913,-0.098502465,-0.21923365,0.11074009,0.14097747,0.11910117,-0.009855058,0.087312385,0.16575876,-0.14214551,0.005156945,-0.042914342,0.14851302,0.011606392,-0.12846133,0.074286796,0.05050079,0.010471477,-0.25815788,-0.048220057,-0.10186999,0.01191838,-0.09406474,0.03305824,-0.00409519,0.245522,-0.17702591,0.08795353,0.07968118,0.037770756,0.10681196,-0.22989129,-0.0762774,-0.13940255,0.04824768,0.006897064,-0.2413962,0.104646504,0.04738855,0.17586845,0.09069525,0.005664995,0.12125379,-0.011540666,-0.16498117,-0.04422241,0.14684097,0.083363526,0.03115094,0.17182183,-0.08149933,-0.019288033,0.045478474,0.069058545,0.2895242,-0.19666502,-0.09105201,-0.061022744,-0.1925439,0.03651788,-0.0016982105,-0.13583286,0.2207659,-0.11235829,-0.08759669,0.015868476,0.062978566,0.13460794,0.18805915,-0.22422971,-0.06591303,-0.049973525,-0.040913668,0.08930303,-0.14266361,-0.0763858,-0.059286613,-0.06199672,-0.041443635,-0.21920392,0.087978244,-0.10503795,-0.25947422,-0.1694071,-0.18528153,0.3244206,-0.113311395,0.014940667,0.072631046,0.021912947,-0.0106319785,-0.2188339,0.22202869,0.052056555,0.085789844,-0.16908659,0.006041467,-0.010920033,0.06111683
-0.0054476443,-0.044320595,0.071734354,-0.08951332,0.06743152,0.06677877,0.0264266,0.22130285,-0.032119196,0.09547175,-0.11851445,0.27929434,0.05784834,-0.17254815,-0.18394294,0.1305632,0.19413401,0.20183028,0.2036414,-0.10233414,-0.15676603,-0.040764466,-0.015592722,-0.29396042,0.115292504,-0.028904278,0.03557253,0.08077312,-0.12405358,0.020757848,-0.10143928,0.10334478,-0.13589482,0.167049,0.03088911,-0.025684785,-0.29635766,0.051727556,0.17277403,-0.018488733,0.038324136,0.026878346,0.022262894,0.120203994,0.10068153,0.2678301,-0.0023058308,0.2014152,-0.17304944,-0.28776497,0.19874191,-0.2885088,0.07494795,0.1054644,-0.15848336,-0.068239875,-0.0009748648,-0.25886416,0.060873747,0.10587787,-0.29118186,0.17180848,0.041818712,-0.12478699,-0.00040168737,-0.1426414,-0.16661043,-0.13237743,0.26162228,-0.3312615,0.1713968,-0.09185109,0.023270246,0.112284034,-0.1685134,-0.22520858,-0.15666263,-0.21848518,0.2176926,-0.0194783,0.01712993,0.17927392,0.10884363,0.13439539,0.13714056,-0.06116092,-0.011443443,-0.015799738,-0.22690153,-0.071209446,0.22047444,0.063908726,0.17417361,-0.21854815,-0.02138984,0.09978052,0.06829837,-0.01615706,0.13953723,0.04592291
0.21389247,0.040908694,-0.072387084,0.0074548367,0.14459018,-0.2384272,0.11380253,0.17038299,-0.17434566,-0.06798263,-0.0021798192,0.026188971,-0.07134848,0.08791082,0.07010145,-0.17455246,-0.034869187,0.2345148,0.06696768,-0.002851356,0.07734721,0.039500512,0.04311361,0.026649099,0.008323536,-0.096149355,0.032706052,-0.2911098,-0.27076727,0.046200998,0.11980657,0.07210129,-0.1364255,0.08996513,-0.21915999,-0.042283803,-0.050268922,-0.15827955,0.26990515,0.029079957,-0.020617208,-0.045628887,-0.09060197,0.057913624,-0.032711778,-0.13044934,-0.1577319,0.17761165,0.110827975,-0.115715005,0.016857522,-0.10852989,-0.17550227,0.057658043,0.10414421,-0.16040272,-0.18648534,-0.22256865,-0.08735851,0.031934142,-0.2404978,-0.10704036,0.082057655,0.039536756,0.009352849,-0.023665389,-0.115765736,0.06696033,0.13270313,-0.11573512,-0.16143048,-0.25349534,0.23220555,-0.054189682,0.019302474,0.0019923234,-0.089890055,0.07140954,-0.1970654,0.091992356,0.14012021,0.12565304,0.011050425,-0.10664618,0.11038276,-0.26180938,0.06201746,0.19166936,-0.08386564,0.106543936,-0.024691029,0.06748282,0.30074683,0.22530912,-0.044595268,0.031330995,-0.04434163,-0.08106959,-0.18582983,0.24364881
0.29881373,-0.017405916,0.22098066,-0.24959381,-0.06776721,-0.10478695,-0.09768774,0.22906214,-0.10614998,-0.259545,-0.24202946,0.16424097,0.1420397,-0.012194346,-0.09559702,0.067069754,-0.08218047,0.11607934,0.03888007,0.038806796,0.034630723,-0.0058480264,-0.06393902,-0.1367798,0.0380192,-0.095809,0.20164405,0.22582608,0.08405171,0.0646357,0.09076575,0.09745885,0.1243328,-0.1935121,-0.1003077,-0.16933684,-0.10318833,0.09133259,0.14978176,-0.06920158,-0.07860967,0.14709178,-0.12045087,0.23602946,-0.032668855,-0.0076540327,-0.14459936,-0.010388825,0.22254588,-0.009675354,0.002148988,0.07334742,-0.006009049,-0.08951701,0.062852435,0.01648677,-0.06463216,-0.2072645,-0.18896228,-0.04440925,-0.041755673,-0.20036848,0.15988642,-0.16766733,0.12854694,0.18714207,0.112162925,0.22392638,-0.0023798808,-0.07553106,-0.14847928,0.21414785,0.031328794,0.0956276,-0.14851473,0.015575183,0.30376926,0.09740478,0.11780608,0.1399341,0.08293965,-0.10120362,0.2725964,0.013975785,-0.028351117,0.07637176,0.13435799,0.21799986,-0.00837434,0.092792526,-0.044733945,0.17991644,0.09350163,-0.023446633,0.2358333,-0.25710937,-0.13906853,0.22070844,-0.09269424,-0.13320413
0.1619654,0.07357818,-0.074865624,-0.16309918,0.13398345,-0.041776527,-0.13639024,-0.25206006,0.10152756,-0.28143227,0.18775468,0.2471384,0.06908412,0.06562983,-0.032659218,0.16704138,0.03223987,-0.08878571,0.118594304,0.002940554,-0.025125746,0.1449339,0.2154682,-0.06360289,0.0194339,0.04964651,0.048737876,0.2103529,0.041444156,-0.16319385,0.080863014,-0.19626853,-0.073562175,-0.18593764,-0.16198565,0.093746744,0.05482458,-0.065150864,-0.19486825,-0.20184179,-0.010385464,-0.1218921,0.06628575,0.09807284,-0.18118332,-0.2550213,0.08129973,0.21375227,0.14262046,0.07417505,-0.095134586,0.011184979,-0.007834672,-0.08999288,-0.046395373,0.012770352,-0.07396845,0.09222398,0.12693766,-0.29573405,0.2099423,0.19183858,-0.06336872,-0.18586439,-0.26005772,-0.15779968,-0.15893728,0.002286331,-0.1560096,-0.07524204,0.05534509,0.27192506,-0.17353877,0.16367774,-0.17615178,-0.112268046,0.11423832,0.2056368,-0.32165626,0.1438908,0.04545907,-0.26090357,0.10386128,0.08738477,-0.01658438,0.016871262,0.09084056,-0.118063316,0.11693807,0.2872409,-0.024536386,-0.01103931,-0.101409785,-0.008655871,-0.27878526,0.1972623,-0.025045156,-0.046476766,-0.30449626,-0.1973849
0.058344048,0.23354778,-0.054271437,0.031838845,-0.17582186,-0.05836979,0.0061941124,-0.03256466,0.14056553,-0.264145,-0.058174413,-5.932936e-05,-0.004027873,0.27229238,0.07779295,-0.17540632,0.07698176,-0.059253566,0.0207522,-0.20255797,-0.10090965,-0.08126863,-0.21018167,0.04863626,0.043866422,0.0031434793,-0.26098815,-0.16612656,0.13864231,-0.004929,-0.2166288,0.042788077,-0.089319214,-0.1856094,0.053437363,0.013112157,-0.13528283,-0.040016033,0.091783024,-0.06870304,-0.146508,-0.18997815,0.09356931,-0.071545035,0.14439529,-0.051595125,0.06777707,-0.087267496,0.11092558,0.15890351,0.03813766,0.25687373,-0.086890176,0.05595231,-0.047128838,-0.015656015,-0.08597824,-0.0035893705,-0.17425309,0.11205543,0.02054115,-0.17000207,-0.1060793,0.056458924,-0.20632915,-0.13414124,0.09731438,-0.27373353,-0.04419968,-0.0424927,-0.109080456,-0.058121283,-0.13899083,-0.11966174,-0.012140385,0.019656232,-0.03714502,0.061290238,0.052577626,-0.2601802,-0.12763694,-0.1379157,-0.014451163,0.043602653,-0.26885325,-0.12924862,-0.06176353,0.08251878,-0.23884295,-0.0039971042,-0.20783707,0.00049979944,-0.001512907,0.03818771,0.0933984,-0.028354328,0.12825085,-0.10466271,-0.0929441,0.22379051
0.050995536,-0.022290636,0.079620615,-0.16510683,0.23440716,0.074655645,-0.16821063,0.22883536,0.09349306,-0.2507146,-0.02671405,-0.06890707,-0.25148198,0.12196996,-0.0082079675,0.024586707,0.01938062,-0.027614245,0.0030075316,-0.10890946,0.014328485,0.07078814,-0.23995197,0.018029556,-0.02567024,0.12663022,0.026920881,-0.112778984,0.009783194,0.23598842,-0.008762825,-0.054956783,0.30940348,-0.007893777,-0.12259726,-0.06986027,0.042513717,-0.23808481,-0.088602126,-0.18970455,-0.25251603,0.04388284,0.25044262,-0.11642586,0.19129136,0.23846969,-0.22312504,-0.19161296,0.055807423,0.012998903,-0.18530081,0.06939621,0.11688853,0.13350604,0.03449153,-0.25208342,0.11318402,-0.1995017,-0.046071827,-0.0033415193,0.18986864,-0.07337164,0.0052497825,-0.02922648,-0.15659268,0.10910458,-0.11304094,0.27605137,0.03743268,-0.08180832,0.08409183,0.1556265,0.07582968,-0.26628527,-0.21821365,0.2419427,0.2682747,0.0005534312,0.00610736,-0.036302336,0.13993429,0.052612584,0.12772457,-0.10901612,0.10683276,0.16311982,-0.034414984,0.11831471,0.026276723,-0.17706627,-0.12679893,-0.27969483,-0.17958124,-0.10069496,-0.019774837,-0.062956825,-0.18790777,-0.099854074,-0.22204378,0.21233045
-0.20428132,-0.016929787,-0.12918758,-0.07371142,-0.16137259,0.04784989,0.16064253,0.09915371,-0.103049785,0.30296203,-0.088458605,-0.19103518,0.11215046,0.300307,-0.06908009,0.0019954483,0.12578936,0.11136053,0.25763443,-0.09151879,0.05485894,0.28942537,0.26720342,-0.30259946,0.17680202,-0.05859692,-0.077151604,0.038210336,-0.21370165,-0.21879196,0.23695971,-0.15411907,0.21505629,0.13046196,0.11216557,-0.16010119,0.18169315,-0.07020886,0.28773242,-0.15230432,-0.30886364,-0.08306696,0.006078676,0.2862451,0.16665903,0.16538918,0.21444532,-0.24720785,0.013626162,-0.13155153,0.10636955,-0.009402023,-0.2678993,0.11558414,0.018284336,0.14928633,0.060033113,-0.06527936,0.035232287,-0.015510334,0.06877976,0.0032773018,0.13100864,0.08330798,-0.10346684,-0.06313893,0.06804112,-0.044098403,-0.15380237,0.019172875,-0.054182615,-0.16145308,-0.011787785,0.0011297325,-0.061810214,0.21274701,-0.10241167,0.27916476,0.09701698,-0.013006695,-0.056296725,0.058750253,-0.089893006,-0.051573798,0.17125444,0.063476436,-0.20084569,-0.27859488,-0.06641347,-0.13255689,-0.12248245,0.22088356,0.070929244,0.06443712,-0.12983221,-0.03411798,0.046987616,0.2587488,0.03091305,0.19803542
-0.28142485,-0.2967654,0.2905642,0.060542077,-0.07432254,0.059882797,0.104564734,0.14411645,0.14341208,0.16127354,0.031623874,-0.15051572,-0.033014607,-0.07099775,0.012370281,0.042399023,-0.07686865,0.30048886,-0.041622788,0.12606542,-0.090084635,0.16192502,-0.18916003,0.12021788,-0.13463111,-0.118982516,-0.067988455,0.24694395,-0.1537514,0.1087299,0.10431711,0.112226434,-0.12464737,-0.10183119,0.21452208,0.023672754,0.008349833,0.05829675,0.20957452,-0.054189224,0.12220249,-0.21730109,-0.042878564,-0.059591606,0.108965024,0.25517538,-0.0676186,-0.20816138,0.25608382,0.012079499,-0.24148232,0.16412398,0.022529388,-0.09765888,0.027499765,0.16935621,-0.031401057,0.08573963,0.191343,-0.10932246,-0.2573789,-0.19123152,-0.092931345,0.152353,0.08999409,-0.17980193,-0.13873276,-0.17985786,-0.15415001,-0.116022855,0.064408734,0.08011785,-0.031764973,-0.04317835,-0.28878456,0.09109253,-0.018513786,0.029322775,-0.17706229,0.034095403,-0.012299653,0.1612283,-0.07760889,0.015133585,-0.18514624,0.2287224,0.081212424,-0.20062296,0.13483216,0.16760062,-0.022458768,0.16959515,-0.27896017,0.066531844,-0.2063011,-0.09759493,0.14952941,0.13385229,-0.19220644,-0.0064819036
-0.12772197,0.043725993,-0.15725712,-0.14153484,-0.24909629,-0.1721006,-0.2394845,0.0673844,0.06426055,-0.15022032,0.28674477,0.08489479,0.1297779,-0.110616535,-0.083300605,0.01993677,-0.20367591,0.08574015,0.12882778,0.0012057335,0.010670235,-0.13871889,0.13799167,-0.1923801,0.1877375,-0.0031713683,-0.13692236,0.25063142,-0.24642695,0.24007317,0.20030987,0.17509013,-0.023291877,0.033853512,0.18209894,0.0674796,0.21022543,0.062037773,0.008540285,-0.09932013,0.0861755,0.18365395,-0.22873029,-0.17381473,0.2574209,0.26706538,-0.17644021,-0.16490702,-0.06551268,0.11479225,-0.050703995,-0.1438274,0.038162295,0.104878545,0.026952522,-0.25660065,-0.24610902,0.07146893,-0.008305371,-0.15925357,-0.15272371,0.06798207,-0.2022447,-0.108496,-0.25867715,0.20065305,-0.26695153,-0.21243155,0.15049969,0.19197321,-0.1379577,0.016931685,-0.23420697,0.06253933,0.16838609,0.14150085,-0.06929335,-0.07836342,-0.17934978,-0.22314973,-0.24841692,0.16088578,0.30572346,-0.02575798,0.12117805,0.06665711,-0.13513479,0.0027215944,0.07718838,-0.0146226585,-0.03837685,-0.08190363,-0.086446084,-0.1445622,-0.061105758,-0.039069984,0.07890831,-0.24585299,-0.12855327,-0.042918388
-0.028296923,-0.027896222,-0.007998505,0.15072753,-0.08728596,0.17405517,0.24908057,0.26786467,0.042977888,-0.1992485,-0.14934865,-0.2677263,-0.03538799,-0.06514819,-0.21791609,0.22735155,0.19507688,-0.19556804,0.19954535,0.30799392,-0.021883745,-0.11326041,0.06789049,0.13337609,-0.18199992,-0.050606966,0.29203415,-0.12959321,0.16873008,-0.037135992,-0.038381476,-0.250894,-0.041337736,-0.052250803,-0.087830864,-0.11103559,0.0271281,0.030415686,0.154798,0.018697834,-0.040970206,0.14778595,0.10529609,-0.15875262,-0.2275654,0.08141165,-0.07903156,-0.108104944,0.22926463,-0.12946726,-0.059446972,0.064271025,-0.008598286,-0.2915579,0.07396823,0.026929982,-0.0766468,0.13144496,0.10417488,0.057803422,-0.32935664,-0.22997727,-0.08578233,0.10797535,0.20820451,-0.2143349,-0.10573137,0.062354524,-0.2754668,0.2936465,-0.05716926,0.020333411,-0.18405154,0.14721704,0.048940733,0.008282818,0.07588709,0.22467113,-0.07920514,-0.058861006,-0.18978004,-0.028212616,-0.03079305,0.049063046,-0.04436875,-0.14586008,-0.2171725,-0.14194703,-0.024625832,-0.021699155,-4.233152e-05,-0.08729007,-0.13463682,-0.051814433,-0.12188418,-0.17519535,-0.0654694,-0.2155459,-0.010939483,0.13217157
-0.016443554,-0.17454477,-0.15457997,0.12559928,-0.3211199,-0.18027818,0.06520843,-0.24758293,-0.18077363,-0.108731255,0.16331314,-0.06646195,0.16740501,-0.077240445,0.18478172,-0.10015675,-0.09607873,-0.067483,0.17914875,0.030984456,0.12085135,0.31658727,-0.19596687,0.033729933,0.06787335,0.18483531,-0.13630737,-0.064205065,0.13329566,0.13886699,0.23229134,-0.28809044,-0.034386136,0.017048646,-0.21455224,0.28741294,-0.16081092,-0.15212308,0.109150305,0.08703311,-0.18311623,-0.134068,-0.07822298,-0.03899774,0.008790406,0.20207174,0.0330226,-0.09350639,-0.14070906,-0.05898947,0.18485995,0.09006911,-0.036759567,0.10550015,-0.08001839,0.2892396,0.15260185,-0.28160036,-0.044041973,0.13093853,0.17641723,0.065589696,-0.12599765,0.112825684,0.09224685,0.11499105,-0.22060712,-0.07248422,0.14939356,0.05399071,-0.04737156,0.11654743,0.020736946,-0.11909487,0.12710707,0.16472411,0.14312465,0.32650998,0.030666647,-0.02291399,0.10854004,0.22623295,-0.013061909,0.26779586,0.1638129,-0.09115493,0.15222105,0.16932927,0.19702572,-0.09356694,0.08213864,0.014704334,0.020686498,-0.07952096,-0.29160905,0.12213168,0.051806785,-0.16197142,-0.054457467,0.02462899
0.25572026,0.05844889,0.06758552,0.061823297,0.18506414,-0.34879282,0.24521548,0.06433606,-0.13818936,-0.14280573,-0.32611358,0.066344984,-0.07508433,-0.08722177,-0.09539635,-0.052271895,-0.2991641,0.008998088,-0.14376695,-0.10983674,-0.24602509,0.041758794,0.11632208,0.06183042,-0.17682044,-0.033343732,-0.25071427,-0.1596073,-0.12445419,0.16200271,-0.1855137,-0.061331075,-0.08190513,0.13432874,0.14435579,-0.10739866,0.22664255,0.049652103,0.06891196,0.12330328,-0.156666,-0.11171703,0.13797916,-0.04497449,-0.21859775,-0.108118854,-0.06988534,0.2241108,-0.1061821,-0.06214657,-0.059327275,-0.05288748,0.032524724,0.06710327,-0.052640006,0.16745664,0.18959793,0.017640382,0.034402333,0.20069326,-0.047202118,-0.2438617,-0.01700826,-0.045709234,0.010621737,0.19164626,0.17262895,-0.21437936,-0.032077696,-0.002715794,0.0384784,0.23697926,-0.1734734,0.12148075,-0.22355334,0.093175516,0.06514283,-0.07331612,-0.20135784,0.018474871,-0.1825299,0.02082132,-0.0805777,0.0063230395,-0.16606762,-0.14264184,-0.05934103,0.01625333,0.12699755,-0.01568274,-0.07241854,-0.13096024,-0.051813863,0.14194739,0.060063668,-0.0060685957,-0.1421189,0.061154626,0.044095963,-0.09192315
0.033560373,0.099315904,0.11961212,0.03888791,0.011926471,0.018492417,-0.003228867,0.21544687,0.036588877,-0.14917557,0.07414628,0.18088938,-0.06814867,-0.107156426,-0.17050883,0.23237251,0.03463266,0.21222202,0.05827212,0.07892943,-0.014097308,0.2276474,-0.13943262,-0.033681665,-0.021792632,0.052472007,-0.12152168,0.10180596,0.0037407894,0.2574713,-0.017316883,0.022301702,0.075761184,0.16577113,0.051138163,-0.007669097,-0.2968322,0.21241026,0.0046707843,0.22095238,-0.02267051,-0.1342751,0.18424094,0.08591696,-0.1443503,-0.12587616,0.19850487,0.1722505,-0.066784956,-0.016699476,0.074357964,0.026920117,0.29790908,0.034918915,-0.047835767,-0.0069736764,-0.27011457,0.18489122,0.084418744,-0.0578611,0.13871299,-0.12059578,-0.040700056,0.08170366,-0.25416815,-0.22463414,0.0527697,0.04393399,-0.25190833,-0.04078687,-0.04086678,-0.22976899,0.026202546,-0.1882439,-0.1008761,0.31105864,0.0124967415,-0.12165931,-0.18154979,-0.0929153,0.10930602,0.040465232,-0.101874165,0.004843009,0.07133905,0.34176734,-0.071177356,0.14317948,0.2709072,-0.06472545,0.05333344,0.21264884,0.259513,-0.23852405,0.077635996,-0.2244841,0.24738301,-0.072348304,-0.24347344,-0.00039924734
-0.12653634,0.0039349874,0.023556806,-0.13287672,0.1379977,0.10158631,0.2634669,-0.043722562,-6.245551e-06,0.21050312,0.07913652,0.08226364,-0.027256986,0.09625559,0.078594394,0.20239824,-0.16559747,0.15089881,-0.063793674,-0.1423058,0.083919644,-0.034470372,0.09533106,0.1453661,0.15372236,-0.023534598,-0.0684015,0.11335118,0.2379956,0.14760937,0.18937017,-0.14676748,0.1641872,0.046107475,-0.04623097,-0.15511204,0.00030581641,-0.26096758,0.0073124673,0.18160632,0.04824158,0.07668697,-0.030177917,0.25261146,-0.13014421,-0.020115728,-0.012542373,0.021063091,0.12616518,0.22143877,0.094755135,0.13048238,-0.11149249,0.13387261,-0.038330074,-0.12943608,0.079469696,-0.2225761,-0.028439434,-0.0016099088,0.025878508,-0.17575206,-0.0885637,0.15760754,-0.15552852,-0.05593595,-0.09933232,0.12655,-0.1578915,0.10299168,0.02561745,-0.123138435,0.271751,0.032991778,0.26770002,0.27922523,-0.038600404,0.024272889,0.022228794,-0.20135106,0.04867297,0.27871048,0.03461549,0.20303366,0.0076970127,-0.14621697,0.08682766,-0.084460236,0.024834838,-0.28911033,-0.11225805,0.029049795,0.07973726,0.19896336,-0.045485985,0.04529121,0.14282373,-0.0017934337,-0.115540795,0.3122927
-0.011319055,-0.028677857,0.095151484,0.13747643,0.0274687,0.041034136,-0.21695432,-0.088884346,0.113389924,-0.1477785,0.03775254,-0.24900915,0.12951383,-0.13313025,-0.026432544,0.110430926,0.060800154,0.14784929,0.13690814,0.18654189,-0.00015056107,0.1697517,0.14961815,-0.030483223,-0.15711014,0.029941915,-0.13359998,0.06029098,-0.13605805,-0.099464744,0.014692668,-0.09136617,-0.031856727,0.018755002,-0.06580174,-0.02225098,0.16981946,-0.14627431,-0.061160278,0.21885225,0.07137782,-0.12310153,0.03673483,-0.0009075973,-0.26284933,0.08472291,-0.225519,-0.22218625,-0.13290313,-0.064445026,-0.09202011,0.15551572,-0.092731394,-0.07994963,0.16944987,0.26033047,-0.10426748,0.062272005,0.045858663,-0.03315008,0.23908776,0.14133917,0.07236536,-0.07976761,-0.04820928,-0.10786243,-0.25558284,-0.072124116,-0.016484763,0.18298028,-0.30091515,-0.09950361,-0.06569566,-0.045772485,0.26976734,0.2735017,0.060142696,0.0062846155,-0.13445044,0.11835034,0.14239138,0.17397816,-0.16591135,0.12988839,-0.08861852,0.0997683,0.048296016,0.02682818,-0.23347917,0.08210696,0.09980633,-0.014004256,0.0367841,-0.26669154,0.2822015,0.2563676,-0.028846504,0.0073541584,0.08014231,-0.047471274
-0.024329834,-0.021010939,0.18187003,-0.100175105,0.16307455,0.077661924,0.033697225,0.08174388,-0.12268581,0.08287426,0.13739525,-0.20671548,0.087401584,0.009262027,-0.017566638,-0.050592467,0.016866963,0.08044753,0.0028665084,0.11889113,-0.12811008,-0.1724134,-0.14729935,0.078797065,-0.24958979,0.09456869,0.13357598,0.18630494,0.024663217,-0.020321878,0.1377983,-0.20256847,0.3051997,-0.090582915,-0.049356937,0.09893603,0.10636706,-0.008592392,-0.1958136,0.07498224,0.025659269,0.09063139,0.19170155,0.1039451,0.1833694,-0.112096876,0.06779177,0.08348737,-0.20708089,0.044421695,-0.08737634,0.18967253,-0.12888578,0.3107512,0.15248387,-0.056243915,0.1040743,0.28844813,-0.1861006,-0.19021946,0.099462666,0.06183229,0.14998709,-0.07972107,0.25284332,-0.07147717,-0.2503672,0.21757595,-0.019871991,-0.119475186,0.0893759,0.19160941,-0.06766758,0.060589746,-0.09995292,-0.09856519,-0.06913629,0.103116944,-0.037370283,-0.09183182,-0.10148893,0.043116335,-0.2208009,0.18510363,0.09308262,-0.21883798,0.012680806,0.21316391,-0.02639954,-0.1163896,0.15563282,-0.052725755,-0.1622748,0.06308859,0.25110957,0.030249957,-0.19909012,0.06192151,0.04902191,0.08683708
0.067408934,0.20308912,-0.057878207,-0.28065595,0.30490983,0.26449427,-0.015990168,0.0085229715,-0.04703371,0.07756006,-0.06819952,0.039455246,-0.23222426,-0.063005246,-0.32612574,-0.19710302,-0.05904202,0.11898415,-0.042511467,-0.18495402,-0.12773961,-0.037317242,0.0143845435,0.116057254,0.04080585,0.15862381,0.0071827862,0.097572744,0.066579156,0.02028512,-0.17441,-0.026573628,0.17785336,-0.066729836,0.063186824,-0.11070274,0.09894931,-0.14256063,-0.1597669,-0.21512334,-0.09446003,0.20297538,-0.15404572,0.046633814,0.023180187,0.05010261,-0.12685174,-0.26827696,-0.14139184,-0.2626729,-0.03842553,-0.06550852,-0.19115068,0.10651024,-0.021832617,0.1920383,0.07245266,0.2033161,0.015128893,0.03897334,-0.09220886,-0.09842234,0.036024563,0.10216167,-0.0982867,0.14254153,0.15804447,0.1201047,-0.087924354,-0.02077782,-0.20795287,-0.017570155,0.04399607,0.22358635,-0.23213825,0.07263357,0.009281929,0.08397725,0.01912632,-0.009852031,0.032191828,0.112587854,0.07397452,-0.10219741,-0.057194773,-0.06851852,0.13236627,0.01503997,-0.053472087,0.08791871,-0.17954028,-0.13647304,0.11039448,-0.056642372,-0.021613384,-0.2279814,-0.012150012,0.3140623,0.17817242,-0.009193332
-0.22889619,-0.15962537,0.08522129,0.2353488,-0.04413948,0.17065068,0.048674073,0.054195065,0.0012818591,-0.20887794,0.050432894,0.15166633,0.14192544,-0.27321136,0.15771404,0.1864131,-0.06624689,-0.045924596,-0.17395599,0.06551985,-0.15841845,-0.11001126,0.025451463,-0.2526705,-0.10271582,-0.05005418,-0.27873752,0.13123034,-0.16305146,0.2981017,-0.30068192,0.091072634,0.06074595,0.17767805,-0.16258627,-0.23502195,0.036470037,-0.01961467,-0.20104134,-0.051167443,-0.05497045,-0.061885044,-0.3043603,0.14596245,0.14920901,0.251833,0.22847414,-0.057384502,-0.068777524,0.02641718,-0.09485057,0.12604496,0.15795851,-0.13827416,0.007918676,0.2562913,-0.11057785,0.0331016,0.13764848,-0.1376495,0.19114944,-0.10942659,0.1211169,0.20950955,0.17267178,-0.07845974,-0.032052808,0.024039451,-0.11908669,-0.031318504,0.2012272,-0.036984563,0.04892278,-0.08417937,0.31381887,0.017095886,0.081174806,-0.076677695,-0.20802361,0.021965219,0.024260214,-0.1807196,-0.10241278,0.009096234,0.15039162,0.22388159,0.23349227,0.13951194,-0.008483534,0.0988793,-0.09206873,0.019756118,-0.043458644,-0.0052933665,0.100565314,-0.09849238,0.028956978,0.26376644,0.23718387,0.06317452
-0.101891354,0.02404551,0.18723887,-0.06902534,-0.1253875,-0.006904637,-0.06754014,0.006796569,-0.0335076,-0.09540611,0.076218635,0.22793838,0.08155466,0.10257241,0.12712258,-0.23339623,0.12378954,0.17006393,-0.06729797,0.18278147,-0.22939944,0.0057341186,0.05990242,0.22667496,-0.16906923,-0.104596786,0.004496395,-0.08063583,-0.12597594,0.046666622,0.26124543,0.058480326,-0.07201976,-0.19047087,-0.23807001,-0.16696128,-0.1267952,0.013427874,-0.18039027,-0.0033168944,0.008970388,0.07879053,0.01300118,-0.08020653,0.20959905,-0.21770559,0.020131772,0.072588354,0.04516989,-0.02925334,0.117426924,-0.012628484,-0.028570183,0.13440865,-0.008197161,0.11723357,-0.043671068,0.20563143,-0.0058209104,-0.1510532,0.24432544,0.047993723,0.13166954,0.04870856,-0.09788298,0.009665727,0.08276809,0.11732895,0.26663622,0.13283125,-0.08827696,-0.13763675,0.17821321,0.12203796,0.00087874173,0.21436211,0.045552757,-0.0329345,-0.063586466,-0.07277873,-0.09217053,-0.035884224,-0.1111539,-0.21211824,0.0679911,-0.1249303,0.20691647,0.015122703,0.220962,-0.08747665,-0.13479573,0.22144388,-0.058255218,0.11171876,-0.076743685,-0.00032236832,-0.100450404,-0.28913027,0.049918957,-0.12822941
-0.00013782423,-0.10624302,-0.26876742,0.30474788,0.16521427,0.07662809,0.2993234,0.2507285,-0.17980783,-0.15141101,0.0012652397,0.13699597,0.17113583,-0.18681051,0.1485177,0.12173287,0.099563114,-0.22778022,0.296465,0.13717806,-0.0390469,-0.24869792,0.011431521,-0.0019586394,0.038084514,-0.011273047,0.039076917,0.050440248,0.004267279,0.015911918,0.0675405,0.0069937613,-0.0667861,0.11744835,0.069283195,0.16044976,-0.0074053947,-0.20369592,0.31348586,0.081934385,0.20461269,-0.027045846,0.048358854,0.033874437,-0.0019739622,0.0022153824,-0.13375983,-0.014626161,0.061528876,-0.04262144,-0.27207756,-0.12793994,-0.20736702,0.2054555,0.11789388,0.0040294877,-0.23454037,-0.010028783,0.22281426,0.01609899,0.08953754,-0.05787058,-0.047748983,0.23524067,0.07997532,-0.055710625,0.11797468,0.087507956,-0.19000354,-0.0025816734,0.1428726,0.17113632,0.0016569524,-0.117317036,-0.16292314,0.20704833,-0.27349418,0.011984662,-0.0613509,0.13425207,-0.110652246,0.06549755,0.13739216,-0.053109385,-0.07646274,-0.040558938,-0.050901797,0.23246391,-0.015682228,-0.09891102,0.1898377,0.052076187,-0.044214405,-0.114354216,-0.06347611,-0.044239387,-0.05743794,-0.11628966,0.05776824,0.0739968
-0.2034882,-0.33537772,-0.2392729,-0.11578047,-0.011110885,0.017343473,-0.12735824,0.20866753,-0.23169161,-0.0136880735,-0.003458086,-0.05870737,-0.15501222,-0.13133897,0.04782278,0.08079502,0.045943387,0.10308406,-0.13385887,0.12203112,0.06966275,-0.017493764,0.26917797,-0.06226089,-0.08720588,-0.006920596,0.1107959,-0.13934207,-0.02046553,0.17242238,-0.11042687,0.11463776,-0.052018162,0.027737575,0.2023146,0.14239965,0.17061661,-0.14658041,0.019224169,0.084153764,-0.17833558,-0.26485172,-0.006138309,0.066255964,0.119645976,-0.3226354,0.141048,0.14724799,0.1100337,0.22648637,0.13548502,0.15711738,0.18885195,-0.052400608,-0.28260583,-0.014645992,0.10605639,0.2636228,0.037308868,-0.11823589,0.02790679,-0.27444685,0.21652919,-0.059179652,0.01343149,-0.103208445,0.0082880575,0.07957459,-0.08619121,0.0196278,0.1067278,0.06967948,-0.132319,0.07073931,-0.02000845,0.24815539,-0.022615783,0.09010593,-0.007603112,-0.047294922,-0.30058798,0.10797457,0.12481937,0.032803975,0.075670734,0.20195368,-0.12433863,-0.19465682,-0.16482292,-0.15772764,0.11236668,0.18860625,0.08880655,-0.033082813,-0.22555779,-0.15066896,-0.16793256,-0.337294,0.115518756,0.16294429
-0.29167008,0.12376018,-0.1414367,0.043529045,0.00997913,0.02484639,0.12272934,-0.17254837,-5.8972626e-05,-0.10698364,-0.05160193,0.088901736,-0.055454724,-0.008011777,0.055208575,0.15561779,0.09185856,-0.065531924,0.23803864,-0.13581617,-0.13574001,0.07845297,0.007198513,0.170063,0.11172243,0.1838169,-0.23365906,-0.1533752,-0.21789314,0.03463659,0.06634627,-0.006451352,-0.010817039,-0.03885124,-0.3038067,0.047559895,0.066432446,-0.039853398,0.08987324,0.047192883,-0.09589003,-0.23134477,0.043120272,-0.15185595,0.0028579207,-0.26379675,-0.17495726,0.0896072,-0.101174004,0.18038714,0.018904151,-0.05948608,-0.05895369,0.14256035,0.008037031,0.1637594,-0.21185204,-0.12462019,-0.10385395,0.037478916,0.030155474,-0.027992234,-0.19909798,-0.00038986513,-0.057533786,-0.30826065,-0.22915941,-0.117972866,0.03417986,-0.2239599,0.041381918,0.16529185,-0.09263275,0.036982592,-0.04315429,0.16877799,0.18191661,0.09218965,0.23237732,-0.10446724,0.022873512,-0.013779438,-0.06516416,-0.19329667,-0.07571443,0.07395704,0.28653586,-0.019908134,0.087906726,0.1052294,0.25704896,-0.112405226,-0.26569656,-0.010181926,0.1780494,0.17490333,-0.24578628,-0.17400682,0.09808036,0.14927271
-0.24524611,-0.18205428,0.055716116,-0.25376365,-0.20422593,-0.07518851,-0.06687241,-0.052061107,0.033966895,0.22891854,-0.23982969,0.06457607,-0.0046038926,-0.013395221,0.23006806,0.06278767,0.002599564,0.29809952,0.10709821,0.02129353,-0.039110024,0.065380536,-0.12705335,-0.10120688,-0.11929138,0.023925282,-0.24559939,-0.07208133,-0.12856737,0.15257075,0.055313133,0.25141332,0.0654237,-0.075309865,-0.23215294,0.12780988,-0.02683138,0.0863523,-0.2094855,-0.17804325,0.26855993,0.012500197,0.1580303,-0.022998994,0.123720385,0.17200533,0.10637243,0.026841749,0.18642749,0.16960867,-0.053396422,-0.058734585,-0.0066094394,-0.2806662,0.20385784,-0.11080633,0.07755137,-0.20661485,0.024829881,-0.2187846,0.008837144,0.22083232,-0.11744051,0.0165151,0.039509833,-0.31297624,-0.23536333,0.010250205,0.07920802,0.16724005,0.19146967,-0.09128362,-0.16551538,0.21728191,0.12444786,-0.18668756,-0.21339078,-0.07173576,-0.030867688,-0.056149416,-0.068385296,0.16358876,-0.06181512,0.089176044,0.085343875,-0.03366239,-0.0012905189,-0.1100851,0.19104704,0.08748662,0.077442594,-0.043581665,-0.18130659,0.005232272,0.12650901,-0.17637542,0.05562893,-0.049687315,-0.09199481,0.15881032
-0.011463329,-0.032649465,0.26758048,0.004521014,-0.020665495,0.07307988,-0.043377746,-0.09398909,0.052292395,-0.14519908,0.0052155466,-0.26289776,0.24707246,-0.11047618,-0.011995156,-0.017828086,-0.07855233,0.14116009,-0.00815002,0.25058115,0.121672995,0.06342773,0.20402779,0.049154054,0.025411574,0.14129086,0.058263447,0.020065252,0.06491299,0.05058007,-0.2728673,-0.058977425,-0.14096785,-0.024397817,-0.13404395,-0.19172166,0.039604716,0.043260597,-0.070107296,0.12443322,-0.07663272,-0.017817775,0.08955851,0.049300347,-0.179245,-0.14596227,-0.021990363,0.2719357,-0.10707187,0.02621052,-0.20937788,-0.11558358,-0.19389316,0.01778303,0.048777882,-0.20755543,0.26512745,0.3028166,-0.14507867,-0.26447105,0.030149525,-0.026172126,0.15157063,-0.021549761,0.017061537,0.10125944,-0.08304922,-0.27691537,-0.06473524,-0.058942337,-0.08534508,-0.050536063,-0.047269933,-0.055924986,0.26515833,0.18929806,0.042432293,0.065670446,-0.19433759,-0.087115936,-0.17382978,0.004411787,0.12239066,-0.051451042,0.06396853,0.019603891,0.082076564,-0.09425853,-0.087624095,0.026942233,-0.058810215,0.0049000215,0.17225748,-0.17441078,-0.050431743,-0.035844285,0.022803124,-0.02479662,0.00035486236,0.24944235
0.19466087,-0.0057205753,0.26331037,-0.0052640033,0.0053288885,0.08065345,0.2078769,0.053760633,0.22974263,-0.19855341,0.09527252,0.21783367,-0.17274664,0.04187289,0.055804256,-0.20874716,0.06473122,-0.19733243,0.25005013,0.18222313,-0.13587163,0.013590613,0.090400256,0.13311248,-0.21349919,0.0721074,-0.11597075,0.08396636,0.16622464,-0.11554279,0.13802865,0.10980541,-0.011739759,-0.008436667,0.044089705,-0.050994284,-0.03655709,-0.320256,0.15602109,0.018513292,0.041123796,0.14941996,-0.088094816,0.13384175,0.17630288,-0.23735566,-0.11509093,-0.009457098,0.11052281,0.029717306,-0.23840691,0.05752692,-0.09423879,-0.011275461,0.081379354,-0.14097688,-0.13549939,0.18040964,-0.18604863,-0.07207079,0.23771662,-0.214187,0.2596061,0.27014112,0.07072996,0.11163594,0.014712186,-0.21226493,0.273742,-0.025259255,0.020642135,-0.11651522,0.09511371,0.13131276,0.15385188,0.09386968,0.10588945,-0.021005405,0.072108276,0.054643452,-0.074367486,0.110472,0.233481,0.06314923,-0.24897543,-0.0027842498,-0.09477191,0.052500322,0.0065993117,-0.29418528,0.17050081,-0.13357395,-0.058174305,0.2789481,-0.15691641,0.06827879,-0.099198416,-0.013342828,-0.14396125,0.035316408
0.12504505,0.20520875,-0.19228345,-0.059653204,0.09543343,-0.11598878,0.11200715,-0.029914381,-0.2606856,0.08548672,-0.3034341,0.07201075,-0.008075458,-0.11966538,-0.03473849,-0.08036093,0.08656817,0.220582,-0.03221041,-0.1590774,-0.1899907,-0.26772285,0.2127304,0.19284964,-0.19273603,0.1249987,-0.13295595,-0.2439142,-0.08483075,0.08739023,-0.23294558,-0.06701248,0.23369367,-0.05165485,0.027323453,-0.07132127,-0.11841271,-0.13056667,-0.072977066,-0.05691396,-0.18715827,-0.21804328,0.04944244,-0.046600457,0.06475531,-0.038742423,0.21397366,-0.16798048,-0.043718178,-0.17759466,-0.108020745,0.06950263,-0.08676695,0.11180689,0.055902787,-0.17249353,-0.018151091,-0.20812087,-0.014714985,0.030131616,-0.16844842,-0.08294751,0.087782376,-0.23896055,0.039069884,-0.046279073,0.22206031,-0.057215054,0.14723763,0.22463953,-0.17793037,0.2327972,-0.07667227,0.22075483,-0.055074826,-0.101632714,-0.005915062,0.058311287,-0.10155421,0.16958256,0.023291705,0.05207825,-0.2344883,0.050730553,-0.13512057,0.13593279,-0.08025647,-0.009484108,-0.013355326,0.022125937,-0.27518138,-0.06752662,-0.23936662,-0.08975147,-0.18496427,-0.020652784,-0.269055,-0.1392022,-0.09345601,0.024741191
-0.150781,0.25065103,0.08310159,0.26155892,0.2228767,0.007956344,-0.011543164,0.004937393,0.020374177,-0.1488173,-0.1676799,-0.102518916,0.004058078,0.13466129,-0.0348917,-0.15128835,0.01328949,-0.16370814,0.057040602,-0.090166144,0.010588443,-0.15491003,0.114208564,-0.030309718,0.10903206,0.06551844,-0.11787603,0.25054076,0.2449318,0.028179854,0.20511346,-0.23875283,-0.15654452,-0.0031717357,-0.043280143,-0.15928349,0.050045766,-0.07471257,-0.013484723,-0.20882712,0.1568914,0.13926257,-0.17963298,0.26415893,-0.06090413,0.28188318,-0.013730059,0.10991993,-0.017823106,-0.21731447,0.17251636,0.06370099,-0.06914533,-0.15374729,0.03244028,0.053967528,-0.21126941,-0.031316817,-0.01052326,0.15848649,0.004872721,0.16027032,0.033549033,0.06687433,-0.062593415,0.12953818,-0.028952582,-0.03951557,-0.1342694,0.24277681,-0.007657876,-0.011376907,0.17853224,-0.027573172,0.03814331,0.20892182,-0.09608304,0.14183952,-0.06579961,-0.13504612,0.11172803,-0.15147872,0.076623164,0.33339965,0.023570942,-0.022659073,0.03378958,-0.0035221798,0.07855369,-0.17168613,0.051128056,0.14473884,-0.23556596,0.033360828,-0.0458607,0.13788478,0.20456597,-0.2565485,-0.08971477,0.046824977
-0.15766576,0.10775032,0.099461086,0.08377736,-0.1043266,0.16160084,0.18308589,-0.13064608,-0.22058848,-0.09259462,-0.06534841,-0.2358516,0.12882185,-0.2072135,0.2252007,-0.0058078226,-0.044851433,-0.058480114,-0.06974103,0.0008575685,-0.31640252,0.32891726,0.11362692,0.08026001,0.030298304,-0.045062147,-0.026223954,0.08056688,-0.24055016,0.23628674,-0.06545248,0.024547277,-0.04653615,0.0035710882,0.18744259,0.15703192,0.07087275,0.095288694,0.13280523,-0.23095867,-0.1559332,0.21472782,0.19441798,0.14466958,-0.28538603,0.045587454,-0.13354349,0.0367298,-0.013255615,0.057030044,0.1960881,-0.21715674,0.022525184,-0.18792787,0.04512839,-0.059074607,-0.31820306,0.21352573,-0.02893911,0.09099864,-0.17565253,-0.0013483678,-0.0012182612,-0.09464303,-0.12139199,0.21008545,0.055599205,-0.3000022,0.16771212,-0.087613575,-0.01133534,-0.10940381,0.1903658,-0.06359721,-0.10542671,-0.17032857,-0.1432882,0.11591149,0.046984486,-0.102335356,-0.2484575,-0.19485386,0.06796302,-0.117463484,-0.032059886,0.0636909,0.0073947934,-0.12876205,-0.20361158,-0.28477666,0.31886113,-0.13885583,-0.2037986,-0.30624712,0.16675097,0.11502935,-0.015804458,0.2555486,0.06792733,0.12043624
0.07539128,-0.09535845,0.026594035,0.07848686,-0.1449914,0.33808538,-0.055503845,0.10850847,-0.08103702,0.10270585,0.30114967,-0.09494518,-0.17487615,0.056109577,-0.12371527,0.028577486,0.08282502,0.13274123,-0.20258,0.076454274,-0.22545929,0.10022879,0.10736556,-0.0722047,0.065481596,-0.06997842,-0.19577944,-0.03478772,-0.17263447,-0.06224579,-0.03741152,-0.12813683,-0.0039019866,0.057701208,0.091116816,0.09203004,0.08947058,0.15538242,0.017151302,-0.025984487,-0.24158409,-0.21447763,-0.15880409,0.1494601,-0.1598447,0.19150172,0.13889532,0.073760696,-0.0058709364,-0.13239536,-0.100860156,-0.027765771,-0.087717876,0.048976146,-0.011429967,-0.046325564,0.3190982,0.059857123,0.22399926,0.005730287,0.0025701404,-0.1173218,-0.21339518,-0.022165967,-0.020739462,0.24702387,-0.05468044,-0.026570199,-0.1303722,0.015161101,-0.08666715,0.020915968,0.103443496,0.11613307,-0.053416118,-0.061648477,0.054367032,-0.029581068,-0.027864182,-0.08685999,-0.07437379,0.050309274,-0.030488066,-0.014879386,0.29078394,0.22484729,-0.2734554,0.20265108,0.02491502,-0.20065184,0.0288345,0.121142395,-0.046021778,-0.012495483,-0.01243282,-0.0933259,0.19617261,0.07391736,0.047642905,-0.0072383666
0.20344256,0.13518503,-0.20920931,0.14381169,-0.057420425,0.16910633,-0.10701711,0.060215823,0.006071971,-0.16698746,0.09135535,0.21056321,-0.10043811,0.075986095,0.026670266,0.0972168,-0.29976475,0.07715677,-0.12867776,0.055165425,-0.20637824,-0.05522253,-0.11892578,0.18140197,0.039857637,0.14408788,0.20132563,0.22261058,-0.2594505,0.16955236,-0.026754545,0.15072146,-0.08476589,0.12653233,-0.25412545,-0.17839508,-0.10937843,0.08699648,0.3104138,0.00020095643,-0.064834334,0.2571088,-0.17328545,0.034078594,-0.3084321,-0.16081421,0.044495385,-0.008996283,0.019896917,0.08231185,0.02669925,-0.04121448,-0.137301,0.11350672,-0.23188359,0.014754721,0.021764321,-0.046507474,-0.07591179,0.04487664,0.12808046,0.033273853,-0.15998279,-0.2729463,-0.077740334,0.20462346,-0.19966461,-0.04439955,0.20886174,0.0574003,0.1324255,0.26230314,-0.14694567,-0.10997705,-0.032861006,0.011857624,0.0500725,0.023415029,0.2501196,-0.16437717,-0.10528768,-0.08469384,0.10276782,-0.019451065,0.10771622,-0.04997351,0.2581496,0.0063987,0.10215895,0.066840686,-0.18843734,0.08378665,-0.17056142,-0.059191193,0.003076481,-0.23144437,0.104597,-0.09762413,-0.25990474,-0.037924245
0.19221047,-0.030891547,0.048221204,-0.17811374,0.22155915,-0.06678794,0.28205356,-0.14047791,0.016933333,0.08998659,0.013416353,-0.03792786,0.0061039724,0.24001911,0.14871079,-0.020590132,0.045941498,-0.13393734,-0.14790289,0.1037975,-0.20692076,0.16516234,-0.017957533,0.24898122,0.22894035,0.05251668,-0.048089348,-0.07636603,0.10195639,0.06230741,-0.054487847,-0.100576125,-0.16297899,-0.17541026,-0.014663723,-0.03725988,0.1277555,0.09558972,0.13195886,0.11001256,-0.14036949,0.2289704,-0.083597384,0.013044749,-0.0449659,0.0545083,-0.012351939,0.048313458,-0.1780693,-0.18503393,-0.14190729,-0.05441241,0.006009234,-0.22333021,0.08116037,-0.074123025,-0.019036388,0.038718805,-0.17369096,0.18229632,-0.06609499,0.1218624,-0.1890514,-0.0032600383,0.109814174,-0.06657549,-0.14167257,-0.056951016,-0.0027110253,-0.00756555,0.20955138,-0.20186299,-0.19258414,-0.050633103,-0.21331185,0.05285304,-0.10287318,-0.11798979,-0.105022416,0.012737942,0.2234036,-0.14308952,-0.12824081,-0.048273258,-0.11098036,0.29493037,-0.28241998,0.18567114,0.23852187,0.13507712,-0.08959836,0.10686798,-0.048678156,0.078291275,0.11208163,-0.037405677,0.060597844,0.18674384,-0.007050827,0.0017527413
-0.17753102,-0.24786966,-0.044788495,0.14010705,-0.016504185,-0.08564097,-0.09238422,0.036149915,-0.18577981,-0.1494973,0.13994904,-0.25354183,-0.25660005,0.11752819,0.0701693,-0.2730198,-0.046033755,-0.26624772,0.23828132,-0.058718678,0.24409024,0.10904534,-0.0010199704,0.2170042,0.23607767,0.120728284,0.04186415,0.15235718,0.13878734,0.024631228,-0.09048069,-0.13881303,-0.14558585,0.07659062,-0.18955845,-0.053039387,0.012011402,-0.058379218,0.048484113,-0.18277788,-0.2918194,0.003221686,-0.081925735,0.17116334,-0.09593442,-0.052001584,-0.1539095,-0.0522584,0.0046789562,-0.12016765,0.1735752,-0.038698584,-0.16401924,0.051824998,-0.14204726,-0.26907924,0.17633091,-0.09652202,-0.2723659,0.29635495,0.15059227,0.048741695,-0.13322133,0.24033614,0.033945337,0.14579603,0.10754563,0.0839816,0.15997905,-0.040943325,-0.10347175,-0.09946463,-0.27744135,-0.00943286,-0.07157757,0.16228476,-0.16987042,-0.019866627,0.023821846,0.14353725,-0.1431406,-0.21364473,0.21427077,0.014150596,-0.12519465,-0.2184712,-0.06440063,-0.23292562,0.32018343,-0.1001536,-0.21210817,-0.0651483,0.26978374,0.0026383435,-0.22440138,-0.06391764,0.09589586,-0.13971192,0.14491948,0.16486612
-0.072854854,-0.1758276,-0.062251057,0.13103808,0.12698597,0.19031644,-0.067108974,-0.19767028,0.18192145,-0.25413862,-0.08335714,-0.2950035,0.084583774,0.069048114,-0.0055713616,-0.04401154,0.028947875,0.024111511,0.10316989,-0.17286164,0.19141197,0.20869654,-0.08749672,0.07538001,0.0010859702,-0.042772844,0.07773874,-0.18902904,-0.30154085,-0.08919982,-0.14394894,0.04001445,-0.0877131,-0.017191386,-0.15380086,-0.21572907,-0.025527172,-0.06666413,-0.24363846,-0.02130887,0.03638789,0.06009249,-0.21974954,0.17192633,0.067472644,0.048057612,-0.14984514,0.21584998,0.032670185,-0.0138498405,0.1300471,-0.06319645,-0.0011885576,-0.0074516973,-0.0066649728,-0.0103461435,0.077376135,-0.14111818,-0.10881792,-0.0078000496,-0.0764076,-0.10902029,0.069636114,-0.10286316,0.006690639,0.01602557,0.0713167,0.19957677,-0.2059432,0.18028362,0.10255397,-0.13465463,-0.01827738,0.058364727,0.19565938,0.1400081,-0.104946375,0.24704596,-0.28930643,0.114496335,-0.032203097,0.16047025,-0.20546508,-0.05832878,0.14392439,-0.0731309,-0.23136263,0.14279866,-0.00075938983,0.071385905,-0.098029986,0.18647115,0.059171703,0.12684624,-0.11962186,0.095691055,-0.122777924,-0.10843743,-0.12611581,0.21511196
0.16586381,-0.10999541,-0.12613153,0.12423452,-0.218302,-0.2653232,0.17781284,-0.0522639,0.14923579,-0.099863045,0.16013747,-0.083568394,-0.031809095,-0.24469832,0.034845218,-0.21311677,0.037605636,-0.28977987,0.061642524,-0.10022622,0.13758041,0.095669396,0.2674537,0.122190684,0.20686775,0.019416023,0.088113554,0.18387017,0.11439681,-0.09080475,0.061041307,0.23050077,-0.059435185,-0.029195918,-0.19552815,0.0030583697,-0.03350977,-0.1500522,0.18582001,-0.2529416,0.12806055,0.110894576,0.007283027,0.0157655,0.06393615,-0.29176816,-0.059828356,-0.14589475,0.052985433,0.07838287,0.042104322,-0.20645523,0.20397425,0.16742246,-0.009210938,0.03686158,0.16448061,0.05499767,-0.19361205,-0.06445344,-0.19776021,-0.2628132,-0.05427388,0.14021236,-0.012824184,0.055317592,-0.24730651,-0.16012312,-0.3198741,-0.0593691,-0.25628302,-0.01044855,-0.16459796,-0.019315338,-0.12212302,0.040071663,0.12550192,0.054309033,-0.12526542,0.06769771,-0.055759043,-0.09635878,-0.106583014,0.20250364,0.16475637,-0.07607625,0.081609115,-0.20903979,-0.12482101,-0.10483496,0.17497051,-0.10634051,-0.13564338,0.01908091,-0.031756263,-0.041628707,-0.10233013,0.13362907,-0.16825272,0.1630001
0.19368802,0.17465283,0.074748576,0.03105004,-0.11938768,-0.22937942,0.057990324,0.07869201,0.2801302,0.13561241,0.19375494,-0.084006764,0.027308632,0.13958551,-0.0574957,-0.10365271,0.0967122,0.23516153,0.13441426,0.19431219,0.01757345,0.16493939,0.14334618,-0.065346904,-0.03150263,-0.019481203,0.13922004,0.08148145,-0.12295269,0.09029071,-0.08599237,-0.05033005,0.12795046,0.03806725,0.17460369,-0.090769164,-0.10816602,-0.10791561,-0.30624357,0.12039658,0.2082563,0.011231394,0.105505414,0.104982875,-0.020421367,-0.073305026,0.008560635,-0.08213963,0.06885052,-0.2006909,0.25969893,0.1936473,0.21660481,0.088325895,-0.05758662,-0.13468902,0.08815515,0.17527092,-0.16129942,-0.21027151,0.009045341,0.11276609,0.065462515,-0.18403298,0.17361696,-0.053947825,0.13035895,-0.13133335,-0.060903784,-0.107823946,-0.067378506,0.119644344,-0.095289245,-0.008923988,-0.021715008,0.28201264,-0.0017387356,0.0990612,0.10007298,-0.14266682,0.13206021,0.11975249,0.018323008,-0.19168282,0.12845531,0.14786345,0.18317896,0.045535482,-0.29412958,0.017265406,-0.110815845,0.305532,0.06414122,-0.085903585,0.044840805,-0.006488418,-0.087048784,-0.081808046,-0.04231607,0.00048700138
-0.051962525,0.18979172,-0.25155893,0.115211464,0.043756112,0.16023843,0.11840811,0.027984414,0.09331421,0.08342282,-0.028437799,-0.25094736,-0.05352924,0.23540406,0.27922985,-0.2061159,-0.032006968,0.047917385,0.038858507,0.15438247,-0.014328535,0.091289766,-0.21715945,-0.09090179,-0.10549805,-0.22570615,-0.285429,0.14816,-0.25563967,0.0949008,0.08557152,-0.02599837,0.27913788,0.08273282,-0.2954269,-0.1730193,-0.12893863,-0.11228966,-0.09891972,-0.008098966,-0.0054588513,-0.091160804,0.0056965714,0.1173596,0.10167598,-0.12069566,0.12041403,0.036236264,0.25960243,0.094240695,0.18484525,-0.21899506,-0.10846002,0.11320849,-0.032230478,-0.06426538,-0.096216775,0.27984953,-0.03056176,0.042375736,0.14349918,-0.08065025,0.043976836,-0.012820396,-0.09828126,-0.0029485244,-0.23583142,-0.22595136,0.015974594,-0.26295045,0.16995522,0.123472035,0.26100504,0.02222105,0.22083215,-0.20057757,-0.16295616,0.014451481,0.21421885,-0.0904787,0.07184371,0.07016567,-0.031589855,0.040719073,-0.121180825,-0.007108525,-0.01920954,0.1130131,-0.22252494,-0.0036642957,-0.05480902,-0.010924189,-0.13829793,0.015432272,-0.067278266,0.16150704,0.07382165,0.27554408,0.05894642,0.2612357
-0.17235164,-0.24324392,0.041303284,-0.07405566,0.17199421,-0.061521754,0.31307295,-0.2299289,-0.030198485,0.19706528,-0.031197356,-0.20918334,0.27460942,-0.091369115,0.09494232,0.15379474,0.10426566,-0.072140835,0.2124111,0.054293822,-0.1555425,0.018590271,0.029031219,0.12851591,0.22935635,0.026703322,-0.038196836,0.12622882,0.14312762,0.124836214,-0.16066174,-0.13944863,0.06959498,0.020832969,0.15642473,0.2869375,-0.09630024,0.014721998,-0.18253553,-0.041566595,0.18527545,-0.12304146,0.087312326,0.2564488,-0.072910175,0.26134682,0.18062107,0.10517938,0.06967692,0.014788709,0.036252987,-0.039169006,-0.1484467,0.05267814,-0.24268816,0.064635,-0.07767812,-0.021327103,-0.16828802,0.08145375,-0.18385428,0.083954446,-0.2490572,-0.13295212,0.28858852,0.11843754,0.28553376,0.21238337,0.20009477,-0.13768448,0.05318227,0.0063896645,-0.019504549,0.28940955,-0.118353724,0.1221355,-0.007758735,-0.17288226,0.035333905,-0.031909816,0.0018499765,-0.17299159,0.0914886,-0.023002079,-0.050697744,0.033730965,-0.21523666,-0.07384282,0.032365978,0.078891866,0.120012656,-0.13025595,-0.13804972,0.111723825,0.19297034,-0.051826496,-0.013802413,0.12108063,-0.24865356,-0.046121687
0.050486434,0.2706295,0.18214655,0.25407416,0.13188466,0.07096746,0.028325109,0.117098354,0.10625466,-0.17698261,0.15088908,-0.117886536,-0.031594526,-0.119514234,0.028876055,-0.22346045,0.19108948,-0.0283293,0.040769886,-0.08816081,0.13676102,0.15702945,-0.08831381,0.09371065,0.04745583,0.07436688,0.076269284,0.14390087,0.06612525,0.18412279,0.037399333,0.14449665,-0.32604423,-0.19932185,-0.30998525,0.18438333,-0.14042953,0.045284756,0.04254338,-0.062616475,-0.08363023,-0.10587734,0.1176094,0.107258655,0.09480306,-0.13270424,-0.035412904,-0.009594999,0.19277912,0.18044983,-0.0787144,-0.10517727,-0.16166304,0.1484378,-0.002013325,-0.1525347,0.12318899,-0.020217445,0.19609933,-0.038843445,0.14444453,0.13346434,-0.13047068,0.010114998,-0.04270677,-0.016654601,-0.17756672,-0.0017493191,-0.14955196,-0.22068481,0.064243525,0.10788831,0.025164083,0.14153737,0.20016904,0.035321105,-0.18551181,-0.044015754,0.118390515,0.069717616,-0.25369278,-0.30199626,0.032984123,0.18954228,0.09713089,-0.2389675,0.12771004,0.26607287,-0.20671847,-0.017389357,0.1299447,0.16129108,-0.14619264,0.08793226,-0.13439575,-0.12856008,-0.026193785,0.01196297,-0.04053096,0.10682496
0.18323475,-0.22235611,-0.00019888752,-0.11418553,0.072178,-0.21170512,0.16906956,-0.054790556,-0.011016522,-0.026259692,-0.02871344,0.07049543,0.057598073,-0.06690585,-0.049107052,-0.2629266,0.14080124,0.025599144,0.099886455,0.1572031,0.16442385,-0.09900723,-0.118212596,0.048130855,-0.11090994,-0.22398576,0.21687438,-0.24231859,-0.02417752,-0.27824652,-0.065393634,0.20110796,0.12483279,0.12054243,0.3264419,0.24356717,-0.0649579,0.10524485,-0.18725963,0.07703146,0.13527156,0.11254837,-0.09400298,-0.01472644,-0.092614174,-0.08457677,0.11854451,-0.12754816,0.0575197,-0.12894157,-0.05168493,0.062584564,-0.012545813,0.09616103,0.28799555,0.1333342,0.2025459,-0.14420979,0.14787808,0.19729485,0.19638081,-0.11370462,0.06160229,0.03467681,-0.24436718,0.10030563,0.06263581,-0.1525779,-0.0980365,-0.01754352,-0.036232132,-0.116325945,-0.13536824,-0.10481212,0.019928157,0.22371146,0.09628809,-0.091061726,-0.12545997,0.22364135,0.14994597,0.07315503,0.020018406,0.18031678,-0.050935104,-0.032900028,-0.076807715,-0.108201094,0.012468792,-0.27981597,0.0049131284,-0.0862444,-0.21841277,-0.04486799,0.14284925,-0.111453645,0.24428894,0.09404568,0.09722428,0.21549523
-0.024641324,0.25910705,-0.13758238,0.061382502,0.22480339,-0.07713082,0.044326853,0.13893898,-0.14404415,-0.25396612,-0.03254953,-0.22956584,0.22940904,-0.2854064,-0.22340202,0.30476534,-0.028983654,0.021402584,-0.24580914,-0.0028648698,0.2860109,-0.038413916,0.21492611,0.24627426,-0.0027968946,0.124322936,-0.08796294,0.11915922,-0.13773338,0.04630467,0.20438613,-0.08882819,0.15819487,0.026673218,-0.031118717,0.11523908,0.011947516,-0.0033758578,-0.06374506,0.09070876,-0.14686549,-0.10951381,-0.03356162,0.16051619,-0.23034516,0.2589277,-0.08287777,-0.07828563,-0.13156031,0.015343261,0.08552314,0.0902687,0.008625658,-0.10705068,0.05400014,0.18389437,-0.09670823,0.04638869,-0.13353267,0.16770087,0.036697697,-0.08423473,0.18439215,0.067623876,0.23046225,-0.049636725,0.12633431,-0.18812138,-0.11368345,-0.059093677,-0.21370292,-0.10376173,0.1260524,-0.020635115,-0.2063946,0.09853719,0.078736685,-0.021086099,-0.25726202,-0.012037832,-0.00524641,0.05901551,0.039636202,0.07628568,0.060537256,0.16885626,0.08405657,0.23970382,0.22258438,-0.074918725,-0.078551225,-0.28972933,-0.23067148,-0.09480628,0.17455268,0.19126861,0.1350381,-0.037128642,-0.06585204,-0.07716936
-0.12454297,-0.13856292,0.011267985,-0.030401435,0.09530282,-0.0015665193,0.24099271,0.034422293,0.07211553,0.03303578,-0.052100405,0.1854176,0.05192228,-0.055852793,-0.03516077,0.11614141,-0.11743757,0.21394421,0.08972929,0.07802075,0.013224583,-0.14859657,-0.20866325,-0.03514814,-0.07950363,0.03127887,-0.13091731,-0.009697883,0.21239133,-0.06513381,0.2319321,0.09463561,-0.037992682,-0.09686892,0.12919989,0.35445905,0.274584,0.18866317,0.027638858,0.05728083,-0.021458529,0.036257677,0.0033532197,-0.16494685,-0.115658164,-0.29644173,0.12581065,-0.27762222,-0.026263531,0.0011248714,-0.08652554,-0.13961272,0.05673671,0.06234893,0.04860126,-0.13579488,0.087013684,0.047897782,0.15861894,-0.1098001,-0.09802786,0.1358898,0.046616066,-0.25200608,-0.209107,-0.078037046,-0.1383728,0.054238185,-0.12010536,-0.009764315,0.07366477,0.1526221,0.06650591,-0.21653713,0.10357975,-0.11654442,-0.3077962,-0.013865886,0.16979332,-0.18415263,-0.065358326,-0.06044011,0.05553751,0.0064899432,0.16657639,-0.06547534,-0.16968009,0.17422977,-0.06620385,0.15532523,-0.04021201,-0.24092825,0.041325767,0.044291966,0.07851553,0.0839374,0.12889783,0.16113678,0.0047330023,0.011819966
0.23111127,-0.17335497,0.19052656,-0.013688899,-0.25012454,-0.32378474,0.12395805,0.0150375515,-0.15647511,-0.19265503,-0.021884272,-0.04232408,0.17950007,0.010696545,-0.040044423,-0.21671435,0.016404146,-0.14875145,-0.28501773,0.220382,0.030340718,0.10906296,0.18247445,0.12108352,-0.16828366,-0.1508801,-0.2775695,0.10775783,0.080953665,-0.13410215,-0.28768817,0.094529904,0.15545775,-0.20877373,0.035957143,-0.14243482,-0.07773133,0.04100385,0.050782923,0.14114693,0.16581616,-0.028964886,-0.056821626,-0.0020752738,0.11094674,0.0024225772,-0.12651002,-0.15381788,-0.05772573,-0.0351863,-0.00778735,0.20967273,-0.28249964,-0.21349601,0.11900656,-0.21466318,0.17508718,-0.20088202,0.08297273,-0.24500653,0.11147107,-0.18586573,0.1498397,-0.077533975,0.17565472,-0.06159934,-0.13772385,0.14563467,0.008580827,-0.020213474,0.047414158,0.120329835,-0.057268504,-0.1641713,0.009689387,0.0058861254,-0.056845415,-0.14694665,0.25557786,0.11749485,-0.0009936747,-0.08685842,-0.12152702,-0.092218906,-0.15585692,-0.058738954,0.01252812,-0.09733656,-0.058903884,0.16066016,0.18445733,-0.12249894,-0.014098483,-0.10379791,0.037191715,-0.20700152,-0.04142738,0.09495274,-0.33288726,-0.052103028
0.05479541,-0.082192816,-0.1370439,0.18452366,0.06340226,-0.13354012,-0.27159816,-0.0688666,0.16868627,0.0816445,0.1727313,0.014186284,0.2948833,0.08194909,0.06584828,-0.041466877,-0.11154906,0.23302276,-0.06577451,-0.13104753,0.11697524,-0.11226211,-0.008929799,0.08279001,0.005764298,-0.03886056,0.020694587,-0.039034806,-0.16143571,-0.19857493,-0.11611419,0.104858,0.04232967,-0.14481014,0.053702053,0.08465738,0.0630193,-0.15325215,0.07124672,0.08682641,0.20020996,-0.26697606,0.23614928,0.06487166,0.22051884,0.070684016,0.01406053,0.09446547,0.23099002,-0.08908282,0.03831545,0.017899944,-0.035322852,0.13546304,0.06999364,0.051214978,-0.22944427,0.12390191,-0.24621071,0.098720215,-0.19569199,0.05078233,0.28591084,0.2955058,-0.0034382197,0.11568011,-0.11352913,-0.21967575,0.08034305,-0.21932672,-0.24284218,0.15832856,0.001422621,-0.22345331,0.23535526,-0.060269743,0.18798986,-0.29518467,-0.2601927,0.21245341,-0.15555163,-0.1705328,0.08865926,-0.25999042,-0.047786705,-0.10947929,0.010519535,0.014442221,0.14273357,-0.039460674,0.23413797,-0.07833742,-0.011148984,0.15559797,-0.13242915,-0.05414725,-0.027179625,0.036741428,-0.036666814,0.056282315
0.0074859182,-0.13907495,0.16420475,0.05070702,0.0025844348,0.13672647,0.17750816,-0.05190136,0.0036982987,-0.04548159,0.12381113,-0.11759859,-0.1405807,0.22428016,0.095393285,0.20409629,-0.2941753,0.12443015,-0.09648972,0.2128172,0.17375226,-0.03892858,0.27458438,0.30501273,-0.09097971,0.016297562,-0.07851315,-0.20986487,0.06671762,0.2549123,-0.035172213,0.0772609,0.2387226,0.15878268,-0.14254747,0.079031914,-0.048300102,0.1338514,-0.25846282,-0.034379322,0.008783317,-0.028750904,-0.09357427,-0.24486914,-0.26786172,0.20605022,0.008041913,-0.03165768,0.06224352,-0.18563198,0.03354723,0.17519279,0.011645348,0.030478423,0.11672639,-0.26735824,0.008540188,-0.17291917,0.05528238,0.24990208,-0.3103807,0.23880512,0.03665049,0.0037056017,-0.11120803,-0.13466409,-0.005599306,0.07251044,0.053465176,-0.10645088,0.18795486,0.2587376,-0.10125912,-0.01580445,0.15050499,0.06659582,-0.0015903531,-0.053467542,-0.16662636,-0.24953152,0.23885293,-0.09006003,-0.05128095,-0.025562078,0.10467398,-0.025579192,-0.102552764,0.10081608,-0.026198808,0.09173402,-0.21132508,-0.20759088,0.16079202,0.3152794,-0.035579868,0.039590284,-0.19557393,0.123139046,0.12924628,-0.14873587
0.17455307,-0.21748005,-0.08842616,-0.17591508,0.040854756,0.15251349,-0.11403098,-0.050733976,-0.15464407,-0.15024891,-0.3455221,-0.13953555,-0.084516406,-0.04024909,-0.13527219,-0.04861841,0.18957098,-0.21187638,-0.025600372,0.00939426,0.22936119,-0.13888666,-0.15677507,0.0004895291,-0.0637721,0.2089607,-0.1611604,-0.0447273,0.23961776,-0.09159812,-0.109831795,-0.17160304,-0.20752104,-0.18529557,0.25383085,0.058893636,0.07264196,0.04144692,-0.01951572,-0.26212388,-0.03728074,0.2683053,0.01382372,-0.083413616,0.021559067,-0.032843605,-0.09448122,-0.12390884,-0.122100204,-0.124893256,0.17198114,-0.28402656,-0.0020633577,-0.006748585,-0.094227314,0.17498614,0.029757384,-0.02370647,-0.019078286,0.33189663,-0.19288155,-0.028125454,0.0047160313,0.01199169,0.1658168,0.14771764,-0.17089099,-0.11377926,0.1449301,0.00083928055,-0.17404546,0.28533262,0.115386575,-0.13870522,0.08441636,-0.07798739,-0.08314027,-0.04903799,0.03069834,-0.11356355,0.11455924,0.21379407,0.061922222,0.13051851,-0.10054214,-0.09199347,0.17131643,-0.18711215,-0.19671941,0.009790993,-0.1901175,0.15037125,0.09819019,0.12159856,0.00646608,0.10010555,0.01098186,0.039693307,-0.12937324,-0.15263414
0.15870786,-0.13323168,0.043107916,0.021892723,0.038214475,0.29711384,-0.058802485,0.0045781666,-0.20245834,-0.011856466,0.26049104,0.16211668,0.038105305,0.012210655,0.020655943,-0.054634944,0.11440212,0.1014774,-0.14657296,-0.1760337,0.15343162,-0.24841933,-0.123390704,0.08611253,0.07693367,-0.063737966,0.16785993,-0.17400149,0.20795877,0.07772153,0.0898576,0.12581408,-0.21723521,-0.12616755,0.03561499,0.23459367,-0.03368191,-0.10111543,-0.2759083,0.20680077,0.19416364,-0.016561763,0.15581311,-0.034407478,0.21091376,0.21179177,0.15251772,0.18785146,0.028376801,-0.09364145,0.084600076,0.25555506,0.0371788,-0.017056242,-0.057092413,-0.1297406,0.01999206,-0.13010219,-0.10374565,-0.15164962,0.113235526,-0.22918282,0.28106514,-0.021908097,-0.036553796,-0.27694342,0.24703117,0.07095023,-0.09431651,0.21004888,0.026912676,0.04214644,-0.09600612,-0.24069922,-0.13161187,0.07646011,0.05870135,-0.14058396,-0.007444471,-0.0031248692,0.121185176,0.17354292,-0.08874117,-0.14607449,-0.14485697,0.08502457,0.013487972,-0.12549193,0.003622649,-0.093583316,-0.024513718,-0.30460727,-0.070447184,0.2507323,-0.23709834,-0.2101723,-0.26368162,0.18383785,-0.03766197,-0.13710281
0.060913164,0.1633589,0.028073533,-0.11387713,-0.1080277,-0.027842019,0.2642526,-0.035678577,-0.07646562,-0.12978481,0.20516199,-0.089313075,-0.1532071,-0.09768419,-0.062361084,0.13874096,0.0142042,-0.06339568,0.25962287,-0.06909757,0.17545043,-0.17581579,0.1279594,0.03387267,0.12265253,-0.10182628,0.12512347,-0.05976604,-0.01830436,-0.06436247,-0.08092918,-0.13271165,0.056087796,-0.034736156,0.08794573,-0.21489432,0.14365877,0.20451681,-0.02287657,0.010207066,0.06668717,0.1692154,0.043230776,0.16787016,-0.15931241,-0.20452628,-0.09758035,0.13333775,0.034000017,-0.21486098,0.23169525,-0.13235018,-0.18808208,0.10829626,-0.08814165,-0.15959604,0.109888054,-0.072723866,0.18072414,-0.006979272,-0.22724225,-0.056001034,0.07087157,0.093419306,-0.041432854,0.051114675,0.21254012,-0.0076731322,0.22546487,-0.14685023,0.037315834,-0.002456001,-0.21023716,0.05216497,-0.025512263,-0.20370199,0.22538833,0.02356723,0.12107026,-0.048167694,-0.07270838,-0.057072464,0.23961268,-0.3327849,-0.0474791,0.064902574,-0.095123656,0.09997403,0.14941265,-0.2359287,-0.23292822,-0.15860808,0.034857932,0.035732582,-0.068097845,0.11352297,0.13852832,0.10415333,-0.078851625,0.18920653
0.01681581,-0.065381624,-0.27974796,-0.0698175,0.26107338,-0.046825852,0.016383573,0.035040736,0.13092393,-0.15402964,0.09667096,-0.07217686,-0.15038747,-0.08346829,-0.060455803,0.16983487,0.027781555,-0.22903052,-0.015662638,-0.17394324,-0.08478682,-0.034510724,0.18115146,-0.018351987,0.1554339,0.17793033,-0.1536506,0.25462443,-0.28585476,0.05449944,-0.05595404,0.008139276,-0.08951834,-0.076502234,-0.021486137,0.03091581,-0.07107355,-0.30862653,0.070981935,0.11535763,-0.030341359,-0.11607099,-0.020935971,0.014514538,0.18987355,0.29655704,-0.082683094,0.17296034,-0.11601865,0.23113687,-0.27269462,0.10142449,-0.030583652,-0.14076519,-0.06046478,0.28484887,-0.20994006,0.09393988,-0.0023897109,0.31602672,-0.21202372,-0.0029554956,0.30827758,0.15726349,-0.14250629,-0.086869575,0.11521059,-0.040414397,-0.28051543,-0.053649634,0.11199193,0.09547918,0.1839535,0.081477284,0.041687712,-0.0023317197,-0.19995637,-0.016665619,0.24007276,0.11198141,-0.10790134,0.18365535,0.12330631,-0.0676474,0.12931925,0.20520419,-0.008057574,-0.11893324,-0.06376912,0.1508568,0.22716826,-0.15628864,0.012335087,0.13293792,-0.21984701,0.067421935,0.2879675,-0.11431767,0.07448697,-0.14695475
0.018945303,0.006893715,-0.29822358,-0.0007940547,0.22376545,0.011353448,-0.28574908,-0.030778194,0.15870564,-0.15535249,-0.032713942,-0.046124954,0.20247109,0.11405083,0.018693766,0.20671931,0.13483712,0.28956294,0.14488237,0.19209282,-0.1036471,0.13593802,0.15094565,0.12231262,0.035108514,-0.21419086,-0.065646715,-0.08657106,0.128637,-0.17030059,-0.19975016,0.08510332,-0.05132506,0.072236806,-0.13049997,0.19873184,0.17497738,0.26313865,-0.15218134,-0.03183696,-0.039118093,-0.1266868,0.18454698,-0.12887749,-0.08802713,-0.08983894,-0.05443843,0.25035852,-0.09351469,-0.13805425,-0.047706973,-0.074268706,-0.06611809,-0.028547538,0.09366436,0.024172328,-0.006609066,-0.120031446,0.031924017,-0.02805512,0.15311243,0.05234391,-0.053724777,-0.21365154,-0.0073271366,0.072466396,-0.09056772,-0.011635723,-0.22596075,0.036532503,0.18235357,0.20410888,0.025393175,0.0036351332,0.039695133,0.11722998,0.10366125,0.22173285,-0.23360266,0.26346415,-0.0834116,-0.23362347,-0.09110931,-0.054266736,0.103350386,0.1176981,0.045034245,0.0639981,-0.27603996,-0.030610977,-0.12231191,-0.03559169,-0.19631596,0.10690845,0.24628697,0.1445471,0.21646959,-0.15821312,-0.12744883,-0.058382623
