0
-0.0040259934
0.010100929
0.0043873205
-0.011176778
0.00067918637
-0.027315376
-0.0003118778
-0.008955522
0.004365964
-0.009301128
-0.011245695
-0.013429095
0.009135739
0.0035405639
0.011302918
-0.002088047
-0.016623084
-0.00048164275
0.00028478983
-0.010629521
-0.0032246902
-0.0048346063
0.0004925116
-0.055046026
-0.0035036926
0.01445495
0.008138726
0.0056660357
0.0028178478
-0.0020981869
-0.010537927
-0.009171055
-0.018437918
-0.01860525
-0.0210436
-0.012334317
-0.015989797
-0.007989666
-0.0019370882
0.0028761334
-0.0056851865
-0.01108968
-0.005878361
-0.0016030498
-0.005595382
-0.011687255
0.00049350125
-0.04023648
-0.0054204124
-0.033832166
-0.0079955
0.011359345
-0.018340198
0.0058272863
-0.006564509
0.02343628
-0.0073441043
-0.007026803
-0.011301153
-0.028095435
-0.008740857
-0.0024396474
0.0070905937
-0.039016742
-0.004544671
0.00491543
0.017168958
-0.0028063636
-0.0092204865
-0.012496395
-0.01863623
-0.0013875297
-0.0016043391
-2.1351902e-05
-0.0062830793
0.005631636
-0.009778681
0.00010575725
0.008683642
0.012745726
-0.00971817
-0.0059404904
-0.0035094486
-0.0125892
-0.0065107546
-0.001353678
-0.004567937
-0.013114988
-0.020532958
0.0013878488
0.005585441
-0.0048671565
-0.0015800792
-0.002992539
0.00046830915
0.009487745
-0.0075404164
-0.013831291
0.00030811486
-0.018416192
