0
0.0071133245
-0.01884321
0.01157415
0.026061945
-0.004691598
-0.0013432093
-0.012493279
0.007882074
0.0019456289
-0.019628042
-0.0027593148
-0.01600054
-0.0013938283
0.004101244
-0.030160757
-0.0051991725
-0.023528336
0.004178615
0.005358917
-0.003476264
-0.0077506653
-0.0031209313
-0.0027916061
0.0052436865
-0.0025295734
-0.0053792438
-0.004834798
-0.00049436366
-0.004789104
0.0152181545
-0.025279373
0.0022646787
0.011554749
0.036355764
0.001919669
0.0019196358
-0.0043418286
-0.017310118
-0.00032759586
-0.012034684
0.016818771
-0.010107795
-0.018959554
-0.022704361
0.007698671
-0.027793305
-0.022916019
0.010857061
-0.00586366
0.008071825
-0.015517912
0.009444944
0.00950081
-0.0003092633
-0.0064177727
0.00039732977
-0.015391243
0.0016357971
-0.014666917
0.0009050168
-0.030764777
-0.024838788
0.00055992976
0.00012245569
-0.017769972
-0.02670693
-0.013746634
-0.014718104
-0.0053381207
0.0062988126
0.0019697347
-0.010581842
0.0038372837
-0.016159754
-0.0096087055
0.00048773934
-0.00046661895
0.00019290933
0.0051429584
-0.005139187
-0.0010417406
-0.0029764848
-0.013033284
0.0066857757
-0.027245631
-0.006117192
-0.012928213
-0.004362492
0.0020263384
-0.02869086
-0.027346695
-0.0037835522
-0.02571514
-0.0023055372
-0.009287958
-0.009001033
-0.005342464
-3.0442607e-06
0.0035907421
-0.023078928
