0
0.025185626
-0.044510704
-0.014853008
0.019061763
0.009356828
-0.027099933
-0.022252316
0.0069866213
0.03364857
-0.043416936
0.017783843
-0.060740948
-0.004431155
0.01372183
-0.045924317
0.014097639
0.009568119
0.02162058
-0.0039973236
-0.026858278
-0.00906695
-0.033994805
0.0045619826
-0.051683135
-0.029662585
-0.020292526
-0.04054016
-0.011365902
0.006846176
-0.022833299
-0.00652562
-0.009483075
-0.0023818703
-0.049473602
0.051204942
-0.03716109
-0.053821146
-0.047438145
0.01532778
-0.007257828
-0.000110184876
0.017277302
-0.052710406
-0.0072954893
-0.029384578
-0.050704043
0.03740652
0.018735463
-0.013123928
-0.019814888
-0.015450243
-0.020003079
0.014211025
0.029944384
0.04971675
-0.044181466
-0.008317396
-0.056427643
-0.033031557
-0.06338488
-0.06690214
-0.041079402
-0.029357938
-0.051684864
-0.018147582
-0.0072599156
-0.026696002
-0.0014910685
-0.030941926
-0.0057994965
0.029754974
-0.021636926
-0.0752731
0.0018534712
-0.044626676
0.02111334
-0.056050736
-0.003222378
0.056802686
-0.025993928
0.009338651
0.001471121
0.026628142
-0.05088832
-0.006703766
-0.016849406
-0.025615534
0.028824413
0.033839848
-0.042328294
-0.04597103
0.015138607
-0.03531596
-0.024923772
-0.011145466
-0.037811674
-0.00033815662
-0.0017642844
0.057881
-0.04388276
