0
-0.020042403
0.003665569
-0.008687795
-0.009803527
0.0037249585
-0.009390536
-0.021338457
-0.020113138
-0.007958171
-0.018855687
-0.017800141
0.0042676595
-0.010297495
-0.005579103
0.0084549645
-0.0119740125
-0.008537285
0.008597268
0.0020567055
-0.015281477
0.0011834527
-0.020476835
-0.0049077324
-0.022781972
-0.01435385
-0.018672267
0.0027017836
-0.008554068
0.015646012
-0.015371306
-0.023419298
-0.0014945059
-0.0048207436
0.012028719
-0.011022989
-0.015878158
-0.0039149825
0.00020740466
0.008923429
-0.0020278434
-0.010339679
-0.009094161
-0.0016563769
-0.017992461
-0.0086524
-0.01549504
-0.009100889
-0.0016273671
-0.0037180055
0.0124357175
-0.007677747
0.01769013
0.017268078
0.011237456
-0.0030723643
-0.0005189459
-0.016714457
0.0040916726
0.0049903686
-0.006007042
-0.013180409
0.023558784
-0.009846319
-0.0054804003
-0.011778017
-0.022459576
-0.010184075
-0.012074169
-0.008309239
-0.0046118973
-0.0114253005
-0.011872656
-0.011888026
0.013099977
-0.030649805
-0.01073977
-0.010148288
-0.02007864
0.0049093366
0.0064322436
-0.002589304
-0.023183687
-0.01576444
-0.015994081
0.005522019
-0.005607814
0.008406547
-0.019457981
0.013750634
-0.017997526
0.018570833
-0.015365532
0.012973986
-0.014691553
-0.023366353
-0.021916907
-0.0034750486
3.040157e-06
-0.012445993
-0.006760958
