0
-0.011503823
-0.0044629234
0.025656395
-0.028440429
-0.016627908
0.023668865
-0.0057846373
-0.021215377
0.0077463696
0.006640927
-0.026605127
0.011128063
-0.011937218
-0.003242735
0.0087375585
-0.023691032
0.029434422
-0.03503433
0.0053609614
-0.013134456
-0.021030018
-0.025675317
0.013913325
-0.015920682
-0.011393034
0.016951751
-0.006569255
-0.0011931055
-0.022414086
-0.011457873
-0.009123104
0.002808418
0.011491281
-0.035368074
-0.008757622
-0.011010784
0.013157519
0.005180793
0.0066387434
-0.017659763
0.019613191
0.0035995753
-0.0039561233
-0.0276155
0.0077496897
-0.007016476
-0.029438442
-0.009793079
-0.029680658
0.00203707
-0.020895313
0.016713183
-0.016424831
-0.0012325889
-0.0094804885
-0.024092207
-0.0016579981
-0.029981954
-0.0031522338
-0.019289425
-0.012328238
0.022421313
-0.0113791395
0.0150301205
-0.023783064
-0.011194012
-0.015014622
-0.02849621
-0.01677922
-0.0018046667
0.0023613502
0.016423767
-0.028082013
0.03205688
0.008929999
0.010716159
-0.015200688
-0.024347056
-0.0018955742
2.7921094e-05
-0.013142172
-0.010004361
0.016530868
-0.0060441094
-0.015041744
-0.020350019
-0.023542296
0.0010439659
-0.009731529
-0.027339851
0.012606671
-0.013716381
-0.034253415
-0.007871693
-0.04156775
-0.015925834
-0.004642625
0.022481441
-0.00030557968
0.025879353
