0
0.009593054
0.0009146301
-0.0113166375
0.0040897457
0.002704161
-0.0026717777
0.007407707
-0.012554583
-0.016022932
-0.0031999236
0.0037180006
-0.0013862471
0.0011068524
-0.0021058242
0.0028243412
-0.0028474724
-0.027018873
0.009235999
0.0031633484
0.00034419732
-0.010100956
-0.008621042
-0.012468679
-0.005248609
0.006080557
-0.0061330306
-0.01627985
-0.017935293
0.004493319
0.0022064107
-0.027721953
-0.0130657265
-0.0119632315
0.005550761
-0.0090101715
-0.016485868
-0.009615015
-0.004050836
-0.010176934
0.005160004
0.0046281507
-0.0061163297
-0.013275187
0.016283028
-0.0055989786
-0.0065109604
0.0010456069
0.011749873
0.0068468302
0.00065419584
-0.0026542956
0.017374137
0.0032279408
0.006303901
-0.015246406
-0.003153758
-0.017286148
-0.0039380305
-0.011863815
-0.011730484
0.005451485
-0.010390139
0.006315551
0.0041169105
-0.0019089438
-0.0010007714
-0.007968561
0.011944609
-0.016497472
-6.1296356e-05
-0.0037654836
-0.011174942
-0.0020785863
-0.0202814
-0.0041706883
-0.017293207
0.00065930805
-0.0089847585
-0.0067839986
-0.007200913
-0.004396193
0.004524232
-0.015818672
-0.011527147
-0.0074159047
-0.011730091
0.0003233352
-0.03272824
-0.00095533027
-0.0029030642
-0.01417241
-0.003647772
0.021344667
-0.034552105
-0.020952407
-0.0043784976
-0.019336978
-0.010206657
0.005808726
0.021400437
