0
-0.00744448
-0.012354078
-0.007971678
-0.044582497
-0.04230544
-0.015428732
-0.007050174
-0.0062203184
-0.035085253
-0.012372628
-0.03275882
-0.03746145
0.01261578
-0.030056814
0.011175841
-0.038664073
-0.022629742
-0.053825665
-0.0005520476
-0.040548116
0.010175052
-0.002180369
-0.036006693
-0.030500326
0.03463406
0.016709467
0.024074689
0.03946725
-0.032725472
-0.04351494
0.0005989004
0.026571471
-0.047087226
-0.035171937
-0.012342176
-0.03043998
-0.021877129
0.010578505
0.0031448624
-0.0076318583
-0.023576448
-0.016251782
0.029336296
-0.020433867
0.0506928
-0.0037325749
-0.017515948
0.0023568105
0.0055450313
-0.007319008
0.0038296636
-0.007803269
-0.035018347
-0.023828285
-0.04701858
-0.0046829456
-0.00712101
-0.06116715
0.024045307
-0.009858492
0.0042926054
0.014366162
0.010900675
-0.04468573
-0.009638455
0.036855403
-0.058029246
0.003350374
-0.009275364
0.028670592
-0.017103713
-0.0180125
-0.016626896
0.004824316
0.003755896
-0.02911906
-0.053341508
-0.04794944
0.03283938
-0.040223215
-0.037882164
0.005440107
-0.03712619
-0.019707713
-0.029464582
-0.018794956
-0.001995494
-0.011339293
-0.040522765
0.032310314
-0.043398675
0.013990559
-0.013871718
-0.004314669
-0.035933573
-0.07543917
-0.051859755
-0.024210744
-0.019039491
-0.015853561
