0
-0.032298468
-0.06052029
0.018598493
0.029155651
-0.0799562
-0.047766197
-0.028472211
0.0109886825
0.007057877
-0.016822541
-0.01137191
-0.03500999
-0.068490386
0.02529491
0.028533708
-0.040800683
0.010665211
-0.060412496
0.015719144
-0.02160027
-0.043066505
-0.035670485
-0.01525622
0.020256637
0.010161982
-0.0067105177
0.03141364
-0.03145923
0.010695205
0.029102555
-0.031661015
0.009696469
0.008697221
-0.058520142
0.017447693
-0.013891304
0.078398705
0.027535032
0.036223844
-0.021979837
0.022991465
-0.003625819
0.016195336
-0.018451462
0.019535592
-0.039958343
-0.013355579
-0.06652446
0.035228536
-0.044572316
-0.022179227
-0.01531657
-0.019909088
-0.013474318
-0.054340098
-0.05111022
-0.036937214
0.06778182
0.019368993
0.0016902381
-0.038338177
-6.2654144e-05
-0.040784363
-0.03186428
0.01622787
-0.0373661
-0.061233964
0.013125612
-0.02132065
-0.06310349
-0.06441191
-0.01109994
-0.026046332
-0.04946183
-0.04848952
-0.024119342
0.00074223103
-0.08119626
0.046106476
-0.03219545
0.0033721114
-0.043602224
-0.10190421
0.03236349
-0.06145581
-0.004756578
-0.014024654
-0.04449411
0.003688376
-0.00043408142
0.010366172
-0.0224912
0.036416784
0.04924621
-0.014260101
0.021722645
-0.04785536
-0.031411543
-0.060160566
-0.022180036
