0
0.0018081587
0.0034354706
-0.0107156485
-0.0025471959
-0.004345408
0.008645961
-0.03508903
-0.0012923584
0.0034150297
0.008128369
-0.0017014121
-0.0104788495
-0.011478512
0.020042723
-0.003207673
0.0035431187
0.004444234
-0.0010907594
-0.020950017
-0.008389678
-0.005150618
-0.004856088
-0.0037561564
-0.0055062547
-0.0096315155
-0.01280586
-0.010443298
-0.0055931257
-0.01110487
-0.017556537
-0.038033582
-0.020632947
-0.033576544
0.005582442
-0.017715778
-0.0081786355
-0.010934528
0.006574783
-0.006184453
-0.0017877906
0.012012926
-0.011506339
-0.017661897
0.008454692
-0.032018676
0.008353982
-0.0069221077
-0.008985396
-0.017595924
-0.0024092568
-0.0143937515
0.0018224776
-0.015791707
-0.038669545
-0.008496767
0.019870523
0.007799392
-0.020448724
-0.015752856
-0.006147175
-2.9689705e-05
-0.017254397
-0.00045405803
0.0032766573
-0.0047258167
-0.014819043
-0.0114271715
-0.02200315
0.015740445
-0.008746474
-0.0005209405
0.0012228867
-0.0130217895
-0.023476966
-0.013676645
-0.005162264
-0.0017463078
-0.010811627
-0.010983004
0.0025249033
0.0018995937
-0.014224936
-0.0016118299
-0.0059933714
-0.022049807
-0.0011460744
-0.0015463002
-0.0020084775
0.021440202
-0.013274502
0.0143143
0.012137007
0.0025817698
-0.010100053
0.0044661635
-0.0058534862
0.0071529006
-0.005761436
-0.026944684
-0.025034705
