0
-0.0077976417
-0.013014358
-0.0084208725
-0.014532733
-0.007968561
-0.006255662
-0.00681823
-0.033779837
-0.0056880205
-0.005552394
0.00029085437
0.014989644
-0.025622364
-0.014658499
-0.002483289
-0.03346838
-0.02419339
-0.012350208
0.0051741367
0.006367641
-0.014152878
-0.00026885731
-0.004687276
-0.007773301
-0.008837229
-0.022435907
0.01529512
-0.012302385
-0.0023271732
-0.009018477
-0.015066455
-0.02332117
-0.023157036
-0.015529125
-0.0076146396
-0.0048581255
-0.0013084208
0.014784924
0.00469684
-0.0067052525
-0.013589712
-0.003659989
-0.023609862
-0.03479085
-0.004842588
-0.017016347
0.0069408864
-0.0158409
0.016021542
-0.019846229
0.010126444
-0.041105293
-0.011427503
-0.017953217
-0.014514528
0.011307335
-0.0049419603
0.00054803287
-0.0146080265
0.00025500194
-0.005299971
0.0010609964
-0.011054159
-0.009042086
-0.004958534
0.00731473
-0.012606488
-0.0012379424
-0.0047352626
-0.021624165
-0.015092529
-0.022910086
-0.00040402618
-0.027306378
0.013548623
0.00200952
-0.00871241
-0.010493749
-0.0053914064
-0.009721644
-0.005331476
-0.009974483
-0.02706683
0.0018043498
0.018338919
-0.0055069486
0.0006282133
-0.0053805625
-6.446494e-05
-0.005573078
-0.02037555
-0.018734066
-0.012280037
-0.016160067
0.0085618375
-0.0091091795
-0.009685736
-0.0007383074
-0.006605557
-0.016063256
