0
-0.007854687
-0.023395035
-0.0279021
-0.017561395
-0.026451731
-0.013746055
-0.007378445
-0.001676566
-0.03155619
-0.012213698
-0.015761968
-0.010025745
-0.02059628
-0.042930435
-0.0067840875
-0.016297285
0.03215972
0.02718569
-0.007462218
-0.031306893
0.02407676
-0.007851878
-0.04668209
-0.009839747
-0.04097258
-0.018000027
-0.02714535
0.012550789
0.015156684
0.040843025
0.009588417
-0.031854615
-0.027770277
-0.013110957
0.0032375846
-0.028103385
0.0034054648
-0.0005798385
-0.024634177
-0.036069345
-0.025694255
-0.006518428
-0.004933163
-0.006449207
-0.032951377
-0.04020264
-0.005212293
-0.031871673
-0.026023125
0.00932734
-0.02232925
-0.047441863
-0.007992293
-0.021944337
-0.018242855
-0.013803803
-0.02338721
-0.0002280198
-0.042387463
-0.032336377
-0.03989776
-0.019528694
-0.006973669
0.0028649895
0.030183397
-0.0019667186
-0.014623968
-0.029798359
0.005661458
-0.025134388
-0.0281002
-0.008955208
0.023753207
-0.037388053
-0.027322797
-0.01779682
-0.030249808
-0.022446308
0.011908198
-0.025216214
0.002775661
-0.011310035
-0.009462309
0.0054449197
-0.031669166
-0.036689956
-0.027417397
0.0064508957
-0.04240828
-0.025918912
-0.008612328
0.0048960135
-0.052990768
-0.030795347
-0.038199708
-0.034620617
0.01820726
-0.012710299
-0.0004700974
0.0023625754
