0
0.009583759
-0.007802461
-0.0016428423
-0.015861062
-0.006659506
0.006568677
-0.012739542
0.023232665
-0.026810734
-0.0016626386
-0.011418625
-0.006390472
-0.0067749606
-0.04904293
0.014590806
0.019806592
-0.00047386935
-0.017348608
0.0063541424
-0.01981049
-0.0043119173
0.0013972142
0.0067076944
-0.00604956
0.0034633637
-0.0016225323
0.008862325
-0.012681269
-0.01409587
-0.03384739
-0.021903222
-0.019305533
-0.009596878
-0.0076455376
-0.016696405
-0.032094248
-0.004302704
-0.001062941
0.00029137896
0.004214742
0.015240272
0.013386876
0.01865968
-0.004921397
-0.012719949
-0.0016120634
6.8025685e-05
-0.021133818
-0.012180503
0.0038486891
0.01292123
-0.0029528076
-0.0010806504
-0.0032541784
0.005386386
-0.020190211
0.0132338265
-0.013857586
-0.015033488
-0.024661547
-0.0044060387
-0.0057437
0.0017174525
0.01905421
-0.01019135
-0.006968029
0.0034672122
-0.008535
0.004053972
0.0002391027
-0.0114043355
-0.009339305
0.009632691
-0.021119038
0.004048541
-0.025381682
0.0030310145
-0.014387766
-0.012101327
-0.009586002
-0.011253775
-0.01933466
0.003866555
-0.013432926
0.0050375327
-0.0051488406
-0.021438638
-0.010802686
-0.005164798
-0.015657127
-0.017094363
0.008453246
-0.014616392
0.016057476
-0.025016835
-0.00996893
-0.0207419
0.0004010729
0.0007431193
-0.016136386
