0
-0.008055049
0.004068209
-0.009289063
-0.0050452375
0.0058025145
-0.013100044
-0.019009653
0.004984433
0.006236941
-0.0011852944
-0.0014638854
-0.007739646
0.008756182
-0.0014519978
0.012068984
-0.01098488
0.002085508
-0.0368266
-0.00957301
-0.009437475
-0.014559161
0.022299541
-0.008042376
-0.019676542
-0.015001786
-0.0042470945
-0.021203427
0.012049986
-0.009117175
-0.013006632
-1.298546e-05
-0.009587393
-0.00035472866
0.008844625
-0.012549907
-0.02153248
-0.008203888
-0.015607529
-0.019103875
-0.030843182
-0.013111636
-0.021442724
-0.008195191
-0.012320779
-0.008053148
-0.016154775
0.016815688
-0.006857115
-0.005398294
-0.009083484
-0.023704438
-0.011673509
-0.0054397257
0.0037725675
0.0136556905
-0.009476021
-0.01046534
-0.005073011
0.004637927
-0.015083716
-0.016692664
-0.006465574
0.0072979545
-0.021099705
-0.0064432723
-0.00786485
-0.014722822
-0.0028216734
-0.019271227
0.008281098
-0.022599004
-0.0020718928
-0.01638511
0.011391005
0.005599796
-0.016069736
0.0054051126
-0.009224497
0.0029752878
-0.0021706873
0.0053428714
0.006228835
-0.01702505
-0.003753928
-0.031823806
0.010722534
0.00043459513
0.0064714053
-0.009704139
-0.007908941
-0.0038202344
-0.0075053736
-0.02325913
-0.0116248
-0.0005812735
-0.016529873
-0.006089274
-0.024492022
0.019700209
-0.026155982
