0
0.035276063
0.005039751
0.003705193
-0.0014533966
-0.01326573
-0.037400015
-0.03369127
-0.02854895
-0.0010584281
-0.008886362
-0.012014034
-0.049532462
-0.021312114
0.050185613
-0.0803787
0.04611844
0.048738606
-0.024844838
-0.061323665
0.041690152
0.03218502
0.055039566
0.054135654
-0.034769174
0.010689124
-0.0023425943
-0.030940218
-0.059597187
-0.005455296
0.025407871
-0.04794761
0.0149774905
0.035714224
-0.016101718
-0.0083224
-0.012058957
-0.046197925
-0.0054375054
0.034450144
-0.0045445752
-0.060938817
-0.033518612
-0.037566688
0.02098142
-0.056690004
-0.04128141
-0.045227338
-0.03244035
0.032425806
-0.034941502
-0.0044184923
-0.010093224
0.0012171436
0.048956692
-0.028783182
-0.03537545
0.009260187
0.006951002
0.015393861
-0.016554976
-0.034283604
0.032847926
0.02781958
-0.024711583
0.0017391045
0.019648843
-0.0033011157
0.050857432
0.0026458292
-0.01346183
0.0019368636
-0.0041961977
-0.018564349
-0.018781284
-0.023628952
-0.008683937
-0.021523565
0.000991372
0.014672581
0.025767243
-0.0375671
-0.044082437
-0.025136583
0.0048914114
-0.045883007
-0.0047905357
-0.024613528
-0.033439953
-0.028257139
0.007369732
-0.044330113
0.03003488
-0.0036493302
-0.017618319
0.0074622706
-0.03134457
-0.061813112
-0.050138596
0.033839278
0.03066978
