0
0.0021127723
-0.015325248
-0.016875975
-0.0029726839
-0.0036492732
-0.0016547854
-0.0034070304
-0.016042646
0.008662757
-0.004434678
-0.005314118
-0.01569439
-0.018466692
-0.006759304
-0.0073438487
-0.00057884015
-0.0033664159
0.0026772532
-0.00908267
0.0015202106
-0.012147381
-0.024644691
-0.027904024
-0.0077637276
-0.013301686
-0.015301232
-0.004293048
-0.004451894
0.010614378
-0.024359617
-0.0107133705
0.009335404
-0.01006883
0.009319276
-0.007187458
-0.004994976
-0.036456395
-0.0039628507
0.005302853
-0.007995638
-0.025126146
-0.0058627976
0.0013550074
-0.006837445
-0.0031485667
-0.018070485
-0.021980686
-0.008366847
-0.009796504
0.0056284526
-4.2989865e-05
-0.011443718
0.007295709
-0.013824663
-0.004311798
-0.0054574725
-0.003234537
0.0017864098
0.002972606
0.005618817
-0.0022817748
0.00070791994
-0.0053737313
-0.005718079
0.0006032124
-0.01972761
-0.0034586778
-0.030291047
-0.019621858
-0.015863348
-0.015634406
0.014989835
0.00022935275
-0.00023046506
-0.004853357
0.0018301178
-0.017408896
0.0038591316
-0.015082079
0.010636491
0.023599762
-0.006107346
0.011993977
-0.024151225
-0.018521504
-0.033369187
-0.011532363
-0.017473515
0.01534995
-0.004563176
-0.011625879
0.0010079752
0.021319065
-0.007054021
0.0060879416
-0.037137106
-0.011350283
-0.0021823375
0.00733646
0.019698853
