0
-0.005461343
0.018175902
0.004322993
-0.010176539
-0.0007993519
-0.018839145
-0.008384315
0.013527166
-0.024080846
-0.016805395
-0.0052118376
-0.0015773617
0.004385513
0.008997395
0.0054333596
0.005489174
0.00039416223
-0.0035117634
-0.0033817538
0.0041660867
0.016005477
-0.0005375493
-0.0039607706
0.01333487
0.004680545
-0.0050344584
-0.009818948
0.0020326914
-0.010962186
-0.011246684
0.004548103
-0.0052715433
-0.0050087734
0.0026269984
-0.011842243
-0.00960494
0.0073087853
-0.004634107
-0.0049314504
0.0052048876
-0.00892187
-0.017360725
-0.007408619
-0.0073604886
0.00093662005
-0.008055064
-0.0013487878
-0.010013488
-0.011623052
-0.025416004
-0.004040189
-0.01475196
0.02545507
-0.0025122545
-0.019775596
-0.0038473129
-0.009730867
0.020849288
-0.008880158
-0.00370258
-0.00952344
-0.0043337457
0.003596703
-0.010078546
-0.008454741
0.0018711077
-0.0013229891
-0.0047907694
-0.011674958
-0.0015742998
-0.014139809
-0.006088934
-0.002036526
0.00020296684
-0.019434556
-0.025651557
-0.017747512
-0.0061769513
-0.003378469
-0.02125039
-0.00483679
-0.005360679
-0.027503958
0.003954242
0.00091172324
-0.007948898
-0.028302204
-0.0010469845
-0.001845548
0.00027083803
-0.016183745
-0.0033825275
-0.0015107647
-0.007916763
-0.0020805593
0.0019262858
0.003000353
-0.011387646
-0.0006348897
0.002487285
